############################################################################
## Copyright (c) 1996, Carnegie Mellon University, Cambridge University,
## Ronald Rosenfeld and Philip Clarkson
#############################################################################
=============================================================================
===============  This file was produced by the CMU-Cambridge  ===============
===============     Statistical Language Modeling Toolkit     ===============
=============================================================================
This is a 3-gram language model, based on a vocabulary of 26 words,
  which begins "a", "b", "c"...
This is an OPEN-vocabulary model (type 1)
  (OOVs were mapped to UNK, which is treated as any other vocabulary word)
Good-Turing discounting was applied.
1-gram frequency of frequency : 0 
2-gram frequency of frequency : 21 11 7 9 8 4 4 
3-gram frequency of frequency : 824 450 320 241 185 170 142 
1-gram discounting ratios : 
2-gram discounting ratios : 
3-gram discounting ratios : 
This file is in the ARPA-standard format introduced by Doug Paul.

p(wd3|wd1,wd2)= if(trigram exists)           p_3(wd1,wd2,wd3)
                else if(bigram w1,w2 exists) bo_wt_2(w1,w2)*p(wd3|wd2)
                else                         p(wd3|w2)

p(wd2|wd1)= if(bigram exists) p_2(wd1,wd2)
            else              bo_wt_1(wd1)*p_1(wd2)

All probs and back-off weights (bo_wt) are given in log10 form.

Data formats:

Beginning of data mark: \data\
ngram 1=nr            # number of 1-grams
ngram 2=nr            # number of 2-grams
ngram 3=nr            # number of 3-grams

\1-grams:
p_1     wd_1 bo_wt_1
\2-grams:
p_2     wd_1 wd_2 bo_wt_2
\3-grams:
p_3     wd_1 wd_2 wd_3 

end of data mark: \end\

\data\
ngram 1=27
ngram 2=556
ngram 3=6226

\1-grams:
-99.0000 <UNK>	0.0000
-1.0948 a	-99.9990
-1.8543 b	-2.4583
-1.5435 c	-1.4720
-1.3761 d	-1.6391
-0.8934 e	-99.9990
-1.6013 f	-1.4144
-1.7301 g	-1.1869
-1.2488 h	-1.6671
-1.1708 i	-99.9990
-2.9827 j	-2.3668
-2.1567 k	-1.5789
-1.3804 l	-1.6348
-1.5905 m	-1.4251
-1.1714 n	-99.9990
-1.1136 o	-99.9990
-1.7580 p	-1.8271
-3.0182 q	-2.4893
-1.2265 r	-1.7885
-1.2050 s	-1.7108
-1.0458 t	-1.8699
-1.5021 u	-1.0954
-1.9777 v	-3.3293
-1.6086 w	-1.3080
-2.6639 x	-2.0766
-1.6901 y	-1.2268
-3.2550 z	-2.0017

\2-grams:
-2.7068 a a -1.1162
-1.5278 a b -1.3977
-1.3853 a c -1.0799
-1.3042 a d 1.0231
-3.1839 a e -0.9701
-1.8260 a f -1.7788
-1.6386 a g -1.3684
-2.2648 a h -1.1407
-1.4231 a i -2.0239
-3.2297 a j -0.6596
-1.7185 a k -1.2539
-1.1008 a l 0.8154
-1.5419 a m -0.1836
-0.7217 a n -0.0538
-2.4357 a o -1.7710
-1.5770 a p -1.0196
-3.0700 a q 0.6726
-0.9652 a r -0.1664
-0.9270 a s 0.3397
-0.8618 a t 0.0656
-2.0750 a u -1.3660
-1.4471 a v -0.5493
-1.8796 a w -0.6463
-3.0870 a x -1.0319
-1.6306 a y 0.4343
-2.7947 a z -1.1362
-1.2189 b a -1.5967
-2.2354 b b -0.9813
-3.2496 b c -0.3819
-3.2496 b d -0.4151
-0.5012 b e -1.4151
-3.2496 b f -0.3961
-3.2496 b h -0.4093
-1.4988 b i -1.3038
-2.0933 b j -1.4492
-0.8280 b l -2.4651
-3.0278 b m -0.5539
-3.0278 b n -0.6078
-0.8730 b o -1.2987
-3.4257 b p -0.2493
-1.3101 b r -2.0528
-1.5744 b s -1.3280
-1.6195 b t -0.6893
-0.9801 b u -1.8920
-3.4257 b v -0.2504
-1.0621 b y 0.0799
-0.9381 c a -1.8580
-2.9954 c b -0.6275
-1.7125 c c -1.5461
-3.1337 c d -0.6542
-0.7252 c e -0.7589
-2.8907 c f -0.8877
-2.9576 c g -0.9134
-0.8365 c h 0.2857
-1.3740 c i -1.8149
-3.7358 c j -0.2989
-1.3404 c k -0.6502
-1.0903 c l -2.5128
-2.8327 c m -0.6814
-3.1337 c n -0.7790
-0.7622 c o -1.6307
-2.5597 c p -0.9483
-2.9954 c q 1.0462
-1.2909 c r -2.3112
-2.5183 c s -0.7185
-1.0811 c t -0.0553
-1.4468 c u -1.8538
-3.5597 c v -0.3746
-2.8607 c w -0.2515
-2.3647 c y -1.1541
-1.0351 d a -0.4900
-1.4510 d b -1.5955
-1.7790 d c -1.6486
-1.6195 d d -1.9761
-0.8197 d e -0.7844
-1.6264 d f -2.1825
-2.0249 d g -1.7714
-1.4747 d h -1.7959
-0.8757 d i -0.9911
-2.8059 d j -0.5571
-2.7267 d k -1.0136
-1.7430 d l -2.0273
-1.3483 d m -2.1054
-1.5879 d n -2.3422
-1.1139 d o -1.4340
-1.8796 d p -1.5703
-2.9028 d q 1.2636
-1.4937 d r -2.2192
-1.2140 d s -0.1949
-0.9714 d t -2.2792
-1.5644 d u -1.2399
-2.0278 d v -0.3370
-1.3465 d w -1.8966
-1.8182 d y -0.5594
-1.0060 e a 0.8048
-1.8719 e b -1.4139
-1.4085 e c -1.7723
-1.0036 e d 0.5213
-1.4152 e e -0.3910
-1.5998 e f -1.8290
-1.8157 e g -1.7008
-1.6857 e h -2.0704
-1.4713 e i -0.8814
-2.8868 e j 0.3278
-2.6447 e k -0.7421
-1.3307 e l -0.1973
-1.4504 e m -0.3920
-1.0512 e n -0.6245
-1.5278 e o -1.9552
-1.5969 e p 0.0347
-2.5927 e q -0.0059
-0.8575 e r 0.5247
-1.0161 e s 0.7047
-1.2362 e t -0.5289
-2.2193 e u -1.8743
-1.6455 e v -1.2015
-1.4185 e w -0.5968
-1.8562 e x -1.4492
-1.9942 e y -0.3453
-3.6447 e z -0.5080
-0.9605 f a 0.0349
-2.1159 f b -0.7060
-1.8521 f c -1.3509
-2.0654 f d -1.6012
-0.9757 f e -1.1479
-1.3367 f f -1.1462
-2.0871 f g -1.4987
-1.7050 f h -1.3904
-1.0088 f i -1.8723
-2.4740 f j -0.8786
-3.1341 f k -0.4485
-1.4541 f l -2.0622
-1.6175 f m -1.6116
-2.1939 f n -1.6303
-0.8380 f o -2.3316
-2.0298 f p -1.0461
-3.6782 f q 1.7865
-1.2173 f r -2.3302
-1.5305 f s -0.8855
-0.7191 f t -0.3597
-1.3664 f u -1.7719
-2.3071 f v 0.1670
-1.6156 f w -1.3973
-2.3357 f y -1.2500
-0.9349 g a -0.7277
-1.9643 g b -0.8922
-1.9423 g c -1.2300
-1.9643 g d -1.5739
-0.9044 g e -0.1354
-1.9477 g f -1.5081
-1.6281 g g -0.9825
-0.8166 g h -1.0064
-1.1003 g i -1.5383
-3.1519 g j -0.2794
-3.1519 g k -0.3072
-1.3914 g l -2.0506
-1.7141 g m -1.4380
-1.6386 g n -1.8066
-1.1160 g o -0.9624
-2.2074 g p -1.1061
-3.3737 g q 1.6104
-1.0494 g r -2.3697
-1.4599 g s -0.2738
-1.1390 g t -1.8607
-1.2015 g u -1.7173
-2.6467 g v -0.2634
-1.6360 g w -1.2541
-2.1976 g y -1.1026
-3.2488 g z -0.5653
-0.7388 h a -1.2008
-2.3866 h b -0.7871
-2.4016 h c -1.1532
-2.6321 h d -1.3726
-0.3643 h e 0.7193
-2.2976 h f -1.6385
-2.7183 h g -1.2261
-2.0856 h h -1.3618
-0.8400 h i -1.5370
-3.3768 h j -0.5144
-3.5529 h k -0.5029
-2.4737 h l -1.4237
-2.1379 h m -1.4252
-2.7870 h n -1.3812
-1.0770 h o -1.5106
-2.6068 h p -1.0521
-3.3768 h q 1.1333
-1.8511 h r -2.0208
-2.0569 h s -0.9296
-1.2753 h t -0.0271
-1.7247 h u -1.9712
-3.1550 h v 0.6630
-1.9029 h w -1.5035
-2.1297 h y -0.8279
-4.0300 h z -0.0375
-1.7606 i a -1.3151
-1.8146 i b -1.7718
-1.1343 i c 0.2850
-1.3162 i d 1.1111
-1.4294 i e -2.0171
-1.6426 i f -1.1834
-1.4368 i g -1.8981
-2.0234 i h -1.5814
-2.9940 i i -0.7552
-3.6308 i j -0.5144
-1.9526 i k -1.5589
-1.3173 i l 0.2048
-1.4155 i m 0.2183
-0.5970 i n -0.8660
-1.1992 i o -2.1616
-2.2271 i p -0.1443
-2.9466 i q 0.6251
-1.4962 i r 1.4406
-0.9038 i s 0.3925
-0.9055 i t -0.4168
-2.7755 i u -1.2126
-1.7616 i v -1.4665
-1.9940 i w -1.4904
-2.4899 i x -1.3635
-3.7100 i y -0.5652
-2.4177 i z -1.0920
-0.8967 j a -1.3627
-2.3032 j d -0.2297
-0.6597 j e -1.7376
-0.3974 j o -1.9825
-2.0022 j s -0.5142
-0.6265 j u -1.3134
-1.2089 k a -1.2438
-2.0646 k b -0.7595
-2.0646 k c -0.7516
-2.2802 k d -0.8613
-0.4551 k e -0.4187
-1.9492 k f -1.2455
-2.8243 k g -0.5615
-1.5938 k h -0.9727
-0.8386 k i -1.2311
-2.0646 k j -1.3028
-2.9492 k k -0.2181
-1.8823 k l -1.2376
-1.9078 k m -1.0426
-1.0064 k n -2.2929
-1.3545 k o -1.5752
-2.1476 k p -1.0584
-2.3472 k r -0.7154
-1.1275 k s -0.4413
-1.3191 k t -1.7214
-1.7731 k u -1.3930
-1.4919 k w -1.0099
-1.6940 k y -1.0631
-0.9845 l a -0.7514
-2.1168 l b -0.7417
-1.8794 l c -1.5439
-1.2196 l d -0.4389
-0.6869 l e 0.0943
-1.6210 l f 0.4975
-2.5094 l g -1.2785
-2.2084 l h -1.1315
-0.9850 l i -0.4958
-3.3545 l j -0.4052
-2.2965 l k -0.7555
-0.8749 l l 0.2728
-1.8794 l m -0.7881
-2.2753 l n -1.7692
-1.0186 l o -1.9961
-2.2453 l p -0.9389
-3.7225 l q 1.6104
-2.2502 l r -1.5344
-1.5032 l s -0.4422
-1.4407 l t -0.8494
-1.6630 l u -0.6914
-2.2084 l v -0.1522
-1.9467 l w -1.3282
-0.9947 l y 0.6858
-0.8041 m a -1.2033
-1.6320 m b -0.3033
-2.4714 m c -0.8400
-2.6889 m d -0.9747
-0.6318 m e 0.2488
-2.2117 m f -1.3832
-2.9485 m g -0.7840
-2.1448 m h -0.9853
-1.0323 m i -1.5678
-3.6889 m j -0.1839
-2.8438 m k -0.8508
-2.3367 m l -1.2196
-1.5902 m m -0.5681
-2.1638 m n -1.5102
-0.9085 m o -2.0681
-1.2110 m p -1.6852
-3.5128 m q 1.6104
-2.4714 m r -0.8820
-1.5817 m s -0.6133
-1.6377 m t -1.7234
-1.4661 m u -1.7929
-3.0868 m v -0.2548
-2.0031 m w -1.0260
-0.8188 m y 0.1175
-1.2280 n a -0.1104
-2.0945 n b -1.1030
-1.1779 n c -2.1342
-0.7770 n d 0.5725
-1.0283 n e 0.2269
-1.8978 n f -2.1156
-0.9517 n g -0.3048
-1.8096 n h -1.7390
-1.2862 n i -0.6910
-3.0282 n j 0.3789
-2.1831 n k -0.9357
-1.8297 n l -1.9498
-2.0053 n m -1.6678
-1.9884 n n -2.2040
-1.0192 n o -0.7556
-2.3402 n p -1.3022
-2.8521 n q 0.5312
-2.2911 n r -1.7046
-1.2211 n s -0.5759
-0.8101 n t 0.0905
-1.9032 n u -1.8785
-2.2944 n v 1.0114
-1.7289 n w -1.7187
-3.0282 n x -1.3252
-1.9046 n y -0.4582
-3.8063 n z -0.1851
-1.7402 o a -1.5689
-1.7949 o b -0.2869
-1.6702 o c -1.0834
-1.6627 o d -1.1462
-2.2357 o e -1.3629
-0.8626 o f -0.1014
-2.0315 o g -1.1781
-2.0613 o h -1.1672
-1.7795 o i -1.8515
-2.8641 o j -0.7613
-1.8460 o k -0.6851
-1.4652 o l -1.4225
-1.2137 o m -0.4386
-0.8462 o n -0.6095
-1.4888 o o -0.9824
-1.7671 o p -0.9095
-3.5119 o q 1.1333
-0.9451 o r 0.8323
-1.3990 o s -1.7787
-1.1844 o t 0.0480
-0.8440 o u -0.8227
-1.7501 o v -0.8769
-1.2719 o w 0.7776
-3.2620 o x -1.1086
-2.1257 o y -1.3430
-3.4247 o z -0.7778
-0.9496 p a -1.5106
-2.5676 p b -0.8107
-2.7089 p c -0.8385
-2.8686 p d -0.7404
-0.7000 p e -0.9267
-2.6468 p f -0.9387
-3.1239 p g -0.5153
-1.4373 p h -1.0212
-1.2352 p i -1.0294
-3.5219 p j -0.1839
-0.9981 p l -2.3912
-2.4427 p m -1.0716
-3.0447 p n -0.6870
-0.8343 p o -1.7832
-1.1471 p p -2.0322
-0.8207 p r -2.6384
-1.6298 p s -0.6286
-1.2901 p t -0.9651
-1.7157 p u -1.3525
-3.1239 p v 0.2054
-1.9840 p w -0.8781
-2.3177 p y -0.9107
-3.5219 p z -0.2643
-2.2636 q e -0.2557
-0.0036 q u -2.5227
-1.0113 r a -1.0332
-2.0031 r b -0.5680
-1.7189 r c -1.5215
-1.4049 r d -0.2359
-0.6055 r e -0.1408
-1.7910 r f -1.5156
-2.0070 r g -1.6584
-1.7793 r h -1.6654
-1.0334 r i -0.4673
-2.6812 r j 0.4550
-1.9879 r k 0.4588
-1.8455 r l -1.7059
-1.5694 r m -0.8193
-1.5810 r n -1.8546
-0.9695 r o 0.0823
-2.0169 r p -1.2960
-3.3991 r q 1.1333
-1.5759 r r -2.3343
-1.2923 r s -0.4497
-1.0827 r t -0.8087
-1.6579 r u -1.2734
-2.1306 r v 0.2658
-1.7416 r w -1.5853
-1.3371 r y 0.2724
-1.0484 s a -0.7165
-1.8270 s b -1.3369
-1.4273 s c -2.1049
-2.0464 s d -2.0158
-0.9351 s e 0.1673
-1.8173 s f -2.1575
-2.2642 s g -1.3039
-1.2431 s h 0.7223
-1.0278 s i -0.4431
-2.8307 s j 0.2151
-2.2045 s k -1.1295
-1.6723 s l -2.2688
-1.6630 s m -1.5964
-1.7505 s n -2.4535
-1.0011 s o -1.5933
-1.4905 s p -1.9809
-2.6344 s q 0.3472
-2.1006 s r -1.8559
-1.1099 s s 0.6328
-0.7337 s t 0.0477
-1.3748 s u -1.1472
-2.4303 s v -0.1054
-1.4293 s w -1.9847
-2.2779 s y -1.3304
-4.0737 s z -0.2971
-1.1960 t a -0.5519
-2.0553 t b -1.3212
-1.9824 t c -1.7752
-2.1342 t d -2.0871
-0.9842 t e -1.6516
-2.0685 t f -2.0704
-2.5252 t g -1.6220
-0.4755 t h -0.2044
-1.0053 t i -1.3937
-3.5796 t j -0.3277
-3.1359 t k -0.9561
-1.7514 t l -2.3102
-1.8749 t m -1.9180
-2.3297 t n -2.0412
-0.8977 t o -0.2492
-2.2983 t p -1.4695
-3.1025 t q 0.6562
-1.4819 t r -2.5357
-1.5156 t s -0.4069
-1.2861 t t -2.4151
-1.6101 t u -0.9886
-2.7856 t v 0.0909
-1.4762 t w -2.0969
-1.7682 t y -1.6451
-3.7557 t z -0.4274
-1.6632 u a -0.9679
-1.7126 u b -1.3236
-1.4804 u c -1.7789
-1.6436 u d -1.4367
-1.5206 u e -1.5063
-2.2586 u f -1.4096
-1.3809 u g -2.1402
-2.4653 u h -1.0815
-1.5123 u i -1.7924
-3.0367 u k -0.7824
-0.9699 u l 0.0500
-1.4367 u m -0.6686
-0.8202 u n -0.5738
-2.7559 u o -0.8765
-1.2733 u p 0.5409
-3.7771 u q 1.7865
-0.7691 u r 1.0443
-0.8570 u s 0.6765
-0.9082 u t -0.2696
-3.1750 u u -0.6954
-2.6632 u v -0.6710
-2.4761 u w -1.1511
-3.3792 u x -0.5797
-3.7771 u y -0.2545
-3.0367 u z -1.0025
-0.9993 v a -1.2699
-0.1490 v e 0.1535
-0.9581 v i -1.5936
-1.1825 v o -1.9343
-3.3015 v s -0.2603
-2.6025 v u -0.9508
-1.9493 v y -1.2050
-0.6289 w a -1.5929
-2.2906 w b -1.1567
-2.4534 w c -1.1557
-2.3384 w d -1.3209
-0.6265 w e -1.2917
-2.1725 w f -1.4044
-2.9719 w g -0.7285
-0.7251 w h -2.3630
-0.8694 w i -2.2623
-3.6708 w j -0.0788
-3.1268 w k -0.4174
-2.1865 w l -1.2758
-2.2010 w m -1.0874
-1.4547 w n -1.6186
-1.0639 w o -0.0100
-2.7958 w p -0.5461
-3.3698 w q 1.4855
-2.0225 w r -1.5856
-1.9633 w s -0.4683
-1.8135 w t -1.6953
-2.8579 w u -0.6735
-3.1937 w v 0.1625
-2.1206 w w -0.9267
-2.8927 w y -0.8915
-3.4948 w z -0.2136
-0.8717 x a -1.7416
-2.6238 x b -0.1365
-0.8914 x c -1.5653
-2.1466 x d -0.7434
-1.3566 x e -1.3399
-2.2258 x f -0.5735
-1.4334 x h -1.3070
-0.9248 x i -1.3080
-2.0797 x m -0.6458
-2.6238 x n -0.2574
-1.6238 x o -1.0165
-0.6325 x p -1.6577
-2.3227 x s -0.4671
-0.6348 x t -1.6286
-2.1466 x u -0.6253
-2.1466 x w -0.5124
-2.6238 x y -0.2959
-1.0197 y a -0.8409
-1.4007 y b -1.3291
-1.4876 y c -1.7246
-1.5328 y d -2.0453
-1.2014 y e -1.6789
-1.4529 y f -2.0391
-1.9269 y g -1.5521
-1.3938 y h -1.6132
-1.2327 y i -1.0891
-2.5685 y j 0.4369
-2.3466 y k -1.1430
-1.5623 y l -1.6782
-1.4405 y m -1.4577
-1.7032 y n -2.0246
-0.9413 y o -2.1597
-1.5385 y p -1.4489
-2.8907 y q 1.0875
-1.5542 y r -1.7333
-1.0358 y s -1.1467
-0.9931 y t -2.1572
-1.1583 y u -2.4590
-2.2279 y v 0.1763
-1.2552 y w -1.6748
-2.2572 y y -1.4586
-3.4136 y z -0.2136
-1.0911 z a -0.9075
-2.0453 z b -0.2530
-0.3420 z e -1.1857
-1.0911 z i -1.0512
-1.1159 z l -1.0698
-0.7666 z o -1.4963
-2.0453 z p -0.2551
-2.0453 z t -0.2423
-1.7443 z u -0.5211
-1.0676 z z -1.2042

\3-grams:
-1.3010 a a b 
-1.7782 a a c 
-1.7782 a a g 
-1.1761 a a l 
-1.7782 a a m 
-0.3468 a a n 
-1.4771 a a p 
-1.1761 a a r 
-0.9331 a a s 
-0.8239 a a t 
-1.6147 a b a 
-2.4800 a b b 
-2.9571 a b d 
-1.6147 a b e 
-1.2329 a b i 
-2.9571 a b j 
-0.4020 a b l 
-2.6561 a b n 
-0.4561 a b o 
-1.4947 a b r 
-1.2411 a b s 
-1.8432 a b u 
-1.4658 a b y 
-1.7195 a c a 
-1.0544 a c c 
-0.6313 a c e 
-0.8164 a c h 
-1.3073 a c i 
-0.9891 a c k 
-1.4764 a c l 
-3.0997 a c m 
-1.3754 a c o 
-2.1454 a c q 
-1.5945 a c r 
-2.7987 a c s 
-0.6448 a c t 
-1.8692 a c u 
-2.4976 a c y 
-1.0908 a d a 
-1.2362 a d b 
-1.6009 a d c 
-1.3883 a d d 
-0.7759 a d e 
-1.6244 a d f 
-2.0668 a d g 
-1.6244 a d h 
-1.1200 a d i 
-2.2776 a d j 
-2.7036 a d k 
-1.5574 a d l 
-1.4248 a d m 
-1.2564 a d n 
-1.1637 a d o 
-1.9766 a d p 
-3.1807 a d q 
-1.4817 a d r 
-1.2616 a d s 
-1.2412 a d t 
-1.7828 a d u 
-1.2313 a d v 
-1.6366 a d w 
-1.3612 a d y 
-1.3010 a e c 
-1.3010 a e d 
-1.3010 a e h 
-1.0000 a e i 
-0.6990 a e l 
-1.3010 a e n 
-0.8239 a e o 
-1.0000 a e r 
-0.8239 a e v 
-1.3010 a e x 
-1.3165 a f a 
-0.9430 a f e 
-1.2440 a f f 
-1.3579 a f i 
-2.6590 a f j 
-1.6176 a f l 
-2.6590 a f n 
-1.6176 a f o 
-1.4037 a f r 
-0.1996 a f t 
-2.0569 a f u 
-2.6590 a f w 
-0.7636 a g a 
-2.8463 a g d 
-0.4501 a g e 
-2.8463 a g f 
-1.2336 a g g 
-2.3692 a g h 
-1.0075 a g i 
-1.7672 a g l 
-1.8463 a g m 
-1.3692 a g n 
-1.3278 a g o 
-1.1303 a g r 
-2.3692 a g s 
-2.8463 a g t 
-0.9830 a g u 
-2.8463 a g w 
-2.8463 a g y 
-0.5389 a h a 
-1.9191 a h c 
-0.8051 a h e 
-1.7430 a h h 
-1.5211 a h i 
-1.7430 a h m 
-0.8777 a h o 
-1.6180 a h r 
-1.9191 a h s 
-0.5299 a h u 
-2.2201 a h w 
-2.5847 a i a 
-3.0618 a i b 
-2.1587 a i c 
-0.6982 a i d 
-2.5847 a i e 
-2.4598 a i f 
-2.3629 a i g 
-3.0618 a i h 
-1.1428 a i l 
-1.8314 a i m 
-0.2910 a i n 
-0.9580 a i r 
-1.6305 a i s 
-1.3716 a i t 
-2.7608 a i v 
-3.0618 a i w 
-0.9542 a j a 
-0.9542 a j e 
-0.1413 a j o 
-1.7250 a k a 
-2.7664 a k c 
-2.4654 a k d 
-0.2654 a k e 
-1.6203 a k f 
-2.2893 a k h 
-0.6081 a k i 
-2.7664 a k k 
-2.7664 a k l 
-2.4654 a k m 
-1.0852 a k n 
-1.8633 a k o 
-1.8122 a k s 
-1.7664 a k t 
-2.4654 a k u 
-1.8633 a k w 
-2.4654 a k y 
-1.3467 a l a 
-2.0831 a l b 
-1.4447 a l c 
-1.8401 a l d 
-1.4811 a l e 
-1.4447 a l f 
-2.2081 a l g 
-1.9528 a l h 
-1.2110 a l i 
-2.6852 a l j 
-1.6283 a l k 
-0.3739 a l l 
-1.3086 a l m 
-2.5391 a l n 
-1.1387 a l o 
-1.8527 a l p 
-3.3842 a l q 
-1.7121 a l r 
-1.2506 a l s 
-1.3350 a l t 
-2.0224 a l u 
-2.3842 a l v 
-1.6518 a l w 
-2.5391 a l y 
-0.8899 a m a 
-1.3989 a m b 
-1.8291 a m c 
-2.0979 a m d 
-0.5005 a m e 
-2.1648 a m f 
-2.4659 a m g 
-2.6420 a m h 
-0.7816 a m i 
-2.4659 a m l 
-1.5280 a m m 
-1.8638 a m n 
-0.9474 a m o 
-1.2898 a m p 
-2.9430 a m q 
-2.0979 a m r 
-1.4115 a m s 
-2.0979 a m t 
-1.6877 a m u 
-2.3409 a m v 
-1.8638 a m w 
-2.0979 a m y 
-1.4890 a n a 
-2.1504 a n b 
-1.2649 a n c 
-0.3182 a n d 
-1.4890 a n e 
-2.4015 a n f 
-1.5031 a n g 
-1.9244 a n h 
-1.2021 a n i 
-3.2861 a n j 
-2.2317 a n k 
-2.7218 a n l 
-2.5328 a n m 
-1.8338 a n n 
-1.5537 a n o 
-2.8090 a n p 
-2.6171 a n q 
-2.4208 a n r 
-1.1721 a n s 
-1.0660 a n t 
-2.2581 a n u 
-2.9181 a n v 
-1.9639 a n w 
-2.4015 a n x 
-1.3318 a n y 
-1.7482 a o a 
-2.0492 a o d 
-0.3960 a o f 
-1.2711 a o n 
-0.3010 a o r 
-2.0492 a o s 
-1.3169 a p a 
-2.9079 a p b 
-2.9079 a p c 
-0.8868 a p e 
-2.6069 a p f 
-1.5857 a p h 
-0.9348 a p i 
-1.7940 a p l 
-1.0950 a p o 
-0.3987 a p p 
-1.4456 a p r 
-1.2745 a p s 
-1.0884 a p t 
-2.4308 a p u 
-2.4308 a p w 
-0.0170 a q u 
-1.2364 a r a 
-1.9756 a r b 
-1.4263 a r c 
-0.9610 a r d 
-0.7379 a r e 
-1.6808 a r f 
-1.7344 a r g 
-2.2892 a r h 
-1.3436 a r i 
-2.9176 a r j 
-1.3798 a r k 
-1.5420 a r l 
-1.4705 a r m 
-1.5607 a r n 
-1.4863 a r o 
-2.1580 a r p 
-1.3156 a r r 
-1.4298 a r s 
-0.7754 a r t 
-2.2892 a r u 
-1.8385 a r v 
-2.0883 a r w 
-1.2364 a r y 
-1.0694 a s a 
-1.7384 a s b 
-1.4341 a s c 
-1.9782 a s d 
-1.2337 a s e 
-1.6604 a s f 
-2.1963 a s g 
-1.4181 a s h 
-1.0202 a s i 
-3.2570 a s j 
-1.7255 a s k 
-1.6772 a s l 
-1.4027 a s m 
-1.4542 a s n 
-1.3705 a s o 
-1.5803 a s p 
-2.2358 a s q 
-1.9898 a s r 
-0.9358 a s s 
-0.6270 a s t 
-1.6185 a s u 
-2.2358 a s v 
-1.5088 a s w 
-1.8021 a s y 
-1.2429 a t a 
-2.0211 a t b 
-1.6500 a t c 
-1.7147 a t d 
-0.7201 a t e 
-1.9604 a t f 
-2.5440 a t g 
-1.0866 a t h 
-0.6382 a t i 
-3.6231 a t j 
-3.1460 a t k 
-1.5857 a t l 
-1.4500 a t m 
-2.1760 a t n 
-1.4356 a t o 
-1.9897 a t p 
-3.0211 a t q 
-1.9419 a t r 
-1.6231 a t s 
-0.8875 a t t 
-1.4500 a t u 
-2.5818 a t v 
-1.3030 a t w 
-2.2614 a t y 
-2.4099 a u c 
-1.3308 a u d 
-0.7197 a u g 
-2.4099 a u i 
-0.9950 a u l 
-1.8079 a u m 
-1.1795 a u n 
-2.1089 a u p 
-1.1547 a u r 
-0.4961 a u s 
-0.7765 a u t 
-2.4099 a u x 
-1.0884 a v a 
-0.1519 a v e 
-0.9140 a v i 
-1.2597 a v o 
-1.4468 a v y 
-0.4914 a w a 
-1.9063 a w b 
-2.3043 a w c 
-1.0371 a w e 
-0.9925 a w f 
-0.9241 a w h 
-1.2074 a w i 
-2.3043 a w k 
-1.5639 a w l 
-1.8272 a w m 
-1.3500 a w n 
-0.9619 a w o 
-2.3043 a w r 
-1.4914 a w s 
-1.5261 a w t 
-2.6053 a w v 
-1.9063 a w w 
-0.7959 a x a 
-1.3979 a x b 
-0.5528 a x e 
-0.7959 a x i 
-1.3979 a x n 
-1.0969 a x o 
-1.3979 a x s 
-1.3979 a x t 
-0.9208 a x w 
-0.9512 a y a 
-1.1553 a y b 
-1.7404 a y c 
-2.0762 a y d 
-1.3228 a y e 
-1.5756 a y f 
-2.5533 a y g 
-1.5119 a y h 
-1.0218 a y i 
-2.3772 a y j 
-2.8543 a y k 
-1.8543 a y l 
-1.6502 a y m 
-1.6782 a y n 
-1.0835 a y o 
-2.0092 a y p 
-2.8543 a y q 
-2.0762 a y r 
-0.7644 a y s 
-0.8129 a y t 
-2.0762 a y u 
-2.5533 a y v 
-1.1139 a y w 
-2.0762 a y y 
-1.6902 a z a 
-0.2588 a z e 
-0.6902 a z i 
-1.2131 a z u 
-0.8451 a z z 
-0.8644 b a b 
-0.5301 b a c 
-1.5536 b a d 
-2.5079 b a f 
-1.3037 b a g 
-2.2068 b a h 
-1.9058 b a i 
-2.5079 b a k 
-1.5079 b a l 
-1.0929 b a n 
-0.7919 b a r 
-1.1461 b a s 
-1.0455 b a t 
-1.5536 b a y 
-1.1903 b b a 
-0.5371 b b e 
-0.4914 b b i 
-0.7132 b b l 
-1.4914 b b n 
-1.1903 b b o 
-0.4771 b c h 
-0.4771 b c r 
-0.1761 b d i 
-1.0409 b e a 
-1.9468 b e b 
-1.0888 b e c 
-1.3563 b e d 
-0.8992 b e e 
-1.0495 b e f 
-1.0920 b e g 
-1.5921 b e h 
-1.1611 b e i 
-2.7484 b e k 
-1.0553 b e l 
-1.7071 b e m 
-1.3931 b e n 
-2.0214 b e o 
-2.0495 b e p 
-2.5266 b e q 
-1.2524 b e r 
-1.1537 b e s 
-1.2961 b e t 
-2.3805 b e u 
-2.4474 b e v 
-1.9951 b e w 
-1.8276 b e y 
-0.4771 b f a 
-0.4771 b f r 
-0.1761 b h i 
-1.9269 b i a 
-2.2279 b i c 
-2.2279 b i d 
-2.2279 b i e 
-2.2279 b i f 
-1.1139 b i g 
-0.7365 b i l 
-0.7807 b i n 
-1.9269 b i o 
-1.3828 b i r 
-1.1139 b i s 
-0.3954 b i t 
-1.0314 b j a 
-0.0537 b j e 
-1.5185 b l a 
-0.1177 b l e 
-1.1584 b l i 
-1.3305 b l o 
-2.0536 b l u 
-1.0925 b l y 
-0.6990 b m a 
-0.3979 b m i 
-0.6990 b m u 
-0.6990 b n e 
-0.2218 b n o 
-1.3096 b o a 
-2.8537 b o b 
-2.8537 b o c 
-1.1294 b o d 
-2.8537 b o e 
-2.8537 b o f 
-2.8537 b o g 
-1.6776 b o i 
-2.8537 b o k 
-1.8123 b o l 
-2.2516 b o m 
-1.2626 b o n 
-1.5113 b o o 
-1.3222 b o r 
-2.1547 b o s 
-1.0544 b o t 
-0.4387 b o u 
-1.0544 b o v 
-1.5113 b o w 
-2.0086 b o x 
-0.9845 b o y 
-0.3010 b p a 
-0.6313 b r a 
-0.6037 b r e 
-0.6924 b r i 
-0.5654 b r o 
-1.4166 b r u 
-1.8513 b s a 
-0.9218 b s c 
-0.5088 b s e 
-2.1523 b s g 
-1.8513 b s h 
-1.8513 b s i 
-2.1523 b s j 
-0.7051 b s o 
-2.1523 b s r 
-1.8513 b s s 
-0.6899 b s t 
-1.1109 b s u 
-2.1523 b s w 
-0.8519 b t a 
-0.4944 b t e 
-1.2041 b t f 
-1.5051 b t h 
-1.3291 b t i 
-0.8062 b t l 
-2.1072 b t m 
-1.8062 b t n 
-1.3291 b t o 
-2.1072 b t r 
-1.5051 b t s 
-0.9933 b t t 
-2.1072 b t u 
-2.1072 b t w 
-2.1072 b t y 
-2.2695 b u b 
-2.7466 b u c 
-2.4456 b u d 
-2.7466 b u f 
-2.7466 b u h 
-1.7052 b u i 
-2.0477 b u l 
-2.1446 b u n 
-2.7466 b u p 
-0.9015 b u r 
-1.6675 b u s 
-0.0983 b u t 
-2.7466 b u z 
-0.3010 b v i 
-0.8723 b y a 
-1.7616 b y b 
-1.6232 b y c 
-1.6646 b y d 
-2.0626 b y e 
-1.7616 b y f 
-1.6646 b y g 
-1.5507 b y h 
-1.6646 b y i 
-2.6646 b y j 
-2.6646 b y k 
-1.5855 b y l 
-1.0736 b y m 
-1.3029 b y n 
-1.7104 b y o 
-1.8195 b y p 
-1.4886 b y r 
-0.9925 b y s 
-0.5124 b y t 
-2.6646 b y u 
-2.6646 b y v 
-1.3222 b y w 
-1.9657 b y y 
-1.8199 c a b 
-2.3997 c a c 
-2.3997 c a d 
-3.0986 c a f 
-2.7976 c a g 
-3.0986 c a h 
-2.7976 c a k 
-0.6721 c a l 
-0.9494 c a m 
-0.7602 c a n 
-3.0986 c a o 
-1.2178 c a p 
-0.8108 c a r 
-1.0652 c a s 
-1.0858 c a t 
-1.2726 c a u 
-1.4652 c a v 
-3.0986 c a y 
-0.3424 c b a 
-1.0414 c b e 
-0.7404 c b o 
-0.7404 c b u 
-0.9626 c c a 
-2.3243 c c d 
-0.6253 c c e 
-1.8472 c c h 
-1.3243 c c i 
-2.3243 c c l 
-0.4730 c c o 
-1.5461 c c r 
-0.6711 c c u 
-0.9031 c d a 
-0.9031 c d e 
-0.6021 c d i 
-0.6021 c d r 
-0.9031 c d u 
-0.9977 c e a 
-1.9313 c e b 
-2.3115 c e c 
-1.0660 c e d 
-1.7095 c e e 
-1.9136 c e f 
-2.5334 c e g 
-1.6394 c e h 
-1.1943 c e i 
-3.0105 c e j 
-3.0105 c e k 
-0.9914 c e l 
-1.4855 c e m 
-0.8982 c e n 
-0.9977 c e o 
-1.7095 c e p 
-1.1240 c e r 
-1.0171 c e s 
-1.1943 c e t 
-2.3573 c e u 
-3.3115 c e v 
-1.3115 c e w 
-3.0105 c e x 
-2.7095 c e y 
-1.1461 c f a 
-1.1461 c f i 
-0.4472 c f l 
-0.4472 c f o 
-1.1461 c f r 
-0.7782 c g e 
-0.7782 c g l 
-0.4771 c g r 
-0.6021 c g u 
-0.7379 c h a 
-1.7853 c h b 
-1.6952 c h c 
-1.8781 c h d 
-0.7689 c h e 
-1.6818 c h f 
-1.8781 c h g 
-1.2865 c h h 
-0.8907 c h i 
-3.2003 c h j 
-1.8201 c h l 
-1.4222 c h m 
-1.9962 c h n 
-1.1750 c h o 
-1.9699 c h p 
-3.2003 c h q 
-1.5471 c h r 
-1.4010 c h s 
-1.0864 c h t 
-2.2003 c h u 
-2.5982 c h v 
-1.1248 c h w 
-2.2461 c h y 
-3.2003 c h z 
-1.3010 c i a 
-2.1856 c i b 
-0.9907 c i d 
-0.6805 c i e 
-1.8846 c i f 
-1.6214 c i l 
-1.4323 c i m 
-0.8919 c i n 
-1.0000 c i o 
-1.5488 c i p 
-1.0500 c i r 
-1.2156 c i s 
-0.8498 c i t 
-2.1856 c i v 
-2.6628 c i w 
-0.3010 c j d 
-0.9804 c k a 
-1.6172 c k b 
-2.0943 c k c 
-2.2192 c k d 
-0.9640 c k e 
-1.9974 c k f 
-2.6964 c k g 
-1.2814 c k h 
-0.9255 c k i 
-2.6964 c k k 
-1.4922 c k l 
-1.6550 c k m 
-1.5824 c k n 
-1.2340 c k o 
-2.6964 c k p 
-2.3953 c k r 
-0.7619 c k s 
-0.8970 c k t 
-1.6550 c k u 
-1.1649 c k w 
-1.5824 c k y 
-1.1076 c l a 
-0.1734 c l e 
-1.2563 c l i 
-0.8426 c l o 
-1.3030 c l u 
-2.9465 c l y 
-0.3010 c m a 
-0.7270 c m e 
-0.9031 c m o 
-1.2041 c m u 
-1.2041 c m y 
-0.3010 c n a 
-0.9031 c n e 
-0.6021 c n o 
-1.5756 c o a 
-3.2746 c o b 
-2.6726 c o c 
-2.2332 c o d 
-3.2746 c o f 
-2.2746 c o g 
-2.7975 c o h 
-2.0442 c o i 
-1.3015 c o l 
-0.6204 c o m 
-0.5528 c o n 
-1.6948 c o o 
-1.9322 c o p 
-1.3351 c o r 
-2.3204 c o s 
-2.4295 c o t 
-0.6736 c o u 
-1.1193 c o v 
-2.4965 c o w 
-3.2746 c o y 
-1.4771 c p a 
-0.8751 c p e 
-0.7782 c p h 
-1.4771 c p i 
-0.8751 c p o 
-0.3310 c p r 
-0.0414 c q u 
-0.8708 c r a 
-2.7459 c r c 
-0.6560 c r e 
-0.4626 c r i 
-0.9008 c r o 
-0.9465 c r u 
-1.2407 c r y 
-1.2175 c s a 
-1.0414 c s c 
-1.5185 c s e 
-0.6734 c s h 
-1.0414 c s i 
-1.5185 c s k 
-0.8195 c s o 
-1.5185 c s s 
-0.6734 c s t 
-1.5185 c s u 
-1.5185 c s w 
-1.1361 c t a 
-2.4786 c t b 
-1.9557 c t c 
-2.4786 c t d 
-0.8351 c t e 
-1.7252 c t f 
-2.4786 c t g 
-1.9557 c t h 
-0.5390 c t i 
-2.9557 c t k 
-1.1168 c t l 
-2.0526 c t m 
-2.1775 c t n 
-1.0063 c t o 
-2.1106 c t p 
-1.3536 c t r 
-1.2567 c t s 
-1.3646 c t t 
-1.1998 c t u 
-2.1775 c t v 
-1.5940 c t w 
-2.6547 c t y 
-1.5899 c u i 
-0.3858 c u l 
-0.8418 c u m 
-2.1128 c u n 
-2.5899 c u o 
-1.3347 c u p 
-0.6761 c u r 
-1.0217 c u s 
-1.4139 c u t 
-2.5899 c u u 
-1.8910 c u v 
-0.4771 c v a 
-0.4771 c v i 
-0.3310 c w a 
-0.8751 c w e 
-1.1761 c w h 
-1.1761 c w i 
-0.6990 c w o 
-0.6721 c y a 
-1.0700 c y c 
-1.6721 c y d 
-1.6721 c y e 
-1.6721 c y f 
-1.1950 c y h 
-1.0700 c y i 
-1.3711 c y l 
-1.6721 c y m 
-0.8270 c y o 
-1.6721 c y p 
-1.6721 c y r 
-0.7179 c y t 
-1.6721 c y y 
-2.8678 d a a 
-1.4528 d a b 
-1.6636 d a c 
-1.8678 d a d 
-1.6636 d a f 
-1.4967 d a g 
-1.8900 d a h 
-2.0227 d a i 
-2.3237 d a k 
-1.1911 d a l 
-1.5890 d a m 
-0.5323 d a n 
-2.8678 d a o 
-1.6373 d a p 
-2.6917 d a q 
-1.1235 d a r 
-1.0515 d a s 
-1.0044 d a t 
-2.4698 d a u 
-2.0548 d a v 
-1.6125 d a w 
-0.8788 d a y 
-2.3237 d a z 
-1.8497 d b a 
-0.3584 d b e 
-2.2757 d b i 
-1.6067 d b l 
-1.3215 d b o 
-1.4741 d b r 
-1.0538 d b u 
-0.4606 d b y 
-0.6053 d c a 
-1.0632 d c e 
-1.1027 d c h 
-2.4249 d c i 
-1.2208 d c l 
-0.3996 d c o 
-1.0447 d c r 
-1.5218 d c u 
-1.1694 d d a 
-0.3148 d d e 
-0.6867 d d i 
-1.8062 d d l 
-0.9031 d d o 
-1.3539 d d r 
-2.5843 d d s 
-2.2833 d d t 
-1.3802 d d u 
-2.5843 d d v 
-2.5843 d d w 
-0.9897 d e a 
-2.2081 d e b 
-1.5329 d e c 
-1.0477 d e d 
-1.5209 d e e 
-1.7821 d e f 
-1.7407 d e g 
-1.9862 d e h 
-1.8401 d e i 
-2.7821 d e j 
-1.4548 d e l 
-1.8279 d e m 
-0.9496 d e n 
-1.5209 d e o 
-1.4397 d e p 
-2.7821 d e q 
-0.6749 d e r 
-0.9339 d e s 
-1.3671 d e t 
-2.0224 d e u 
-1.4397 d e v 
-2.0418 d e w 
-1.6599 d e x 
-2.5391 d e y 
-1.0334 d f a 
-0.8293 d f e 
-0.8293 d f i 
-1.3222 d f l 
-0.4771 d f o 
-0.7024 d f r 
-1.5361 d f u 
-1.2247 d g a 
-0.5069 d g e 
-0.9002 d g i 
-0.9485 d g l 
-1.8779 d g m 
-0.7166 d g o 
-0.8172 d g r 
-1.5769 d g u 
-0.4573 d h a 
-0.6254 d h e 
-0.5830 d h i 
-0.9298 d h o 
-2.7292 d h r 
-1.5250 d h u 
-2.7292 d h y 
-1.5288 d i a 
-1.7967 d i b 
-1.2043 d i c 
-1.1003 d i d 
-1.7484 d i e 
-1.2348 d i f 
-1.9132 d i g 
-1.7719 d i h 
-2.3739 d i i 
-3.0271 d i j 
-2.5500 d i k 
-1.6122 d i l 
-1.5958 d i m 
-0.5588 d i n 
-2.0729 d i o 
-2.2868 d i p 
-1.4305 d i r 
-0.7461 d i s 
-0.9355 d i t 
-2.7261 d i u 
-2.2490 d i v 
-1.7261 d i w 
-3.3282 d i z 
-1.0969 d j e 
-0.4437 d j o 
-0.2840 d j u 
-1.4771 d k a 
-0.5229 d k e 
-0.8751 d k i 
-0.3010 d k n 
-1.0630 d l a 
-0.5315 d l e 
-0.7449 d l i 
-0.9046 d l o 
-1.9838 d l u 
-0.5214 d l y 
-0.8870 d m a 
-2.8555 d m b 
-0.7517 d m e 
-1.9013 d m f 
-1.1073 d m i 
-1.0294 d m o 
-1.7094 d m u 
-0.3127 d m y 
-1.5368 d n a 
-0.7183 d n e 
-1.7129 d n i 
-0.1260 d n o 
-2.3149 d n t 
-2.3149 d n u 
-2.3118 d o a 
-1.9760 d o b 
-1.5985 d o c 
-1.5458 d o e 
-0.6245 d o f 
-2.4878 d o g 
-2.7889 d o h 
-1.5985 d o i 
-3.0899 d o j 
-3.0899 d o k 
-2.0899 d o l 
-1.9138 d o m 
-0.7377 d o n 
-1.7097 d o o 
-2.0899 d o p 
-1.5714 d o r 
-2.1357 d o s 
-1.8858 d o t 
-0.7656 d o u 
-1.6128 d o v 
-0.8298 d o w 
-3.0899 d o x 
-1.4878 d o y 
-2.2448 d o z 
-0.9441 d p a 
-0.9093 d p e 
-1.4212 d p h 
-1.2103 d p i 
-0.9093 d p l 
-0.8619 d p o 
-0.4854 d p r 
-1.1482 d p u 
-1.3010 d q e 
-0.0458 d q u 
-0.8650 d r a 
-0.2869 d r e 
-0.9467 d r i 
-2.7101 d r k 
-2.7101 d r m 
-0.7910 d r o 
-2.7101 d r r 
-1.4548 d r u 
-1.5340 d r y 
-0.9330 d s a 
-1.8760 d s b 
-1.3564 d s c 
-2.6889 d s d 
-1.0761 d s e 
-1.9485 d s f 
-2.9899 d s g 
-1.1704 d s h 
-1.1091 d s i 
-2.5128 d s k 
-1.5920 d s l 
-1.7111 d s m 
-1.8138 d s n 
-0.8500 d s o 
-1.4458 d s p 
-2.9899 d s q 
-2.0357 d s r 
-1.9485 d s s 
-0.7493 d s t 
-1.0554 d s u 
-2.9899 d s v 
-1.2909 d s w 
-2.9899 d s y 
-1.7273 d t a 
-1.8523 d t e 
-0.2408 d t h 
-1.9772 d t i 
-0.4646 d t o 
-1.7273 d t r 
-3.2325 d t t 
-2.1911 d t u 
-3.2325 d t v 
-1.9315 d t w 
-3.2325 d t y 
-1.4934 d u a 
-2.6395 d u b 
-0.7822 d u c 
-2.0374 d u e 
-1.7364 d u g 
-2.6395 d u i 
-1.2081 d u l 
-2.1624 d u m 
-0.8199 d u n 
-2.6395 d u o 
-0.7152 d u p 
-0.7822 d u r 
-0.8134 d u s 
-1.4934 d u t 
-2.6395 d u u 
-0.2840 d v a 
-0.4771 d v e 
-1.0300 d v i 
-1.3310 d v o 
-0.8159 d w a 
-0.6871 d w e 
-0.6960 d w h 
-0.4244 d w i 
-1.2891 d w o 
-1.9542 d w r 
-0.9706 d y a 
-1.3064 d y b 
-1.9085 d y c 
-2.3856 d y d 
-0.6613 d y e 
-1.6866 d y f 
-1.9085 d y g 
-1.7835 d y h 
-1.3856 d y i 
-2.0846 d y l 
-1.6866 d y m 
-1.9085 d y n 
-0.6148 d y o 
-1.9085 d y p 
-1.6075 d y r 
-1.6075 d y s 
-0.9877 d y t 
-2.3856 d y u 
-1.2717 d y w 
-2.0846 d y y 
-2.2488 e a a 
-1.5662 e a b 
-1.3397 e a c 
-1.1411 e a d 
-2.9812 e a e 
-1.8606 e a f 
-1.5798 e a g 
-2.3184 e a h 
-2.0367 e a i 
-3.6802 e a j 
-1.6157 e a k 
-1.2520 e a l 
-1.5764 e a m 
-0.8186 e a n 
-2.2030 e a o 
-1.7117 e a p 
-3.6802 e a q 
-0.6528 e a r 
-0.9734 e a s 
-0.9035 e a t 
-2.0367 e a u 
-1.5466 e a v 
-1.7771 e a w 
-3.3791 e a x 
-3.2030 e a y 
-3.6802 e a z 
-0.9817 e b a 
-2.2122 e b b 
-0.4043 e b e 
-1.7003 e b i 
-1.4163 e b l 
-0.7889 e b o 
-1.1910 e b r 
-2.8142 e b t 
-0.8797 e b u 
-1.1241 e b y 
-0.8544 e c a 
-1.0011 e c e 
-1.3045 e c h 
-1.2402 e c i 
-3.2776 e c j 
-1.7213 e c k 
-1.4581 e c l 
-0.5946 e c o 
-1.1570 e c r 
-2.9766 e c s 
-0.6055 e c t 
-1.6544 e c u 
-2.4995 e c y 
-0.8929 e d a 
-1.2777 e d b 
-1.9343 e d c 
-1.9191 e d d 
-1.3114 e d e 
-1.4624 e d f 
-2.1027 e d g 
-1.3992 e d h 
-0.8696 e d i 
-3.2054 e d j 
-2.7794 e d k 
-1.7582 e d l 
-1.1073 e d m 
-1.8763 e d n 
-1.1814 e d o 
-2.0104 e d p 
-2.6825 e d q 
-1.8133 e d r 
-1.5522 e d s 
-0.7216 e d t 
-1.4297 e d u 
-2.2511 e d v 
-1.2479 e d w 
-2.1027 e d y 
-0.9345 e e a 
-2.1917 e e b 
-1.8907 e e c 
-1.2027 e e d 
-2.9699 e e e 
-1.8559 e e f 
-2.9699 e e g 
-1.7524 e e h 
-1.5150 e e i 
-1.8559 e e k 
-1.3071 e e l 
-1.3624 e e m 
-0.6275 e e n 
-2.0405 e e o 
-1.1066 e e p 
-2.7938 e e q 
-1.7394 e e r 
-1.3901 e e s 
-0.9899 e e t 
-2.5719 e e u 
-1.4448 e e v 
-1.7658 e e w 
-1.1006 e e x 
-2.2709 e e y 
-2.4258 e e z 
-0.8932 e f a 
-3.0864 e f c 
-3.0864 e f d 
-1.1943 e f e 
-1.1132 e f f 
-3.0864 e f h 
-0.8768 e f i 
-2.1321 e f j 
-1.1833 e f l 
-3.0864 e f n 
-0.4898 e f o 
-1.0996 e f r 
-2.7853 e f s 
-1.3382 e f t 
-1.1673 e f u 
-2.7853 e f w 
-3.0864 e f y 
-0.6224 e g a 
-2.8704 e g b 
-1.1714 e g e 
-1.9162 e g g 
-2.8704 e g h 
-0.9114 e g i 
-1.3141 e g l 
-2.2683 e g m 
-2.3933 e g n 
-1.0253 e g o 
-0.5503 e g r 
-1.7912 e g s 
-2.2683 e g t 
-1.0131 e g u 
-2.5694 e g y 
-0.3540 e h a 
-0.7016 e h e 
-0.9213 e h i 
-0.7830 e h o 
-1.1744 e h u 
-2.5233 e h v 
-3.0004 e h w 
-2.6994 e h y 
-1.8531 e i a 
-2.0107 e i b 
-1.3284 e i c 
-1.4514 e i d 
-2.3697 e i e 
-1.6963 e i f 
-1.1814 e i g 
-1.6834 e i h 
-2.9138 e i i 
-2.6128 e i k 
-1.7835 e i l 
-1.3575 e i m 
-0.4628 e i n 
-2.6128 e i o 
-2.5159 e i p 
-1.2020 e i r 
-0.9596 e i s 
-0.8844 e i t 
-3.2148 e i u 
-1.5246 e i v 
-1.5159 e i w 
-3.2148 e i y 
-2.4367 e i z 
-0.8451 e j a 
-1.3222 e j e 
-0.2679 e j o 
-1.4983 e j s 
-0.6532 e j u 
-1.2632 e k a 
-1.7404 e k b 
-2.0414 e k d 
-0.6264 e k e 
-1.7404 e k f 
-2.0414 e k h 
-0.5790 e k i 
-2.0414 e k m 
-0.7861 e k n 
-1.0872 e k o 
-2.0414 e k p 
-2.0414 e k r 
-1.1963 e k s 
-1.7404 e k t 
-1.7404 e k w 
-2.0414 e k y 
-0.8976 e l a 
-2.3141 e l b 
-2.2093 e l c 
-1.6742 e l d 
-0.9273 e l e 
-0.9862 e l f 
-3.3555 e l g 
-2.5104 e l h 
-0.8901 e l i 
-3.0544 e l k 
-0.8126 e l l 
-2.2415 e l m 
-2.8783 e l n 
-1.0676 e l o 
-2.0130 e l p 
-3.0544 e l r 
-1.2415 e l s 
-1.4578 e l t 
-1.9937 e l u 
-1.5493 e l v 
-2.2093 e l w 
-1.0353 e l y 
-0.6074 e m a 
-1.4876 e m b 
-3.2358 e m c 
-2.6337 e m d 
-0.7543 e m e 
-2.6337 e m f 
-3.2358 e m g 
-2.4576 e m h 
-1.0344 e m i 
-2.9348 e m k 
-2.6337 e m l 
-1.5826 e m m 
-2.1218 e m n 
-0.6980 e m o 
-1.2864 e m p 
-3.2358 e m r 
-1.7886 e m s 
-1.9348 e m t 
-1.3969 e m u 
-2.2358 e m w 
-1.1054 e m y 
-1.2440 e n a 
-1.9722 e n b 
-1.0823 e n c 
-1.1408 e n d 
-1.1381 e n e 
-1.9818 e n f 
-1.6264 e n g 
-1.7374 e n h 
-1.2405 e n i 
-2.5936 e n j 
-3.0329 e n k 
-1.6573 e n l 
-1.8288 e n m 
-2.3562 e n n 
-0.9510 e n o 
-2.2548 e n p 
-3.3340 e n q 
-1.9537 e n r 
-1.2530 e n s 
-0.4889 e n t 
-1.9818 e n u 
-2.4589 e n v 
-1.6221 e n w 
-2.6807 e n y 
-3.3340 e n z 
-3.1584 e o a 
-1.6812 e o b 
-1.5149 e o c 
-3.1584 e o d 
-0.2891 e o f 
-2.6812 e o g 
-3.1584 e o h 
-3.1584 e o i 
-1.4424 e o l 
-2.5563 e o m 
-0.9104 e o n 
-1.4863 e o p 
-1.2393 e o r 
-2.6812 e o s 
-1.3875 e o t 
-0.9765 e o u 
-1.6143 e o v 
-2.3802 e o w 
-0.8267 e p a 
-2.4871 e p b 
-2.3110 e p c 
-2.4871 e p d 
-1.1497 e p e 
-2.6121 e p f 
-3.0892 e p g 
-1.3410 e p h 
-1.4080 e p i 
-0.7817 e p l 
-2.3110 e p m 
-2.7882 e p n 
-0.9993 e p o 
-2.6121 e p p 
-0.6164 e p r 
-1.5329 e p s 
-1.0173 e p t 
-1.5978 e p u 
-2.7882 e p v 
-2.1350 e p w 
-2.3902 e p y 
-0.0035 e q u 
-1.0164 e r a 
-1.8792 e r b 
-1.7113 e r c 
-1.8555 e r d 
-0.6422 e r e 
-1.6299 e r f 
-2.0293 e r g 
-1.5544 e r h 
-1.0404 e r i 
-3.1296 e r j 
-2.7147 e r k 
-1.8374 e r l 
-1.6033 e r m 
-1.5806 e r n 
-1.2409 e r o 
-1.9961 e r p 
-3.3515 e r q 
-1.5064 e r r 
-1.1101 e r s 
-1.0117 e r t 
-1.8330 e r u 
-1.8601 e r v 
-1.5084 e r w 
-1.1236 e r y 
-1.0615 e s a 
-1.9458 e s b 
-1.4005 e s c 
-2.1260 e s d 
-1.0026 e s e 
-1.9219 e s f 
-2.5561 e s g 
-1.2214 e s h 
-1.0869 e s i 
-3.6701 e s j 
-2.2387 e s k 
-1.8127 e s l 
-1.8639 e s m 
-1.8847 e s n 
-0.9702 e s o 
-1.4605 e s p 
-2.8919 e s q 
-2.3478 e s r 
-0.8151 e s s 
-0.8002 e s t 
-1.3027 e s u 
-3.0680 e s v 
-1.4714 e s w 
-2.1787 e s y 
-3.6701 e s z 
-1.3818 e t a 
-2.2195 e t b 
-1.7096 e t c 
-2.6718 e t d 
-1.1340 e t e 
-2.3360 e t f 
-2.8479 e t g 
-0.4058 e t h 
-1.2768 e t i 
-2.0520 e t l 
-2.3708 e t m 
-2.4957 e t n 
-0.6873 e t o 
-3.4499 e t p 
-3.1489 e t q 
-1.3101 e t r 
-1.9185 e t s 
-1.4371 e t t 
-1.3818 e t u 
-3.4499 e t v 
-1.4587 e t w 
-2.0882 e t y 
-2.1658 e u c 
-2.4669 e u e 
-2.1658 e u h 
-1.4255 e u m 
-0.5478 e u n 
-2.4669 e u o 
-0.5531 e u p 
-1.3877 e u r 
-0.5976 e u s 
-1.1051 e u t 
-2.4669 e u v 
-1.2277 e v a 
-0.1041 e v e 
-1.1773 e v i 
-1.0629 e v o 
-0.5974 e w a 
-2.9666 e w b 
-2.4895 e w c 
-2.3646 e w d 
-0.5909 e w e 
-2.6656 e w f 
-2.9666 e w g 
-0.7478 e w h 
-0.9116 e w i 
-3.2676 e w k 
-2.6656 e w l 
-1.9252 e w m 
-2.4225 e w n 
-0.9601 e w o 
-2.6656 e w p 
-1.8052 e w r 
-2.0915 e w s 
-1.9889 e w t 
-2.9666 e w v 
-1.9889 e w w 
-2.9666 e w y 
-3.2676 e w z 
-0.7965 e x a 
-0.8006 e x c 
-1.8299 e x e 
-1.4497 e x h 
-1.0376 e x i 
-2.5289 e x o 
-0.5444 e x p 
-0.6072 e x t 
-2.5289 e x u 
-1.1009 e y a 
-1.7377 e y b 
-1.6506 e y c 
-2.2148 e y d 
-0.6389 e y e 
-1.9930 e y f 
-2.0899 e y g 
-1.4878 e y h 
-1.2940 e y i 
-1.3697 e y k 
-1.9138 e y l 
-1.6920 e y m 
-2.0899 e y n 
-0.6626 e y o 
-2.2148 e y p 
-1.7889 e y r 
-1.2296 e y s 
-1.2940 e y t 
-2.0899 e y u 
-2.6920 e y v 
-1.0199 e y w 
-2.6920 e y y 
-0.1383 e z e 
-1.0414 e z i 
-1.0414 e z o 
-3.0187 f a a 
-1.6763 f a b 
-0.7006 f a c 
-1.6763 f a d 
-2.7177 f a e 
-1.7399 f a f 
-1.7177 f a g 
-2.0187 f a h 
-1.2553 f a i 
-3.0187 f a j 
-2.4166 f a k 
-0.9253 f a l 
-1.3752 f a m 
-0.8820 f a n 
-3.0187 f a o 
-1.8146 f a p 
-0.8948 f a r 
-1.1436 f a s 
-1.0144 f a t 
-2.1156 f a u 
-1.6385 f a v 
-2.1736 f a w 
-2.5416 f a x 
-2.7177 f a y 
-3.0187 f a z 
-0.8633 f b a 
-0.5623 f b e 
-1.3862 f b i 
-1.1644 f b l 
-0.7841 f b o 
-0.8219 f b r 
-1.0182 f b u 
-1.2613 f b y 
-0.8967 f c a 
-1.2820 f c e 
-1.5250 f c h 
-1.3490 f c i 
-1.4281 f c l 
-0.2080 f c o 
-1.2240 f c r 
-1.6500 f c u 
-0.7097 f d a 
-0.3575 f d e 
-0.7677 f d i 
-1.3118 f d o 
-1.0107 f d r 
-1.4367 f d u 
-0.9700 f e a 
-2.4014 f e b 
-1.0690 f e c 
-2.2253 f e d 
-0.8451 f e e 
-2.7024 f e f 
-2.7024 f e g 
-2.7024 f e h 
-1.9621 f e i 
-0.7705 f e l 
-2.3045 f e m 
-1.7482 f e n 
-2.3045 f e o 
-3.0035 f e p 
-2.7024 f e q 
-0.9100 f e r 
-0.6896 f e s 
-1.7482 f e t 
-2.5263 f e u 
-1.5721 f e v 
-1.3502 f e w 
-1.7730 f e x 
-1.0862 f f a 
-2.6425 f f b 
-1.6882 f f c 
-0.4224 f f e 
-2.6425 f f f 
-2.6425 f f g 
-2.3414 f f h 
-0.6131 f f i 
-1.5633 f f l 
-2.1653 f f m 
-2.6425 f f n 
-0.9797 f f o 
-1.6425 f f r 
-1.8643 f f s 
-1.4963 f f t 
-1.3000 f f u 
-2.6425 f f w 
-1.1139 f g a 
-0.8129 f g e 
-1.1139 f g i 
-1.4150 f g l 
-0.8507 f g o 
-0.3606 f g r 
-1.2900 f g u 
-1.8921 f g y 
-0.6944 f h a 
-0.6831 f h e 
-0.4960 f h i 
-0.8270 f h o 
-0.9519 f h u 
-2.2742 f h y 
-2.0673 f i a 
-2.3683 f i b 
-0.7608 f i c 
-1.8912 f i d 
-1.1642 f i e 
-1.4518 f i f 
-1.7662 f i g 
-2.3683 f i h 
-2.9703 f i i 
-1.4263 f i l 
-2.0161 f i m 
-0.6523 f i n 
-2.9703 f i p 
-0.7374 f i r 
-1.1378 f i s 
-1.0727 f i t 
-2.9703 f i u 
-1.3793 f i v 
-2.2714 f i w 
-1.8564 f i x 
-1.2041 f j a 
-0.2747 f j o 
-0.4260 f j u 
-0.8451 f k e 
-0.5441 f k i 
-0.8451 f k n 
-0.5441 f k r 
-0.6330 f l a 
-0.6274 f l e 
-2.5250 f l f 
-0.7769 f l i 
-0.6442 f l o 
-0.9936 f l u 
-1.5250 f l y 
-0.8846 f m a 
-2.3617 f m b 
-0.8993 f m e 
-2.0607 f m f 
-1.2478 f m i 
-0.7819 f m o 
-1.8846 f m u 
-0.3086 f m y 
-0.4631 f n a 
-0.6392 f n e 
-1.0072 f n i 
-0.5066 f n o 
-2.2380 f o a 
-2.6640 f o b 
-2.2380 f o c 
-3.1411 f o d 
-3.1411 f o e 
-2.0620 f o f 
-2.3630 f o g 
-3.1411 f o h 
-1.1077 f o l 
-1.7609 f o n 
-1.4690 f o o 
-2.8401 f o p 
-0.1898 f o r 
-1.8624 f o s 
-2.8401 f o t 
-0.7609 f o u 
-2.3630 f o v 
-3.1411 f o x 
-0.7189 f p a 
-1.0463 f p e 
-1.6484 f p h 
-1.3473 f p i 
-0.9494 f p l 
-0.8354 f p o 
-0.4723 f p r 
-1.9494 f p t 
-1.4723 f p u 
-0.3010 f q u 
-1.0717 f r a 
-0.7707 f r e 
-2.7619 f r h 
-1.1285 f r i 
-0.1833 f r o 
-1.9838 f r u 
-2.7619 f r y 
-1.0508 f s a 
-2.4487 f s b 
-1.2183 f s c 
-1.0870 f s e 
-2.4487 f s f 
-1.6036 f s h 
-1.1063 f s i 
-2.4487 f s k 
-1.4945 f s l 
-1.5456 f s m 
-1.1265 f s n 
-0.8255 f s o 
-1.3695 f s p 
-2.4487 f s r 
-2.4487 f s s 
-0.7766 f s t 
-0.8466 f s u 
-2.1477 f s w 
-1.7549 f t a 
-2.3570 f t b 
-2.6580 f t c 
-2.9590 f t d 
-0.9021 f t e 
-2.9590 f t f 
-2.9590 f t g 
-0.1448 f t h 
-1.6368 f t i 
-3.2601 f t k 
-2.7830 f t l 
-2.7830 f t m 
-2.4819 f t n 
-1.6690 f t o 
-2.7830 f t p 
-1.7977 f t r 
-2.1809 f t s 
-1.8799 f t t 
-2.6580 f t u 
-3.2601 f t v 
-1.7286 f t w 
-1.7038 f t y 
-2.3118 f u c 
-1.8346 f u g 
-0.1672 f u l 
-2.6128 f u m 
-1.4087 f u n 
-1.7097 f u p 
-0.9793 f u r 
-1.0217 f u s 
-1.4367 f u t 
-0.4168 f v a 
-0.7179 f v e 
-0.7690 f v i 
-0.6307 f v o 
-0.5248 f w a 
-0.7838 f w e 
-0.4291 f w h 
-1.0849 f w i 
-1.1875 f w o 
-2.0626 f w r 
-2.3636 f w u 
-1.6435 f y a 
-1.0414 f y e 
-0.9445 f y i 
-1.3424 f y m 
-0.2632 f y o 
-1.6435 f y p 
-1.6435 f y s 
-1.0414 f y t 
-1.6435 f y y 
-1.4388 g a b 
-1.9617 g a c 
-2.9159 g a d 
-2.9159 g a e 
-1.9159 g a f 
-1.3719 g a g 
-2.2170 g a h 
-0.8121 g a i 
-2.9159 g a j 
-2.9159 g a k 
-0.9569 g a l 
-1.9159 g a m 
-0.5357 g a n 
-1.7118 g a p 
-2.9159 g a q 
-1.3361 g a r 
-1.1306 g a s 
-1.0899 g a t 
-2.6149 g a u 
-1.2725 g a v 
-1.8745 g a w 
-2.6149 g a y 
-1.6149 g a z 
-1.0414 g b a 
-0.4886 g b e 
-1.5855 g b l 
-1.0414 g b o 
-1.4094 g b r 
-0.5441 g b u 
-0.8865 g b y 
-0.6780 g c a 
-1.9085 g c e 
-0.9542 g c h 
-1.0054 g c l 
-0.3287 g c o 
-1.1303 g c r 
-1.9085 g c u 
-1.0414 g d a 
-0.8865 g d e 
-0.6312 g d i 
-0.3302 g d o 
-1.4094 g d r 
-1.5855 g d u 
-1.2837 g e a 
-1.7704 g e b 
-1.9922 g e c 
-1.0772 g e d 
-2.3444 g e e 
-1.8003 g e f 
-2.1014 g e g 
-1.9922 g e h 
-1.4024 g e i 
-2.9465 g e k 
-1.7160 g e l 
-1.6454 g e m 
-1.0120 g e n 
-0.8934 g e o 
-1.9922 g e p 
-2.9465 g e q 
-0.7733 g e r 
-1.0120 g e s 
-0.8601 g e t 
-2.9465 g e u 
-1.8673 g e v 
-1.4551 g e w 
-1.9051 g e x 
-1.9051 g e y 
-0.8617 g f a 
-1.9031 g f e 
-0.9488 g f i 
-1.6021 g f l 
-0.5051 g f o 
-0.4407 g f r 
-1.6021 g f u 
-0.6786 g g a 
-1.9217 g g b 
-1.6207 g g c 
-2.2227 g g d 
-0.6545 g g e 
-2.2227 g g f 
-1.9217 g g h 
-1.0766 g g i 
-0.8077 g g l 
-1.6207 g g m 
-1.4446 g g o 
-1.2685 g g r 
-1.4446 g g s 
-1.3776 g g t 
-1.7456 g g u 
-1.3776 g g w 
-1.9217 g g y 
-1.4110 g h a 
-1.7555 g h b 
-2.4322 g h c 
-3.0342 g h d 
-1.3908 g h e 
-2.0342 g h f 
-3.0342 g h g 
-2.0800 g h h 
-1.0611 g h i 
-1.8038 g h l 
-2.0342 g h m 
-2.3353 g h n 
-1.8581 g h o 
-2.7332 g h p 
-2.7332 g h r 
-1.8581 g h s 
-0.1540 g h t 
-2.1891 g h u 
-1.6363 g h w 
-1.3888 g i a 
-2.1484 g i b 
-1.0784 g i c 
-2.0515 g i d 
-2.2734 g i e 
-1.7505 g i f 
-1.2190 g i g 
-2.0515 g i h 
-1.6366 g i l 
-0.4409 g i n 
-0.9652 g i o 
-2.0515 g i r 
-1.3526 g i s 
-1.1942 g i t 
-2.4495 g i u 
-0.8697 g i v 
-1.8474 g i w 
-2.7505 g i z 
-0.3979 g j e 
-0.3979 g j o 
-0.6990 g k e 
-0.3979 g k i 
-0.6990 g k n 
-0.7351 g l a 
-0.6532 g l e 
-0.6398 g l i 
-0.5843 g l o 
-0.9970 g l y 
-0.7217 g m a 
-0.7217 g m e 
-2.1367 g m h 
-1.5347 g m i 
-0.7750 g m o 
-1.6596 g m u 
-0.4124 g m y 
-0.6807 g n a 
-2.2122 g n c 
-0.7498 g n e 
-2.2122 g n h 
-0.5889 g n i 
-1.7351 g n m 
-0.6681 g n o 
-1.0361 g n s 
-1.9112 g n t 
-1.5307 g o a 
-1.5044 g o b 
-2.7348 g o c 
-1.7348 g o d 
-2.2577 g o e 
-0.8317 g o f 
-2.7348 g o g 
-2.2577 g o h 
-0.9639 g o i 
-2.0358 g o l 
-2.4338 g o m 
-0.8054 g o n 
-0.7220 g o o 
-2.7348 g o p 
-1.3369 g o r 
-2.4338 g o s 
-1.0188 g o t 
-1.0024 g o u 
-1.4338 g o v 
-2.4338 g o w 
-2.7348 g o y 
-0.6892 g p a 
-1.0414 g p e 
-0.6021 g p l 
-0.7984 g p o 
-0.5643 g p r 
-0.1761 g q u 
-0.6027 g r a 
-0.2512 g r e 
-2.8014 g r h 
-1.6875 g r i 
-0.8823 g r o 
-2.1993 g r u 
-1.5461 g r y 
-0.8724 g s a 
-1.7889 g s b 
-1.9138 g s c 
-2.0899 g s d 
-1.3495 g s e 
-1.7889 g s f 
-2.3909 g s g 
-1.1868 g s h 
-1.0687 g s i 
-2.0899 g s k 
-1.4878 g s l 
-2.0899 g s m 
-1.7889 g s n 
-0.7575 g s o 
-1.3909 g s p 
-2.3909 g s r 
-1.6920 g s s 
-0.7377 g s t 
-1.3118 g s u 
-1.1605 g s w 
-2.3909 g s y 
-2.4108 g t a 
-2.7118 g t c 
-1.8667 g t e 
-0.1881 g t h 
-1.7576 g t i 
-0.5386 g t o 
-1.8667 g t r 
-2.7118 g t s 
-2.4108 g t u 
-2.4108 g t w 
-1.2022 g u a 
-2.3483 g u b 
-0.6159 g u e 
-0.6240 g u i 
-0.8233 g u l 
-1.7462 g u m 
-1.2691 g u n 
-0.9772 g u p 
-1.6493 g u r 
-1.0261 g u s 
-2.1722 g u t 
-0.3010 g v e 
-0.9031 g v i 
-0.5051 g v o 
-0.5336 g w a 
-0.7524 g w e 
-0.6585 g w h 
-0.6128 g w i 
-1.2606 g w o 
-2.2148 g w r 
-0.6118 g y a 
-1.6532 g y b 
-1.6532 g y d 
-1.6532 g y e 
-1.3522 g y h 
-1.6532 g y i 
-1.6532 g y l 
-1.1761 g y m 
-0.5393 g y o 
-1.3522 g y p 
-1.6532 g y r 
-0.9542 g y t 
-1.3522 g y w 
-0.1249 g z a 
-1.9295 h a b 
-2.4783 h a c 
-0.8006 h a d 
-2.0360 h a f 
-2.2499 h a g 
-2.5131 h a h 
-2.1773 h a i 
-2.3135 h a k 
-1.2701 h a l 
-1.9295 h a m 
-0.7999 h a n 
-3.5923 h a o 
-1.4048 h a p 
-3.5923 h a q 
-1.2639 h a r 
-1.3370 h a s 
-0.5358 h a t 
-2.2306 h a u 
-0.8899 h a v 
-2.3135 h a w 
-3.1152 h a y 
-2.9902 h a z 
-1.2455 h b a 
-0.6021 h b e 
-1.9445 h b i 
-1.2455 h b l 
-0.6657 h b o 
-0.9902 h b r 
-0.7404 h b u 
-0.9445 h b y 
-0.6507 h c a 
-0.8155 h c e 
-1.1513 h c h 
-1.6284 h c i 
-1.9294 h c l 
-0.4381 h c o 
-0.9752 h c r 
-1.4523 h c u 
-0.8539 h d a 
-0.6198 h d e 
-0.7447 h d i 
-1.0000 h d o 
-0.6576 h d r 
-1.0969 h d u 
-1.6990 h d y 
-1.1772 h e a 
-1.6467 h e b 
-1.2910 h e c 
-1.2829 h e d 
-1.3126 h e e 
-1.4897 h e f 
-1.5290 h e g 
-1.5387 h e h 
-1.3951 h e i 
-2.5866 h e j 
-2.2766 h e k 
-1.4302 h e l 
-1.2163 h e m 
-1.1330 h e n 
-1.6446 h e o 
-1.3870 h e p 
-2.5044 h e q 
-0.8365 h e r 
-0.9544 h e s 
-1.5014 h e t 
-2.1343 h e u 
-1.7765 h e v 
-1.2687 h e w 
-2.6244 h e x 
-1.9023 h e y 
-3.4897 h e z 
-1.0334 h f a 
-0.9542 h f e 
-1.0334 h f i 
-1.1303 h f l 
-0.5019 h f o 
-0.8573 h f r 
-0.7782 h f u 
-1.1357 h g a 
-1.0107 h g e 
-1.6128 h g i 
-0.9138 h g l 
-0.9138 h g o 
-0.3118 h g r 
-1.3118 h g u 
-0.4326 h h a 
-0.6435 h h e 
-0.5734 h h i 
-1.0151 h h o 
-1.5465 h h u 
-2.2455 h h y 
-2.5368 h i a 
-2.3771 h i b 
-0.6856 h i c 
-1.9596 h i d 
-2.4497 h i e 
-2.5880 h i f 
-1.8098 h i g 
-2.4119 h i h 
-3.4911 h i j 
-3.1901 h i k 
-1.3544 h i l 
-1.1037 h i m 
-0.7887 h i n 
-2.6460 h i o 
-2.1109 h i p 
-1.7751 h i r 
-0.4029 h i s 
-1.4782 h i t 
-2.4497 h i v 
-2.3771 h i w 
-0.2553 h j o 
-0.4771 h j u 
-0.7782 h k e 
-0.4771 h k n 
-0.4771 h k y 
-0.8159 h l a 
-0.5563 h l e 
-0.7782 h l i 
-0.9031 h l o 
-1.8573 h l u 
-0.6021 h l y 
-0.9627 h m a 
-0.5399 h m e 
-2.1931 h m f 
-1.0792 h m i 
-1.1931 h m k 
-2.1931 h m m 
-0.9379 h m o 
-1.8921 h m r 
-1.8921 h m u 
-0.5304 h m y 
-0.9420 h n a 
-0.9420 h n e 
-1.5441 h n i 
-0.1639 h n o 
-1.5441 h n u 
-2.0780 h o a 
-2.6520 h o b 
-1.9988 h o c 
-2.0499 h o d 
-2.2541 h o e 
-1.3733 h o f 
-1.9753 h o h 
-2.0499 h o i 
-3.2541 h o j 
-2.3510 h o k 
-0.9444 h o l 
-1.7356 h o m 
-1.6743 h o n 
-1.5551 h o o 
-1.4345 h o p 
-0.9360 h o r 
-1.2048 h o s 
-1.6308 h o t 
-0.4759 h o u 
-2.4759 h o v 
-0.8527 h o w 
-0.7700 h p a 
-0.7243 h p e 
-1.1222 h p i 
-1.0253 h p l 
-1.0253 h p o 
-0.4938 h p r 
-1.4232 h p u 
-0.0512 h q u 
-1.2247 h r a 
-2.4800 h r d 
-0.4347 h r e 
-1.5769 h r i 
-0.3308 h r o 
-1.3039 h r u 
-1.6349 h r y 
-1.0700 h s a 
-1.5752 h s b 
-1.2742 h s c 
-1.0437 h s e 
-1.1950 h s h 
-1.2328 h s i 
-2.2742 h s k 
-1.7970 h s l 
-2.2742 h s m 
-1.9731 h s n 
-0.7828 h s o 
-1.5752 h s p 
-1.4960 h s s 
-0.7427 h s t 
-0.8118 h s u 
-1.7970 h s w 
-2.2742 h s y 
-1.2923 h t a 
-1.6086 h t b 
-2.0558 h t c 
-2.7547 h t d 
-1.2362 h t e 
-1.6940 h t f 
-2.3568 h t g 
-0.4771 h t h 
-1.2045 h t i 
-3.0558 h t j 
-1.7335 h t l 
-1.7335 h t m 
-1.8253 h t n 
-0.8462 h t o 
-2.0144 h t p 
-2.7547 h t q 
-1.7770 h t r 
-1.5372 h t s 
-1.3315 h t t 
-1.6244 h t u 
-3.0558 h t v 
-1.4223 h t w 
-1.1367 h t y 
-1.6064 h u d 
-2.1293 h u e 
-0.9532 h u g 
-0.7313 h u m 
-0.3709 h u n 
-1.7613 h u p 
-1.3054 h u r 
-0.8505 h u s 
-1.4603 h u t 
-0.2730 h v a 
-0.5740 h v e 
-1.1761 h v i 
-1.1761 h v o 
-0.6021 h w a 
-0.4550 h w e 
-0.6021 h w h 
-1.1729 h w i 
-1.1059 h w o 
-1.0875 h y a 
-1.9004 h y b 
-1.5024 h y c 
-1.5993 h y d 
-1.5993 h y e 
-2.2014 h y f 
-1.4232 h y g 
-1.2014 h y h 
-1.2014 h y i 
-1.4232 h y m 
-1.2983 h y n 
-0.7864 h y o 
-0.9709 h y p 
-1.9004 h y r 
-1.0253 h y s 
-1.3563 h y t 
-1.2472 h y u 
-1.2014 h y w 
-1.7243 h y y 
-0.3010 h z e 
-1.8702 i a a 
-1.7453 i a b 
-1.5692 i a c 
-1.4442 i a d 
-2.3473 i a e 
-1.8702 i a f 
-1.5692 i a g 
-2.6484 i a h 
-2.1712 i a i 
-0.7563 i a l 
-0.7791 i a m 
-0.7345 i a n 
-2.6484 i a o 
-2.0463 i a p 
-1.1043 i a r 
-0.9582 i a s 
-1.0049 i a t 
-2.6484 i a u 
-2.6484 i a v 
-1.6941 i a w 
-2.2934 i b a 
-2.1173 i b b 
-0.6259 i b e 
-1.2327 i b i 
-0.2088 i b l 
-1.8954 i b o 
-1.4483 i b r 
-1.6402 i b u 
-0.8244 i c a 
-2.2746 i c b 
-1.9959 i c c 
-2.4965 i c d 
-0.8481 i c e 
-2.1607 i c f 
-2.2332 i c g 
-0.4746 i c h 
-1.3996 i c i 
-1.4617 i c k 
-1.8122 i c l 
-2.1285 i c m 
-2.4295 i c n 
-1.1223 i c o 
-1.8122 i c p 
-3.2746 i c q 
-1.3401 i c r 
-1.8433 i c s 
-1.4617 i c t 
-1.3555 i c u 
-2.9736 i c v 
-2.1285 i c w 
-2.7975 i c y 
-1.3219 i d a 
-2.0927 i d b 
-2.0513 i d c 
-1.8623 i d d 
-0.3860 i d e 
-2.3146 i d f 
-2.1385 i d g 
-1.5245 i d h 
-0.8968 i d i 
-3.0927 i d j 
-3.0927 i d k 
-1.7705 i d l 
-1.2934 i d m 
-1.1842 i d n 
-1.5612 i d o 
-2.1385 i d p 
-2.6156 i d q 
-1.4907 i d r 
-1.4115 i d s 
-1.1842 i d t 
-2.4907 i d u 
-2.7917 i d v 
-1.6777 i d w 
-2.1896 i d y 
-2.5024 i e a 
-1.6178 i e c 
-0.3918 i e d 
-2.9795 i e e 
-1.7243 i e f 
-2.5024 i e g 
-2.3775 i e i 
-2.6785 i e k 
-1.5816 i e l 
-0.8460 i e n 
-2.6785 i e o 
-1.3263 i e r 
-0.7727 i e s 
-1.5024 i e t 
-2.3775 i e u 
-1.1535 i e v 
-1.7754 i e w 
-1.5646 i e x 
-1.5623 i f a 
-2.4654 i f b 
-2.7664 i f c 
-0.8633 i f e 
-0.8074 i f f 
-1.5623 i f h 
-0.6695 i f i 
-1.6525 i f l 
-1.9213 i f m 
-1.9213 i f n 
-1.0943 i f o 
-2.4654 i f p 
-2.7664 i f r 
-2.0674 i f s 
-0.7841 i f t 
-1.3862 i f u 
-1.3350 i f w 
-1.4047 i f y 
-1.1461 i g a 
-1.7418 i g e 
-1.3288 i g g 
-0.1840 i g h 
-1.4671 i g i 
-2.6712 i g l 
-2.9722 i g m 
-1.0801 i g n 
-1.7681 i g o 
-2.0180 i g r 
-2.0180 i g s 
-2.2732 i g t 
-1.3701 i g u 
-2.4951 i g z 
-0.1046 i h a 
-0.9384 i h e 
-1.7835 i h i 
-1.1069 i h o 
-1.1139 i i c 
-1.4150 i i f 
-1.1139 i i i 
-1.1139 i i l 
-0.9379 i i m 
-0.4607 i i n 
-1.4150 i i o 
-1.4150 i i r 
-1.1139 i i s 
-1.4150 i i t 
-1.4150 i i y 
-0.7782 i j e 
-0.1761 i j u 
-1.8543 i k a 
-0.1199 i k e 
-2.4564 i k h 
-1.6113 i k i 
-2.4564 i k m 
-0.9379 i k n 
-2.1553 i k r 
-1.3102 i k s 
-1.9792 i k t 
-2.1553 i k w 
-2.4564 i k y 
-1.4196 i l a 
-1.9777 i l b 
-2.7906 i l c 
-1.2052 i l d 
-0.6539 i l e 
-2.6145 i l f 
-2.6145 i l g 
-2.2466 i l h 
-1.0746 i l i 
-2.3135 i l k 
-0.4885 i l l 
-2.3927 i l m 
-2.1374 i l n 
-1.1622 i l o 
-3.0917 i l p 
-3.0917 i l q 
-2.6145 i l r 
-1.4789 i l s 
-1.7115 i l t 
-1.7694 i l u 
-2.6145 i l v 
-1.6293 i l w 
-1.2166 i l y 
-0.7948 i m a 
-1.5955 i m b 
-2.5163 i m c 
-2.9934 i m d 
-0.6150 i m e 
-2.0903 i m f 
-2.6924 i m g 
-1.9520 i m h 
-1.1739 i m i 
-2.9934 i m k 
-1.9934 i m l 
-1.3307 i m m 
-1.7893 i m n 
-1.7893 i m o 
-0.6510 i m p 
-2.2945 i m r 
-1.2376 i m s 
-1.4024 i m t 
-1.4883 i m u 
-2.9934 i m v 
-1.6132 i m w 
-2.3914 i m y 
-1.0902 i n a 
-2.5567 i n b 
-1.3742 i n c 
-1.2013 i n d 
-1.1877 i n e 
-1.6881 i n f 
-0.4596 i n g 
-1.7867 i n h 
-1.5739 i n i 
-3.3349 i n j 
-1.8343 i n k 
-1.8775 i n l 
-1.8982 i n m 
-2.0716 i n n 
-1.6536 i n o 
-2.3648 i n p 
-2.6980 i n q 
-2.3496 i n r 
-1.3178 i n s 
-0.7945 i n t 
-1.6566 i n u 
-2.1218 i n v 
-1.8725 i n w 
-2.9669 i n y 
-2.3647 i o b 
-2.6077 i o c 
-1.5865 i o d 
-2.5108 i o f 
-3.2098 i o g 
-3.2098 i o i 
-1.8118 i o l 
-2.5108 i o m 
-0.1157 i o n 
-2.6077 i o p 
-1.3647 i o r 
-2.0637 i o s 
-2.7327 i o t 
-0.9220 i o u 
-2.9088 i o v 
-3.2098 i o w 
-0.8201 i p a 
-2.1818 i p b 
-1.8808 i p c 
-1.8808 i p d 
-1.2276 i p e 
-2.1818 i p h 
-1.3367 i p i 
-1.2788 i p l 
-1.8808 i p m 
-1.1405 i p o 
-1.0679 i p p 
-1.1405 i p r 
-0.7047 i p s 
-1.0058 i p t 
-1.1818 i p u 
-2.1818 i p v 
-1.5798 i p w 
-2.1818 i p z 
-0.0152 i q u 
-1.1646 i r a 
-1.8336 i r b 
-1.1493 i r c 
-1.7666 i r d 
-0.5271 i r e 
-1.8336 i r f 
-2.4356 i r g 
-1.8336 i r h 
-1.1493 i r i 
-2.9128 i r j 
-2.2138 i r k 
-1.7988 i r l 
-1.4076 i r m 
-2.4356 i r n 
-1.2407 i r o 
-2.3107 i r p 
-2.9128 i r q 
-1.5325 i r r 
-0.8158 i r s 
-1.1967 i r t 
-2.0677 i r u 
-2.4356 i r v 
-1.5148 i r w 
-2.0677 i r y 
-1.1055 i s a 
-1.8331 i s b 
-1.1142 i s c 
-1.7270 i s d 
-1.1020 i s e 
-1.5414 i s f 
-1.8819 i s g 
-0.9208 i s h 
-1.1768 i s i 
-2.5509 i s j 
-2.2499 i s k 
-1.4333 i s l 
-1.4048 i s m 
-1.5461 i s n 
-1.4407 i s o 
-1.4407 i s p 
-2.2747 i s q 
-1.8819 i s r 
-1.1955 i s s 
-0.7562 i s t 
-1.9141 i s u 
-2.0428 i s v 
-1.4188 i s w 
-3.0280 i s y 
-1.2458 i t a 
-1.9353 i t b 
-1.9237 i t c 
-2.2248 i t d 
-0.9759 i t e 
-2.1813 i t f 
-2.7254 i t g 
-0.5393 i t h 
-0.9670 i t i 
-3.5035 i t j 
-3.5035 i t k 
-2.2994 i t l 
-1.7792 i t m 
-2.2482 i t n 
-1.5897 i t o 
-2.3574 i t p 
-1.9472 i t r 
-1.0674 i t s 
-1.2756 i t t 
-1.5950 i t u 
-2.9015 i t v 
-1.0122 i t w 
-1.1552 i t y 
-3.2025 i t z 
-0.2910 i u m 
-0.6335 i u n 
-1.3324 i u r 
-0.7884 i u s 
-1.6335 i u t 
-1.3464 i v a 
-0.0984 i v e 
-0.8550 i v i 
-2.6474 i v s 
-2.1703 i v u 
-2.1703 i v y 
-0.1362 i w a 
-1.2389 i w e 
-1.7160 i w h 
-0.8709 i w i 
-1.2688 i w o 
-1.2201 i x d 
-0.8051 i x e 
-1.3170 i x f 
-1.1409 i x h 
-1.3170 i x i 
-1.2201 i x m 
-0.7730 i x o 
-1.9191 i x p 
-1.6180 i x s 
-0.5041 i x t 
-1.6180 i x w 
-0.3979 i y i 
-0.6990 i y o 
-0.6990 i y s 
-0.9912 i z a 
-0.3100 i z e 
-1.6902 i z i 
-0.4349 i z o 
-1.9912 i z z 
-1.2304 j a g 
-1.4065 j a m 
-1.2304 j a n 
-1.4065 j a o 
-1.7076 j a p 
-1.0086 j a r 
-1.7076 j a s 
-0.4288 j a v 
-0.6284 j a w 
-1.4065 j a x 
-0.3010 j d e 
-0.0812 j e c 
-1.9445 j e l 
-1.6435 j e r 
-1.6435 j e s 
-0.9902 j e t 
-1.7297 j o h 
-0.9516 j o i 
-1.9058 j o k 
-2.2068 j o l 
-1.0307 j o r 
-2.2068 j o t 
-0.2337 j o u 
-0.7919 j o y 
-0.3010 j s a 
-0.6021 j s i 
-0.8985 j u d 
-1.9777 j u i 
-0.9777 j u l 
-1.1996 j u m 
-0.8316 j u n 
-1.3757 j u r 
-0.3343 j u s 
-1.6767 j u t 
-1.9777 j u v 
-0.7703 k a b 
-1.9165 k a c 
-1.9165 k a d 
-1.9165 k a f 
-1.2632 k a g 
-2.2175 k a h 
-2.2175 k a k 
-1.3724 k a l 
-1.9165 k a m 
-0.4771 k a n 
-1.9165 k a p 
-1.3724 k a r 
-1.1035 k a s 
-0.9387 k a t 
-2.2175 k a u 
-1.7404 k a w 
-1.2175 k a x 
-1.3617 k b a 
-0.5836 k b e 
-1.3617 k b o 
-1.3617 k b r 
-0.5166 k b u 
-0.5836 k b y 
-0.4075 k c a 
-1.3617 k c e 
-1.3617 k c h 
-0.8846 k c l 
-1.0607 k c o 
-0.5836 k c r 
-1.1461 k d a 
-0.6690 k d e 
-0.8451 k d i 
-0.4472 k d o 
-0.8451 k d u 
-0.8779 k e a 
-2.0682 k e b 
-2.0682 k e c 
-0.6470 k e d 
-1.2470 k e e 
-1.9299 k e f 
-2.6702 k e g 
-1.7952 k e h 
-1.5089 k e i 
-2.9713 k e j 
-2.9713 k e k 
-1.4528 k e l 
-1.6491 k e m 
-0.9106 k e n 
-1.3378 k e o 
-1.4398 k e p 
-1.8921 k e r 
-1.3480 k e s 
-0.9221 k e t 
-1.6289 k e u 
-2.2723 k e v 
-1.8573 k e w 
-2.2723 k e x 
-1.7952 k e y 
-0.3010 k f a 
-1.4771 k f i 
-0.5229 k f o 
-0.8751 k f r 
-0.1249 k g r 
-0.7911 k h a 
-0.6864 k h e 
-0.4708 k h i 
-0.8325 k h o 
-0.8783 k h u 
-2.1106 k i a 
-1.8096 k i c 
-2.5877 k i d 
-1.9857 k i e 
-2.2867 k i f 
-2.5877 k i g 
-2.1106 k i h 
-2.5877 k i k 
-2.2867 k i l 
-1.9857 k i m 
-0.1020 k i n 
-2.5877 k i o 
-2.1106 k i p 
-1.5463 k i r 
-1.5877 k i s 
-1.1727 k i t 
-2.2867 k i w 
-0.0193 k j a 
-0.4771 k k e 
-0.4771 k k n 
-0.5027 k l e 
-0.3979 k l i 
-0.9420 k l o 
-0.8451 k l y 
-0.7404 k m a 
-0.8195 k m e 
-0.9165 k m o 
-0.2881 k m y 
-0.5335 k n e 
-1.9428 k n i 
-0.2738 k n o 
-0.7967 k n u 
-2.0719 k o a 
-2.0719 k o c 
-2.0719 k o d 
-2.0719 k o e 
-0.3010 k o f 
-1.5948 k o h 
-1.7709 k o l 
-0.7709 k o n 
-1.7709 k o p 
-0.8958 k o r 
-1.0305 k o u 
-2.0719 k o v 
-0.1996 k p l 
-0.9777 k p o 
-0.6767 k p r 
-1.0792 k r a 
-0.3802 k r e 
-0.7782 k r i 
-0.7782 k r o 
-1.0792 k r u 
-0.8517 k s a 
-1.4538 k s b 
-1.5999 k s c 
-1.9978 k s d 
-1.8217 k s e 
-1.6968 k s f 
-2.2989 k s g 
-1.9978 k s h 
-1.1228 k s i 
-1.9978 k s l 
-1.8217 k s m 
-1.9978 k s n 
-0.6087 k s o 
-1.9978 k s p 
-1.6968 k s r 
-1.0201 k s s 
-0.9371 k s t 
-1.5207 k s u 
-1.0436 k s w 
-1.8217 k s y 
-2.1072 k t a 
-0.2621 k t h 
-0.3829 k t o 
-2.1072 k t s 
-1.8062 k t w 
-0.9542 k u l 
-0.8751 k u n 
-0.2218 k u p 
-0.8751 k u s 
-0.7304 k w a 
-0.6335 k w e 
-0.4431 k w h 
-0.7584 k w i 
-1.4574 k w o 
-1.0334 k y a 
-1.4314 k y b 
-1.4314 k y c 
-1.7324 k y d 
-1.2553 k y e 
-1.4314 k y f 
-1.2553 k y h 
-1.4314 k y i 
-0.7324 k y o 
-0.7324 k y r 
-1.1303 k y s 
-1.2553 k y t 
-0.9542 k y w 
-1.7237 l a b 
-0.9898 l a c 
-1.8001 l a d 
-3.2151 l a e 
-2.3120 l a f 
-2.3700 l a g 
-2.9141 l a h 
-1.2561 l a i 
-2.0390 l a k 
-2.0390 l a l 
-1.5524 l a m 
-0.5827 l a n 
-2.5161 l a o 
-1.7527 l a p 
-0.9574 l a r 
-0.8727 l a s 
-0.9251 l a t 
-1.8349 l a u 
-1.4443 l a v 
-1.9847 l a w 
-3.2151 l a x 
-1.3763 l a y 
-3.2151 l a z 
-1.0414 l b a 
-0.2975 l b e 
-2.0828 l b i 
-1.7818 l b l 
-0.9067 l b o 
-1.1285 l b r 
-2.0828 l b t 
-0.8275 l b u 
-1.7818 l b y 
-0.4281 l c a 
-1.5420 l c e 
-1.1441 l c h 
-2.0191 l c i 
-1.7181 l c l 
-0.6126 l c o 
-1.1160 l c r 
-0.7638 l c u 
-1.2396 l d a 
-1.0023 l d b 
-1.4485 l d c 
-1.8339 l d d 
-1.0355 l d e 
-1.4886 l d f 
-1.8339 l d g 
-0.9081 l d h 
-1.1167 l d i 
-2.5029 l d k 
-1.5176 l d l 
-1.5328 l d m 
-0.9426 l d n 
-1.3079 l d o 
-1.9386 l d p 
-1.5998 l d r 
-1.1412 l d s 
-1.2396 l d t 
-1.8661 l d u 
-2.5029 l d v 
-1.4359 l d w 
-2.2019 l d y 
-0.8595 l e a 
-1.7274 l e b 
-1.2952 l e c 
-1.0533 l e d 
-1.5682 l e e 
-1.4482 l e f 
-1.8406 l e g 
-1.4915 l e h 
-1.3196 l e i 
-2.5584 l e j 
-2.7345 l e k 
-1.9564 l e l 
-1.5884 l e m 
-1.1884 l e n 
-1.4635 l e o 
-1.6096 l e p 
-2.7345 l e q 
-1.3921 l e r 
-0.8946 l e s 
-0.9227 l e t 
-2.4713 l e u 
-1.6866 l e v 
-1.2502 l e w 
-2.2339 l e x 
-2.2339 l e y 
-0.7274 l f a 
-1.5786 l f b 
-1.8797 l f c 
-1.6755 l f d 
-1.5786 l f e 
-1.6244 l f f 
-2.2776 l f g 
-1.3234 l f h 
-0.8228 l f i 
-2.2776 l f j 
-1.7335 l f l 
-1.5372 l f m 
-1.8005 l f n 
-0.9554 l f o 
-1.9766 l f p 
-2.5786 l f q 
-1.6755 l f r 
-1.3234 l f s 
-0.9554 l f t 
-1.5786 l f u 
-2.1015 l f v 
-1.0735 l f w 
-2.2776 l f y 
-0.9912 l g a 
-0.6902 l g e 
-0.9120 l g i 
-1.0881 l g l 
-1.6902 l g n 
-0.7871 l g o 
-0.6902 l g r 
-1.0881 l g u 
-0.6488 l h a 
-0.4861 l h e 
-0.6110 l h i 
-0.7608 l h o 
-1.6902 l h u 
-1.4587 l i a 
-2.0105 l i b 
-1.4292 l i c 
-1.4903 l i d 
-1.0443 l i e 
-1.4822 l i f 
-0.9335 l i g 
-2.1354 l i h 
-2.7375 l i i 
-3.2146 l i j 
-0.8882 l i k 
-2.3115 l i l 
-1.4152 l i m 
-0.7628 l i n 
-2.3695 l i o 
-1.6705 l i p 
-1.9358 l i q 
-2.3115 l i r 
-1.2701 l i s 
-0.8566 l i t 
-1.4664 l i v 
-2.2603 l i w 
-3.2146 l i x 
-1.8166 l i z 
-0.1461 l j o 
-0.8451 l j u 
-1.1249 l k a 
-0.7270 l k e 
-1.9031 l k f 
-1.6021 l k h 
-0.6243 l k i 
-0.7570 l k n 
-1.3010 l k o 
-1.3010 l k s 
-1.3010 l k t 
-1.9031 l k u 
-1.6021 l k w 
-1.0580 l k y 
-1.2041 l l a 
-1.5254 l l b 
-1.8476 l l c 
-1.8476 l l d 
-0.8433 l l e 
-1.8476 l l f 
-2.1486 l l g 
-1.6257 l l h 
-0.9783 l l i 
-3.3247 l l j 
-2.2455 l l k 
-2.0694 l l l 
-1.5843 l l m 
-1.6004 l l n 
-0.8917 l l o 
-2.0025 l l p 
-1.9268 l l r 
-1.1848 l l s 
-0.9862 l l t 
-1.5185 l l u 
-2.7226 l l v 
-1.4986 l l w 
-0.8638 l l y 
-0.8888 l m a 
-2.3201 l m c 
-1.0191 l m e 
-2.3201 l m f 
-2.0191 l m h 
-1.0649 l m i 
-1.3659 l m l 
-2.0191 l m m 
-1.6212 l m n 
-0.5072 l m o 
-2.3201 l m p 
-2.0191 l m r 
-1.4750 l m s 
-2.0191 l m t 
-1.6212 l m u 
-2.0191 l m w 
-0.7291 l m y 
-1.2253 l n a 
-0.4619 l n e 
-1.2253 l n i 
-0.2808 l n o 
-1.5789 l o a 
-1.6247 l o b 
-1.2945 l o c 
-2.2267 l o d 
-1.1396 l o f 
-1.3957 l o g 
-3.1810 l o i 
-2.4820 l o m 
-0.7972 l o n 
-0.8865 l o o 
-1.6369 l o p 
-2.8800 l o q 
-1.3886 l o r 
-0.9991 l o s 
-1.8800 l o t 
-1.0841 l o u 
-1.8800 l o v 
-0.6786 l o w 
-2.5789 l o y 
-0.8081 l p a 
-1.9542 l p c 
-1.0512 l p e 
-1.9542 l p f 
-1.9542 l p g 
-0.8751 l p h 
-0.8751 l p i 
-1.0000 l p l 
-0.9542 l p o 
-0.7501 l p r 
-1.9542 l p s 
-1.4771 l p t 
-1.9542 l p u 
-0.1761 l q u 
-1.1043 l r a 
-0.1365 l r e 
-1.1043 l r i 
-1.9494 l r j 
-1.1712 l r o 
-1.9494 l r u 
-1.9494 l r y 
-0.9640 l s a 
-1.7933 l s b 
-1.4922 l s c 
-2.3953 l s d 
-0.8213 l s e 
-1.8513 l s f 
-1.3539 l s h 
-0.9482 l s i 
-2.6964 l s j 
-2.6964 l s k 
-1.9182 l s l 
-1.6550 l s m 
-1.9974 l s n 
-0.6920 l s o 
-1.9182 l s p 
-2.6964 l s q 
-2.0943 l s r 
-1.7421 l s s 
-0.8902 l s t 
-1.2984 l s u 
-2.6964 l s v 
-1.4411 l s w 
-2.2192 l s y 
-1.2965 l t a 
-2.2818 l t b 
-2.4579 l t c 
-1.2274 l t e 
-2.1569 l t f 
-0.3751 l t h 
-1.0513 l t i 
-2.7589 l t l 
-1.8047 l t m 
-2.7589 l t n 
-0.8897 l t o 
-2.7589 l t p 
-1.3118 l t r 
-1.5285 l t s 
-1.2676 l t t 
-2.2818 l t u 
-2.7589 l t v 
-1.6450 l t w 
-1.2965 l t y 
-1.6335 l u a 
-1.9345 l u b 
-1.3061 l u c 
-1.4574 l u d 
-0.9925 l u e 
-1.4226 l u g 
-1.5823 l u i 
-2.2355 l u k 
-2.5366 l u l 
-0.7372 l u m 
-0.9345 l u n 
-2.5366 l u o 
-1.1386 l u p 
-1.8376 l u r 
-0.9031 l u s 
-0.8833 l u t 
-1.3061 l u v 
-2.0594 l u x 
-1.3892 l v a 
-0.0567 l v e 
-1.2131 l v i 
-1.9912 l v o 
-0.4675 l w a 
-0.6966 l w e 
-0.6618 l w h 
-0.7615 l w i 
-1.2115 l w o 
-0.8508 l y a 
-1.2859 l y b 
-1.3018 l y c 
-1.3018 l y d 
-1.4807 l y e 
-1.3073 l y f 
-2.0008 l y g 
-1.4125 l y h 
-1.0910 l y i 
-2.6029 l y j 
-2.4268 l y k 
-1.4889 l y l 
-1.5817 l y m 
-1.6139 l y n 
-1.2137 l y o 
-1.5237 l y p 
-3.2049 l y q 
-1.3789 l y r 
-1.2365 l y s 
-0.9425 l y t 
-1.5422 l y u 
-2.2507 l y v 
-1.2182 l y w 
-2.4268 l y y 
-2.9039 l y z 
-2.0097 m a b 
-1.9817 m a c 
-0.9140 m a d 
-3.1858 m a e 
-2.4077 m a f 
-1.2882 m a g 
-2.8848 m a h 
-1.3166 m a i 
-2.7087 m a j 
-1.0995 m a k 
-1.1858 m a l 
-2.0719 m a m 
-0.6083 m a n 
-3.1858 m a o 
-2.1066 m a p 
-3.1858 m a q 
-1.0366 m a r 
-1.1991 m a s 
-0.9071 m a t 
-2.7087 m a v 
-2.8848 m a w 
-3.1858 m a x 
-1.2882 m a y 
-2.1858 m a z 
-1.1275 m b a 
-2.0569 m b c 
-0.5067 m b e 
-2.3579 m b f 
-1.0792 m b i 
-2.0569 m b j 
-0.8139 m b l 
-2.3579 m b n 
-1.2788 m b o 
-1.1538 m b r 
-1.3579 m b s 
-2.0569 m b t 
-0.8394 m b u 
-1.5798 m b y 
-1.2175 m c a 
-1.0414 m c e 
-0.6734 m c h 
-1.0414 m c l 
-0.4393 m c o 
-1.0414 m c r 
-1.2175 m c u 
-1.3010 m d a 
-0.5229 m d e 
-1.0000 m d i 
-0.8239 m d o 
-1.3010 m d r 
-0.8239 m d u 
-0.8239 m d y 
-0.9365 m e a 
-1.6338 m e b 
-1.7783 m e c 
-1.0002 m e d 
-1.8810 m e e 
-1.5800 m e f 
-2.0794 m e g 
-1.7049 m e h 
-1.3012 m e i 
-3.0571 m e j 
-2.7561 m e k 
-1.6954 m e l 
-1.3804 m e m 
-0.6860 m e n 
-1.4660 m e o 
-1.9110 m e p 
-2.7561 m e q 
-1.3453 m e r 
-1.2409 m e s 
-0.8503 m e t 
-1.8810 m e u 
-2.0157 m e v 
-1.4236 m e w 
-3.3581 m e x 
-2.5130 m e y 
-1.7782 m f a 
-0.9331 m f e 
-1.3010 m f i 
-1.4771 m f l 
-0.4164 m f o 
-0.4357 m f r 
-1.7782 m f u 
-1.0414 m g a 
-0.5643 m g e 
-1.0414 m g l 
-0.5643 m g o 
-0.7404 m g r 
-0.6146 m h a 
-0.4834 m h e 
-0.5441 m h i 
-1.0669 m h o 
-1.3680 m h u 
-2.6566 m i a 
-1.5597 m i c 
-1.2674 m i d 
-2.2586 m i e 
-2.1125 m i f 
-0.8821 m i g 
-2.6566 m i h 
-2.9576 m i k 
-0.9845 m i l 
-2.2586 m i m 
-0.3953 m i n 
-2.4805 m i o 
-2.4805 m i p 
-1.5597 m i r 
-1.0491 m i s 
-0.9282 m i t 
-2.2586 m i w 
-2.0545 m i x 
-0.3010 m j u 
-1.1461 m k e 
-0.8451 m k n 
-0.1461 m k o 
-1.3522 m l a 
-0.6532 m l e 
-0.9542 m l i 
-0.8081 m l o 
-1.6532 m l u 
-0.3745 m l y 
-0.9847 m m a 
-2.3997 m m b 
-1.9226 m m c 
-2.3997 m m d 
-0.5189 m m e 
-1.6215 m m h 
-0.7465 m m i 
-2.0986 m m m 
-2.3997 m m n 
-0.9083 m m o 
-2.3997 m m p 
-2.0986 m m r 
-2.0986 m m s 
-1.7007 m m t 
-1.3997 m m u 
-1.7007 m m w 
-0.8812 m m y 
-1.0479 m n a 
-0.4459 m n e 
-1.5250 m n l 
-1.8261 m n n 
-0.4837 m n o 
-1.8261 m n p 
-0.9810 m n s 
-1.8261 m n t 
-1.8261 m n v 
-1.8261 m n w 
-2.6042 m o a 
-2.7803 m o b 
-2.6042 m o c 
-1.6342 m o d 
-1.2425 m o f 
-2.6042 m o i 
-2.1271 m o k 
-2.1783 m o l 
-1.0946 m o m 
-0.8910 m o n 
-1.9352 m o o 
-0.5681 m o r 
-0.7739 m o s 
-1.2301 m o t 
-0.8535 m o u 
-1.4379 m o v 
-3.0813 m o y 
-0.7258 m p a 
-2.7789 m p b 
-0.7618 m p e 
-2.7789 m p f 
-2.7789 m p g 
-1.4778 m p h 
-1.6997 m p i 
-0.6717 m p l 
-0.6683 m p o 
-1.1991 m p r 
-1.6997 m p s 
-1.2875 m p t 
-2.0799 m p u 
-2.7789 m p w 
-2.1768 m p y 
-0.1761 m q u 
-0.6734 m r a 
-1.5185 m r b 
-1.5185 m r d 
-0.4771 m r e 
-1.5185 m r h 
-0.9165 m r i 
-1.5185 m r m 
-1.2175 m r n 
-1.2175 m r o 
-1.5185 m r t 
-1.5185 m r u 
-1.0465 m s a 
-2.1072 m s b 
-1.7093 m s c 
-2.1072 m s d 
-0.5631 m s e 
-1.9311 m s f 
-1.9311 m s h 
-1.1778 m s i 
-2.1072 m s k 
-1.9311 m s l 
-2.1072 m s m 
-1.9311 m s n 
-0.7955 m s o 
-1.8062 m s p 
-2.4082 m s q 
-2.1072 m s r 
-1.9311 m s s 
-0.7648 m s t 
-1.3668 m s u 
-1.2621 m s w 
-2.3522 m t a 
-2.0512 m t e 
-0.1167 m t h 
-1.8751 m t i 
-2.3522 m t n 
-0.7289 m t o 
-1.8751 m t r 
-0.5553 m u c 
-1.3477 m u l 
-2.2227 m u m 
-1.2685 m u n 
-1.8248 m u p 
-0.9923 m u r 
-0.3477 m u s 
-1.3196 m u t 
-0.2041 m v e 
-0.6021 m v o 
-0.9454 m w a 
-0.8107 m w e 
-0.3533 m w h 
-0.6443 m w i 
-1.3847 m w o 
-1.9868 m w r 
-1.6148 m y a 
-1.2790 m y b 
-1.5277 m y c 
-1.4077 m y d 
-1.3019 m y e 
-1.3582 m y f 
-1.8701 m y g 
-1.2627 m y h 
-1.7398 m y i 
-2.4722 m y j 
-2.6940 m y k 
-1.5691 m y l 
-1.5691 m y m 
-1.8094 m y n 
-1.5584 m y o 
-1.5691 m y p 
-3.1711 m y q 
-1.5277 m y r 
-0.8287 m y s 
-1.6940 m y t 
-0.5150 m y u 
-2.1297 m y v 
-1.5084 m y w 
-2.8701 m y y 
-2.5784 n a a 
-1.2510 n a b 
-1.4728 n a c 
-1.6489 n a d 
-3.1804 n a e 
-1.7033 n a f 
-1.6122 n a g 
-1.8187 n a h 
-1.9251 n a i 
-2.4814 n a j 
-1.9251 n a k 
-0.8859 n a l 
-1.3171 n a m 
-0.7790 n a n 
-2.5784 n a o 
-1.7333 n a p 
-2.8794 n a q 
-1.1235 n a r 
-0.9901 n a s 
-0.6919 n a t 
-2.4023 n a u 
-1.7180 n a v 
-1.6122 n a w 
-3.1804 n a y 
-2.8794 n a z 
-1.4688 n b a 
-0.4814 n b e 
-1.8367 n b i 
-2.0128 n b j 
-1.8367 n b l 
-0.8667 n b o 
-1.4108 n b r 
-0.6326 n b u 
-0.7341 n b y 
-1.5870 n c a 
-0.3737 n c e 
-1.3612 n c h 
-1.4746 n c i 
-0.4909 n c l 
-1.1698 n c o 
-1.3979 n c r 
-1.6394 n c t 
-2.4523 n c u 
-1.7833 n c y 
-1.1195 n d a 
-1.6629 n d b 
-1.5899 n d c 
-1.5632 n d d 
-0.8886 n d e 
-1.5860 n d f 
-1.8460 n d g 
-1.5275 n d h 
-0.9474 n d i 
-2.6771 n d j 
-2.4852 n d k 
-1.6676 n d l 
-1.3908 n d m 
-1.8605 n d n 
-1.1630 n d o 
-1.5595 n d p 
-3.0293 n d q 
-1.3154 n d r 
-1.0347 n d s 
-0.9298 n d t 
-1.6869 n d u 
-2.2511 n d v 
-1.2265 n d w 
-1.8320 n d y 
-1.0620 n e a 
-2.1759 n e b 
-1.4162 n e c 
-0.7912 n e d 
-1.7268 n e e 
-1.5108 n e f 
-2.1496 n e g 
-1.8749 n e h 
-1.3800 n e i 
-3.0790 n e j 
-3.0790 n e k 
-1.5876 n e l 
-1.7079 n e m 
-1.5349 n e n 
-1.2465 n e o 
-1.7780 n e p 
-2.5349 n e q 
-1.1982 n e r 
-0.9651 n e s 
-1.4558 n e t 
-2.1759 n e u 
-1.1573 n e v 
-1.2157 n e w 
-1.2866 n e x 
-1.3347 n e y 
-0.8573 n f a 
-0.9423 n f e 
-0.8116 n f i 
-0.9920 n f l 
-0.5468 n f o 
-0.9423 n f r 
-1.0481 n f u 
-0.9488 n g a 
-1.6054 n g b 
-1.5759 n g c 
-1.5993 n g d 
-1.0622 n g e 
-1.5816 n g f 
-2.0765 n g g 
-1.4567 n g h 
-1.1263 n g i 
-2.8546 n g j 
-2.8546 n g k 
-1.3168 n g l 
-1.4113 n g m 
-1.9382 n g n 
-1.1666 n g o 
-1.8232 n g p 
-3.1556 n g q 
-1.4929 n g r 
-1.1345 n g s 
-0.7682 n g t 
-1.2445 n g u 
-2.2806 n g v 
-1.2806 n g w 
-2.4153 n g y 
-0.5735 n h a 
-0.6543 n h e 
-0.5654 n h i 
-0.7537 n h o 
-1.2186 n h u 
-1.7072 n i a 
-2.3441 n i b 
-1.1584 n i c 
-1.8000 n i d 
-1.9181 n i e 
-1.3229 n i f 
-1.3160 n i g 
-1.8669 n i h 
-2.6451 n i i 
-2.5202 n i k 
-2.0430 n i l 
-1.2357 n i m 
-0.4788 n i n 
-1.4320 n i o 
-2.2191 n i p 
-3.1222 n i q 
-2.0430 n i r 
-0.9639 n i s 
-0.7878 n i t 
-2.5202 n i u 
-2.3441 n i v 
-1.6909 n i w 
-1.9461 n i z 
-1.3802 n j a 
-1.3802 n j e 
-0.3010 n j o 
-0.4260 n j u 
-1.4472 n k a 
-2.2253 n k b 
-2.2253 n k d 
-1.1461 n k e 
-2.2253 n k g 
-1.4472 n k h 
-0.7939 n k i 
-1.9243 n k l 
-1.9243 n k m 
-0.8636 n k n 
-0.8636 n k o 
-2.2253 n k p 
-0.7339 n k s 
-1.0492 n k t 
-1.0792 n k w 
-1.9243 n k y 
-1.0346 n l a 
-0.8974 n l e 
-1.0873 n l i 
-2.2776 n l l 
-1.4995 n l o 
-2.2776 n l u 
-0.1842 n l y 
-0.7799 n m a 
-2.4031 n m b 
-1.1727 n m e 
-1.1244 n m i 
-0.8591 n m o 
-1.5000 n m u 
-0.2892 n m y 
-1.4200 n n a 
-0.3336 n n e 
-0.9728 n n i 
-2.4200 n n k 
-0.4804 n n o 
-2.4200 n n s 
-1.3408 n n u 
-2.4200 n n y 
-2.1587 n o a 
-2.2752 n o b 
-1.7871 n o c 
-1.7264 n o d 
-2.1104 n o e 
-0.9135 n o f 
-2.4861 n o g 
-2.1104 n o h 
-1.7557 n o i 
-3.0881 n o k 
-1.8577 n o l 
-1.3721 n o m 
-1.2923 n o n 
-2.1850 n o o 
-2.0274 n o p 
-3.3892 n o q 
-1.0370 n o r 
-1.8978 n o s 
-0.4791 n o t 
-1.1878 n o u 
-2.2430 n o v 
-0.7981 n o w 
-2.4861 n o y 
-0.8641 n p a 
-0.9221 n p e 
-1.7672 n p h 
-1.1651 n p i 
-0.9221 n p l 
-0.6702 n p o 
-0.5630 n p r 
-1.4661 n p u 
-2.0682 n p y 
-0.0122 n q u 
-0.8868 n r a 
-0.2599 n r e 
-1.5152 n r i 
-0.8620 n r o 
-1.5152 n r u 
-0.9412 n r y 
-1.0442 n s a 
-1.7401 n s b 
-1.5962 n s c 
-2.0733 n s d 
-0.9913 n s e 
-1.8255 n s f 
-2.3421 n s g 
-1.3122 n s h 
-0.8351 n s i 
-2.7101 n s j 
-3.1872 n s k 
-1.7248 n s l 
-1.9320 n s m 
-2.0733 n s n 
-0.8972 n s o 
-1.6075 n s p 
-2.1458 n s r 
-1.8255 n s s 
-0.7044 n s t 
-1.3948 n s u 
-2.4883 n s v 
-1.0869 n s w 
-2.5852 n s y 
-1.2091 n t a 
-2.3430 n t b 
-2.2180 n t c 
-2.0797 n t d 
-0.9402 n t e 
-2.0072 n t f 
-2.4222 n t g 
-0.4910 n t h 
-1.0642 n t i 
-3.2972 n t j 
-3.2972 n t k 
-1.5608 n t l 
-1.9648 n t m 
-2.5569 n t n 
-0.8333 n t o 
-2.2003 n t p 
-2.5982 n t q 
-1.4136 n t r 
-1.2180 n t s 
-1.5896 n t t 
-1.6740 n t u 
-2.7531 n t v 
-1.6538 n t w 
-1.8579 n t y 
-1.4638 n u a 
-0.7128 n u e 
-2.5051 n u f 
-1.6601 n u i 
-0.9488 n u m 
-0.8924 n u n 
-1.9031 n u o 
-1.0902 n u p 
-2.5051 n u r 
-0.6187 n u s 
-0.7809 n u t 
-0.8129 n v a 
-0.4327 n v e 
-0.5576 n v i 
-0.8587 n v o 
-1.3358 n v u 
-2.1139 n v y 
-0.6582 n w a 
-0.6972 n w e 
-0.4315 n w h 
-0.8221 n w i 
-1.3177 n w o 
-2.0774 n w r 
-0.0185 n x i 
-1.1614 n y a 
-1.8048 n y b 
-1.3577 n y c 
-1.5495 n y d 
-1.3577 n y e 
-1.5038 n y f 
-2.5038 n y g 
-1.3277 n y h 
-1.3898 n y i 
-1.4624 n y l 
-1.2485 n y m 
-1.9017 n y n 
-0.7479 n y o 
-1.2028 n y p 
-1.4246 n y r 
-1.2028 n y s 
-0.8136 n y t 
-1.7256 n y u 
-2.5038 n y v 
-1.3277 n y w 
-2.2028 n y y 
-0.6021 n z a 
-0.6021 n z e 
-0.6021 n z i 
-1.8228 o a b 
-1.0538 o a c 
-0.8174 o a d 
-2.0269 o a f 
-2.2488 o a g 
-1.7259 o a h 
-1.9478 o a k 
-0.9935 o a l 
-1.5498 o a m 
-0.8626 o a n 
-1.6467 o a p 
-2.7259 o a q 
-0.9478 o a r 
-0.9478 o a s 
-0.8174 o a t 
-2.7259 o a u 
-1.7259 o a v 
-2.4249 o a w 
-2.4249 o a x 
-1.0180 o b a 
-2.1941 o b b 
-0.2562 o b e 
-2.6712 o b h 
-1.8930 o b i 
-1.3490 o b j 
-1.4671 o b l 
-1.8930 o b o 
-1.7169 o b r 
-0.8451 o b s 
-1.8261 o b t 
-1.3288 o b u 
-2.6712 o b v 
-2.0691 o b y 
-1.3188 o c a 
-1.1726 o c c 
-0.9151 o c e 
-1.3487 o c h 
-1.5654 o c i 
-0.4379 o c k 
-1.0325 o c l 
-0.8182 o c o 
-1.5654 o c r 
-1.8416 o c t 
-1.4157 o c u 
-1.2594 o d a 
-1.7243 o d b 
-2.1045 o d c 
-1.4812 o d d 
-0.8492 o d e 
-1.6895 o d f 
-1.6895 o d h 
-0.6796 o d i 
-2.8035 o d j 
-2.2014 o d l 
-1.9584 o d m 
-2.3263 o d n 
-0.6962 o d o 
-2.0253 o d p 
-1.5730 o d r 
-1.3263 o d s 
-1.5482 o d t 
-1.1802 o d u 
-1.5730 o d w 
-1.2014 o d y 
-1.0544 o e a 
-2.2304 o e b 
-2.2304 o e c 
-2.2304 o e d 
-1.9294 o e f 
-1.5315 o e i 
-1.9294 o e l 
-1.7533 o e m 
-0.8687 o e n 
-1.7533 o e r 
-0.4311 o e s 
-1.7533 o e t 
-2.2304 o e u 
-1.3854 o e v 
-2.2304 o e w 
-0.6622 o e x 
-2.2304 o e y 
-1.0388 o f a 
-1.8326 o f b 
-1.5390 o f c 
-1.7461 o f d 
-1.1038 o f e 
-1.4245 o f f 
-1.7342 o f g 
-1.4303 o f h 
-1.4245 o f i 
-2.3730 o f j 
-2.8253 o f k 
-1.6078 o f l 
-1.2854 o f m 
-1.9600 o f n 
-1.3363 o f o 
-1.6950 o f p 
-1.6444 o f r 
-1.2090 o f s 
-0.4832 o f t 
-2.0594 o f u 
-1.9700 o f v 
-1.3808 o f w 
-2.4573 o f y 
-1.5315 o g a 
-0.7186 o g e 
-1.9574 o g g 
-2.1335 o g h 
-0.5895 o g i 
-1.6564 o g l 
-1.9574 o g m 
-1.2884 o g n 
-0.8783 o g o 
-0.7356 o g r 
-2.4346 o g s 
-2.1335 o g t 
-1.5895 o g u 
-2.4346 o g w 
-1.2304 o g y 
-0.4604 o h a 
-0.8997 o h e 
-0.5415 o h i 
-2.4048 o h m 
-0.9577 o h o 
-2.4048 o h t 
-0.9899 o h u 
-2.1038 o h w 
-2.1038 o h y 
-2.3856 o i a 
-2.6866 o i b 
-0.9542 o i c 
-1.2395 o i d 
-2.0846 o i f 
-2.6866 o i g 
-2.6866 o i h 
-0.7782 o i l 
-1.8415 o i m 
-0.3403 o i n 
-1.7324 o i r 
-1.1184 o i s 
-1.1681 o i t 
-1.9877 o i w 
-0.0969 o j e 
-1.6021 o j o 
-0.8239 o j u 
-1.0638 o k a 
-2.1430 o k b 
-1.6659 o k c 
-1.9212 o k d 
-0.3649 o k e 
-1.8420 o k f 
-1.2979 o k h 
-1.0887 o k i 
-1.9212 o k l 
-1.8420 o k m 
-1.2777 o k n 
-1.5410 o k o 
-1.4740 o k p 
-2.6201 o k r 
-1.3897 o k s 
-1.5062 o k t 
-1.2979 o k u 
-1.6659 o k w 
-2.3191 o k y 
-1.4694 o l a 
-2.3988 o l b 
-1.2085 o l c 
-0.9005 o l d 
-0.6565 o l e 
-2.6998 o l f 
-3.0009 o l h 
-1.0714 o l i 
-3.0009 o l k 
-0.6745 o l l 
-3.0009 o l m 
-2.2227 o l n 
-0.8803 o l o 
-1.8547 o l s 
-2.0009 o l t 
-1.1558 o l u 
-1.8869 o l v 
-2.1558 o l y 
-1.2149 o m a 
-1.5364 o m b 
-2.6503 o m c 
-2.6503 o m d 
-0.3975 o m e 
-2.0763 o m f 
-2.7752 o m g 
-1.7472 o m h 
-1.3128 o m i 
-3.2524 o m j 
-2.3493 o m l 
-1.3439 o m m 
-2.7752 o m n 
-1.3030 o m o 
-0.9281 o m p 
-3.2524 o m q 
-2.2981 o m r 
-1.6291 o m s 
-1.1318 o m t 
-1.7083 o m u 
-2.9513 o m v 
-1.7900 o m w 
-1.1660 o m y 
-1.2203 o n a 
-1.7278 o n b 
-1.3389 o n c 
-1.4051 o n d 
-0.8418 o n e 
-1.6657 o n f 
-1.1934 o n g 
-1.6514 o n h 
-1.2203 o n i 
-2.9210 o n j 
-2.7168 o n k 
-1.4104 o n l 
-1.7939 o n m 
-2.0071 o n n 
-1.0517 o n o 
-2.2977 o n p 
-3.0179 o n q 
-2.4738 o n r 
-0.9048 o n s 
-0.7755 o n t 
-2.2977 o n u 
-1.9210 o n v 
-1.3844 o n w 
-2.1728 o n y 
-3.6199 o n z 
-2.9773 o o a 
-1.8311 o o b 
-2.9773 o o c 
-0.6917 o o d 
-2.9773 o o e 
-1.2138 o o f 
-2.5001 o o g 
-2.5001 o o h 
-2.9773 o o i 
-0.5224 o o k 
-1.3338 o o l 
-1.2138 o o m 
-0.8735 o o n 
-2.9773 o o o 
-1.8311 o o p 
-1.3862 o o r 
-1.9773 o o s 
-1.3438 o o t 
-1.3862 o o u 
-2.1991 o o v 
-2.1322 o o w 
-1.1308 o p a 
-0.3665 o p e 
-1.3010 o p h 
-1.1549 o p i 
-1.2076 o p l 
-2.2218 o p m 
-1.0655 o p o 
-1.1079 o p p 
-1.1938 o p r 
-1.6198 o p s 
-1.6990 o p t 
-1.5528 o p u 
-2.2218 o p w 
-0.0512 o q u 
-1.2515 o r a 
-1.9082 o r b 
-1.7357 o r c 
-1.0025 o r d 
-0.6930 o r e 
-2.0025 o r f 
-1.8582 o r g 
-1.5620 o r h 
-1.2222 o r i 
-3.5210 o r j 
-1.6949 o r k 
-1.6577 o r l 
-1.1390 o r m 
-1.5967 o r n 
-1.3596 o r o 
-2.1593 o r p 
-3.2200 o r q 
-1.4206 o r r 
-1.3009 o r s 
-0.8042 o r t 
-2.1060 o r u 
-2.8220 o r v 
-1.5433 o r w 
-1.6019 o r y 
-1.2609 o s a 
-2.5899 o s b 
-2.1640 o s c 
-0.5914 o s e 
-1.7053 o s h 
-1.0140 o s i 
-2.0671 o s l 
-2.3681 o s m 
-2.5899 o s n 
-1.3595 o s o 
-1.2097 o s p 
-0.7682 o s s 
-0.6107 o s t 
-1.7449 o s u 
-2.2220 o s w 
-2.7660 o s y 
-1.1711 o t a 
-1.6005 o t b 
-1.8346 o t c 
-1.9595 o t d 
-1.3040 o t e 
-2.0513 o t f 
-2.1356 o t g 
-0.3156 o t h 
-1.1644 o t i 
-2.4366 o t k 
-1.7904 o t l 
-1.7632 o t m 
-2.8046 o t n 
-1.4125 o t o 
-2.0513 o t p 
-2.8046 o t q 
-1.7904 o t r 
-1.3896 o t s 
-1.0803 o t t 
-1.9393 o t u 
-2.5827 o t v 
-1.6907 o t w 
-2.9807 o t y 
-1.9594 o u a 
-1.5577 o u b 
-2.0201 o u c 
-1.7300 o u d 
-2.7770 o u e 
-3.1450 o u f 
-1.1036 o u g 
-2.1907 o u h 
-2.6221 o u i 
-2.7190 o u k 
-0.8491 o u l 
-2.2419 o u m 
-0.9145 o u n 
-2.8440 o u o 
-2.2242 o u p 
-3.6221 o u q 
-0.6269 o u r 
-0.7986 o u s 
-0.7993 o u t 
-3.0201 o u u 
-3.6221 o u v 
-2.0310 o u w 
-1.6021 o v a 
-0.0504 o v e 
-1.1249 o v i 
-2.1139 o v o 
-0.9664 o w a 
-1.5922 o w b 
-1.8140 o w c 
-1.6628 o w d 
-0.6628 o w e 
-1.9638 o w f 
-2.3491 o w g 
-1.1772 o w h 
-1.1450 o w i 
-3.1942 o w j 
-2.7171 o w k 
-1.5410 o w l 
-1.7171 o w m 
-0.7128 o w n 
-1.4700 o w o 
-2.1942 o w p 
-2.7171 o w q 
-2.0181 o w r 
-1.3309 o w s 
-1.1489 o w t 
-2.1528 o w u 
-2.8932 o w v 
-1.5315 o w w 
-2.2400 o w y 
-3.1942 o w z 
-0.4260 o x e 
-0.4260 o x i 
-1.2041 o x m 
-1.2041 o x o 
-1.2041 o x y 
-0.7070 o y a 
-1.8633 o y b 
-1.7384 o y c 
-2.3404 o y d 
-1.1644 o y e 
-2.3404 o y g 
-1.2265 o y h 
-0.9091 o y i 
-2.0394 o y m 
-2.3404 o y n 
-0.4831 o y o 
-2.3404 o y r 
-1.2613 o y s 
-1.5623 o y t 
-2.3404 o y u 
-2.3404 o y v 
-1.3404 o y w 
-1.6415 o y y 
-0.0414 o z e 
-1.8319 p a b 
-1.3548 p a c 
-2.5723 p a d 
-2.2713 p a g 
-2.8733 p a h 
-1.1330 p a i 
-1.3170 p a l 
-2.8733 p a m 
-0.9048 p a n 
-2.0282 p a p 
-2.1744 p a q 
-0.4583 p a r 
-0.6638 p a s 
-1.1409 p a t 
-1.7272 p a u 
-2.5723 p a v 
-2.8733 p a w 
-2.1744 p a y 
-0.5563 p b e 
-0.6532 p b o 
-0.7782 p b u 
-0.5563 p b y 
-0.4150 p c a 
-0.6368 p c h 
-0.6368 p c o 
-1.1139 p c u 
-0.6532 p d e 
-0.9542 p d i 
-0.3522 p d o 
-0.9542 p d u 
-0.6665 p e a 
-2.6457 p e b 
-0.9297 p e c 
-1.1361 p e d 
-1.8676 p e e 
-1.6605 p e f 
-2.4239 p e g 
-3.1229 p e h 
-1.9468 p e i 
-1.5318 p e l 
-2.4239 p e m 
-0.9270 p e n 
-1.5318 p e o 
-2.5208 p e p 
-0.5512 p e r 
-1.4794 p e s 
-1.5208 p e t 
-3.1229 p e u 
-2.6457 p e v 
-2.2198 p e w 
-3.1229 p e x 
-2.8218 p e y 
-0.6990 p f a 
-1.1761 p f e 
-0.6990 p f o 
-0.3310 p f r 
-0.6990 p g a 
-0.6990 p g o 
-0.6990 p g r 
-0.6990 p g u 
-0.9877 p h a 
-0.2887 p h e 
-2.3856 p h h 
-0.7228 p h i 
-1.6866 p h l 
-1.7835 p h o 
-1.1552 p h r 
-2.3856 p h s 
-1.9085 p h t 
-1.7835 p h u 
-1.3442 p h y 
-2.1106 p i a 
-2.5877 p i b 
-0.9156 p i c 
-0.8024 p i d 
-1.0314 p i e 
-2.1106 p i f 
-2.5877 p i g 
-1.8887 p i h 
-2.5877 p i i 
-2.5877 p i k 
-1.1563 p i l 
-2.1106 p i m 
-0.6146 p i n 
-2.1106 p i o 
-2.2867 p i p 
-1.4416 p i r 
-1.7426 p i s 
-0.7244 p i t 
-1.9857 p i w 
-0.3010 p j u 
-0.4065 p l a 
-0.6429 p l e 
-0.8291 p l i 
-1.2685 p l o 
-1.5695 p l u 
-0.8248 p l y 
-0.7782 p m e 
-1.3802 p m o 
-0.1249 p m y 
-0.4771 p n e 
-0.3010 p n o 
-1.9094 p o c 
-2.2896 p o d 
-2.5114 p o e 
-1.5114 p o f 
-1.0541 p o i 
-1.4204 p o k 
-1.5262 p o l 
-2.6875 p o m 
-0.6403 p o n 
-1.7844 p o o 
-2.3865 p o p 
-0.7954 p o r 
-0.5588 p o s 
-1.5572 p o t 
-1.5262 p o u 
-2.9886 p o v 
-1.3451 p o w 
-1.2956 p p a 
-0.2460 p p e 
-1.3536 p p i 
-1.2286 p p l 
-0.8497 p p o 
-1.0130 p p r 
-1.4205 p p y 
-1.7717 p r a 
-0.5164 p r e 
-0.8984 p r i 
-0.2706 p r o 
-1.8261 p r u 
-0.9144 p s a 
-1.7160 p s b 
-1.7160 p s c 
-2.1931 p s d 
-0.6746 p s e 
-1.3480 p s f 
-1.2900 p s h 
-1.0170 p s i 
-1.8921 p s l 
-1.8921 p s m 
-2.1931 p s n 
-0.7782 p s o 
-2.1931 p s p 
-2.1931 p s s 
-0.9627 p s t 
-1.5911 p s u 
-1.1517 p s w 
-2.1931 p s y 
-1.1348 p t a 
-2.5328 p t b 
-1.9307 p t c 
-0.7474 p t e 
-2.0556 p t f 
-2.5328 p t g 
-0.6463 p t h 
-0.6137 p t i 
-2.0556 p t m 
-2.5328 p t n 
-1.1178 p t o 
-2.5328 p t p 
-1.9307 p t r 
-1.6877 p t s 
-1.3023 p t t 
-1.3866 p t u 
-2.2317 p t v 
-1.7546 p t w 
-1.9307 p t y 
-0.9933 p u b 
-2.1072 p u d 
-0.8285 p u l 
-1.6301 p u m 
-1.6301 p u n 
-1.4082 p u p 
-0.8062 p u r 
-1.3291 p u s 
-0.4260 p u t 
-1.1530 p u z 
-0.3979 p v a 
-0.6990 p v e 
-0.6990 p v o 
-0.2368 p w a 
-0.8846 p w e 
-1.5378 p w h 
-0.7597 p w i 
-1.8388 p w o 
-1.2368 p w r 
-1.0280 p y a 
-0.9031 p y c 
-1.5051 p y d 
-1.5051 p y e 
-1.5051 p y f 
-0.9031 p y o 
-1.2041 p y p 
-0.8062 p y r 
-0.7270 p y s 
-1.2041 p y t 
-1.5051 p y u 
-1.5051 p y w 
-0.3010 p z i 
-0.3010 q e d 
-0.6919 q u a 
-0.5655 q u e 
-0.2893 q u i 
-2.2601 q u o 
-2.5611 q u y 
-1.3377 r a b 
-1.2215 r a c 
-1.6096 r a d 
-1.2851 r a f 
-1.4075 r a g 
-2.3878 r a h 
-1.4229 r a i 
-2.5639 r a k 
-1.0076 r a l 
-1.6431 r a m 
-0.6626 r a n 
-1.6345 r a o 
-1.3292 r a p 
-1.5225 r a r 
-1.3464 r a s 
-0.7738 r a t 
-2.5639 r a u 
-1.3975 r a v 
-1.6345 r a w 
-1.8369 r a y 
-3.0410 r a z 
-0.8062 r b a 
-0.4810 r b e 
-2.3502 r b f 
-2.3502 r b h 
-1.5051 r b i 
-1.8731 r b l 
-2.0492 r b m 
-0.8317 r b o 
-2.3502 r b p 
-1.2363 r b r 
-2.3502 r b s 
-2.3502 r b t 
-0.8062 r b u 
-1.1461 r b y 
-0.9355 r c a 
-0.5307 r c e 
-0.7000 r c h 
-1.4883 r c i 
-1.5553 r c l 
-0.7712 r c o 
-1.3557 r c r 
-2.6345 r c s 
-2.1574 r c t 
-1.0112 r c u 
-2.1574 r c y 
-1.0508 r d a 
-1.8692 r d b 
-2.1033 r d c 
-2.1703 r d d 
-0.7811 r d e 
-1.8023 r d f 
-2.6474 r d g 
-1.9070 r d h 
-0.7257 r d i 
-2.6474 r d j 
-2.0453 r d l 
-1.9070 r d m 
-2.1033 r d n 
-1.1850 r d o 
-2.6474 r d p 
-2.9484 r d q 
-1.8345 r d r 
-0.6766 r d s 
-1.2952 r d t 
-1.5867 r d u 
-2.6474 r d v 
-1.0619 r d w 
-2.1703 r d y 
-0.7241 r e a 
-1.9283 r e b 
-1.2189 r e c 
-0.9416 r e d 
-1.3569 r e e 
-1.4215 r e f 
-1.6871 r e g 
-1.8340 r e h 
-1.3880 r e i 
-2.7478 r e j 
-3.2707 r e k 
-1.7747 r e l 
-1.2930 r e m 
-1.3481 r e n 
-1.6579 r e o 
-1.3880 r e p 
-2.2163 r e q 
-1.8965 r e r 
-0.9769 r e s 
-1.1194 r e t 
-2.1567 r e u 
-1.7793 r e v 
-1.3464 r e w 
-2.2163 r e x 
-1.8613 r e y 
-0.7427 r f a 
-2.5623 r f c 
-0.6592 r f e 
-1.5623 r f f 
-2.5623 r f h 
-1.1644 r f i 
-2.5623 r f j 
-1.5209 r f l 
-0.8995 r f o 
-2.5623 r f p 
-1.0999 r f r 
-2.5623 r f s 
-2.5623 r f t 
-0.6033 r f u 
-0.9661 r g a 
-2.3464 r g b 
-0.5268 r g e 
-2.3464 r g f 
-2.3464 r g g 
-1.2324 r g i 
-1.5682 r g l 
-2.3464 r g n 
-0.7666 r g o 
-0.9661 r g r 
-2.0453 r g s 
-1.5682 r g t 
-0.9661 r g u 
-1.7443 r g w 
-1.3464 r g y 
-0.3261 r h a 
-0.6498 r h e 
-1.0058 r h i 
-2.5740 r h m 
-0.8751 r h o 
-1.1938 r h u 
-2.5740 r h y 
-1.5641 r i a 
-1.2707 r i b 
-1.2265 r i c 
-1.5275 r i d 
-0.7553 r i e 
-1.7759 r i f 
-1.3071 r i g 
-2.1158 r i h 
-3.3199 r i i 
-1.9397 r i k 
-1.6124 r i l 
-1.7759 r i m 
-0.7179 r i n 
-1.0103 r i o 
-2.0412 r i p 
-2.4168 r i r 
-1.0146 r i s 
-1.1832 r i t 
-2.0412 r i u 
-1.6124 r i v 
-2.1158 r i w 
-2.7179 r i x 
-3.3199 r i y 
-1.7179 r i z 
-1.0700 r j a 
-1.3711 r j e 
-0.1158 r j o 
-1.6721 r j s 
-1.1950 r j u 
-0.7973 r k a 
-1.7634 r k b 
-1.4624 r k c 
-2.3655 r k d 
-0.7857 r k e 
-2.3655 r k f 
-2.3655 r k g 
-1.5204 r k h 
-1.0867 r k i 
-2.0645 r k j 
-1.3655 r k l 
-1.6665 r k m 
-0.8884 r k n 
-1.2194 r k o 
-2.3655 r k p 
-2.3655 r k r 
-0.9675 r k s 
-1.1894 r k t 
-2.0645 r k u 
-1.4624 r k w 
-2.0645 r k y 
-0.9638 r l a 
-0.8003 r l d 
-1.0765 r l e 
-1.0027 r l i 
-2.5079 r l l 
-1.3318 r l o 
-2.5079 r l p 
-1.7297 r l u 
-2.0307 r l w 
-0.3318 r l y 
-0.7505 r m a 
-2.0849 r m b 
-2.0849 r m c 
-2.4829 r m d 
-0.7386 r m e 
-2.7839 r m f 
-2.1818 r m h 
-0.8394 r m i 
-1.8808 r m l 
-2.1818 r m m 
-0.7669 r m o 
-2.3068 r m p 
-2.7839 r m r 
-1.0763 r m s 
-1.6700 r m t 
-1.5535 r m u 
-1.9388 r m w 
-0.9088 r m y 
-0.9661 r n a 
-1.8692 r n b 
-2.2952 r n c 
-2.4713 r n d 
-0.3761 r n e 
-1.9942 r n f 
-1.8692 r n h 
-0.8692 r n i 
-2.7723 r n j 
-2.0734 r n l 
-1.9942 r n m 
-2.7723 r n n 
-0.9031 r n o 
-1.9942 r n p 
-1.9942 r n r 
-1.3410 r n s 
-1.3744 r n t 
-1.9272 r n u 
-2.4713 r n v 
-1.7723 r n w 
-2.7723 r n y 
-1.3385 r o a 
-1.7710 r o b 
-1.1214 r o c 
-1.5985 r o d 
-2.9067 r o e 
-0.7071 r o f 
-1.8925 r o g 
-3.0828 r o h 
-2.6057 r o i 
-1.8787 r o j 
-2.0036 r o k 
-1.8787 r o l 
-0.8215 r o m 
-1.2834 r o n 
-1.5776 r o o 
-1.4862 r o p 
-1.6678 r o r 
-1.4862 r o s 
-1.9367 r o t 
-0.7414 r o u 
-1.6057 r o v 
-1.3346 r o w 
-2.6848 r o x 
-2.6057 r o y 
-2.9067 r o z 
-0.8593 r p a 
-0.7802 r p e 
-1.6375 r p h 
-1.7344 r p i 
-1.3365 r p l 
-0.8741 r p o 
-0.3587 r p r 
-2.0354 r p s 
-2.3365 r p t 
-1.8593 r p u 
-2.3365 r p w 
-0.0512 r q u 
-0.8689 r r a 
-0.6131 r r e 
-0.5319 r r i 
-2.7774 r r n 
-0.7997 r r o 
-1.6313 r r u 
-0.8480 r r y 
-1.0236 r s a 
-1.8570 r s b 
-1.6993 r s c 
-2.3621 r s d 
-0.7600 r s e 
-2.0611 r s f 
-2.3621 r s g 
-1.2757 r s h 
-1.2222 r s i 
-3.0611 r s j 
-2.4590 r s k 
-1.7187 r s l 
-1.6631 r s m 
-2.2160 r s n 
-0.8967 r s o 
-1.4813 r s p 
-2.3621 r s r 
-1.7823 r s s 
-0.6281 r s t 
-1.3890 r s u 
-2.4590 r s v 
-1.2687 r s w 
-3.0611 r s y 
-0.9127 r t a 
-2.2707 r t b 
-2.9696 r t c 
-2.7936 r t d 
-1.2707 r t e 
-2.4925 r t f 
-2.2707 r t g 
-0.3443 r t h 
-1.1123 r t i 
-1.8727 r t l 
-2.2707 r t m 
-2.9696 r t n 
-0.9322 r t o 
-2.9696 r t p 
-1.9919 r t r 
-1.7793 r t s 
-1.9919 r t t 
-1.2795 r t u 
-1.7025 r t w 
-1.5464 r t y 
-2.7936 r t z 
-1.4914 r u b 
-1.1640 r u c 
-1.3945 r u d 
-1.2331 r u e 
-1.1514 r u g 
-1.6955 r u h 
-1.4402 r u i 
-1.3733 r u l 
-1.1514 r u m 
-0.8204 r u n 
-0.9631 r u p 
-2.6955 r u r 
-0.6463 r u s 
-1.1514 r u t 
-0.5695 r v a 
-0.2685 r v e 
-1.1088 r v i 
-0.9923 r v o 
-2.2227 r v y 
-0.5114 r w a 
-0.6623 r w e 
-0.5823 r w h 
-0.9585 r w i 
-1.0435 r w o 
-2.1346 r w r 
-2.6117 r w t 
-1.0668 r y a 
-1.4599 r y b 
-1.4847 r y c 
-1.4251 r y d 
-1.4599 r y e 
-1.5248 r y f 
-1.7152 r y g 
-1.3534 r y h 
-1.0868 r y i 
-2.3172 r y j 
-2.7152 r y k 
-1.4364 r y l 
-1.1411 r y m 
-1.6738 r y n 
-1.0162 r y o 
-1.2380 r y p 
-2.2380 r y q 
-1.5690 r y r 
-1.0477 r y s 
-0.9868 r y t 
-2.0620 r y u 
-2.0620 r y v 
-1.2238 r y w 
-2.3172 r y y 
-3.3263 s a a 
-1.3051 s a b 
-1.7243 s a c 
-1.7353 s a d 
-3.0253 s a e 
-1.5629 s a f 
-1.6021 s a g 
-2.0253 s a h 
-0.9354 s a i 
-2.8492 s a j 
-1.6542 s a k 
-1.1710 s a l 
-1.4455 s a m 
-0.5712 s a n 
-3.3263 s a o 
-1.4342 s a p 
-2.8492 s a q 
-1.2436 s a r 
-1.2733 s a s 
-1.0808 s a t 
-2.0253 s a u 
-1.7136 s a v 
-1.4690 s a w 
-1.3625 s a y 
-1.1328 s b a 
-0.4544 s b e 
-1.4686 s b i 
-2.5478 s b j 
-1.6447 s b l 
-1.1498 s b o 
-1.0426 s b r 
-0.6393 s b u 
-0.9143 s b y 
-0.6421 s c a 
-2.9474 s c c 
-0.7861 s c e 
-1.2150 s c h 
-1.1840 s c i 
-1.6050 s c l 
-0.5050 s c o 
-1.0901 s c r 
-1.2314 s c u 
-2.6464 s c y 
-1.0062 s d a 
-0.4833 s d e 
-0.5023 s d i 
-0.8099 s d o 
-1.3284 s d r 
-1.2870 s d u 
-1.0067 s e a 
-2.1174 s e b 
-1.6071 s e c 
-0.9525 s e d 
-1.0003 s e e 
-1.8486 s e f 
-2.4854 s e g 
-1.9082 s e h 
-1.5206 s e i 
-3.4396 s e j 
-2.9625 s e k 
-0.9056 s e l 
-1.4103 s e m 
-1.0894 s e n 
-1.4574 s e o 
-1.8956 s e p 
-2.0972 s e q 
-1.1632 s e r 
-1.2067 s e s 
-1.2753 s e t 
-2.2935 s e u 
-1.4396 s e v 
-1.4185 s e w 
-1.7236 s e x 
-1.8714 s e y 
-0.6130 s f a 
-1.1261 s f e 
-0.8415 s f i 
-1.3271 s f l 
-0.5322 s f o 
-0.7941 s f r 
-1.6033 s f u 
-2.0804 s f y 
-0.8096 s g a 
-1.0314 s g e 
-2.1106 s g h 
-1.3324 s g i 
-0.9966 s g l 
-2.1106 s g n 
-0.6792 s g o 
-0.5085 s g r 
-2.1106 s g t 
-1.3324 s g u 
-2.1106 s g y 
-0.5658 s h a 
-2.0524 s h b 
-2.2865 s h c 
-2.8306 s h d 
-0.6197 s h e 
-2.0902 s h f 
-3.1316 s h g 
-2.0524 s h h 
-1.0524 s h i 
-3.1316 s h j 
-2.6545 s h k 
-2.5296 s h l 
-1.6265 s h m 
-2.8306 s h n 
-0.5876 s h o 
-3.1316 s h p 
-3.1316 s h q 
-1.8529 s h r 
-2.4326 s h s 
-1.7699 s h t 
-1.6403 s h u 
-3.1316 s h v 
-1.8763 s h w 
-2.5296 s h y 
-1.6394 s i a 
-1.1856 s i b 
-1.6066 s i c 
-1.0917 s i d 
-2.2330 s i e 
-1.4836 s i f 
-1.3513 s i g 
-1.8029 s i h 
-3.3469 s i j 
-2.8698 s i k 
-1.3341 s i l 
-1.2678 s i m 
-0.6532 s i n 
-1.0636 s i o 
-2.3469 s i p 
-3.0459 s i q 
-1.5911 s i r 
-1.2231 s i s 
-0.8206 s i t 
-2.7449 s i u 
-1.8284 s i v 
-2.0682 s i w 
-1.6066 s i x 
-2.3927 s i z 
-0.9420 s j a 
-1.2430 s j e 
-0.3680 s j o 
-0.4301 s j u 
-1.4713 s k a 
-0.4890 s k e 
-0.6931 s k i 
-1.5682 s k m 
-1.1289 s k n 
-1.3252 s k o 
-1.8692 s k r 
-1.4713 s k s 
-1.8692 s k t 
-1.3252 s k u 
-1.4713 s k w 
-0.8480 s k y 
-0.6854 s l a 
-0.7293 s l e 
-0.5918 s l i 
-0.6232 s l o 
-1.6232 s l u 
-1.0590 s l y 
-0.6114 s m a 
-2.7118 s m b 
-2.7118 s m c 
-1.1436 s m e 
-2.4108 s m f 
-2.7118 s m g 
-2.4108 s m h 
-0.9265 s m i 
-2.7118 s m l 
-2.4108 s m m 
-0.6824 s m o 
-2.1097 s m s 
-2.4108 s m t 
-1.2204 s m u 
-1.9337 s m w 
-0.5979 s m y 
-1.1929 s n a 
-0.5487 s n e 
-1.7212 s n i 
-0.2027 s n o 
-2.6243 s n u 
-2.6243 s n y 
-2.0119 s o a 
-1.9265 s o b 
-1.9587 s o c 
-2.3736 s o d 
-2.3736 s o e 
-0.4695 s o f 
-2.3736 s o g 
-2.2597 s o h 
-1.5541 s o i 
-1.3129 s o l 
-0.8371 s o m 
-0.9740 s o n 
-1.4243 s o o 
-2.0514 s o p 
-3.0726 s o q 
-0.9423 s o r 
-2.2275 s o s 
-1.8965 s o t 
-1.1184 s o u 
-2.0726 s o v 
-1.8422 s o w 
-2.6747 s o y 
-0.8672 s p a 
-0.5225 s p e 
-1.1853 s p h 
-0.9977 s p i 
-1.2310 s p l 
-0.7804 s p o 
-0.8389 s p r 
-2.8842 s p t 
-1.5832 s p u 
-0.0080 s q u 
-0.7970 s r a 
-0.2964 s r e 
-0.9317 s r i 
-0.8118 s r o 
-1.9731 s r s 
-1.3199 s r u 
-1.0144 s s a 
-2.1509 s s b 
-1.7597 s s c 
-2.1856 s s d 
-0.8054 s s e 
-2.1509 s s f 
-2.6628 s s g 
-1.5405 s s h 
-0.7195 s s i 
-2.7877 s s j 
-2.7877 s s k 
-1.9224 s s l 
-2.1187 s s m 
-2.1856 s s n 
-0.6873 s s o 
-1.5572 s s p 
-3.2648 s s q 
-2.4197 s s r 
-2.0607 s s s 
-0.9907 s s t 
-1.0946 s s u 
-2.7877 s s v 
-1.6738 s s w 
-2.2648 s s y 
-0.8615 s t a 
-1.8702 s t b 
-1.8702 s t c 
-2.0390 s t d 
-1.0137 s t e 
-1.9421 s t f 
-2.3189 s t g 
-0.7305 s t h 
-0.9509 s t i 
-3.1640 s t j 
-2.9421 s t k 
-1.9251 s t l 
-1.9168 s t m 
-2.2609 s t n 
-0.7643 s t o 
-2.0390 s t p 
-3.0390 s t q 
-1.0456 s t r 
-1.6543 s t s 
-1.4708 s t t 
-1.5655 s t u 
-2.6868 s t v 
-1.6588 s t w 
-2.3623 s t y 
-1.5686 s u a 
-1.1487 s u b 
-0.8962 s u c 
-1.1308 s u d 
-2.3979 s u e 
-1.2596 s u f 
-2.0458 s u g 
-2.3979 s u i 
-1.3872 s u l 
-1.1192 s u m 
-1.1135 s u n 
-0.8894 s u p 
-0.6108 s u r 
-1.3768 s u s 
-1.7447 s u t 
-0.7404 s v a 
-0.2543 s v e 
-1.0414 s v i 
-0.7984 s v o 
-0.8025 s w a 
-0.4140 s w e 
-0.6050 s w h 
-0.8848 s w i 
-1.1973 s w o 
-1.8663 s w r 
-1.2518 s y a 
-0.4634 s y e 
-2.0969 s y g 
-2.0969 s y h 
-1.4949 s y i 
-1.6198 s y l 
-1.6198 s y m 
-0.4841 s y o 
-2.0969 s y p 
-2.0969 s y r 
-1.0969 s y s 
-1.4949 s y t 
-1.7959 s y u 
-2.0969 s y v 
-1.7959 s y w 
-0.3010 s z p 
-3.0368 t a a 
-1.2886 t a b 
-1.3983 t a c 
-1.9954 t a d 
-3.3379 t a e 
-1.9399 t a f 
-1.6944 t a g 
-2.2587 t a h 
-0.9469 t a i 
-3.0368 t a j 
-1.0637 t a k 
-0.9994 t a l 
-1.7358 t a m 
-0.6111 t a n 
-2.4348 t a o 
-1.4402 t a p 
-2.6389 t a q 
-1.1257 t a r 
-1.2273 t a s 
-0.9876 t a t 
-2.6389 t a u 
-2.2965 t a v 
-2.1074 t a w 
-3.3379 t a x 
-3.0368 t a y 
-1.1775 t b a 
-0.2306 t b e 
-1.7004 t b i 
-1.6335 t b l 
-1.4786 t b o 
-1.2744 t b r 
-0.8875 t b u 
-1.0806 t b y 
-0.8702 t c a 
-1.1712 t c e 
-0.4796 t c h 
-1.7733 t c i 
-1.4723 t c l 
-0.5101 t c o 
-1.1043 t c r 
-1.5972 t c u 
-0.7465 t d a 
-0.7276 t d e 
-0.5246 t d i 
-0.6073 t d o 
-1.3205 t d r 
-1.4454 t d u 
-1.4777 t e a 
-2.4035 t e b 
-2.0725 t e c 
-0.7158 t e d 
-1.5673 t e e 
-2.2486 t e f 
-2.8506 t e g 
-2.0872 t e h 
-1.8869 t e i 
-3.5496 t e j 
-1.4777 t e l 
-1.4290 t e m 
-1.0541 t e n 
-1.5858 t e o 
-1.8336 t e p 
-3.5496 t e q 
-0.4013 t e r 
-1.3621 t e s 
-1.7503 t e t 
-2.7715 t e u 
-1.6923 t e v 
-1.9368 t e w 
-1.8336 t e x 
-1.0030 t f a 
-0.9469 t f e 
-0.7411 t f i 
-1.5111 t f l 
-0.4697 t f o 
-0.8633 t f r 
-1.0182 t f u 
-0.9294 t g a 
-0.9672 t g e 
-1.0086 t g i 
-1.0544 t g l 
-0.5462 t g o 
-0.6284 t g r 
-1.2304 t g u 
-0.9460 t h a 
-2.5812 t h b 
-2.4672 t h c 
-2.6604 t h d 
-0.1945 t h e 
-2.3340 t h f 
-2.8279 t h g 
-2.2258 t h h 
-0.9850 t h i 
-3.2802 t h j 
-3.7573 t h k 
-2.7361 t h l 
-2.4785 t h m 
-3.0169 t h n 
-1.3602 t h o 
-2.5532 t h p 
-3.2802 t h q 
-1.7299 t h r 
-2.0540 t h s 
-1.7159 t h t 
-2.1289 t h u 
-3.2802 t h v 
-2.0540 t h w 
-2.1775 t h y 
-1.8851 t i a 
-2.0814 t i b 
-1.0814 t i c 
-2.1136 t i d 
-1.6200 t i e 
-1.5791 t i f 
-1.8753 t i g 
-1.9157 t i h 
-3.0514 t i i 
-2.8296 t i k 
-1.2407 t i l 
-1.2002 t i m 
-0.7375 t i n 
-0.5431 t i o 
-2.4146 t i p 
-2.7504 t i q 
-2.0234 t i r 
-1.0048 t i s 
-1.1725 t i t 
-3.2275 t i u 
-1.5743 t i v 
-1.9603 t i w 
-3.5285 t i y 
-0.9542 t j a 
-0.4771 t j o 
-0.3522 t j u 
-0.5528 t k e 
-0.6990 t k i 
-0.3565 t k n 
-1.3979 t k o 
-0.7531 t l a 
-0.4381 t l e 
-1.0116 t l i 
-1.3675 t l o 
-2.7825 t l s 
-2.7825 t l u 
-0.5037 t l y 
-0.6419 t m a 
-0.7839 t m e 
-1.1538 t m i 
-2.6590 t m m 
-0.7245 t m o 
-1.1149 t m u 
-0.5726 t m y 
-1.3010 t n a 
-0.7270 t n e 
-1.0000 t n i 
-0.1955 t n o 
-1.7270 t n u 
-1.3329 t o a 
-1.2452 t o b 
-1.4994 t o c 
-1.4869 t o d 
-1.7440 t o e 
-0.8712 t o f 
-1.5221 t o g 
-1.4514 t o h 
-1.8802 t o i 
-3.0340 t o j 
-2.1590 t o k 
-1.6108 t o l 
-1.1905 t o m 
-1.1282 t o n 
-1.2595 t o o 
-1.4688 t o p 
-3.1590 t o q 
-1.1737 t o r 
-1.2956 t o s 
-0.8630 t o t 
-1.4430 t o u 
-2.1447 t o v 
-1.4293 t o w 
-3.6361 t o x 
-2.3351 t o y 
-0.8206 t p a 
-0.6915 t p e 
-1.4574 t p h 
-1.4574 t p i 
-1.0594 t p l 
-0.7584 t p o 
-0.5543 t p r 
-1.6335 t p u 
-2.2355 t p y 
-0.0164 t q u 
-0.4653 t r a 
-3.0519 t r d 
-0.6079 t r e 
-3.0519 t r f 
-0.8996 t r i 
-1.0105 t r o 
-3.0519 t r r 
-0.8318 t r u 
-1.4391 t r y 
-1.0013 t s a 
-1.4501 t s b 
-1.4998 t s c 
-1.9043 t s d 
-1.0140 t s e 
-1.8142 t s f 
-2.0183 t s g 
-1.2330 t s h 
-1.0838 t s i 
-2.5412 t s j 
-2.4162 t s k 
-1.8142 t s l 
-1.6381 t s m 
-1.5269 t s n 
-0.8115 t s o 
-1.3462 t s p 
-1.8422 t s r 
-1.4998 t s s 
-0.9111 t s t 
-1.2779 t s u 
-2.1732 t s v 
-1.2701 t s w 
-3.0183 t s y 
-1.6457 t t a 
-0.7214 t t e 
-0.3234 t t h 
-1.4282 t t i 
-1.2391 t t l 
-0.7453 t t o 
-1.8498 t t r 
-2.6457 t t u 
-1.7706 t t w 
-2.4026 t t y 
-1.2162 t u a 
-2.3217 t u b 
-2.1456 t u c 
-1.2248 t u d 
-2.0207 t u e 
-2.2248 t u f 
-2.6227 t u g 
-2.6227 t u i 
-2.4466 t u l 
-1.9238 t u m 
-0.8669 t u n 
-2.3217 t u o 
-1.0429 t u p 
-0.3206 t u r 
-1.0099 t u s 
-1.6450 t u t 
-2.9238 t u u 
-0.7068 t v a 
-0.3865 t v e 
-0.8451 t v i 
-0.6342 t v o 
-0.5099 t w a 
-0.6090 t w e 
-0.8000 t w h 
-1.0046 t w i 
-0.7354 t w o 
-2.5805 t w r 
-1.0022 t y a 
-1.5615 t y b 
-1.5104 t y c 
-1.6865 t y d 
-1.3855 t y e 
-1.1529 t y f 
-2.0667 t y g 
-1.4434 t y h 
-1.3343 t y i 
-2.4646 t y j 
-1.2605 t y l 
-1.4869 t y m 
-1.8114 t y n 
-0.6653 t y o 
-1.7243 t y p 
-1.9206 t y r 
-1.3033 t y s 
-0.9083 t y t 
-1.8114 t y v 
-1.1424 t y w 
-2.4646 t y y 
-0.4771 t z a 
-0.7782 t z b 
-0.7782 t z e 
-0.7782 t z t 
-1.5119 u a b 
-1.9379 u a c 
-1.7160 u a d 
-2.1139 u a e 
-2.4150 u a f 
-1.0000 u a g 
-1.9379 u a i 
-1.7160 u a k 
-0.4656 u a l 
-2.1139 u a m 
-1.5119 u a n 
-2.1139 u a p 
-2.4150 u a q 
-0.6368 u a r 
-1.9379 u a s 
-0.8239 u a t 
-2.4150 u a v 
-2.4150 u a y 
-2.0645 u b a 
-1.1350 u b b 
-1.4112 u b e 
-1.8884 u b i 
-1.1894 u b j 
-0.6753 u b l 
-2.0645 u b m 
-2.3655 u b o 
-1.8884 u b r 
-1.3241 u b s 
-0.3048 u b t 
-1.7634 u b u 
-1.5185 u c a 
-1.0295 u c c 
-1.0066 u c e 
-0.2775 u c h 
-1.3424 u c i 
-1.0179 u c k 
-1.6435 u c o 
-1.1063 u c t 
-2.2967 u c u 
-1.1793 u d a 
-2.4346 u d b 
-1.8325 u d c 
-0.4901 u d d 
-0.6787 u d e 
-1.3206 u d g 
-2.4346 u d h 
-1.0728 u d i 
-2.1335 u d l 
-1.7356 u d n 
-1.3554 u d o 
-2.4346 u d p 
-2.1335 u d r 
-0.9874 u d s 
-2.1335 u d t 
-2.4346 u d v 
-2.1335 u d w 
-1.3932 u d y 
-1.0804 u e a 
-1.8585 u e b 
-1.8585 u e c 
-0.8093 u e d 
-2.0804 u e f 
-1.7794 u e h 
-1.7794 u e i 
-1.7124 u e l 
-1.4783 u e m 
-0.8499 u e n 
-1.5575 u e o 
-2.5575 u e q 
-1.8585 u e r 
-0.4469 u e s 
-1.3022 u e t 
-2.0804 u e v 
-1.6033 u e w 
-2.0804 u e x 
-2.5575 u e y 
-1.3424 u f a 
-1.8195 u f e 
-0.0714 u f f 
-1.8195 u f i 
-1.8195 u f r 
-1.3424 u f t 
-2.0952 u g a 
-2.6972 u g b 
-2.3962 u g d 
-0.9812 u g e 
-2.6972 u g f 
-1.0538 u g g 
-0.1433 u g h 
-2.0952 u g i 
-2.6972 u g m 
-1.8521 u g o 
-2.3962 u g s 
-1.3750 u g u 
-0.2704 u h a 
-0.7677 u h e 
-0.6128 u h m 
-1.6128 u h o 
-2.5658 u i a 
-1.5245 u i c 
-0.5245 u i d 
-1.2871 u i e 
-2.2648 u i g 
-1.1034 u i l 
-1.1679 u i n 
-2.5658 u i p 
-1.1187 u i r 
-1.2648 u i s 
-0.5089 u i t 
-2.0887 u i v 
-2.0887 u i w 
-2.5658 u i x 
-0.7404 u k e 
-0.1383 u k n 
-0.8387 u l a 
-2.1540 u l b 
-1.9943 u l c 
-0.3396 u l d 
-1.7860 u l e 
-1.7860 u l f 
-1.9621 u l g 
-2.4093 u l h 
-1.3840 u l i 
-3.1082 u l k 
-1.1082 u l l 
-1.9621 u l m 
-2.4093 u l n 
-1.6458 u l o 
-2.1082 u l p 
-2.0668 u l r 
-1.5642 u l s 
-0.9976 u l t 
-2.6311 u l u 
-2.6311 u l v 
-2.1082 u l w 
-1.7465 u l y 
-0.8780 u m a 
-0.9513 u m b 
-2.6415 u m c 
-0.5696 u m e 
-1.7384 u m f 
-2.1644 u m h 
-1.0394 u m i 
-1.0394 u m m 
-1.4654 u m n 
-1.3404 u m o 
-1.1791 u m p 
-2.6415 u m r 
-1.1644 u m s 
-2.1644 u m t 
-1.4110 u m u 
-2.6415 u m w 
-2.0394 u m y 
-1.4871 u n a 
-2.6559 u n b 
-0.5168 u n c 
-0.4790 u n d 
-1.5858 u n e 
-2.2579 u n f 
-1.4871 u n g 
-2.1118 u n h 
-1.6347 u n i 
-1.8777 u n k 
-2.2579 u n l 
-2.4798 u n m 
-1.5020 u n n 
-1.8777 u n o 
-1.9792 u n p 
-3.2579 u n q 
-2.3548 u n r 
-2.1787 u n s 
-0.8688 u n t 
-2.7808 u n u 
-2.7808 u n v 
-2.2579 u n w 
-3.2579 u n y 
-1.0212 u o f 
-0.8451 u o n 
-1.0212 u o r 
-1.0212 u o s 
-1.3222 u o t 
-0.3222 u o u 
-1.3135 u p a 
-1.8048 u p b 
-2.5038 u p c 
-2.5038 u p d 
-1.1614 u p e 
-1.9597 u p f 
-2.8048 u p g 
-1.5495 u p h 
-1.3277 u p i 
-2.8048 u p j 
-1.9017 u p l 
-1.7256 u p m 
-2.3277 u p n 
-0.5038 u p o 
-0.8271 u p p 
-1.5744 u p r 
-1.5261 u p s 
-0.8805 u p t 
-2.3277 u p u 
-2.8048 u p v 
-1.1327 u p w 
-2.5038 u p y 
-0.3010 u q u 
-1.3178 u r a 
-1.6558 u r b 
-1.5686 u r c 
-1.3899 u r d 
-0.7080 u r e 
-1.3499 u r f 
-1.6277 u r g 
-1.5097 u r h 
-1.1215 u r i 
-1.7775 u r j 
-2.7069 u r k 
-1.6857 u r l 
-1.5930 u r m 
-0.9416 u r n 
-1.5381 u r o 
-1.3178 u r p 
-3.0080 u r q 
-1.4282 u r r 
-0.9868 u r s 
-1.4169 u r t 
-2.3090 u r u 
-2.0785 u r v 
-1.5930 u r w 
-1.7905 u r y 
-0.9933 u s a 
-1.6414 u s b 
-1.5777 u s c 
-1.8594 u s d 
-0.8519 u s e 
-1.7740 u s f 
-1.9659 u s g 
-1.3461 u s h 
-1.1006 u s i 
-2.2212 u s j 
-2.4430 u s k 
-1.4150 u s l 
-1.6771 u s m 
-2.0170 u s n 
-1.5979 u s o 
-1.5679 u s p 
-2.5222 u s q 
-1.8232 u s r 
-1.1006 u s s 
-0.5917 u s t 
-1.6649 u s u 
-2.1798 u s v 
-1.5777 u s w 
-2.5222 u s y 
-1.0908 u t a 
-1.7228 u t b 
-1.7898 u t c 
-1.8912 u t d 
-1.0560 u t e 
-1.5467 u t f 
-2.2669 u t g 
-0.9294 u t h 
-0.9447 u t i 
-2.5679 u t k 
-1.8275 u t l 
-1.4457 u t m 
-1.6928 u t n 
-1.1488 u t o 
-2.3918 u t p 
-2.0560 u t r 
-1.3638 u t s 
-0.6321 u t t 
-1.7076 u t u 
-2.3918 u t v 
-1.3126 u t w 
-1.9658 u t y 
-0.6021 u u m 
-0.4260 u u n 
-0.9031 u u p 
-0.9031 u u s 
-0.9379 u v e 
-0.0726 u v i 
-0.7570 u w e 
-1.3010 u w h 
-0.2218 u w i 
-0.8239 u w o 
-0.6990 u x p 
-0.2218 u x u 
-0.3010 u y t 
-0.0414 u z z 
-1.4271 v a a 
-1.5618 v a b 
-1.7580 v a c 
-1.8250 v a d 
-2.6031 v a e 
-2.6031 v a f 
-1.3990 v a g 
-2.0011 v a h 
-1.1560 v a i 
-1.0121 v a l 
-2.6031 v a m 
-0.7223 v a n 
-2.1260 v a o 
-1.0980 v a p 
-1.3021 v a r 
-0.7902 v a s 
-0.8956 v a t 
-1.3990 v a u 
-2.6031 v a v 
-1.7580 v a w 
-1.3928 v e a 
-1.4944 v e b 
-1.9763 v e c 
-1.2230 v e d 
-2.1524 v e e 
-1.8514 v e f 
-1.9094 v e g 
-1.9094 v e h 
-1.7131 v e i 
-2.7545 v e j 
-3.1524 v e k 
-1.2308 v e l 
-1.7633 v e m 
-0.9443 v e n 
-1.8003 v e o 
-2.1747 v e p 
-2.9763 v e q 
-0.3736 v e r 
-1.1612 v e s 
-1.3199 v e t 
-1.9483 v e u 
-3.1524 v e v 
-1.7814 v e w 
-3.1524 v e x 
-2.1747 v e y 
-1.2131 v i a 
-1.3020 v i c 
-0.9542 v i d 
-1.3222 v i e 
-2.1673 v i f 
-1.5305 v i g 
-1.3657 v i k 
-1.6030 v i l 
-0.4655 v i n 
-1.1393 v i o 
-1.8663 v i r 
-0.9284 v i s 
-1.3434 v i t 
-2.3434 v i u 
-1.5653 v i v 
-2.1189 v o c 
-0.6418 v o i 
-2.1189 v o k 
-0.4243 v o l 
-1.7210 v o m 
-1.8179 v o n 
-0.9286 v o r 
-1.1895 v o t 
-1.4200 v o u 
-2.1189 v o w 
-0.9428 v o y 
-0.3010 v s a 
-0.0458 v u l 
-0.7501 v y a 
-1.1761 v y b 
-0.9542 v y c 
-0.9542 v y f 
-1.6532 v y g 
-1.6532 v y h 
-1.1761 v y i 
-1.1761 v y l 
-1.6532 v y n 
-1.3522 v y r 
-0.9542 v y s 
-0.9542 v y t 
-1.6532 v y w 
-1.6532 v y y 
-2.7410 w a b 
-2.8659 w a c 
-2.6440 w a d 
-3.0420 w a f 
-3.3430 w a g 
-3.3430 w a h 
-1.8517 w a i 
-2.0643 w a k 
-1.3056 w a l 
-2.5649 w a m 
-1.4622 w a n 
-3.0420 w a p 
-1.0463 w a r 
-0.2351 w a s 
-1.0508 w a t 
-1.6709 w a v 
-3.3430 w a w 
-3.0420 w a x 
-1.0066 w a y 
-0.4771 w b a 
-0.3802 w b e 
-1.0792 w b o 
-1.0792 w b u 
-1.2041 w b y 
-0.4771 w c a 
-1.5185 w c h 
-0.9165 w c l 
-0.4771 w c o 
-0.8195 w c r 
-0.9345 w d a 
-0.3782 w d e 
-0.8553 w d i 
-0.7304 w d o 
-1.1563 w d r 
-1.3324 w d u 
-1.0689 w e a 
-2.2314 w e b 
-1.6378 w e c 
-1.2485 w e d 
-1.5193 w e e 
-1.8269 w e f 
-2.2314 w e g 
-1.0735 w e h 
-1.9304 w e i 
-3.3454 w e j 
-2.6464 w e k 
-1.0294 w e l 
-1.5325 w e m 
-1.3201 w e n 
-2.3454 w e o 
-2.0030 w e p 
-0.5760 w e r 
-1.1522 w e s 
-1.8139 w e t 
-1.2662 w e v 
-1.0643 w e w 
-2.7433 w e x 
-3.3454 w e y 
-1.1973 w f a 
-1.0212 w f e 
-1.7993 w f i 
-1.7993 w f l 
-0.9542 w f o 
-1.1973 w f r 
-0.2083 w f u 
-0.6990 w g a 
-1.0000 w g i 
-1.0000 w g l 
-0.6990 w g o 
-0.6990 w g r 
-1.0000 w g u 
-0.7052 w h a 
-0.7102 w h e 
-0.3758 w h i 
-0.8011 w h o 
-3.2467 w h u 
-1.5565 w h y 
-2.6253 w i a 
-2.8014 w i b 
-2.0610 w i c 
-1.7045 w i d 
-2.0610 w i f 
-1.4896 w i g 
