#############################################################################
## Copyright (c) 1996, Carnegie Mellon University, Cambridge University,
## Ronald Rosenfeld and Philip Clarkson
#############################################################################
=============================================================================
===============  This file was produced by the CMU-Cambridge  ===============
===============     Statistical Language Modeling Toolkit     ===============
=============================================================================
This is a 3-gram language model, based on a vocabulary of 216 words,
  which begins "</s>", "<s>", "a"...
This is an OPEN-vocabulary model (type 1)
  (OOVs were mapped to UNK, which is treated as any other vocabulary word)
Absolute discounting was applied.
1-gram discounting constant : 0.411765
2-gram discounting constant : 0.529657
3-gram discounting constant : 0.729646
This file is in the ARPA-standard format introduced by Doug Paul.

p(wd3|wd1,wd2)= if(trigram exists)           p_3(wd1,wd2,wd3)
                else if(bigram w1,w2 exists) bo_wt_2(w1,w2)*p(wd3|wd2)
                else                         p(wd3|w2)

p(wd2|wd1)= if(bigram exists) p_2(wd1,wd2)
            else              bo_wt_1(wd1)*p_1(wd2)

All probs and back-off weights (bo_wt) are given in log10 form.

Data formats:

Beginning of data mark: \data\
ngram 1=nr            # number of 1-grams
ngram 2=nr            # number of 2-grams
ngram 3=nr            # number of 3-grams

\1-grams:
p_1     wd_1 bo_wt_1
\2-grams:
p_2     wd_1 wd_2 bo_wt_2
\3-grams:
p_3     wd_1 wd_2 wd_3 

end of data mark: \end\

\data\
ngram 1=217
ngram 2=1257
ngram 3=3242

\1-grams:
-4.2552 <UNK>	0.0000
-0.8292 </s>	-3.2524
-99.0000 <s>	-0.6751
-1.4840 a	-0.6709
-4.2552 about	0.0000
-4.2552 after	0.0000
-4.2552 all	0.0000
-4.2552 an	0.0000
-2.9252 and	-0.4541
-4.2552 any	0.0000
-4.0358 apostrophe	-0.2659
-4.0358 april	-0.2758
-4.2552 are	0.0000
-4.0358 area	-0.2760
-4.2552 as	0.0000
-4.2552 at	0.0000
-3.2505 august	-0.5744
-1.7313 b	-0.5673
-4.2552 back	0.0000
-4.2552 be	0.0000
-4.2552 been	0.0000
-4.2552 before	0.0000
-4.2552 but	0.0000
-4.2552 by	0.0000
-1.9327 c	-0.2811
-4.2552 called	0.0000
-4.2552 can	0.0000
-4.0358 code	-0.2646
-4.2552 could	0.0000
-1.8028 d	-0.3923
-4.2552 day	0.0000
-4.0358 december	-0.2760
-4.2552 did	0.0000
-4.2552 do	0.0000
-4.2552 down	0.0000
-1.4099 e	-0.5702
-4.2552 each	0.0000
-1.6218 eight	-0.8986
-4.0358 eighteen	-0.2759
-4.0358 eighteenth	-0.2740
-4.0358 eighth	-0.2740
-2.6414 eighty	-0.3950
-3.2505 eleven	-0.1912
-4.0358 eleventh	-0.2740
-1.8832 enter	-0.7444
-2.2923 erase	-0.2668
-1.9952 f	-0.2032
-3.6045 february	-0.2739
-3.1437 fifteen	-0.4200
-3.6045 fifteenth	-0.5750
-3.6045 fifth	-0.2636
-2.2420 fifty	-0.5727
-4.2552 find	0.0000
-3.3924 first	-0.7511
-1.5009 five	-0.9943
-4.2552 for	0.0000
-2.3807 forty	-0.6271
-1.5863 four	-0.9087
-2.8715 fourteen	-0.4366
-4.0358 fourth	-0.2740
-4.2552 from	0.0000
-1.7462 g	-0.4980
-4.2552 get	0.0000
-2.8236 go	-1.2064
-4.2552 good	0.0000
-1.6393 h	-0.3782
-4.2552 had	0.0000
-3.6045 half	-0.5074
-4.2552 hall	0.0000
-4.2552 has	0.0000
-4.2552 have	0.0000
-4.2552 he	0.0000
-2.7413 help	-1.2855
-4.2552 her	0.0000
-4.2552 him	0.0000
-4.2552 his	0.0000
-4.2552 how	0.0000
-2.7413 hundred	-0.5795
-1.5890 i	-0.6658
-4.2552 if	0.0000
-4.2552 in	0.0000
-4.2552 into	0.0000
-4.2552 is	0.0000
-4.2552 it	0.0000
-4.2552 its	0.0000
-2.1279 j	-0.2613
-3.6045 january	-0.2758
-3.3924 july	-0.2731
-3.6045 june	-0.2733
-4.2552 just	0.0000
-1.9628 k	-0.1576
-4.2552 know	0.0000
-1.6636 l	-0.4911
-4.2552 lane	0.0000
-4.2552 like	0.0000
-4.2552 little	0.0000
-4.2552 long	0.0000
-4.2552 look	0.0000
-1.8580 m	-0.2644
-4.2552 made	0.0000
-4.2552 make	0.0000
-4.2552 man	0.0000
-4.2552 many	0.0000
-3.3924 march	-0.2732
-3.3924 may	-0.2712
-4.2552 me	0.0000
-4.2552 memory	0.0000
-4.2552 more	0.0000
-4.2552 most	0.0000
-4.2552 much	0.0000
-4.2552 my	0.0000
-1.5837 n	-0.5722
-4.2552 new	0.0000
-1.7617 nine	-0.6895
-2.3342 nineteen	-1.0404
-2.8236 ninety	-0.4156
-3.6045 ninth	-0.2710
-2.6126 no	-1.4105
-4.2552 not	0.0000
-4.2552 now	0.0000
-1.6078 o	-0.4006
-3.3924 october	-0.2730
-3.6045 of	-0.2708
-1.9691 oh	-0.8437
-4.2552 on	0.0000
-1.3635 one	-1.0287
-4.2552 only	0.0000
-4.2552 or	0.0000
-4.2552 other	0.0000
-4.2552 our	0.0000
-4.2552 out	0.0000
-4.2552 over	0.0000
-1.8072 p	-0.6458
-4.2552 people	0.0000
-2.3342 q	-0.2289
-1.4579 r	-0.7267
-2.5856 repeat	-1.4368
-4.2552 right	0.0000
-2.0376 rubout	-0.4147
-1.6276 s	-0.6296
-4.2552 said	0.0000
-4.2552 same	0.0000
-3.6045 second	-0.5750
-4.2552 see	0.0000
-3.1437 september	-0.2710
-1.6513 seven	-0.7646
-3.1437 seventeen	-0.4225
-4.0358 seventh	-0.2740
-2.3973 seventy	-0.5985
-4.2552 she	0.0000
-1.5916 six	-0.8879
-3.3924 sixteen	-0.4454
-4.0358 sixteenth	-0.2740
-4.0358 sixth	-0.2740
-1.9505 sixty	-0.8659
-4.2552 so	0.0000
-4.2552 some	0.0000
-2.7805 start	-1.2477
-2.6126 stop	-1.4105
-1.4924 t	-0.7182
-2.6722 ten	-0.4102
-4.2552 than	0.0000
-4.2552 that	0.0000
-4.2552 the	0.0000
-4.2552 their	0.0000
-4.2552 them	0.0000
-4.2552 then	0.0000
-4.2552 there	0.0000
-4.2552 these	0.0000
-4.2552 they	0.0000
-4.2552 think	0.0000
-3.3924 third	-0.7511
-3.3924 thirtieth	-0.7511
-2.2664 thirty	-0.6087
-4.2552 this	0.0000
-2.8715 thousand	-0.2257
-1.6829 three	-0.7743
-4.2552 through	0.0000
-4.2552 time	0.0000
-4.2552 to	0.0000
-4.2552 too	0.0000
-3.6045 twelfth	-0.5750
-2.8715 twelve	-0.2186
-4.2552 twelvth	0.0000
-4.0358 twentieth	-0.2740
-2.2189 twenty	-0.4399
-1.3844 two	-1.0920
-1.7777 u	-0.3024
-4.2552 up	0.0000
-4.2552 use	0.0000
-4.2552 used	0.0000
-2.0020 v	-0.5329
-4.2552 very	0.0000
-1.9505 w	-0.2752
-4.2552 was	0.0000
-4.2552 water	0.0000
-4.2552 way	0.0000
-4.2552 we	0.0000
-4.2552 wean	0.0000
-4.2552 were	0.0000
-4.2552 what	0.0000
-4.2552 when	0.0000
-4.2552 where	0.0000
-4.2552 which	0.0000
-4.2552 who	0.0000
-4.2552 will	0.0000
-4.2552 with	0.0000
-4.2552 words	0.0000
-4.2552 would	0.0000
-4.2552 write	0.0000
-2.3058 x	-0.0721
-2.0020 y	-0.1907
-2.4917 yes	-1.5286
-4.2552 you	0.0000
-4.2552 your	0.0000
-2.1561 z	-0.0453
-2.2541 zero	-0.6791

\2-grams:
-0.0002 </s> <s> 0.1396
-1.8163 <s> a -0.0441
-3.3044 <s> april 0.1391
-3.3044 <s> area 0.1391
-2.4364 <s> august 0.1391
-1.5379 <s> b -0.0040
-1.7601 <s> c -0.0915
-1.9172 <s> d -0.2342
-3.3044 <s> december 0.1391
-1.8163 <s> e -0.1933
-2.1035 <s> eight -0.0464
-3.3044 <s> eighteen 0.1391
-2.8094 <s> eleven -0.0205
-1.0553 <s> enter 0.1391
-1.4653 <s> erase 0.1391
-1.8163 <s> f -0.2428
-3.3044 <s> february -0.0205
-2.1035 <s> fifty -0.0195
-1.7873 <s> five -0.1588
-3.3044 <s> forty -0.0771
-1.4929 <s> four -0.4357
-3.3044 <s> fourteen -0.1136
-1.8163 <s> g -0.2159
-2.0004 <s> go 0.1391
-1.7601 <s> h -0.2980
-1.9172 <s> help 0.1391
-2.4364 <s> i 0.0673
-1.7103 <s> j -0.1375
-2.8094 <s> january 0.1391
-2.5841 <s> july 0.1391
-2.8094 <s> june 0.1391
-2.1035 <s> k -0.2090
-1.9172 <s> l -0.1071
-1.5074 <s> m -0.3768
-2.5841 <s> march 0.1391
-2.8094 <s> may 0.0265
-1.8809 <s> n -0.1430
-2.2388 <s> nine -0.0515
-3.3044 <s> ninth -0.0205
-1.7873 <s> no 0.1391
-2.0489 <s> o -0.2566
-2.5841 <s> october 0.1391
-2.5841 <s> oh -0.1736
-1.0203 <s> one -0.3773
-1.1881 <s> p -0.4921
-2.8094 <s> q -0.1078
-1.8809 <s> r 0.0263
-1.7601 <s> repeat 0.1391
-1.2099 <s> rubout 0.1391
-1.5074 <s> s -0.1932
-2.4364 <s> september 0.0681
-1.9568 <s> seven -0.1139
-1.6874 <s> six -0.1632
-2.8094 <s> sixty -0.0204
-1.9568 <s> start 0.1391
-1.7873 <s> stop 0.1391
-1.9172 <s> t -0.2381
-2.3265 <s> ten -0.0570
-2.4364 <s> thirty 0.1491
-1.7873 <s> three -0.1917
-2.2388 <s> twelve -0.0137
-3.3044 <s> twenty -0.1202
-1.6063 <s> two -0.0704
-2.8094 <s> u -0.1034
-1.9172 <s> v -0.0228
-2.0004 <s> w -0.2105
-2.3265 <s> x -0.1037
-2.5841 <s> y -0.0985
-1.6657 <s> yes 0.1391
-2.4364 <s> z -0.0761
-1.1617 a </s> 1.9394
-1.7818 a a -0.0454
-2.1548 a b -0.1334
-1.2626 a c -0.0837
-1.3459 a d 0.0249
-1.9295 a e -0.2710
-2.1548 a f -0.1026
-1.7818 a g -0.2164
-1.7818 a h -0.2170
-2.1548 a half 0.1391
-1.9295 a i -0.1029
-2.6498 a j -0.1139
-1.9295 a k -0.1280
-1.1928 a l -0.0103
-1.2263 a m -0.2031
-0.9336 a n 0.0496
-2.6498 a ninety -0.0678
-1.9295 a p -0.0987
-0.7151 a r 0.0972
-1.3459 a s -0.0044
-1.9295 a six 0.0930
-1.3459 a t -0.2127
-2.6498 a two -0.0282
-2.1548 a u -0.1248
-1.2626 a v -0.3146
-1.9295 a w -0.0829
-2.6498 a x -0.1165
-1.6719 a y -0.1767
-2.6498 a z -0.1225
-0.7357 and a -0.4349
-0.5103 and eighty -0.1395
-1.2307 and fifty -0.0941
-1.2307 and sixty -0.1217
-1.2307 and twenty -0.0840
-0.3276 apostrophe h -0.0648
-0.3276 april thirtieth 0.6162
-0.3276 area code 0.1391
-0.9296 august sixteenth 0.1391
-0.2093 august twenty -0.2908
-1.2646 b a -0.2427
-2.4031 b b -0.1278
-2.4031 b d -0.1261
-1.0556 b e -0.1867
-2.4031 b eight 0.0370
-2.4031 b five -0.0177
-1.9081 b forty -0.0491
-2.4031 b g -0.1037
-2.4031 b h -0.1355
-2.4031 b i -0.0794
-1.9081 b j -0.1190
-2.4031 b k -0.1277
-2.4031 b l -0.0926
-1.6828 b m -0.0773
-1.4252 b o -0.2726
-2.4031 b one -0.1234
-2.4031 b p -0.1348
-1.0556 b r -0.2973
-1.6828 b s -0.2241
-1.9081 b seven -0.1056
-1.9081 b seventy -0.3946
-2.4031 b six 0.0464
-0.3640 b u -1.2472
-2.4031 b v -0.0906
-2.4031 b w -0.1279
-1.6828 b x -0.1173
-2.4031 b y -0.1268
-2.4031 b z -0.1323
-1.7076 c </s> 2.8144
-1.0641 c a -0.1720
-1.7076 c b -0.0910
-2.2026 c c -0.0438
-2.2026 c d -0.0988
-1.0641 c e -0.1688
-2.2026 c f -0.1201
-1.7076 c five -0.1035
-0.7146 c h 0.0740
-2.2026 c i -0.0794
-2.2026 c j -0.1234
-0.9472 c k -0.1228
-1.4823 c l -0.0752
-2.2026 c m -0.1247
-1.1370 c o -0.2587
-2.2026 c r -0.1119
-2.2026 c s -0.1355
-2.2026 c seven -0.1231
-2.2026 c t -0.1316
-1.7076 c thirty -0.3641
-2.2026 c two -0.0282
-2.2026 c u -0.1350
-2.2026 c v -0.1198
-1.7076 c w -0.1060
-1.7076 c y 0.0352
-1.4823 c z -0.1231
-0.3276 code four -0.0767
-0.6157 d </s> 1.7175
-0.9844 d a -0.3204
-1.8369 d b -0.1069
-1.6116 d d -0.0944
-1.1934 d e -0.2221
-1.8369 d f -0.0803
-2.3319 d forty -0.0771
-2.3319 d h -0.1142
-1.8369 d i -0.0369
-2.3319 d j -0.1234
-1.6116 d k -0.1086
-2.3319 d l -0.0413
-1.8369 d m -0.1273
-2.3319 d n -0.0831
-1.0764 d o 0.0196
-2.3319 d oh -0.0941
-1.8369 d one -0.1210
-2.3319 d p -0.1170
-1.8369 d q -0.1078
-1.0764 d r -0.0372
-1.8369 d s -0.0687
-1.8369 d two -0.0828
-2.3319 d u -0.1267
-2.3319 d v -0.1268
-1.3540 d w -0.2541
-1.6116 d y -0.1409
-2.3319 d z -0.1323
-0.3276 december eighteenth 0.1391
-0.7891 e </s> 1.5027
-1.1795 e a 0.0240
-2.2288 e b -0.1297
-2.2288 e c -0.0404
-1.5853 e d -0.0870
-1.4198 e e 0.0410
-2.2288 e eight -0.1016
-2.0034 e f -0.0843
-2.0034 e four -0.0974
-1.8558 e g -0.0679
-2.7238 e h -0.1325
-1.8558 e i -0.3996
-2.2288 e j -0.4244
-2.7238 e k -0.0665
-1.0644 e l -0.0589
-1.8558 e m -0.1792
-0.9902 e n -0.3668
-2.7238 e o -0.1187
-1.6582 e p -0.2726
-2.7238 e q -0.1151
-0.9123 e r -0.1567
-1.4683 e s -0.1144
-2.7238 e seventy -0.1290
-1.5229 e t -0.5588
-2.7238 e thirty -0.0631
-2.2288 e three -0.0996
-2.7238 e two -0.1176
-2.0034 e u -0.1186
-1.4683 e v -0.3209
-1.2067 e w -0.0889
-2.7238 e x -0.1165
-1.6582 e y -0.4212
-2.2288 e z -0.0971
-0.4817 eight </s> 1.4079
-1.4467 eight eight -0.2006
-1.2083 eight five 0.0619
-2.5123 eight forty -0.1126
-1.0242 eight four -0.1547
-2.5123 eight fourteen 0.0025
-1.7919 eight hundred 0.0621
-1.5344 eight nine -0.0088
-1.4467 eight oh 0.2081
-1.3738 eight one 0.0181
-1.3114 eight seven 0.1760
-2.0173 eight seventy -0.2908
-1.4467 eight six 0.2089
-1.7919 eight sixty 0.0522
-2.5123 eight thirty -0.0915
-2.5123 eight thousand -0.1136
-1.1251 eight three 0.1750
-2.0173 eight twenty -0.0651
-1.2568 eight two -0.1218
-1.6443 eight zero 0.2304
-0.3276 eighteen february -0.0205
-0.3276 eighteenth nineteen -0.1151
-0.3276 eighth nineteen -0.1151
-1.5037 eighty eight 0.0370
-1.5037 eighty fifth -0.0205
-1.5037 eighty five -0.0177
-1.5037 eighty four 0.0168
-0.7833 eighty nine -0.0605
-1.5037 eighty one -0.0418
-1.5037 eighty seven 0.1346
-0.5258 eighty six -0.6525
-1.5037 eighty three 0.0399
-0.9296 eleven </s> 3.1155
-0.9296 eleven nine -0.1350
-0.9296 eleven seventeen 0.0143
-0.9296 eleven sixty -0.0686
-0.3276 eleventh nineteen 0.4093
-1.0509 enter eight 0.0094
-2.2519 enter eighty -0.0587
-2.2519 enter fifteen 0.1590
-1.2739 enter fifty -0.0656
-1.1863 enter five 0.1283
-1.5315 enter forty 0.0252
-1.1863 enter four -0.1387
-2.2519 enter fourteen 0.0025
-1.3839 enter nine 0.1367
-1.5315 enter ninety 0.1158
-1.3839 enter one -0.1162
-0.9964 enter seven -0.0267
-1.3839 enter seventy -0.0109
-1.0509 enter six 0.0946
-1.0509 enter sixty -0.1431
-1.5315 enter thirty -0.0009
-1.7569 enter three 0.0422
-2.2519 enter twenty -0.0964
-1.1863 enter two -0.0958
-2.2519 enter zero 0.1515
-1.8461 erase a -0.1081
-1.8461 erase b -0.1278
-1.3511 erase c -0.0751
-1.3511 erase e -0.1352
-1.8461 erase f -0.1270
-1.3511 erase g 0.1310
-1.3511 erase i -0.1127
-1.3511 erase j -0.1283
-1.8461 erase k -0.1277
-1.8461 erase m -0.1297
-1.8461 erase n -0.1143
-1.1258 erase o -0.2963
-1.3511 erase q -0.0921
-1.8461 erase r -0.1301
-1.3511 erase s -0.1224
-1.8461 erase t -0.1338
-1.1258 erase v -0.1131
-1.3511 erase w -0.1060
-1.8461 erase x -0.1305
-1.8461 erase y -0.1268
-1.8461 erase z -0.1225
-2.1405 f </s> 3.1155
-2.1405 f a -0.0439
-1.6455 f b -0.1108
-2.1405 f d -0.1172
-0.9396 f e 0.0683
-2.1405 f eight 0.0370
-1.4202 f f -0.0991
-1.6455 f five -0.1217
-2.1405 f g -0.1077
-1.6455 f h -0.1251
-1.0020 f i -0.0698
-1.6455 f j -0.1190
-1.6455 f k -0.1051
-1.6455 f m -0.1323
-1.1626 f o -0.2955
-2.1405 f q -0.0996
-1.1626 f r -0.2449
-2.1405 f s -0.1026
-2.1405 f six -0.1356
-1.2725 f t -0.2118
-2.1405 f thirty -0.1051
-2.1405 f twenty -0.1085
-1.4202 f two -0.1793
-2.1405 f v -0.1337
-1.2725 f x -0.0650
-1.6455 f y -0.1165
-2.1405 f z -0.1323
-0.6286 february eighth 0.1391
-0.6286 february nineteen -0.0996
-0.3062 fifteen </s> 2.6383
-1.0266 fifteen nineteen -0.0996
-1.0266 fifteen sixty -0.1090
-0.1336 fifteenth nineteen 0.1083
-0.6286 fifth nineteen 0.4093
-0.6286 fifth s -0.0867
-1.4008 fifty </s> 2.8144
-0.8302 fifty eight -0.2382
-1.0278 fifty five -0.3146
-1.1754 fifty four -0.4603
-1.8958 fifty nine 0.1123
-0.8302 fifty one -0.3351
-1.4008 fifty seven 0.1430
-0.8302 fifty six -0.0943
-1.8958 fifty sixty -0.0960
-1.4008 fifty three 0.0471
-1.0278 fifty two -0.3282
-0.0844 first nineteen -0.0678
-0.6199 five </s> 1.4253
-1.5673 five eight -0.1957
-1.5673 five five 0.2655
-2.6329 five forty -0.0771
-1.5673 five four -0.0330
-2.1379 five hundred 0.2382
-2.6329 five m -0.0234
-1.4944 five nine 0.2952
-1.4320 five oh 0.0832
-1.1449 five one 0.0869
-1.5673 five seven 0.0633
-1.4944 five six 0.0766
-2.6329 five sixteen 0.1556
-2.6329 five t -0.1007
-2.6329 five ten 0.1325
-2.1379 five thirty 0.0082
-1.3775 five three -0.0215
-2.6329 five twenty -0.0840
-0.4762 five two 0.0650
-1.6550 five zero 0.1335
-1.0386 forty eight -0.4402
-0.8910 forty five -0.6198
-1.0386 forty four -0.4603
-1.0386 forty nine -0.0605
-1.2639 forty one -0.3428
-0.8910 forty seven -0.1522
-1.7589 forty six 0.0464
-0.8910 forty three 0.0621
-1.0386 forty two -0.5053
-0.5258 four </s> 1.4165
-2.5477 four and -0.0487
-1.3468 four eight 0.1363
-2.0527 four fifty 0.0154
-1.4092 four five 0.1369
-2.0527 four forty -0.0491
-1.0596 four four 0.0142
-1.6797 four nine 0.1914
-2.5477 four ninety -0.1160
-1.4821 four oh 0.1224
-0.8883 four one -0.3896
-1.2922 four seven 0.0776
-2.5477 four seventy 0.0102
-1.3468 four six 0.0769
-2.0527 four sixty -0.0359
-2.5477 four thirty -0.1182
-1.8274 four thousand -0.0015
-1.5698 four three 0.0442
-2.0527 four twenty -0.0651
-1.0306 four two -0.2101
-2.5477 four zero 0.1515
-0.5615 fourteen </s> 2.6383
-1.2818 fourteen a -0.1059
-1.2818 fourteen eighty -0.1231
-1.2818 fourteen fourteen 0.0025
-0.5615 fourteen sixty 0.0339
-0.3276 fourth nineteen -0.1151
-1.6679 g </s> 2.6383
-1.1328 g a -0.2272
-2.3883 g b -0.1315
-1.8933 g c -0.1314
-1.8933 g d -0.0674
-1.8933 g e -0.1155
-2.3883 g eighty 0.0168
-2.3883 g forty -0.0952
-0.3491 g h -0.8711
-1.1874 g i -0.1169
-1.8933 g j -0.1190
-1.8933 g k -0.1310
-1.1328 g l -0.1393
-1.5203 g n -0.0964
-1.8933 g nine -0.0831
-2.3883 g o -0.1216
-2.3883 g p -0.1305
-2.3883 g q -0.1300
-1.8933 g r -0.0416
-2.3883 g s -0.0867
-2.3883 g seventy -0.0935
-2.3883 g t -0.1252
-1.8933 g two -0.1353
-2.3883 g u -0.1350
-1.8933 g v -0.0794
-1.8933 g w -0.1060
-0.0236 go </s> 2.1155
-0.4392 h </s> 1.3831
-0.8157 h a 0.0143
-1.6269 h b -0.0992
-1.2940 h e -0.0620
-1.7746 h f -0.0280
-2.4949 h fifty -0.0941
-2.4949 h four 0.0168
-1.9999 h g -0.1295
-2.4949 h h -0.1325
-1.4293 h i 0.2045
-1.9999 h k -0.1117
-1.9999 h l 0.0146
-1.6269 h n 0.0062
-2.4949 h nine -0.1231
-1.0714 h o 0.1643
-2.4949 h one -0.0418
-2.4949 h p -0.1305
-2.4949 h q -0.1300
-1.7746 h r -0.2744
-2.4949 h seven -0.1136
-2.4949 h seventy -0.0935
-2.4949 h six 0.0464
-1.7746 h t -0.1423
-2.4949 h three -0.1321
-2.4949 h two -0.0282
-1.9999 h u 0.1760
-2.4949 h w -0.0825
-2.4949 h x -0.1305
-1.7746 h y 0.1059
-2.4949 h z -0.1020
-0.1336 half </s> 2.8144
-0.0196 help </s> 2.0363
-0.9118 hundred </s> 2.8144
-0.3412 hundred and -0.0246
-0.9118 hundred eighty -0.1088
-1.4068 hundred forty -0.0952
-1.4068 hundred twenty -0.0840
-1.5671 i </s> 2.4165
-1.6771 i a -0.1399
-1.8247 i b -0.3021
-1.0881 i c -0.1276
-1.5671 i d -0.0365
-1.2896 i e 0.0491
-1.6771 i f -0.1443
-2.5451 i fifteen 0.1590
-2.0501 i five -0.0049
-2.5451 i four 0.0168
-1.6771 i g 0.0780
-2.0501 i k -0.0557
-1.2411 i l -0.1357
-1.6771 i m -0.1612
-0.9064 i n -0.1132
-2.5451 i o -0.1244
-1.8247 i p -0.1034
-1.8247 i q -0.0845
-1.8247 i r -0.0453
-1.4795 i s -0.1914
-2.5451 i sixty -0.0893
-0.5231 i t -1.0409
-2.5451 i thirty -0.0915
-2.5451 i u 0.1639
-1.4795 i v -0.1173
-2.5451 i y -0.1337
-1.2885 j a -0.2290
-2.0088 j b -0.1278
-1.5138 j c -0.0257
-2.0088 j d -0.1305
-1.0309 j e -0.1323
-2.0088 j five -0.1250
-1.5138 j four -0.1291
-2.0088 j g -0.1351
-1.5138 j h -0.1220
-2.0088 j j -0.1234
-1.5138 j k -0.1247
-2.0088 j l -0.1227
-2.0088 j m -0.1346
-2.0088 j n -0.1330
-0.8703 j o -0.1549
-1.5138 j one 0.1322
-1.5138 j q -0.1078
-2.0088 j s -0.1238
-1.2885 j seven -0.1201
-2.0088 j t -0.1338
-1.5138 j u -0.1248
-1.5138 j v -0.1305
-2.0088 j w -0.1279
-2.0088 j x -0.1305
-1.5138 j z -0.0971
-0.6286 january fifteenth 0.4401
-0.6286 january twelfth 0.4401
-0.8047 july thirtieth 0.6162
-0.8047 july twelfth 0.4401
-0.8047 july twenty -0.0964
-0.6286 june eleventh 0.1391
-0.6286 june twenty -0.1202
-0.8251 k </s> 2.0741
-1.1948 k a -0.4381
-2.1727 k c -0.1283
-2.1727 k d -0.0894
-0.9718 k e 0.0655
-2.1727 k eight -0.1091
-2.1727 k eighty -0.1231
-1.6777 k f -0.1237
-1.6777 k h -0.0632
-1.3047 k i -0.1892
-1.6777 k j -0.1190
-2.1727 k k -0.1340
-1.6777 k l -0.0355
-2.1727 k m -0.1346
-2.1727 k nine 0.1123
-2.1727 k ninety -0.0678
-2.1727 k o -0.1356
-2.1727 k r -0.0951
-1.6777 k s -0.0852
-1.6777 k six -0.1069
-1.4523 k t -0.0821
-2.1727 k three -0.1353
-2.1727 k twenty -0.0840
-1.6777 k two -0.1168
-1.6777 k u -0.1164
-2.1727 k v -0.1337
-1.3047 k w -0.0513
-1.6777 k x -0.0950
-1.6777 k y -0.2705
-1.6777 k z -0.0971
-1.0471 l </s> 2.0015
-1.0136 l a -0.0875
-2.4706 l c -0.1223
-1.1666 l d -0.0373
-0.7042 l e 0.0751
-2.4706 l eight -0.0937
-1.7503 l f -0.0767
-2.4706 l fifty -0.0674
-1.7503 l g -0.2482
-2.4706 l h -0.1265
-1.0834 l i -0.1646
-1.7503 l k -0.0952
-0.9007 l l -0.2108
-1.9756 l m -0.0687
-2.4706 l n -0.1251
-2.4706 l nine -0.1231
-1.4927 l o 0.1498
-1.7503 l r -0.1058
-1.7503 l s -0.0738
-2.4706 l seventy -0.0935
-2.4706 l t -0.1338
-2.4706 l thirty -0.0326
-2.4706 l three -0.1220
-2.4706 l two -0.0282
-1.7503 l u -0.1101
-1.4927 l y -0.1610
-1.9756 l z -0.0971
-2.4706 l zero 0.1515
-1.5566 m </s> 2.6383
-0.6383 m a -0.1068
-1.7820 m b -0.0950
-2.2770 m c -0.0848
-2.2770 m d -0.1305
-1.0760 m e -0.2016
-2.2770 m eight -0.0937
-2.2770 m f -0.1337
-2.2770 m fifty -0.1069
-2.2770 m forty -0.0771
-2.2770 m four -0.1357
-2.2770 m g -0.1313
-1.7820 m h -0.1281
-1.2114 m i -0.0828
-1.7820 m j -0.0997
-2.2770 m k -0.1340
-1.5566 m m -0.0773
-1.5566 m n -0.1005
-0.9294 m o -0.2568
-1.4090 m p -0.2189
-2.2770 m q -0.0996
-1.7820 m s -0.0852
-2.2770 m seven 0.1346
-2.2770 m t -0.1316
-2.2770 m thirty -0.1182
-2.2770 m two -0.0282
-1.5566 m u -0.1186
-1.7820 m v -0.1235
-2.2770 m x -0.1305
-1.7820 m y 0.0352
-0.8047 march third 0.6162
-0.8047 march twentieth 0.1391
-0.8047 march twenty -0.1316
-0.8047 may nineteen -0.1151
-0.8047 may ninth -0.0205
-0.8047 may twenty -0.1316
-0.6490 n </s> 1.5357
-1.2028 n a -0.0576
-1.6823 n b 0.1743
-1.5724 n c -0.0840
-1.1268 n d -0.1512
-0.9333 n e -0.1762
-2.5503 n f -0.0839
-2.5503 n four 0.0168
-1.3494 n g 0.1964
-2.0553 n h -0.0969
-1.2028 n i -0.1479
-2.5503 n j -0.1234
-2.5503 n k -0.0879
-2.0553 n l -0.0769
-2.5503 n m -0.1346
-1.2948 n n 0.0539
-1.6823 n o -0.0559
-1.8300 n p -0.1218
-2.0553 n r 0.0099
-1.5724 n s -0.0058
-2.5503 n seventy 0.0102
-2.5503 n six -0.1222
-1.2948 n t -0.2401
-2.5503 n three -0.1254
-1.5724 n u -0.5100
-2.0553 n x -0.1239
-1.8300 n y -0.1059
-1.8300 n z -0.0921
-0.3598 nine </s> 1.4253
-2.3729 nine and -0.0487
-1.6526 nine eight -0.0812
-2.3729 nine eighty -0.0587
-1.8779 nine fifty -0.0609
-1.2344 nine five 0.3840
-2.3729 nine forty -0.0771
-1.5050 nine four -0.0570
-2.3729 nine hundred -0.0801
-1.5050 nine nine -0.1639
-2.3729 nine nineteen 0.4093
-2.3729 nine of -0.0205
-2.3729 nine oh -0.1275
-1.3950 nine one -0.1918
-1.6526 nine seven -0.1008
-2.3729 nine seventy -0.0747
-1.0690 nine six 0.0099
-2.3729 nine sixty -0.1090
-1.8779 nine thirty -0.1121
-1.3950 nine three -0.1076
-1.8779 nine twenty -0.0651
-1.3950 nine two -0.1562
-2.3729 nine zero 0.1515
-1.3097 nineteen fifty -0.3951
-1.3097 nineteen forty -0.3962
-1.0844 nineteen seventy -0.5321
-0.1453 nineteen sixty 0.0982
-1.8047 nineteen twenty -0.0840
-0.8326 ninety eight 0.0432
-0.8326 ninety five -0.3188
-0.8326 ninety four -0.2842
-1.3276 ninety one -0.0418
-1.3276 ninety seven 0.1346
-0.8326 ninety six -0.2546
-0.6286 ninth of -0.0205
-0.6286 ninth sixty -0.1090
-0.0146 no </s> 1.9113
-1.5483 o </s> 2.4165
-1.3877 o a -0.1954
-2.5262 o apostrophe 0.1391
-1.5483 o b -0.2900
-2.5262 o c -0.0848
-1.2708 o d -0.3051
-2.5262 o e -0.0599
-2.5262 o eight 0.0370
-1.8059 o f -0.0991
-2.5262 o five -0.0177
-2.5262 o forty -0.1293
-2.5262 o four 0.0168
-2.5262 o g -0.1313
-1.6583 o h -0.4231
-2.5262 o j -0.1326
-2.0312 o k -0.1117
-1.3253 o l 0.2718
-1.4606 o m -0.2563
-0.7598 o n -0.0589
-2.5262 o ninety -0.0678
-1.1028 o o -0.2393
-2.0312 o p -0.0914
-2.5262 o q -0.1300
-0.9322 o r -0.1722
-1.5483 o s -0.2752
-2.5262 o sixty -0.1090
-1.4606 o t 0.0539
-2.5262 o two -0.0873
-1.2223 o u 0.2364
-1.2708 o w -0.2724
-2.5262 o x -0.1305
-2.0312 o y -0.2705
-2.5262 o z -0.1124
-0.8047 october first 0.6162
-0.8047 october thirtieth 0.6162
-0.8047 october twenty -0.1202
-0.6286 of september -0.0940
-0.6286 of sixty -0.0960
-1.0279 oh </s> 2.2704
-0.8625 oh eight 0.1169
-1.1008 oh five -0.2836
-1.4461 oh four -0.2544
-1.4461 oh nine 0.1875
-1.6714 oh oh -0.0145
-1.1885 oh one 0.0943
-0.9655 oh seven -0.0758
-0.7793 oh six -0.1106
-1.1885 oh three 0.0697
-0.9655 oh two -0.1031
-0.7063 one </s> 1.3751
-1.5146 one eight 0.2006
-2.7701 one eleven -0.0826
-2.7701 one fifteen 0.1590
-1.9021 one fifty -0.0844
-0.5764 one five -0.2232
-2.7701 one forty -0.0952
-1.5146 one four -0.3013
-2.2751 one hundred 0.2382
-2.7701 one j -0.1139
-1.4225 one nine 0.1474
-2.7701 one ninety -0.0678
-1.3131 one oh 0.2141
-1.6316 one one 0.2336
-1.1531 one seven -0.3805
-2.2751 one seventy -0.0454
-1.6316 one six 0.0146
-2.7701 one sixteen -0.0628
-1.9021 one sixty -0.0287
-2.2751 one ten -0.1686
-2.2751 one thirty -0.3337
-2.2751 one thousand -0.3605
-1.3131 one three -0.5605
-2.2751 one twenty -0.1028
-1.0364 one two 0.1359
-1.7921 one zero -0.0063
-1.4596 p a 0.0236
-2.3276 p b -0.1352
-2.3276 p c -0.1342
-1.8326 p d -0.1241
-1.8326 p e -0.0773
-2.3276 p eight -0.1298
-2.3276 p f -0.1270
-2.3276 p forty -0.0771
-2.3276 p four 0.0168
-1.6072 p g -0.3563
-1.2620 p h -0.0384
-0.3328 p i -1.0856
-1.3497 p l -0.3833
-1.8326 p n -0.0511
-2.3276 p ninety -0.1160
-1.2620 p o -0.0371
-1.6072 p r -0.5765
-1.4596 p s -0.0265
-2.3276 p seventeen 0.0143
-1.6072 p t -0.0821
-2.3276 p three -0.0941
-1.6072 p u -0.1057
-2.3276 p y -0.1198
-1.8047 q c -0.1342
-1.0844 q d -0.1175
-1.3097 q e -0.1174
-1.8047 q f -0.1131
-1.3097 q fifty 0.0154
-1.8047 q five -0.1205
-1.8047 q g -0.1351
-1.8047 q i -0.1277
-1.3097 q k -0.1182
-1.0844 q n -0.1279
-1.8047 q one -0.0418
-1.8047 q p -0.1348
-1.0844 q q -0.0678
-1.8047 q six -0.1194
-1.3097 q t -0.1349
-1.8047 q two -0.1176
-1.8047 q u -0.1184
-1.8047 q w -0.1279
-1.8047 q y -0.1268
-1.8047 q z -0.1323
-1.3283 r </s> 2.0741
-1.2524 r a -0.1534
-1.8079 r b 0.1525
-2.1809 r c -0.3448
-1.4204 r d -0.3243
-0.9778 r e -0.2071
-2.1809 r f -0.0568
-0.6367 r g -0.7058
-2.6759 r h -0.1355
-1.0818 r i -0.3254
-1.3283 r k -0.2100
-1.4204 r l -0.1448
-1.6103 r n -0.0304
-1.0372 r o -0.1758
-2.6759 r one -0.0950
-2.6759 r q -0.1300
-1.5374 r r -0.1269
-1.8079 r s -0.3491
-2.6759 r seven -0.1293
-2.6759 r sixty -0.0893
-1.5374 r t -0.4229
-2.6759 r thirty -0.0326
-2.1809 r u -0.1034
-2.1809 r v -0.1305
-2.1809 r w -0.0793
-1.4750 r y -0.0989
-2.1809 r z -0.0971
-0.0137 repeat </s> 1.8850
-2.0984 rubout a -0.1168
-1.3781 rubout c -0.0296
-2.0984 rubout d -0.1305
-1.6034 rubout e -0.1300
-1.2305 rubout f -0.0808
-1.6034 rubout g -0.1295
-1.3781 rubout h -0.0545
-1.6034 rubout i 0.0273
-1.3781 rubout j -0.1145
-2.0984 rubout l -0.1062
-1.3781 rubout m -0.1148
-1.1205 rubout n -0.1846
-1.2305 rubout o -0.1204
-1.6034 rubout p -0.1056
-1.6034 rubout q -0.0587
-1.3781 rubout r -0.0710
-2.0984 rubout s -0.1238
-1.3781 rubout t -0.1296
-1.1205 rubout u -0.1962
-1.6034 rubout v 0.1500
-1.6034 rubout w -0.1188
-2.0984 rubout x -0.1165
-2.0984 rubout y -0.1337
-1.3781 rubout z -0.0921
-0.9623 s </s> 1.8850
-2.0116 s a -0.1071
-0.5118 s b -1.2322
-2.5066 s c -0.0977
-1.3056 s e -0.0029
-2.0116 s f -0.1306
-1.5286 s h -0.1083
-2.5066 s i -0.1303
-2.5066 s j -0.1139
-1.4410 s k -0.0840
-2.0116 s l -0.0315
-1.7862 s m -0.1633
-2.5066 s n -0.1278
-1.1194 s o -0.4533
-2.0116 s one 0.0001
-1.5286 s p -0.1739
-1.7862 s s -0.1120
-2.5066 s seven -0.1293
-0.9623 s t -0.4633
-2.5066 s thirty -0.0631
-1.7862 s u -0.1144
-1.7862 s v -0.0172
-1.6386 s w 0.0566
-2.5066 s x -0.1165
-2.0116 s z -0.1075
-2.5066 s zero 0.1515
-0.1336 second nineteen 0.1083
-1.0266 september fifteenth 0.4401
-1.0266 september first 0.6162
-1.0266 september nineteen 0.4093
-1.0266 september sixth 0.1391
-1.0266 september twenty -0.1316
-0.3327 seven </s> 1.2894
-1.2820 seven eight 0.0008
-2.4829 seven fifteen -0.0940
-2.4829 seven fifty -0.0941
-1.5050 seven five 0.0337
-1.7626 seven forty -0.2051
-1.6150 seven four 0.0158
-1.9879 seven fourteen 0.0349
-2.4829 seven hundred -0.1195
-2.4829 seven may -0.0628
-1.4173 seven nine -0.2273
-1.4173 seven oh 0.1508
-1.5050 seven one 0.0276
-1.7626 seven seven -0.0153
-2.4829 seven seventeen 0.0143
-2.4829 seven seventy -0.0747
-1.6150 seven six 0.0008
-1.7626 seven sixty 0.0079
-1.9879 seven ten -0.1686
-1.9879 seven thirty -0.0409
-2.4829 seven thousand -0.1136
-1.6150 seven three 0.1170
-1.7626 seven twenty -0.2667
-1.4173 seven two 0.2927
-1.7626 seven zero 0.0376
-0.5316 seventeen </s> 2.8144
-0.5316 seventeen fifty -0.0467
-1.0266 seventeen thirty -0.1182
-0.3276 seventh nineteen 0.4093
-0.7646 seventy </s> 2.4165
-1.7426 seventy eight 0.0370
-1.7426 seventy five -0.0177
-1.0222 seventy nine -0.0534
-0.5416 seventy one -0.9449
-1.0222 seventy seven -0.0272
-1.7426 seventy six -0.1356
-0.8746 seventy two -0.6302
-0.4630 six </s> 1.3596
-0.8262 six eight -0.1836
-2.5424 six eighty -0.1231
-1.4768 six five -0.1319
-2.5424 six forty -0.0771
-1.1949 six four 0.0078
-2.5424 six hundred -0.1195
-1.4768 six nine -0.1052
-1.4768 six oh 0.1657
-1.3415 six one 0.1799
-1.4768 six seven 0.0780
-2.5424 six seventeen -0.0940
-1.2385 six six 0.1304
-2.5424 six sixteen 0.1556
-2.0474 six sixty 0.0039
-2.0474 six thirty -0.0251
-2.5424 six thousand -0.0594
-1.2869 six three 0.1478
-2.5424 six twelve -0.1136
-2.5424 six twenty -0.0840
-1.4039 six two 0.1640
-2.5424 six zero -0.1060
-0.8047 sixteen forty -0.0952
-0.3097 sixteen sixty 0.0039
-0.3276 sixteenth nineteen 0.4093
-0.3276 sixth nineteen 0.4093
-1.0464 sixty </s> 2.2704
-1.2070 sixty eight -0.6620
-2.1849 sixty fifty -0.0941
-1.2070 sixty five -0.7167
-1.1193 sixty four -0.4586
-0.7280 sixty nine -1.0338
-0.9840 sixty one -0.9449
-0.8374 sixty seven -0.5973
-1.4646 sixty six -0.4307
-1.0464 sixty three -0.4868
-1.2070 sixty two -0.4208
-0.0214 start </s> 2.0741
-0.0146 stop </s> 1.9113
-1.1244 t </s> 1.9113
-2.1464 t a -0.0725
-2.6415 t b -0.1352
-1.9211 t d -0.0700
-0.9820 t e -0.0667
-2.6415 t eighty -0.1231
-2.1464 t f -0.1026
-2.6415 t fifty -0.1193
-2.6415 t four -0.0767
-1.9211 t g -0.1199
-1.0972 t h -0.0863
-1.6635 t i -0.2638
-2.6415 t j -0.1326
-2.1464 t k -0.1182
-1.9211 t l -0.2155
-2.1464 t m -0.3244
-2.6415 t n -0.0831
-1.5759 t o -0.0454
-2.6415 t p -0.1348
-2.1464 t q -0.0921
-1.6635 t r -0.4585
-0.6561 t s -1.3285
-2.6415 t seventy -0.0935
-2.6415 t sixty -0.0960
-0.5777 t t -0.7860
-2.6415 t v -0.0752
-2.6415 t w -0.1340
-1.7735 t z -0.7041
-0.3352 ten </s> 2.2704
-1.4737 ten one -0.1314
-1.4737 ten seventy 0.0102
-1.4737 ten sixty -0.0469
-1.4737 ten ten 0.1325
-1.4737 ten thirty -0.0326
-1.4737 ten twelve -0.1136
-1.4737 ten twenty -0.0840
-0.0844 third nineteen 0.2578
-0.0844 thirtieth nineteen -0.0678
-0.8937 thirty </s> 2.4165
-1.1513 thirty eight -0.1285
-0.8061 thirty five -0.4907
-1.3766 thirty nine -0.1887
-0.6707 thirty one -0.2031
-1.3766 thirty seven -0.1664
-1.3766 thirty six -0.2546
-1.8717 thirty sixty -0.1090
-1.3766 thirty three -0.2612
-1.0037 thirty two -0.3239
-0.7868 thousand </s> 2.8144
-0.7868 thousand eight -0.4308
-1.2818 thousand five -0.1337
-1.2818 thousand nine -0.1311
-1.2818 thousand one -0.1346
-1.2818 thousand seven -0.1355
-1.2818 thousand three -0.1353
-0.4758 three </s> 1.4623
-1.3858 three eight -0.1957
-2.4514 three eighty 0.0168
-2.4514 three eleven -0.0826
-1.3129 three five 0.3010
-1.9564 three forty -0.0290
-1.3858 three four 0.0816
-2.4514 three fourteen 0.0025
-2.4514 three hundred 0.1274
-1.5835 three nine 0.0626
-1.4735 three oh 0.1499
-1.3858 three one 0.1985
-1.4735 three seven -0.1723
-2.4514 three seventeen 0.0143
-1.9564 three seventy 0.1301
-1.3858 three six 0.2456
-1.5835 three sixty -0.1495
-2.4514 three thirty -0.1182
-1.2505 three three 0.0615
-2.4514 three twelve -0.1136
-1.7311 three twenty -0.0020
-1.0280 three two -0.3196
-1.5835 three zero 0.2304
-0.1336 twelfth nineteen 0.1083
-1.2818 twelve </s> 3.1155
-1.2818 twelve fifty -0.0674
-1.2818 twelve four -0.1330
-1.2818 twelve nine -0.1350
-1.2818 twelve nineteen 0.4093
-1.2818 twelve sixty -0.0686
-1.2818 twelve ten -0.1220
-0.7868 twelve twenty -0.0906
-0.3276 twentieth nineteen -0.0996
-1.4236 twenty </s> 2.8144
-0.9407 twenty eight -0.1679
-1.9186 twenty fifth -0.0205
-1.9186 twenty first 0.6162
-1.9186 twenty five -0.0177
-1.1983 twenty four -0.1143
-1.9186 twenty fourth 0.1391
-1.0507 twenty nine 0.0011
-1.4236 twenty one -0.0350
-1.4236 twenty second 0.1391
-1.4236 twenty seven 0.1489
-1.9186 twenty seventh 0.1391
-0.9407 twenty six -0.1675
-1.4236 twenty third 0.3152
-0.9407 twenty three -0.3407
-1.4236 twenty two -0.0250
-0.6547 two </s> 1.3446
-1.3620 two eight -0.1562
-2.7492 two eighty -0.0587
-2.7492 two fifteen -0.0940
-2.7492 two fifty -0.1193
-1.3620 two five 0.2380
-1.1793 two four -0.3283
-2.7492 two fourteen 0.0025
-2.7492 two hundred 0.1274
-1.5483 two nine 0.1905
-1.4016 two oh 0.2336
-0.7361 two one 0.0566
-1.4016 two seven 0.1528
-1.0511 two six -0.5335
-2.7492 two sixty -0.0960
-2.7492 two ten 0.1325
-2.0288 two thirty -0.1849
-2.7492 two thousand -0.1136
-1.3620 two three -0.0558
-2.2542 two twenty -0.0518
-0.9672 two two 0.3748
-1.6836 two zero 0.0543
-2.3570 u </s> 3.1155
-1.8620 u a -0.0375
-2.3570 u b -0.1352
-2.3570 u c -0.0848
-2.3570 u d -0.1172
-1.3790 u e -0.4420
-2.3570 u eighty 0.0168
-1.8620 u f -0.1168
-1.8620 u five 0.2337
-1.6366 u four -0.0917
-1.6366 u g -0.0520
-2.3570 u i -0.1303
-1.8620 u j -0.0691
-2.3570 u k -0.0879
-1.6366 u l -0.2421
-1.6366 u m -0.0829
-1.6366 u n -0.0803
-2.3570 u o -0.1100
-2.3570 u one -0.1314
-2.3570 u q -0.1300
-0.3013 u r -0.7683
-1.2914 u s -0.2348
-2.3570 u seven -0.1262
-1.4890 u t -0.0810
-2.3570 u three 0.0399
-2.3570 u two -0.1072
-2.3570 u x -0.1305
-2.3570 u y -0.1337
-0.8783 v a -0.0085
-2.1338 v c -0.1283
-0.4546 v e -0.3818
-2.1338 v f -0.1059
-2.1338 v fifty -0.0941
-0.9953 v i -0.1434
-1.6388 v k -0.0557
-2.1338 v l -0.1354
-1.6388 v m -0.1223
-2.1338 v n -0.1304
-2.1338 v nine 0.1123
-2.1338 v o -0.1012
-2.1338 v p -0.1305
-1.6388 v q -0.4006
-2.1338 v r -0.1340
-2.1338 v s -0.1326
-1.6388 v seven -0.1664
-2.1338 v thirty -0.0775
-2.1338 v w -0.0825
-2.1338 v x -0.1165
-1.4134 v y -0.0985
-2.1338 v z -0.1323
-1.0464 w </s> 2.2704
-0.9294 w a -0.1280
-1.6899 w b 0.1187
-2.1849 w c -0.1342
-2.1849 w d -0.1261
-1.3170 w e -0.1993
-1.6899 w eight -0.2641
-1.6899 w f -0.1237
-2.1849 w five -0.1272
-2.1849 w fourteen -0.1136
-2.1849 w g -0.1037
-1.6899 w h -0.0969
-1.0464 w i -0.2273
-1.4646 w l -0.0823
-1.2070 w n -0.0797
-0.9294 w o -0.4136
-2.1849 w p -0.1348
-2.1849 w q -0.1300
-2.1849 w r -0.0993
-2.1849 w t -0.1007
-2.1849 w twenty -0.0840
-1.6899 w two -0.1320
-2.1849 w w -0.1279
-2.1849 w x -0.1305
-1.4646 w y -0.0910
-1.4646 w z -0.0701
-1.8327 x b -0.1278
-1.3377 x c -0.1134
-1.8327 x e -0.1255
-1.8327 x eight -0.1211
-1.8327 x f -0.0839
-1.8327 x five -0.1337
-1.8327 x four -0.1304
-1.8327 x g -0.1077
-1.8327 x h -0.1265
-1.8327 x i -0.1356
-1.8327 x k -0.1340
-1.8327 x l -0.1354
-1.8327 x n -0.1357
-1.8327 x nine 0.1123
-1.8327 x p 0.1345
-1.8327 x r -0.1340
-1.3377 x s -0.1342
-1.8327 x seventy -0.0747
-1.8327 x three -0.1254
-1.3377 x two -0.1063
-1.8327 x v -0.0906
-1.8327 x w -0.1340
-1.3377 x x -0.1097
-1.3377 x y -0.1235
-1.8327 x z -0.1124
-1.3377 x zero -0.1495
-0.4951 y </s> 1.7932
-2.1338 y a -0.1103
-1.6388 y b -0.0528
-1.4134 y d -0.0848
-2.1338 y e -0.0802
-1.6388 y eight -0.0923
-1.6388 y f -0.1026
-2.1338 y g -0.1236
-1.4134 y h -0.0953
-2.1338 y j -0.0740
-1.1558 y l 0.1823
-2.1338 y m -0.1297
-1.6388 y n -0.0757
-2.1338 y o -0.0829
-1.6388 y one -0.0209
-2.1338 y p -0.1170
-2.1338 y q -0.1151
-2.1338 y r -0.1301
-2.1338 y seven -0.1199
-2.1338 y t -0.1316
-2.1338 y ten -0.1220
-2.1338 y three -0.1254
-1.6388 y u -0.1331
-1.6388 y v -0.0636
-1.6388 y w -0.0653
-2.1338 y y -0.1268
-1.6388 y z -0.1075
-0.0111 yes </s> 1.7932
-1.1128 z </s> 2.5134
-1.1128 z a -0.1138
-1.9808 z c -0.1283
-1.9808 z d -0.1349
-1.2605 z e -0.2573
-1.9808 z eight -0.1211
-1.9808 z f -0.1270
-1.9808 z g -0.1313
-1.9808 z h -0.1355
-1.2605 z i -0.0548
-1.9808 z k -0.1148
-1.9808 z l -0.1354
-1.2605 z nine 0.1959
-1.9808 z ninety -0.0678
-1.2605 z o -0.1189
-1.4858 z r -0.4350
-1.9808 z seven -0.1355
-1.9808 z six -0.0667
-1.4858 z sixty -0.3480
-1.9808 z t -0.1359
-1.9808 z twenty -0.0840
-1.9808 z two -0.0282
-1.9808 z u -0.1309
-1.9808 z w -0.1279
-1.4858 z x -0.1097
-1.4858 z y -0.1305
-1.9808 z z -0.1225
-0.3140 zero </s> 1.8602
-1.8839 zero eight -0.1122
-1.8839 zero five -0.1250
-1.3889 zero four -0.0537
-1.1635 zero one -0.1651
-1.3889 zero seven 0.1668
-0.8183 zero six -0.0126
-1.3889 zero two -0.0055
-1.8839 zero zero -0.0653

\3-grams:
-1.8219 </s> <s> a 
-3.5444 </s> <s> april 
-3.5444 </s> <s> area 
-2.4618 </s> <s> august 
-1.5407 </s> <s> b 
-1.7650 </s> <s> c 
-1.9244 </s> <s> d 
-3.5444 </s> <s> december 
-1.8219 </s> <s> e 
-2.1148 </s> <s> eight 
-3.5444 </s> <s> eighteen 
-2.8724 </s> <s> eleven 
-1.0559 </s> <s> enter 
-1.4675 </s> <s> erase 
-1.8219 </s> <s> f 
-3.5444 </s> <s> february 
-2.1148 </s> <s> fifty 
-1.7925 </s> <s> five 
-3.5444 </s> <s> forty 
-1.4953 </s> <s> four 
-3.5444 </s> <s> fourteen 
-1.8219 </s> <s> g 
-2.0093 </s> <s> go 
-1.7650 </s> <s> h 
-1.9244 </s> <s> help 
-2.4618 </s> <s> i 
-1.7146 </s> <s> j 
-2.8724 </s> <s> january 
-2.6203 </s> <s> july 
-2.8724 </s> <s> june 
-2.1148 </s> <s> k 
-1.9244 </s> <s> l 
-1.5099 </s> <s> m 
-2.6203 </s> <s> march 
-2.8724 </s> <s> may 
-1.8875 </s> <s> n 
-2.2545 </s> <s> nine 
-3.5444 </s> <s> ninth 
-1.7925 </s> <s> no 
-2.0588 </s> <s> o 
-2.6203 </s> <s> october 
-2.6203 </s> <s> oh 
-1.0208 </s> <s> one 
-1.1891 </s> <s> p 
-2.8724 </s> <s> q 
-1.8875 </s> <s> r 
-1.7650 </s> <s> repeat 
-1.2109 </s> <s> rubout 
-1.5099 </s> <s> s 
-2.4618 </s> <s> september 
-1.9648 </s> <s> seven 
-1.6915 </s> <s> six 
-2.8724 </s> <s> sixty 
-1.9648 </s> <s> start 
-1.7925 </s> <s> stop 
-1.9244 </s> <s> t 
-2.3459 </s> <s> ten 
-2.4618 </s> <s> thirty 
-1.7925 </s> <s> three 
-2.2545 </s> <s> twelve 
-3.5444 </s> <s> twenty 
-1.6095 </s> <s> two 
-2.8724 </s> <s> u 
-1.9244 </s> <s> v 
-2.0093 </s> <s> w 
-2.3459 </s> <s> x 
-2.6203 </s> <s> y 
-1.6915 </s> <s> yes 
-2.4618 </s> <s> z 
-1.7442 <s> a a 
-1.0722 <s> a g 
-0.8200 <s> a l 
-0.8200 <s> a m 
-1.7442 <s> a r 
-1.0722 <s> a s 
-1.7442 <s> a t 
-1.7442 <s> a v 
-1.7442 <s> a y 
-0.5681 <s> april thirtieth 
-0.5681 <s> area code 
-1.1701 <s> august sixteenth 
-0.2460 <s> august twenty 
-1.3432 <s> b a 
-0.7253 <s> b e 
-2.0152 <s> b j 
-2.0152 <s> b l 
-1.3432 <s> b o 
-0.4801 <s> b r 
-2.0152 <s> b seven 
-1.0911 <s> b u 
-2.0152 <s> b v 
-2.0152 <s> b y 
-0.8744 <s> c a 
-0.8744 <s> c e 
-0.8744 <s> c h 
-1.7985 <s> c i 
-1.1265 <s> c l 
-1.7985 <s> c m 
-1.1265 <s> c o 
-1.7985 <s> c r 
-1.7985 <s> c z 
-0.5646 <s> d a 
-1.6472 <s> d e 
-0.5646 <s> d o 
-1.6472 <s> d r 
-1.6472 <s> d s 
-1.6472 <s> d y 
-0.5681 <s> december eighteenth 
-0.5456 <s> e a 
-1.7442 <s> e d 
-1.7442 <s> e f 
-1.0722 <s> e l 
-1.7442 <s> e m 
-0.8200 <s> e r 
-1.7442 <s> e w 
-1.7442 <s> e z 
-0.7992 <s> eight eight 
-1.4712 <s> eight five 
-1.4712 <s> eight forty 
-1.4712 <s> eight four 
-1.4712 <s> eight fourteen 
-1.4712 <s> eight oh 
-1.4712 <s> eight two 
-0.5681 <s> eighteen february 
-0.8691 <s> eleven nine 
-0.8691 <s> eleven seventeen 
-1.0627 <s> enter eight 
-2.4923 <s> enter eighty 
-2.4923 <s> enter fifteen 
-1.2938 <s> enter fifty 
-1.2024 <s> enter five 
-1.5682 <s> enter forty 
-1.2024 <s> enter four 
-2.4923 <s> enter fourteen 
-1.4097 <s> enter nine 
-1.5682 <s> enter ninety 
-1.4097 <s> enter one 
-1.0068 <s> enter seven 
-1.4097 <s> enter seventy 
-1.0627 <s> enter six 
-1.0627 <s> enter sixty 
-1.5682 <s> enter thirty 
-1.8204 <s> enter three 
-2.4923 <s> enter twenty 
-1.2024 <s> enter two 
-2.4923 <s> enter zero 
-2.0866 <s> erase a 
-2.0866 <s> erase b 
-1.4146 <s> erase c 
-1.4146 <s> erase e 
-2.0866 <s> erase f 
-1.4146 <s> erase g 
-1.4146 <s> erase i 
-1.4146 <s> erase j 
-2.0866 <s> erase k 
-2.0866 <s> erase m 
-2.0866 <s> erase n 
-1.1624 <s> erase o 
-1.4146 <s> erase q 
-2.0866 <s> erase r 
-1.4146 <s> erase s 
-2.0866 <s> erase t 
-1.1624 <s> erase v 
-1.4146 <s> erase w 
-2.0866 <s> erase x 
-2.0866 <s> erase y 
-2.0866 <s> erase z 
-1.7442 <s> f a 
-0.6615 <s> f e 
-0.5456 <s> f i 
-1.7442 <s> f k 
-1.7442 <s> f o 
-1.0722 <s> f r 
-1.7442 <s> f y 
-0.5681 <s> february eighth 
-1.4712 <s> fifty eight 
-0.7992 <s> fifty one 
-1.4712 <s> fifty seven 
-0.5470 <s> fifty six 
-1.4712 <s> fifty three 
-1.7722 <s> five five 
-0.8480 <s> five one 
-0.8480 <s> five six 
-1.7722 <s> five sixteen 
-1.7722 <s> five t 
-1.7722 <s> five ten 
-1.7722 <s> five twenty 
-0.5737 <s> five two 
-0.5681 <s> forty three 
-1.3874 <s> four eight 
-2.0594 <s> four five 
-0.8609 <s> four four 
-1.3874 <s> four oh 
-0.4394 <s> four one 
-1.3874 <s> four seven 
-2.0594 <s> four twenty 
-0.7695 <s> four two 
-0.5681 <s> fourteen fourteen 
-1.0722 <s> g a 
-1.7442 <s> g c 
-1.7442 <s> g e 
-0.8200 <s> g i 
-0.8200 <s> g l 
-1.7442 <s> g o 
-1.0722 <s> g r 
-1.7442 <s> g two 
-1.7442 <s> g w 
-0.0329 <s> go </s> 
-0.6000 <s> h a 
-1.7985 <s> h b 
-1.1265 <s> h i 
-1.7985 <s> h k 
-0.6000 <s> h o 
-1.7985 <s> h p 
-1.7985 <s> h q 
-1.7985 <s> h z 
-0.0272 <s> help </s> 
-1.1701 <s> i d 
-1.1701 <s> i p 
-1.1701 <s> i t 
-1.1701 <s> i v 
-1.1748 <s> j a 
-1.8468 <s> j c 
-0.6483 <s> j e 
-1.8468 <s> j four 
-1.8468 <s> j h 
-0.6483 <s> j o 
-1.8468 <s> j s 
-1.8468 <s> j u 
-1.8468 <s> j v 
-1.8468 <s> j z 
-0.8691 <s> january fifteenth 
-0.8691 <s> january twelfth 
-1.0452 <s> july thirtieth 
-1.0452 <s> july twelfth 
-1.0452 <s> july twenty 
-0.8691 <s> june eleventh 
-0.8691 <s> june twenty 
-0.5470 <s> k a 
-0.7992 <s> k e 
-1.4712 <s> k l 
-1.4712 <s> k u 
-1.4712 <s> k w 
-1.6472 <s> l a 
-0.9753 <s> l e 
-0.9753 <s> l i 
-0.9753 <s> l o 
-0.9753 <s> l r 
-0.9753 <s> l u 
-1.6472 <s> l z 
-0.3542 <s> m a 
-2.0452 <s> m c 
-1.3732 <s> m e 
-2.0452 <s> m f 
-2.0452 <s> m g 
-1.1210 <s> m i 
-2.0452 <s> m m 
-0.6798 <s> m o 
-1.0452 <s> march third 
-1.0452 <s> march twentieth 
-1.0452 <s> march twenty 
-0.8691 <s> may ninth 
-0.8691 <s> may twenty 
-1.6820 <s> n a 
-0.3921 <s> n e 
-1.6820 <s> n g 
-1.6820 <s> n h 
-1.6820 <s> n i 
-1.6820 <s> n l 
-1.6820 <s> n n 
-1.6820 <s> n o 
-1.3462 <s> nine four 
-1.3462 <s> nine one 
-1.3462 <s> nine thirty 
-1.3462 <s> nine three 
-1.3462 <s> nine twenty 
-1.3462 <s> nine two 
-0.5681 <s> ninth of 
-0.0203 <s> no </s> 
-0.5981 <s> o a 
-1.5223 <s> o apostrophe 
-0.5981 <s> o l 
-1.5223 <s> o r 
-1.5223 <s> o u 
-1.0452 <s> october first 
-1.0452 <s> october thirtieth 
-1.0452 <s> october twenty 
-1.0452 <s> oh seven 
-0.3732 <s> oh six 
-2.5271 <s> one eleven 
-2.5271 <s> one fifty 
-0.1789 <s> one five 
-1.8551 <s> one four 
-2.5271 <s> one hundred 
-1.8551 <s> one nine 
-1.4444 <s> one oh 
-1.8551 <s> one seven 
-2.5271 <s> one six 
-2.5271 <s> one sixteen 
-1.8551 <s> one ten 
-2.5271 <s> one thirty 
-1.8551 <s> one thousand 
-2.5271 <s> one three 
-1.8551 <s> one twenty 
-1.3286 <s> one two 
-1.8551 <s> one zero 
-1.6885 <s> p a 
-1.4363 <s> p g 
-1.6885 <s> p h 
-0.1366 <s> p i 
-1.2778 <s> p o 
-2.3605 <s> p r 
-1.6885 <s> p t 
-1.6885 <s> p u 
-0.8691 <s> q c 
-0.8691 <s> q e 
-1.6820 <s> r a 
-1.6820 <s> r e 
-1.6820 <s> r g 
-1.6820 <s> r h 
-1.0100 <s> r i 
-0.4835 <s> r o 
-1.6820 <s> r q 
-1.6820 <s> r u 
-0.0191 <s> repeat </s> 
-2.3389 <s> rubout a 
-1.4148 <s> rubout c 
-2.3389 <s> rubout d 
-1.6669 <s> rubout e 
-1.2563 <s> rubout f 
-1.6669 <s> rubout g 
-1.4148 <s> rubout h 
-1.6669 <s> rubout i 
-1.4148 <s> rubout j 
-2.3389 <s> rubout l 
-1.4148 <s> rubout m 
-1.1404 <s> rubout n 
-1.2563 <s> rubout o 
-1.6669 <s> rubout p 
-1.6669 <s> rubout q 
-1.4148 <s> rubout r 
-2.3389 <s> rubout s 
-1.4148 <s> rubout t 
-1.1404 <s> rubout u 
-1.6669 <s> rubout v 
-1.6669 <s> rubout w 
-2.3389 <s> rubout x 
-2.3389 <s> rubout y 
-1.4148 <s> rubout z 
-1.3732 <s> s a 
-2.0452 <s> s c 
-1.1210 <s> s e 
-2.0452 <s> s f 
-1.3732 <s> s h 
-2.0452 <s> s k 
-2.0452 <s> s l 
-2.0452 <s> s m 
-2.0452 <s> s n 
-2.0452 <s> s o 
-1.3732 <s> s p 
-0.6156 <s> s t 
-1.1210 <s> s u 
-1.3732 <s> s w 
-2.0452 <s> s z 
-1.1701 <s> september fifteenth 
-1.1701 <s> september first 
-1.1701 <s> september sixth 
-1.1701 <s> september twenty 
-1.6095 <s> seven fifteen 
-1.6095 <s> seven fifty 
-1.6095 <s> seven four 
-1.6095 <s> seven fourteen 
-1.6095 <s> seven may 
-1.6095 <s> seven nine 
-1.6095 <s> seven seventeen 
-1.6095 <s> seven thirty 
-0.9375 <s> seven three 
-1.6095 <s> seven twenty 
-0.6706 <s> six eight 
-1.8691 <s> six five 
-1.8691 <s> six four 
-1.8691 <s> six seventeen 
-0.7864 <s> six six 
-1.8691 <s> six sixteen 
-1.8691 <s> six thirty 
-0.9449 <s> six three 
-1.8691 <s> six twenty 
-1.8691 <s> six two 
-1.8691 <s> six zero 
-0.8691 <s> sixty seven 
-0.8691 <s> sixty three 
-0.0298 <s> start </s> 
-0.0203 <s> stop </s> 
-0.9753 <s> t a 
-1.6472 <s> t e 
-0.7231 <s> t h 
-0.9753 <s> t i 
-1.6472 <s> t o 
-0.9753 <s> t r 
-1.6472 <s> t v 
-1.2670 <s> ten one 
-1.2670 <s> ten seventy 
-1.2670 <s> ten thirty 
-1.2670 <s> ten twelve 
-1.2670 <s> ten twenty 
-1.1701 <s> thirty </s> 
-1.1701 <s> thirty one 
-1.1701 <s> thirty three 
-1.1701 <s> thirty two 
-1.7722 <s> three eleven 
-1.1002 <s> three four 
-1.7722 <s> three fourteen 
-0.8480 <s> three oh 
-1.7722 <s> three one 
-1.7722 <s> three seventy 
-1.1002 <s> three six 
-1.7722 <s> three twelve 
-1.1002 <s> three twenty 
-1.1002 <s> three two 
-1.3462 <s> twelve four 
-1.3462 <s> twelve nine 
-1.3462 <s> twelve nineteen 
-1.3462 <s> twelve ten 
-0.6742 <s> twelve twenty 
-0.5681 <s> twenty two 
-1.9483 <s> two fifteen 
-1.9483 <s> two five 
-1.2763 <s> two four 
-1.9483 <s> two nine 
-1.2763 <s> two oh 
-1.2763 <s> two one 
-1.2763 <s> two seven 
-0.4131 <s> two six 
-1.9483 <s> two ten 
-1.9483 <s> two twenty 
-1.9483 <s> two two 
-0.8691 <s> u m 
-0.8691 <s> u s 
-0.7231 <s> v a 
-0.5646 <s> v e 
-1.6472 <s> v f 
-1.6472 <s> v k 
-1.6472 <s> v l 
-1.6472 <s> v q 
-1.6472 <s> v w 
-0.4854 <s> w a 
-1.5681 <s> w c 
-1.5681 <s> w e 
-1.5681 <s> w h 
-0.8961 <s> w i 
-1.5681 <s> w r 
-1.2670 <s> x e 
-1.2670 <s> x g 
-1.2670 <s> x h 
-1.2670 <s> x i 
-1.2670 <s> x z 
-1.0452 <s> y d 
-1.0452 <s> y f 
-1.0452 <s> y w 
-0.0154 <s> yes </s> 
-1.1701 <s> z c 
-1.1701 <s> z e 
-1.1701 <s> z eight 
-1.1701 <s> z i 
-0.0217 a </s> <s> 
-1.1701 a a i 
-1.1701 a a m 
-1.1701 a a n 
-1.1701 a a ninety 
-0.8691 a b h 
-0.8691 a b w 
-0.9753 a c a 
-0.9753 a c e 
-1.6472 a c f 
-1.6472 a c five 
-0.9753 a c k 
-0.9753 a c o 
-1.6472 a c u 
-1.6472 a c y 
-0.6439 a d </s> 
-1.5681 a d d 
-1.5681 a d e 
-1.5681 a d f 
-1.5681 a d h 
-1.5681 a d o 
-0.8961 a d r 
-0.3732 a e l 
-1.0452 a e three 
-0.8691 a f k 
-0.8691 a f t 
-1.1701 a g k 
-0.4981 a g l 
-1.1701 a g two 
-1.1701 a h fifty 
-1.1701 a h l 
-0.4981 a h o 
-0.1971 a half </s> 
-1.0452 a i fifteen 
-1.0452 a i l 
-1.0452 a i q 
-0.5681 a j seven 
-1.0452 a k d 
-1.0452 a k ninety 
-1.0452 a k o 
-1.0422 a l d 
-0.6315 a l e 
-1.7142 a l h 
-1.7142 a l i 
-1.0422 a l l 
-1.7142 a l m 
-1.7142 a l t 
-1.7142 a l u 
-1.7142 a l z 
-1.0100 a m e 
-1.6820 a m j 
-0.7578 a m p 
-1.0100 a m s 
-1.6820 a m seven 
-1.6820 a m thirty 
-1.6820 a m two 
-1.6820 a m x 
-1.6820 a m y 
-0.6006 a n </s> 
-1.9660 a n b 
-1.9660 a n c 
-0.7675 a n d 
-0.8833 a n e 
-1.9660 a n g 
-1.9660 a n i 
-1.9660 a n n 
-1.2940 a n t 
-1.9660 a n u 
-1.9660 a n z 
-0.5681 a ninety four 
-1.0452 a p a 
-1.0452 a p l 
-1.0452 a p seventeen 
-2.1809 a r </s> 
-1.5089 a r a 
-2.1809 a r b 
-0.9823 a r d 
-1.0982 a r e 
-1.2567 a r g 
-0.9823 a r k 
-0.9823 a r l 
-1.2567 a r n 
-2.1809 a r o 
-1.0982 a r r 
-2.1809 a r s 
-1.2567 a r t 
-1.2567 a r y 
-0.8961 a s </s> 
-1.5681 a s b 
-1.5681 a s o 
-1.5681 a s p 
-0.3695 a s t 
-1.0452 a six </s> 
-1.0452 a six four 
-1.0452 a six hundred 
-1.5681 a t </s> 
-0.8961 a t e 
-0.8961 a t h 
-0.3695 a t t 
-0.5681 a two </s> 
-0.8691 a u l 
-0.8691 a u two 
-0.2819 a v e 
-0.7231 a v i 
-1.6472 a v k 
-1.6472 a v m 
-1.0452 a w </s> 
-1.0452 a w f 
-1.0452 a w t 
-0.5681 a x x 
-1.2670 a y b 
-1.2670 a y e 
-0.5950 a y l 
-1.2670 a y n 
-0.5681 a z x 
-0.1971 and a half 
-1.0452 and eighty one 
-0.3732 and eighty six 
-0.5681 and fifty two 
-0.5681 and sixty six 
-0.5681 and twenty three 
-0.5681 apostrophe h a 
-0.5681 april thirtieth nineteen 
-0.5681 area code four 
-0.5681 august sixteenth nineteen 
-1.0452 august twenty fourth 
-0.3732 august twenty second 
-1.4132 b a c 
-1.4132 b a i 
-1.4132 b a k 
-0.3305 b a r 
-0.5681 b b s 
-0.5681 b d k 
-0.9375 b e a 
-1.6095 b e c 
-1.6095 b e e 
-1.6095 b e g 
-1.6095 b e j 
-0.5268 b e r 
-1.6095 b e v 
-0.5681 b eight </s> 
-0.5681 b five </s> 
-0.8691 b forty eight 
-0.8691 b forty nine 
-0.5681 b g l 
-0.5681 b h two 
-0.5681 b i n 
-0.8691 b j v 
-0.8691 b j x 
-0.5681 b k z 
-0.5681 b l a 
-1.0452 b m e 
-1.0452 b m j 
-1.0452 b m n 
-0.5950 b o r 
-0.5950 b o u 
-1.2670 b o x 
-0.5681 b one eight 
-0.5681 b p b 
-0.9375 b r a 
-1.6095 b r e 
-1.6095 b r i 
-0.3196 b r o 
-1.6095 b r u 
-1.0452 b s </s> 
-0.3732 b s o 
-0.8691 b seven eight 
-0.8691 b seven twenty 
-0.1971 b seventy nine 
-0.5681 b six </s> 
-2.2841 b u c 
-0.0147 b u r 
-0.5681 b v i 
-0.5681 b w two 
-1.0452 b x nine 
-1.0452 b x r 
-1.0452 b x three 
-0.5681 b y v 
-0.5681 b z six 
-0.1971 c </s> <s> 
-0.7412 c a </s> 
-0.7412 c a l 
-0.7412 c a r 
-1.4132 c a v 
-0.8691 c b e 
-0.8691 c b j 
-0.5681 c c h 
-0.5681 c d o 
-0.4890 c e </s> 
-1.4132 c e l 
-0.7412 c e n 
-1.4132 c e s 
-0.5681 c f two 
-0.8691 c five nine 
-0.8691 c five three 
-1.7442 c h </s> 
-0.4543 c h a 
-1.7442 c h e 
-1.7442 c h f 
-1.7442 c h i 
-1.0722 c h r 
-1.0722 c h t 
-1.7442 c h y 
-0.5681 c i n 
-0.5681 c j k 
-0.5981 c k </s> 
-1.5223 c k c 
-1.5223 c k e 
-1.5223 c k l 
-0.8503 c k w 
-1.5223 c k y 
-1.0452 c l a 
-1.0452 c l o 
-1.0452 c l two 
-0.5681 c m u 
-1.3462 c o l 
-0.2636 c o n 
-1.3462 c o r 
-0.5681 c r a 
-0.5681 c s seven 
-0.5681 c seven one 
-0.5681 c t l 
-0.1971 c thirty five 
-0.5681 c two </s> 
-0.5681 c u three 
-0.5681 c v y 
-0.8691 c w fourteen 
-0.8691 c w n 
-0.8691 c y </s> 
-0.8691 c y r 
-1.0452 c z d 
-1.0452 c z t 
-1.0452 c z twenty 
-0.5681 code four one 
-0.0129 d </s> <s> 
-0.9375 d a </s> 
-0.9375 d a l 
-1.6095 d a n 
-1.6095 d a two 
-0.4109 d a v 
-0.8691 d b a 
-0.8691 d b forty 
-1.0452 d d j 
-1.0452 d d o 
-1.0452 d d oh 
-0.7412 d e </s> 
-1.4132 d e four 
-0.4890 d e r 
-1.4132 d e u 
-0.8691 d f o 
-0.8691 d f t 
-0.5681 d forty seven 
-0.5681 d h e 
-0.8691 d i c 
-0.8691 d i n 
-0.5681 d j one 
-1.0452 d k f 
-1.0452 d k m 
-1.0452 d k t 
-0.5681 d l e 
-0.8691 d m h 
-0.8691 d m t 
-0.5681 d n e 
-1.5223 d o c 
-1.5223 d o four 
-1.5223 d o l 
-1.5223 d o n 
-1.5223 d o r 
-1.5223 d o u 
-0.5981 d o w 
-0.5681 d oh </s> 
-0.8691 d one eight 
-0.8691 d one seventy 
-0.5681 d p l 
-0.8691 d q one 
-0.8691 d q t 
-1.5223 d r a 
-1.5223 d r g 
-0.4396 d r i 
-1.5223 d r o 
-1.5223 d r thirty 
-1.5223 d r w 
-0.8691 d s </s> 
-0.8691 d s k 
-0.8691 d two nine 
-0.8691 d two six 
-0.5681 d u g 
-0.5681 d v seven 
-0.5950 d w i 
-0.5950 d w o 
-1.2670 d w q 
-0.3732 d y </s> 
-1.0452 d y m 
-0.5681 d z w 
-0.5681 december eighteenth nineteen 
-0.0078 e </s> <s> 
-1.7985 e a </s> 
-1.1265 e a c 
-1.1265 e a d 
-0.8744 e a n 
-1.7985 e a r 
-0.7159 e a s 
-1.7985 e a six 
-1.7985 e a t 
-1.1265 e a v 
-0.8691 e b one 
-0.8691 e b seventy 
-0.8691 e c c 
-0.8691 e c h 
-1.4132 e d forty 
-1.4132 e d o 
-1.4132 e d one 
-0.7412 e d r 
-1.4132 e d v 
-1.4132 e d w 
-1.5681 e e a 
-1.5681 e e l 
-1.5681 e e n 
-0.8961 e e p 
-1.5681 e e r 
-0.8961 e e s 
-1.5681 e e t 
-1.5681 e e three 
-0.8691 e eight nine 
-0.8691 e eight seven 
-1.0452 e f f 
-1.0452 e f r 
-1.0452 e f v 
-1.0452 e four ninety 
-1.0452 e four oh 
-1.0452 e four seven 
-1.1701 e g b 
-1.1701 e g i 
-1.1701 e g l 
-1.1701 e g seventy 
-0.5681 e h u 
-1.1701 e i d 
-0.2460 e i l 
-0.1971 e j q 
-0.5681 e k </s> 
-0.7120 e l </s> 
-1.9105 e l a 
-0.9863 e l d 
-1.2385 e l e 
-1.9105 e l g 
-1.9105 e l i 
-0.4809 e l l 
-1.9105 e l s 
-0.4981 e m b 
-1.1701 e m o 
-1.1701 e m p 
-0.4974 e n </s> 
-1.0589 e n d 
-1.9830 e n f 
-0.9004 e n n 
-1.9830 e n o 
-1.9830 e n s 
-1.0589 e n t 
-0.9004 e n u 
-0.5681 e o a 
-1.3462 e p c 
-0.4221 e p h 
-1.3462 e p t 
-1.3462 e p y 
-0.5681 e q fifty 
-0.6941 e r </s> 
-1.3874 e r a 
-2.0594 e r b 
-1.1353 e r e 
-2.0594 e r f 
-0.9768 e r i 
-1.3874 e r k 
-1.1353 e r l 
-2.0594 e r n 
-1.3874 e r o 
-2.0594 e r one 
-1.3874 e r s 
-1.3874 e r t 
-0.3238 e s </s> 
-1.5223 e s b 
-1.5223 e s f 
-1.5223 e s m 
-1.5223 e s p 
-0.5681 e seventy six 
-0.2726 e t </s> 
-0.5470 e t t 
-0.5681 e thirty five 
-0.8691 e three five 
-0.8691 e three seven 
-0.5681 e two eight 
-1.0452 e u j 
-1.0452 e u l 
-1.0452 e u y 
-1.5223 e v a 
-0.1570 e v e 
-1.5223 e v nine 
-0.8480 e w </s> 
-1.7722 e w a 
-1.7722 e w b 
-1.7722 e w e 
-1.1002 e w i 
-0.6895 e w o 
-0.8480 e w y 
-1.7722 e w z 
-0.5681 e x x 
-0.1477 e y </s> 
-1.3462 e y d 
-0.8691 e z a 
-0.8691 e z u 
-0.0063 eight </s> <s> 
-0.6742 eight eight four 
-0.6742 eight eight nine 
-1.3462 eight eight seven 
-1.3462 eight eight two 
-0.8961 eight five </s> 
-1.5681 eight five eight 
-1.5681 eight five five 
-1.5681 eight five four 
-1.5681 eight five nine 
-1.5681 eight five oh 
-1.5681 eight five one 
-0.8961 eight five six 
-0.5681 eight forty one 
-0.5456 eight four </s> 
-0.8200 eight four four 
-1.0722 eight four one 
-0.8200 eight four six 
-1.0722 eight four two 
-0.5681 eight fourteen sixty 
-0.3732 eight hundred and 
-1.0452 eight hundred eighty 
-0.5950 eight nine </s> 
-1.2670 eight nine nine 
-0.5950 eight nine six 
-1.3462 eight oh </s> 
-1.3462 eight oh eight 
-1.3462 eight oh nine 
-1.3462 eight oh seven 
-1.3462 eight oh three 
-1.3462 eight oh two 
-1.4132 eight one </s> 
-0.7412 eight one nine 
-1.4132 eight one oh 
-1.4132 eight one one 
-1.4132 eight one seven 
-1.4132 eight one six 
-0.5470 eight seven </s> 
-1.4712 eight seven eight 
-1.4712 eight seven five 
-1.4712 eight seven nine 
-1.4712 eight seven one 
-1.4712 eight seven zero 
-0.1971 eight seventy one 
-0.6742 eight six </s> 
-1.3462 eight six eight 
-1.3462 eight six nine 
-1.3462 eight six one 
-1.3462 eight six three 
-1.0452 eight sixty five 
-1.0452 eight sixty nine 
-1.0452 eight sixty one 
-0.5681 eight thirty two 
-0.5681 eight thousand nine 
-0.7231 eight three </s> 
-1.6472 eight three eight 
-1.6472 eight three five 
-1.6472 eight three oh 
-0.9753 eight three one 
-1.6472 eight three three 
-1.6472 eight three two 
-0.9753 eight three zero 
-0.8691 eight twenty eight 
-0.8691 eight twenty seven 
-1.5223 eight two </s> 
-0.8503 eight two eight 
-0.8503 eight two four 
-0.5981 eight two six 
-1.5223 eight two three 
-0.4981 eight zero </s> 
-1.1701 eight zero six 
-1.1701 eight zero two 
-0.5681 eighteen february nineteen 
-0.5681 eighteenth nineteen forty 
-0.5681 eighth nineteen fifty 
-0.5681 eighty eight </s> 
-0.5681 eighty fifth s 
-0.5681 eighty five </s> 
-0.5681 eighty four </s> 
-0.3732 eighty nine </s> 
-1.0452 eighty nine forty 
-0.5681 eighty one </s> 
-0.5681 eighty seven </s> 
-0.0685 eighty six </s> 
-0.5681 eighty three </s> 
-0.5681 eleven </s> <s> 
-0.5681 eleven nine sixty 
-0.5681 eleven seventeen fifty 
-0.5681 eleven sixty seven 
-0.5681 eleventh nineteen sixty 
-1.4712 enter eight four 
-1.4712 enter eight one 
-1.4712 enter eight seven 
-1.4712 enter eight seventy 
-1.4712 enter eight thirty 
-1.4712 enter eight twenty 
-1.4712 enter eight two 
-1.4712 enter eight zero 
-0.5681 enter eighty nine 
-0.5681 enter fifteen </s> 
-1.2670 enter fifty five 
-0.5950 enter fifty four 
-1.2670 enter fifty one 
-1.2670 enter fifty sixty 
-0.4221 enter five </s> 
-1.3462 enter five three 
-1.3462 enter five two 
-1.3462 enter five zero 
-1.0452 enter forty one 
-1.0452 enter forty seven 
-1.0452 enter forty three 
-0.6742 enter four </s> 
-0.6742 enter four fifty 
-1.3462 enter four thousand 
-1.3462 enter four twenty 
-0.5681 enter fourteen </s> 
-1.1701 enter nine </s> 
-1.1701 enter nine eight 
-1.1701 enter nine eighty 
-1.1701 enter nine seventy 
-1.0452 enter ninety eight 
-1.0452 enter ninety five 
-1.0452 enter ninety four 
-1.1701 enter one forty 
-1.1701 enter one nine 
-1.1701 enter one ninety 
-1.1701 enter one thirty 
-0.3238 enter seven </s> 
-1.5223 enter seven oh 
-1.5223 enter seven seven 
-1.5223 enter seven thirty 
-1.5223 enter seven two 
-1.1701 enter seventy eight 
-0.4981 enter seventy one 
-1.1701 enter seventy two 
-0.5470 enter six </s> 
-1.4712 enter six four 
-1.4712 enter six oh 
-1.4712 enter six one 
-1.4712 enter six seven 
-1.4712 enter six two 
-0.5470 enter sixty </s> 
-1.4712 enter sixty four 
-0.7992 enter sixty one 
-1.4712 enter sixty six 
-1.4712 enter sixty two 
-1.0452 enter thirty eight 
-1.0452 enter thirty five 
-1.0452 enter thirty seven 
-0.8691 enter three </s> 
-0.8691 enter three eighty 
-0.5681 enter twenty nine 
-0.6742 enter two </s> 
-1.3462 enter two five 
-0.6742 enter two oh 
-1.3462 enter two six 
-0.5681 enter zero </s> 
-0.5681 erase a l 
-0.5681 erase b m 
-0.8691 erase c b 
-0.8691 erase c k 
-0.8691 erase e o 
-0.8691 erase e x 
-0.5681 erase f h 
-0.8691 erase g h 
-0.8691 erase g w 
-0.8691 erase i g 
-0.8691 erase i s 
-0.8691 erase j g 
-0.8691 erase j n 
-0.5681 erase k j 
-0.5681 erase m y 
-0.5681 erase n t 
-1.0452 erase o j 
-0.3732 erase o t 
-0.8691 erase q e 
-0.8691 erase q k 
-0.5681 erase r b 
-0.8691 erase s s 
-0.8691 erase s v 
-0.5681 erase t m 
-1.0452 erase v r 
-1.0452 erase v x 
-1.0452 erase v y 
-0.8691 erase w e 
-0.8691 erase w f 
-0.5681 erase x b 
-0.5681 erase y b 
-0.5681 erase z y 
-0.5681 f </s> <s> 
-0.5681 f a r 
-0.8691 f b m 
-0.8691 f b o 
-0.5681 f d w 
-1.4712 f e b 
-1.4712 f e d 
-1.4712 f e eight 
-1.4712 f e g 
-1.4712 f e i 
-1.4712 f e l 
-1.4712 f e n 
-1.4712 f e r 
-0.5681 f eight </s> 
-1.0452 f f </s> 
-1.0452 f f eight 
-1.0452 f f r 
-0.8691 f five forty 
-0.8691 f five nine 
-0.5681 f g i 
-0.8691 f h b 
-0.8691 f h nine 
-1.4132 f i e 
-0.7412 f i f 
-1.4132 f i five 
-1.4132 f i l 
-1.4132 f i n 
-1.4132 f i y 
-0.8691 f j d 
-0.8691 f j k 
-0.8691 f k a 
-0.8691 f k v 
-0.8691 f m fifty 
-0.8691 f m q 
-1.2670 f o f 
-1.2670 f o five 
-0.3429 f o r 
-0.5681 f q q 
-0.5950 f r a 
-1.2670 f r i 
-0.5950 f r o 
-0.5681 f s o 
-0.5681 f six eighty 
-0.4981 f t h 
-1.1701 f t o 
-1.1701 f t sixty 
-0.5681 f thirty eight 
-0.5681 f twenty four 
-0.3732 f two </s> 
-1.0452 f two five 
-0.5681 f v s 
-1.1701 f x c 
-1.1701 f x four 
-1.1701 f x y 
-1.1701 f x zero 
-0.8691 f y n 
-0.8691 f y z 
-0.5681 f z z 
-0.5681 february eighth nineteen 
-0.5681 february nineteen seventy 
-0.1210 fifteen </s> <s> 
-0.5681 fifteen nineteen seventy 
-0.5681 fifteen sixty two 
-0.1971 fifteenth nineteen sixty 
-0.5681 fifth nineteen sixty 
-0.5681 fifth s t 
-0.1971 fifty </s> <s> 
-0.2636 fifty eight </s> 
-1.3462 fifty eight oh 
-1.3462 fifty eight thousand 
-0.2460 fifty five </s> 
-1.1701 fifty five thirty 
-0.1210 fifty four </s> 
-0.5681 fifty nine </s> 
-0.2636 fifty one </s> 
-1.3462 fifty one fifteen 
-1.3462 fifty one fifty 
-0.8691 fifty seven </s> 
-0.8691 fifty seven fourteen 
-0.4221 fifty six </s> 
-1.3462 fifty six oh 
-1.3462 fifty six sixty 
-1.3462 fifty six thirty 
-0.5681 fifty sixty three 
-0.8691 fifty three </s> 
-0.8691 fifty three forty 
-0.2460 fifty two </s> 
-1.1701 fifty two fifty 
-0.1210 first nineteen sixty 
-0.0065 five </s> <s> 
-0.2636 five eight </s> 
-1.3462 five eight five 
-1.3462 five eight oh 
-0.6742 five five </s> 
-1.3462 five five eight 
-1.3462 five five five 
-1.3462 five five three 
-1.3462 five five two 
-0.5681 five forty five 
-0.6742 five four </s> 
-1.3462 five four five 
-0.6742 five four six 
-1.3462 five four two 
-0.8691 five hundred and 
-0.8691 five hundred eighty 
-0.5681 five m a 
-0.7412 five nine </s> 
-1.4132 five nine five 
-1.4132 five nine one 
-1.4132 five nine seven 
-1.4132 five nine six 
-1.4132 five nine two 
-0.7992 five oh </s> 
-1.4712 five oh five 
-0.7992 five oh four 
-1.4712 five oh one 
-1.4712 five oh seven 
-1.4712 five oh six 
-0.8200 five one </s> 
-1.7442 five one eight 
-1.7442 five one five 
-0.8200 five one four 
-1.7442 five one nine 
-1.7442 five one oh 
-0.8200 five one one 
-1.0722 five one three 
-0.6742 five seven </s> 
-0.6742 five seven eight 
-1.3462 five seven oh 
-1.3462 five seven six 
-1.4132 five six </s> 
-0.7412 five six four 
-0.7412 five six one 
-1.4132 five six six 
-1.4132 five six three 
-0.5681 five sixteen sixty 
-0.5681 five t h 
-0.5681 five ten </s> 
-0.8691 five thirty </s> 
-0.8691 five thirty five 
-1.5223 five three </s> 
-1.5223 five three five 
-0.5981 five three four 
-0.5981 five three three 
-1.5223 five three two 
-0.5681 five twenty six 
-1.3179 five two </s> 
-2.4006 five two eight 
-2.4006 five two five 
-1.4764 five two four 
-1.3179 five two oh 
-0.3105 five two one 
-1.7286 five two seven 
-2.4006 five two six 
-1.0352 five two three 
-0.9150 five two two 
-1.7286 five two zero 
-0.5950 five zero </s> 
-0.5950 five zero four 
-1.2670 five zero six 
-0.1210 forty eight </s> 
-0.0875 forty five </s> 
-0.1210 forty four </s> 
-0.3732 forty nine </s> 
-1.0452 forty nine hundred 
-0.1971 forty one </s> 
-0.2460 forty seven </s> 
-1.1701 forty seven forty 
-0.5681 forty six </s> 
-1.1701 forty three </s> 
-1.1701 forty three forty 
-1.1701 forty three seventeen 
-1.1701 forty three twenty 
-0.1210 forty two </s> 
-0.0064 four </s> <s> 
-0.5681 four and a 
-1.4712 four eight </s> 
-1.4712 four eight five 
-0.7992 four eight four 
-1.4712 four eight six 
-0.7992 four eight two 
-1.4712 four eight zero 
-0.8691 four fifty one 
-0.8691 four fifty six 
-1.4132 four five eight 
-1.4132 four five nine 
-1.4132 four five oh 
-0.7412 four five one 
-1.4132 four five three 
-1.4132 four five two 
-0.8691 four forty nine 
-0.8691 four forty two 
-0.4543 four four </s> 
-1.7442 four four eight 
-1.0722 four four four 
-1.7442 four four oh 
-1.0722 four four one 
-1.0722 four four seven 
-1.7442 four four three 
-1.1701 four nine </s> 
-1.1701 four nine five 
-1.1701 four nine nine 
-1.1701 four nine zero 
-0.5681 four ninety one 
-1.3462 four oh eight 
-1.3462 four oh one 
-1.3462 four oh six 
-0.6742 four oh three 
-1.3462 four oh two 
-0.9863 four one </s> 
-1.9105 four one eight 
-1.2385 four one oh 
-1.9105 four one one 
-1.9105 four one six 
-0.2536 four one two 
-1.9105 four one zero 
-0.5981 four seven </s> 
-1.5223 four seven five 
-1.5223 four seven four 
-1.5223 four seven sixty 
-1.5223 four seven twenty 
-0.8503 four seven two 
-0.5681 four seventy one 
-0.7992 four six </s> 
-1.4712 four six five 
-1.4712 four six four 
-1.4712 four six nine 
-1.4712 four six oh 
-0.7992 four six seven 
-0.8691 four sixty eight 
-0.8691 four sixty seven 
-0.5681 four thirty three 
-1.0452 four thousand eight 
-1.0452 four thousand seven 
-1.0452 four thousand three 
-0.5950 four three </s> 
-1.2670 four three eight 
-1.2670 four three six 
-1.2670 four three three 
-0.8691 four twenty eight 
-0.8691 four twenty one 
-0.8480 four two </s> 
-1.7722 four two nine 
-0.6895 four two one 
-1.7722 four two six 
-0.4068 four two two 
-0.5681 four zero </s> 
-0.1210 fourteen </s> <s> 
-0.5681 fourteen a </s> 
-0.5681 fourteen eighty five 
-0.5681 fourteen fourteen </s> 
-1.0452 fourteen sixty four 
-1.0452 fourteen sixty one 
-1.0452 fourteen sixty seven 
-0.5681 fourth nineteen fifty 
-0.1210 g </s> <s> 
-1.5223 g a b 
-1.5223 g a m 
-0.4396 g a r 
-0.8503 g a six 
-1.5223 g a t 
-0.5681 g b forty 
-0.8691 g c d 
-0.8691 g c s 
-0.8691 g d e 
-0.8691 g d r 
-0.8691 g e e 
-0.8691 g e four 
-0.5681 g eighty six 
-0.5681 g forty eight 
-0.0507 g h </s> 
-2.2841 g h l 
-1.6121 g h o 
-2.2841 g h t 
-2.2841 g h x 
-0.5470 g i b 
-1.4712 g i c 
-1.4712 g i e 
-1.4712 g i k 
-1.4712 g i n 
-1.4712 g i u 
-0.8691 g j h 
-0.8691 g j w 
-0.8691 g k eighty 
-0.8691 g k k 
-1.5223 g l a 
-0.4396 g l e 
-0.8503 g l g 
-1.5223 g l l 
-1.5223 g l seventy 
-1.1701 g n m 
-1.1701 g n n 
-1.1701 g n o 
-1.1701 g n p 
-0.8691 g nine nine 
-0.8691 g nine six 
-0.5681 g o t 
-0.5681 g p d 
-0.5681 g q y 
-0.8691 g r e 
-0.8691 g r o 
-0.5681 g s </s> 
-0.5681 g seventy nine 
-0.5681 g t o 
-0.8691 g two eighty 
-0.8691 g two hundred 
-0.5681 g u k 
-0.8691 g v i 
-0.8691 g v seven 
-0.8691 g w d 
-0.8691 g w n 
-0.0329 go </s> <s> 
-0.0059 h </s> <s> 
-1.9298 h a c 
-1.9298 h a d 
-1.2578 h a e 
-1.9298 h a h 
-1.9298 h a m 
-1.0056 h a n 
-0.5644 h a r 
-1.9298 h a s 
-1.2578 h a v 
-1.2578 h a w 
-1.9298 h a x 
-1.9298 h a y 
-1.1701 h b a 
-1.1701 h b g 
-1.1701 h b k 
-1.1701 h b x 
-0.7992 h e a 
-1.4712 h e i 
-1.4712 h e n 
-1.4712 h e q 
-1.4712 h e r 
-0.7992 h e w 
-1.0452 h f d 
-1.0452 h f e 
-1.0452 h f i 
-0.5681 h fifty two 
-0.5681 h four </s> 
-0.8691 h g p 
-0.8691 h g v 
-0.5681 h h u 
-1.3462 h i </s> 
-1.3462 h i g 
-1.3462 h i l 
-1.3462 h i n 
-1.3462 h i r 
-1.3462 h i t 
-0.8691 h k j 
-0.8691 h k t 
-0.8691 h l a 
-0.8691 h l e 
-1.1701 h n </s> 
-1.1701 h n c 
-1.1701 h n k 
-1.1701 h n s 
-0.5681 h nine four 
-1.0100 h o b 
-1.6820 h o e 
-1.6820 h o f 
-1.6820 h o l 
-1.6820 h o m 
-1.6820 h o n 
-1.6820 h o r 
-1.6820 h o t 
-1.0100 h o u 
-1.6820 h o w 
-1.6820 h o y 
-0.5681 h one </s> 
-0.5681 h p d 
-0.5681 h q f 
-0.3732 h r i 
-1.0452 h r sixty 
-0.5681 h seven eight 
-0.5681 h seventy seven 
-0.5681 h six </s> 
-0.3732 h t e 
-1.0452 h t s 
-0.5681 h three seventy 
-0.5681 h two </s> 
-0.8691 h u f 
-0.8691 h u r 
-0.5681 h w o 
-0.5681 h x w 
-1.0452 h y </s> 
-1.0452 h y d 
-1.0452 h y l 
-0.5681 h z a 
-0.1971 half </s> <s> 
-0.0272 help </s> <s> 
-0.1971 hundred </s> <s> 
-0.4221 hundred and eighty 
-1.3462 hundred and fifty 
-1.3462 hundred and sixty 
-1.3462 hundred and twenty 
-0.8691 hundred eighty seven 
-0.8691 hundred eighty three 
-0.5681 hundred forty nine 
-0.5681 hundred twenty three 
-0.0685 i </s> <s> 
-0.4981 i a </s> 
-1.1701 i a m 
-1.1701 i a n 
-1.0452 i b b 
-0.3732 i b s 
-1.0422 i c </s> 
-1.7142 i c a 
-1.7142 i c five 
-0.4243 i c h 
-1.0422 i c k 
-1.7142 i c o 
-1.7142 i c two 
-0.5950 i d </s> 
-1.2670 i d e 
-1.2670 i d m 
-1.2670 i d w 
-0.8503 i e </s> 
-0.8503 i e l 
-1.5223 i e n 
-0.8503 i e r 
-1.5223 i e t 
-1.5223 i e w 
-1.1701 i f e 
-1.1701 i f r 
-0.4981 i f t 
-0.5681 i fifteen </s> 
-0.8691 i five </s> 
-0.8691 i five zero 
-0.5681 i four </s> 
-0.4981 i g h 
-1.1701 i g i 
-1.1701 i g n 
-0.8691 i k </s> 
-0.8691 i k two 
-0.8961 i l </s> 
-1.5681 i l a 
-1.5681 i l d 
-1.5681 i l k 
-0.4854 i l l 
-1.5681 i l zero 
-1.1701 i m i 
-1.1701 i m m 
-0.4981 i m o 
-0.8076 i n </s> 
-1.8903 i n a 
-1.2183 i n c 
-0.8076 i n d 
-1.8903 i n e 
-0.6918 i n g 
-1.2183 i n i 
-1.2183 i n s 
-0.5681 i o </s> 
-1.0452 i p a 
-1.0452 i p s 
-1.0452 i p three 
-1.0452 i q g 
-1.0452 i q n 
-1.0452 i q w 
-1.0452 i r d 
-1.0452 i r e 
-1.0452 i r k 
-0.4221 i s </s> 
-1.3462 i s l 
-1.3462 i s s 
-1.3462 i s t 
-0.5681 i sixty one 
-2.2670 i t d 
-1.5950 i t h 
-2.2670 i t n 
-0.0432 i t t 
-0.5681 i thirty two 
-0.5681 i u r 
-1.3462 i v a 
-0.2636 i v e 
-1.3462 i v y 
-0.5681 i y q 
-0.3732 j a m 
-1.0452 j a n 
-0.5681 j b x 
-0.8691 j c h 
-0.8691 j c l 
-0.5681 j d two 
-0.5950 j e a 
-1.2670 j e f 
-1.2670 j e n 
-1.2670 j e t 
-0.5681 j five seven 
-0.8691 j four thirty 
-0.8691 j four thousand 
-0.5681 j g q 
-0.8691 j h b 
-0.8691 j h g 
-0.5681 j j c 
-0.8691 j k eight 
-0.8691 j k two 
-0.5681 j l y 
-0.5681 j m k 
-0.5681 j n r 
-1.4132 j o </s> 
-0.7412 j o h 
-1.4132 j o n 
-1.4132 j o ninety 
-0.7412 j o s 
-0.8691 j one </s> 
-0.8691 j one five 
-0.8691 j q five 
-0.8691 j q t 
-0.5681 j s p 
-1.0452 j seven four 
-1.0452 j seven ten 
-1.0452 j seven thousand 
-0.5681 j t k 
-0.8691 j u i 
-0.8691 j u l 
-0.8691 j v c 
-0.8691 j v p 
-0.5681 j w b 
-0.5681 j x k 
-0.8691 j z a 
-0.8691 j z f 
-0.5681 january fifteenth nineteen 
-0.5681 january twelfth nineteen 
-0.5681 july thirtieth nineteen 
-0.5681 july twelfth nineteen 
-0.5681 july twenty nine 
-0.5681 june eleventh nineteen 
-0.5681 june twenty third 
-0.0298 k </s> <s> 
-0.1844 k a r 
-1.2670 k a u 
-0.5681 k c w 
-0.5681 k d a 
-1.4712 k e a 
-0.7992 k e e 
-1.4712 k e l 
-1.4712 k e n 
-1.4712 k e r 
-1.4712 k e thirty 
-1.4712 k e v 
-0.5681 k eight five 
-0.5681 k eighty four 
-0.8691 k f five 
-0.8691 k f six 
-0.8691 k h a 
-0.8691 k h one 
-1.1701 k i </s> 
-1.1701 k i four 
-0.4981 k i n 
-0.8691 k j five 
-0.8691 k j z 
-0.5681 k k three 
-0.8691 k l e 
-0.8691 k l m 
-0.5681 k m four 
-0.5681 k nine </s> 
-0.5681 k ninety six 
-0.5681 k o eight 
-0.5681 k r o 
-0.8691 k s </s> 
-0.8691 k s thirty 
-0.8691 k six four 
-0.8691 k six thousand 
-1.0452 k t e 
-1.0452 k t fifty 
-1.0452 k t l 
-0.5681 k three thirty 
-0.5681 k twenty three 
-0.8691 k two eight 
-0.8691 k two sixty 
-0.8691 k u four 
-0.8691 k u n 
-0.5681 k v thirty 
-1.1701 k w h 
-1.1701 k w o 
-1.1701 k w w 
-1.1701 k w z 
-0.8691 k x y 
-0.8691 k x zero 
-0.1971 k y </s> 
-0.8691 k z o 
-0.8691 k z sixty 
-0.0251 l </s> <s> 
-1.0422 l a </s> 
-1.7142 l a a 
-0.6315 l a c 
-1.7142 l a m 
-0.6315 l a n 
-1.7142 l a r 
-1.7142 l a s 
-0.5681 l c z 
-0.3695 l d </s> 
-1.5681 l d a 
-1.5681 l d b 
-1.5681 l d e 
-1.5681 l d i 
-1.5681 l d r 
-0.5296 l e </s> 
-2.0152 l e a 
-2.0152 l e d 
-2.0152 l e e 
-2.0152 l e four 
-1.3432 l e n 
-2.0152 l e r 
-1.3432 l e s 
-2.0152 l e seventy 
-2.0152 l e two 
-2.0152 l e u 
-2.0152 l e v 
-1.3432 l e w 
-0.9326 l e y 
-0.5681 l eight four 
-1.0452 l f o 
-1.0452 l f thirty 
-1.0452 l f x 
-0.5681 l fifty one 
-0.3732 l g a 
-1.0452 l g i 
-0.5681 l h n 
-1.6472 l i a 
-0.7231 l i e 
-1.6472 l i f 
-1.6472 l i g 
-0.7231 l i n 
-1.6472 l i o 
-1.6472 l i p 
-1.6472 l i s 
-1.0452 l k f 
-1.0452 l k h 
-1.0452 l k i 
-0.6248 l l </s> 
-0.8992 l l e 
-0.7407 l l i 
-1.8233 l l k 
-1.8233 l l nine 
-1.8233 l l o 
-1.8233 l l s 
-1.1513 l l y 
-0.8691 l m o 
-0.8691 l m u 
-0.5681 l n s 
-0.5681 l nine four 
-1.2670 l o n 
-1.2670 l o o 
-1.2670 l o r 
-1.2670 l o u 
-1.2670 l o w 
-1.0452 l r l 
-1.0452 l r r 
-1.0452 l r seven 
-1.0452 l s k 
-1.0452 l s o 
-1.0452 l s w 
-0.5681 l seventy seven 
-0.5681 l t m 
-0.5681 l thirty one 
-0.5681 l three seven 
-0.5681 l two </s> 
-1.0452 l u b 
-1.0452 l u d 
-1.0452 l u s 
-0.3429 l y </s> 
-1.2670 l y u 
-1.2670 l y z 
-0.8691 l z e 
-0.8691 l z r 
-0.5681 l zero </s> 
-0.1210 m </s> <s> 
-1.8903 m a c 
-1.8903 m a h 
-1.8903 m a l 
-1.2183 m a n 
-1.8903 m a p 
-0.4047 m a r 
-1.2183 m a s 
-1.2183 m a t 
-1.8903 m a u 
-1.8903 m a z 
-0.8691 m b e 
-0.8691 m b z 
-0.5681 m c k 
-0.5681 m d m 
-1.4712 m e a 
-1.4712 m e e 
-1.4712 m e m 
-0.5470 m e r 
-0.7992 m e s 
-0.5681 m eight four 
-0.5681 m f g 
-0.5681 m fifty four 
-0.5681 m forty three 
-0.5681 m four seventy 
-0.5681 m g e 
-0.8691 m h r 
-0.8691 m h seven 
-0.6742 m i c 
-1.3462 m i d 
-0.6742 m i t 
-1.3462 m i thirty 
-0.8691 m j one 
-0.8691 m j seven 
-0.5681 m k nine 
-1.0452 m m </s> 
-1.0452 m m e 
-1.0452 m m v 
-1.0452 m n t 
-1.0452 m n y 
-1.0452 m n z 
-1.6095 m o d 
-1.6095 m o h 
-0.9375 m o n 
-0.3196 m o r 
-1.6095 m o t 
-1.1701 m p e 
-1.1701 m p l 
-0.4981 m p s 
-0.5681 m q n 
-0.8691 m s </s> 
-0.8691 m s j 
-0.5681 m seven </s> 
-0.5681 m t g 
-0.5681 m thirty nine 
-0.5681 m two </s> 
-1.0452 m u </s> 
-1.0452 m u five 
-1.0452 m u four 
-0.8691 m v o 
-0.8691 m v q 
-0.5681 m x seventy 
-0.8691 m y </s> 
-0.8691 m y a 
-0.5681 march third nineteen 
-0.5681 march twentieth nineteen 
-0.5681 march twenty fifth 
-0.5681 may nineteen forty 
-0.5681 may ninth sixty 
-0.5681 may twenty first 
-0.0084 n </s> <s> 
-0.6853 n a </s> 
-1.6095 n a a 
-1.6095 n a f 
-1.6095 n a g 
-1.6095 n a l 
-1.6095 n a m 
-1.6095 n a n 
-0.9375 n a t 
-1.1701 n b a 
-1.1701 n b five 
-1.1701 n b u 
-1.1701 n b x 
-0.5950 n c e 
-1.2670 n c k 
-1.2670 n c o 
-1.2670 n c thirty 
-0.7578 n d </s> 
-0.5993 n d a 
-1.0100 n d e 
-1.6820 n d l 
-1.6820 n d r 
-1.0100 n d y 
-0.6706 n e </s> 
-1.8691 n e d 
-1.1971 n e g 
-1.8691 n e h 
-1.8691 n e i 
-0.9449 n e l 
-1.8691 n e s 
-1.8691 n e t 
-0.9449 n e w 
-1.1971 n e y 
-0.5681 n f e 
-0.5681 n four </s> 
-1.4712 n g </s> 
-0.7992 n g h 
-1.4712 n g l 
-1.4712 n g n 
-1.4712 n g s 
-1.4712 n g t 
-1.4712 n g v 
-0.8691 n h o 
-0.8691 n h three 
-0.9375 n i </s> 
-0.9375 n i a 
-0.6853 n i c 
-1.6095 n i e 
-1.6095 n i f 
-1.6095 n i m 
-1.6095 n i n 
-0.5681 n j four 
-0.5681 n k e 
-0.8691 n l l 
-0.8691 n l n 
-0.5681 n m forty 
-0.8503 n n </s> 
-1.5223 n n a 
-1.5223 n n e 
-0.8503 n n i 
-1.5223 n n p 
-1.5223 n n three 
-1.5223 n n y 
-1.1701 n o </s> 
-1.1701 n o o 
-1.1701 n o p 
-1.1701 n o w 
-1.0452 n p eight 
-1.0452 n p ninety 
-1.0452 n p u 
-0.8691 n r a 
-0.8691 n r g 
-1.2670 n s </s> 
-1.2670 n s h 
-1.2670 n s k 
-1.2670 n s o 
-1.2670 n s one 
-0.5681 n seventy one 
-0.5681 n six seven 
-1.5223 n t </s> 
-1.5223 n t d 
-1.5223 n t four 
-1.5223 n t o 
-0.8503 n t r 
-0.5981 n t z 
-0.5681 n three nine 
-1.2670 n u a 
-0.1844 n u e 
-0.8691 n x f 
-0.8691 n x v 
-1.0452 n y h 
-1.0452 n y ten 
-1.0452 n y v 
-1.0452 n z i 
-1.0452 n z l 
-1.0452 n z x 
-0.0065 nine </s> <s> 
-0.5681 nine and a 
-1.0452 nine eight eight 
-1.0452 nine eight nine 
-1.0452 nine eight two 
-0.5681 nine eighty nine 
-0.8691 nine fifty eight 
-0.8691 nine fifty nine 
-1.4132 nine five </s> 
-1.4132 nine five four 
-1.4132 nine five nine 
-1.4132 nine five oh 
-1.4132 nine five one 
-0.7412 nine five two 
-0.5681 nine forty three 
-0.4981 nine four </s> 
-1.1701 nine four oh 
-1.1701 nine four six 
-0.5681 nine hundred </s> 
-0.2460 nine nine </s> 
-1.1701 nine nine four 
-0.5681 nine nineteen sixty 
-0.5681 nine of sixty 
-0.5681 nine oh oh 
-0.3429 nine one </s> 
-1.2670 nine one four 
-1.2670 nine one two 
-1.0452 nine seven six 
-1.0452 nine seven two 
-1.0452 nine seven zero 
-0.5681 nine seventy two 
-0.4854 nine six </s> 
-1.5681 nine six four 
-1.5681 nine six nine 
-1.5681 nine six seven 
-0.8961 nine six six 
-1.5681 nine six two 
-0.5681 nine sixty eight 
-0.8691 nine thirty nine 
-0.8691 nine thirty sixty 
-0.5950 nine three </s> 
-0.5950 nine three five 
-1.2670 nine three three 
-0.8691 nine twenty </s> 
-0.8691 nine twenty three 
-0.5950 nine two </s> 
-1.2670 nine two three 
-0.5950 nine two two 
-0.5681 nine zero </s> 
-0.1971 nineteen fifty two 
-0.1971 nineteen forty four 
-0.1210 nineteen seventy </s> 
-1.9105 nineteen sixty </s> 
-0.9863 nineteen sixty five 
-1.9105 nineteen sixty four 
-0.4809 nineteen sixty nine 
-1.2385 nineteen sixty one 
-0.7120 nineteen sixty seven 
-1.9105 nineteen sixty six 
-1.9105 nineteen sixty three 
-0.5681 nineteen twenty eight 
-0.8691 ninety eight </s> 
-0.8691 ninety eight twenty 
-0.1971 ninety five </s> 
-0.1971 ninety four </s> 
-0.5681 ninety one </s> 
-0.5681 ninety seven </s> 
-0.1971 ninety six </s> 
-0.5681 ninth of september 
-0.5681 ninth sixty two 
-0.0203 no </s> <s> 
-0.0685 o </s> <s> 
-1.4132 o a c 
-0.4890 o a d 
-1.4132 o a k 
-1.4132 o a m 
-1.4132 o a w 
-0.5681 o apostrophe h 
-0.5950 o b a 
-0.5950 o b e 
-1.2670 o b eight 
-0.5681 o c k 
-0.2324 o d </s> 
-1.5223 o d o 
-1.5223 o d s 
-1.5223 o d u 
-0.5681 o e </s> 
-0.5681 o eight </s> 
-1.0452 o f b 
-1.0452 o f f 
-1.0452 o f h 
-0.5681 o five </s> 
-0.5681 o forty six 
-0.5681 o four </s> 
-0.5681 o g d 
-1.1701 o h g 
-0.2460 o h n 
-0.5681 o j t 
-0.8691 o k h 
-0.8691 o k t 
-1.4712 o l a 
-1.4712 o l d 
-1.4712 o l e 
-1.4712 o l eight 
-1.4712 o l i 
-1.4712 o l k 
-1.4712 o l l 
-1.4712 o l s 
-0.6742 o m </s> 
-0.6742 o m a 
-0.6742 o m e 
-0.3952 o n </s> 
-0.9326 o n a 
-2.0152 o n b 
-2.0152 o n c 
-2.0152 o n e 
-2.0152 o n g 
-0.9326 o n i 
-2.0152 o n j 
-2.0152 o n n 
-2.0152 o n t 
-2.0152 o n x 
-0.5681 o ninety five 
-1.6820 o o b 
-0.3167 o o d 
-1.6820 o o f 
-1.6820 o o forty 
-1.6820 o o k 
-1.6820 o o m 
-1.6820 o o n 
-0.8691 o p h 
-0.8691 o p l 
-0.5681 o q i 
-0.9227 o r </s> 
-1.8468 o r c 
-0.9227 o r d 
-0.6483 o r e 
-1.8468 o r k 
-1.8468 o r n 
-1.8468 o r o 
-1.1748 o r t 
-1.8468 o r w 
-1.8468 o r y 
-0.3429 o s e 
-1.2670 o s s 
-1.2670 o s t 
-0.5681 o sixty two 
-1.3462 o t e 
-1.3462 o t f 
-0.6742 o t h 
-1.3462 o t q 
-1.3462 o t t 
-0.5681 o two two 
-1.5681 o u eighty 
-1.5681 o u four 
-1.5681 o u g 
-1.5681 o u n 
-1.5681 o u q 
-1.5681 o u r 
-0.8961 o u s 
-0.8961 o u t 
-0.5981 o w </s> 
-1.5223 o w e 
-1.5223 o w g 
-1.5223 o w l 
-0.5981 o w n 
-0.5681 o x eight 
-0.1971 o y </s> 
-0.5681 o z e 
-0.5681 october first nineteen 
-0.5681 october thirtieth nineteen 
-0.5681 october twenty third 
-0.5681 of september nineteen 
-0.5681 of sixty </s> 
-0.0478 oh </s> <s> 
-0.4854 oh eight </s> 
-1.5681 oh eight five 
-1.5681 oh eight nine 
-1.5681 oh eight oh 
-1.5681 oh eight one 
-1.5681 oh eight six 
-1.5681 oh eight three 
-0.2636 oh five </s> 
-1.3462 oh five four 
-1.3462 oh five nine 
-1.0452 oh four five 
-0.3732 oh four four 
-1.0452 oh nine </s> 
-1.0452 oh nine and 
-1.0452 oh nine six 
-0.8691 oh oh eight 
-0.8691 oh oh two 
-0.5950 oh one </s> 
-1.2670 oh one five 
-1.2670 oh one four 
-1.2670 oh one nine 
-0.2726 oh seven </s> 
-1.4712 oh seven nine 
-1.4712 oh seven oh 
-1.4712 oh seven six 
-0.3573 oh six </s> 
-1.6472 oh six five 
-0.9753 oh six nine 
-1.6472 oh six oh 
-1.6472 oh six seven 
-1.6472 oh six three 
-0.5950 oh three </s> 
-1.2670 oh three eight 
-1.2670 oh three seven 
-1.2670 oh three two 
-0.3885 oh two </s> 
-1.4712 oh two eight 
-1.4712 oh two nine 
-1.4712 oh two seven 
-1.4712 oh two six 
-0.0058 one </s> <s> 
-0.5981 one eight </s> 
-1.5223 one eight eight 
-1.5223 one eight four 
-1.5223 one eight one 
-1.5223 one eight seven 
-1.5223 one eight six 
-1.5223 one eight two 
-0.5681 one eleven </s> 
-0.5681 one fifteen </s> 
-1.1701 one fifty </s> 
-0.4981 one fifty eight 
-1.1701 one fifty six 
-1.3546 one five </s> 
-1.7653 one five five 
-2.4373 one five four 
-2.4373 one five m 
-1.5131 one five oh 
-1.1474 one five one 
-1.7653 one five six 
-1.3546 one five three 
-0.1766 one five two 
-2.4373 one five zero 
-0.5681 one forty two 
-0.8503 one four eight 
-0.8503 one four nine 
-0.8503 one four seven 
-1.5223 one four six 
-0.8503 one four three 
-0.8691 one hundred </s> 
-0.8691 one hundred and 
-0.5681 one j a 
-0.9375 one nine </s> 
-1.6095 one nine eight 
-0.9375 one nine five 
-1.6095 one nine oh 
-1.6095 one nine seven 
-0.6853 one nine six 
-1.6095 one nine three 
-0.5681 one ninety six 
-1.7142 one oh </s> 
-1.7142 one oh five 
-1.7142 one oh four 
-1.7142 one oh nine 
-1.7142 one oh oh 
-1.7142 one oh one 
-0.7900 one oh seven 
-1.0422 one oh six 
-0.7900 one oh two 
-1.4132 one one </s> 
-1.4132 one one eight 
-0.7412 one one five 
-1.4132 one one seven 
-1.4132 one one six 
-1.4132 one one three 
-0.1172 one seven </s> 
-1.8691 one seven forty 
-1.8691 one seven seven 
-1.8691 one seven three 
-1.8691 one seven two 
-0.8691 one seventy </s> 
-0.8691 one seventy five 
-0.4890 one six </s> 
-1.4132 one six nine 
-1.4132 one six oh 
-1.4132 one six one 
-1.4132 one six two 
-0.5681 one sixteen forty 
-1.1701 one sixty eight 
-1.1701 one sixty fifty 
-1.1701 one sixty three 
-1.1701 one sixty two 
-0.1971 one ten </s> 
-0.1971 one thirty one 
-0.1971 one thousand </s> 
-0.1345 one three </s> 
-1.7142 one three six 
-1.0422 one three three 
-0.8691 one twenty </s> 
-0.8691 one twenty two 
-1.0589 one two </s> 
-1.3110 one two eight 
-0.6931 one two five 
-0.7845 one two four 
-1.9830 one two one 
-1.9830 one two seven 
-1.0589 one two six 
-0.9004 one two two 
-1.9830 one two zero 
-1.2670 one zero eight 
-1.2670 one zero five 
-1.2670 one zero one 
-1.2670 one zero six 
-1.2670 one zero zero 
-1.1701 p a c 
-1.1701 p a h 
-1.1701 p a r 
-1.1701 p a t 
-0.5681 p b six 
-0.5681 p c seven 
-0.8691 p d f 
-0.8691 p d two 
-0.8691 p e eight 
-0.8691 p e r 
-0.5681 p eight hundred 
-0.5681 p f j 
-0.5681 p forty five 
-0.5681 p four </s> 
-0.1210 p g h 
-0.6742 p h </s> 
-0.6742 p h e 
-1.3462 p h i 
-1.3462 p h y 
-2.2402 p i five 
-2.2402 p i n 
-0.0260 p i t 
-0.5950 p l a 
-0.3429 p l e 
-0.8691 p n a 
-0.8691 p n e 
-0.5681 p ninety seven 
-1.3462 p o l 
-0.6742 p o m 
-1.3462 p o o 
-1.3462 p o r 
-1.3462 p o u 
-0.1210 p r i 
-1.1701 p s </s> 
-1.1701 p s h 
-1.1701 p s o 
-1.1701 p s z 
-0.5681 p seventeen </s> 
-1.0452 p t e 
-1.0452 p t k 
-1.0452 p t q 
-0.5681 p three two 
-1.0452 p u five 
-1.0452 p u s 
-1.0452 p u x 
-0.5681 p y h 
-0.5681 q c j 
-1.0452 q d b 
-1.0452 q d one 
-1.0452 q d q 
-0.8691 q e e 
-0.8691 q e j 
-0.5681 q f x 
-0.8691 q fifty eight 
-0.8691 q fifty six 
-0.5681 q five oh 
-0.5681 q g eighty 
-0.5681 q i m 
-0.8691 q k six 
-0.8691 q k x 
-1.0452 q n h 
-1.0452 q n r 
-1.0452 q n seventy 
-0.5681 q one </s> 
-0.5681 q p forty 
-1.0452 q q k 
-1.0452 q q p 
-1.0452 q q q 
-0.5681 q six two 
-0.8691 q t seventy 
-0.8691 q t w 
-0.5681 q two eight 
-0.5681 q u e 
-0.5681 q w eight 
-0.5681 q y eight 
-0.5681 q z h 
-0.0298 r </s> <s> 
-1.6820 r a </s> 
-1.6820 r a c 
-1.0100 r a d 
-1.6820 r a f 
-1.6820 r a j 
-0.4835 r a n 
-1.6820 r a p 
-1.6820 r a v 
-1.1701 r b d 
-1.1701 r b o 
-1.1701 r b seven 
-1.1701 r b u 
-0.1971 r c h 
-0.2324 r d </s> 
-1.5223 r d d 
-1.5223 r d p 
-1.5223 r d w 
-0.8656 r e </s> 
-1.2763 r e a 
-1.2763 r e e 
-1.9483 r e f 
-1.9483 r e k 
-1.2763 r e l 
-0.8656 r e n 
-1.0241 r e t 
-0.7497 r e w 
-0.8691 r f i 
-0.8691 r f o 
-1.6121 r g </s> 
-1.3599 r g a 
-2.2841 r g c 
-2.2841 r g forty 
-0.0798 r g h 
-2.2841 r g nine 
-0.5681 r h h 
-1.8468 r i </s> 
-1.8468 r i a 
-0.6483 r i c 
-1.8468 r i g 
-1.8468 r i k 
-0.7642 r i n 
-1.1748 r i s 
-0.7642 r i v 
-0.4109 r k </s> 
-0.9375 r k e 
-1.6095 r k i 
-1.6095 r k r 
-1.6095 r k s 
-1.6095 r k six 
-1.5223 r l </s> 
-0.5981 r l a 
-0.8503 r l e 
-1.5223 r l f 
-0.8503 r l y 
-1.3462 r n </s> 
-1.3462 r n a 
-1.3462 r n d 
-0.4221 r n e 
-1.8903 r o </s> 
-0.9661 r o a 
-1.2183 r o b 
-1.8903 r o m 
-0.6918 r o n 
-1.2183 r o o 
-0.9661 r o s 
-1.2183 r o w 
-1.8903 r o y 
-1.8903 r o z 
-0.5681 r one two 
-0.5681 r q z 
-0.4890 r r e 
-1.4132 r r k 
-1.4132 r r n 
-1.4132 r r o 
-1.4132 r r y 
-0.2460 r s o 
-1.1701 r s t 
-0.5681 r seven zero 
-0.5681 r sixty one 
-0.2146 r t </s> 
-1.4132 r t h 
-1.4132 r t z 
-0.5681 r thirty one 
-0.8691 r u m 
-0.8691 r u s 
-0.8691 r v fifty 
-0.8691 r v z 
-0.8691 r w a 
-0.8691 r w twenty 
-0.3885 r y </s> 
-1.4712 r y j 
-1.4712 r y l 
-1.4712 r y one 
-1.4712 r y p 
-0.8691 r z nine 
-0.8691 r z r 
-0.0191 repeat </s> <s> 
-0.5681 rubout a d 
-1.0452 rubout c h 
-1.0452 rubout c t 
-1.0452 rubout c y 
-0.5681 rubout d q 
-0.8691 rubout e u 
-0.8691 rubout e z 
-1.1701 rubout f b 
-1.1701 rubout f m 
-1.1701 rubout f x 
-1.1701 rubout f y 
-0.8691 rubout g j 
-0.8691 rubout g u 
-1.0452 rubout h a 
-1.0452 rubout h f 
-1.0452 rubout h w 
-0.8691 rubout i r 
-0.8691 rubout i t 
-1.0452 rubout j b 
-1.0452 rubout j l 
-1.0452 rubout j u 
-0.5681 rubout l d 
-1.0452 rubout m d 
-1.0452 rubout m n 
-1.0452 rubout m v 
-0.5950 rubout n a 
-1.2670 rubout n b 
-1.2670 rubout n x 
-1.2670 rubout n z 
-1.1701 rubout o g 
-1.1701 rubout o h 
-1.1701 rubout o k 
-1.1701 rubout o q 
-0.8691 rubout p n 
-0.8691 rubout p o 
-0.8691 rubout q n 
-0.8691 rubout q q 
-1.0452 rubout r e 
-1.0452 rubout r r 
-1.0452 rubout r z 
-0.5681 rubout s h 
-1.0452 rubout t b 
-1.0452 rubout t g 
-1.0452 rubout t j 
-1.2670 rubout u f 
-1.2670 rubout u g 
-1.2670 rubout u j 
-0.5950 rubout u t 
-0.8691 rubout v a 
-0.8691 rubout v e 
-0.8691 rubout w l 
-0.8691 rubout w p 
-0.5681 rubout x c 
-0.5681 rubout y y 
-1.0452 rubout z g 
-1.0452 rubout z o 
-1.0452 rubout z y 
-0.0191 s </s> <s> 
-0.8691 s a t 
-0.8691 s a y 
-2.2402 s b o 
-0.0163 s b u 
-0.5681 s c a 
-1.4712 s e </s> 
-1.4712 s e l 
-1.4712 s e m 
-1.4712 s e n 
-0.5470 s e p 
-1.4712 s e w 
-0.8691 s f q 
-0.8691 s f twenty 
-0.5950 s h a 
-1.2670 s h e 
-1.2670 s h i 
-1.2670 s h k 
-0.5681 s i q 
-0.5681 s j seven 
-1.3462 s k a 
-1.3462 s k e 
-0.6742 s k i 
-1.3462 s k u 
-1.3462 s k y 
-0.8691 s l e 
-0.8691 s l f 
-0.3732 s m a 
-1.0452 s m i 
-0.5681 s n o 
-1.6472 s o </s> 
-1.6472 s o l 
-0.1617 s o n 
-1.6472 s o u 
-0.8691 s one five 
-0.8691 s one seventy 
-1.2670 s p n 
-1.2670 s p o 
-0.5950 s p r 
-1.2670 s p s 
-1.0452 s s m 
-1.0452 s s v 
-1.0452 s s w 
-0.5681 s seven sixty 
-1.1265 s t </s> 
-0.2634 s t e 
-1.7985 s t eighty 
-1.7985 s t i 
-1.1265 s t o 
-1.7985 s t r 
-0.5681 s thirty five 
-1.0452 s u m 
-1.0452 s u n 
-1.0452 s u o 
-1.0452 s v a 
-1.0452 s v i 
-1.0452 s v n 
-1.1701 s w a 
-1.1701 s w i 
-1.1701 s w o 
-1.1701 s w z 
-0.5681 s x two 
-0.8691 s z k 
-0.8691 s z nine 
-0.5681 s zero </s> 
-0.1971 second nineteen sixty 
-0.5681 september fifteenth nineteen 
-0.5681 september first nineteen 
-0.5681 september nineteen sixty 
-0.5681 september sixth nineteen 
-0.5681 september twenty seventh 
-0.0048 seven </s> <s> 
-0.5470 seven eight </s> 
-0.7992 seven eight eight 
-1.4712 seven eight five 
-1.4712 seven eight four 
-1.4712 seven eight zero 
-0.5681 seven fifteen nineteen 
-0.5681 seven fifty five 
-1.2670 seven five eight 
-1.2670 seven five one 
-0.5950 seven five seven 
-1.2670 seven five two 
-1.0452 seven forty four 
-0.3732 seven forty seven 
-0.4981 seven four </s> 
-1.1701 seven four eight 
-1.1701 seven four one 
-0.8691 seven fourteen a 
-0.8691 seven fourteen sixty 
-0.5681 seven hundred twenty 
-0.5681 seven may nineteen 
-1.3462 seven nine five 
-0.6742 seven nine one 
-1.3462 seven nine three 
-0.6742 seven nine two 
-1.3462 seven oh </s> 
-0.6742 seven oh eight 
-1.3462 seven oh six 
-1.3462 seven oh three 
-1.3462 seven oh two 
-1.2670 seven one </s> 
-1.2670 seven one eight 
-1.2670 seven one oh 
-1.2670 seven one six 
-1.2670 seven one zero 
-0.3732 seven seven </s> 
-1.0452 seven seven five 
-0.5681 seven seventeen fifty 
-0.5681 seven seventy two 
-0.4981 seven six </s> 
-1.1701 seven six six 
-1.1701 seven six three 
-1.0452 seven sixty eight 
-1.0452 seven sixty four 
-1.0452 seven sixty seven 
-0.1971 seven ten </s> 
-0.8691 seven thirty </s> 
-0.8691 seven thirty eight 
-0.5681 seven thousand one 
-1.1701 seven three </s> 
-1.1701 seven three one 
-1.1701 seven three six 
-1.1701 seven three zero 
-1.0452 seven twenty five 
-0.3732 seven twenty nine 
-1.3462 seven two </s> 
-1.3462 seven two four 
-1.3462 seven two nine 
-1.3462 seven two one 
-1.3462 seven two two 
-1.3462 seven two zero 
-0.3732 seven zero </s> 
-1.0452 seven zero one 
-0.1971 seventeen </s> <s> 
-0.8691 seventeen fifty one 
-0.8691 seventeen fifty seven 
-0.5681 seventeen thirty six 
-0.5681 seventh nineteen sixty 
-0.0685 seventy </s> <s> 
-0.5681 seventy eight </s> 
-0.5681 seventy five </s> 
-0.3732 seventy nine </s> 
-1.0452 seventy nine fifty 
-0.0415 seventy one </s> 
-0.3732 seventy seven </s> 
-1.0452 seventy seven forty 
-0.5681 seventy six twelve 
-0.0875 seventy two </s> 
-0.0056 six </s> <s> 
-1.0418 six eight </s> 
-1.2940 six eight five 
-0.7675 six eight four 
-1.2940 six eight one 
-0.8833 six eight seven 
-1.2940 six eight six 
-0.6006 six eight three 
-0.5681 six eighty eight 
-0.4221 six five </s> 
-1.3462 six five eight 
-1.3462 six five nine 
-1.3462 six five three 
-0.5681 six forty five 
-0.5268 six four </s> 
-0.9375 six four five 
-1.6095 six four four 
-1.6095 six four nine 
-1.6095 six four seven 
-1.6095 six four six 
-1.6095 six four zero 
-0.5681 six hundred forty 
-0.2636 six nine </s> 
-1.3462 six nine five 
-1.3462 six nine two 
-1.3462 six oh </s> 
-0.6742 six oh eight 
-1.3462 six oh five 
-1.3462 six oh seven 
-1.3462 six oh six 
-0.7992 six one </s> 
-0.7992 six one five 
-1.4712 six one four 
-1.4712 six one nine 
-1.4712 six one two 
-1.4712 six one zero 
-0.6742 six seven </s> 
-1.3462 six seven eight 
-1.3462 six seven nine 
-0.6742 six seven oh 
-0.5681 six seventeen thirty 
-0.8961 six six </s> 
-1.5681 six six eight 
-0.8961 six six five 
-1.5681 six six four 
-0.8961 six six one 
-0.8961 six six two 
-0.5681 six sixteen sixty 
-0.8691 six sixty nine 
-0.8691 six sixty three 
-0.8691 six thirty </s> 
-0.8691 six thirty two 
-0.5681 six thousand eight 
-0.8503 six three </s> 
-1.5223 six three eight 
-1.5223 six three nine 
-1.5223 six three oh 
-0.8503 six three one 
-1.5223 six three sixty 
-1.5223 six three two 
-0.5681 six twelve </s> 
-0.5681 six twenty six 
-0.7412 six two </s> 
-1.4132 six two eight 
-1.4132 six two five 
-1.4132 six two four 
-1.4132 six two six 
-1.4132 six two two 
-0.5681 six zero one 
-0.5681 sixteen forty eight 
-0.8691 sixteen sixty </s> 
-0.8691 sixteen sixty nine 
-0.5681 sixteenth nineteen sixty 
-0.5681 sixth nineteen sixty 
-0.0478 sixty </s> <s> 
-0.0685 sixty eight </s> 
-0.5681 sixty fifty five 
-0.0685 sixty five </s> 
-0.1477 sixty four </s> 
-1.3462 sixty four and 
-0.0232 sixty nine </s> 
-0.0415 sixty one </s> 
-0.0743 sixty seven </s> 
-1.6095 sixty seven ten 
-0.1210 sixty six </s> 
-0.1233 sixty three </s> 
-1.4132 sixty three sixty 
-0.1844 sixty two </s> 
-1.2670 sixty two thirty 
-0.0298 start </s> <s> 
-0.0203 stop </s> <s> 
-0.0203 t </s> <s> 
-0.8691 t a n 
-0.8691 t a y 
-0.5681 t b p 
-1.0452 t d a 
-1.0452 t d i 
-1.0452 t d k 
-1.2385 t e </s> 
-1.9105 t e b 
-1.2385 t e d 
-1.9105 t e e 
-1.9105 t e l 
-1.9105 t e m 
-0.9863 t e n 
-1.9105 t e p 
-0.7120 t e r 
-0.7120 t e v 
-0.5681 t eighty fifth 
-0.8691 t f f 
-0.8691 t f two 
-0.5681 t fifty </s> 
-0.5681 t four one 
-1.0452 t g j 
-1.0452 t g k 
-1.0452 t g nine 
-0.7159 t h </s> 
-0.4332 t h a 
-1.1265 t h e 
-1.7985 t h f 
-1.1265 t h o 
-1.7985 t h y 
-0.5950 t i e 
-0.5950 t i m 
-1.2670 t i n 
-0.5681 t j j 
-0.8691 t k s 
-0.8691 t k x 
-0.3732 t l e 
-1.0452 t l fifty 
-0.1971 t m a 
-0.5681 t n e 
-1.3462 t o d 
-1.3462 t o m 
-0.6742 t o n 
-1.3462 t o p 
-1.3462 t o w 
-0.5681 t p four 
-0.8691 t q d 
-0.8691 t q two 
-1.2670 t r a 
-0.1844 t r e 
-0.0166 t s b 
-2.2308 t s v 
-0.5681 t seventy seven 
-0.5681 t sixty three 
-1.6364 t t </s> 
-1.2258 t t e 
-2.3084 t t g 
-1.6364 t t h 
-2.3084 t t i 
-0.0942 t t s 
-0.5681 t v a 
-0.5681 t w x 
-0.0875 t z </s> 
-0.0478 ten </s> <s> 
-0.5681 ten one sixty 
-0.5681 ten seventy one 
-0.5681 ten sixty nine 
-0.5681 ten ten </s> 
-0.5681 ten thirty one 
-0.5681 ten twelve sixty 
-0.5681 ten twenty eight 
-0.3732 third nineteen sixty 
-1.0452 third nineteen twenty 
-0.1210 thirtieth nineteen sixty 
-0.0685 thirty </s> <s> 
-0.3732 thirty eight </s> 
-1.0452 thirty eight sixty 
-0.1477 thirty five </s> 
-1.3462 thirty five thirty 
-0.1971 thirty nine </s> 
-0.3885 thirty one </s> 
-1.4712 thirty one fifty 
-1.4712 thirty one j 
-1.4712 thirty one oh 
-1.4712 thirty one sixty 
-0.1971 thirty seven </s> 
-0.1971 thirty six </s> 
-0.5681 thirty sixty five 
-0.1971 thirty three </s> 
-0.2460 thirty two </s> 
-1.1701 thirty two thirty 
-0.1971 thousand </s> <s> 
-0.1971 thousand eight hundred 
-0.5681 thousand five hundred 
-0.5681 thousand nine thirty 
-0.5681 thousand one hundred 
-0.5681 thousand seven hundred 
-0.5681 thousand three hundred 
-0.0071 three </s> <s> 
-0.2636 three eight </s> 
-1.3462 three eight three 
-1.3462 three eight zero 
-0.5681 three eighty six 
-0.5681 three eleven sixty 
-0.7412 three five </s> 
-1.4132 three five four 
-1.4132 three five oh 
-1.4132 three five seven 
-1.4132 three five two 
-1.4132 three five zero 
-0.8691 three forty five 
-0.8691 three forty two 
-1.3462 three four </s> 
-1.3462 three four eight 
-1.3462 three four five 
-0.6742 three four four 
-1.3462 three four three 
-0.5681 three fourteen sixty 
-0.5681 three hundred and 
-0.4981 three nine </s> 
-1.1701 three nine five 
-1.1701 three nine nine 
-1.2670 three oh eight 
-1.2670 three oh five 
-1.2670 three oh nine 
-1.2670 three oh one 
-1.2670 three oh six 
-1.3462 three one </s> 
-1.3462 three one five 
-1.3462 three one nine 
-1.3462 three one one 
-0.6742 three one two 
-1.2670 three seven eight 
-0.5950 three seven five 
-1.2670 three seven one 
-1.2670 three seven seven 
-0.5681 three seventeen </s> 
-0.8691 three seventy </s> 
-0.8691 three seventy one 
-1.3462 three six </s> 
-1.3462 three six eight 
-1.3462 three six four 
-1.3462 three six one 
-0.6742 three six three 
-1.1701 three sixty eight 
-0.4981 three sixty four 
-1.1701 three sixty three 
-0.5681 three thirty six 
-0.7992 three three </s> 
-1.4712 three three eight 
-1.4712 three three five 
-1.4712 three three nine 
-0.7992 three three seven 
-1.4712 three three six 
-0.5681 three twelve fifty 
-1.0452 three twenty eight 
-1.0452 three twenty seven 
-1.0452 three twenty three 
-0.3921 three two </s> 
-1.0100 three two eight 
-1.6820 three two four 
-1.0100 three two seven 
-1.0100 three two three 
-0.4981 three zero </s> 
-1.1701 three zero six 
-1.1701 three zero two 
-0.1971 twelfth nineteen sixty 
-0.5681 twelve </s> <s> 
-0.5681 twelve fifty eight 
-0.5681 twelve four sixty 
-0.5681 twelve nine of 
-0.5681 twelve nineteen sixty 
-0.5681 twelve sixty seven 
-0.5681 twelve ten sixty 
-0.8691 twelve twenty four 
-0.8691 twelve twenty one 
-0.5681 twentieth nineteen seventy 
-0.1971 twenty </s> <s> 
-0.5950 twenty eight </s> 
-1.2670 twenty eight seventy 
-0.5950 twenty eight sixty 
-0.5681 twenty fifth nineteen 
-0.5681 twenty first nineteen 
-0.5681 twenty five </s> 
-1.0452 twenty four forty 
-1.0452 twenty four oh 
-1.0452 twenty four sixty 
-0.5681 twenty fourth nineteen 
-0.4981 twenty nine </s> 
-1.1701 twenty nine fifty 
-1.1701 twenty nine nineteen 
-0.8691 twenty one </s> 
-0.8691 twenty one fifty 
-0.1971 twenty second nineteen 
-0.8691 twenty seven </s> 
-0.8691 twenty seven sixty 
-0.5681 twenty seventh nineteen 
-0.3429 twenty six </s> 
-1.2670 twenty six forty 
-1.2670 twenty six sixty 
-0.1971 twenty third nineteen 
-0.1844 twenty three </s> 
-1.2670 twenty three sixty 
-0.8691 twenty two </s> 
-0.8691 twenty two twenty 
-0.0054 two </s> <s> 
-0.4487 two eight </s> 
-1.6472 two eight five 
-0.9753 two eight one 
-0.7231 two eight three 
-1.6472 two eight two 
-0.5681 two eighty nine 
-0.5681 two fifteen sixty 
-0.5681 two fifty three 
-0.9753 two five </s> 
-1.6472 two five eight 
-1.6472 two five five 
-1.6472 two five four 
-1.6472 two five one 
-1.6472 two five seven 
-0.4487 two five two 
-0.4580 two four </s> 
-1.8233 two four nine 
-1.1513 two four one 
-1.8233 two four three 
-0.4580 two four two 
-0.5681 two fourteen </s> 
-0.5681 two hundred and 
-0.7992 two nine </s> 
-1.4712 two nine eight 
-1.4712 two nine one 
-1.4712 two nine seven 
-1.4712 two nine six 
-0.7992 two nine three 
-0.9375 two oh eight 
-0.9375 two oh five 
-1.6095 two oh one 
-1.6095 two oh seven 
-0.6853 two oh six 
-1.6095 two oh three 
-1.6095 two oh two 
-0.9684 two one </s> 
-1.3341 two one eight 
-1.5863 two one five 
-2.2583 two one four 
-2.2583 two one nine 
-1.1756 two one oh 
-0.5063 two one seven 
-1.5863 two one six 
-2.2583 two one sixty 
-0.7231 two one three 
-1.3341 two one two 
-0.5268 two seven </s> 
-1.6095 two seven eight 
-1.6095 two seven four 
-1.6095 two seven nine 
-0.9375 two seven one 
-1.6095 two seven six 
-1.6095 two seven two 
-0.6584 two six </s> 
-0.1964 two six eight 
-1.9483 two six oh 
-1.9483 two six six 
-0.5681 two sixty </s> 
-0.5681 two ten </s> 
-0.3732 two thirty one 
-1.0452 two thirty seven 
-0.5681 two thousand five 
-0.9753 two three </s> 
-1.6472 two three eight 
-1.6472 two three five 
-1.6472 two three four 
-1.6472 two three nine 
-0.3573 two three two 
-0.8691 two twenty four 
-0.8691 two twenty six 
-0.9478 two two </s> 
-2.0305 two two five 
-2.0305 two two four 
-1.1063 two two nine 
-1.1063 two two oh 
-0.6651 two two one 
-1.3585 two two seven 
-1.3585 two two six 
-2.0305 two two three 
-1.1063 two two two 
-1.3585 two two zero 
-0.4221 two zero </s> 
-0.6742 two zero seven 
-1.3462 two zero six 
-0.5681 u </s> <s> 
-0.8691 u a i 
-0.8691 u a r 
-0.5681 u b i 
-0.5681 u c k 
-0.5681 u d w 
-0.1844 u e </s> 
-1.2670 u e t 
-0.5681 u eighty six 
-0.8691 u f two 
-0.8691 u f z 
-0.8691 u five </s> 
-0.8691 u five two 
-1.0452 u four five 
-1.0452 u four forty 
-1.0452 u four seven 
-1.0452 u g a 
-1.0452 u g l 
-1.0452 u g n 
-0.5681 u i p 
-0.8691 u j m 
-0.8691 u j o 
-0.5681 u k e 
-1.0452 u l d 
-0.3732 u l i 
-1.0452 u m i 
-1.0452 u m m 
-1.0452 u m n 
-1.0452 u n b 
-1.0452 u n n 
-1.0452 u n t 
-0.5681 u o u 
-0.5681 u one sixty 
-0.5681 u q u 
-2.3005 u r c 
-0.0766 u r g 
-2.3005 u r i 
-2.3005 u r k 
-2.3005 u r r 
-2.3005 u r s 
-1.3763 u r y 
-0.6742 u s e 
-1.3462 u s i 
-0.6742 u s k 
-1.3462 u s o 
-0.5681 u seven three 
-1.1701 u t d 
-1.1701 u t f 
-1.1701 u t h 
-1.1701 u t i 
-0.5681 u three </s> 
-0.5681 u two four 
-0.5681 u x p 
-0.5681 u y three 
-1.5223 v a </s> 
-1.5223 v a d 
-1.5223 v a h 
-0.5981 v a l 
-0.8503 v a n 
-1.5223 v a r 
-0.5681 v c thirty 
-0.5002 v e </s> 
-1.9298 v e c 
-1.9298 v e l 
-0.5002 v e n 
-0.8471 v e r 
-1.9298 v e w 
-0.5681 v f o 
-0.5681 v fifty five 
-0.7412 v i d 
-1.4132 v i e 
-0.7412 v i l 
-1.4132 v i n 
-1.4132 v i q 
-0.8691 v k </s> 
-0.8691 v k z 
-0.5681 v l c 
-0.8691 v m eight 
-0.8691 v m u 
-0.5681 v n y 
-0.5681 v nine </s> 
-0.5681 v o o 
-0.5681 v p e 
-0.1971 v q d 
-0.5681 v r f 
-0.5681 v s one 
-0.1971 v seven </s> 
-0.5681 v thirty </s> 
-0.5681 v w a 
-0.5681 v x s 
-1.0452 v y h 
-1.0452 v y one 
-1.0452 v y w 
-0.5681 v z ninety 
-0.0478 w </s> <s> 
-1.5223 w a a 
-1.5223 w a b 
-1.5223 w a l 
-0.4396 w a r 
-1.5223 w a t 
-1.5223 w a y 
-0.8691 w b seventy 
-0.8691 w b u 
-0.5681 w c v 
-0.5681 w d k 
-1.1701 w e i 
-0.4981 w e l 
-1.1701 w e s 
-0.1971 w eight </s> 
-0.8691 w f five 
-0.8691 w f s 
-0.5681 w five zero 
-0.5681 w fourteen eighty 
-0.5681 w g a 
-0.8691 w h e 
-0.8691 w h i 
-0.7412 w i c 
-0.7412 w i l 
-1.4132 w i n 
-0.7412 w i s 
-1.0452 w l f 
-1.0452 w l i 
-1.0452 w l r 
-0.5950 w n </s> 
-1.2670 w n four 
-1.2670 w n i 
-1.2670 w n l 
-1.5223 w o n 
-0.1570 w o o 
-1.5223 w o r 
-0.5681 w p f 
-0.5681 w q six 
-0.5681 w r i 
-0.5681 w t h 
-0.5681 w twenty six 
-0.8691 w two fourteen 
-0.8691 w two thirty 
-0.5681 w w two 
-0.5681 w x five 
-1.0452 w y eight 
-1.0452 w y l 
-1.0452 w y o 
-1.0452 w z a 
-1.0452 w z nine 
-1.0452 w z seven 
-0.5681 x b m 
-0.8691 x c w 
-0.8691 x c z 
-0.5681 x e d 
-0.5681 x eight oh 
-0.5681 x f e 
-0.5681 x five hundred 
-0.5681 x four thousand 
-0.5681 x g i 
-0.5681 x h b 
-0.5681 x i sixty 
-0.5681 x k twenty 
-0.5681 x l thirty 
-0.5681 x n six 
-0.5681 x nine </s> 
-0.5681 x p i 
-0.5681 x r z 
-0.8691 x s x 
-0.8691 x s zero 
-0.5681 x seventy two 
-0.5681 x three zero 
-0.8691 x two four 
-0.8691 x two thousand 
-0.5681 x v i 
-0.5681 x w five 
-0.8691 x x n 
-0.8691 x x s 
-0.8691 x y seven 
-0.8691 x y u 
-0.5681 x z i 
-0.1971 x zero </s> 
-0.0154 y </s> <s> 
-0.5681 y a m 
-0.8691 y b e 
-0.8691 y b r 
-1.0452 y d d 
-1.0452 y d n 
-1.0452 y d r 
-0.5681 y e r 
-0.8691 y eight five 
-0.8691 y eight six 
-0.8691 y f j 
-0.8691 y f x 
-0.5681 y g n 
-1.0452 y h o 
-1.0452 y h seventy 
-1.0452 y h six 
-0.5681 y j o 
-1.2670 y l a 
-1.2670 y l d 
-1.2670 y l e 
-1.2670 y l l 
-1.2670 y l o 
-0.5681 y m h 
-0.8691 y n e 
-0.8691 y n p 
-0.5681 y o r 
-0.8691 y one </s> 
-0.8691 y one nine 
-0.5681 y p l 
-0.5681 y q fifty 
-0.5681 y r b 
-0.5681 y seven oh 
-0.5681 y t l 
-0.5681 y ten ten 
-0.5681 y three sixty 
-0.8691 y u one 
-0.8691 y u seven 
-0.8691 y v a 
-0.8691 y v m 
-0.8691 y w a 
-0.8691 y w l 
-0.5681 y y f 
-0.8691 y z o 
-0.8691 y z two 
-0.0154 yes </s> <s> 
-0.0875 z </s> <s> 
-1.1701 z a e 
-1.1701 z a g 
-1.1701 z a k 
-1.1701 z a p 
-0.5681 z c b 
-0.5681 z d z 
-0.3732 z e l 
-1.0452 z e v 
-0.5681 z eight oh 
-0.5681 z f m 
-0.5681 z g d 
-0.5681 z h four 
-1.0452 z i n 
-1.0452 z i r 
-1.0452 z i v 
-0.5681 z k w 
-0.5681 z l three 
-1.0452 z nine </s> 
-1.0452 z nine six 
-1.0452 z nine twenty 
-0.5681 z ninety eight 
-1.0452 z o sixty 
-1.0452 z o t 
-1.0452 z o two 
-0.1971 z r v 
-0.5681 z seven seventy 
-0.5681 z six eight 
-0.1971 z sixty nine 
-0.5681 z t p 
-0.5681 z twenty six 
-0.5681 z two </s> 
-0.5681 z u a 
-0.5681 z w eight 
-0.8691 z x l 
-0.8691 z x two 
-0.8691 z y g 
-0.8691 z y t 
-0.5681 z z sixty 
-0.0180 zero </s> <s> 
-0.5681 zero eight two 
-0.5681 zero five seven 
-0.8691 zero four eight 
-0.8691 zero four one 
-0.3732 zero one five 
-1.0452 zero one one 
-0.8691 zero seven </s> 
-0.8691 zero seven nine 
-0.4221 zero six </s> 
-1.3462 zero six five 
-1.3462 zero six four 
-1.3462 zero six six 
-0.8691 zero two </s> 
-0.8691 zero two seven 
-0.5681 zero zero six 

\end\
