#############################################################################
## Copyright (c) 1996, Carnegie Mellon University, Cambridge University,
## Ronald Rosenfeld and Philip Clarkson
#############################################################################
=============================================================================
===============  This file was produced by the CMU-Cambridge  ===============
===============     Statistical Language Modeling Toolkit     ===============
=============================================================================
This is a 3-gram language model, based on a vocabulary of 28 words,
  which begins "</s>", "<s>", "a"...
This is an OPEN-vocabulary model (type 1)
  (OOVs were mapped to UNK, which is treated as any other vocabulary word)
Absolute discounting was applied.
1-gram discounting constant : 0.333333
2-gram discounting constant : 0.521739
3-gram discounting constant : 0.479167
This file is in the ARPA-standard format introduced by Doug Paul.

p(wd3|wd1,wd2)= if(trigram exists)           p_3(wd1,wd2,wd3)
                else if(bigram w1,w2 exists) bo_wt_2(w1,w2)*p(wd3|wd2)
                else                         p(wd3|w2)

p(wd2|wd1)= if(bigram exists) p_2(wd1,wd2)
            else              bo_wt_1(wd1)*p_1(wd2)

All probs and back-off weights (bo_wt) are given in log10 form.

Data formats:

Beginning of data mark: \data\
ngram 1=nr            # number of 1-grams
ngram 2=nr            # number of 2-grams
ngram 3=nr            # number of 3-grams

\1-grams:
p_1     wd_1 bo_wt_1
\2-grams:
p_2     wd_1 wd_2 bo_wt_2
\3-grams:
p_3     wd_1 wd_2 wd_3 

end of data mark: \end\

\data\
ngram 1=29
ngram 2=559
ngram 3=6230

\1-grams:
-5.7554 <UNK>	0.0000
-5.7554 </s>	-0.2825
-99.0000 <s>	-0.2461
-1.0948 a	2.1022
-1.8542 b	-1.4381
-1.5435 c	-0.3736
-1.3762 d	-0.5410
-0.8934 e	1.9009
-1.6013 f	-0.3159
-1.7301 g	-0.0705
-1.2488 h	-0.5518
-1.1708 i	2.1783
-2.9831 j	-1.8636
-2.1568 k	-0.5153
-1.3804 l	-0.5367
-1.5905 m	-0.3266
-1.1714 n	2.1789
-1.1136 o	2.1211
-1.7580 p	-0.7464
-3.0186 q	-2.4673
-1.2265 r	-0.6907
-1.2050 s	-0.5955
-1.0458 t	-0.7547
-1.5021 u	0.0198
-1.9777 v	-2.7659
-1.6087 w	-0.1919
-2.6641 x	-1.1193
-1.6901 y	-0.1105
-3.2557 z	-1.2622

\2-grams:
-0.3203 </s> <s> -0.2008
-0.6214 <s> </s> -0.0370
-0.6214 <s> a -0.3193
-2.7176 a a -0.4280
-1.5282 a b -0.6008
-1.3854 a c -0.2148
-1.3043 a d 0.9858
-3.2179 a e -0.2674
-1.8270 a f -1.0170
-1.6392 a g -0.4582
-2.2684 a h -0.4144
-1.4233 a i -1.1389
-3.2676 a j -0.4744
-1.7193 a k -0.3609
-1.1007 a l 0.7779
-1.5423 a m 0.6630
-0.7215 a n 0.5179
-2.4413 a o -1.3084
-1.5774 a p -0.1580
-3.0958 a q 0.6613
-0.9651 a r 0.5745
-0.9268 a s 0.7461
-0.8616 a t 0.7276
-2.0772 a u -0.6025
-1.4473 a v -0.1570
-1.8809 a w 0.2651
-3.1139 a x -0.3836
-1.6312 a y 0.9342
-2.8081 a z -0.7455
-1.2193 b a -0.7685
-2.2556 b b -0.5069
-3.5553 b c -0.2242
-3.5553 b d -0.5584
-0.4997 b e -0.3553
-3.5553 b f -0.2384
-3.5553 b h -0.5527
-1.5011 b i -0.5408
-2.1073 b j -1.4585
-0.8272 b l -2.0054
-3.1837 b m -0.2992
-3.1837 b n -0.5293
-0.8723 b o -0.2985
-4.0454 b p -0.2677
-1.3110 b r -1.6714
-1.5775 b s -0.5302
-1.6231 b t 0.1714
-0.9796 b u -1.0961
-4.0454 b v -0.2689
-1.0619 b y 0.9060
-0.9377 c a -0.9224
-3.0591 c b -0.3020
-1.7147 c c -0.9076
-3.2243 c d -0.2166
-0.7246 c e 0.2723
-2.9396 c f -0.4757
-3.0155 c g -0.5928
-0.8359 c h 0.9476
-1.3745 c i -0.9573
-4.3561 c j -0.3190
-1.3408 c k 0.2119
-1.0901 c l -2.0532
-2.8751 c m -0.2724
-3.2243 c n -0.5634
-0.7615 c o -0.6516
-2.5813 c p -0.4732
-3.0591 c q 1.0592
-1.2911 c r -1.7846
-2.5378 c s 0.0174
-1.0808 c t 0.8981
-1.4475 c u -1.1300
-3.8660 c v -0.2172
-2.9062 c w 0.1639
-2.3780 c y -0.3188
-1.0348 d a 0.5009
-1.4515 d b -1.0023
-1.7808 d c -1.0614
-1.6206 d d -1.2528
-0.8193 d e 0.2436
-1.6274 d f -1.6553
-2.0286 d g -1.1844
-1.4752 d h -1.2673
-0.8753 d i 0.0224
-2.8325 d j -0.3708
-2.7487 d k -0.7120
-1.7446 d l -1.5666
-1.3486 d m -1.5191
-1.5888 d n -1.8824
-1.1138 d o -0.3797
-1.8820 d p -0.9818
-2.9365 d q 1.2454
-1.4943 d r -1.5834
-1.2140 d s 0.7550
-0.9711 d t -1.5564
-1.5652 d u -0.3803
-2.0315 d v -0.0379
-1.3468 d w -1.4314
-1.8203 d y 0.4062
-1.0059 e a 0.7675
-1.8727 e b -0.7223
-1.4086 e c -0.9719
-1.0035 e d 0.4838
-1.4153 e e 0.6183
-1.6001 e f -0.9196
-1.8164 e g -0.8424
-1.6861 e h -1.4846
-1.4715 e i 0.1323
-2.8972 e j 0.6263
-2.6506 e k 0.1383
-1.3307 e l 0.5770
-1.4505 e m 0.4346
-1.0511 e n 0.2946
-1.5280 e o -1.0196
-1.5972 e p 0.6227
-2.5978 e q -0.0307
-0.8574 e r 0.4874
-1.0160 e s 0.6674
-1.2362 e t 0.4211
-2.2213 e u -1.1506
-1.6459 e v -0.9049
-1.4186 e w 0.2872
-1.8569 e x -0.7663
-1.9953 e y 0.5929
-3.7092 e z -0.2857
-0.9600 f a 0.9644
-2.1239 f b -0.1076
-1.8559 f c -0.7620
-2.0724 f d -1.1371
-0.9752 f e -0.1290
-1.3371 f f -0.2366
-2.0945 f g -0.9090
-1.7074 f h -0.9274
-1.0084 f i -0.8915
-2.4941 f j -0.7036
-3.2394 f k -0.0959
-1.4550 f l -1.5349
-1.6192 f m -1.0241
-2.2037 f n -1.3405
-0.8374 f o -1.3960
-2.0361 f p -0.4026
-4.2984 f q 2.0592
-1.2173 f r -1.8036
-1.5317 f s 0.0504
-0.7183 f t 0.5935
-1.3669 f u -1.1340
-2.3202 f v 0.4726
-1.6173 f w -0.8645
-2.3499 f y -0.6050
-0.9341 g a 0.2975
-1.9714 g b -0.3541
-1.9490 g c -0.6973
-1.9714 g d -1.1094
-0.9035 g e 0.8737
-1.9545 g f -0.9766
-1.6305 g g -0.0705
-0.8156 g h -0.0535
-1.0999 g i -0.6023
-3.3079 g j -0.1973
-3.3079 g k -0.0490
-1.3921 g l -1.6691
-1.7174 g m -0.9071
-1.6411 g n -1.1691
-1.1157 g o 0.0364
-2.2211 g p -0.7145
-3.6795 g q 1.7582
-1.0489 g r -1.8432
-1.4610 g s 0.7161
-1.1387 g t -1.1787
-1.2014 g u -0.9925
-2.6885 g v -0.0754
-1.6384 g w -0.7868
-2.2110 g y -0.2986
-3.4551 g z -0.7613
-0.7384 h a -0.2002
-2.3936 h b -0.1898
-2.4090 h c -0.5624
-2.6450 h d -0.8381
-0.3638 h e 0.6822
-2.3033 h f -1.1083
-2.7342 h g -0.6891
-2.0888 h h -0.8986
-0.8397 h i -0.5610
-3.4567 h j -0.4774
-3.6794 h k -0.2641
-2.4825 h l -0.9585
-2.1417 h m -0.7404
-2.8058 h n -0.9891
-1.0768 h o -0.5121
-2.6189 h p -0.5157
-3.4567 h q 1.1562
-1.8527 h r -1.4934
-2.0599 h s -0.0168
-1.2754 h t 0.9076
-1.7258 h u -1.3344
-3.2009 h v 0.9892
-1.9049 h w -1.1164
-2.1333 h y 0.1288
-4.6509 h z -0.0426
-1.7616 i a -0.3340
-1.8158 i b -1.1840
-1.1342 i c 0.6897
-1.3163 i d 1.0738
-1.4297 i e -1.0812
-1.6432 i f -0.2522
-1.4370 i g -1.0692
-2.0256 i h -1.2950
-3.0197 i i -0.0159
-3.7574 i j -0.4534
-1.9545 i k -0.8312
-1.3174 i l 0.8945
-1.4157 i m 0.8580
-0.5966 i n 0.0710
-1.1991 i o -1.2767
-2.2310 i p 0.7693
-2.9695 i q 0.6121
-1.4966 i r 1.4037
-0.9036 i s 0.7989
-0.9052 i t 0.5051
-2.7907 i u -0.8221
-1.7626 i v -1.0096
-1.9961 i w -1.1032
-2.4975 i x -0.6434
-3.8671 i y -0.3105
-2.4241 i z -0.6741
-0.9022 j a -0.6736
-2.9169 j d -0.2481
-0.6597 j e -1.3531
-0.3939 j o -1.3963
-2.2025 j s -0.4077
-0.6259 j u -0.6729
-1.2091 k a -0.3304
-2.0906 k b -0.2793
-2.0906 k c -0.2721
-2.3264 k d -0.4494
-0.4520 k e 0.6129
-1.9681 k f -0.9479
-3.0284 k g -0.7560
-1.5999 k h -0.5847
-0.8366 k i -0.3190
-2.0906 k j -1.6038
-3.2528 k k -0.0583
-1.8978 k l -0.9421
-1.9246 k m -0.7453
-1.0052 k n -2.0087
-1.3563 k o -0.8119
-2.1801 k p -0.8767
-2.4023 k r -0.2978
-1.1271 k s 0.5361
-1.3206 k t -1.3383
-1.7843 k u -1.1003
-1.4958 k w -0.6193
-1.7026 k y -0.2604
-0.9842 l a 0.2588
-2.1216 l b -0.0917
-1.8819 l c -0.9562
-1.2196 l d 0.5103
-0.6864 l e 0.8892
-1.6220 l f 1.1875
-2.5224 l g -0.6854
-2.2145 l h -0.7454
-0.9847 l i 0.4876
-3.4603 l j -0.3525
-2.3042 l k 0.0168
-0.8745 l l 0.7705
-1.8819 l m 0.1225
-2.2826 l n -1.4814
-1.0184 l o -1.0374
-2.2521 l p -0.1383
-4.0292 l q 1.7582
-2.2570 l r -1.0037
-1.5039 l s 0.5718
-1.4411 l t 0.1073
-1.6643 l u 0.2411
-2.2145 l v 0.1485
-1.9498 l w -0.9403
-0.9944 l y 0.6476
-0.8034 m a -0.1555
-1.6338 m b 0.5208
-2.4908 m c -0.2994
-2.7221 m d -0.4267
-0.6309 m e 1.0438
-2.2218 m f -0.8498
-3.0121 m g -0.3627
-2.1532 m h -0.5974
-1.0319 m i -0.6321
-4.3091 m j -0.2022
-2.8926 m k -0.6588
-2.3505 m l -0.7507
-1.5917 m m 0.3408
-2.1727 m n -0.8232
-0.9080 m o -1.1570
-1.2110 m p -0.8285
-3.8190 m q 1.7582
-2.4908 m r -0.1466
-1.5831 m s 0.3644
-1.6395 m t -1.1954
-1.4670 m u -1.2063
-3.1773 m v -0.2138
-2.0089 m w -0.5569
-0.8181 m y 0.6171
-1.2279 n a 0.8141
-2.0973 n b -0.4580
-1.1779 n c -1.4495
-0.7767 n d 0.5350
-1.0282 n e 1.0219
-1.8994 n f -1.5882
-0.9515 n g 0.2625
-1.8108 n h -1.3563
-1.2862 n i 0.3160
-3.0562 n j 0.7330
-2.1866 n k -0.0565
-1.8310 n l -1.4221
-2.0074 n m -1.1381
-1.9905 n n -1.6188
-1.0190 n o 0.2381
-2.3454 n p -0.6614
-2.8704 n q 0.5152
-2.2957 n r -1.2424
-1.2211 n s 0.4035
-0.8098 n t 0.7525
-1.9048 n u -1.1548
-2.2991 n v 1.3337
-1.7299 n w -1.2532
-3.0562 n x -1.6259
-1.9062 n y 0.5090
-4.0138 n z 0.1095
-1.7410 o a -0.6097
-1.7959 o b 0.5331
-1.6709 o c -0.3445
-1.6633 o d -0.1713
-2.2392 o e -0.4496
-0.8624 o f 0.3030
-2.0336 o g -0.3180
-2.0635 o h -0.5269
-1.7804 o i -1.0238
-2.8805 o j -0.5817
-1.8472 o k 0.1956
-1.4655 o l -0.4894
-1.2137 o m 0.3809
-0.8459 o n 0.3097
-1.4891 o o 0.0131
-1.7681 o p -0.0985
-3.5919 o q 1.1562
-0.9449 o r 0.7950
-1.3992 o s -0.8936
-1.1843 o t 0.8963
-0.8438 o u 0.0552
-1.7510 o v -0.5799
-1.2719 o w 0.7397
-3.3050 o x -0.7038
-2.1283 o y -0.4074
-3.4890 o z -1.0426
-0.9489 p a -0.5748
-2.6044 p b -0.5016
-2.7614 p c -0.5207
-2.9475 p d -0.4066
-0.6989 p e 0.0873
-2.6917 p f -0.6258
-3.2800 p g -0.1356
-1.4384 p h -0.2936
-1.2353 p i -0.0707
-4.1417 p j -0.2022
-0.9975 p l -1.9314
-2.4696 p m -0.8947
-3.1702 p n -0.6262
-0.8334 p o -0.8720
-1.1469 p p -1.5034
-0.8198 p r -2.2582
-1.6324 p s 0.3086
-1.2905 p t -0.0062
-1.7193 p u -0.6674
-3.2800 p v 0.4621
-1.9922 p w -0.4071
-2.3373 p y -0.1370
-4.1417 p z -0.2842
-2.8814 q e -0.2741
-0.0018 q u -2.1423
-1.0111 r a -0.0448
-2.0056 r b 0.2574
-1.7199 r c -0.7953
-1.4052 r d 0.6847
-0.6052 r e 0.6541
-1.7924 r f -0.6870
-2.0095 r g -0.8005
-1.7806 r h -1.1366
-1.0332 r i 0.4913
-2.6951 r j 0.7559
-1.9902 r k 0.9492
-1.8471 r l -1.0230
-1.5700 r m 0.1064
-1.5817 r n -0.8523
-0.9693 r o 0.8374
-2.0195 r p -0.5685
-3.4791 r q 1.1562
-1.5765 r r -1.8077
-1.2924 r s 0.5297
-1.0825 r t 0.1725
-1.6587 r u -0.4424
-2.1341 r v 0.6603
-1.7428 r w -1.0522
-1.3373 r y 0.7721
-1.0483 s a 0.2922
-1.8284 s b -0.6928
-1.4276 s c -1.4222
-2.0490 s d -1.5549
-0.9349 s e 0.9623
-1.8186 s f -1.5724
-2.2689 s g -0.5766
-1.2432 s h 1.1289
-1.0276 s i 0.5042
-2.8495 s j 0.5633
-2.2085 s k -0.3621
-1.6732 s l -1.8088
-1.6638 s m -0.7117
-1.7516 s n -1.9938
-1.0009 s o -0.5763
-1.4909 s p -1.3418
-2.6461 s q 0.3269
-2.1037 s r -1.3946
-1.1098 s s 1.0394
-0.7334 s t 0.7096
-1.3750 s u -0.2828
-2.4374 s v 0.1958
-1.4296 s w -1.5196
-2.2827 s y -0.4707
-4.6946 s z -0.3185
-1.1960 t a 0.4397
-2.0571 t b -0.7274
-1.9839 t c -1.1883
-2.1365 t d -1.6265
-0.9841 t e -0.6152
-2.0704 t f -1.5429
-2.5314 t g -1.0914
-0.4753 t h 0.2019
-1.0052 t i -0.3699
-3.6597 t j -0.1153
-3.1628 t k -0.6519
-1.7521 t l -1.7834
-1.8760 t m -1.3891
-2.3335 t n -1.6590
-0.8976 t o 0.5456
-2.3018 t p -0.8299
-3.1273 t q 0.6443
-1.4822 t r -1.9003
-1.5159 t s 0.5726
-1.2862 t t -1.7338
-1.6105 t u -0.0777
-2.7973 t v 0.3949
-1.4764 t w -1.6319
-1.7690 t y -0.6475
-3.8824 t z -0.0657
-1.6648 u a -0.0310
-1.7146 u b -0.5612
-1.4812 u c -1.1411
-1.6451 u d -0.5007
-1.5215 u e -0.5462
-2.2678 u f -0.9436
-1.3813 u g -1.3795
-2.4808 u h -0.7874
-1.5131 u i -0.9645
-3.1005 u k -0.7573
-0.9695 u l 0.8244
-1.4372 u m 0.2386
-0.8196 u n 0.4071
-2.7876 u o -0.3963
-1.2734 u p 0.9439
-4.3975 u q 2.0592
-0.7685 u r 1.0071
-0.8564 u s 1.0831
-0.9077 u t 0.6836
-3.2657 u u -0.3546
-2.6884 u v -0.6703
-2.4920 u w -0.8561
-3.5358 u x -0.5004
-4.3975 u y -0.2729
-3.1005 u z -1.2820
-1.0001 v a -0.2887
-0.1484 v e 0.9485
-0.9587 v i -0.7357
-1.1842 v o -1.2107
-3.9220 v s -0.2788
-2.6733 v u -1.2245
-1.9634 v y -0.3693
-0.6280 w a -0.6353
-2.3034 w b -0.7661
-2.4727 w c -0.7622
-2.3529 w d -0.8518
-0.6256 w e -0.2576
-2.1820 w f -0.8714
-3.0424 w g -0.2238
-0.7243 w h -1.9020
-0.8688 w i -1.4053
-4.2910 w j -0.0949
-3.2320 w k -0.0643
-2.1963 w l -0.6846
-2.2112 w m -0.6190
-1.4555 w n -0.6157
-1.0635 w o 0.9473
-2.8410 w p 0.0117
-3.5765 w q 1.5821
-2.0288 w r -1.2009
-1.9686 w s 0.4704
-1.8169 w t -1.2333
-2.9108 w u -0.2584
-3.3196 w v 0.4017
-2.1288 w w -0.5350
-2.9504 w y -0.4741
-3.8009 w z -0.3436
-0.8682 x a -1.1541
-3.2357 x b -0.1543
-0.8881 x c -1.0350
-2.2643 x d -0.9837
-1.3654 x e -0.9485
-2.3740 x f -0.4949
-1.4459 x h -1.1350
-0.9221 x i -0.5813
-2.1768 x m -0.4209
-3.2357 x n -0.2758
-1.6487 x o -0.6146
-0.6265 x p -1.1942
-2.5213 x s -0.1845
-0.6288 x t -0.8666
-2.2643 x u -0.3883
-2.2643 x w -0.2750
-3.2357 x y -0.3144
-1.0191 y a 0.1356
-1.4014 y b -0.6859
-1.4887 y c -1.1956
-1.5342 y d -1.5846
-1.2013 y e -0.7425
-1.4539 y f -1.4537
-1.9327 y g -0.9632
-1.3944 y h -1.1511
-1.2327 y i -0.1306
-2.5997 y j 0.7937
-2.3645 y k -0.8447
-1.5640 y l -1.0917
-1.4413 y m -0.6947
-1.7060 y n -1.6423
-0.9406 y o -1.3325
-1.5400 y p -0.8084
-2.9609 y q 1.1050
-1.5558 y r -1.0962
-1.0353 y s -0.1691
-0.9925 y t -1.5725
-1.1581 y u -2.1753
-2.2411 y v 0.4821
-1.2553 y w -1.2091
-2.2714 y y -1.1656
-3.7195 y z -0.3436
-1.1074 z a -0.3569
-2.6446 z b -0.2714
-0.3266 z e -0.3248
-1.1074 z i -0.7438
-1.1346 z l -1.0618
-0.7622 z o -1.5031
-2.6446 z p -0.2735
-2.6446 z t -0.2607
-1.9301 z u -0.7155
-1.0818 z z -1.2024

\3-grams:
-0.2833 </s> <s> a 
-0.2833 <s> </s> <s> 
-0.2833 <s> a j 
-1.3693 a a b 
-2.0542 a a c 
-2.0542 a a g 
-1.2242 a a l 
-2.0542 a a m 
-0.3473 a a n 
-1.5888 a a p 
-1.2242 a a r 
-0.9565 a a s 
-0.8404 a a t 
-1.6238 a b a 
-2.5551 a b b 
-3.2399 a b d 
-1.6238 a b e 
-1.2363 a b i 
-3.2399 a b j 
-0.4021 a b l 
-2.7746 a b n 
-0.4562 a b o 
-1.5015 a b r 
-1.2447 a b s 
-1.8590 a b u 
-1.4721 a b y 
-1.7279 a c a 
-1.0559 a c c 
-0.6317 a c e 
-0.8171 a c h 
-1.3103 a c i 
-0.9904 a c k 
-1.4811 a c l 
-3.3826 a c m 
-1.3790 a c o 
-2.1689 a c q 
-1.6007 a c r 
-2.9173 a c s 
-0.6452 a c t 
-1.8813 a c u 
-2.5527 a c y 
-1.0922 a d a 
-1.2383 a d b 
-1.6061 a d c 
-1.3914 a d d 
-0.7764 a d e 
-1.6299 a d f 
-2.0828 a d g 
-1.6299 a d h 
-1.1215 a d i 
-2.3041 a d j 
-2.7789 a d k 
-1.5621 a d l 
-1.4282 a d m 
-1.2586 a d n 
-1.1654 a d o 
-1.9895 a d p 
-3.4637 a d q 
-1.4856 a d r 
-1.2638 a d s 
-1.2433 a d t 
-1.7909 a d u 
-1.2334 a d v 
-1.6423 a d w 
-1.3640 a d y 
-1.5621 a e c 
-1.5621 a e d 
-1.5621 a e h 
-1.0967 a e i 
-0.7321 a e l 
-1.5621 a e n 
-0.8772 a e o 
-1.0967 a e r 
-0.8772 a e v 
-1.5621 a e x 
-1.3252 a f a 
-0.9460 a f e 
-1.2511 a f f 
-1.3675 a f i 
-2.9413 a f j 
-1.6360 a f l 
-2.9413 a f n 
-1.6360 a f o 
-1.4145 a f r 
-0.1993 a f t 
-2.1114 a f u 
-2.9413 a f w 
-0.7647 a g a 
-3.1290 a g d 
-0.4504 a g e 
-3.1290 a g f 
-1.2380 a g g 
-2.4442 a g h 
-1.0099 a g i 
-1.7842 a g l 
-1.8670 a g m 
-1.3756 a g n 
-1.3336 a g o 
-1.1337 a g r 
-2.4442 a g s 
-3.1290 a g t 
-0.9853 a g u 
-3.1290 a g w 
-3.1290 a g y 
-0.5406 a h a 
-2.0354 a h c 
-0.8106 a h e 
-1.8159 a h h 
-1.5623 a h i 
-1.8159 a h m 
-0.8846 a h o 
-1.6708 a h r 
-2.0354 a h s 
-0.5316 a h u 
-2.5008 a h w 
-2.6599 a i a 
-3.3448 a i b 
-2.1852 a i c 
-0.6987 a i d 
-2.6599 a i e 
-2.5148 a i f 
-2.4062 a i g 
-3.3448 a i h 
-1.1449 a i l 
-1.8434 a i m 
-0.2910 a i n 
-0.9593 a i r 
-1.6379 a i s 
-1.3755 a i t 
-2.8794 a i v 
-3.3448 a i w 
-1.0484 a j a 
-1.0484 a j e 
-0.1328 a j o 
-1.7436 a k a 
-3.0490 a k c 
-2.5836 a k d 
-0.2653 a k e 
-1.6347 a k f 
-2.3641 a k h 
-0.6088 a k i 
-3.0490 a k k 
-3.0490 a k l 
-2.5836 a k m 
-1.0888 a k n 
-1.8894 a k o 
-1.8352 a k s 
-1.7870 a k t 
-2.5836 a k u 
-1.8894 a k w 
-2.5836 a k y 
-1.3485 a l a 
-2.0935 a l b 
-1.4469 a l c 
-1.8459 a l d 
-1.4835 a l e 
-1.4469 a l f 
-2.2220 a l g 
-1.9604 a l h 
-1.2122 a l i 
-2.7288 a l j 
-1.6318 a l k 
-0.3739 a l l 
-1.3102 a l m 
-2.5697 a l n 
-1.1397 a l o 
-1.8587 a l p 
-3.6673 a l q 
-1.7163 a l r 
-1.2520 a l s 
-1.3366 a l t 
-2.0314 a l u 
-2.4053 a l v 
-1.6555 a l w 
-2.5697 a l y 
-0.8913 a m a 
-1.4044 a m b 
-1.8449 a m c 
-2.1282 a m d 
-0.5008 a m e 
-2.2005 a m f 
-2.5410 a m g 
-2.7604 a m h 
-0.7826 a m i 
-2.5410 a m l 
-1.5356 a m m 
-1.8810 a m n 
-0.9490 a m o 
-1.2939 a m p 
-3.2258 a m q 
-2.1282 a m r 
-1.4172 a m s 
-2.1282 a m t 
-1.6989 a m u 
-2.3959 a m v 
-1.8810 a m w 
-2.1282 a m y 
-1.4901 a n a 
-2.1555 a n b 
-1.2655 a n c 
-0.3182 a n d 
-1.4901 a n e 
-2.4105 a n f 
-1.5042 a n g 
-1.9273 a n h 
-1.2026 a n i 
-3.3616 a n j 
-2.2378 a n k 
-2.7411 a n l 
-2.5451 a n m 
-1.8362 a n n 
-1.5549 a n o 
-2.8326 a n p 
-2.6321 a n q 
-2.4303 a n r 
-1.1726 a n s 
-1.0663 a n t 
-2.2645 a n u 
-2.9488 a n v 
-1.9671 a n w 
-2.4105 a n x 
-1.3325 a n y 
-1.8632 a o a 
-2.3286 a o d 
-0.3968 a o f 
-1.3033 a o n 
-0.3009 a o r 
-2.3286 a o s 
-1.3217 a p a 
-3.1907 a p b 
-3.1907 a p c 
-0.8882 a p e 
-2.7253 a p f 
-1.5952 a p h 
-0.9365 a p i 
-1.8098 a p l 
-1.0977 a p o 
-0.3989 a p p 
-1.4522 a p r 
-1.2788 a p s 
-1.0910 a p t 
-2.5059 a p u 
-2.5059 a p w 
-0.0084 a q u 
-1.2373 a r a 
-1.9815 a r b 
-1.4278 a r c 
-0.9614 a r d 
-0.7382 a r e 
-1.6837 a r f 
-1.7377 a r g 
-2.3015 a r h 
-1.3449 a r i 
-2.9729 a r j 
-1.3812 a r k 
-1.5440 a r l 
-1.4722 a r m 
-1.5628 a r n 
-1.4881 a r o 
-2.1670 a r p 
-1.3167 a r r 
-1.4314 a r s 
-0.7756 a r t 
-2.3015 a r u 
-1.8427 a r v 
-2.0960 a r w 
-1.2373 a r y 
-1.0700 a s a 
-1.7415 a s b 
-1.4356 a s c 
-1.9836 a s d 
-1.2346 a s e 
-1.6629 a s f 
-2.2053 a s g 
-1.4195 a s h 
-1.0207 a s i 
-3.3758 a s j 
-1.7284 a s k 
-1.6798 a s l 
-1.4040 a s m 
-1.4557 a s n 
-1.3717 a s o 
-1.5823 a s p 
-2.2457 a s q 
-1.9953 a s r 
-0.9362 a s s 
-0.6272 a s t 
-1.6207 a s u 
-2.2457 a s v 
-1.5105 a s w 
-1.8057 a s y 
-1.2437 a t a 
-2.0262 a t b 
-1.6521 a t c 
-1.7171 a t d 
-0.7202 a t e 
-1.9648 a t f 
-2.5616 a t g 
-1.0871 a t h 
-0.6383 a t i 
-3.9063 a t j 
-3.2215 a t k 
-1.5875 a t l 
-1.4513 a t m 
-2.1834 a t n 
-1.4369 a t o 
-1.9944 a t p 
-3.0764 a t q 
-1.9462 a t r 
-1.6251 a t s 
-0.8878 a t t 
-1.4513 a t u 
-2.6010 a t v 
-1.3039 a t w 
-2.2705 a t y 
-2.6915 a u c 
-1.3468 a u d 
-0.7223 a u g 
-2.6915 a u i 
-1.0013 a u l 
-1.8616 a u m 
-1.1902 a u n 
-2.2262 a u p 
-1.1647 a u r 
-0.4970 a u s 
-0.7796 a u t 
-2.6915 a u x 
-1.0904 a v a 
-0.1518 a v e 
-0.9151 a v i 
-1.2628 a v o 
-1.4517 a v y 
-0.4919 a w a 
-1.9490 a w b 
-2.4221 a w c 
-1.0417 a w e 
-0.9965 a w f 
-0.9273 a w h 
-1.2147 a w i 
-2.4221 a w k 
-1.5822 a w l 
-1.8622 a w m 
-1.3607 a w n 
-0.9655 a w o 
-2.4221 a w r 
-1.5066 a w s 
-1.5427 a w t 
-2.8875 a w v 
-1.9490 a w w 
-0.8336 a x a 
-1.6635 a x b 
-0.5659 a x e 
-0.8336 a x i 
-1.6635 a x n 
-1.1981 a x o 
-1.6635 a x s 
-1.6635 a x t 
-0.9787 a x w 
-0.9532 a y a 
-1.1589 a y b 
-1.7561 a y c 
-2.1117 a y d 
-1.3284 a y e 
-1.5860 a y f 
-2.6716 a y g 
-1.5208 a y h 
-1.0243 a y i 
-2.4522 a y j 
-3.1370 a y k 
-1.8750 a y l 
-1.6628 a y m 
-1.6917 a y n 
-1.0864 a y o 
-2.0394 a y p 
-3.1370 a y q 
-2.1117 a y r 
-0.7655 a y s 
-0.8142 a y t 
-2.1117 a y u 
-2.6716 a y v 
-1.1171 a y w 
-2.1117 a y y 
-1.9645 a z a 
-0.2577 a z e 
-0.7026 a z i 
-1.2797 a z u 
-0.8669 a z z 
-0.8678 b a b 
-0.5310 b a c 
-1.5760 b a d 
-2.7898 b a f 
-1.3156 b a g 
-2.3244 b a h 
-1.9599 b a i 
-2.7898 b a k 
-1.5278 b a l 
-1.0996 b a n 
-0.7945 b a r 
-1.1539 b a s 
-1.0513 b a t 
-1.5760 b a y 
-1.2950 b b a 
-0.5466 b b e 
-0.4984 b b i 
-0.7351 b b l 
-1.7604 b b n 
-1.2950 b b o 
-0.5843 b c h 
-0.5843 b c r 
-0.1189 b d i 
-3.5089 b e </s> 
-1.0422 b e a 
-1.9579 b e b 
-1.0904 b e c 
-1.3592 b e d 
-0.9002 b e e 
-1.0509 b e f 
-1.0936 b e g 
-1.5970 b e h 
-1.1629 b e i 
-2.8240 b e k 
-1.0567 b e l 
-1.7134 b e m 
-1.3961 b e n 
-2.0347 b e o 
-2.0636 b e p 
-2.5703 b e q 
-1.2547 b e r 
-1.1555 b e s 
-1.2986 b e t 
-2.4113 b e u 
-2.4836 b e v 
-2.0075 b e w 
-1.8360 b e y 
-0.5843 b f a 
-0.5843 b f r 
-0.1189 b h i 
-2.0432 b i a 
-2.5086 b i c 
-2.5086 b i d 
-2.5086 b i e 
-2.5086 b i f 
-1.1277 b i g 
-0.7407 b i l 
-0.7856 b i n 
-2.0432 b i o 
-1.4110 b i r 
-1.1277 b i s 
-0.3959 b i t 
-1.0766 b j a 
-0.0490 b j e 
-1.5267 b l a 
-0.1175 b l e 
-1.1616 b l i 
-1.3356 b l o 
-2.0839 b l u 
-1.0953 b l y 
-0.8854 b m a 
-0.4200 b m i 
-0.8854 b m u 
-0.8854 b n e 
-0.2005 b n o 
-1.3150 b o a 
-3.1364 b o b 
-3.1364 b o c 
-1.1328 b o d 
-3.1364 b o e 
-3.1364 b o f 
-3.1364 b o g 
-1.6911 b o i 
-3.1364 b o k 
-1.8310 b o l 
-2.3064 b o m 
-1.2674 b o n 
-1.5202 b o o 
-1.3278 b o r 
-2.1979 b o s 
-1.0571 b o t 
-0.4389 b o u 
-1.0571 b o v 
-1.5202 b o w 
-2.0388 b o x 
-0.9867 b o y 
-0.2833 b p a 
-0.6331 b r a 
-0.6053 b r e 
-0.6946 b r i 
-0.5667 b r o 
-1.4363 b r u 
-1.9671 b s a 
-0.9312 b s c 
-0.5105 b s e 
-2.4325 b s g 
-1.9671 b s h 
-1.9671 b s i 
-2.4325 b s j 
-0.7096 b s o 
-2.4325 b s r 
-1.9671 b s s 
-0.6941 b s t 
-1.1272 b s u 
-2.4325 b s w 
-0.8602 b t a 
-0.4961 b t e 
-1.2275 b t f 
-1.5572 b t h 
-1.3618 b t i 
-0.8133 b t l 
-2.3871 b t m 
-1.9217 b t n 
-1.3618 b t o 
-2.3871 b t r 
-1.5572 b t s 
-1.0062 b t t 
-2.3871 b t u 
-2.3871 b t w 
-2.3871 b t y 
-2.3443 b u b 
-3.0292 b u c 
-2.5638 b u d 
-3.0292 b u f 
-3.0292 b u h 
-1.7238 b u i 
-2.0906 b u l 
-2.1992 b u n 
-3.0292 b u p 
-0.9037 b u r 
-1.6844 b u s 
-0.0980 b u t 
-3.0292 b u z 
-0.2833 b v i 
-0.8747 b y a 
-1.7874 b y b 
-1.6417 b y c 
-1.6850 b y d 
-2.1171 b y e 
-1.7874 b y f 
-1.6850 b y g 
-1.5661 b y h 
-1.6850 b y i 
-2.9470 b y j 
-2.9470 b y k 
-1.6022 b y l 
-1.0780 b y m 
-1.3111 b y n 
-1.7332 b y o 
-1.8494 b y p 
-1.5017 b y r 
-0.9961 b y s 
-0.5129 b y t 
-2.9470 b y u 
-2.9470 b y v 
-1.3308 b y w 
-2.0085 b y y 
-1.8306 c a b 
-2.4431 c a c 
-2.4431 c a d 
-3.3816 c a f 
-2.9162 c a g 
-3.3816 c a h 
-2.9162 c a k 
-0.6726 c a l 
-0.9506 c a m 
-0.7608 c a n 
-3.3816 c a o 
-1.2202 c a p 
-0.8116 c a r 
-1.0668 c a s 
-1.0875 c a t 
-1.2753 c a u 
-1.4697 c a v 
-3.3816 c a y 
-0.3448 c b a 
-1.2833 c b e 
-0.8179 c b o 
-0.8179 c b u 
-0.9696 c c a 
-2.6055 c c d 
-0.6274 c c e 
-1.9207 c c h 
-1.3435 c c i 
-2.6055 c c l 
-0.4739 c c o 
-1.5802 c c r 
-0.6737 c c u 
-1.1284 c d a 
-1.1284 c d e 
-0.6630 c d i 
-0.6630 c d r 
-1.1284 c d u 
-0.9985 c e a 
-1.9399 c e b 
-2.3327 c e c 
-1.0670 c e d 
-1.7145 c e e 
-1.9218 c e f 
-2.5693 c e g 
-1.6437 c e h 
-1.1957 c e i 
-3.1292 c e j 
-3.1292 c e k 
-0.9922 c e l 
-1.4884 c e m 
-0.8988 c e n 
-0.9985 c e o 
-1.7145 c e p 
-1.1252 c e r 
-1.0179 c e s 
-1.1957 c e t 
-2.3808 c e u 
-3.5946 c e v 
-1.3134 c e w 
-3.1292 c e x 
-2.7647 c e y 
-1.3972 c f a 
-1.3972 c f i 
-0.4587 c f l 
-0.4587 c f o 
-1.3972 c f r 
-0.8593 c g e 
-0.8593 c g l 
-0.4947 c g r 
-0.6398 c g u 
-0.7383 c h a 
-1.7931 c h b 
-1.7014 c h c 
-1.8878 c h d 
-0.7694 c h e 
-1.6879 c h f 
-1.8878 c h g 
-1.2888 c h h 
-0.8914 c h i 
-3.4833 c h j 
-1.8286 c h l 
-1.4254 c h m 
-2.0091 c h n 
-1.1767 c h o 
-1.9820 c h p 
-3.4833 c h q 
-1.5515 c h r 
-1.4040 c h s 
-1.0877 c h t 
-2.2214 c h u 
-2.6534 c h v 
-1.1262 c h w 
-2.2695 c h y 
-3.4833 c h z 
-1.3092 c i a 
-2.2603 c i b 
-0.9942 c i d 
-0.6817 c i e 
-1.9198 c i f 
-1.6398 c i l 
-1.4438 c i m 
-0.8945 c i n 
-1.0036 c i o 
-1.5642 c i p 
-1.0541 c i r 
-1.2222 c i s 
-0.8521 c i t 
-2.2603 c i v 
-2.9451 c i w 
-0.2833 c j d 
-0.9835 c k a 
-1.6340 c k b 
-2.1488 c k c 
-2.2939 c k d 
-0.9670 c k e 
-2.0403 c k f 
-2.9788 c k g 
-1.2886 c k h 
-0.9282 c k i 
-2.9788 c k k 
-1.5046 c k l 
-1.6734 c k m 
-1.5978 c k n 
-1.2403 c k o 
-2.9788 c k p 
-2.5134 c k r 
-0.7634 c k s 
-0.8995 c k t 
-1.6734 c k u 
-1.1702 c k w 
-1.5978 c k y 
-1.1101 c l a 
-0.1733 c l e 
-1.2600 c l i 
-0.8438 c l o 
-1.3073 c l u 
-3.2293 c l y 
-0.2998 c m a 
-0.7745 c m e 
-0.9940 c m o 
-1.4594 c m u 
-1.4594 c m y 
-0.2985 c n a 
-1.1284 c n e 
-0.6630 c n o 
-1.5796 c o a 
-3.5577 c o b 
-2.7277 c o c 
-2.2523 c o d 
-3.5577 c o f 
-2.2957 c o g 
-2.8728 c o h 
-2.0564 c o i 
-1.3035 c o l 
-0.6207 c o m 
-0.5530 c o n 
-1.7001 c o o 
-1.9415 c o p 
-1.3373 c o r 
-2.3439 c o s 
-2.4601 c o t 
-0.6739 c o u 
-1.1205 c o v 
-2.5324 c o w 
-3.5577 c o y 
-1.7457 c p a 
-0.9158 c p e 
-0.8072 c p h 
-1.7457 c p i 
-0.9158 c p o 
-0.3314 c p r 
-0.0213 c q u 
-0.8728 c r a 
-3.0284 c r c 
-0.6569 c r e 
-0.4629 c r i 
-0.9030 c r o 
-0.9491 c r u 
-1.2465 c r y 
-1.3231 c s a 
-1.1036 c s c 
-1.7885 c s e 
-0.6908 c s h 
-1.1036 c s i 
-1.7885 c s k 
-0.8499 c s o 
-1.7885 c s s 
-0.6908 c s t 
-1.7885 c s u 
-1.7885 c s w 
-1.1388 c t a 
-2.5537 c t b 
-1.9765 c t c 
-2.5537 c t d 
-0.8362 c t e 
-1.7372 c t f 
-2.5537 c t g 
-1.9765 c t h 
-0.5394 c t i 
-3.2385 c t k 
-1.1194 c t l 
-2.0789 c t m 
-2.2132 c t n 
-1.0082 c t o 
-2.1409 c t p 
-1.3584 c t r 
-1.2604 c t s 
-1.3695 c t t 
-1.2030 c t u 
-2.2132 c t v 
-1.6026 c t w 
-2.7731 c t y 
-1.6102 c u i 
-0.3860 c u l 
-0.8444 c u m 
-2.1873 c u n 
-2.8721 c u o 
-1.3453 c u p 
-0.6776 c u r 
-1.0263 c u s 
-1.4268 c u t 
-2.8721 c u u 
-1.9336 c u v 
-0.5843 c v a 
-0.5843 c v i 
-0.3318 c w a 
-0.9640 c w e 
-1.4294 c w h 
-1.4294 c w i 
-0.7446 c w o 
-0.6841 c y a 
-1.1161 c y c 
-1.9461 c y d 
-1.9461 c y e 
-1.9461 c y f 
-1.2612 c y h 
-1.1161 c y i 
-1.4807 c y l 
-1.9461 c y m 
-0.8485 c y o 
-1.9461 c y p 
-1.9461 c y r 
-0.7323 c y t 
-1.9461 c y y 
-2.9864 d a a 
-1.4565 d a b 
-1.6699 d a c 
-1.8780 d a d 
-1.6699 d a f 
-1.5008 d a g 
-1.9008 d a h 
-2.0375 d a i 
-2.3542 d a k 
-1.1930 d a l 
-1.5942 d a m 
-0.5325 d a n 
-2.9864 d a o 
-1.6432 d a p 
-2.7670 d a q 
-1.1251 d a r 
-1.0528 d a s 
-1.0056 d a t 
-2.5133 d a u 
-2.0709 d a v 
-1.6180 d a w 
-0.8795 d a y 
-2.3542 d a z 
-1.8758 d b a 
-0.3584 d b e 
-2.3505 d b i 
-1.6210 d b l 
-1.3285 d b o 
-1.4844 d b r 
-1.0573 d b u 
-0.4609 d b y 
-0.6069 d c a 
-1.0707 d c e 
-1.1111 d c h 
-2.7065 d c i 
-1.2323 d c l 
-0.3999 d c o 
-1.0518 d c r 
-1.5470 d c u 
-1.1763 d d a 
-0.3148 d d e 
-0.6882 d d i 
-1.8412 d d l 
-0.9063 d d o 
-1.3652 d d r 
-2.8665 d d s 
-2.4011 d d t 
-1.3923 d d u 
-2.8665 d d v 
-2.8665 d d w 
-0.9904 d e a 
-2.2220 d e b 
-1.5357 d e c 
-1.0485 d e d 
-1.5235 d e e 
-1.7872 d e f 
-1.7453 d e g 
-1.9945 d e h 
-1.8459 d e i 
-2.8373 d e j 
-1.4570 d e l 
-1.8335 d e m 
-0.9502 d e n 
-1.5235 d e o 
-1.4419 d e p 
-2.8373 d e q 
-0.6751 d e r 
-0.9345 d e s 
-1.3690 d e t 
-2.0314 d e u 
-1.4419 d e v 
-2.0511 d e w 
-1.6637 d e x 
-2.5697 d e y 
-1.0383 d f a 
-0.8319 d f e 
-0.8319 d f i 
-1.3328 d f l 
-0.4776 d f o 
-0.7041 d f r 
-1.5543 d f u 
-1.2456 d g a 
-0.5084 d g e 
-0.9084 d g i 
-0.9581 d g l 
-1.9940 d g m 
-0.7209 d g o 
-0.8235 d g r 
-1.6294 d g u 
-0.4576 d h a 
-0.6262 d h e 
-0.5837 d h i 
-0.9323 d h o 
-3.0117 d h r 
-1.5374 d h u 
-3.0117 d h y 
-1.5319 d i a 
-1.8027 d i b 
-1.2057 d i c 
-1.1013 d i d 
-1.7537 d i e 
-1.2362 d i f 
-1.9211 d i g 
-1.7775 d i h 
-2.3975 d i i 
-3.1459 d i j 
-2.5860 d i k 
-1.6160 d i l 
-1.5994 d i m 
-0.5589 d i n 
-2.0844 d i o 
-2.3059 d i p 
-1.4330 d i r 
-0.7465 d i s 
-0.9361 d i t 
-2.7813 d i u 
-2.2665 d i v 
-1.7311 d i w 
-3.6113 d i z 
-1.1981 d j e 
-0.4497 d j o 
-0.2826 d j u 
-1.7457 d k a 
-0.5319 d k e 
-0.9158 d k i 
-0.3004 d k n 
-1.0699 d l a 
-0.5324 d l e 
-0.7474 d l i 
-0.9089 d l o 
-2.0578 d l u 
-0.5223 d l y 
-0.8887 d m a 
-3.1382 d m b 
-0.7528 d m e 
-1.9244 d m f 
-1.1105 d m i 
-1.0320 d m o 
-1.7239 d m u 
-0.3127 d m y 
-1.5534 d n a 
-0.7199 d n e 
-1.7386 d n i 
-0.1256 d n o 
-2.4328 d n t 
-2.4328 d n u 
-2.3475 d o a 
-1.9919 d o b 
-1.6050 d o c 
-1.5515 d o e 
-0.6249 d o f 
-2.5429 d o g 
-2.9075 d o h 
-1.6050 d o i 
-3.3729 d o j 
-3.3729 d o k 
-2.1109 d o l 
-1.9276 d o m 
-0.7383 d o n 
-1.7181 d o o 
-2.1109 d o p 
-1.5774 d o r 
-2.1591 d o s 
-1.8986 d o t 
-0.7663 d o u 
-1.6194 d o v 
-0.8306 d o w 
-3.3729 d o x 
-1.4927 d o y 
-2.2752 d o z 
-0.9508 d p a 
-0.9153 d p e 
-1.4460 d p h 
-1.2246 d p i 
-0.9153 d p l 
-0.8671 d p o 
-0.4864 d p r 
-1.1602 d p u 
-1.5621 d q e 
-0.0352 d q u 
-0.8672 d r a 
-0.2868 d r e 
-0.9494 d r i 
-2.9926 d r k 
-2.9926 d r m 
-0.7927 d r o 
-2.9926 d r r 
-1.4657 d r u 
-1.5473 d r y 
-0.9344 d s a 
-1.8918 d s b 
-1.3608 d s c 
-2.8074 d s d 
-1.0782 d s e 
-1.9674 d s f 
-3.2728 d s g 
-1.1731 d s h 
-1.1114 d s i 
-2.5879 d s k 
-1.5999 d s l 
-1.7218 d s m 
-1.8275 d s n 
-0.8511 d s o 
-1.4514 d s p 
-3.2728 d s q 
-2.0590 d s r 
-1.9674 d s s 
-0.7501 d s t 
-1.0574 d s u 
-3.2728 d s v 
-1.2947 d s w 
-3.2728 d s y 
-1.7336 d t a 
-1.8608 d t e 
-0.2408 d t h 
-1.9887 d t i 
-0.4647 d t o 
-1.7336 d t r 
-3.5155 d t t 
-2.2102 d t u 
-3.5155 d t v 
-1.9417 d t w 
-3.5155 d t y 
-1.5075 d u a 
-2.9218 d u b 
-0.7841 d u c 
-2.0918 d u e 
-1.7622 d u g 
-2.9218 d u i 
-1.2149 d u l 
-2.2369 d u m 
-0.8221 d u n 
-2.9218 d u o 
-0.7167 d u p 
-0.7841 d u r 
-0.8155 d u s 
-1.5075 d u t 
-2.9218 d u u 
-0.2838 d v a 
-0.4784 d v e 
-1.0422 d v i 
-1.3589 d v o 
-0.8172 d w a 
-0.6879 d w e 
-0.6968 d w h 
-0.4245 d w i 
-1.2942 d w o 
-1.9805 d w r 
-0.9769 d y a 
-1.3223 d y b 
-1.9823 d y c 
-2.6671 d y d 
-0.6635 d y e 
-1.7286 d y f 
-1.9823 d y g 
-1.8372 d y h 
-1.4051 d y i 
-2.2017 d y l 
-1.7286 d y m 
-1.9823 d y n 
-0.6165 d y o 
-1.9823 d y p 
-1.6418 d y r 
-1.6418 d y s 
-0.9943 d y t 
-2.6671 d y u 
-1.2862 d y w 
-2.2017 d y y 
-2.2565 e a a 
-1.5677 e a b 
-1.3406 e a c 
-1.1416 e a d 
-3.0248 e a e 
-1.8637 e a f 
-1.5813 e a g 
-2.3275 e a h 
-2.0414 e a i 
-3.9634 e a j 
-1.6174 e a k 
-1.2527 e a l 
-1.5779 e a m 
-0.8188 e a n 
-2.2099 e a o 
-1.7138 e a p 
-3.9634 e a q 
-0.6529 e a r 
-0.9738 e a s 
-0.9037 e a t 
-2.0414 e a u 
-1.5481 e a v 
-1.7796 e a w 
-3.4980 e a x 
-3.2785 e a y 
-3.9634 e a z 
-0.9841 e b a 
-2.2669 e b b 
-0.4045 e b e 
-1.7159 e b i 
-1.4240 e b l 
-0.7902 e b o 
-1.1953 e b r 
-3.0969 e b t 
-0.8815 e b u 
-1.1277 e b y 
-0.8549 e c a 
-1.0020 e c e 
-1.3065 e c h 
-1.2419 e c i 
-3.5607 e c j 
-1.7269 e c k 
-1.4610 e c l 
-0.5948 e c o 
-1.1584 e c r 
-3.0953 e c s 
-0.6057 e c t 
-1.6591 e c u 
-2.5354 e c y 
-0.8932 e d a 
-1.2784 e d b 
-1.9380 e d c 
-1.9226 e d d 
-1.3122 e d e 
-1.4636 e d f 
-2.1081 e d g 
-1.4002 e d h 
-0.8698 e d i 
-3.2809 e d j 
-2.8061 e d k 
-1.7606 e d l 
-1.1078 e d m 
-1.8795 e d n 
-1.1820 e d o 
-2.0148 e d p 
-2.7037 e d q 
-1.8160 e d r 
-1.5536 e d s 
-0.7217 e d t 
-1.4307 e d u 
-2.2588 e d v 
-1.2486 e d w 
-2.1081 e d y 
-0.9352 e e a 
-2.2092 e e b 
-1.8992 e e c 
-1.2043 e e d 
-3.0886 e e e 
-1.8638 e e f 
-3.0886 e e g 
-1.7585 e e h 
-1.5185 e e i 
-1.8638 e e k 
-1.3092 e e l 
-1.3648 e e m 
-0.6277 e e n 
-2.0526 e e o 
-1.1078 e e p 
-2.8691 e e q 
-1.7454 e e r 
-1.3926 e e s 
-0.9907 e e t 
-2.6155 e e u 
-1.4477 e e v 
-1.7721 e e w 
-1.1018 e e x 
-2.2920 e e y 
-2.4564 e e z 
-0.8942 e f a 
-3.3693 e f c 
-3.3693 e f d 
-1.1966 e f e 
-1.1151 e f f 
-3.3693 e f h 
-0.8778 e f i 
-2.1555 e f j 
-1.1855 e f l 
-3.3693 e f n 
-0.4899 e f o 
-1.1014 e f r 
-2.9039 e f s 
-1.3415 e f t 
-1.1694 e f u 
-2.9039 e f w 
-3.3693 e f y 
-0.6230 e g a 
-3.1531 e g b 
-1.1750 e g e 
-1.9393 e g g 
-3.1531 e g h 
-0.9131 e g i 
-1.3193 e g l 
-2.3232 e g m 
-2.4683 e g n 
-1.0277 e g o 
-0.5507 e g r 
-1.8083 e g s 
-2.3232 e g t 
-1.0154 e g u 
-2.6877 e g y 
-0.3541 e h a 
-0.7022 e h e 
-0.9226 e h i 
-0.7838 e h o 
-1.1770 e h u 
-2.5985 e h v 
-3.2833 e h w 
-2.8179 e h y 
-1.8620 e i a 
-2.0237 e i b 
-1.3308 e i c 
-1.4548 e i d 
-2.4003 e i e 
-1.7024 e i f 
-1.1831 e i g 
-1.6893 e i h 
-3.0325 e i i 
-2.6679 e i k 
-1.7910 e i l 
-1.3601 e i m 
-0.4629 e i n 
-2.6679 e i o 
-2.5594 e i p 
-1.2038 e i r 
-0.9605 e i s 
-0.8851 e i t 
-3.4979 e i u 
-1.5287 e i v 
-1.5198 e i w 
-3.4979 e i y 
-2.4726 e i z 
-0.8619 e j a 
-1.3908 e j e 
-0.2671 e j o 
-1.6103 e j s 
-0.6614 e j u 
-1.2954 e k a 
-1.8553 e k b 
-2.3207 e k d 
-0.6305 e k e 
-1.8553 e k f 
-2.3207 e k h 
-0.5823 e k i 
-2.3207 e k m 
-0.7939 e k n 
-1.1069 e k o 
-2.3207 e k p 
-2.3207 e k r 
-1.2231 e k s 
-1.8553 e k t 
-1.8553 e k w 
-2.3207 e k y 
-0.8981 e l a 
-2.3332 e l b 
-2.2243 e l c 
-1.6784 e l d 
-0.9279 e l e 
-0.9869 e l f 
-3.6386 e l g 
-2.5410 e l h 
-0.8906 e l i 
-3.1732 e l k 
-0.8130 e l l 
-2.2576 e l m 
-2.9537 e l n 
-1.0685 e l o 
-2.0224 e l p 
-3.1732 e l r 
-1.2429 e l s 
-1.4603 e l t 
-2.0027 e l u 
-1.5523 e l v 
-2.2243 e l w 
-1.0361 e l y 
-0.6076 e m a 
-1.4911 e m b 
-3.5188 e m c 
-2.6889 e m d 
-0.7548 e m e 
-2.6889 e m f 
-3.5188 e m g 
-2.4935 e m h 
-1.0354 e m i 
-3.0534 e m k 
-2.6889 e m l 
-1.5870 e m m 
-2.1379 e m n 
-0.6983 e m o 
-1.2885 e m p 
-3.5188 e m r 
-1.7959 e m s 
-1.9450 e m t 
-1.3997 e m u 
-2.2569 e m w 
-1.1067 e m y 
-1.2448 e n a 
-1.9767 e n b 
-1.0828 e n c 
-1.1414 e n d 
-1.1386 e n e 
-1.9863 e n f 
-1.6283 e n g 
-1.7399 e n h 
-1.2413 e n i 
-2.6128 e n j 
-3.0882 e n k 
-1.6594 e n l 
-1.8320 e n m 
-2.3672 e n n 
-0.9514 e n o 
-2.2634 e n p 
-3.4528 e n q 
-1.9580 e n r 
-1.2537 e n s 
-0.4889 e n t 
-1.9863 e n u 
-2.4729 e n v 
-1.6241 e n w 
-2.7044 e n y 
-3.4528 e n z 
-3.4414 e o a 
-1.6879 e o b 
-1.5194 e o c 
-3.4414 e o d 
-0.2891 e o f 
-2.7565 e o g 
-3.4414 e o h 
-3.4414 e o i 
-1.4461 e o l 
-2.6114 e o m 
-0.9113 e o n 
-1.4904 e o p 
-1.2415 e o r 
-2.7565 e o s 
-1.3908 e o t 
-0.9776 e o u 
-1.6200 e o v 
-2.4161 e o w 
-0.8275 e p a 
-2.5422 e p b 
-2.3468 e p c 
-2.5422 e p d 
-1.1517 e p e 
-2.6873 e p f 
-3.3721 e p g 
-1.3444 e p h 
-1.4120 e p i 
-0.7824 e p l 
-2.3468 e p m 
-2.9068 e p n 
-1.0006 e p o 
-2.6873 e p p 
-0.6168 e p r 
-1.5384 e p s 
-1.0187 e p t 
-1.6042 e p u 
-2.9068 e p v 
-2.1584 e p w 
-2.4336 e p y 
-0.0017 e q u 
-1.0166 e r a 
-1.8815 e r b 
-1.7129 e r c 
-1.8576 e r d 
-0.6423 e r e 
-1.6312 e r f 
-2.0325 e r g 
-1.5555 e r h 
-1.0407 e r i 
-3.1733 e r j 
-2.7309 e r k 
-1.8394 e r l 
-1.6045 e r m 
-1.5817 e r n 
-1.2414 e r o 
-1.9991 e r p 
-3.4270 e r q 
-1.5073 e r r 
-1.1104 e r s 
-1.0119 e r t 
-1.8350 e r u 
-1.8623 e r v 
-1.5094 e r w 
-1.1239 e r y 
-1.0620 e s a 
-1.9496 e s b 
-1.4016 e s c 
-2.1319 e s d 
-1.0030 e s e 
-1.9255 e s f 
-2.5723 e s g 
-1.2220 e s h 
-1.0873 e s i 
-3.9533 e s j 
-2.2464 e s k 
-1.8155 e s l 
-1.8671 e s m 
-1.8881 e s n 
-0.9705 e s o 
-1.4617 e s p 
-2.9280 e s q 
-2.3578 e s r 
-0.8153 e s s 
-0.8004 e s t 
-1.3035 e s u 
-3.1233 e s v 
-1.4726 e s w 
-2.1854 e s y 
-3.9533 e s z 
-1.3834 e t a 
-2.2318 e t b 
-1.7132 e t c 
-2.7078 e t d 
-1.1348 e t e 
-2.3522 e t f 
-2.9031 e t g 
-0.4058 e t h 
-1.2780 e t i 
-2.0603 e t l 
-2.3883 e t m 
-2.5193 e t n 
-0.6875 e t o 
-3.7331 e t p 
-3.2677 e t q 
-1.3114 e t r 
-1.9245 e t s 
-1.4390 e t t 
-1.3834 e t u 
-3.7331 e t v 
-1.4607 e t w 
-2.0972 e t y 
-2.2833 e u c 
-2.7487 e u e 
-2.2833 e u h 
-1.4433 e u m 
-0.5488 e u n 
-2.7487 e u o 
-0.5541 e u p 
-1.4039 e u r 
-0.5990 e u s 
-1.1128 e u t 
-2.7487 e u v 
-1.2305 e v a 
-0.1039 e v e 
-1.1797 e v i 
-1.0647 e v o 
-0.5976 e w a 
-3.0853 e w b 
-2.5254 e w c 
-2.3911 e w d 
-0.5912 e w e 
-2.7208 e w f 
-3.0853 e w g 
-0.7482 e w h 
-0.9123 e w i 
-3.5507 e w k 
-2.7208 e w l 
-1.9345 e w m 
-2.4531 e w n 
-0.9609 e w o 
-2.7208 e w p 
-1.8122 e w r 
-2.1054 e w s 
-1.9997 e w t 
-3.0853 e w v 
-1.9997 e w w 
-3.0853 e w y 
-3.5507 e w z 
-0.7978 e x a 
-0.8019 e x c 
-1.8506 e x e 
-1.4579 e x h 
-1.0403 e x i 
-2.6472 e x o 
-0.5448 e x p 
-0.6078 e x t 
-2.6472 e x u 
-1.1054 e y a 
-1.7606 e y b 
-1.6690 e y c 
-2.2895 e y d 
-0.6398 e y e 
-2.0359 e y f 
-2.1444 e y g 
-1.5002 e y h 
-1.3015 e y i 
-1.3789 e y k 
-1.9491 e y l 
-1.7124 e y m 
-2.1444 e y n 
-0.6636 e y o 
-2.2895 e y p 
-1.8148 e y r 
-1.2359 e y s 
-1.3015 e y t 
-2.1444 e y u 
-2.9744 e y v 
-1.0234 e y w 
-2.9744 e y y 
-0.1237 e z e 
-1.2833 e z i 
-1.2833 e z o 
-3.3016 f a a 
-1.6854 f a b 
-0.7012 f a c 
-1.6854 f a d 
-2.8362 f a e 
-1.7506 f a f 
-1.7278 f a g 
-2.0396 f a h 
-1.2585 f a i 
-3.3016 f a j 
-2.4716 f a k 
-0.9265 f a l 
-1.3796 f a m 
-0.8831 f a n 
-3.3016 f a o 
-1.8274 f a p 
-0.8960 f a r 
-1.1460 f a s 
-1.0160 f a t 
-2.1420 f a u 
-1.6468 f a v 
-2.2040 f a w 
-2.6167 f a x 
-2.8362 f a y 
-3.3016 f a z 
-0.8787 f b a 
-0.5668 f b e 
-1.4558 f b i 
-1.2021 f b l 
-0.7958 f b o 
-0.8353 f b r 
-1.0430 f b u 
-1.3107 f b y 
-0.9058 f c a 
-1.3095 f c e 
-1.5772 f c h 
-1.3818 f c i 
-1.4686 f c l 
-0.2073 f c o 
-1.2476 f c r 
-1.7223 f c u 
-0.7176 f d a 
-0.3580 f d e 
-0.7775 f d i 
-1.3618 f d o 
-1.0322 f d r 
-1.5069 f d u 
-0.9715 f e a 
-2.4564 f e b 
-1.0710 f e c 
-2.2610 f e d 
-0.8461 f e e 
-2.8209 f e f 
-2.8209 f e g 
-2.8209 f e h 
-1.9810 f e i 
-0.7713 f e l 
-2.3478 f e m 
-1.7595 f e n 
-2.3478 f e o 
-3.2863 f e p 
-2.8209 f e q 
-0.9113 f e r 
-0.6902 f e s 
-1.7595 f e t 
-2.6015 f e u 
-1.5794 f e v 
-1.3545 f e w 
-1.7850 f e x 
-1.0910 f f a 
-2.9248 f f b 
-1.7110 f f c 
-0.4226 f f e 
-2.9248 f f f 
-2.9248 f f g 
-2.4594 f f h 
-0.6140 f f i 
-1.5800 f f l 
-2.2399 f f m 
-2.9248 f f n 
-0.9833 f f o 
-1.6628 f f r 
-1.8995 f f s 
-1.5105 f f t 
-1.3086 f f u 
-2.9248 f f w 
-1.1445 f g a 
-0.8250 f g e 
-1.1445 f g i 
-1.4849 f g l 
-0.8644 f g o 
-0.3612 f g r 
-1.3398 f g u 
-2.1698 f g y 
-0.6976 f h a 
-0.6861 f h e 
-0.4972 f h i 
-0.8322 f h o 
-0.9596 f h u 
-2.5551 f h y 
-2.0936 f i a 
-2.4232 f i b 
-0.7617 f i c 
-1.9084 f i d 
-1.1670 f i e 
-1.4577 f i f 
-1.7790 f i g 
-2.4232 f i h 
-3.2532 f i i 
-1.4318 f i l 
-2.0394 f i m 
-0.6528 f i n 
-3.2532 f i p 
-0.7381 f i r 
-1.1404 f i s 
-1.0749 f i t 
-3.2532 f i u 
-1.3842 f i v 
-2.3147 f i w 
-1.8722 f i x 
-1.3093 f j a 
-0.2733 f j o 
-0.4299 f j u 
-1.0615 f k e 
-0.5961 f k i 
-1.0615 f k n 
-0.5961 f k r 
-0.6343 f l a 
-0.6288 f l e 
-2.8070 f l f 
-0.7793 f l i 
-0.6457 f l o 
-0.9984 f l u 
-1.5451 f l y 
-0.8897 f m a 
-2.6431 f m b 
-0.9047 f m e 
-2.1778 f m f 
-1.2622 f m i 
-0.7856 f m o 
-1.9583 f m u 
-0.3086 f m y 
-0.4660 f n a 
-0.6471 f n e 
-1.0361 f n i 
-0.5105 f n o 
-2.2646 f o a 
-2.7393 f o b 
-2.2646 f o c 
-3.4241 f o d 
-3.4241 f o e 
-2.0793 f o f 
-2.3988 f o g 
-3.4241 f o h 
-1.1093 f o l 
-1.7694 f o n 
-1.4732 f o o 
-2.9587 f o p 
-0.1897 f o r 
-1.8732 f o s 
-2.9587 f o t 
-0.7615 f o u 
-2.3988 f o v 
-3.4241 f o x 
-0.7265 f p a 
-1.0682 f p e 
-1.7624 f p h 
-1.3978 f p i 
-0.9658 f p l 
-0.8468 f p o 
-0.4744 f p r 
-2.2278 f p t 
-1.5429 f p u 
-0.2833 f q u 
-1.0752 f r a 
-0.7721 f r e 
-3.0445 f r h 
-1.1326 f r i 
-0.1831 f r o 
-2.0192 f r u 
-3.0445 f r y 
-1.0576 f s a 
-2.7305 f s b 
-1.2291 f s c 
-1.0946 f s e 
-2.7305 f s f 
-1.6329 f s h 
-1.1143 f s i 
-2.7305 f s k 
-1.5167 f s l 
-1.5709 f s m 
-1.1350 f s n 
-0.8289 f s o 
-1.3857 f s p 
-2.7305 f s r 
-2.7305 f s s 
-0.7795 f s t 
-0.8503 f s u 
-2.2651 f s w 
-1.7612 f t a 
-2.3836 f t b 
-2.7132 f t c 
-3.0778 f t d 
-0.9028 f t e 
-3.0778 f t f 
-3.0778 f t g 
-0.1447 f t h 
-1.6416 f t i 
-3.5431 f t k 
-2.8583 f t l 
-2.8583 f t m 
-2.5178 f t n 
-1.6741 f t o 
-2.8583 f t p 
-1.8047 f t r 
-2.1983 f t s 
-1.8884 f t t 
-2.7132 f t u 
-3.5431 f t v 
-1.7345 f t w 
-1.7093 f t y 
-2.4296 f u c 
-1.8697 f u g 
-0.1669 f u l 
-2.8950 f u m 
-1.4208 f u n 
-1.7355 f u p 
-0.9831 f u r 
-1.0260 f u s 
-1.4497 f u t 
-0.4192 f v a 
-0.7323 f v e 
-0.7865 f v i 
-0.6407 f v o 
-0.5259 f w a 
-0.7875 f w e 
-0.4297 f w h 
-1.0941 f w i 
-1.1997 f w o 
-2.1796 f w r 
-2.6450 f w u 
-1.9168 f y a 
-1.0868 f y e 
-0.9782 f y i 
-1.4514 f y m 
-0.2620 f y o 
-1.9168 f y p 
-1.9168 f y s 
-1.0868 f y t 
-1.9168 f y y 
-1.4453 g a b 
-1.9849 g a c 
-3.1987 g a d 
-3.1987 g a e 
-1.9367 g a f 
-1.3773 g a g 
-2.2602 g a h 
-0.8132 g a i 
-3.1987 g a j 
-3.1987 g a k 
-0.9587 g a l 
-1.9367 g a m 
-0.5361 g a n 
-1.7245 g a p 
-3.1987 g a q 
-1.3411 g a r 
-1.1335 g a s 
-1.0924 g a t 
-2.7333 g a u 
-1.2767 g a v 
-1.8933 g a w 
-2.7333 g a y 
-1.6249 g a z 
-1.0665 g b a 
-0.4913 g b e 
-1.6987 g b l 
-1.0665 g b o 
-1.4793 g b r 
-0.5480 g b u 
-0.9021 g b y 
-0.6851 g c a 
-2.1864 g c e 
-0.9726 g c h 
-1.0268 g c l 
-0.3288 g c o 
-1.1611 g c r 
-2.1864 g c u 
-1.0665 g d a 
-0.9021 g d e 
-0.6373 g d i 
-0.3303 g d o 
-1.4793 g d r 
-1.6987 g d u 
-1.2878 g e a 
-1.7840 g e b 
-2.0155 g e c 
-1.0796 g e d 
-2.3993 g e e 
-1.8150 g e f 
-2.1317 g e g 
-2.0155 g e h 
-1.4079 g e i 
-3.2293 g e k 
-1.7279 g e l 
-1.6555 g e m 
-1.0139 g e n 
-0.8947 g e o 
-2.0155 g e p 
-3.2293 g e q 
-0.7742 g e r 
-1.0139 g e s 
-0.8613 g e t 
-3.2293 g e u 
-1.8845 g e v 
-1.4614 g e w 
-1.9239 g e x 
-1.9239 g e y 
-0.8756 g f a 
-2.1809 g f e 
-0.9671 g f i 
-1.7155 g f l 
-0.5081 g f o 
-0.4425 g f r 
-1.7155 g f u 
-0.6820 g g a 
-2.0380 g g b 
-1.6735 g g c 
-2.5034 g g d 
-0.6576 g g e 
-2.5034 g g f 
-2.0380 g g h 
-1.0891 g g i 
-0.8132 g g l 
-1.6735 g g m 
-1.4781 g g o 
-1.2896 g g r 
-1.4781 g g s 
-1.4058 g g t 
-1.8186 g g u 
-1.4058 g g w 
-2.0380 g g y 
-1.4156 g h a 
-1.7662 g h b 
-2.4872 g h c 
-3.3171 g h d 
-1.3951 g h e 
-2.0552 g h f 
-3.3171 g h g 
-2.1033 g h h 
-1.0629 g h i 
-1.8158 g h l 
-2.0552 g h m 
-2.3786 g h n 
-1.8718 g h o 
-2.8517 g h p 
-2.8517 g h r 
-1.8718 g h s 
-0.1539 g h t 
-2.2195 g h u 
-1.6443 g h w 
-1.3972 g i a 
-2.2031 g i b 
-1.0821 g i c 
-2.0945 g i d 
-2.3482 g i e 
-1.7711 g i f 
-1.2244 g i g 
-2.0945 g i h 
-1.6521 g i l 
-0.4411 g i n 
-0.9678 g i o 
-2.0945 g i r 
-1.3602 g i s 
-1.1993 g i t 
-2.5677 g i u 
-0.8717 g i v 
-1.8735 g i w 
-3.0330 g i z 
-0.4200 g j e 
-0.4200 g j o 
-0.8854 g k e 
-0.4200 g k i 
-0.8854 g k n 
-0.7376 g l a 
-0.6550 g l e 
-0.6415 g l i 
-0.5856 g l o 
-1.0027 g l y 
-0.7266 g m a 
-0.7266 g m e 
-2.4168 g m h 
-1.5869 g m i 
-0.7810 g m o 
-1.7320 g m u 
-0.4132 g m y 
-0.6842 g n a 
-2.4928 g n c 
-0.7544 g n e 
-2.4928 g n h 
-0.5912 g n i 
-1.8080 g n m 
-0.6714 g n o 
-1.0475 g n s 
-2.0274 g n t 
-1.5431 g o a 
-1.5160 g o b 
-3.0173 g o c 
-1.7553 g o d 
-2.3325 g o e 
-0.8335 g o f 
-3.0173 g o g 
-2.3325 g o h 
-0.9667 g o i 
-2.0788 g o l 
-2.5519 g o m 
-0.8070 g o n 
-0.7232 g o o 
-3.0173 g o p 
-1.3445 g o r 
-2.5519 g o s 
-1.0220 g o t 
-1.0055 g o u 
-1.4435 g o v 
-2.5519 g o w 
-3.0173 g o y 
-0.7030 g p a 
-1.0868 g p e 
-0.6114 g p l 
-0.8192 g p o 
-0.5720 g p r 
-0.1189 g q u 
-0.6034 g r a 
-0.2511 g r e 
-3.0840 g r h 
-1.7031 g r i 
-0.8842 g r o 
-2.2541 g r u 
-1.5572 g r y 
-0.8770 g s a 
-1.8425 g s b 
-1.9876 g s c 
-2.2071 g s d 
-1.3671 g s e 
-1.8425 g s f 
-2.6725 g s g 
-1.1983 g s h 
-1.0770 g s i 
-2.2071 g s k 
-1.5129 g s l 
-2.2071 g s m 
-1.8425 g s n 
-0.7606 g s o 
-1.4105 g s p 
-2.6725 g s r 
-1.7339 g s s 
-0.7406 g s t 
-1.3277 g s u 
-1.1711 g s w 
-2.6725 g s y 
-2.5289 g t a 
-2.9943 g t c 
-1.8967 g t e 
-0.1878 g t h 
-1.7805 g t i 
-0.5392 g t o 
-1.8967 g t r 
-2.9943 g t s 
-2.5289 g t u 
-2.5289 g t w 
-1.2087 g u a 
-2.4663 g u b 
-0.6169 g u e 
-0.6250 g u i 
-0.8254 g u l 
-1.7721 g u m 
-1.2769 g u n 
-0.9807 g u p 
-1.6697 g u r 
-1.0301 g u s 
-2.2468 g u t 
-0.2998 g v e 
-0.9940 g v i 
-0.5209 g v o 
-0.5353 g w a 
-0.7570 g w e 
-0.6617 g w h 
-0.6154 g w i 
-1.2817 g w o 
-2.4955 g w r 
-0.6214 g y a 
-1.9268 g y b 
-1.9268 g y d 
-1.9268 g y e 
-1.4614 g y h 
-1.9268 g y i 
-1.9268 g y l 
-1.2419 g y m 
-0.5458 g y o 
-1.4614 g y p 
-1.9268 g y r 
-0.9882 g y t 
-1.4614 g y w 
-0.0756 g z a 
-1.9340 h a b 
-2.4945 h a c 
-0.8008 h a d 
-2.0417 h a f 
-2.2593 h a g 
-2.5307 h a h 
-2.1853 h a i 
-2.3245 h a k 
-1.2709 h a l 
-1.9340 h a m 
-0.8001 h a n 
-3.8755 h a o 
-1.4060 h a p 
-3.8755 h a q 
-1.2648 h a r 
-1.3381 h a s 
-0.5358 h a t 
-2.2396 h a u 
-0.8902 h a v 
-2.3245 h a w 
-3.1906 h a y 
-3.0455 h a z 
-1.2843 h b a 
-0.6067 h b e 
-2.2228 h b i 
-1.2843 h b l 
-0.6719 h b o 
-1.0090 h b r 
-0.7486 h b u 
-0.9608 h b y 
-0.6566 h c a 
-0.8266 h c e 
-1.1823 h c h 
-1.7422 h c i 
-2.2076 h c l 
-0.4397 h c o 
-0.9938 h c r 
-1.5227 h c u 
-0.8759 h d a 
-0.6287 h d e 
-0.7597 h d i 
-1.0350 h d o 
-0.6681 h d r 
-1.1436 h d u 
-1.9735 h d y 
-1.1775 h e a 
-1.6476 h e b 
-1.2914 h e c 
-1.2832 h e d 
-1.3130 h e e 
-1.4903 h e f 
-1.5298 h e g 
-1.5394 h e h 
-1.3956 h e i 
-2.5953 h e j 
-2.2808 h e k 
-1.4308 h e l 
-1.2166 h e m 
-1.1333 h e n 
-1.6455 h e o 
-1.3875 h e p 
-2.5116 h e q 
-0.8366 h e r 
-0.9545 h e s 
-1.5021 h e t 
-2.1373 h e u 
-1.7778 h e v 
-1.2691 h e w 
-2.6339 h e x 
-1.9041 h e y 
-3.5652 h e z 
-1.0507 h f a 
-0.9679 h f e 
-1.0507 h f i 
-1.1531 h f l 
-0.5041 h f o 
-0.8674 h f r 
-0.7858 h f u 
-1.2005 h g a 
-1.0554 h g e 
-1.8854 h g i 
-0.9468 h g l 
-0.9468 h g o 
-0.3116 h g r 
-1.4200 h g u 
-0.4333 h h a 
-0.6462 h h e 
-0.5754 h h i 
-1.0250 h h o 
-1.5878 h h u 
-2.5263 h h y 
-2.5605 h i a 
-2.3933 h i b 
-0.6858 h i c 
-1.9656 h i d 
-2.4689 h i e 
-2.6147 h i f 
-1.8141 h i g 
-2.4295 h i h 
-3.7742 h i j 
-3.3089 h i k 
-1.3557 h i l 
-1.1044 h i m 
-0.7889 h i n 
-2.6766 h i o 
-2.1195 h i p 
-1.7790 h i r 
-0.4030 h i s 
-1.4801 h i t 
-2.4689 h i v 
-2.3933 h i w 
-0.2479 h j o 
-0.5015 h j u 
-0.9823 h k e 
-0.5169 h k n 
-0.5169 h k y 
-0.8292 h l a 
-0.5608 h l e 
-0.7898 h l i 
-0.9208 h l o 
-2.1346 h l u 
-0.6077 h l y 
-0.9723 h m a 
-0.5418 h m e 
-2.4736 h m f 
-1.0927 h m i 
-1.2117 h m k 
-2.4736 h m m 
-0.9468 h m o 
-2.0083 h m r 
-2.0083 h m u 
-0.5321 h m y 
-0.9848 h n a 
-0.9848 h n e 
-1.8148 h n i 
-0.1600 h n o 
-1.8148 h n u 
-2.0918 h o a 
-2.7072 h o b 
-2.0103 h o c 
-2.0629 h o d 
-2.2751 h o e 
-1.3758 h o f 
-1.9862 h o h 
-2.0629 h o i 
-3.5371 h o j 
-2.3776 h o k 
-0.9452 h o l 
-1.7417 h o m 
-1.6795 h o n 
-1.5590 h o o 
-1.4374 h o p 
-0.9368 h o r 
-1.2065 h o s 
-1.6356 h o t 
-0.4760 h o u 
-2.5118 h o v 
-0.8532 h o w 
-0.7855 h p a 
-0.7373 h p e 
-1.1694 h p i 
-1.0608 h p l 
-1.0608 h p o 
-0.4980 h p r 
-1.5339 h p u 
-0.0268 h q u 
-1.2350 h r a 
-2.7619 h r d 
-0.4351 h r e 
-1.6023 h r i 
-0.3308 h r o 
-1.3166 h r u 
-1.6643 h r y 
-1.0809 h s a 
-1.6166 h s b 
-1.2932 h s c 
-1.0538 h s e 
-1.2104 h s h 
-1.2498 h s i 
-2.5551 h s k 
-1.8703 h s l 
-2.5551 h s m 
-2.0898 h s n 
-0.7872 h s o 
-1.6166 h s p 
-1.5298 h s s 
-0.7465 h s t 
-0.8167 h s u 
-1.8703 h s w 
-2.5551 h s y 
-1.2956 h t a 
-1.6157 h t b 
-2.0767 h t c 
-2.8733 h t d 
-1.2390 h t e 
-1.7028 h t f 
-2.4002 h t g 
-0.4773 h t h 
-1.2071 h t i 
-3.3387 h t j 
-1.7432 h t l 
-1.7432 h t m 
-1.8373 h t n 
-0.8471 h t o 
-2.0333 h t p 
-2.8733 h t q 
-1.7877 h t r 
-1.5432 h t s 
-1.3350 h t t 
-1.6318 h t u 
-3.3387 h t v 
-1.4268 h t w 
-1.1388 h t y 
-1.6266 h u d 
-2.2038 h u e 
-0.9567 h u g 
-0.7330 h u m 
-0.3710 h u n 
-1.7910 h u p 
-1.3148 h u r 
-0.8531 h u s 
-1.4743 h u t 
-0.2699 h v a 
-0.5995 h v e 
-1.4294 h v i 
-1.4294 h v o 
-0.6036 h w a 
-0.4556 h w e 
-0.6036 h w h 
-1.1830 h w i 
-1.1143 h w o 
-1.1010 h y a 
-2.0166 h y b 
-1.5434 h y c 
-1.6520 h y d 
-1.6520 h y e 
-2.4820 h y f 
-1.4567 h y g 
-1.2200 h y h 
-1.2200 h y i 
-1.4567 h y m 
-1.3224 h y n 
-0.7918 h y o 
-0.9806 h y p 
-2.0166 h y r 
-1.0367 h y s 
-1.3844 h y t 
-1.2682 h y u 
-1.2200 h y w 
-1.7971 h y y 
-0.2833 h z e 
-1.9054 i a a 
-1.7711 i a b 
-1.5859 i a c 
-1.4565 i a d 
-2.4653 i a e 
-1.9054 i a f 
-1.5859 i a g 
-2.9307 i a h 
-2.2458 i a i 
-0.7580 i a l 
-0.7810 i a m 
-0.7361 i a n 
-2.9307 i a o 
-2.1007 i a p 
-1.1093 i a r 
-0.9615 i a s 
-1.0087 i a t 
-2.9307 i a u 
-2.9307 i a v 
-1.7169 i a w 
-2.4112 i b a 
-2.1917 i b b 
-0.6270 i b e 
-1.2407 i b i 
-0.2085 i b l 
-1.9381 i b o 
-1.4623 i b r 
-1.6628 i b u 
-0.8249 i c a 
-2.2957 i c b 
-2.0067 i c c 
-2.5324 i c d 
-0.8487 i c e 
-2.1768 i c f 
-2.2523 i c g 
-0.4747 i c h 
-1.4021 i c i 
-1.4647 i c k 
-1.8192 i c l 
-2.1434 i c m 
-2.4601 i c n 
-1.1236 i c o 
-1.8192 i c p 
-3.5577 i c q 
-1.3423 i c r 
-1.8508 i c s 
-1.4647 i c t 
-1.3578 i c u 
-3.0923 i c v 
-2.1434 i c w 
-2.8728 i c y 
-1.3251 i d a 
-2.1137 i d b 
-2.0703 i d c 
-1.8743 i d d 
-0.3861 i d e 
-2.3504 i d f 
-2.1619 i d g 
-1.5298 i d h 
-0.8978 i d i 
-3.3757 i d j 
-3.3757 i d k 
-1.7802 i d l 
-1.2963 i d m 
-1.1865 i d n 
-1.5671 i d o 
-2.1619 i d p 
-2.6908 i d q 
-1.4955 i d r 
-1.4155 i d s 
-1.1865 i d t 
-2.5457 i d u 
-2.9103 i d v 
-1.6855 i d w 
-2.2161 i d y 
-2.5775 i e a 
-1.6265 i e c 
-0.3919 i e d 
-3.2624 i e e 
-1.7355 i e f 
-2.5775 i e g 
-2.4324 i e i 
-2.7970 i e k 
-1.5896 i e l 
-0.8471 i e n 
-2.7970 i e o 
-1.3305 i e r 
-0.7736 i e s 
-1.5090 i e t 
-2.4324 i e u 
-1.1561 i e v 
-1.7882 i e w 
-1.5722 i e x 
-1.5748 i f a 
-2.5836 i f b 
-3.0490 i f c 
-0.8652 i f e 
-0.8089 i f f 
-1.5748 i f h 
-0.6704 i f i 
-1.6680 i f l 
-1.9514 i f m 
-1.9514 i f n 
-1.0980 i f o 
-2.5836 i f p 
-3.0490 i f r 
-2.1105 i f s 
-0.7856 i f t 
-1.3942 i f u 
-1.3421 i f w 
-1.4131 i f y 
-1.1488 i g a 
-1.7537 i g e 
-1.3330 i g g 
-0.1839 i g h 
-1.4731 i g i 
-2.7897 i g l 
-3.2550 i g m 
-1.0823 i g n 
-1.7808 i g o 
-2.0413 i g r 
-2.0413 i g s 
-2.3165 i g t 
-1.3749 i g u 
-2.5702 i g z 
-0.1039 i h a 
-0.9442 i h e 
-1.8372 i h i 
-1.1162 i h o 
-1.2159 i i c 
-1.6812 i i f 
-1.2159 i i i 
-1.2159 i i l 
-0.9964 i i m 
-0.4675 i i n 
-1.6812 i i o 
-1.6812 i i r 
-1.2159 i i s 
-1.6812 i i t 
-1.6812 i i y 
-0.9823 i j e 
-0.1523 i j u 
-1.9082 i k a 
-0.1193 i k e 
-2.7381 i k h 
-1.6405 i k i 
-2.7381 i k m 
-0.9427 i k n 
-2.2728 i k r 
-1.3238 i k s 
-2.0533 i k t 
-2.2728 i k w 
-2.7381 i k y 
-1.4237 i l a 
-1.9937 i l b 
-2.9092 i l c 
-1.2075 i l d 
-0.6543 i l e 
-2.6898 i l f 
-2.6898 i l g 
-2.2770 i l h 
-1.0763 i l i 
-2.3493 i l k 
-0.4887 i l l 
-2.4361 i l m 
-2.1608 i l n 
-1.1644 i l o 
-3.3746 i l p 
-3.3746 i l q 
-2.6898 i l r 
-1.4836 i l s 
-1.7199 i l t 
-1.7791 i l u 
-2.6898 i l v 
-1.6362 i l w 
-1.2190 i l y 
-0.7957 i m a 
-1.6035 i m b 
-2.5915 i m c 
-3.2763 i m d 
-0.6155 i m e 
-2.1167 i m f 
-2.8109 i m g 
-1.9709 i m h 
-1.1766 i m i 
-3.2763 i m k 
-2.0143 i m l 
-1.3348 i m m 
-1.8021 i m n 
-1.8021 i m o 
-0.6515 i m p 
-2.3378 i m r 
-1.2408 i m s 
-1.4073 i m t 
-1.4944 i m u 
-3.2763 i m v 
-1.6215 i m w 
-2.4463 i m y 
-1.0905 i n a 
-2.5684 i n b 
-1.3749 i n c 
-1.2018 i n d 
-1.1881 i n e 
-1.6896 i n f 
-0.4596 i n g 
-1.7886 i n h 
-1.5751 i n i 
-3.4104 i n j 
-1.8364 i n k 
-1.8798 i n l 
-1.9006 i n m 
-2.0753 i n n 
-1.6550 i n o 
-2.3722 i n p 
-2.7143 i n q 
-2.3567 i n r 
-1.3184 i n s 
-0.7947 i n t 
-1.6580 i n u 
-2.1260 i n v 
-1.8748 i n w 
-2.9976 i n y 
-2.3952 i o b 
-2.6629 i o c 
-1.5912 i o d 
-2.5543 i o f 
-3.4928 i o g 
-3.4928 i o i 
-1.8200 i o l 
-2.5543 i o m 
-0.1156 i o n 
-2.6629 i o p 
-1.3674 i o r 
-2.0785 i o s 
-2.8080 i o t 
-0.9228 i o u 
-3.0274 i o v 
-3.4928 i o w 
-0.8264 i p a 
-2.4623 i p b 
-1.9969 i p c 
-1.9969 i p d 
-1.2485 i p e 
-2.4623 i p h 
-1.3647 i p i 
-1.3027 i p l 
-1.9969 i p m 
-1.1569 i p o 
-1.0813 i p p 
-1.1569 i p r 
-0.7088 i p s 
-1.0170 i p t 
-1.2003 i p u 
-2.4623 i p v 
-1.6323 i p w 
-2.4623 i p z 
-0.0075 i q u 
-1.1678 i r a 
-1.8507 i r b 
-1.1524 i r c 
-1.7812 i r d 
-0.5275 i r e 
-1.8507 i r f 
-2.5107 i r g 
-1.8507 i r h 
-1.1524 i r i 
-3.1955 i r j 
-2.2570 i r k 
-1.8146 i r l 
-1.4136 i r m 
-2.5107 i r n 
-1.2446 i r o 
-2.3656 i r p 
-3.1955 i r q 
-1.5408 i r r 
-0.8170 i r s 
-1.2002 i r t 
-2.0979 i r u 
-2.5107 i r v 
-1.5227 i r w 
-2.0979 i r y 
-1.1062 i s a 
-1.8374 i s b 
-1.1149 i s c 
-1.7303 i s d 
-1.1027 i s e 
-1.5435 i s f 
-1.8867 i s g 
-0.9212 i s h 
-1.1776 i s i 
-2.5745 i s j 
-2.2615 i s k 
-1.4349 i s l 
-1.4063 i s m 
-1.5483 i s n 
-1.4424 i s o 
-1.4424 i s p 
-2.2870 i s q 
-1.8867 i s r 
-1.1964 i s s 
-0.7564 i s t 
-1.9193 i s u 
-2.0499 i s v 
-1.4204 i s w 
-3.1035 i s y 
-1.2469 i t a 
-1.9408 i t b 
-1.9291 i t c 
-2.2357 i t d 
-0.9764 i t e 
-2.1912 i t f 
-2.7614 i t g 
-0.5393 i t h 
-0.9674 i t i 
-3.7867 i t j 
-3.7867 i t k 
-2.3125 i t l 
-1.7831 i t m 
-2.2598 i t n 
-1.5921 i t o 
-2.3724 i t p 
-1.9529 i t r 
-1.0680 i t s 
-1.2767 i t t 
-1.5975 i t u 
-2.9567 i t v 
-1.0127 i t w 
-1.1560 i t y 
-3.3213 i t z 
-0.2904 i u m 
-0.6446 i u n 
-1.4412 i u r 
-0.8089 i u s 
-1.9066 i u t 
-1.3559 i v a 
-0.0980 i v e 
-0.8574 i v i 
-2.9297 i v s 
-2.2449 i v u 
-2.2449 i v y 
-0.1356 i w a 
-1.2513 i w e 
-1.7581 i w h 
-0.8752 i w i 
-1.2823 i w o 
-1.2586 i x d 
-0.8162 i x e 
-1.3672 i x f 
-1.1718 i x h 
-1.3672 i x i 
-1.2586 i x m 
-0.7828 i x o 
-2.1971 i x p 
-1.7317 i x s 
-0.5069 i x t 
-1.7317 i x w 
-0.4200 i y i 
-0.8854 i y o 
-0.8854 i y s 
-1.0081 i z a 
-0.3099 i z e 
-1.8047 i z i 
-0.4363 i z o 
-2.2701 i z z 
-1.2974 j a g 
-1.5169 j a m 
-1.2974 j a n 
-1.5169 j a o 
-1.9823 j a p 
-1.0438 j a r 
-1.9823 j a s 
-0.4313 j a v 
-0.6375 j a w 
-1.5169 j a x 
-0.2833 j d e 
-0.0791 j e c 
-2.2228 j e l 
-1.7574 j e r 
-1.7574 j e s 
-1.0090 j e t 
-1.8026 j o h 
-0.9606 j o i 
-2.0220 j o k 
-2.4874 j o l 
-1.0421 j o r 
-2.4874 j o t 
-0.2332 j o u 
-0.7972 j o y 
-0.2950 j s a 
-0.7604 j s i 
-0.9116 j u d 
-2.2564 j u i 
-0.9945 j u l 
-1.2311 j u m 
-0.8421 j u n 
-1.4265 j u r 
-0.3344 j u s 
-1.7910 j u t 
-2.2564 j u v 
-0.7752 k a b 
-2.0328 k a c 
-2.0328 k a d 
-2.0328 k a f 
-1.2844 k a g 
-2.4981 k a h 
-2.4981 k a k 
-1.4005 k a l 
-2.0328 k a m 
-0.4783 k a n 
-2.0328 k a p 
-1.4005 k a r 
-1.1172 k a s 
-0.9472 k a t 
-2.4981 k a u 
-1.8133 k a w 
-1.2362 k a x 
-1.6257 k b a 
-0.6004 k b e 
-1.6257 k b o 
-1.6257 k b r 
-0.5281 k b u 
-0.6004 k b y 
-0.4119 k c a 
-1.6257 k c e 
-1.6257 k c h 
-0.9409 k c l 
-1.1603 k c o 
-0.6004 k c r 
-1.3972 k d a 
-0.7124 k d e 
-0.9319 k d i 
-0.4587 k d o 
-0.9319 k d u 
-0.8791 k e a 
-2.0945 k e b 
-2.0945 k e c 
-0.6475 k e d 
-1.2505 k e e 
-1.9488 k e f 
-2.7887 k e g 
-1.8088 k e h 
-1.5156 k e i 
-3.2541 k e j 
-3.2541 k e k 
-1.4586 k e l 
-1.6586 k e m 
-0.9119 k e n 
-1.3422 k e o 
-1.4455 k e p 
-1.9093 k e r 
-1.3525 k e s 
-0.9235 k e t 
-1.6380 k e u 
-2.3156 k e v 
-1.8732 k e w 
-2.3156 k e x 
-1.8088 k e y 
-0.3004 k f a 
-1.7457 k f i 
-0.5319 k f o 
-0.9158 k f r 
-0.0756 k g r 
-0.8040 k h a 
-0.6951 k h e 
-0.4735 k h i 
-0.8474 k h o 
-0.8956 k h u 
-2.1850 k i a 
-1.8446 k i c 
-2.8699 k i d 
-2.0399 k i e 
-2.4045 k i f 
-2.8699 k i g 
-2.1850 k i h 
-2.8699 k i k 
-2.4045 k i l 
-2.0399 k i m 
-0.1015 k i n 
-2.8699 k i o 
-2.1850 k i p 
-1.5645 k i r 
-1.6079 k i s 
-1.1797 k i t 
-2.4045 k i w 
-0.0096 k j a 
-0.5843 k k e 
-0.5843 k k n 
-0.5094 k l e 
-0.4005 k l i 
-0.9848 k l o 
-0.8763 k l y 
-0.7631 k m a 
-0.8499 k m e 
-0.9585 k m o 
-0.2871 k m y 
-0.5345 k n e 
-2.0168 k n i 
-0.2737 k n o 
-0.8000 k n u 
-2.3515 k o a 
-2.3515 k o c 
-2.3515 k o d 
-2.3515 k o e 
-0.3009 k o f 
-1.6666 k o h 
-1.8861 k o l 
-0.7777 k o n 
-1.8861 k o p 
-0.9062 k o r 
-1.0461 k o u 
-2.3515 k o v 
-0.1938 k p l 
-1.0732 k p o 
-0.7086 k p r 
-1.3247 k r a 
-0.3862 k r e 
-0.8593 k r i 
-0.8593 k r o 
-1.3247 k r u 
-0.8570 k s a 
-1.4824 k s b 
-1.6414 k s c 
-2.1146 k s d 
-1.8951 k s e 
-1.7500 k s f 
-2.5800 k s g 
-2.1146 k s h 
-1.1347 k s i 
-2.1146 k s l 
-1.8951 k s m 
-2.1146 k s n 
-0.6107 k s o 
-2.1146 k s p 
-1.7500 k s r 
-1.0290 k s s 
-0.9441 k s t 
-1.5547 k s u 
-1.0531 k s w 
-1.8951 k s y 
-2.3871 k t a 
-0.2617 k t h 
-0.3835 k t o 
-2.3871 k t s 
-1.9217 k t w 
-0.9882 k u l 
-0.9014 k u n 
-0.2199 k u p 
-0.9014 k u s 
-0.7385 k w a 
-0.6389 k w e 
-0.4448 k w h 
-0.7674 k w i 
-1.5279 k w o 
-1.0691 k y a 
-1.5422 k y b 
-1.5422 k y c 
-2.0076 k y d 
-1.3227 k y e 
-1.5422 k y f 
-1.3227 k y h 
-1.5422 k y i 
-0.7456 k y o 
-0.7456 k y r 
-1.1776 k y s 
-1.3227 k y t 
-0.9823 k y w 
-1.7302 l a b 
-0.9908 l a c 
-1.8079 l a d 
-3.4981 l a e 
-2.3386 l a f 
-2.4005 l a g 
-3.0328 l a h 
-1.2581 l a i 
-2.0529 l a k 
-2.0529 l a l 
-1.5566 l a m 
-0.5829 l a n 
-2.5596 l a o 
-1.7597 l a p 
-0.9583 l a r 
-0.8734 l a s 
-0.9259 l a t 
-1.8434 l a u 
-1.4475 l a v 
-1.9968 l a w 
-3.4981 l a x 
-1.3790 l a y 
-3.4981 l a z 
-1.0571 l b a 
-0.2973 l b e 
-2.3625 l b i 
-1.8971 l b l 
-0.9172 l b o 
-1.1487 l b r 
-2.3625 l b t 
-0.8356 l b u 
-1.8971 l b y 
-0.4286 l c a 
-1.5761 l c e 
-1.1561 l c h 
-2.1360 l c i 
-1.7714 l c l 
-0.6146 l c o 
-1.1271 l c r 
-0.7676 l c u 
-1.2430 l d a 
-1.0040 l d b 
-1.4542 l d c 
-1.8485 l d d 
-1.0374 l d e 
-1.4950 l d f 
-1.8485 l d g 
-0.9094 l d h 
-1.1191 l d i 
-2.5780 l d k 
-1.5244 l d l 
-1.5399 l d m 
-0.9440 l d n 
-1.3119 l d o 
-1.9575 l d p 
-1.6081 l d r 
-1.1437 l d s 
-1.2430 l d t 
-1.8819 l d u 
-2.5780 l d v 
-1.4415 l d w 
-2.2375 l d y 
-0.8598 l e a 
-1.7306 l e b 
-1.2963 l e c 
-1.0539 l e d 
-1.5704 l e e 
-1.4499 l e f 
-1.8449 l e g 
-1.4933 l e h 
-1.3208 l e i 
-2.5821 l e j 
-2.7705 l e k 
-1.9621 l e l 
-1.5908 l e m 
-1.1893 l e n 
-1.4652 l e o 
-1.6121 l e p 
-2.7705 l e q 
-1.3936 l e r 
-0.8950 l e s 
-0.9231 l e t 
-2.4905 l e u 
-1.6896 l e v 
-1.2512 l e w 
-2.2449 l e x 
-2.2449 l e y 
-0.7292 l f a 
-1.5988 l f b 
-1.9223 l f c 
-1.7012 l f d 
-1.5988 l f e 
-1.6470 l f f 
-2.3954 l f g 
-1.3339 l f h 
-0.8253 l f i 
-2.3954 l f j 
-1.7632 l f l 
-1.5554 l f m 
-1.8355 l f n 
-0.9592 l f o 
-2.0308 l f p 
-2.8608 l f q 
-1.7012 l f r 
-1.3339 l f s 
-0.9592 l f t 
-1.5988 l f u 
-2.1759 l f v 
-1.0789 l f w 
-2.3954 l f y 
-1.0260 l g a 
-0.7026 l g e 
-0.9392 l g i 
-1.1346 l g l 
-1.9645 l g n 
-0.8050 l g o 
-0.7026 l g r 
-1.1346 l g u 
-0.6539 l h a 
-0.4882 l h e 
-0.6153 l h i 
-0.7687 l h o 
-1.8047 l h u 
-1.4621 l i a 
-2.0234 l i b 
-1.4324 l i c 
-1.4940 l i d 
-1.0455 l i e 
-1.4858 l i f 
-0.9344 l i g 
-2.1528 l i h 
-2.8128 l i i 
-3.4976 l i j 
-0.8890 l i k 
-2.3380 l i l 
-1.4183 l i m 
-0.7633 l i n 
-2.4000 l i o 
-1.6762 l i p 
-1.9467 l i q 
-2.3380 l i r 
-1.2722 l i s 
-0.8573 l i t 
-1.4699 l i v 
-2.2838 l i w 
-3.4976 l i x 
-1.8248 l i z 
-0.1229 l j o 
-1.0615 l j u 
-1.1556 l k a 
-0.7356 l k e 
-2.1809 l k f 
-1.7155 l k h 
-0.6300 l k i 
-0.7666 l k n 
-1.3510 l k o 
-1.3510 l k s 
-1.3510 l k t 
-2.1809 l k u 
-1.7155 l k w 
-1.0833 l k y 
-1.2055 l l a 
-1.5285 l l b 
-1.8544 l l c 
-1.8544 l l d 
-0.8437 l l e 
-1.8544 l l f 
-2.1625 l l g 
-1.6297 l l h 
-0.9791 l l i 
-3.6078 l l j 
-2.2630 l l k 
-2.0809 l l l 
-1.5879 l l m 
-1.6042 l l n 
-0.8923 l l o 
-2.0123 l l p 
-1.9350 l l r 
-1.1861 l l s 
-0.9870 l l t 
-1.5216 l l u 
-2.7778 l l v 
-1.5015 l l w 
-0.8643 l l y 
-0.8945 l m a 
-2.6014 l m c 
-1.0276 l m e 
-2.6014 l m f 
-2.1360 l m h 
-1.0745 l m i 
-1.3876 l m l 
-2.1360 l m m 
-1.6628 l m n 
-0.5084 l m o 
-2.6014 l m p 
-2.1360 l m r 
-1.5038 l m s 
-2.1360 l m t 
-1.6628 l m u 
-2.1360 l m w 
-0.7324 l m y 
-1.2639 l n a 
-0.4639 l n e 
-1.2639 l n i 
-0.2804 l n o 
-1.5839 l o a 
-1.6302 l o b 
-1.2969 l o c 
-2.2502 l o d 
-1.1412 l o f 
-1.3988 l o g 
-3.4640 l o i 
-2.5255 l o m 
-0.7977 l o n 
-0.8873 l o o 
-1.6426 l o p 
-2.9986 l o q 
-1.3917 l o r 
-1.0002 l o s 
-1.8902 l o t 
-1.0855 l o u 
-1.8902 l o v 
-0.6789 l o w 
-2.6341 l o y 
-0.8184 l p a 
-2.2327 l p c 
-1.0731 l p e 
-2.2327 l p f 
-2.2327 l p g 
-0.8879 l p h 
-0.8879 l p i 
-1.0189 l p l 
-0.9707 l p o 
-0.7585 l p r 
-2.2327 l p s 
-1.5478 l p t 
-2.2327 l p u 
-0.1189 l q u 
-1.1302 l r a 
-0.1348 l r e 
-1.1302 l r i 
-2.2278 l r j 
-1.2025 l r o 
-2.2278 l r u 
-2.2278 l r y 
-0.9670 l s a 
-1.8192 l s b 
-1.5046 l s c 
-2.5134 l s d 
-0.8232 l s e 
-1.8812 l s f 
-1.3626 l s h 
-0.9510 l s i 
-2.9788 l s j 
-2.9788 l s k 
-1.9535 l s l 
-1.6734 l s m 
-2.0403 l s n 
-0.6932 l s o 
-1.9535 l s p 
-2.9788 l s q 
-2.1488 l s r 
-1.7650 l s s 
-0.8926 l s t 
-1.3059 l s u 
-2.9788 l s v 
-1.4519 l s w 
-2.2939 l s y 
-1.3030 l t a 
-2.3566 l t b 
-2.5761 l t c 
-1.2328 l t e 
-2.2115 l t f 
-0.3752 l t h 
-1.0547 l t i 
-3.0415 l t l 
-1.8277 l t m 
-3.0415 l t n 
-0.8917 l t o 
-3.0415 l t p 
-1.3185 l t r 
-1.5401 l t s 
-1.2736 l t t 
-2.3566 l t u 
-3.0415 l t v 
-1.6605 l t w 
-1.3030 l t y 
-1.6590 l u a 
-1.9886 l u b 
-1.3173 l u c 
-1.4738 l u d 
-0.9972 l u e 
-1.4377 l u g 
-1.6048 l u i 
-2.3532 l u k 
-2.8186 l u l 
-0.7393 l u m 
-0.9385 l u n 
-2.8186 l u o 
-1.1458 l u p 
-1.8801 l u r 
-0.9067 l u s 
-0.8867 l u t 
-1.3173 l u v 
-2.1337 l u x 
-1.4401 l v a 
-0.0547 l v e 
-1.2448 l v i 
-2.2701 l v o 
-0.4685 l w a 
-0.6999 l w e 
-0.6647 l w h 
-0.7658 l w i 
-1.2284 l w o 
-0.8515 l y a 
-1.2881 l y b 
-1.3042 l y c 
-1.3042 l y d 
-1.4843 l y e 
-1.3097 l y f 
-2.0137 l y g 
-1.4156 l y h 
-1.0923 l y i 
-2.6580 l y j 
-2.4627 l y k 
-1.4927 l y l 
-1.5864 l y m 
-1.6190 l y n 
-1.2156 l y o 
-1.5278 l y p 
-3.4880 l y q 
-1.3817 l y r 
-1.2384 l y s 
-0.9434 l y t 
-1.5465 l y u 
-2.2742 l y v 
-1.2200 l y w 
-2.4627 l y y 
-3.0226 l y z 
-2.0236 m a b 
-1.9946 m a c 
-0.9148 m a d 
-3.4688 m a e 
-2.4435 m a f 
-1.2906 m a g 
-3.0035 m a h 
-1.3191 m a i 
-2.7840 m a j 
-1.1009 m a k 
-1.1876 m a l 
-2.0879 m a m 
-0.6086 m a n 
-3.4688 m a o 
-2.1241 m a p 
-3.4688 m a q 
-1.0378 m a r 
-1.2009 m a s 
-0.9079 m a t 
-2.7840 m a v 
-3.0035 m a w 
-3.4688 m a x 
-1.2906 m a y 
-2.2069 m a z 
-1.1380 m b a 
-2.1739 m b c 
-0.5077 m b e 
-2.6393 m b f 
-1.0884 m b i 
-2.1739 m b j 
-0.8179 m b l 
-2.6393 m b n 
-1.2945 m b o 
-1.1651 m b r 
-1.3774 m b s 
-2.1739 m b t 
-0.8439 m b u 
-1.6140 m b y 
-1.3231 m c a 
-1.1036 m c e 
-0.6908 m c h 
-1.1036 m c l 
-0.4437 m c o 
-1.1036 m c r 
-1.3231 m c u 
-1.5621 m d a 
-0.5367 m d e 
-1.0967 m d i 
-0.8772 m d o 
-1.5621 m d r 
-0.8772 m d u 
-0.8772 m d y 
-0.9371 m e a 
-1.6376 m e b 
-1.7837 m e c 
-1.0009 m e d 
-1.8878 m e e 
-1.5833 m e f 
-2.0903 m e g 
-1.7094 m e h 
-1.3029 m e i 
-3.1759 m e j 
-2.8113 m e k 
-1.6997 m e l 
-1.3824 m e m 
-0.6863 m e n 
-1.4685 m e o 
-1.9183 m e p 
-2.8113 m e q 
-1.3471 m e r 
-1.2423 m e s 
-0.8507 m e t 
-1.8878 m e u 
-2.0251 m e v 
-1.4259 m e w 
-3.6412 m e x 
-2.5436 m e y 
-2.0542 m f a 
-0.9565 m f e 
-1.3693 m f i 
-1.5888 m f l 
-0.4183 m f o 
-0.4380 m f r 
-2.0542 m f u 
-1.2833 m g a 
-0.5985 m g e 
-1.2833 m g l 
-0.5985 m g o 
-0.8179 m g r 
-0.6208 m h a 
-0.4863 m h e 
-0.5484 m h i 
-1.0968 m h o 
-1.4373 m h u 
-2.7750 m i a 
-1.5676 m i c 
-1.2712 m i d 
-2.3019 m i e 
-2.1428 m i f 
-0.8833 m i g 
-2.7750 m i h 
-3.2404 m i k 
-0.9862 m i l 
-2.3019 m i m 
-0.3954 m i n 
-2.5556 m i o 
-2.5556 m i p 
-1.5676 m i r 
-1.0512 m i s 
-0.9297 m i t 
-2.3019 m i w 
-2.0809 m i x 
-0.2833 m j u 
-1.3972 m k e 
-0.9319 m k n 
-0.1353 m k o 
-1.4614 m l a 
-0.6648 m l e 
-0.9882 m l i 
-0.8291 m l o 
-1.9268 m l u 
-0.3758 m l y 
-0.9910 m m a 
-2.6812 m m b 
-1.9964 m m c 
-2.6812 m m d 
-0.5199 m m e 
-1.6559 m m h 
-0.7494 m m i 
-2.2159 m m m 
-2.6812 m m n 
-0.9133 m m o 
-2.6812 m m p 
-2.2159 m m r 
-2.2159 m m s 
-1.7427 m m t 
-1.4193 m m u 
-1.7427 m m w 
-0.8858 m m y 
-1.0775 m n a 
-0.4481 m n e 
-1.6375 m n l 
-2.1028 m n n 
-0.4867 m n o 
-2.1028 m n p 
-1.0052 m n s 
-2.1028 m n t 
-2.1028 m n v 
-2.1028 m n w 
-2.6794 m o a 
-2.8989 m o b 
-2.6794 m o c 
-1.6413 m o d 
-1.2452 m o f 
-2.6794 m o i 
-2.1505 m o k 
-2.2047 m o l 
-1.0964 m o m 
-0.8920 m o n 
-1.9500 m o o 
-0.5684 m o r 
-0.7745 m o s 
-1.2327 m o t 
-0.8543 m o u 
-1.4423 m o v 
-3.3643 m o y 
-0.7269 m p a 
-3.0615 m p b 
-0.7631 m p e 
-3.0615 m p f 
-3.0615 m p g 
-1.4877 m p h 
-1.7167 m p i 
-0.6726 m p l 
-0.6692 m p o 
-1.2039 m p r 
-1.7167 m p s 
-1.2936 m p t 
-2.1229 m p u 
-3.0615 m p w 
-2.2315 m p y 
-0.1189 m q u 
-0.6908 m r a 
-1.7885 m r b 
-1.7885 m r d 
-0.4831 m r e 
-1.7885 m r h 
-0.9585 m r i 
-1.7885 m r m 
-1.3231 m r n 
-1.3231 m r o 
-1.7885 m r t 
-1.7885 m r u 
-1.0540 m s a 
-2.2245 m s b 
-1.7513 m s c 
-2.2245 m s d 
-0.5644 m s e 
-2.0050 m s f 
-2.0050 m s h 
-1.1885 m s i 
-2.2245 m s k 
-2.0050 m s l 
-2.2245 m s m 
-2.0050 m s n 
-0.7989 m s o 
-1.8599 m s p 
-2.6898 m s q 
-2.2245 m s r 
-2.0050 m s s 
-0.7678 m s t 
-1.3845 m s u 
-1.2755 m s w 
-2.6335 m t a 
-2.1682 m t e 
-0.1159 m t h 
-1.9487 m t i 
-2.6335 m t n 
-0.7320 m t o 
-1.9487 m t r 
-0.5562 m u c 
-1.3605 m u l 
-2.3404 m u m 
-1.2789 m u n 
-1.8672 m u p 
-0.9971 m u r 
-0.3477 m u s 
-1.3315 m u t 
-0.1899 m v e 
-0.6630 m v o 
-0.9602 m w a 
-0.8203 m w e 
-0.3537 m w h 
-0.6494 m w i 
-1.4356 m w o 
-2.2656 m w r 
-1.6204 m y a 
-1.2814 m y b 
-1.5322 m y c 
-1.4110 m y d 
-1.3044 m y e 
-1.3611 m y f 
-1.8803 m y g 
-1.2649 m y h 
-1.7473 m y i 
-2.5156 m y j 
-2.7693 m y k 
-1.5740 m y l 
-1.5740 m y m 
-1.8183 m y n 
-1.5632 m y o 
-1.5740 m y p 
-3.4541 m y q 
-1.5322 m y r 
-0.8294 m y s 
-1.7007 m y t 
-0.5152 m y u 
-2.1488 m y v 
-1.5126 m y w 
-2.9888 m y y 
-2.6335 n a a 
-1.2532 n a b 
-1.4767 n a c 
-1.6548 n a d 
-3.4634 n a e 
-1.7100 n a f 
-1.6176 n a g 
-1.8275 n a h 
-1.9366 n a i 
-2.5249 n a j 
-1.9366 n a k 
-0.8867 n a l 
-1.3197 n a m 
-0.7796 n a n 
-2.6335 n a o 
-1.7405 n a p 
-2.9980 n a q 
-1.1251 n a r 
-0.9911 n a s 
-0.6923 n a t 
-2.4381 n a u 
-1.7250 n a v 
-1.6176 n a w 
-3.4634 n a y 
-2.9980 n a z 
-1.4975 n b a 
-0.4823 n b e 
-1.9102 n b i 
-2.1297 n b j 
-1.9102 n b l 
-0.8721 n b o 
-1.4355 n b r 
-0.6349 n b u 
-0.7375 n b y 
-1.5915 n c a 
-0.3738 n c e 
-1.3638 n c h 
-1.4780 n c i 
-0.4910 n c l 
-1.1713 n c o 
-1.4008 n c r 
-1.6445 n c t 
-2.4882 n c u 
-1.7905 n c y 
-1.1200 n d a 
-1.6650 n d b 
-1.5917 n d c 
-1.5648 n d d 
-0.8889 n d e 
-1.5878 n d f 
-1.8493 n d g 
-1.5291 n d h 
-0.9477 n d i 
-2.7008 n d j 
-2.5002 n d k 
-1.6697 n d l 
-1.3919 n d m 
-1.8639 n d n 
-1.1636 n d o 
-1.5611 n d p 
-3.0846 n d q 
-1.3163 n d r 
-1.0352 n d s 
-0.9301 n d t 
-1.6891 n d u 
-2.2598 n d v 
-1.2272 n d w 
-1.8352 n d y 
-1.0628 n e a 
-2.1889 n e b 
-1.4183 n e c 
-0.7916 n e d 
-1.7313 n e e 
-1.5134 n e f 
-2.1618 n e g 
-1.8813 n e h 
-1.3819 n e i 
-3.1978 n e j 
-3.1978 n e k 
-1.5908 n e l 
-1.7122 n e m 
-1.5377 n e n 
-1.2478 n e o 
-1.7830 n e p 
-2.5655 n e q 
-1.1994 n e r 
-0.9657 n e s 
-1.4581 n e t 
-2.1889 n e u 
-1.1584 n e v 
-1.2169 n e w 
-1.2881 n e x 
-1.3364 n e y 
-0.8606 n f a 
-0.9467 n f e 
-0.8144 n f i 
-0.9970 n f l 
-0.5477 n f o 
-0.9467 n f r 
-1.0540 n f u 
-0.9493 n g a 
-1.6082 n g b 
-1.5785 n g c 
-1.6021 n g d 
-1.0629 n g e 
-1.5842 n g f 
-2.0851 n g g 
-1.4586 n g h 
-1.1271 n g i 
-2.9099 n g j 
-2.9099 n g k 
-1.3181 n g l 
-1.4131 n g m 
-1.9444 n g n 
-1.1676 n g o 
-1.8279 n g p 
-3.2744 n g q 
-1.4950 n g r 
-1.1353 n g s 
-0.7685 n g t 
-1.2456 n g u 
-2.2945 n g v 
-1.2818 n g w 
-2.4345 n g y 
-0.5744 n h a 
-0.6556 n h e 
-0.5662 n h i 
-0.7556 n h o 
-1.2262 n h u 
-1.7150 n i a 
-2.3799 n i b 
-1.1604 n i c 
-1.8097 n i d 
-1.9310 n i e 
-1.3259 n i f 
-1.3190 n i g 
-1.8783 n i h 
-2.7203 n i i 
-2.5752 n i k 
-2.0604 n i l 
-1.2381 n i m 
-0.4789 n i n 
-1.4360 n i o 
-2.2456 n i p 
-3.4052 n i q 
-2.0604 n i r 
-0.9650 n i s 
-0.7884 n i t 
-2.5752 n i u 
-2.3799 n i v 
-1.6983 n i w 
-1.9599 n i z 
-1.6450 n j a 
-1.6450 n j e 
-0.3002 n j o 
-0.4312 n j u 
-1.4807 n k a 
-2.5060 n k b 
-2.5060 n k d 
-1.1612 n k e 
-2.5060 n k g 
-1.4807 n k h 
-0.7991 n k i 
-2.0406 n k l 
-2.0406 n k m 
-0.8701 n k n 
-0.8701 n k o 
-2.5060 n k p 
-0.7381 n k s 
-1.0607 n k t 
-1.0917 n k w 
-2.0406 n k y 
-1.0394 n l a 
-0.9006 n l e 
-1.0929 n l i 
-2.3954 n l l 
-1.5160 n l o 
-2.3954 n l u 
-0.1839 n l y 
-0.7831 n m a 
-2.6847 n m b 
-1.1834 n m e 
-1.1337 n m i 
-0.8633 n m o 
-1.5251 n m u 
-0.2891 n m y 
-1.4396 n n a 
-0.3337 n n e 
-0.9786 n n i 
-2.7016 n n k 
-0.4812 n n o 
-2.7016 n n s 
-1.3568 n n u 
-2.7016 n n y 
-2.1710 n o a 
-2.2914 n o b 
-1.7922 n o c 
-1.7308 n o d 
-2.1213 n o e 
-0.9140 n o f 
-2.5127 n o g 
-2.1213 n o h 
-1.7604 n o i 
-3.2069 n o k 
-1.8637 n o l 
-1.3740 n o m 
-1.2937 n o n 
-2.1981 n o o 
-2.0364 n o p 
-3.6723 n o q 
-1.0377 n o r 
-1.9044 n o s 
-0.4792 n o t 
-1.1889 n o u 
-2.2580 n o v 
-0.7985 n o w 
-2.5127 n o y 
-0.8735 n p a 
-0.9335 n p e 
-1.8824 n p h 
-1.1882 n p i 
-0.9335 n p l 
-0.6749 n p o 
-0.5659 n p r 
-1.5178 n p u 
-2.3478 n p y 
-0.0060 n q u 
-0.8959 n r a 
-0.2595 n r e 
-1.5673 n r i 
-0.8704 n r o 
-1.5673 n r u 
-0.9520 n r y 
-1.0454 n s a 
-1.7473 n s b 
-1.6013 n s c 
-2.0893 n s d 
-0.9924 n s e 
-1.8344 n s f 
-2.3727 n s g 
-1.3147 n s h 
-0.8357 n s i 
-2.7854 n s j 
-3.4703 n s k 
-1.7318 n s l 
-1.9434 n s m 
-2.0893 n s n 
-0.8980 n s o 
-1.6127 n s p 
-2.1649 n s r 
-1.8344 n s s 
-0.7048 n s t 
-1.3979 n s u 
-2.5317 n s v 
-1.0882 n s w 
-2.6403 n s y 
-1.2098 n t a 
-2.3546 n t b 
-2.2267 n t c 
-2.0860 n t d 
-0.9406 n t e 
-2.0124 n t f 
-2.4361 n t g 
-0.4911 n t h 
-1.0647 n t i 
-3.4161 n t j 
-3.4161 n t k 
-1.5626 n t l 
-1.9695 n t m 
-2.5761 n t n 
-0.8336 n t o 
-2.2086 n t p 
-2.6195 n t q 
-1.4148 n t r 
-1.2188 n t s 
-1.5916 n t t 
-1.6763 n t u 
-2.7838 n t v 
-1.6560 n t w 
-1.8616 n t y 
-1.4817 n u a 
-0.7148 n u e 
-2.7871 n u f 
-1.6895 n u i 
-0.9533 n u m 
-0.8961 n u n 
-1.9571 n u o 
-1.0969 n u p 
-2.7871 n u r 
-0.6200 n u s 
-0.7835 n u t 
-0.8201 n v a 
-0.4337 n v e 
-0.5601 n v i 
-0.8670 n v o 
-1.3686 n v u 
-2.3939 n v y 
-0.6593 n w a 
-0.6984 n w e 
-0.4317 n w h 
-0.8241 n w i 
-1.3259 n w o 
-2.1319 n w r 
-0.0091 n x i 
-1.1696 n y a 
-1.8472 n y b 
-1.3714 n y c 
-1.5719 n y d 
-1.3714 n y e 
-1.5238 n y f 
-2.7857 n y g 
-1.3404 n y h 
-1.4048 n y i 
-1.4804 n y l 
-1.2589 n y m 
-1.9558 n y n 
-0.7502 n y o 
-1.2119 n y p 
-1.4409 n y r 
-1.2119 n y s 
-0.8165 n y t 
-1.7604 n y u 
-2.7857 n y v 
-1.3404 n y w 
-2.3203 n y y 
-0.7604 n z a 
-0.7604 n z e 
-0.7604 n z i 
-1.8488 o a b 
-1.0574 o a c 
-0.8192 o a d 
-2.0699 o a f 
-2.3236 o a g 
-1.7464 o a h 
-1.9831 o a k 
-0.9966 o a l 
-1.5631 o a m 
-0.8646 o a n 
-1.6636 o a p 
-3.0084 o a q 
-0.9504 o a r 
-0.9504 o a s 
-0.8192 o a t 
-3.0084 o a u 
-1.7464 o a v 
-2.5430 o a w 
-2.5430 o a x 
-1.0217 o b a 
-2.2687 o b b 
-0.2561 o b e 
-2.9535 o b h 
-1.9282 o b i 
-1.3581 o b j 
-1.4793 o b l 
-1.9282 o b o 
-1.7398 o b r 
-0.8473 o b s 
-1.8559 o b t 
-1.3374 o b u 
-2.9535 o b v 
-2.1236 o b y 
-1.3251 o c a 
-1.1769 o c c 
-0.9171 o c e 
-1.3555 o c h 
-1.5772 o c i 
-0.4382 o c k 
-1.0354 o c l 
-0.8197 o c o 
-1.5772 o c r 
-1.8647 o c t 
-1.4237 o c u 
-1.2647 o d a 
-1.7413 o d b 
-2.1476 o d c 
-1.4906 o d d 
-0.8508 o d e 
-1.7051 o d f 
-1.7051 o d h 
-0.6805 o d i 
-3.0861 o d j 
-2.2561 o d l 
-1.9885 o d m 
-2.4012 o d n 
-0.6972 o d o 
-2.0608 o d p 
-1.5847 o d r 
-1.3326 o d s 
-1.5592 o d t 
-1.1845 o d u 
-1.5847 o d w 
-1.2059 o d y 
-1.0659 o e a 
-2.5112 o e b 
-2.5112 o e c 
-2.5112 o e d 
-2.0458 o e f 
-1.5727 o e i 
-2.0458 o e l 
-1.8263 o e m 
-0.8753 o e n 
-1.8263 o e r 
-0.4319 o e s 
-1.8263 o e t 
-2.5112 o e u 
-1.4136 o e v 
-2.5112 o e w 
-0.6653 o e x 
-2.5112 o e y 
-1.0393 o f a 
-1.8361 o f b 
-1.5407 o f c 
-1.7489 o f d 
-1.1043 o f e 
-1.4258 o f f 
-1.7370 o f g 
-1.4316 o f h 
-1.4258 o f i 
-2.3853 o f j 
-2.8614 o f k 
-1.6098 o f l 
-1.2863 o f m 
-1.9647 o f n 
-1.3373 o f o 
-1.6975 o f p 
-1.6466 o f r 
-1.2097 o f s 
-0.4833 o f t 
-2.0653 o f u 
-1.9748 o f v 
-1.3819 o f w 
-2.4724 o f y 
-1.5567 o g a 
-0.7210 o g e 
-2.0314 o g g 
-2.2509 o g h 
-0.5909 o g i 
-1.6910 o g l 
-2.0314 o g m 
-1.3020 o g n 
-0.8825 o g o 
-0.7382 o g r 
-2.7163 o g s 
-2.2509 o g t 
-1.6187 o g u 
-2.7163 o g w 
-1.2421 o g y 
-0.4610 o h a 
-0.9045 o h e 
-0.5427 o h i 
-2.6864 o h m 
-0.9635 o h o 
-2.6864 o h t 
-0.9962 o h u 
-2.2210 o h w 
-2.2210 o h y 
-2.5037 o i a 
-2.9690 o i b 
-0.9572 o i c 
-1.2461 o i d 
-2.1391 o i f 
-2.9690 o i g 
-2.9690 o i h 
-0.7798 o i l 
-1.8714 o i m 
-0.3403 o i n 
-1.7553 o i r 
-1.1232 o i s 
-1.1736 o i t 
-2.0305 o i w 
-0.0925 o j e 
-1.8744 o j o 
-0.8491 o j u 
-1.0686 o k a 
-2.2175 o k b 
-1.6886 o k c 
-1.9639 o k d 
-0.3650 o k e 
-1.8771 o k f 
-1.3069 o k h 
-1.0938 o k i 
-1.9639 o k l 
-1.8771 o k m 
-1.2862 o k n 
-1.5576 o k o 
-1.4881 o k p 
-2.9024 o k r 
-1.4011 o k s 
-1.5215 o k t 
-1.3069 o k u 
-1.6886 o k w 
-2.4370 o k y 
-1.4751 o l a 
-2.4538 o l b 
-1.2114 o l c 
-0.9017 o l d 
-0.6570 o l e 
-2.8184 o l f 
-3.2837 o l h 
-1.0735 o l i 
-3.2837 o l k 
-0.6751 o l l 
-3.2837 o l m 
-2.2584 o l n 
-0.8814 o l o 
-1.8694 o l s 
-2.0218 o l t 
-1.1583 o l u 
-1.9028 o l v 
-2.1861 o l y 
-1.2166 o m a 
-1.5401 o m b 
-2.7055 o m c 
-2.7055 o m d 
-0.3975 o m e 
-2.0901 o m f 
-2.8506 o m g 
-1.7535 o m h 
-1.3150 o m i 
-3.5354 o m j 
-2.3759 o m l 
-1.3462 o m m 
-2.8506 o m n 
-1.3051 o m o 
-0.9288 o m p 
-3.5354 o m q 
-2.3216 o m r 
-1.6339 o m s 
-1.1331 o m t 
-1.7140 o m u 
-3.0700 o m v 
-1.7970 o m w 
-1.1675 o m y 
-1.2210 o n a 
-1.7304 o n b 
-1.3399 o n c 
-1.4063 o n d 
-0.8420 o n e 
-1.6679 o n f 
-1.1941 o n g 
-1.6536 o n h 
-1.2210 o n i 
-2.9646 o n j 
-2.7436 o n k 
-1.4116 o n l 
-1.7969 o n m 
-2.0121 o n n 
-1.0522 o n o 
-2.3076 o n p 
-3.0732 o n q 
-2.4888 o n r 
-0.9051 o n s 
-0.7756 o n t 
-2.3076 o n u 
-1.9250 o n v 
-1.3855 o n w 
-2.1802 o n y 
-3.9031 o n z 
-3.2601 o o a 
-1.8458 o o b 
-3.2601 o o c 
-0.6923 o o d 
-3.2601 o o e 
-1.2170 o o f 
-2.5753 o o g 
-2.5753 o o h 
-3.2601 o o i 
-0.5227 o o k 
-1.3381 o o l 
-1.2170 o o m 
-0.8746 o o n 
-3.2601 o o o 
-1.8458 o o p 
-1.3911 o o r 
-1.9981 o o s 
-1.3482 o o t 
-1.3911 o o u 
-2.2348 o o v 
-2.1625 o o w 
-1.1356 o p a 
-0.3666 o p e 
-1.3086 o p h 
-1.1600 o p i 
-1.2135 o p l 
-2.2966 o p m 
-1.0695 o p o 
-1.1124 o p p 
-1.1995 o p r 
-1.6366 o p s 
-1.7194 o p t 
-1.5671 o p u 
-2.2966 o p w 
-0.0268 o q u 
-1.2525 o r a 
-1.9132 o r b 
-1.7390 o r c 
-1.0030 o r d 
-0.6932 o r e 
-2.0087 o r f 
-1.8627 o r g 
-1.5641 o r h 
-1.2231 o r i 
-3.8042 o r j 
-1.6979 o r k 
-1.6604 o r l 
-1.1397 o r m 
-1.5991 o r n 
-1.3609 o r o 
-2.1683 o r p 
-3.3388 o r q 
-1.4222 o r r 
-1.3020 o r s 
-0.8044 o r t 
-2.1140 o r u 
-2.8657 o r v 
-1.5453 o r w 
-1.6043 o r y 
-1.2638 o s a 
-2.6652 o s b 
-2.1904 o s c 
-0.5917 o s e 
-1.7141 o s h 
-1.0155 o s i 
-2.0880 o s l 
-2.4115 o s m 
-2.6652 o s n 
-1.3632 o s o 
-1.2123 o s p 
-0.7689 o s s 
-0.6111 o s t 
-1.7545 o s u 
-2.2524 o s w 
-2.8846 o s y 
-1.1725 o t a 
-1.6046 o t b 
-1.8418 o t c 
-1.9693 o t d 
-1.3060 o t e 
-2.0635 o t f 
-2.1505 o t g 
-0.3156 o t h 
-1.1658 o t i 
-2.4672 o t k 
-1.7969 o t l 
-1.7693 o t m 
-2.8799 o t n 
-1.4151 o t o 
-2.0635 o t p 
-2.8799 o t q 
-1.7969 o t r 
-1.3921 o t s 
-1.0814 o t t 
-1.9486 o t u 
-2.6263 o t v 
-1.6958 o t w 
-3.0994 o t y 
-1.9638 o u a 
-1.5593 o u b 
-2.0252 o u c 
-1.7326 o u d 
-2.8077 o u e 
-3.2205 o u f 
-1.1041 o u g 
-2.1984 o u h 
-2.6433 o u i 
-2.7457 o u k 
-0.8493 o u l 
-2.2506 o u m 
-0.9148 o u n 
-2.8800 o u o 
-2.2325 o u p 
-3.9053 o u q 
-0.6270 o u r 
-0.7988 o u s 
-0.7995 o u t 
-3.0754 o u u 
-3.9053 o u v 
-2.0363 o u w 
-1.6175 o v a 
-0.0500 o v e 
-1.1295 o v i 
-2.1685 o v o 
-0.9673 o w a 
-1.5971 o w b 
-1.8225 o w c 
-1.6686 o w d 
-0.6631 o w e 
-1.9759 o w f 
-2.3797 o w g 
-1.1789 o w h 
-1.1466 o w i 
-3.4773 o w j 
-2.7924 o w k 
-1.5454 o w l 
-1.7238 o w m 
-0.7132 o w n 
-1.4736 o w o 
-2.2153 o w p 
-2.7924 o w q 
-2.0320 o w r 
-1.3335 o w s 
-1.1505 o w t 
-2.1719 o w u 
-3.0119 o w v 
-1.5357 o w w 
-2.2635 o w y 
-3.4773 o w z 
-0.4341 o x e 
-0.4341 o x i 
-1.4594 o x m 
-1.4594 o x o 
-1.4594 o x y 
-0.7099 o y a 
-1.9369 o y b 
-1.7918 o y c 
-2.6218 o y d 
-1.1765 o y e 
-2.6218 o y g 
-1.2408 o y h 
-0.9149 o y i 
-2.1564 o y m 
-2.6218 o y n 
-0.4840 o y o 
-2.6218 o y r 
-1.2770 o y s 
-1.5965 o y t 
-2.6218 o y u 
-2.6218 o y v 
-1.3598 o y w 
-1.6832 o y y 
-0.0213 o z e 
-1.8507 p a b 
-1.3606 p a c 
-2.6907 p a d 
-2.3261 p a g 
-3.1560 p a h 
-1.1362 p a i 
-1.3223 p a l 
-3.1560 p a m 
-0.9065 p a n 
-2.0584 p a p 
-2.2175 p a q 
-0.4586 p a r 
-0.6645 p a s 
-1.1442 p a t 
-1.7417 p a u 
-2.6907 p a v 
-3.1560 p a w 
-2.2175 p a y 
-0.5752 p b e 
-0.6838 p b o 
-0.8289 p b u 
-0.5752 p b y 
-0.4240 p c a 
-0.6776 p c h 
-0.6776 p c o 
-1.3625 p c u 
-0.7210 p d e 
-1.1864 p d i 
-0.3564 p d o 
-1.1864 p d u 
-0.6669 p e a 
-2.7210 p e b 
-0.9308 p e c 
-1.1379 p e d 
-1.8790 p e e 
-1.6674 p e f 
-2.4673 p e g 
-3.4058 p e h 
-1.9606 p e i 
-1.5368 p e l 
-2.4673 p e m 
-0.9280 p e n 
-1.5368 p e o 
-2.5759 p e p 
-0.5514 p e r 
-1.4838 p e s 
-1.5257 p e t 
-3.4058 p e u 
-2.7210 p e v 
-2.2463 p e w 
-3.4058 p e x 
-2.9405 p e y 
-0.7446 p f a 
-1.4294 p f e 
-0.7446 p f o 
-0.3318 p f r 
-0.8854 p g a 
-0.8854 p g o 
-0.8854 p g r 
-0.8854 p g u 
-0.9943 p h a 
-0.2886 p h e 
-2.6671 p h h 
-0.7256 p h i 
-1.7286 p h l 
-1.8372 p h o 
-1.1658 p h r 
-2.6671 p h s 
-1.9823 p h t 
-1.8372 p h u 
-1.3618 p h y 
-2.1850 p i a 
-2.8699 p i b 
-0.9189 p i c 
-0.8047 p i d 
-1.0361 p i e 
-2.1850 p i f 
-2.8699 p i g 
-1.9314 p i h 
-2.8699 p i i 
-2.8699 p i k 
-1.1630 p i l 
-2.1850 p i m 
-0.6157 p i n 
-2.1850 p i o 
-2.4045 p i p 
-1.4556 p i r 
-1.7723 p i s 
-0.7261 p i t 
-2.0399 p i w 
-0.2833 p j u 
-0.4066 p l a 
-0.6437 p l e 
-0.8306 p l i 
-1.2736 p l o 
-1.5806 p l u 
-0.8262 p l y 
-0.8151 p m e 
-1.6450 p m o 
-0.1182 p m y 
-0.5169 p n e 
-0.2974 p n o 
-1.9266 p o c 
-2.3329 p o d 
-2.5866 p o e 
-1.5180 p o f 
-1.0560 p o i 
-1.4256 p o k 
-1.5330 p o l 
-2.8060 p o m 
-0.6407 p o n 
-1.7972 p o o 
-2.4415 p o p 
-0.7963 p o r 
-0.5591 p o s 
-1.5645 p o t 
-1.5330 p o u 
-3.2714 p o v 
-1.3494 p o w 
-1.3034 p p a 
-0.2459 p p e 
-1.3627 p p i 
-1.2352 p p l 
-0.8519 p p o 
-1.0167 p p r 
-1.4313 p p y 
-1.7837 p r a 
-0.5167 p r e 
-0.8996 p r i 
-0.2705 p r o 
-1.8397 p r u 
-0.9227 p s a 
-1.7888 p s b 
-1.7888 p s c 
-2.4736 p s d 
-0.6782 p s e 
-1.3760 p s f 
-1.3141 p s h 
-1.0283 p s i 
-2.0083 p s l 
-2.0083 p s m 
-2.4736 p s n 
-0.7834 p s o 
-2.4736 p s p 
-2.4736 p s s 
-0.9723 p s t 
-1.6437 p s u 
-1.1683 p s w 
-2.4736 p s y 
-1.1419 p t a 
-2.8148 p t b 
-1.9848 p t c 
-0.7496 p t e 
-2.1299 p t f 
-2.8148 p t g 
-0.6477 p t h 
-0.6149 p t i 
-2.1299 p t m 
-2.8148 p t n 
-1.1246 p t o 
-2.8148 p t p 
-1.9848 p t r 
-1.7172 p t s 
-1.3134 p t t 
-1.4005 p t u 
-2.3494 p t v 
-1.7895 p t w 
-1.9848 p t y 
-1.0062 p u b 
-2.3871 p u d 
-0.8361 p u l 
-1.7023 p u m 
-1.7023 p u n 
-1.4486 p u p 
-0.8133 p u r 
-1.3618 p u s 
-0.4269 p u t 
-1.1733 p u z 
-0.4200 p v a 
-0.8854 p v e 
-0.8854 p v o 
-0.2357 p w a 
-0.9020 p w e 
-1.6504 p w h 
-0.7710 p w i 
-2.1158 p w o 
-1.2859 p w r 
-1.0898 p y a 
-0.9447 p y c 
-1.7747 p y d 
-1.7747 p y e 
-1.7747 p y f 
-0.9447 p y o 
-1.3093 p y p 
-0.8361 p y r 
-0.7494 p y s 
-1.3093 p y t 
-1.7747 p y u 
-1.7747 p y w 
-0.2833 p z i 
-0.2833 q e d 
-0.6935 q u a 
-0.5664 q u e 
-0.2892 q u i 
-2.3778 q u o 
-2.8432 q u y 
-1.3396 r a b 
-1.2228 r a c 
-1.6133 r a d 
-1.2868 r a f 
-1.4098 r a g 
-2.4113 r a h 
-1.4253 r a i 
-2.5998 r a k 
-1.0083 r a l 
-1.6470 r a m 
-0.6628 r a n 
-1.6384 r a o 
-1.3310 r a p 
-1.5255 r a r 
-1.3483 r a s 
-0.7742 r a t 
-2.5998 r a u 
-1.3997 r a v 
-1.6384 r a w 
-1.8432 r a y 
-3.1597 r a z 
-0.8102 r b a 
-0.4819 r b e 
-2.6316 r b f 
-2.6316 r b h 
-1.5340 r b i 
-1.9468 r b l 
-2.1662 r b m 
-0.8361 r b o 
-2.6316 r b p 
-1.2507 r b r 
-2.6316 r b s 
-2.6316 r b t 
-0.8102 r b u 
-1.1574 r b y 
-0.9387 r c a 
-0.5313 r c e 
-0.7014 r c h 
-1.5025 r c i 
-1.5720 r c l 
-0.7730 r c o 
-1.3658 r c r 
-2.9168 r c s 
-2.2319 r c t 
-1.0152 r c u 
-2.2319 r c y 
-1.0529 r d a 
-1.8864 r d b 
-2.1336 r d c 
-2.2059 r d d 
-0.7820 r d e 
-1.8169 r d f 
-2.7658 r d g 
-1.9259 r d h 
-0.7265 r d i 
-2.7658 r d j 
-2.0717 r d l 
-1.9259 r d m 
-2.1336 r d n 
-1.1881 r d o 
-2.7658 r d p 
-3.2312 r d q 
-1.8503 r d r 
-0.6772 r d s 
-1.2994 r d t 
-1.5953 r d u 
-2.7658 r d v 
-1.0641 r d w 
-2.2059 r d y 
-0.7243 r e a 
-1.9313 r e b 
-1.2194 r e c 
-0.9419 r e d 
-1.3576 r e e 
-1.4224 r e f 
-1.6888 r e g 
-1.8365 r e h 
-1.3888 r e i 
-2.7690 r e j 
-3.3462 r e k 
-1.7768 r e l 
-1.2936 r e m 
-1.3489 r e n 
-1.6595 r e o 
-1.3888 r e p 
-2.2224 r e q 
-1.8994 r e r 
-0.9772 r e s 
-1.1198 r e t 
-2.1620 r e u 
-1.7815 r e v 
-1.3471 r e w 
-2.2224 r e x 
-1.8639 r e y 
-0.7447 r f a 
-2.8444 r f c 
-0.6606 r f e 
-1.5824 r f f 
-2.8444 r f h 
-1.1716 r f i 
-2.8444 r f j 
-1.5391 r f l 
-0.9029 r f o 
-2.8444 r f p 
-1.1059 r f r 
-2.8444 r f s 
-2.8444 r f t 
-0.6044 r f u 
-0.9729 r g a 
-2.6277 r g b 
-0.5280 r g e 
-2.6277 r g f 
-2.6277 r g g 
-1.2468 r g i 
-1.6024 r g l 
-2.6277 r g n 
-0.7701 r g o 
-0.9729 r g r 
-2.1623 r g s 
-1.6024 r g t 
-0.9729 r g u 
-1.7977 r g w 
-1.3657 r g y 
-0.3261 r h a 
-0.6511 r h e 
-1.0103 r h i 
-2.8562 r h m 
-0.8781 r h o 
-1.2014 r h u 
-2.8562 r h y 
-1.5675 r i a 
-1.2724 r i b 
-1.2280 r i c 
-1.5307 r i d 
-0.7556 r i e 
-1.7816 r i f 
-1.3089 r i g 
-2.1288 r i h 
-3.6030 r i i 
-1.9483 r i k 
-1.6163 r i l 
-1.7816 r i m 
-0.7182 r i n 
-1.0111 r i o 
-2.0521 r i p 
-2.4435 r i r 
-1.0154 r i s 
-1.1845 r i t 
-2.0521 r i u 
-1.6163 r i v 
-2.1288 r i w 
-2.7731 r i x 
-3.6030 r i y 
-1.7229 r i z 
-1.1161 r j a 
-1.4807 r j e 
-0.1123 r j o 
-1.9461 r j s 
-1.2612 r j u 
-0.8011 r k a 
-1.8170 r k b 
-1.4873 r k c 
-2.6469 r k d 
-0.7893 r k e 
-2.6469 r k f 
-2.6469 r k g 
-1.5493 r k h 
-1.0960 r k i 
-2.1815 r k j 
-1.3849 r k l 
-1.7084 r k m 
-0.8935 r k n 
-1.2326 r k o 
-2.6469 r k p 
-2.6469 r k r 
-0.9741 r k s 
-1.2016 r k t 
-2.1815 r k u 
-1.4873 r k w 
-2.1815 r k y 
-0.9684 r l a 
-0.8030 r l d 
-1.0829 r l e 
-1.0079 r l i 
-2.7898 r l l 
-1.3445 r l o 
-2.7898 r l p 
-1.7645 r l u 
-2.1050 r l w 
-0.3318 r l y 
-0.7517 r m a 
-2.1280 r m b 
-2.1280 r m c 
-2.6011 r m d 
-0.7397 r m e 
-3.0665 r m f 
-2.2365 r m h 
-0.8411 r m i 
-1.9069 r m l 
-2.2365 r m m 
-0.7682 r m o 
-2.3816 r m p 
-3.0665 r m r 
-1.0797 r m s 
-1.6856 r m t 
-1.5652 r m u 
-1.9689 r m w 
-0.9109 r m y 
-0.9687 r n a 
-1.8953 r n b 
-2.3700 r n c 
-2.5895 r n d 
-0.3762 r n e 
-2.0296 r n f 
-1.8953 r n h 
-0.8711 r n i 
-3.0549 r n j 
-2.1164 r n l 
-2.0296 r n m 
-3.0549 r n n 
-0.9052 r n o 
-2.0296 r n p 
-2.0296 r n r 
-1.3480 r n s 
-1.3821 r n t 
-1.9573 r n u 
-2.5895 r n v 
-1.7929 r n w 
-3.0549 r n y 
-1.3402 r o a 
-1.7760 r o b 
-1.1223 r o c 
-1.6017 r o d 
-2.9821 r o e 
-0.7074 r o f 
-1.8990 r o g 
-3.2016 r o h 
-2.6416 r o i 
-1.8850 r o j 
-2.0122 r o k 
-1.8850 r o l 
-0.8219 r o m 
-1.2849 r o n 
-1.5807 r o o 
-1.4887 r o p 
-1.6717 r o r 
-1.4887 r o s 
-1.9440 r o t 
-0.7416 r o u 
-1.6090 r o v 
-1.3363 r o w 
-2.7284 r o x 
-2.6416 r o y 
-2.9821 r o z 
-0.8643 r p a 
-0.7840 r p e 
-1.6792 r p h 
-1.7878 r p i 
-1.3558 r p l 
-0.8793 r p o 
-0.3589 r p r 
-2.1524 r p s 
-2.6178 r p t 
-1.9329 r p u 
-2.6178 r p w 
-0.0268 r q u 
-0.8708 r r a 
-0.6138 r r e 
-0.5324 r r i 
-3.0600 r r n 
-0.8012 r r o 
-1.6457 r r u 
-0.8497 r r y 
-1.0252 r s a 
-1.8698 r s b 
-1.7081 r s c 
-2.4055 r s d 
-0.7607 r s e 
-2.0820 r s f 
-2.4055 r s g 
-1.2788 r s h 
-1.2249 r s i 
-3.3440 r s j 
-2.5141 r s k 
-1.7278 r s l 
-1.6712 r s m 
-2.2464 r s n 
-0.8978 r s o 
-1.4864 r s p 
-2.4055 r s r 
-1.7930 r s s 
-0.6285 r s t 
-1.3931 r s u 
-2.5141 r s v 
-1.2717 r s w 
-3.3440 r s y 
-0.9134 r t a 
-2.2918 r t b 
-3.0884 r t c 
-2.8689 r t d 
-1.2725 r t e 
-2.5284 r t f 
-2.2918 r t g 
-0.3444 r t h 
-1.1135 r t i 
-1.8809 r t l 
-2.2918 r t m 
-3.0884 r t n 
-0.9329 r t o 
-3.0884 r t p 
-2.0028 r t r 
-1.7858 r t s 
-2.0028 r t t 
-1.2813 r t u 
-1.7079 r t w 
-1.5501 r t y 
-2.8689 r t z 
-1.5037 r u b 
-1.1693 r u c 
-1.4041 r u d 
-1.2394 r u e 
-1.1565 r u g 
-1.7159 r u h 
-1.4511 r u i 
-1.3824 r u l 
-1.1565 r u m 
-0.8223 r u n 
-0.9661 r u p 
-2.9779 r u r 
-0.6472 r u s 
-1.1565 r u t 
-0.5715 r v a 
-0.2682 r v e 
-1.1225 r v i 
-1.0021 r v o 
-2.5034 r v y 
-0.5119 r w a 
-0.6636 r w e 
-0.5832 r w h 
-0.9621 r w i 
-1.0481 r w o 
-2.2091 r w r 
-2.8940 r w t 
-1.0687 r y a 
-1.4653 r y b 
-1.4905 r y c 
-1.4301 r y d 
-1.4653 r y e 
-1.5312 r y f 
-1.7253 r y g 
-1.3576 r y h 
-1.0888 r y i 
-2.3606 r y j 
-2.8337 r y k 
-1.4415 r y l 
-1.1435 r y m 
-1.6829 r y n 
-1.0179 r y o 
-1.2411 r y p 
-2.2738 r y q 
-1.5761 r y r 
-1.0495 r y s 
-0.9883 r y t 
-2.0853 r y u 
-2.0853 r y v 
-1.2268 r y w 
-2.3606 r y y 
-3.6094 s a a 
-1.3069 s a b 
-1.7293 s a c 
-1.7404 s a d 
-3.1440 s a e 
-1.5663 s a f 
-1.6058 s a g 
-2.0356 s a h 
-0.9360 s a i 
-2.9246 s a j 
-1.6585 s a k 
-1.1723 s a l 
-1.4481 s a m 
-0.5714 s a n 
-3.6094 s a o 
-1.4367 s a p 
-2.9246 s a q 
-1.2451 s a r 
-1.2749 s a s 
-1.0818 s a t 
-2.0356 s a u 
-1.7185 s a v 
-1.4717 s a w 
-1.3646 s a y 
-1.1396 s b a 
-0.4548 s b e 
-1.4851 s b i 
-2.8298 s b j 
-1.6703 s b l 
-1.1570 s b o 
-1.0479 s b r 
-0.6406 s b u 
-0.9179 s b y 
-0.6426 s c a 
-3.2302 s c c 
-0.7870 s c e 
-1.2184 s c h 
-1.1871 s c i 
-1.6141 s c l 
-0.5052 s c o 
-1.0925 s c r 
-1.2350 s c u 
-2.7649 s c y 
-1.0141 s d a 
-0.4842 s d e 
-0.5034 s d i 
-0.8142 s d o 
-1.3477 s d r 
-1.3043 s d u 
-1.0073 s e a 
-2.1273 s e b 
-1.6101 s e c 
-0.9530 s e d 
-1.0009 s e e 
-1.8538 s e f 
-2.5090 s e g 
-1.9142 s e h 
-1.5229 s e i 
-3.7228 s e j 
-3.0379 s e k 
-0.9061 s e l 
-1.4121 s e m 
-1.0902 s e n 
-1.4594 s e o 
-1.9014 s e p 
-2.1066 s e q 
-1.1641 s e r 
-1.2077 s e s 
-1.2766 s e t 
-2.3085 s e u 
-1.4416 s e v 
-1.4203 s e w 
-1.7275 s e x 
-1.8769 s e y 
-0.6142 s f a 
-1.1327 s f e 
-0.8443 s f i 
-1.3383 s f l 
-0.5330 s f o 
-0.7965 s f r 
-1.6258 s f u 
-2.1548 s f y 
-0.8167 s g a 
-1.0457 s g e 
-2.3905 s g h 
-1.3652 s g i 
-1.0096 s g l 
-2.3905 s g n 
-0.6836 s g o 
-0.5104 s g r 
-2.3905 s g t 
-1.3652 s g u 
-2.3905 s g y 
-0.5660 s h a 
-2.0698 s h b 
-2.3170 s h c 
-2.9492 s h d 
-0.6201 s h e 
-2.1092 s h f 
-3.4146 s h g 
-2.0698 s h h 
-1.0539 s h i 
-3.4146 s h j 
-2.7298 s h k 
-2.5847 s h l 
-1.6327 s h m 
-2.9492 s h n 
-0.5878 s h o 
-3.4146 s h p 
-3.4146 s h q 
-1.8636 s h r 
-2.4761 s h s 
-1.7787 s h t 
-1.6467 s h u 
-3.4146 s h v 
-1.8877 s h w 
-2.5847 s h y 
-1.6433 s i a 
-1.1868 s i b 
-1.6102 s i c 
-1.0926 s i d 
-2.2491 s i e 
-1.4863 s i f 
-1.3532 s i g 
-1.8087 s i h 
-3.6300 s i j 
-2.9452 s i k 
-1.3359 s i l 
-1.2693 s i m 
-0.6534 s i n 
-1.0645 s i o 
-2.3681 s i p 
-3.1647 s i q 
-1.5945 s i r 
-1.2245 s i s 
-0.8210 s i t 
-2.8001 s i u 
-1.8346 s i v 
-2.0791 s i w 
-1.6102 s i x 
-2.4163 s i z 
-0.9848 s j a 
-1.3494 s j e 
-0.3695 s j o 
-0.4338 s j u 
-1.5121 s k a 
-0.4904 s k e 
-0.6972 s k i 
-1.6207 s k m 
-1.1453 s k n 
-1.3530 s k o 
-1.9852 s k r 
-1.5121 s k s 
-1.9852 s k t 
-1.3530 s k u 
-1.5121 s k w 
-0.8551 s k y 
-0.6865 s l a 
-0.7307 s l e 
-0.5926 s l i 
-0.6241 s l o 
-1.6401 s l u 
-1.0629 s l y 
-0.6122 s m a 
-2.9943 s m b 
-2.9943 s m c 
-1.1484 s m e 
-2.5289 s m f 
-2.9943 s m g 
-2.5289 s m h 
-0.9291 s m i 
-2.9943 s m l 
-2.5289 s m m 
-0.6835 s m o 
-2.1643 s m s 
-2.5289 s m t 
-1.2264 s m u 
-1.9690 s m w 
-0.5986 s m y 
-1.1997 s n a 
-0.5495 s n e 
-1.7470 s n i 
-0.2024 s n o 
-2.9066 s n u 
-2.9066 s n y 
-2.0209 s o a 
-1.9338 s o b 
-1.9666 s o c 
-2.3948 s o d 
-2.3948 s o e 
-0.4695 s o f 
-2.3948 s o g 
-2.2758 s o h 
-1.5571 s o i 
-1.3146 s o l 
-0.8375 s o m 
-0.9746 s o n 
-1.4264 s o o 
-2.0613 s o p 
-3.1914 s o q 
-0.9429 s o r 
-2.2425 s o s 
-1.9033 s o t 
-1.1193 s o u 
-2.0830 s o v 
-1.8481 s o w 
-2.7182 s o y 
-0.8686 s p a 
-0.5228 s p e 
-1.1889 s p h 
-0.9999 s p i 
-1.2351 s p l 
-0.7815 s p o 
-0.8402 s p r 
-3.1670 s p t 
-1.5932 s p u 
-0.0039 s q u 
-0.8017 s r a 
-0.2963 s r e 
-0.9390 s r i 
-0.8167 s r o 
-2.0898 s r s 
-1.3414 s r u 
-1.0153 s s a 
-2.1669 s s b 
-1.7660 s s c 
-2.2031 s s d 
-0.8059 s s e 
-2.1669 s s f 
-2.7179 s s g 
-1.5443 s s h 
-0.7199 s s i 
-2.8630 s s j 
-2.8630 s s k 
-1.9317 s s l 
-2.1336 s s m 
-2.2031 s s n 
-0.6876 s s o 
-1.5611 s s p 
-3.5479 s s q 
-2.4503 s s r 
-2.0737 s s s 
-0.9915 s s t 
-1.0957 s s u 
-2.8630 s s v 
-1.6789 s s w 
-2.2859 s s y 
-0.8617 s t a 
-1.8737 s t b 
-1.8737 s t c 
-2.0442 s t d 
-1.0141 s t e 
-1.9462 s t f 
-2.3288 s t g 
-0.7306 s t h 
-0.9512 s t i 
-3.2394 s t j 
-2.9858 s t k 
-1.9290 s t l 
-1.9206 s t m 
-2.2695 s t n 
-0.7645 s t o 
-2.0442 s t p 
-3.0943 s t q 
-1.0460 s t r 
-1.6564 s t s 
-1.4721 s t t 
-1.5672 s t u 
-2.7105 s t v 
-1.6609 s t w 
-2.3733 s t y 
-1.5760 s u a 
-1.1512 s u b 
-0.8974 s u c 
-1.1332 s u d 
-2.4529 s u e 
-1.2630 s u f 
-2.0691 s u g 
-2.4529 s u i 
-1.3919 s u l 
-1.1215 s u m 
-1.1158 s u n 
-0.8906 s u p 
-0.6112 s u r 
-1.3813 s u s 
-1.7560 s u t 
-0.7486 s v a 
-0.2536 s v e 
-1.0633 s v i 
-0.8085 s v o 
-0.8035 s w a 
-0.4141 s w e 
-0.6055 s w h 
-0.8861 s w i 
-1.2005 s w o 
-1.8835 s w r 
-1.2791 s y a 
-0.4648 s y e 
-2.3767 s y g 
-2.3767 s y h 
-1.5468 s y i 
-1.6919 s y l 
-1.6919 s y m 
-0.4857 s y o 
-2.3767 s y p 
-2.3767 s y r 
-1.1147 s y s 
-1.5468 s y t 
-1.9113 s y u 
-2.3767 s y v 
-1.9113 s y w 
-0.2833 s z p 
-3.1556 t a a 
-1.2903 t a b 
-1.4005 t a c 
-2.0048 t a d 
-3.6210 t a e 
-1.9481 t a f 
-1.6990 t a g 
-2.2762 t a h 
-0.9476 t a i 
-3.1556 t a j 
-1.0646 t a k 
-1.0002 t a l 
-1.7408 t a m 
-0.6113 t a n 
-2.4614 t a o 
-1.4427 t a p 
-2.6824 t a q 
-1.1267 t a r 
-1.2287 t a s 
-0.9883 t a t 
-2.6824 t a u 
-2.3156 t a v 
-2.1196 t a w 
-3.6210 t a x 
-3.1556 t a y 
-1.1866 t b a 
-0.2303 t b e 
-1.7351 t b i 
-1.6628 t b l 
-1.4984 t b o 
-1.2862 t b r 
-0.8914 t b u 
-1.0876 t b y 
-0.8733 t c a 
-1.1788 t c e 
-0.4801 t c h 
-1.8082 t c i 
-1.4887 t c l 
-0.5107 t c o 
-1.1106 t c r 
-1.6197 t c u 
-0.7494 t d a 
-0.7303 t d e 
-0.5257 t d i 
-0.6089 t d o 
-1.3365 t d r 
-1.4675 t d u 
-1.4794 t e a 
-2.4185 t e b 
-2.0794 t e c 
-0.7160 t e d 
-1.5694 t e e 
-2.2590 t e f 
-2.8943 t e g 
-2.0943 t e h 
-1.8913 t e i 
-3.8328 t e j 
-1.4794 t e l 
-1.4305 t e m 
-1.0546 t e n 
-1.5880 t e o 
-1.8375 t e p 
-3.8328 t e q 
-0.4013 t e r 
-1.3633 t e s 
-1.7535 t e t 
-2.8075 t e u 
-1.6951 t e v 
-1.9418 t e w 
-1.8375 t e x 
-1.0087 t f a 
-0.9517 t f e 
-0.7436 t f i 
-1.5334 t f l 
-0.4704 t f o 
-0.8671 t f r 
-1.0242 t f u 
-0.9428 t g a 
-0.9823 t g e 
-1.0256 t g i 
-1.0738 t g l 
-0.5492 t g o 
-0.6329 t g r 
-1.2623 t g u 
-0.9462 t h a 
-2.5881 t h b 
-2.4726 t h c 
-2.6687 t h d 
-0.1945 t h e 
-2.3379 t h f 
-2.8402 t h g 
-2.2288 t h h 
-0.9851 t h i 
-3.3163 t h j 
-3.8762 t h k 
-2.7461 t h l 
-2.4840 t h m 
-3.0362 t h n 
-1.3606 t h o 
-2.5597 t h p 
-3.3163 t h q 
-1.7309 t h r 
-2.0560 t h s 
-1.7168 t h t 
-2.1313 t h u 
-3.3163 t h v 
-2.0560 t h w 
-2.1802 t h y 
-1.8897 t i a 
-2.0887 t i b 
-1.0820 t i c 
-2.1215 t i d 
-1.6225 t i e 
-1.5814 t i f 
-1.8798 t i g 
-1.9207 t i h 
-3.1269 t i i 
-2.8732 t i k 
-1.2417 t i l 
-1.2010 t i m 
-0.7378 t i n 
-0.5432 t i o 
-2.4308 t i p 
-2.7864 t i q 
-2.0298 t i r 
-1.0053 t i s 
-1.1733 t i t 
-3.3463 t i u 
-1.5765 t i v 
-1.9659 t i w 
-3.8117 t i y 
-1.1864 t j a 
-0.5015 t j o 
-0.3564 t j u 
-0.5659 t k e 
-0.7250 t k i 
-0.3582 t k n 
-1.6635 t k o 
-0.7543 t l a 
-0.4383 t l e 
-1.0144 t l i 
-1.3749 t l o 
-3.0651 t l s 
-3.0651 t l u 
-0.5041 t l y 
-0.6430 t m a 
-0.7857 t m e 
-1.1594 t m i 
-2.9413 t m m 
-0.7259 t m o 
-1.1199 t m u 
-0.5734 t m y 
-1.3251 t n a 
-0.7313 t n e 
-1.0105 t n i 
-0.1948 t n o 
-1.7999 t n u 
-1.3338 t o a 
-1.2459 t o b 
-1.5008 t o c 
-1.4882 t o d 
-1.7466 t o e 
-0.8714 t o f 
-1.5236 t o g 
-1.4527 t o h 
-1.8838 t o i 
-3.0893 t o j 
-2.1659 t o k 
-1.6126 t o l 
-1.1911 t o m 
-1.1288 t o n 
-1.2603 t o o 
-1.4701 t o p 
-3.2344 t o q 
-1.1743 t o r 
-1.2965 t o s 
-0.8633 t o t 
-1.4442 t o u 
-2.1514 t o v 
-1.4305 t o w 
-3.9193 t o x 
-2.3455 t o y 
-0.8261 t p a 
-0.6949 t p e 
-1.4910 t p h 
-1.4910 t p i 
-1.0710 t p l 
-0.7629 t p o 
-0.5561 t p r 
-1.6864 t p u 
-2.5163 t p y 
-0.0081 t q u 
-0.4655 t r a 
-3.3348 t r d 
-0.6082 t r e 
-3.3348 t r f 
-0.9007 t r i 
-1.0120 t r o 
-3.3348 t r r 
-0.8327 t r u 
-1.4439 t r y 
-1.0028 t s a 
-1.4553 t s b 
-1.5057 t s c 
-1.9202 t s d 
-1.0156 t s e 
-1.8270 t s f 
-2.0392 t s g 
-1.2360 t s h 
-1.0858 t s i 
-2.6163 t s j 
-2.4712 t s k 
-1.8270 t s l 
-1.6464 t s m 
-1.5333 t s n 
-0.8123 t s o 
-1.3502 t s p 
-1.8559 t s r 
-1.5057 t s s 
-0.9123 t s t 
-1.2813 t s u 
-2.2036 t s v 
-1.2734 t s w 
-3.3012 t s y 
-1.6507 t t a 
-0.7218 t t e 
-0.3235 t t h 
-1.4311 t t i 
-1.2409 t t l 
-0.7457 t t o 
-1.8579 t t r 
-2.7008 t t u 
-1.7774 t t w 
-2.4332 t t y 
-1.2198 t u a 
-2.3766 t u b 
-2.1812 t u c 
-1.2285 t u d 
-2.0470 t u e 
-2.2680 t u f 
-2.7412 t u g 
-2.7412 t u i 
-2.5217 t u l 
-1.9446 t u m 
-0.8682 t u n 
-2.3766 t u o 
-1.0452 t u p 
-0.3206 t u r 
-1.0120 t u s 
-1.6556 t u t 
-3.2065 t u u 
-0.7183 t v a 
-0.3878 t v e 
-0.8641 t v i 
-0.6427 t v o 
-0.5101 t w a 
-0.6093 t w e 
-0.8008 t w h 
-1.0061 t w i 
-0.7361 t w o 
-2.6557 t w r 
-1.0051 t y a 
-1.5740 t y b 
-1.5214 t y c 
-1.7034 t y d 
-1.3935 t y e 
-1.1572 t y f 
-2.1097 t y g 
-1.4527 t y h 
-1.3413 t y i 
-2.5828 t y j 
-1.2663 t y l 
-1.4973 t y m 
-1.8344 t y n 
-0.6662 t y o 
-1.7429 t y p 
-1.9506 t y r 
-1.3098 t y s 
-0.9105 t y t 
-1.8344 t y v 
-1.1467 t y w 
-2.5828 t y y 
-0.5169 t z a 
-0.9823 t z b 
-0.9823 t z e 
-0.9823 t z t 
-1.5370 u a b 
-2.0118 u a c 
-1.7581 u a d 
-2.2312 u a e 
-2.6966 u a f 
-1.0064 u a g 
-2.0118 u a i 
-1.7581 u a k 
-0.4663 u a l 
-2.2312 u a m 
-1.5370 u a n 
-2.2312 u a p 
-2.6966 u a q 
-0.6386 u a r 
-2.0118 u a s 
-0.8276 u a t 
-2.6966 u a v 
-2.6966 u a y 
-2.1815 u b a 
-1.1456 u b b 
-1.4331 u b e 
-1.9621 u b i 
-1.2016 u b j 
-0.6777 u b l 
-2.1815 u b m 
-2.6469 u b o 
-1.9621 u b r 
-1.3416 u b s 
-0.3047 u b t 
-1.8170 u b u 
-1.5351 u c a 
-1.0341 u c c 
-1.0109 u c e 
-0.2774 u c h 
-1.3530 u c i 
-1.0223 u c k 
-1.6661 u c o 
-1.1120 u c t 
-2.4145 u c u 
-1.1894 u d a 
-2.7163 u d b 
-1.8863 u d c 
-0.4909 u d d 
-0.6808 u d e 
-1.3353 u d g 
-2.7163 u d h 
-1.0804 u d i 
-2.2509 u d l 
-1.7778 u d n 
-1.3715 u d o 
-2.7163 u d p 
-2.2509 u d r 
-0.9933 u d s 
-2.2509 u d t 
-2.7163 u d v 
-2.2509 u d w 
-1.4109 u d y 
-1.0862 u e a 
-1.9011 u e b 
-1.9011 u e c 
-0.8118 u e d 
-2.1548 u e f 
-1.8143 u e h 
-1.8143 u e i 
-1.7420 u e l 
-1.4948 u e m 
-0.8528 u e n 
-1.5776 u e o 
-2.8396 u e q 
-1.9011 u e r 
-0.4473 u e s 
-1.3127 u e t 
-2.1548 u e v 
-1.6258 u e w 
-2.1548 u e x 
-2.8396 u e y 
-1.4114 u f a 
-2.0962 u f e 
-0.0685 u f f 
-2.0962 u f i 
-2.0962 u f r 
-1.4114 u f t 
-2.1497 u g a 
-2.9797 u g b 
-2.5143 u g d 
-0.9844 u g e 
-2.9797 u g f 
-1.0577 u g g 
-0.1431 u g h 
-2.1497 u g i 
-2.9797 u g m 
-1.8821 u g o 
-2.5143 u g s 
-1.3842 u g u 
-0.2692 u h a 
-0.7878 u h e 
-0.6234 u h m 
-1.8854 u h o 
-2.8480 u i a 
-1.5426 u i c 
-0.5252 u i d 
-1.2970 u i e 
-2.3826 u i g 
-1.1095 u i l 
-1.1751 u i n 
-2.8480 u i p 
-1.1250 u i r 
-1.2742 u i s 
-0.5096 u i t 
-2.1631 u i v 
-2.1631 u i w 
-2.8480 u i x 
-0.8179 u k e 
-0.1237 u k n 
-0.8395 u l a 
-2.1774 u l b 
-2.0103 u l c 
-0.3396 u l d 
-1.7957 u l e 
-1.7957 u l f 
-1.9769 u l g 
-2.4527 u l h 
-1.3876 u l i 
-3.3912 u l k 
-1.1100 u l l 
-1.9769 u l m 
-2.4527 u l n 
-1.6527 u l o 
-2.1292 u l p 
-2.0858 u l r 
-1.5698 u l s 
-0.9989 u l t 
-2.7063 u l u 
-2.7063 u l v 
-2.1292 u l w 
-1.7553 u l y 
-0.8807 u m a 
-0.9546 u m b 
-2.9238 u m c 
-0.5704 u m e 
-1.7642 u m f 
-2.2389 u m h 
-1.0437 u m i 
-1.0437 u m m 
-1.4785 u m n 
-1.3500 u m o 
-1.1853 u m p 
-2.9238 u m r 
-1.1704 u m s 
-2.2389 u m t 
-1.4224 u m u 
-2.9238 u m w 
-2.0938 u m y 
-1.4904 u n a 
-2.7110 u n b 
-0.5169 u n c 
-0.4792 u n d 
-1.5900 u n e 
-2.2790 u n f 
-1.4904 u n g 
-2.1267 u n h 
-1.6394 u n i 
-1.8862 u n k 
-2.2790 u n l 
-2.5157 u n m 
-1.5055 u n n 
-1.8862 u n o 
-1.9900 u n p 
-3.5410 u n q 
-2.3814 u n r 
-2.1962 u n s 
-0.8694 u n t 
-2.8561 u n u 
-2.8561 u n v 
-2.2790 u n w 
-3.5410 u n y 
-1.1189 u o f 
-0.8995 u o n 
-1.1189 u o r 
-1.1189 u o s 
-1.5843 u o t 
-0.3224 u o u 
-1.3195 u p a 
-1.8255 u p b 
-2.6221 u p c 
-2.6221 u p d 
-1.1654 u p e 
-1.9898 u p f 
-3.0874 u p g 
-1.5606 u p h 
-1.3340 u p i 
-3.0874 u p j 
-1.9279 u p l 
-1.7427 u p m 
-2.4026 u p n 
-0.5042 u p o 
-0.8286 u p p 
-1.5861 u p r 
-1.5365 u p s 
-0.8823 u p t 
-2.4026 u p u 
-3.0874 u p v 
-1.1365 u p w 
-2.6221 u p y 
-0.2833 u q u 
-1.3197 u r a 
-1.6602 u r b 
-1.5722 u r c 
-1.3922 u r d 
-0.7083 u r e 
-1.3520 u r f 
-1.6319 u r g 
-1.5128 u r h 
-1.1226 u r i 
-1.7835 u r j 
-2.7621 u r k 
-1.6905 u r l 
-1.5968 u r m 
-0.9423 u r n 
-1.5415 u r o 
-1.3197 u r p 
-3.1267 u r q 
-1.4307 u r r 
-0.9876 u r s 
-1.4194 u r t 
-2.3301 u r u 
-2.0907 u r v 
-1.5968 u r w 
-1.7966 u r y 
-0.9942 u s a 
-1.6466 u s b 
-1.5822 u s c 
-1.8683 u s d 
-0.8526 u s e 
-1.7812 u s f 
-1.9773 u s g 
-1.3486 u s h 
-1.1019 u s i 
-2.2422 u s j 
-2.4789 u s k 
-1.4180 u s l 
-1.6828 u s m 
-2.0300 u s n 
-1.6026 u s o 
-1.5723 u s p 
-2.5657 u s q 
-1.8314 u s r 
-1.1019 u s s 
-0.5920 u s t 
-1.6704 u s u 
-2.1988 u s v 
-1.5822 u s w 
-2.5657 u s y 
-1.0922 u t a 
-1.7300 u t b 
-1.7982 u t c 
-1.9020 u t d 
-1.0573 u t e 
-1.5514 u t f 
-2.2934 u t g 
-0.9303 u t h 
-0.9456 u t i 
-2.6230 u t k 
-1.8368 u t l 
-1.4493 u t m 
-1.6995 u t n 
-1.1505 u t o 
-2.4277 u t p 
-2.0720 u t r 
-1.3668 u t s 
-0.6325 u t t 
-1.7145 u t u 
-2.4277 u t v 
-1.3152 u t w 
-1.9788 u t y 
-0.6630 u u m 
-0.4436 u u n 
-1.1284 u u p 
-1.1284 u u s 
-0.9964 u v e 
-0.0651 u v i 
-0.7768 u w e 
-1.4090 u w h 
-0.2196 u w i 
-0.8491 u w o 
-0.8854 u x p 
-0.2005 u x u 
-0.2833 u y t 
-0.0213 u z z 
-1.4401 v a a 
-1.5800 v a b 
-1.7878 v a c 
-1.8601 v a d 
-2.8854 v a e 
-2.8854 v a f 
-1.4111 v a g 
-2.0554 v a h 
-1.1624 v a i 
-1.0164 v a l 
-2.8854 v a m 
-0.7240 v a n 
-2.2005 v a o 
-1.1035 v a p 
-1.3116 v a r 
-0.7924 v a s 
-0.8986 v a t 
-1.4111 v a u 
-2.8854 v a v 
-1.7878 v a w 
-1.3944 v e a 
-1.4966 v e b 
-1.9832 v e c 
-1.2241 v e d 
-2.1628 v e e 
-1.8565 v e f 
-1.9152 v e g 
-1.9152 v e h 
-1.7168 v e i 
-2.7981 v e j 
-3.2712 v e k 
-1.2318 v e l 
-1.7674 v e m 
-0.9448 v e n 
-1.8048 v e o 
-2.1857 v e p 
-3.0518 v e q 
-0.3736 v e r 
-1.1621 v e s 
-1.3213 v e t 
-1.9547 v e u 
-3.2712 v e v 
-1.7857 v e w 
-3.2712 v e x 
-2.1857 v e y 
-1.2199 v i a 
-1.3106 v i c 
-0.9575 v i d 
-1.3313 v i e 
-2.2419 v i f 
-1.5458 v i g 
-1.3758 v i k 
-1.6214 v i l 
-0.4659 v i n 
-1.1449 v i o 
-1.9014 v i r 
-0.9315 v i s 
-1.3530 v i t 
-2.4614 v i u 
-1.5820 v i v 
-2.2362 v o c 
-0.6436 v o i 
-2.2362 v o k 
-0.4248 v o l 
-1.7631 v o m 
-1.8717 v o n 
-0.9337 v o r 
-1.2003 v o t 
-1.4396 v o u 
-2.2362 v o w 
-0.9482 v o y 
-0.2833 v s a 
-0.0238 v u l 
-0.7672 v y a 
-1.2419 v y b 
-0.9882 v y c 
-0.9882 v y f 
-1.9268 v y g 
-1.9268 v y h 
-1.2419 v y i 
-1.2419 v y l 
-1.9268 v y n 
-1.4614 v y r 
-0.9882 v y s 
-0.9882 v y t 
-1.9268 v y w 
-1.9268 v y y 
-2.7962 w a b 
-2.9413 w a c 
-2.6876 w a d 
-3.1607 w a f 
-3.6261 w a g 
-3.6261 w a h 
-1.8582 w a i 
-2.0752 w a k 
-1.3073 w a l 
-2.6008 w a m 
-1.4648 w a n 
-3.1607 w a p 
-1.0472 w a r 
-0.2351 w a s 
-1.0516 w a t 
-1.6752 w a v 
-3.6261 w a w 
-3.1607 w a x 
-1.0073 w a y 
-0.4812 w b a 
-0.3816 w b e 
-1.1255 w b o 
-1.1255 w b u 
-1.2706 w b y 
-0.4831 w c a 
-1.7885 w c h 
-0.9585 w c l 
-0.4831 w c o 
-0.8499 w c r 
-0.9680 w d a 
-0.3797 w d e 
-0.8812 w d i 
-0.7470 w d o 
-1.2217 w d r 
-1.4412 w d u 
-1.0698 w e a 
-2.2475 w e b 
-1.6417 w e c 
-1.2499 w e d 
-1.5222 w e e 
-1.8330 w e f 
-2.2475 w e g 
-1.0745 w e h 
-1.9383 w e i 
-3.6285 w e j 
-2.6900 w e k 
-1.0302 w e l 
-1.5355 w e m 
-1.3218 w e n 
-2.3665 w e o 
-2.0123 w e p 
-0.5762 w e r 
-1.1534 w e s 
-1.8199 w e t 
-1.2677 w e v 
-1.0652 w e w 
-2.7985 w e x 
-3.6285 w e y 
-1.2457 w f a 
-1.0504 w f e 
-2.0757 w f i 
-2.0757 w f l 
-0.9781 w f o 
-1.2457 w f r 
-0.2067 w f u 
-0.7722 w g a 
-1.2375 w g i 
-1.2375 w g l 
-0.7722 w g o 
-0.7722 w g r 
-1.2375 w g u 
-0.7055 w h a 
-0.7105 w h e 
-0.3758 w h i 
-0.8016 w h o 
-3.5298 w h u 
-1.5606 w h y 
-2.7005 w i a 
-2.9200 w i b 
-2.0800 w i c 
-1.7126 w i d 
-2.0800 w i f 
-1.4944 w i g 
-3.3854 w i h 
