<Nnet> 
<Splice> 440 40 
[ -5 -4 -3 -2 -1 0 1 2 3 4 5 ]
<AddShift> 440 440 
 [ 0.0230013 -0.00608096 0.0536732 -0.2166046 -0.01939134 -0.008137493 -0.00206321 -0.0277796 0.01684392 0.007487165 -0.009757671 0.02367668 0.02025846 0.007516148 -0.005329877 -0.01143416 -0.006324873 0.002775327 0.005597819 -0.02215514 0.03993855 0.02938382 -0.008521209 0.1462382 0.07895181 -0.1789579 0.03043002 -0.02442629 -0.01127622 -0.03453572 -0.03119639 -0.02738747 -0.01061063 -0.009331942 -0.04835772 0.001584824 0.02428355 0.01848941 -0.01146007 -0.007329326 0.02289443 -0.006220924 0.05340183 -0.21645 -0.01924349 -0.008203937 -0.002096995 -0.02796211 0.01686685 0.007401313 -0.01007679 0.02397994 0.02042691 0.007720123 -0.00524273 -0.01119142 -0.006197595 0.002715771 0.005459717 -0.02207753 0.03998678 0.02926304 -0.008626329 0.1462679 0.07873688 -0.1789951 0.03024017 -0.02465145 -0.01158448 -0.03430529 -0.03093632 -0.02753042 -0.01069833 -0.0093421 -0.04838669 0.001518295 0.02476053 0.0184762 -0.01145769 -0.007567246 0.02277018 -0.006417096 0.0531389 -0.2162886 -0.01907079 -0.008263649 -0.002087345 -0.02812859 0.01692224 0.007282867 -0.01028679 0.02424817 0.02061157 0.007921635 -0.005129233 -0.01101931 -0.006024595 0.002652127 0.005293956 -0.02203427 0.03996435 0.02913115 -0.008748167 0.1463204 0.07839295 -0.1789986 0.03006046 -0.02487445 -0.01201101 -0.03412136 -0.03074622 -0.02759084 -0.01070938 -0.00946581 -0.04840802 0.001438578 0.02525127 0.01856431 -0.01147462 -0.007856675 0.02264543 -0.006637882 0.05287067 -0.2161211 -0.01894574 -0.008330462 -0.002074937 -0.02830072 0.01696531 0.007275607 -0.01026196 0.02450185 0.02081466 0.008105502 -0.005003202 -0.01086167 -0.005692699 0.002599149 0.005142383 -0.02206841 0.03992281 0.0290115 -0.008845541 0.1462565 0.07805574 -0.1791321 0.02978947 -0.02504519 -0.01245819 -0.03391548 -0.03059784 -0.02760786 -0.0107159 -0.009716756 -0.04846542 0.001337436 0.02572051 0.01856449 -0.01151705 -0.008260615 0.02250269 -0.006869716 0.05260992 -0.2159537 -0.0188557 -0.008390595 -0.002055015 -0.02846114 0.01702956 0.007202042 -0.01037216 0.02477822 0.02100752 0.00829643 -0.004920022 -0.01065611 -0.005260092 0.00252455 0.004995221 -0.02208104 0.03999546 0.02891513 -0.008963607 0.1461193 0.07774567 -0.1791797 0.02944923 -0.02523831 -0.01286138 -0.03369435 -0.03049558 -0.02768819 -0.0107206 -0.009898667 -0.04854168 0.00125938 0.02614474 0.01839183 -0.01145092 -0.00874608 0.0223556 -0.007106578 0.05234668 -0.2157989 -0.01882347 -0.008450077 -0.002046188 -0.02862723 0.01707964 0.007167721 -0.01065448 0.02506254 0.02121027 0.00847506 -0.004928708 -0.01044223 -0.004837774 0.002463279 0.004839424 -0.02206315 0.0400923 0.02879489 -0.009080032 0.1459938 0.07745329 -0.1791618 0.02913621 -0.02543848 -0.0132024 -0.03348687 -0.03031212 -0.02779893 -0.01069971 -0.00993919 -0.04864667 0.001146689 0.02653612 0.01829643 -0.01141813 -0.009261887 0.02220852 -0.007343441 0.05208346 -0.215644 -0.01879124 -0.00850956 -0.002037361 -0.02879331 0.01712971 0.007133399 -0.0109368 0.02534687 0.02141302 0.008653687 -0.004937394 -0.01022834 -0.004415456 0.002402009 0.004683626 -0.02204525 0.04018915 0.02867465 -0.009196457 0.1458682 0.07716089 -0.1791439 0.0288232 -0.02563865 -0.01354343 -0.03327939 -0.03012866 -0.02790968 -0.01067881 -0.009979714 -0.04875165 0.001033999 0.0269275 0.01820103 -0.01138535 -0.009777692 0.02211404 -0.00740415 0.05185227 -0.2154908 -0.01857641 -0.008575487 -0.002014452 -0.02894527 0.01724588 0.007005635 -0.01165246 0.0256553 0.02153325 0.008807864 -0.004907181 -0.009897557 -0.004104368 0.002259603 0.004522023 -0.02198919 0.04031773 0.02857725 -0.009340988 0.1454614 0.07732949 -0.1791361 0.02883294 -0.02590172 -0.01351395 -0.03308888 -0.03010878 -0.02809471 -0.01056683 -0.009989691 -0.04881575 0.0009133681 0.02726328 0.01811951 -0.01144333 -0.01031383 0.02206967 -0.00742076 0.051702 -0.2152961 -0.01823847 -0.008643295 -0.001967008 -0.02910239 0.01736985 0.00707083 -0.01176529 0.02596296 0.02155631 0.008925683 -0.004903203 -0.009673383 -0.003942127 0.002092367 0.00439945 -0.02194138 0.04024129 0.02849752 -0.009500516 0.1453802 0.07753324 -0.1789963 0.02889968 -0.02609509 -0.01325915 -0.03292863 -0.03014102 -0.02828836 -0.01051525 -0.00996491 -0.04889462 0.0008687977 0.02749602 0.01789238 -0.01161603 -0.01063837 0.02206772 -0.007510433 0.05160049 -0.21508 -0.0179527 -0.008722314 -0.001894545 -0.02925588 0.01750699 0.007223744 -0.01165208 0.02624173 0.02163464 0.009011438 -0.004915202 -0.009512393 -0.003891782 0.001893516 0.004335661 -0.02181859 0.04018259 0.02845562 -0.009613142 0.1455562 0.07754204 -0.1787399 0.02890969 -0.02622406 -0.01287816 -0.03284046 -0.0302384 -0.02832304 -0.01050296 -0.009922083 -0.04897674 0.0008884146 0.02760878 0.0178017 -0.01183491 -0.01085619 0.02212293 -0.007587373 0.0515177 -0.2148474 -0.01784739 -0.008810125 -0.001788271 -0.02939493 0.01759696 0.00735355 -0.01150778 0.0264507 0.02169252 0.009105665 -0.004993465 -0.009367858 -0.003837253 0.001745791 0.004331784 -0.02175788 0.04026692 0.02846921 -0.009648286 0.145663 0.07748546 -0.1784428 0.02891407 -0.02633725 -0.01252314 -0.03282439 -0.03042846 -0.02831371 -0.01053759 -0.009954448 -0.04905511 0.000879525 0.02776264 0.01802156 -0.01193623 -0.01102357 ]
<Rescale> 440 440 
 [ 0.6360573 0.8216208 0.7841356 0.433791 0.8840922 0.8125068 0.9555144 0.8547024 0.9734246 0.968749 1.061166 0.8750565 0.9536508 0.8988665 1.005538 0.9266689 1.039553 0.9898369 0.9979699 1.064481 1.108628 0.9882163 1.029957 0.7967347 0.7654548 0.8348321 1.093551 1.132454 0.9940192 1.11444 1.019049 1.059754 0.9885715 1.062964 1.153212 1.150909 0.9481688 1.066925 1.124786 0.9987701 0.6360513 0.8216632 0.7841836 0.433827 0.8842227 0.812571 0.9555156 0.8547784 0.9733428 0.9684149 1.060179 0.8751342 0.953634 0.8990137 1.005184 0.9265034 1.039255 0.9896615 0.9981464 1.064223 1.107744 0.9883963 1.029843 0.7964914 0.765725 0.8345838 1.093224 1.13251 0.9939327 1.114515 1.018887 1.059525 0.9884873 1.062542 1.153278 1.15085 0.9483446 1.066364 1.124519 0.9989402 0.636046 0.8218666 0.7842045 0.4338625 0.8842866 0.8126168 0.9555023 0.8548375 0.9732194 0.9680721 1.059577 0.8752037 0.9536491 0.899162 1.004811 0.9263582 1.039079 0.9894549 0.9983436 1.063962 1.107006 0.9885563 1.029625 0.7962617 0.7660084 0.8343518 1.09318 1.132557 0.9938465 1.114608 1.01878 1.059321 0.9885619 1.062163 1.153357 1.150745 0.9485001 1.06576 1.124251 0.9991004 0.6360425 0.8221495 0.7841843 0.4338963 0.8844061 0.8126487 0.9554822 0.8548806 0.9730608 0.9676718 1.058574 0.8752454 0.9537086 0.8992895 1.004429 0.926172 1.038936 0.9891976 0.9984993 1.063863 1.106233 0.9886649 1.02934 0.7960383 0.7663353 0.83406 1.0935 1.132556 0.9937961 1.114687 1.018731 1.059242 0.9887359 1.061788 1.153445 1.150576 0.9486226 1.065136 1.124034 0.9992335 0.6360417 0.8224649 0.7841184 0.4339287 0.8845997 0.8126563 0.9555009 0.8549106 0.9728827 0.9673265 1.058409 0.875263 0.953851 0.8993772 1.004095 0.9259023 1.038827 0.9888698 0.9986187 1.063876 1.105227 0.9887326 1.02907 0.7958362 0.7667207 0.833851 1.093899 1.132492 0.9939899 1.114759 1.018873 1.059189 0.9888815 1.061466 1.153558 1.150387 0.9488014 1.06471 1.123855 0.9993464 0.6360406 0.8227853 0.7840027 0.4339568 0.8848537 0.8126292 0.9555728 0.8549253 0.97272 0.9669959 1.058815 0.875244 0.9540372 0.8994178 1.003849 0.9255918 1.038872 0.988502 0.9987099 1.063941 1.10394 0.9887774 1.028975 0.7956706 0.767258 0.8336179 1.094317 1.132505 0.9943361 1.11479 1.019236 1.059142 0.9892265 1.061182 1.153645 1.150215 0.9490513 1.064145 1.123768 0.9995679 0.6360394 0.8231061 0.7838871 0.4339849 0.8851078 0.812602 0.955645 0.85494 0.9725573 0.9666657 1.059221 0.8752251 0.9542237 0.8994583 1.003604 0.9252815 1.038917 0.9881345 0.9988012 1.064005 1.102657 0.9888222 1.028881 0.7955051 0.7677965 0.8333849 1.094736 1.132518 0.9946829 1.114822 1.0196 1.059094 0.9895719 1.060899 1.153732 1.150044 0.9493016 1.06358 1.123682 0.9997896 0.6360185 0.8234018 0.7837356 0.433999 0.8854737 0.8125372 0.9556857 0.8549166 0.9724687 0.9666167 1.059774 0.8751204 0.9544064 0.8994259 1.003462 0.9250911 1.039032 0.9878266 0.998913 1.064194 1.101469 0.9887944 1.028888 0.7958375 0.7680249 0.8331694 1.095086 1.132554 0.9948934 1.1148 1.019858 1.059184 0.9898611 1.060651 1.153696 1.150018 0.9493575 1.063158 1.123735 1.000225 0.6359866 0.823653 0.78356 0.4340128 0.8857486 0.8124399 0.9557016 0.8548611 0.9723975 0.9668254 1.06009 0.8749534 0.9545469 0.8993279 1.003464 0.9249724 1.039148 0.9875491 0.9989836 1.06444 1.1004 0.9886991 1.028899 0.7960555 0.768252 0.833108 1.095302 1.132538 0.9951977 1.114677 1.020193 1.059257 0.9900937 1.060575 1.15362 1.149986 0.9493555 1.062803 1.123963 1.000503 0.635949 0.8238503 0.7833742 0.434025 0.8858622 0.8123139 0.955703 0.854786 0.9722832 0.9669496 1.060283 0.874734 0.9546545 0.8991821 1.003557 0.9248127 1.039284 0.9872918 0.9989557 1.064671 1.099821 0.9885397 1.028883 0.7960388 0.7684765 0.8333225 1.095554 1.132495 0.9956113 1.114474 1.020624 1.059321 0.9903085 1.06071 1.153524 1.149861 0.9493787 1.062526 1.124267 1.000641 0.6359105 0.8240495 0.7831764 0.434039 0.8858876 0.8121706 0.9557278 0.8547031 0.9721246 0.9670287 1.060358 0.874491 0.9547802 0.899011 1.003633 0.9246002 1.039449 0.9870265 0.9988559 1.064949 1.099826 0.9883573 1.028814 0.7960488 0.7686256 0.8338141 1.095868 1.132438 0.9961315 1.11427 1.020991 1.059475 0.990456 1.060894 1.153442 1.149699 0.9494466 1.062957 1.124506 1.000715 ]
</Nnet> 
