#############################################################################
## Copyright (c) 1996, Carnegie Mellon University, Cambridge University,
## Ronald Rosenfeld and Philip Clarkson
#############################################################################
=============================================================================
===============  This file was produced by the CMU-Cambridge  ===============
===============     Statistical Language Modeling Toolkit     ===============
=============================================================================
This is a 3-gram language model, based on a vocabulary of 779 words,
  which begins "</s>", "<s>", "a"...
This is a CLOSED-vocabulary model
  (OOVs eliminated from training data and are forbidden in test data)
Good-Turing discounting was applied.
1-gram frequency of frequency : 14 
2-gram frequency of frequency : 2694 1408 927 763 629 626 397 
3-gram frequency of frequency : 12787 6042 3599 2900 2483 2262 1394 
1-gram discounting ratios : 
2-gram discounting ratios : 
3-gram discounting ratios : 0.65 0.32 
This file is in the ARPA-standard format introduced by Doug Paul.

p(wd3|wd1,wd2)= if(trigram exists)           p_3(wd1,wd2,wd3)
                else if(bigram w1,w2 exists) bo_wt_2(w1,w2)*p(wd3|wd2)
                else                         p(wd3|w2)

p(wd2|wd1)= if(bigram exists) p_2(wd1,wd2)
            else              bo_wt_1(wd1)*p_1(wd2)

All probs and back-off weights (bo_wt) are given in log10 form.

Data formats:

Beginning of data mark: \data\
ngram 1=nr            # number of 1-grams
ngram 2=nr            # number of 2-grams
ngram 3=nr            # number of 3-grams

\1-grams:
p_1     wd_1 bo_wt_1
\2-grams:
p_2     wd_1 wd_2 bo_wt_2
\3-grams:
p_3     wd_1 wd_2 wd_3 

end of data mark: \end\

\data\
ngram 1=779
ngram 2=14416
ngram 3=46976

\1-grams:
-1.1289 </s>	-4.8100
-1.1289 <s>	-4.2331
-1.7590 a	-4.1154
-4.7171 abate	-1.2652
-4.0859 about	-1.8414
-4.1211 accompanied	-1.8566
-3.3134 across	-2.6476
-3.7123 active	-2.2677
-4.3813 activity	-1.6119
-4.4409 advance	-1.5509
-5.3703 advancing	-0.7778
-3.6183 affect	-2.3381
-3.9193 affecting	-2.0523
-3.5085 after	-2.4056
-2.5493 afternoon	-3.2211
-3.2514 again	-2.5885
-4.1211 ahead	-1.8473
-2.6288 airflow	-3.2624
-5.6714 alert	-0.4771
-5.6714 aligned	-0.4760
-2.3497 all	-3.5840
-4.3389 allow	-1.6472
-4.2481 allowing	-1.7278
-4.3703 almost	-1.6433
-3.1595 along	-2.7606
-5.2734 already	-0.8367
-2.7986 also	-2.9942
-3.9554 although	-2.0239
-4.4409 amounts	-1.5251
-3.2196 an	-2.7452
-1.5093 and	-3.9580
-3.4852 another	-2.4874
-3.3096 any	-2.6409
-3.0172 apart	-2.9543
-4.6714 appear	-1.3577
-3.4565 approach	-2.4906
-3.4007 approaches	-2.5582
-3.5191 approaching	-2.4314
-3.4283 are	-2.5422
-3.3059 area	-2.5549
-2.1906 areas	-3.4361
-3.5574 around	-2.3398
-4.8263 arrive	-1.1653
-5.0181 arrived	-1.0330
-4.1032 arriving	-1.8805
-2.7863 as	-3.0645
-3.5299 associated	-2.4214
-2.2866 at	-3.6738
-2.8382 atlantic	-2.9872
-3.5026 away	-2.3666
-3.4384 back	-2.4950
-2.5551 backing	-3.3851
-5.0181 backs	-1.0315
-4.7171 band	-1.2733
-5.4953 bands	-0.6935
-4.9724 banks	-1.0742
-2.5846 be	-3.3091
-3.0544 become	-2.8692
-4.7419 becomes	-1.2780
-2.1503 becoming	-3.7379
-3.4565 before	-2.4810
-4.1942 begin	-1.7295
-4.5100 beginning	-1.4564
-3.7656 best	-2.1638
-3.2822 between	-2.5868
-5.4953 bit	-0.6018
-3.0887 blustery	-2.7501
-5.6714 both	-0.4666
-4.6936 break	-1.2804
-4.2090 breaking	-1.7223
-3.8080 breaks	-2.0900
-3.3096 breeze	-2.5855
-3.4042 breezes	-2.4833
-3.0025 breezy	-2.8584
-4.3192 brief	-1.6515
-2.6282 bright	-3.2247
-4.7963 brighten	-1.2220
-4.4409 brightening	-1.5303
-3.4321 brighter	-2.4988
-4.5574 brightness	-1.4156
-3.6069 bring	-2.3211
-3.8720 bringing	-2.0890
-4.7419 brisk	-1.2645
-4.4672 broken	-1.5181
-4.4810 build	-1.4757
-4.6300 building	-1.3700
-4.3703 builds	-1.6306
-5.2734 bulk	-0.8397
-5.1273 burst	-0.9519
-4.3389 bursts	-1.6234
-2.2697 but	-3.4551
-2.7966 by	-3.1035
-3.9768 calm	-1.9567
-4.5744 can	-1.4302
-5.9724 causing	-0.3007
-2.0678 celsius	-3.5871
-4.7683 centered	-1.2592
-4.5100 central	-1.4903
-4.7171 centre	-1.2573
-5.1273 centres	-0.9408
-4.2481 chance	-1.7349
-4.3389 change	-1.6092
-4.3389 channel	-1.6148
-3.4333 chiefly	-2.5115
-4.2015 chilly	-1.7638
-2.6520 clear	-3.1379
-3.0245 clearance	-2.8441
-3.3869 clearer	-2.5788
-2.7557 clearing	-3.0522
-3.9193 clears	-1.9923
-3.7394 close	-2.1480
-4.8932 closer	-1.0954
-2.9870 cloud	-2.8669
-4.6300 clouding	-1.3793
-2.8363 cloudy	-2.9892
-2.7389 coast	-3.0445
-2.9820 coastal	-2.9388
-5.9724 coastline	-0.2675
-2.5100 coasts	-3.2326
-5.4953 coats	-0.6976
-2.8601 cold	-2.9956
-4.0481 colder	-1.8666
-4.3703 coldest	-1.5697
-4.7683 come	-1.2303
-4.6107 coming	-1.3784
-4.8584 completely	-1.1407
-4.0586 complex	-1.9287
-3.5459 conditions	-2.3567
-3.6241 confined	-2.3318
-4.9310 considerably	-1.1048
-3.3021 continue	-2.6141
-4.1800 continues	-1.7808
-2.9750 continuing	-2.8485
-4.6502 continuous	-1.3846
-2.9500 cool	-2.9026
-3.5976 cooler	-2.2929
-3.9079 coolest	-2.0607
-4.9724 could	-1.0400
-3.5541 counties	-2.3023
-5.6714 countries	-0.4719
-2.8244 country	-3.0239
-4.1463 countrywide	-1.8096
-4.8584 county	-1.1751
-4.2734 cover	-1.6601
-4.8932 covering	-1.1450
-2.9754 covers	-2.9850
-3.3502 cross	-2.6035
-4.1871 crosses	-1.7877
-4.1730 crossing	-1.8071
-4.9724 currently	-1.1048
-3.9117 damp	-2.0538
-4.8263 danger	-1.1706
-4.0748 dark	-1.8279
-4.9724 darkness	-1.0431
-3.4659 dawn	-2.4368
-2.6855 day	-3.0731
-4.8584 daybreak	-1.1351
-4.8584 daylight	-1.1659
-4.6714 days	-1.2976
-4.4042 daytime	-1.5879
-4.0859 deal	-1.8828
-4.5100 decline	-1.4700
-4.8584 declines	-1.1753
-4.6107 declining	-1.3659
-3.7318 decrease	-2.1819
-2.3646 decreasing	-3.4271
-5.1942 deep	-0.8449
-4.9310 deepen	-1.0925
-4.0748 deepening	-1.9124
-3.1986 degrees	-2.6736
-4.0379 dense	-1.9050
-4.8932 denser	-1.1452
-3.4222 depression	-2.5116
-5.1273 depressions	-0.9491
-3.0634 develop	-2.7756
-2.6971 developing	-3.1489
-4.1032 develops	-1.8555
-3.4296 die	-2.5296
-3.6241 direction	-2.2600
-5.4953 disappearing	-0.5678
-4.2090 districts	-1.7565
-5.6714 dominates	-0.4765
-4.2242 down	-1.7390
-4.0181 downpours	-1.9160
-3.8021 drier	-2.1146
-5.4953 drift	-0.5938
-4.6502 drifting	-1.3379
-5.6714 drifts	-0.4768
-4.9724 driving	-1.0791
-2.3142 drizzle	-3.4089
-3.9117 drizzly	-2.0602
-2.3233 dry	-3.4676
-4.6714 drying	-1.3417
-4.6936 due	-1.2474
-3.8110 dull	-2.1371
-2.6369 during	-3.3146
-2.9298 dying	-3.0422
-2.6491 early	-3.2154
-3.5378 ease	-2.3424
-4.5100 eases	-1.4819
-3.6543 easing	-2.2127
-2.4211 east	-3.2681
-4.5744 easter	-1.4330
-3.2514 easterly	-2.6291
-3.1049 eastern	-2.8470
-5.1273 eastward	-0.9188
-4.4161 edge	-1.6093
-5.6714 edges	-0.4771
-5.1273 edging	-0.9540
-2.4814 eight	-3.2960
-3.1260 eighteen	-2.7814
-2.9228 eleven	-2.9635
-2.8645 elsewhere	-2.9359
-4.2165 embedded	-1.7764
-4.8584 encroaching	-1.1740
-4.5744 end	-1.4266
-4.5744 england	-1.4075
-4.9310 enjoy	-1.0565
-3.1835 especially	-2.6996
-3.9947 established	-1.9445
-4.6502 europe	-1.3462
-4.8584 even	-1.1894
-2.4236 evening	-3.3072
-4.8584 eventually	-1.1422
-3.6300 everywhere	-2.2600
-3.5011 except	-2.4455
-5.3703 expect	-0.7698
-3.6564 expected	-2.2218
-3.9117 exposed	-2.0731
-3.5744 extend	-2.3748
-3.3430 extending	-2.5978
-4.1151 extends	-1.8592
-3.7171 extensive	-2.2417
-4.2165 extreme	-1.7611
-4.5922 extremely	-1.3950
-4.8584 facing	-1.1448
-2.3681 fair	-3.4178
-4.3491 fairly	-1.6478
-4.1528 fall	-1.8179
-3.9812 falling	-1.9958
-4.6502 falls	-1.3477
-3.3926 far	-2.5605
-5.6714 feeding	-0.4769
-4.5100 feel	-1.5293
-3.8584 feeling	-2.1230
-2.8229 few	-3.0985
-4.7963 field	-1.2300
-2.9350 fifteen	-2.9933
-3.8325 fifty	-2.1112
-5.1273 fill	-0.9013
-5.1942 filling	-0.9030
-3.8201 fine	-2.0829
-2.5383 first	-3.2114
-4.8584 fist	-1.1757
-2.0946 five	-3.6960
-3.9117 flooding	-2.0164
-3.4768 flow	-2.4402
-2.3047 fog	-3.4358
-5.0181 foggy	-0.9997
-3.1026 follow	-2.7554
-3.6164 followed	-2.3400
-3.2589 following	-2.5837
-4.2648 follows	-1.7034
-2.0194 for	-3.8879
-1.6454 force	-4.0828
-3.8263 forecast	-2.1475
-3.7934 form	-2.1094
-3.6628 forming	-2.2247
-1.9052 four	-3.8658
-2.8446 fourteen	-3.0353
-5.6714 france	-0.4635
-3.6824 frequent	-2.2209
-4.8263 frequently	-1.1989
-2.3472 fresh	-3.4381
-3.8080 freshen	-2.1067
-3.2849 freshening	-2.5694
-3.9812 fresher	-1.9369
-4.5410 freshest	-1.4667
-3.3915 friday	-2.4933
-5.2734 fringes	-0.8078
-2.3819 from	-3.5170
-3.1528 front	-2.7195
-3.0731 frontal	-2.9004
-4.0430 fronts	-1.9244
-2.9746 frost	-2.8517
-4.6714 frosty	-1.3254
-2.2162 further	-3.5863
-2.1408 gale	-3.7080
-2.9132 gales	-2.9659
-4.5744 general	-1.4139
-2.9728 generally	-2.8484
-4.9724 gentle	-1.1103
-3.7052 give	-2.2634
-3.9856 giving	-1.9809
-4.7419 glimmers	-1.2733
-4.0586 goes	-1.9170
-5.0181 going	-1.0226
-2.0647 good	-3.7129
-4.8263 gradual	-1.2547
-2.7207 gradually	-3.1053
-4.8932 grey	-1.1620
-3.2173 ground	-2.6978
-4.5410 gust	-1.4381
-3.7419 gusting	-2.2190
-3.5346 gusts	-2.3742
-2.8152 gusty	-2.9942
-3.1899 hail	-2.6540
-3.5779 half	-2.3873
-3.8584 have	-2.1185
-4.9724 having	-1.0774
-3.8080 haze	-2.0918
-3.3460 hazy	-2.5328
-3.2120 head	-2.6718
-5.9724 headlines	-0.3004
-4.2015 heavier	-1.7685
-4.0973 heaviest	-1.8633
-2.2967 heavy	-3.5231
-4.4672 here	-1.4907
-3.2273 high	-2.7065
-4.2564 higher	-1.7064
-2.3138 highest	-3.6442
-3.5762 hill	-2.3686
-3.7343 hills	-2.1903
-5.0181 hilly	-0.9972
-4.8584 his	-1.1745
-4.4409 hook	-1.5438
-3.9638 hour	-1.9755
-2.3893 hours	-3.4145
-3.4101 however	-2.4288
-3.4448 humid	-2.4256
-4.8932 hundred	-1.1461
-4.1871 icy	-1.7984
-4.6936 if	-1.3207
-4.1800 imminent	-1.7515
-5.0693 improve	-0.9976
-5.2734 improvement	-0.8451
-3.4042 improving	-2.5005
-1.7197 in	-3.9326
-3.5995 increase	-2.2815
-5.4953 increased	-0.6985
-4.8932 increases	-1.1416
-2.3226 increasing	-3.5016
-4.6300 increasingly	-1.4132
-4.7419 initially	-1.2812
-3.5491 inland	-2.3318
-3.6522 inshore	-2.2477
-5.9724 intense	-0.3009
-5.6714 intensifying	-0.4425
-3.4077 intervals	-2.4797
-3.3430 into	-2.6114
-5.6714 introducing	-0.4766
-2.6008 ireland	-3.2550
-2.3661 irish	-3.5950
-2.9834 is	-2.9761
-4.0133 isle	-1.9630
-2.7140 isolated	-3.1469
-4.2015 issued	-1.7824
-3.0016 it	-2.9142
-5.9724 it'll	-0.2999
-5.9724 it's	-0.3009
-4.1595 its	-1.8259
-3.4333 just	-2.4970
-5.0693 keep	-0.9919
-5.9724 kerry	-0.3002
-4.4953 land	-1.4736
-5.1942 land's	-0.9031
-4.8263 large	-1.2041
-3.6280 largely	-2.3477
-4.6502 last	-1.4082
-3.5175 late	-2.3668
-2.0588 later	-3.6254
-4.8263 lead	-1.1575
-3.9232 leading	-2.0345
-4.3926 leave	-1.5905
-3.9512 leaving	-2.0285
-3.1744 less	-2.6953
-4.8932 lie	-1.1265
-3.7629 lies	-2.1978
-4.9724 lift	-1.0442
-4.6107 lifting	-1.3642
-2.4985 light	-3.2900
-5.1273 lighter	-0.9018
-3.5426 likely	-2.3222
-4.6502 linger	-1.3314
-4.3192 lingering	-1.6709
-3.1856 little	-2.7069
-3.3409 local	-2.6176
-4.5574 localized	-1.4292
-2.7087 locally	-3.0889
-4.1463 long	-1.8466
-3.2265 longer	-2.7392
-3.6670 loop	-2.3072
-4.3389 lot	-1.6473
-5.2734 lough	-0.8233
-3.7369 low	-2.2314
-5.3703 lower	-0.6905
-2.4070 lowest	-3.5516
-4.7683 lying	-1.2349
-5.9724 main	-0.3010
-2.3944 mainly	-3.4617
-4.8263 maintained	-1.1706
-5.9724 maintaining	-0.2934
-4.6714 maintains	-1.3146
-3.9724 man	-2.0001
-2.9068 many	-3.0481
-5.4953 maximum	-0.6951
-3.4552 may	-2.5237
-4.9724 meanwhile	-1.1111
-4.8932 merge	-1.1459
-4.2911 merging	-1.6865
-4.6936 met	-1.3222
-2.9634 meteorological	-3.0090
-4.0748 mid	-1.9027
-4.3003 midday	-1.6589
-4.9310 middle	-1.1085
-4.3703 midland	-1.6029
-3.8294 midlands	-2.0848
-4.3096 midnight	-1.6367
-2.8864 mild	-2.9485
-3.9155 milder	-1.9890
-4.4810 mildest	-1.5102
-3.9512 miles	-2.0200
-4.8932 minimum	-1.1101
-2.5321 mist	-3.2763
-3.2234 misty	-2.6416
-3.8232 mix	-2.1468
-3.5995 mixture	-2.3693
-3.8421 mizen	-2.1365
-4.5410 mod	-1.4438
-1.9231 moderate	-3.8021
-4.4810 moderates	-1.4941
-2.9020 moderating	-2.8969
-4.3389 moist	-1.6699
-3.3984 monday	-2.5028
-3.5459 more	-2.4173
-2.4535 morning	-3.2535
-2.7977 most	-3.1493
-2.4100 mostly	-3.4847
-3.5378 move	-2.4327
-4.2822 moves	-1.7074
-3.6125 moving	-2.2743
-3.9554 mph	-1.9664
-3.4321 much	-2.5370
-4.5574 muggy	-1.4774
-4.7963 murky	-1.2214
-3.1354 near	-2.7920
-3.1772 next	-2.7752
-2.8710 night	-2.9440
-4.1091 nightfall	-1.8148
-4.9310 nights	-1.0747
-2.5354 nil	-3.3573
-2.6826 nine	-3.1437
-3.2196 nineteen	-2.7145
-3.4007 no	-2.5690
-5.4953 none	-0.5939
-4.1151 noon	-1.8498
-2.2576 north	-3.4260
-2.8316 northeast	-2.9380
-3.7656 northeasterly	-2.1207
-4.3926 northeastern	-1.5912
-3.0379 northerly	-2.8147
-2.9681 northern	-2.9790
-2.1605 northwest	-3.5278
-3.0538 northwesterly	-2.7918
-3.8294 northwestern	-2.1336
-4.8584 not	-1.1449
-5.4953 now	-0.6853
-2.8748 occasional	-3.0747
-2.7837 occasionally	-3.0832
-4.3813 occlusion	-1.6264
-3.8263 occur	-2.1008
-5.9724 october	-0.2992
-3.7220 odd	-2.2590
-1.9046 of	-3.9200
-3.4030 off	-2.4338
-4.6936 office	-1.3200
-5.1942 offshore	-0.8529
-4.1335 often	-1.8562
-2.3240 on	-3.4794
-4.6714 once	-1.3505
-3.1193 one	-2.7579
-4.9724 ones	-1.1131
-4.1528 only	-1.8210
-4.2320 onshore	-1.7241
-4.7171 onto	-1.2683
-3.3639 operation	-2.5593
-1.7634 or	-4.0179
-4.2015 other	-1.7811
-2.5361 otherwise	-3.2826
-2.8306 out	-3.0000
-2.8453 outbreaks	-3.1029
-2.3600 outlook	-3.5528
-4.4953 outside	-1.4991
-2.7274 over	-3.1806
-3.9993 overall	-1.9315
-3.7099 overcast	-2.2000
-4.3096 overland	-1.6289
-2.4074 overnight	-3.3011
-4.4810 part	-1.4944
-4.9310 particular	-1.0804
-4.2481 particularly	-1.7179
-5.3703 partly	-0.7775
-3.0693 parts	-2.7888
-3.9768 pass	-1.9961
-4.7963 passes	-1.2253
-4.6936 passing	-1.3343
-2.6907 patches	-3.1230
-2.9263 patchy	-2.9592
-4.1091 per	-1.8692
-3.7419 perhaps	-2.1644
-4.3389 period	-1.6339
-3.0153 periods	-2.8251
-3.8896 persist	-2.0245
-3.3813 persistent	-2.5230
-3.9724 persisting	-1.9395
-4.1871 persists	-1.7426
-2.6076 places	-3.1579
-5.1942 placing	-0.9020
-4.4672 pleasant	-1.5085
-4.8932 plenty	-1.1407
-4.6714 pockets	-1.3206
-4.2734 point	-1.6832
-2.3138 poor	-3.5019
-4.8932 positioned	-1.1426
-5.1273 possibility	-0.8976
-3.6300 possible	-2.2675
-3.2219 possibly	-2.6964
-4.4953 preceded	-1.5045
-3.8860 precipitation	-2.0347
-4.8263 predominantly	-1.2259
-4.8263 present	-1.2125
-3.1470 pressure	-2.7941
-5.2734 principally	-0.7695
-4.6714 probably	-1.3590
-4.0803 progresses	-1.8710
-3.4197 prolonged	-2.4476
-4.1211 push	-1.8573
-5.2734 pushes	-0.8367
-4.4953 pushing	-1.5081
-4.0693 quickly	-1.9064
-4.1091 quite	-1.8787
-1.8714 rain	-3.8182
-4.5252 rainfall	-1.4660
-4.6502 rainy	-1.3430
-5.4953 range	-0.6975
-4.8932 ranging	-1.1383
-4.6502 rapidly	-1.3801
-3.0181 rather	-2.9507
-3.4222 reach	-2.5246
-3.1386 reaching	-2.8053
-4.5574 recent	-1.4230
-4.3389 recently	-1.6298
-4.0430 reducing	-1.9156
-4.3003 region	-1.6469
-4.2320 regions	-1.7187
-5.1273 relatively	-0.9025
-3.6959 remain	-2.2284
-4.9310 remainder	-1.1085
-3.3869 remaining	-2.5451
-5.0693 remains	-1.0408
-5.6714 replaced	-0.4764
-3.3671 rest	-2.6009
-4.7419 resulting	-1.2469
-4.1528 return	-1.8018
-4.0039 returning	-1.9243
-3.0859 ridge	-2.8227
-4.3096 rise	-1.6304
-5.1942 rises	-0.9013
-4.5100 rising	-1.4904
-2.6589 risk	-3.2504
-4.3596 roads	-1.6049
-5.6714 round	-0.4767
-3.3240 saturday	-2.5655
-2.3593 scattered	-3.4991
-4.7171 scattering	-1.2956
-2.1626 sea	-3.5900
-4.0181 seaboard	-1.9279
-4.7419 seas	-1.2770
-4.8584 second	-1.1760
-4.6936 see	-1.3012
-4.5744 sell	-1.4301
-4.6714 series	-1.3370
-4.3926 set	-1.5798
-4.5744 sets	-1.4066
-4.1091 setting	-1.8609
-4.6936 settled	-1.2479
-2.3698 seven	-3.4170
-3.0235 seventeen	-2.8661
-3.8968 severe	-2.0619
-4.5100 shallow	-1.5268
-3.7123 sharp	-2.1738
-3.8551 sheltered	-2.1222
-4.1273 short	-1.8471
-4.0329 should	-1.9647
-3.6460 shower	-2.2624
-1.8561 showers	-3.7844
-4.7683 significantly	-1.2520
-5.1942 situated	-0.8947
-2.9634 situation	-2.9815
-2.1468 six	-3.6136
-2.9178 sixteen	-2.9734
-3.8421 sixty	-2.1334
-3.5557 skies	-2.3192
-3.7099 slack	-2.2381
-3.9117 slacken	-2.0164
-4.2822 slackening	-1.6866
-4.3289 slackens	-1.6402
-4.0803 slacker	-1.9056
-4.4161 sleet	-1.5140
-3.3747 slight	-2.5740
-3.6959 slow	-2.2597
-3.1814 slowly	-2.6741
-4.2015 small	-1.7535
-5.1273 snow	-0.9522
-4.8584 so	-1.1594
-2.3252 some	-3.5392
-3.9471 sometimes	-2.0216
-4.5574 somewhat	-1.4308
-3.1386 soon	-2.7511
-2.0844 south	-3.5871
-2.4185 southeast	-3.3284
-4.2734 southeastern	-1.7164
-2.5026 southerly	-3.2958
-3.0842 southern	-2.8673
-1.9932 southwest	-3.6552
-4.0379 southwestern	-1.9367
-4.0973 spell	-1.8700
-2.3890 spells	-3.3800
-4.5574 spot	-1.4417
-4.2734 spots	-1.6798
-3.3682 spread	-2.5603
-2.9259 spreading	-3.0034
-4.2822 spreads	-1.6948
-5.0693 squalls	-0.9665
-4.6300 stabilize	-1.3496
-4.4953 stabilizes	-1.4559
-4.7419 stabilizing	-1.3162
-4.8263 stable	-1.1954
-5.0693 stage	-1.0020
-4.8584 stall	-1.1753
-3.5130 start	-2.3561
-4.4672 starting	-1.5407
-4.6936 stationary	-1.2878
-3.6564 stay	-2.3167
-3.4672 staying	-2.4882
-4.0748 steadily	-1.9003
-3.5710 still	-2.3719
-4.8263 store	-1.1696
-3.3869 storm	-2.5712
-4.1151 stormy	-1.8499
-3.7629 strengthen	-2.1475
-3.3144 strengthening	-2.5714
-5.0181 stretches	-1.0378
-2.2669 strong	-3.5046
-3.9856 stronger	-1.9871
-3.3881 strongest	-2.5589
-5.0693 sun	-1.0000
-3.1744 sunday	-2.7176
-2.5511 sunny	-3.3186
-5.0693 sunrise	-0.9863
-3.0319 sunshine	-2.8295
-4.7963 surrounding	-1.2300
-2.6927 swell	-3.1990
-3.8232 system	-2.1483
-4.6714 systems	-1.3014
-4.2648 temperature	-1.7561
-2.0510 temperatures	-3.8041
-2.7597 ten	-3.0844
-4.1528 tend	-1.8075
-4.9310 tending	-1.0606
-3.7963 than	-2.1505
-1.6220 the	-4.1618
-4.1335 them	-1.8456
-3.2424 then	-2.6419
-3.1979 there	-2.7304
-3.6319 these	-2.3235
-4.3289 they	-1.6665
-4.1730 thicken	-1.7848
-4.0916 thickening	-1.8357
-5.9724 thicker	-0.3006
-4.7419 thin	-1.2867
-2.8762 thirteen	-3.0145
-2.4028 this	-3.5187
-3.9430 though	-1.9931
-5.1273 threat	-0.8976
-5.9724 threaten	-0.2905
-2.3103 three	-3.4902
-3.5011 through	-2.4402
-3.6460 throughout	-2.2697
-2.9386 thunder	-2.9358
-4.3813 thunderstorm	-1.5937
-3.1800 thunderstorms	-2.6928
-3.4810 thursday	-2.3993
-2.6936 time	-3.1100
-2.6762 times	-3.1257
-1.3786 to	-4.3320
-2.6035 today	-3.1106
-4.4810 today's	-1.5018
-4.4810 together	-1.4999
-2.1184 tomorrow	-3.5886
-5.0181 tomorrow's	-1.0409
-2.1016 tonight	-3.5431
-4.4953 tonight's	-1.5051
-4.1463 too	-1.7956
-4.2015 top	-1.7743
-3.7220 touch	-2.2521
-3.7171 touching	-2.2514
-3.6032 towards	-2.3576
-4.3926 track	-1.6324
-5.9724 tracking	-0.3010
-4.7171 tracks	-1.3036
-3.5676 trough	-2.3407
-3.4209 troughs	-2.4840
-3.4632 tuesday	-2.3875
-3.7419 turn	-2.2420
-3.3881 turning	-2.5325
-4.8584 turns	-1.1755
-2.9290 twelve	-2.9773
-2.3287 twenty	-3.5768
-2.6460 two	-3.1879
-4.7419 ultimately	-1.2757
-3.9812 under	-2.0066
-5.1942 uniform	-0.8955
-4.5922 unsettled	-1.3927
-3.3260 unstable	-2.5759
-3.9812 until	-1.9798
-3.6241 up	-2.2625
-4.3389 valid	-1.6186
-2.4988 variable	-3.3109
-5.0693 vary	-0.9582
-3.5591 veer	-2.3766
-2.4941 veering	-3.4193
-4.6502 veers	-1.3764
-2.9741 very	-2.9779
-5.9724 vicinity	-0.2956
-4.4409 vigorous	-1.5768
-4.9310 violent	-1.1136
-2.1148 visibility	-3.7672
-4.3389 wake	-1.6138
-4.8263 wales	-1.1897
-4.6936 wards	-1.3210
-3.2514 warm	-2.6336
-4.7963 warmer	-1.2168
-4.8263 warmest	-1.1951
-2.3646 warning	-3.5104
-5.1273 water	-0.9406
-3.2289 waters	-2.6568
-4.0379 wave	-1.9383
-4.1942 waves	-1.7860
-4.1463 way	-1.8083
-3.2657 weak	-2.7059
-4.2564 weaken	-1.7016
-4.2015 weakening	-1.7641
-2.1169 weather	-3.6031
-3.5394 wednesday	-2.3637
-4.8584 week	-1.1758
-3.5850 well	-2.3165
-1.9138 west	-3.6869
-2.6264 westerly	-3.1772
-2.8662 western	-3.0754
-4.3596 westwards	-1.5592
-3.8825 wet	-2.0507
-4.8584 when	-1.1807
-3.5625 where	-2.3678
-4.0230 which	-1.9486
-3.8825 while	-2.0499
-4.3596 wide	-1.6326
-2.8652 widespread	-2.9640
-1.9264 will	-3.9996
-2.1455 wind	-3.6352
-2.0452 winds	-3.6495
-2.9091 windy	-2.9115
-4.8263 wins	-1.2020
-3.8932 wintry	-2.0272
-1.9206 with	-3.8598
-5.3703 won't	-0.7770
-4.6502 year	-1.3282
-3.6779 zero	-2.2089
-5.1273 zone	-0.8978

\2-grams:
-0.0000 </s> <s> 1.5562
-3.1365 <s> </s> 3.1359
-1.2581 <s> a -1.0407
-4.8441 <s> across -0.0473
-3.1814 <s> active -0.0603
-3.1814 <s> after -1.7628
-4.8441 <s> airflow -0.2230
-3.5431 <s> all -1.1589
-4.5431 <s> although -0.1571
-4.2421 <s> amounts -0.4881
-2.3403 <s> an -1.2518
-2.2399 <s> and -2.7181
-2.5817 <s> another 0.0610
-2.7170 <s> any -1.0362
-3.0116 <s> apart 0.1694
-3.2209 <s> as -1.9175
-2.7834 <s> associated -0.6898
-4.8441 <s> atlantic -0.4516
-2.1871 <s> backing -0.6207
-4.8441 <s> bands 0.2471
-1.6018 <s> becoming -1.3088
-4.2421 <s> beginning -0.4472
-3.8899 <s> best -0.9299
-3.9410 <s> between -0.8971
-2.9990 <s> blustery -0.5378
-4.8441 <s> both 0.0252
-2.7302 <s> breezy -0.7452
-3.9410 <s> brief -0.5390
-2.3627 <s> bright -1.2690
-4.2421 <s> brightening 0.4649
-2.7949 <s> brighter -1.2611
-2.6594 <s> but -1.0255
-4.8441 <s> calm -0.4355
-3.6980 <s> centered -0.3445
-4.8441 <s> central 0.1502
-2.7138 <s> clear -1.2705
-4.3670 <s> clearance -0.2115
-2.3787 <s> clearer 0.0390
-3.1629 <s> clearing -1.0026
-3.9410 <s> close -0.8778
-2.7686 <s> cloud -1.6224
-3.7302 <s> clouding -0.5119
-2.6346 <s> cloudy -0.8649
-4.8441 <s> coast -0.4504
-4.5431 <s> coastal -0.1518
-2.5281 <s> cold -1.4657
-3.8899 <s> colder -0.1112
-3.8899 <s> coldest -0.3954
-4.8441 <s> considerably -0.4171
-2.1702 <s> continuing -1.2983
-2.2878 <s> cool -1.3666
-3.5888 <s> cooler -1.0056
-3.1720 <s> coolest -0.7105
-4.2421 <s> damp -0.5229
-1.9203 <s> decreasing -1.7844
-4.2421 <s> dense -0.4472
-3.7302 <s> developing -1.0674
-3.2530 <s> drier -0.8754
-3.9410 <s> drizzle -0.9157
-2.0959 <s> dry -1.2018
-3.8899 <s> drying 0.3882
-3.3817 <s> dull -0.9198
-4.2421 <s> during -0.1435
-3.9990 <s> dying 2.3342
-3.2007 <s> early -1.1571
-4.5431 <s> east -0.2552
-3.6400 <s> easterly -1.0320
-3.6400 <s> eastern -1.1130
-4.8441 <s> eleven -0.4480
-2.6651 <s> elsewhere -1.3248
-4.5431 <s> everywhere -0.1609
-3.5654 <s> except -1.2271
-3.0246 <s> extensive -0.1615
-4.5431 <s> extremely 0.0291
-2.2736 <s> fair -1.9917
-4.1451 <s> fairly -0.5371
-2.9929 <s> feeling -0.2567
-4.2421 <s> fine -1.0079
-2.5913 <s> fog -0.9916
-3.6980 <s> followed -1.1189
-2.6827 <s> for -1.6851
-3.9990 <s> force -0.3251
-2.8188 <s> forecast -1.4498
-4.1451 <s> four -0.6734
-3.8027 <s> frequent -0.8076
-2.3376 <s> fresh -1.8758
-3.5654 <s> freshening -1.3318
-3.9410 <s> fresher -0.6636
-4.3670 <s> friday -0.0804
-2.7578 <s> frontal -1.8163
-3.8899 <s> fronts -0.3697
-3.1539 <s> frost -0.5110
-1.6915 <s> further -2.0188
-1.5821 <s> gale -1.8652
-3.9990 <s> gales -0.5707
-2.4900 <s> generally -1.0343
-2.3684 <s> good -1.5494
-2.4242 <s> gradually -2.4915
-3.3970 <s> ground -0.2926
-3.8441 <s> gusting -0.7064
-4.8441 <s> gusts -0.2758
-3.6680 <s> gusty -0.9677
-4.8441 <s> hail -0.2966
-4.8441 <s> haze -0.3279
-3.6680 <s> hazy -0.1590
-3.1539 <s> head 0.3823
-3.9410 <s> heavier -0.4724
-2.5769 <s> heavy -2.2272
-4.1451 <s> high 0.4938
-1.2134 <s> highest -0.7249
-3.4639 <s> hill -0.1795
-4.5431 <s> hook 1.3794
-2.4032 <s> however -0.5055
-3.4291 <s> humid -1.1969
-3.3970 <s> improving -0.7247
-2.6949 <s> in -1.3545
-4.2421 <s> increased 0.0969
-1.9076 <s> increasing -1.5632
-4.8441 <s> initially -0.4296
-4.8441 <s> inland -0.4503
-3.3256 <s> ireland -1.4764
-1.9041 <s> irish -2.0407
-4.8441 <s> is -0.4457
-2.4786 <s> isolated -1.6496
-3.2878 <s> issued 0.2290
-2.4549 <s> it -1.9604
-4.8441 <s> it's -0.1509
-3.6400 <s> its -1.0215
-3.9410 <s> just -0.3636
-3.3817 <s> largely -1.2834
-4.1451 <s> late -0.5934
-2.2890 <s> later -1.8453
-3.5654 <s> less -1.1108
-2.4393 <s> light -0.8547
-3.3126 <s> little -1.4451
-3.0517 <s> local -0.8088
-4.8441 <s> localized 0.6784
-3.1198 <s> locally -1.4145
-4.1451 <s> long -0.3918
-4.0660 <s> loop 1.5293
-4.1451 <s> lough -0.1549
-4.2421 <s> low -0.5132
-1.3089 <s> lowest -0.4466
-1.9874 <s> mainly -1.8937
-3.8899 <s> man 0.4480
-2.7722 <s> many -0.9363
-4.2421 <s> maximum 0.0969
-3.6137 <s> may -1.1770
-3.8027 <s> meanwhile 0.0726
-1.8752 <s> meteorological 0.0405
-2.2442 <s> mild -0.9854
-3.7302 <s> milder -0.9601
-3.9990 <s> miles -0.8168
-3.7302 <s> minimum 0.0000
-2.2046 <s> mist -1.6433
-3.0588 <s> misty -1.5064
-3.8441 <s> mizen 1.1367
-2.0822 <s> moderate -1.8762
-2.6738 <s> moderating -1.5033
-3.9990 <s> monday -0.7814
-3.1629 <s> more -0.8857
-2.5888 <s> most -1.3408
-2.1938 <s> mostly -1.3391
-3.6980 <s> much -0.3193
-4.8441 <s> near -0.4301
-2.4749 <s> no -1.7223
-2.6798 <s> north -1.7449
-3.9410 <s> northeast -0.8355
-4.8441 <s> northeasterly -0.4493
-4.1451 <s> northerly -0.0436
-3.2878 <s> northwest -1.6478
-4.2421 <s> northwesterly -0.4797
-3.9410 <s> not -0.2341
-2.2736 <s> occasional -1.1912
-2.9520 <s> occasionally -0.8366
-4.8441 <s> of -0.3673
-3.7302 <s> often -0.9871
-3.5017 <s> on -0.8533
-4.5431 <s> once -0.1252
-4.3670 <s> one -0.4058
-4.5431 <s> only -0.0520
-4.5431 <s> or -0.1134
-4.5431 <s> other -0.1197
-1.8664 <s> otherwise -1.1812
-2.3444 <s> outbreaks -0.8340
-1.3326 <s> outlook 0.6500
-3.8899 <s> overall -0.8562
-3.5888 <s> overcast -0.7041
-3.6137 <s> overnight -0.9899
-3.5219 <s> parts -0.9671
-2.7872 <s> patches -1.8321
-2.3923 <s> patchy -1.0796
-3.4291 <s> perhaps -0.9035
-3.5654 <s> persistent -0.8863
-4.8441 <s> places -0.2355
-4.5431 <s> pleasant 0.6548
-4.8441 <s> pockets -0.2363
-3.1539 <s> point 0.0258
-3.4127 <s> poor -0.8729
-4.5431 <s> possible -0.1610
-3.3670 <s> possibly -1.2221
-3.8027 <s> predominantly -0.1518
-3.7302 <s> pressure -1.0708
-4.8441 <s> prolonged -0.4313
-3.7302 <s> quite -0.8402
-1.5265 <s> rain -1.3650
-2.3500 <s> rather -0.9913
-3.8441 <s> reaching -0.3984
-4.8441 <s> relatively 0.4512
-2.9096 <s> remaining -0.8791
-4.5431 <s> rest 2.4417
-4.5431 <s> resulting 1.0906
-2.1823 <s> risk -0.7129
-3.9990 <s> saturday -1.1474
-1.9266 <s> scattered -0.8505
-2.1880 <s> sea -1.6739
-4.5431 <s> severe -0.1576
-4.3670 <s> sharp 0.2315
-3.4462 <s> short -1.6114
-1.9520 <s> showers -1.2852
-4.8441 <s> skies -0.4324
-3.8441 <s> slack -0.6825
-4.8441 <s> slacker -0.2887
-3.3256 <s> slight 0.7186
-4.8441 <s> slow 0.3645
-3.5431 <s> slowly -1.0315
-1.8724 <s> some -1.0594
-3.9410 <s> sometimes -0.7230
-4.0660 <s> somewhat -0.4452
-4.5431 <s> soon -0.3871
-2.3390 <s> south -1.6663
-3.1198 <s> southeast -1.0757
-2.3877 <s> southerly -1.7540
-3.5654 <s> southern -0.9548
-3.0448 <s> southwest -1.2373
-3.3970 <s> spells -1.6728
-3.6980 <s> starting 0.2332
-4.8441 <s> stay -0.4117
-2.6240 <s> staying -0.7126
-3.0053 <s> still -1.0315
-4.2421 <s> stormy -0.9851
-4.2421 <s> strengthening -0.7377
-2.5366 <s> strong -1.0803
-3.2313 <s> stronger -0.2192
-4.0660 <s> strongest -0.2710
-4.1451 <s> sunday -0.4001
-2.6827 <s> sunny -0.3389
-3.4639 <s> sunshine -1.2417
-3.6680 <s> temperatures -1.6255
-1.8364 <s> the -1.6260
-2.8899 <s> then -1.1906
-2.5474 <s> there -1.5725
-3.9990 <s> these -0.6690
-4.2421 <s> thickening -0.5433
-4.8441 <s> thicker -0.1509
-2.9990 <s> this -1.1414
-3.8899 <s> three -0.9336
-3.3527 <s> thunderstorm -0.1903
-3.8441 <s> thursday -0.9860
-2.6566 <s> to -2.1843
-3.1365 <s> today -1.7179
-3.5654 <s> today's 0.2264
-2.3570 <s> tomorrow -1.5974
-4.5431 <s> tomorrow's 0.0985
-2.4497 <s> tonight -1.1841
-3.5654 <s> tonight's 0.2264
-3.0807 <s> top 0.0147
-4.0660 <s> towards -0.6433
-3.6980 <s> tuesday -1.5791
-2.6162 <s> turning -1.5849
-4.8441 <s> two -0.4517
-4.5431 <s> ultimately 1.1140
-4.2421 <s> under -0.2062
-3.9990 <s> unsettled 0.5528
-4.8441 <s> up -0.1471
-3.5888 <s> variable -0.9838
-1.8972 <s> veering -1.8592
-2.4786 <s> very -1.1171
-1.0272 <s> visibility -1.4386
-3.0959 <s> warm -1.3618
-3.9990 <s> warmest -0.1181
-1.5848 <s> warning -2.9771
-4.3670 <s> waters 0.6320
-3.4291 <s> weak -1.3670
-1.0974 <s> weather -2.2514
-3.8441 <s> wednesday -0.9772
-4.2421 <s> well -0.3714
-2.9198 <s> west -1.8183
-2.8355 <s> westerly -1.5182
-4.0660 <s> western -0.6225
-3.4127 <s> wet -0.8833
-3.9410 <s> while -0.8727
-2.5097 <s> widespread -1.4553
-1.3038 <s> wind -2.2995
-1.8450 <s> winds -1.7432
-2.5769 <s> windy -1.1873
-3.4824 <s> with -0.9364
-3.1734 a a -1.0351
-2.9360 a band 0.0000
-3.7376 a bit 0.3610
-2.2510 a blustery -1.3817
-3.9137 a breezy -0.1241
-4.2148 a brief -0.4429
-1.9406 a bright -1.5734
-2.8168 a brighter -1.3665
-3.3697 a brisk -0.1524
-2.9843 a calm -0.9692
-2.6466 a chance 0.1722
-3.3117 a chilly -0.5531
-4.2148 a clear -0.4517
-1.3893 a clearance -1.0680
-4.2148 a clearer -0.4508
-3.2148 a close -0.9642
-3.0686 a cloud -1.1399
-2.9595 a cloudy -1.3889
-1.7376 a cold -1.5503
-2.3887 a complex -0.3486
-2.2510 a continuing -2.3710
-1.9203 a cool -1.0875
-2.6466 a cooler -1.4936
-2.6707 a damp -1.7987
-3.1734 a danger 0.1347
-3.5158 a day -0.6963
-3.3697 a deep 0.0000
-2.4154 a deepening -0.3374
-2.4824 a depression -1.2963
-2.9137 a developing -1.2962
-1.7569 a dry -2.7382
-2.7376 a dull -0.6435
-4.2148 a fairly -0.2900
-1.0689 a few -0.3597
-3.2605 a fine -0.6314
-1.5753 a fresh -1.4969
-1.8587 a freshening -1.8049
-3.9137 a fresher -0.4435
-1.8704 a frontal -2.0273
-3.4366 a frosty -0.6767
-0.7119 a further -2.7581
-3.0686 a general -0.8287
-2.6127 a generally -1.4496
-3.2148 a gentle 0.2503
-3.6127 a give -0.5929
-2.3227 a good -1.8880
-3.1356 a gradual -0.5229
-3.5158 a grey -0.5229
-2.8168 a ground -0.2434
-4.2148 a gusty -0.4401
-1.7151 a heavy -2.2775
-2.8168 a high -0.2848
-3.5158 a humid -0.0802
-3.0387 a large 0.0280
-3.4366 a largely -0.5992
-1.8530 a light -1.7637
-1.5237 a little -1.0060
-2.9595 a longer -1.2412
-2.5813 a lot -0.1311
-3.9137 a lowest 2.0031
-2.1541 a mainly -2.0498
-1.8884 a mild -1.3890
-3.9137 a milder -0.1572
-3.0686 a misty -0.7793
-2.0780 a mix 0.0156
-1.8437 a mixture 0.0037
-1.7069 a moderate -1.7976
-2.9843 a moderating -1.2213
-2.7998 a moist -0.1856
-3.9137 a more -0.1615
-2.3117 a mostly -2.2537
-2.8723 a much -1.2605
-3.1008 a muggy -0.8641
-3.3697 a murky -0.5177
-2.7676 a north -1.5079
-4.2148 a northeast -0.4299
-2.7998 a northeasterly -1.2831
-2.2803 a northerly -2.2326
-2.3574 a northwest -2.2409
-2.9843 a northwesterly -1.5952
-3.6127 a possibility 0.3010
-3.2605 a quickly -0.9079
-3.3697 a rapidly 0.0832
-2.9360 a rather -0.9933
-1.6489 a ridge -1.2402
-3.3117 a rise -0.6665
-1.2011 a risk -1.8496
-3.2148 a scattering 0.3010
-3.5158 a sea -0.6986
-3.0686 a second 0.0300
-3.0686 a shallow -0.6339
-2.7676 a sharp -1.1644
-4.2148 a short -0.4457
-2.1179 a slack -0.8349
-2.7998 a slackening -0.5128
-2.5246 a slacker -1.2763
-1.7998 a slight 0.0235
-3.1356 a slow -0.0955
-2.6127 a small -1.0007
-4.2148 a some -0.4495
-3.5158 a somewhat -0.6198
-2.5713 a south -1.2786
-3.5158 a southeast -1.1349
-2.8168 a southerly -1.3581
-2.4366 a southwest -2.2062
-2.5246 a spell -0.8773
-3.1734 a stabilizing -0.4859
-3.6127 a storm -0.5778
-1.7770 a strengthening -1.0565
-1.7137 a strong -1.6609
-4.2148 a sunny -0.4506
-4.2148 a this -0.3418
-3.5158 a threat 0.2041
-0.9856 a time -0.2705
-1.9920 a touch -1.1112
-3.0686 a trough -0.8560
-4.2148 a unstable -0.3451
-3.9137 a variable -0.1636
-2.9595 a veer -1.2245
-2.0975 a very -0.9195
-3.0686 a vigorous -1.3687
-1.9571 a warm -1.3432
-2.8925 a wave -0.5393
-1.5408 a weak -0.7434
-2.7834 a weakening -1.6154
-3.0686 a week 0.0300
-2.3010 a west -2.1948
-3.0387 a westerly -0.9820
-3.9137 a wet 0.2300
-2.8346 a while -1.4284
-2.6350 a wide -0.5484
-2.4513 a widespread -1.5985
-4.2148 a windy -0.4429
-1.3010 abate </s> 4.3916
-0.0706 abate on -1.0797
-1.3010 abate quickly -0.4470
-1.0792 about </s> 3.9984
-1.1461 about a -0.7760
-1.9243 about also -0.0669
-0.8103 about and -1.1100
-1.9243 about but -0.4282
-1.9243 about early -0.2247
-1.6232 about especially 0.2371
-1.9243 about fifteen -0.4423
-1.9243 about principally 0.0252
-1.6232 about than -0.0499
-0.7782 about the -1.5243
-1.2253 about this -0.5888
-1.3222 about too -0.5051
-0.5263 about with -1.3022
-0.0061 accompanied by -1.3484
-1.5855 across all -0.7802
-2.3636 across as -0.0297
-2.6646 across eastern -0.4074
-0.7352 across ireland -1.0124
-2.0626 across many -0.4829
-1.6646 across most -0.9588
-1.3222 across much -0.7773
-1.9657 across northeastern -0.6425
-1.0964 across northern -1.3213
-2.1875 across southern 0.0876
-0.2175 across the -1.2414
-0.6261 active cold -1.5188
-1.3153 active depression -0.4819
-2.2695 active depressions -0.4007
-1.1234 active front -0.9859
-0.2281 active frontal -1.0795
-1.7924 active fronts -0.0419
-2.2695 active occlusion -0.3982
-1.9685 active trough -0.0779
-2.2695 active troughs -0.3706
-0.9243 activity also -0.3139
-1.3222 activity likely -0.1151
-1.0212 activity will -1.0473
-0.1461 activity with -1.4716
-0.0122 advance of -1.4266
-0.0792 advancing frontal -0.6216
-1.4168 affect all -0.6553
-1.7690 affect any -0.5937
-1.7690 affect atlantic -0.5416
-2.0700 affect coastal -0.1518
-2.3711 affect east -0.3785
-1.7690 affect eastern -0.5859
-1.7690 affect inland -0.4792
-0.9561 affect many -1.0869
-2.0700 affect most 0.0456
-1.7690 affect much -0.0370
-1.5260 affect northern -0.8386
-0.9731 affect parts -1.0428
-1.7690 affect places -0.5998
-0.8797 affect some -1.9358
-1.4680 affect southern -1.1956
-2.3711 affect southwest -0.4440
-0.4073 affect the -1.5932
-2.0700 affect west -0.0822
-1.7690 affect western -0.8811
-1.7818 affecting all -0.4327
-1.3046 affecting atlantic -0.7176
-2.0828 affecting coastal -0.4389
-0.8787 affecting eastern -0.9248
-1.4807 affecting extreme -0.5726
-1.7818 affecting hills 0.1101
-2.0828 affecting mainly -0.4518
-1.4807 affecting midland 0.2544
-2.0828 affecting most -0.4186
-1.4807 affecting north -0.6011
-1.2377 affecting northern -0.4444
-2.0828 affecting northwestern -0.0447
-1.3838 affecting parts -0.3438
-2.0828 affecting south -0.4509
-0.7211 affecting southern -1.0330
-0.6204 affecting the -0.9936
-2.0828 affecting west -0.4519
-1.0036 affecting western -0.9211
-2.1746 after </s> 4.6788
-0.5362 after a -1.3746
-2.1746 after any -0.4454
-0.5780 after dark 0.8050
-0.7944 after dawn -1.1513
-2.4757 after early -0.4509
-2.1746 after fog -0.3442
-2.1746 after midday -0.1006
-1.3617 after midnight -0.8129
-1.1969 after mist -0.9603
-1.4757 after nightfall -0.8264
-1.7767 after overnight -0.6974
-1.6306 after rain -0.8429
-1.4757 after some -0.9982
-1.5214 after sunrise 0.0458
-2.1746 after the -0.4495
-0.4432 afternoon </s> 1.8603
-2.7274 afternoon accompanied 1.1584
-3.4263 afternoon affecting -0.4447
-3.4263 afternoon allowing -0.4441
-2.4721 afternoon although -1.3625
-2.8243 afternoon an -0.5990
-0.4477 afternoon and -1.6150
-3.4263 afternoon any -0.3878
-2.0284 afternoon as -0.7708
-3.4263 afternoon away -0.3241
-2.4263 afternoon backing -0.4695
-2.1959 afternoon becoming -0.5150
-2.7274 afternoon best -0.5109
-2.5813 afternoon bringing -1.2098
-1.4220 afternoon but -0.9633
-2.7274 afternoon clearing -0.6961
-3.4263 afternoon cloudy -0.4362
-3.4263 afternoon continuing -0.4515
-2.6482 afternoon decreasing -0.9868
-2.6482 afternoon especially -0.0377
-2.6482 afternoon except -0.4039
-2.6482 afternoon followed -0.1066
-2.3472 afternoon force -0.6198
-2.0284 afternoon further -1.4863
-3.4263 afternoon gale -0.0367
-2.5233 afternoon goes 1.0160
-2.6482 afternoon heavy -0.7603
-2.8243 afternoon highest 1.3491
-1.9078 afternoon in -0.9290
-1.9212 afternoon increasing -0.9512
-3.4263 afternoon just -0.4395
-3.1253 afternoon misty -0.0976
-1.9078 afternoon on -1.2356
-2.1253 afternoon or -1.2960
-2.6482 afternoon outbreaks 0.8875
-2.6482 afternoon patchy -0.6351
-3.4263 afternoon possibly -0.4175
-3.1253 afternoon principally 0.3124
-2.5233 afternoon progresses -0.8585
-2.8243 afternoon scattered -0.5695
-1.9792 afternoon sea -1.4336
-3.4263 afternoon slowly -0.3792
-2.8243 afternoon some -0.3482
-3.4263 afternoon soon -0.4327
-3.4263 afternoon spreading -0.4143
-2.4721 afternoon sunshine -0.9373
-2.7274 afternoon temperatures -1.1271
-2.3850 afternoon the -0.8667
-2.1711 afternoon then -1.3221
-3.4263 afternoon though -0.4481
-2.6482 afternoon to -0.5324
-2.1253 afternoon tomorrow -1.7396
-2.0114 afternoon veering -0.9154
-2.5813 afternoon visibility -0.3311
-3.4263 afternoon where -0.3651
-3.4263 afternoon while -0.3534
-1.7731 afternoon will -0.7801
-2.5233 afternoon winds -0.8809
-1.2833 afternoon with -1.0596
-0.8699 again </s> 2.9802
-2.4322 again a -0.1515
-2.4322 again after -0.0315
-1.9550 again also -0.7700
-1.8301 again and -0.8872
-1.3908 again as -1.0683
-2.7332 again be -0.3948
-2.7332 again become -0.3723
-1.2280 again by -0.9272
-1.2017 again during -0.2860
-2.0342 again early -0.1022
-2.7332 again elsewhere -0.3287
-1.4322 again force -0.8162
-1.7332 again from -0.9641
-2.7332 again gale -0.4455
-1.7332 again in -0.7946
-1.6193 again late -1.0084
-0.9698 again later -0.6083
-2.1311 again mainly -0.5988
-2.0342 again on -0.8874
-2.7332 again over -0.4517
-2.7332 again overnight -0.2421
-2.0342 again some -0.6344
-1.9550 again strong -0.6972
-1.7332 again the -0.9934
-2.7332 again there -0.0307
-2.0342 again this -0.5888
-1.8881 again throughout -0.7075
-2.4322 again today -0.1108
-0.8194 again tomorrow -1.9435
-1.1891 again tonight -0.7579
-1.5871 again towards -1.1842
-1.8881 again wednesday -0.7672
-0.9850 again with -1.2225
-0.0780 ahead of -2.2158
-1.8633 ahead will -0.3538
-0.8633 ahead with -0.8769
-1.0837 airflow </s> 2.5810
-2.3919 airflow across -1.3062
-2.4431 airflow along -0.5504
-2.0451 airflow and -1.2944
-3.3462 airflow backs -0.4105
-2.3048 airflow becomes -0.7169
-2.2322 airflow covering 0.0322
-0.3876 airflow covers -0.1112
-1.6138 airflow develops -1.0703
-2.1701 airflow eases -0.9128
-1.8548 airflow extends -0.9655
-2.5011 airflow followed -0.1736
-1.7664 airflow following -1.8862
-1.8410 airflow follows -1.1295
-3.3462 airflow fronts -0.2113
-2.8690 airflow gradually -0.2404
-1.3087 airflow is -1.9557
-3.3462 airflow lies -0.4171
-2.1157 airflow moderates -1.3687
-0.8465 airflow over -2.2671
-1.8021 airflow persists -1.1625
-3.0451 airflow sets 1.2503
-1.9312 airflow slackens -0.9289
-3.3462 airflow slowly -0.4512
-2.5011 airflow stabilizes 0.5092
-2.7441 airflow to -0.2837
-2.0037 airflow veers 0.0378
-1.9482 airflow which 0.5563
-0.8451 airflow will -1.7725
-3.3462 airflow wind -0.4491
-0.1761 alert stormy 0.0976
-0.4771 aligned along -0.0992
-0.4771 aligned over -0.4517
-3.3225 all area -0.1629
-0.5543 all areas -1.1010
-3.0215 all atlantic -0.5416
-2.0003 all but -1.7361
-1.9160 all coastal -1.1761
-1.0857 all coasts -1.2376
-3.3225 all day -0.2949
-0.9524 all irish -3.0683
-3.3225 all of -0.0801
-1.4774 all parts -0.5780
-2.7205 all places -0.6474
-3.3225 all regions -0.1500
-0.3385 all sea -3.1030
-3.0215 all southwest -0.5942
-3.0215 all strong -0.5111
-2.7785 all the -0.8446
-2.3448 all waters -0.4750
-1.0607 allow a -0.1595
-0.4586 allow brief -1.0053
-1.6628 allow frost -0.4493
-1.0607 allow mist -0.2836
-0.3840 allow some -1.3505
-1.6628 allow temperatures -0.4518
-0.5441 allowing a -0.6461
-1.7482 allowing atlantic -0.4500
-1.7482 allowing brighter -0.3113
-1.7482 allowing fog -0.4487
-0.3865 allowing mist -1.0433
-1.4472 allowing patches 0.0601
-1.7482 allowing sharp -0.4137
-1.4472 allowing some -0.4026
-0.9700 allowing sunny -0.2521
-1.4472 allowing temperatures -0.1645
-0.8653 almost calm -0.7533
-0.6021 almost completely -0.1963
-1.3424 almost everywhere -0.0901
-0.4130 almost stationary 0.2281
-0.7984 almost uniform 0.0580
-1.6734 along all -1.0947
-2.8195 along and -0.4512
-1.3010 along atlantic -1.9095
-2.8195 along both 0.0252
-2.2175 along coasts -0.1186
-2.1206 along east -1.1466
-1.7782 along eastern -1.2585
-1.7404 along exposed -0.8477
-2.5185 along it -0.1638
-1.5643 along north -1.1493
-1.1963 along northern -1.3336
-1.5643 along parts -0.9001
-2.8195 along remaining -0.4305
-1.6734 along some -1.5923
-2.2175 along south -0.9933
-2.2175 along southeastern -0.4576
-1.3144 along southern -1.6224
-1.2881 along southwest -1.5149
-0.2549 along the -2.4017
-1.8653 along west -0.8474
-1.6435 along western -1.0117
-1.5643 along with -0.7179
-0.5441 already affecting -0.0457
-0.2430 already in -0.3966
-0.2307 also </s> 1.8961
-2.2239 also a -1.3771
-3.1781 also affect -0.2362
-3.1781 also along -0.0992
-1.7310 also and -1.1083
-2.4791 also apart 1.3030
-1.7979 also as -1.2278
-2.0320 also be -0.8816
-2.8771 also becoming -0.1627
-2.2750 also best -0.5663
-2.8771 also between -0.1449
-2.5761 also bringing -0.9246
-1.5446 also but -0.7256
-1.9228 also chiefly 0.7309
-2.8771 also clearing -0.1365
-3.1781 also coldest -0.0152
-2.5761 also easing -0.4406
-1.3788 also especially -0.8121
-2.7010 also expected -0.2350
-2.5761 also further -0.6000
-2.4000 also generally -0.7630
-3.1781 also heaviest 0.2305
-2.2750 also highest 1.0481
-3.1781 also however -0.4508
-1.8771 also in -1.5415
-2.8771 also increasing -0.1256
-2.1781 also later -0.5848
-2.2239 also likely -1.2738
-2.3330 also lowest 1.3227
-1.8559 also mainly -1.2769
-2.8771 also most -0.1235
-3.1781 also near -0.2393
-2.8771 also of -0.0714
-2.8771 also on -0.1632
-2.8771 also perhaps -0.1501
-2.4791 also persistent -0.6764
-3.1781 also persisting -0.4477
-2.4000 also possible -1.1364
-3.1781 also possibly -0.4374
-2.8771 also rain -0.1639
-2.5761 also remain -0.5885
-1.5060 also some -1.7078
-2.3330 also strong -0.7642
-2.1367 also the -0.4744
-1.8771 also these -1.2484
-3.1781 also this -0.0556
-3.1781 also to -0.4501
-1.7310 also visibility -1.5214
-2.4000 also weakening -0.5916
-3.1781 also where -0.3730
-3.1781 also will -0.4479
-1.0079 also with -1.1666
-0.7183 although a -1.1529
-2.0607 although becoming -0.4501
-1.3617 although cloud -0.5488
-1.3617 although hill -0.3945
-0.9815 although in -0.8677
-1.4586 although increasing -0.5852
-1.1065 although isolated -0.4637
-0.8846 although it -0.3160
-1.7597 although many -0.0455
-1.3617 although mostly -0.6984
-2.0607 although much 0.1132
-1.7597 although northeasterly -0.1595
-1.0607 although occasional -0.9379
-2.0607 although one -0.4072
-1.2825 although outbreaks 0.8875
-2.0607 although rather -0.2986
-2.0607 although scattered 0.0656
-2.0607 although skies -0.4503
-1.1065 although some -0.9455
-2.0607 although winds -0.4476
-2.0607 although wintry 0.0016
-1.2900 amounts </s> 4.6788
-0.9890 amounts and -0.5996
-1.5911 amounts especially -0.0501
-0.9890 amounts further -0.6000
-0.6368 amounts of -1.3060
-1.5911 amounts overnight -0.4349
-0.9890 amounts reaching -0.5995
-0.4771 amounts will -1.0155
-2.7619 an a -0.4458
-0.7707 an active -0.9076
-2.0630 an advancing 0.0792
-1.9838 an approaching -0.7690
-1.4002 an area -1.2831
-1.3817 an associated -1.3108
-1.5858 an atlantic -1.0347
-1.3470 an east -1.3133
-1.4002 an easterly -1.2899
-2.7619 an embedded -0.4447
-1.8588 an extremely -0.5051
-2.1599 an gradually -0.5604
-1.9838 an gusty -0.7293
-2.7619 an hour -0.3121
-1.9168 an increasing -0.8444
-1.1185 an isolated -2.0695
-2.7619 an northerly -0.3228
-1.8588 an occasional -0.8916
-1.4002 an occlusion -0.7283
-2.4609 an overcast -0.3300
-0.3623 an unstable -1.2359
-1.8847 and a -1.8239
-4.4645 and accompanied 1.4054
-4.4645 and active -0.4448
-4.4645 and affecting -0.4447
-3.6863 and after -0.8782
-3.3853 and afternoon -0.9763
-3.2340 and again -1.1135
-3.3853 and all -0.9371
-3.4231 and almost -0.9165
-3.6194 and along -0.9231
-3.1857 and also -0.4578
-4.1634 and an -0.1714
-3.3505 and and -0.5198
-3.0173 and any -0.6217
-2.9874 and around -1.3905
-4.1634 and as -0.1603
-3.1423 and associated -1.6882
-2.8847 and at -0.0237
-3.3853 and away -0.9514
-3.1634 and back -1.0374
-2.3215 and backing -1.4728
-3.2092 and become -0.7388
-2.0363 and becoming -1.1865
-2.5151 and blustery -1.0144
-4.1634 and breeze 0.4383
-1.8132 and breezy -0.7830
-4.4645 and brief -0.2531
-1.9118 and bright -1.4015
-3.0665 and brighter -0.9047
-4.4645 and bringing -0.3805
-4.4645 and broken 1.0666
-4.4645 and builds 0.2785
-3.3183 and by -1.1146
-3.6194 and calm -0.5713
-2.1506 and clear -1.6816
-3.6863 and clearing -0.9656
-3.8624 and clears -0.5870
-2.7832 and close -0.4559
-2.8310 and cloud -0.8215
-2.6651 and cloudy -0.7914
-4.4645 and coast -0.1761
-2.3406 and coastal -1.9327
-2.7655 and coasts -1.4371
-2.7924 and cold -1.0347
-3.8624 and confined 0.7959
-3.6863 and continue -0.6293
-3.2092 and continuing -0.2263
-3.2604 and continuous -0.7093
-3.0331 and cool -0.8148
-4.1634 and could -0.0776
-2.9593 and damp -0.9322
-3.5102 and decrease -0.0533
-1.5780 and decreasing -2.8179
-3.6863 and deepen -0.5351
-3.9874 and dense 0.3514
-3.4231 and drier -0.2666
-4.4645 and drift -0.3270
-1.2259 and drizzle -0.8507
-2.9874 and drizzly -0.3444
-2.3676 and dry -1.3625
-3.7655 and dull -0.6782
-2.6863 and during -0.8583
-3.7655 and dying 1.8921
-1.5900 and early -2.3084
-3.2092 and ease -1.5122
-2.9593 and easing -1.3023
-1.8300 and east -1.2675
-3.3505 and easter -0.8429
-2.2550 and eastern -2.1206
-2.7321 and eight -1.6700
-3.4231 and eighteen -0.0207
-3.1027 and eleven -0.8228
-3.3183 and elsewhere -1.5903
-3.6194 and england -0.5740
-4.4645 and even -0.4239
-1.6863 and evening -0.8737
-4.4645 and exposed -0.2442
-3.8624 and extend 0.2540
-3.4645 and extending -0.6178
-3.6863 and extensive -0.3774
-4.4645 and extreme -0.4447
-3.6863 and fair -0.7314
-3.8624 and fairly -0.2338
-3.7655 and far -0.4422
-3.1221 and feeling -0.0240
-4.4645 and few -0.4392
-3.5614 and fifteen -0.7023
-3.1221 and fine -0.9166
-3.6863 and first -1.0562
-3.8624 and five -0.9396
-1.1555 and fog -0.4522
-3.7655 and foggy -0.8084
-3.3183 and followed -0.4746
-2.1903 and for -1.8498
-3.0495 and force -0.6171
-3.9874 and four -0.2335
-3.1423 and fourteen -1.4371
-4.4645 and frequent -0.3599
-2.6863 and fresh -1.0024
-3.2604 and freshen -1.2391
-2.5151 and freshening -1.1227
-3.1221 and fresher -0.9991
-3.4231 and friday -0.4923
-3.7655 and from -0.6984
-2.9204 and frost -0.3272
-3.5614 and frosty -0.3198
-2.2714 and further -1.4791
-3.2340 and gales -1.5882
-2.6721 and generally -1.3905
-3.8624 and giving -0.4968
-3.6863 and good -0.7703
-2.3539 and gradually -2.1958
-4.1634 and ground 0.9899
-4.4645 and gusting -0.4494
-4.1634 and gusts -0.1193
-1.3831 and gusty 0.4717
-2.9731 and hail -0.1742
-3.1221 and haze -0.4843
-3.6194 and hazy -0.1885
-3.4645 and head -0.9917
-4.4645 and heavier -0.0909
-3.5102 and heaviest -0.8739
-2.3183 and heavy -1.1936
-2.9460 and hill -1.2375
-2.8624 and hills 0.1817
-4.4645 and hilly -0.4061
-2.1744 and humid -0.7441
-4.1634 and icy 0.2367
-4.4645 and improving -0.2973
-2.3889 and in -1.5979
-3.0665 and increase -1.6280
-1.4449 and increasing -1.4641
-3.6194 and increasingly -0.7089
-3.0495 and inland -1.2922
-4.4645 and intensifying -0.2758
-3.6194 and into -0.8380
-2.4645 and irish -1.1007
-3.1221 and is -1.7487
-2.6132 and isolated -1.1254
-2.0429 and it -1.9822
-4.1634 and its 0.0179
-2.3963 and just -1.4168
-3.7655 and largely -0.0121
-2.2523 and later -1.2739
-3.5614 and less -0.8751
-3.8624 and lift -0.4260
-2.4559 and light -1.0845
-4.4645 and likely -0.4327
-4.4645 and lingering -0.4429
-3.3505 and little -1.0565
-3.0843 and local -1.3250
-3.6863 and localized 0.3522
-2.4311 and locally -1.7734
-3.6863 and longer -0.7025
-3.1221 and loop 0.9651
-3.4645 and low -0.9112
-2.5402 and mainly -1.4868
-3.6863 and maintains 0.5441
-3.4645 and many 0.0138
-3.2884 and may -0.7362
-4.1634 and merging 0.1449
-3.6863 and mid -0.6179
-4.1634 and midland -0.4084
-4.4645 and midlands -0.3909
-2.9593 and mild -0.9221
-3.4231 and milder -1.3841
-4.4645 and mildest 1.0666
-3.6194 and miles -0.8168
-1.9082 and mist -0.5699
-2.1104 and misty -1.0083
-3.7655 and mizen 1.4378
-2.9593 and moderate -1.0266
-1.7933 and moderating -1.3313
-3.9874 and moist -0.1831
-3.0843 and monday -0.7237
-3.1634 and more -1.3598
-2.4231 and most -1.1611
-2.0825 and mostly -2.0771
-4.4645 and move -0.4212
-3.2092 and much -0.8803
-3.5102 and muggy -1.2232
-3.7655 and murky -0.9204
-3.5614 and near -0.4463
-2.8412 and night -0.8410
-3.8624 and nine -0.5048
-3.8624 and nineteen -0.5604
-1.5724 and north -1.1227
-2.1678 and northeast -0.9465
-2.9460 and northeastern -1.1358
-2.0220 and northern -1.7860
-1.4877 and northwest -1.4810
-2.4351 and northwestern -0.9880
-2.6516 and occasional -0.7018
-2.5952 and occasionally -1.2116
-3.2604 and of -1.1942
-4.4645 and off -0.4496
-3.6194 and often -0.6598
-1.6175 and on -1.8555
-3.5102 and only -0.8415
-3.2340 and outbreaks 0.4352
-4.1634 and over -0.1642
-3.0843 and overcast -1.3122
-2.6863 and overnight -1.0440
-3.6194 and parts -0.4900
-3.6194 and passing -0.7068
-2.6012 and patches -1.6385
-2.6384 and patchy -0.1088
-2.8517 and perhaps -0.7503
-4.1634 and periods -0.1016
-2.7485 and persistent -0.0221
-3.8624 and persisting -0.8335
-4.4645 and pleasant 0.3676
-4.4645 and poor -0.4172
-4.1634 and possible -0.1610
-2.3341 and possibly -0.6136
-4.1634 and probably -0.1269
-2.4732 and prolonged -1.8229
-3.7655 and pushing -0.5607
-3.7655 and quickly -0.6739
-3.3853 and quite -0.4752
-2.3061 and rain -0.7497
-4.1634 and rainy -0.1269
-3.2884 and rapidly -0.6990
-2.2942 and rather -0.8136
-3.8624 and reach -0.2974
-2.4153 and reaching -0.9340
-3.3183 and reducing -1.0709
-4.4645 and remain -0.4337
-3.8624 and remaining -0.2694
-4.4645 and remains -0.2556
-3.6863 and risk 0.6917
-3.6194 and saturday -0.4829
-1.8517 and scattered -1.2585
-3.5614 and settled -0.3264
-2.9593 and seven -1.4822
-3.5614 and seventeen -0.5698
-1.8310 and showers -1.1991
-3.3505 and six -1.5432
-3.6863 and sixteen -0.5516
-4.4645 and sixty -0.1934
-3.5614 and skies -0.8836
-3.6194 and slack -0.7717
-3.2092 and slacken -1.1063
-3.2884 and slackening -0.7794
-3.7655 and slackens -0.3890
-4.1634 and slacker -0.0015
-4.1634 and sleet -0.0812
-3.2604 and slowly -0.8404
-4.1634 and snow 0.7895
-2.0462 and some -0.8600
-3.7655 and sometimes -0.6659
-1.7823 and south -0.7200
-1.9241 and southeast -1.4429
-3.0331 and southeastern -0.8580
-3.1423 and southerly -1.0995
-2.3746 and southern -1.6319
-1.7460 and southwest -1.4453
-2.8847 and southwestern -0.9158
-2.9204 and spells -1.4517
-3.2340 and spread -1.1295
-3.1857 and spreading -1.1933
-3.6863 and stabilize -0.4942
-3.0843 and stabilizes -0.3522
-3.2604 and staying -0.1533
-4.1634 and still -0.3128
-4.1634 and storm 1.0417
-3.6863 and stormy -1.1612
-2.5351 and strengthen -1.2354
-3.1027 and strengthening -0.4762
-2.8517 and strong -1.4241
-3.5102 and sunday -0.1362
-2.1926 and sunny 0.5105
-3.2884 and sunshine -1.5105
-3.2604 and surrounding 0.0263
-3.2340 and temperatures -1.6782
-2.9731 and ten -1.2948
-4.4645 and tending 0.6273
-1.5713 and the -1.6174
-3.0173 and then -1.0867
-2.3676 and there -1.3476
-3.8624 and these -0.8750
-4.4645 and thicken 0.2149
-4.4645 and thickening -0.1341
-3.1221 and thirteen -0.9880
-3.0665 and this -0.7710
-4.4645 and throughout -0.4499
-2.3573 and thunder -1.2913
-3.0173 and thursday -1.0492
-2.8734 and to -1.5795
-1.7163 and tomorrow -1.4581
-1.5220 and tonight -1.0614
-3.1634 and touching -0.2593
-4.1634 and tuesday -0.1274
-2.9204 and turning -0.6199
-4.4645 and turns -0.4219
-3.4231 and twelve -0.5713
-4.1634 and twenty -0.1443
-3.7655 and two -0.5563
-3.6863 and unstable -0.1039
-3.6194 and up -0.5403
-2.2264 and variable -0.8269
-3.6863 and veer -0.3188
-2.6320 and veering -1.0214
-2.2190 and very -1.6738
-4.1634 and violent 0.1041
-3.3505 and visibility -1.0434
-3.0021 and warm -1.3451
-3.8624 and waters 0.2016
-4.1634 and weakening 0.0218
-4.1634 and weather -0.3927
-4.1634 and wednesday -0.1380
-3.2884 and well -0.9455
-1.5952 and west -0.9542
-4.4645 and westerly -0.4496
-2.0879 and western -1.1472
-3.9874 and wet -0.4194
-4.1634 and while -0.1581
-3.3853 and widespread -0.9030
-1.8361 and will -1.7209
-3.2604 and wind -1.6523
-2.6194 and winds -1.2626
-2.0331 and windy -1.4223
-4.1634 and wintry -0.1360
-2.2470 and with -1.1354
-2.2014 another approaches -0.1624
-2.5024 another area -0.3733
-1.4232 another bright -0.7765
-1.1600 another cold -0.9191
-0.8590 another cool -1.5969
-1.5482 another day -1.4032
-1.7243 another depression -0.7254
-2.5024 another developing -0.4517
-0.6573 another dry -2.1748
-2.2014 another fresh -0.1643
-1.6573 another front -0.6848
-0.8792 another frontal -1.2358
-1.8035 another mainly -0.6131
-1.7243 another mix 1.3741
-1.3563 another mostly -1.0943
-1.8035 another muggy -0.6252
-1.7243 another rather -0.3711
-2.5024 another spell 0.3610
-1.8035 another trough -0.6027
-1.1407 another very -1.1177
-1.3263 another vigorous -0.9652
-1.7243 another warm -0.6776
-1.6573 another wave -0.2285
-2.5024 another weak -0.4502
-1.8035 another windy -0.6971
-1.5966 any breaks -0.8222
-1.9768 any bright -0.3886
-1.9768 any clear -0.9109
-1.5297 any clearance -1.0504
-1.5618 any cloud -1.1032
-1.7215 any damp -0.9221
-1.8307 any drizzle -0.1083
-2.3747 any early -0.4386
-1.4453 any fog -0.4175
-2.3747 any frost -0.4484
-2.6758 any ground 0.7027
-1.7727 any heavy -0.8301
-2.3747 any high -0.1382
-1.0525 any inshore -1.2212
-1.9768 any isolated -0.2084
-1.1573 any lingering -1.0044
-2.6758 any localized -0.4355
-1.1573 any mist -0.9810
-2.6758 any morning -0.4518
-1.4997 any overnight -1.1742
-1.9768 any patches -0.4742
-1.8307 any patchy -0.7021
-0.6715 any rain -0.9753
-0.8629 any remaining -1.8780
-2.6758 any scattered -0.4290
-0.9354 any showers -1.1725
-2.0737 any stage -0.4058
-2.0737 any sunshine -0.9515
-2.3747 any time -0.1624
-2.3747 any wet -0.1577
-0.0043 apart from -1.2054
-2.0531 apart perhaps -0.8835
-1.0607 appear around -0.2203
-1.3617 appear but -0.4502
-0.1856 appear by -1.1390
-0.7597 appear locally -0.6011
-0.2421 approach from -1.7197
-1.7404 approach ireland -1.1979
-2.5185 approach later -0.4393
-2.0414 approach northern -0.0283
-2.5185 approach quickly -0.3350
-1.6734 approach slowly -1.2095
-0.4654 approach the -1.4502
-1.7404 approach tomorrow -0.9807
-2.5185 approach west -0.4319
-2.2175 approach western -0.0032
-0.1211 approaches from -1.8996
-2.2765 approaches ireland -0.1491
-1.4635 approaches quickly -0.9971
-1.8785 approaches slowly -0.6382
-0.7386 approaches the -1.6603
-2.2765 approaches west -0.1447
-1.2553 approaching and -1.6376
-0.2164 approaching from -1.6863
-1.6812 approaching frontal -0.6379
-0.7190 approaching ireland -1.6812
-0.9153 approaching the -1.8471
-2.5539 are aligned -0.2758
-1.1922 are also -1.3548
-1.0098 are approaching 0.3063
-2.5539 are becoming -0.4518
-2.5539 are beginning 0.0252
-1.5125 are clear -0.6801
-1.5539 are crossing -0.6276
-2.5539 are drifting -0.4326
-2.5539 are edging -0.4007
-1.3498 are embedded -0.6229
-0.7615 are expected -0.9177
-2.5539 are following -0.4394
-0.5762 are likely -1.1317
-2.0768 are moving -0.2145
-1.7757 are of -0.7747
-1.8549 are offshore -0.5488
-1.2317 are possible -0.6506
-1.1067 are slow -0.6308
-1.7088 are slowly -0.8403
-1.1067 are still -1.3217
-2.5539 are tracking -0.1509
-0.4718 area </s> 2.6313
-1.9058 area ahead 0.0060
-2.6839 area also -0.4493
-2.0819 area and -0.2661
-1.3617 area as -1.5229
-2.6839 area backing -0.3637
-1.8388 area but -0.8379
-2.6839 area by -0.4139
-1.4798 area clearing -1.6143
-1.6048 area dying 0.1442
-1.9850 area early -0.4718
-1.8388 area from -0.2884
-2.3829 area good -0.1569
-1.5700 area gradually -1.0723
-2.0819 area in -0.5814
-1.5378 area increasing -1.1241
-2.3829 area later 0.0321
-1.9850 area more -0.5740
-0.7809 area of -1.4872
-2.6839 area on -0.4416
-1.7809 area slackens -0.8257
-1.7809 area sunday -0.8607
-1.5700 area the -1.1134
-2.6839 area today -0.3709
-1.3617 area tomorrow -1.0851
-1.5378 area veering -0.9768
-1.4535 area will -1.1927
-2.0819 area wind -0.5873
-1.1926 area with -1.3040
-0.6709 areas </s> 1.7289
-2.7855 areas a -0.9468
-3.7855 areas accompanied 1.4054
-2.9404 areas after -0.6958
-3.7855 areas again -0.4229
-2.5550 areas also -1.1565
-1.6649 areas and -1.2401
-3.4844 areas apart 1.8372
-2.9404 areas around -0.8118
-2.3084 areas as -1.3123
-1.8664 areas at -0.9512
-1.9861 areas becoming -1.4761
-1.9104 areas before -1.6228
-3.0865 areas beginning -0.5441
-3.1834 areas blustery -0.2097
-1.6817 areas but -0.6927
-2.2540 areas by -0.6720
-2.1622 areas clearing -1.3775
-2.8312 areas cloudy -0.5299
-3.7855 areas completely 0.3932
-3.4844 areas continuing -0.3399
-2.9404 areas decreasing -0.6029
-1.6649 areas dry -1.2498
-1.6519 areas during -1.5957
-3.4844 areas dying 1.0587
-2.4430 areas early -1.0950
-2.8824 areas elsewhere -1.0411
-2.5814 areas especially -0.9088
-3.7855 areas extensive -0.1313
-1.7063 areas fair -1.2917
-3.7855 areas fog -0.4499
-2.9404 areas followed -0.1736
-1.8510 areas for -1.3636
-2.5067 areas fresh -1.2505
-3.7855 areas from 0.1048
-2.7855 areas further -0.9927
-3.4844 areas gale -0.1583
-2.0953 areas generally -1.5943
-1.3772 areas good -1.3207
-2.7855 areas gradually -0.9790
-3.7855 areas hazy -0.4354
-2.3383 areas heavy -1.7358
-3.0865 areas highest 1.2522
-2.9404 areas however -0.4790
-3.4844 areas icy 0.2367
-2.5302 areas improving -1.2022
-2.0953 areas in -1.4847
-2.3875 areas isolated -0.9015
-3.0073 areas late -1.1992
-1.5499 areas later -0.6538
-2.9404 areas light -0.7729
-2.3875 areas locally -1.0725
-3.0865 areas lowest 1.4688
-1.9931 areas mainly -1.2746
-2.9404 areas may -0.6554
-3.4844 areas mild 0.0075
-2.9404 areas mist -0.5267
-3.0073 areas misty -1.0517
-0.9726 areas moderate -2.2620
-3.0865 areas monday -0.9981
-3.0865 areas most -0.6967
-1.5375 areas mostly -2.1980
-2.4430 areas near -1.1100
-1.6271 areas occasional -1.3157
-2.9404 areas occasionally -0.8251
-2.0865 areas of -1.6126
-3.4844 areas on -0.4326
-2.7441 areas onshore -0.8220
-2.3383 areas otherwise -1.1021
-3.1834 areas outbreaks 1.0636
-3.7855 areas outlook 0.6137
-2.4844 areas over -1.1209
-1.8990 areas overnight -1.3365
-2.8312 areas particularly -0.8766
-2.5550 areas patches -1.0057
-3.0865 areas patchy -0.8079
-3.4844 areas places -0.1638
-2.9404 areas poor -0.4575
-3.4844 areas possibly -0.2931
-1.4910 areas rain -1.3855
-3.1834 areas rather -0.4487
-3.4844 areas remaining -0.1468
-2.8824 areas risk 0.5667
-1.5375 areas scattered -1.2982
-1.7480 areas showers -2.2146
-3.1834 areas slowly -0.5986
-2.6715 areas some -0.5812
-3.4844 areas sometimes -0.1853
-2.6393 areas soon -1.0799
-3.7855 areas spells -0.3595
-3.0865 areas starting -0.7207
-2.3231 areas staying -1.2701
-2.7063 areas sunday -0.7318
-3.0073 areas the -0.9173
-2.8312 areas there -0.9128
-1.6715 areas this -0.9427
-2.6715 areas though -0.9865
-3.4844 areas through 0.3436
-3.1834 areas throughout -0.5840
-3.0073 areas thursday -0.7207
-2.8824 areas to -0.7620
-2.2173 areas today -0.6327
-3.0865 areas together 0.8062
-1.6456 areas tomorrow -1.0422
-1.8770 areas tonight -0.9477
-3.0865 areas too -0.4873
-3.0865 areas towards 0.4236
-2.5067 areas turning -0.9738
-3.1834 areas under -0.2062
-3.0073 areas variable -0.7773
-2.8824 areas veering -0.7225
-3.7855 areas very -0.4484
-2.3231 areas visibility -0.3819
-2.6094 areas weather -1.1244
-3.7855 areas west -0.4495
-2.2670 areas where -1.3984
-1.9221 areas widespread -1.5368
-1.4999 areas will -1.0515
-3.0073 areas winds -0.0722
-1.5576 areas with -0.8271
-1.5299 around </s> 3.9404
-1.5299 around at -0.5510
-2.4330 around atlantic -0.3914
-1.4787 around but -0.9376
-2.1319 around coastal -0.0750
-0.4692 around dawn -1.5280
-2.4330 around daybreak -0.4219
-1.8309 around especially -0.2003
-1.7340 around fifty -0.4388
-1.1542 around force -1.5363
-2.1319 around four -0.0901
-1.2569 around ireland -1.1457
-2.1319 around mid -0.0044
-1.3916 around midday -0.7857
-2.4330 around midnight -0.4250
-1.1319 around nightfall -1.0482
-2.1319 around nine -0.0675
-1.2288 around noon -1.5508
-1.5879 around seven -0.8182
-1.8309 around showers -0.4341
-2.4330 around six -0.3773
-0.9558 around the -1.4741
-2.4330 around thirteen -0.4477
-2.1319 around tonight -0.1622
-1.8309 around twelve -0.5965
-2.1319 around twenty -0.4163
-2.4330 around zero -0.4453
-0.5740 arrive along 0.2108
-0.2730 arrive in -1.1410
-0.8751 arrive on -0.0140
-0.0414 arrived in -0.9944
-1.0470 arriving along -0.4924
-1.5911 arriving by -0.1641
-0.7782 arriving from -0.9720
-0.1931 arriving in -1.4845
-1.1931 arriving near -0.4864
-0.5731 as a -1.7048
-2.0481 as active -1.1918
-1.4700 as an -2.0732
-2.2400 as another -1.3270
-2.5922 as any 0.0225
-2.1151 as blustery -1.0679
-3.1942 as breezy -0.3720
-2.5922 as bright -0.5174
-2.4953 as brighter -0.6284
-2.8932 as clear -0.1221
-2.5922 as clearer -0.1424
-1.9901 as cloud -0.9483
-2.1528 as cold -0.9110
-2.8932 as drier -0.3231
-2.8932 as extensive -0.0922
-3.1942 as fifty -0.2952
-3.1942 as five -0.4514
-2.5922 as fresh -0.9125
-1.1151 as frontal -1.6788
-3.1942 as fronts -0.4367
-2.4953 as further -0.5031
-3.1942 as good -0.4412
-3.1942 as hail -0.2976
-2.1151 as heavy -1.0179
-2.3491 as high -0.8404
-2.8932 as in -0.1633
-1.7029 as it -1.4764
-2.8932 as last -0.0720
-2.4161 as light -0.7768
-2.1151 as low -1.0507
-3.1942 as mainly -0.2023
-2.8932 as mist 0.1537
-3.1942 as moderate -0.4496
-2.0481 as more -0.9764
-3.1942 as north -0.4192
-2.8932 as northeasterly 0.0075
-2.4161 as northerly -0.6389
-3.1942 as northwest -0.3987
-2.2911 as northwesterly -0.7807
-3.1942 as one -0.4072
-1.9638 as pressure -1.2189
-1.7029 as rain -1.4327
-2.8932 as recent 0.0625
-2.5922 as scattered -0.5751
-2.4953 as showers -0.6988
-2.4161 as six -0.7035
-2.4953 as sixty -0.4405
-1.8720 as skies -1.1211
-2.7171 as sleet -0.1442
-2.1942 as some -0.9780
-2.5922 as south -0.5707
-3.1942 as southeast -0.3891
-1.8720 as southerly -1.1517
-2.8932 as sunny 0.3613
-2.2400 as temperatures -1.4056
-0.6973 as the -1.7623
-1.9901 as they -1.0234
-2.7171 as three 0.0173
-2.4953 as today -0.6179
-3.1942 as twenty 0.4347
-3.1942 as two -0.3608
-2.4161 as warm -0.7732
-2.8932 as waves -0.1505
-1.1649 as well -1.7807
-2.4161 as westerly -0.6618
-2.4953 as wet -0.0334
-2.4953 as widespread -0.6916
-3.1942 as will -0.4519
-1.0211 as winds -2.0215
-3.1942 as windy -0.4326
-2.1523 associated active -0.4472
-1.6752 associated atlantic -0.7763
-2.1523 associated bands 0.5343
-0.6145 associated cold -1.7142
-2.4533 associated complex -0.1757
-2.4533 associated deepening 0.2315
-1.5502 associated depression -0.7771
-1.1311 associated fog -1.6627
-1.2772 associated front -1.3072
-1.1311 associated frontal -0.1038
-1.0220 associated fronts -0.9437
-1.6082 associated hill -0.0963
-1.2772 associated low -1.0873
-0.9620 associated mist -0.9368
-2.4533 associated moderate -0.2574
-2.1523 associated northerly -0.0356
-1.6082 associated patches -0.6203
-2.4533 associated rain -0.4349
-2.4533 associated southerly -0.4472
-0.9762 associated strong -1.8964
-2.1523 associated trough -0.0739
-1.9762 associated troughs -0.0826
-1.6082 associated wave -0.2285
-2.1523 associated weather -0.1641
-2.4533 associated with -0.4346
-2.9879 at any -0.5571
-2.5108 at best -0.9498
-2.7327 at dawn -0.9300
-3.6869 at east -0.4455
-2.6455 at eight -0.9988
-2.5730 at eighteen -1.1052
-3.0848 at eleven -0.5982
-0.2554 at first 0.0238
-2.5408 at fist 0.0300
-2.5108 at present 0.0792
-2.2245 at risk -1.4556
-2.4565 at seventeen -1.2126
-2.9088 at some -0.7777
-3.6869 at thirteen -0.4516
-2.2890 at time -1.0180
-0.3909 at times 0.8009
-2.6077 at twelve -1.0709
-2.8418 at two -0.8400
-0.5252 atlantic </s> 2.2275
-2.3630 atlantic across -0.7667
-2.2960 atlantic ahead -0.0610
-1.3703 atlantic and -2.2034
-1.7432 atlantic approach -1.2159
-1.8624 atlantic bringing -0.7547
-2.3630 atlantic but -0.7734
-3.1411 atlantic clearing -0.4238
-2.8401 atlantic coast 0.1111
-2.2380 atlantic coastal -0.9351
-0.8859 atlantic coasts -0.7991
-2.8401 atlantic cold -0.0401
-2.3630 atlantic depression -0.5637
-2.4422 atlantic during -0.0094
-2.2380 atlantic early -0.8954
-2.1869 atlantic edge -0.8466
-3.1411 atlantic facing 0.6942
-2.2380 atlantic followed -0.2316
-2.3630 atlantic frontal -0.8418
-3.1411 atlantic fronts -0.2113
-1.9107 atlantic in -0.9913
-2.1411 atlantic is -0.7457
-0.9981 atlantic later -1.4297
-3.1411 atlantic lowest 1.7159
-2.8401 atlantic meteorological 2.8447
-1.6787 atlantic overnight -1.1172
-3.1411 atlantic persistent -0.3101
-2.2380 atlantic preceded 0.6021
-2.5391 atlantic reaching -0.5957
-2.2380 atlantic scattered -0.3856
-1.3777 atlantic seaboard -0.7963
-3.1411 atlantic soon -0.4234
-3.1411 atlantic south -0.4326
-1.4879 atlantic swell 0.2325
-2.4422 atlantic the -0.6599
-1.6940 atlantic this -0.6965
-1.5284 atlantic to -1.4693
-1.3350 atlantic tomorrow -1.5463
-1.5077 atlantic tonight -1.2207
-2.4422 atlantic trough -0.6082
-1.9950 atlantic warm -0.8336
-1.9650 atlantic which -0.3979
-1.5179 atlantic will -1.1580
-1.9950 atlantic wind -1.0773
-1.9370 atlantic with -1.5468
-0.8893 away </s> 3.2414
-1.5883 away across -0.4985
-1.7132 away after -0.6449
-1.7924 away and -1.1429
-1.8893 away as -0.9181
-2.1903 away brighter -0.1499
-0.9862 away by -1.4681
-2.4914 away dry -0.4292
-1.5371 away early -0.7270
-1.4914 away east -1.0027
-1.6463 away eastward -0.1919
-0.5937 away from -0.6008
-1.4500 away in -0.8359
-2.1903 away inland 0.0550
-1.0442 away later -1.2503
-1.6463 away northeast -0.8410
-2.4914 away northwest -0.4518
-1.3774 away overnight -1.3535
-2.0142 away quickly -0.2211
-1.6463 away rain -0.8281
-2.4914 away scattered 0.0656
-1.7132 away slowly -0.7174
-2.4914 away soon -0.4234
-1.7924 away southeast -0.6984
-2.1903 away this 0.2315
-2.1903 away through 0.3436
-1.7924 away to -0.6918
-1.4914 away tomorrow -0.9296
-2.4914 away tonight -0.2192
-2.4914 away westwards -0.4417
-2.5416 back east -0.3503
-2.5416 back easterly -0.4380
-2.5416 back into -0.0644
-1.3955 back more -1.1232
-2.2405 back north -0.0870
-1.6965 back northeast -1.1748
-1.9395 back northerly -0.6001
-1.5002 back northwest -1.0055
-0.8256 back south -1.4729
-1.3111 back southeast -0.8002
-0.7354 back southerly -2.2117
-0.6723 back southwest -1.5853
-1.5002 back to -1.0226
-0.9505 back west -1.8682
-0.8514 back westerly -1.5749
-1.3723 backing east -1.6051
-2.8156 backing easterly -0.2488
-3.4176 backing moderate -0.2574
-1.4682 backing north -1.6460
-1.9405 backing northeast -1.5391
-2.3037 backing northeasterly -0.5092
-2.2715 backing northerly -0.4255
-1.3723 backing northwest -1.3492
-2.3762 backing northwesterly -0.8693
-0.6074 backing south -2.1498
-1.0674 backing southeast -1.3141
-1.0411 backing southerly -1.8521
-0.7355 backing southwest -2.1972
-0.7274 backing west -1.3701
-1.2358 backing westerly -1.2779
-0.1963 backs northwest -0.8045
-1.0414 backs southerly -0.4518
-1.0414 backs southwest -0.4513
-1.0414 backs westerly -0.4517
-0.0235 band of -1.0251
-0.0969 bands of -0.6001
-0.7782 banks also -0.0655
-0.7782 banks locally -0.1642
-0.2341 banks tonight -0.6124
-0.8970 be a -1.6012
-2.2464 be accompanied 0.7112
-1.6144 be another -1.5261
-2.6936 be as -0.6976
-2.5474 be at -0.8425
-2.7905 be between -1.0420
-2.1884 be blustery -1.1951
-2.4383 be breezy -0.5512
-1.9612 be bright -1.1248
-2.3133 be brighter -1.0644
-2.2464 be calm -1.0812
-3.0915 be centered -0.1164
-1.9946 be clear -1.0729
-1.8740 be cloudy -0.9808
-2.1884 be cold -1.4434
-3.3925 be coldest -0.4412
-2.3511 be confined 0.8589
-3.0915 be continue -0.1462
-1.7491 be cool -0.9771
-2.5474 be cooler -1.1084
-2.6144 be dense -0.2213
-3.3925 be drier -0.4461
-0.7861 be dry -1.4477
-2.5474 be dull -0.1559
-1.9946 be expected -0.8910
-3.0915 be extensive -0.0084
-2.1884 be fair -1.6240
-2.7905 be followed 0.0695
-2.7905 be frequent -0.5932
-1.6682 be fresh -1.2298
-2.5474 be fresher -0.7523
-1.9612 be further -1.7775
-1.8127 be generally -1.1226
-1.9946 be good -1.8170
-3.3925 be hazy -0.4354
-2.0915 be heaviest 0.2447
-0.9096 be heavy -1.5452
-2.7905 be higher -0.2931
-2.5474 be in -0.4959
-2.3511 be isolated -0.7972
-2.4383 be largely -0.7752
-3.3925 be late -0.4504
-3.3925 be less -0.4471
-1.2719 be light -1.3087
-3.0915 be lighter 0.2613
-2.7905 be likely -0.5663
-2.7905 be little -0.5446
-1.8485 be mainly -1.5769
-2.2164 be maintained 0.0280
-1.7298 be mild -1.2396
-2.4894 be milder -0.7987
-2.6936 be misty -0.6319
-2.0123 be moderate -1.0016
-2.0308 be most -1.1937
-1.3170 be mostly -2.3949
-2.6936 be much -0.6927
-3.3925 be muggy -0.4381
-3.3925 be near -0.4399
-2.6936 be occasional -0.9722
-3.0915 be of -0.4419
-3.3925 be over -0.2134
-2.3925 be overcast -1.3085
-2.4383 be patches -0.7295
-2.9154 be patchy 0.0619
-2.5474 be persistent -0.4015
-3.3925 be preceded 1.0533
-3.0915 be predominantly -0.1104
-2.3925 be prolonged -1.2938
-1.9612 be rather -0.9085
-3.3925 be relatively 0.4512
-3.3925 be replaced 0.0252
-2.0703 be scattered -0.7245
-3.0915 be severe -0.1240
-2.5474 be sharp -1.2512
-2.0308 be slow -1.2978
-2.2786 be small -0.9731
-1.4787 be some -1.6033
-3.3925 be southeast -0.3891
-2.3133 be strong -0.7182
-2.1138 be sunny -0.5551
-2.4894 be variable -0.7443
-1.4631 be very -0.2924
-2.0123 be warm -1.3164
-3.0915 be warmest -0.1067
-2.7905 be well -0.3714
-1.8610 be widespread -0.9316
-2.0308 be windy -0.8535
-2.6144 be wintry -0.1612
-2.9284 become a -0.4508
-2.1502 become blustery -0.7709
-2.0253 become cloudy -0.8100
-2.9284 become cold -0.4052
-1.1650 become confined 0.7251
-2.9284 become cool -0.3730
-2.9284 become cooler -0.4133
-2.9284 become dense -0.1966
-1.4970 become dry -0.6008
-2.9284 become easterly -0.4380
-1.1802 become established -1.1796
-1.9284 become extremely 0.5343
-2.2294 become fair -0.6983
-2.3263 become fairly -0.4260
-2.6274 become few -0.1635
-1.6731 become fresh -1.2423
-2.1502 become fresher -0.7479
-2.3263 become generally -0.5999
-1.9284 become heavy -0.8177
-1.8492 become increasingly -0.7782
-1.1502 become isolated -1.4152
-1.8145 become largely -1.0242
-2.9284 become less -0.4423
-1.0833 become light -1.1864
-1.9284 become mainly -0.5837
-1.9742 become mild -0.7820
-2.1502 become milder -0.7514
-2.2294 become misty -1.0802
-2.1502 become moderate -0.1270
-1.4970 become more -1.4053
-2.0833 become mostly -0.7865
-2.3263 become much -0.1495
-2.6274 become northeast -0.0237
-1.8145 become overcast -0.8219
-1.5134 become persistent -0.9168
-2.0253 become quite -0.9233
-2.0253 become rather -1.0307
-2.1502 become scattered -0.7753
-2.9284 become severe -0.4112
-2.9284 become sharp -0.4211
-1.0308 become slow -1.0813
-2.9284 become south -0.2587
-2.1502 become southwest -0.7230
-2.6274 become stationary 0.6804
-1.8145 become strong -0.8348
-1.8145 become variable -0.6921
-1.5860 become very -1.0521
-1.9742 become warm -0.6351
-1.7823 become well -0.8817
-2.6274 become west 0.0025
-1.8492 become westerly -1.4917
-0.7761 become widespread -1.2072
-1.6979 become windy -0.9086
-1.2788 becomes almost -0.2398
-1.2788 becomes breezy -0.3720
-1.2788 becomes confined 0.9460
-0.5798 becomes cooler -0.5734
-0.2788 becomes established -0.3261
-3.8231 becoming aligned -0.2758
-3.1242 becoming area -0.6945
-3.1242 becoming blustery -0.6962
-2.1071 becoming breezy -1.0578
-2.7818 becoming brighter -1.4632
-2.7818 becoming chilly -0.8413
-2.3760 becoming cloudy -1.7474
-2.3318 becoming cold -0.6280
-2.9201 becoming colder 0.0167
-2.1511 becoming confined -0.2742
-2.5221 becoming cool -0.6846
-3.5221 becoming cooler -0.1612
-2.3460 becoming dense -1.1761
-3.2211 becoming drier -0.5569
-2.0597 becoming dry -0.9159
-1.9367 becoming east -1.5582
-2.1156 becoming easterly -2.0175
-2.3460 becoming established -0.5580
-3.5221 becoming extremely 0.0291
-1.7440 becoming fair -1.2866
-2.7440 becoming fairly -0.9031
-2.6770 becoming fine -1.3644
-2.9201 becoming force -1.1598
-3.8231 becoming frequent -0.3860
-1.8409 becoming fresh -1.9982
-2.8689 becoming fresher -0.7503
-3.8231 becoming frosty -0.3727
-2.1604 becoming generally -0.5517
-1.5009 becoming good -1.3391
-2.3918 becoming hazy -1.3856
-3.0450 becoming heavier -1.0609
-2.0908 becoming heavy -1.3162
-3.8231 becoming increasingly -0.4349
-1.7587 becoming isolated -1.4831
-2.3918 becoming largely -0.9723
-2.9781 becoming less -0.8236
-1.5243 becoming light -2.2632
-2.2104 becoming locally -1.6808
-1.3519 becoming mainly -1.3247
-3.5221 becoming mild -0.4340
-2.4082 becoming milder -0.3272
-2.6770 becoming misty -0.8622
-0.5471 becoming moderate -1.7646
-2.1604 becoming more -1.2960
-1.2538 becoming mostly -1.3437
-3.2211 becoming much -0.9897
-1.6801 becoming north -1.5729
-2.6471 becoming northeast -0.9597
-3.1242 becoming northeasterly -0.6858
-2.3460 becoming northerly -1.5379
-1.9906 becoming northwest -1.2554
-2.3608 becoming northwesterly -1.7717
-3.8231 becoming occasionally -0.3721
-2.7092 becoming overcast -0.7735
-2.6471 becoming patchy -1.3187
-2.0828 becoming persistent -0.8048
-1.9423 becoming poor -0.6156
-2.6770 becoming prolonged -0.9715
-3.0450 becoming quite -0.8134
-1.9906 becoming rather -0.3407
-3.3460 becoming scattered -0.2380
-3.2211 becoming sharp -1.0182
-2.9781 becoming slack -0.8291
-3.8231 becoming slow 0.3645
-1.6928 becoming south -1.9079
-2.0908 becoming southeast -1.1453
-1.9539 becoming southerly -1.1819
-1.6678 becoming southwest -2.2972
-3.8231 becoming stable -0.4239
-3.0450 becoming stormy -0.4229
-1.8886 becoming strong -1.6263
-1.1285 becoming variable -1.5785
-1.9971 becoming very -0.4412
-2.9201 becoming warm -0.4473
-2.6190 becoming warmer 0.0263
-2.9201 becoming well -0.5024
-1.3533 becoming west -1.7606
-1.8787 becoming westerly -1.7566
-2.4082 becoming wet -0.7494
-1.2136 becoming widespread -1.4924
-1.9147 becoming windy -0.7817
-1.4888 before a -1.0233
-1.3841 before backing -1.5306
-2.5302 before becoming -0.4488
-1.5302 before clearing -0.9891
-0.7820 before dawn -1.7243
-1.4888 before daybreak -0.3424
-2.5302 before decreasing -0.4058
-2.5302 before drier -0.2432
-1.9281 before dying 0.6214
-1.6851 before freshening -0.8183
-1.6851 before increasing -0.8264
-1.8312 before later -1.1374
-1.8312 before midnight -0.9834
-0.5957 before morning -1.4942
-1.9281 before mostly -0.6010
-2.5302 before nightfall 0.0310
-1.8312 before rain -0.6979
-2.0531 before strengthening -0.2190
-2.5302 before the -0.4517
-2.2292 before turning -0.1603
-0.5259 before veering -0.9435
-2.2292 before winds -0.1634
-1.1206 begin </s> 4.1445
-1.8195 begin and -0.4204
-1.0414 begin bright -0.7602
-1.5185 begin but -0.4437
-1.8195 begin cloudy -0.3642
-1.1206 begin cold -0.6449
-0.4046 begin dry -1.4109
-1.1206 begin rather -0.5456
-1.0414 begin to -1.2296
-1.2175 begin will -0.5943
-1.2175 begin with -0.2281
-0.5229 beginning dry -1.3252
-0.1761 beginning to -1.7382
-1.6154 best </s> 4.2414
-1.5185 best as -0.4102
-1.7404 best further -0.2372
-0.4541 best in -1.0843
-0.2932 best of -1.8331
-2.2175 best over -0.2717
-1.2632 best sunshine -0.9469
-1.3896 between </s> 3.5213
-1.3316 between a -1.3693
-1.5657 between an -1.1285
-1.3896 between east -1.2488
-2.7118 between eleven -0.4414
-2.7118 between fifteen -0.4503
-2.4108 between fifty -0.4331
-1.5077 between five -1.1943
-2.7118 between force -0.3730
-1.8087 between four -0.8996
-1.7118 between fourteen -0.9964
-2.4108 between gale -0.1646
-2.0128 between hook 0.8451
-2.4108 between mainly -0.1618
-1.9337 between mid -0.7447
-1.3694 between mizen 0.7943
-1.8087 between nine -0.8986
-1.4814 between north -0.9356
-0.7433 between northeast -1.9080
-2.7118 between northeasterly -0.4467
-1.3896 between northwest -1.3019
-1.7576 between seven -0.9184
-1.7576 between six -0.9356
-2.1097 between sixteen -0.6005
-1.4108 between south -1.2291
-0.9265 between southeast -1.6843
-1.3501 between southwest -1.3231
-1.8087 between ten -0.8970
-1.4565 between the -1.2469
-1.8667 between these -0.6933
-2.1097 between thirteen -0.5986
-1.7118 between three -0.9957
-1.0783 between west -1.5509
-2.4108 between zero -0.1559
-0.6021 bit brighter -0.4495
-0.3010 bit cooler -0.1184
-1.7782 blustery </s> 3.7296
-2.0470 blustery also -0.4552
-2.1139 blustery and -0.7759
-1.7460 blustery day -0.6849
-2.8921 blustery during 0.0066
-2.5911 blustery east -0.0631
-2.1931 blustery easterly -0.6808
-1.6880 blustery especially -0.8023
-1.7782 blustery for -1.1560
-2.2900 blustery heavy -0.5290
-2.1931 blustery in -0.8855
-2.8921 blustery later -0.2550
-2.5911 blustery more -0.1333
-2.5911 blustery near 0.0479
-2.4150 blustery north -0.1240
-2.2900 blustery northeast -0.9956
-2.8921 blustery northeasterly -0.4334
-2.0470 blustery northerly -0.4237
-2.0470 blustery northwest -0.7847
-1.9890 blustery over -0.7229
-2.5911 blustery rain -0.0829
-0.2256 blustery showers -0.8600
-2.8921 blustery south -0.4368
-2.2900 blustery southeast -0.5403
-1.1439 blustery southerly -1.5525
-1.5699 blustery southwest -0.7631
-2.2900 blustery this -0.2058
-2.2900 blustery today -0.5481
-1.9379 blustery tomorrow -0.4964
-1.5304 blustery west -1.1945
-1.4449 blustery westerly -1.1632
-1.5911 blustery winds -1.6742
-1.5497 blustery with -0.3882
-0.1761 both the -0.4112
-0.7597 break </s> 4.2414
-1.3617 break and -0.4517
-1.3617 break as -0.3546
-1.3617 break especially -0.0501
-1.3617 break going 0.1124
-0.7597 break gradually -0.5999
-1.3617 break in -0.4326
-0.4586 break through -0.8594
-1.3617 break to -0.4501
-1.1903 breaking </s> 4.2414
-1.4914 breaking and -0.1628
-0.4914 breaking out -1.2755
-0.3774 breaking through -1.8136
-1.1903 breaking to -0.1627
-1.0934 breaking up -0.6761
-0.5740 breaks </s> 3.2414
-1.8751 breaks also 0.2203
-1.2730 breaks and -0.5713
-2.1761 breaks are -0.3180
-1.6990 breaks developing -0.0636
-2.1761 breaks here -0.0218
-0.3500 breaks in -1.6729
-1.8751 breaks later 0.0321
-1.8751 breaks may -0.1142
-1.8751 breaks mist -0.1535
-2.1761 breaks of -0.4493
-1.3979 breaks on -0.7777
-1.3979 breaks over -0.7700
-2.1761 breaks south -0.4494
-2.1761 breaks up -0.4500
-1.3979 breaks will -1.1981
-0.1246 breeze </s> 2.2933
-2.1977 breeze a -0.2281
-2.6749 breeze along -0.0992
-1.9759 breeze another -0.6343
-2.3738 breeze apart 1.8372
-1.9759 breeze becoming -0.6986
-2.6749 breeze blustery -0.4491
-2.6749 breeze bright -0.4470
-2.3738 breeze but -0.1634
-2.3738 breeze cloudy -0.1138
-1.9759 breeze continuing -0.4697
-2.0728 breeze cool -0.5736
-1.9759 breeze developing -0.6967
-2.0728 breeze eases -0.5459
-2.6749 breeze easing -0.4479
-1.5957 breeze further -1.0691
-2.6749 breeze generally -0.3823
-2.6749 breeze gradually -0.4441
-2.3738 breeze highest 1.7865
-1.9759 breeze in -0.4935
-2.3738 breeze is -0.1446
-2.6749 breeze largely -0.2729
-2.6749 breeze on -0.3011
-1.9759 breeze outbreaks 0.9667
-2.6749 breeze patches -0.2271
-2.3738 breeze scattered 0.3527
-1.8967 breeze sets 0.6368
-2.0728 breeze which 0.1761
-1.2125 breeze will -1.8890
-2.0728 breeze with -0.5727
-0.2865 breezes </s> 2.5468
-2.5832 breezes along -0.0992
-1.5832 breezes becoming -0.9664
-2.5832 breezes but -0.4506
-2.5832 breezes cloudy -0.4491
-1.8842 breezes decreasing -0.6775
-1.8842 breezes denser 0.4472
-1.7381 breezes developing -0.5177
-2.1061 breezes during 0.0750
-2.2822 breezes easing -0.2668
-1.7381 breezes elsewhere -0.6079
-2.5832 breezes fall 0.1828
-1.3279 breezes force -1.0600
-2.5832 breezes freshen -0.4351
-1.8842 breezes freshening -1.1109
-2.2822 breezes generally -0.1438
-2.5832 breezes gradually -0.4483
-1.8842 breezes highest 1.2522
-1.4071 breezes in -1.3626
-2.5832 breezes increasing -0.4332
-1.4693 breezes later -0.8546
-2.1061 breezes locally -0.1799
-2.5832 breezes main -0.1509
-2.2822 breezes mainly -0.1518
-2.5832 breezes mostly -0.4484
-1.3279 breezes on -1.1045
-2.2822 breezes over 0.0154
-2.5832 breezes persisting -0.4477
-1.5040 breezes this -0.9690
-1.8842 breezes today -0.5518
-1.4371 breezes tomorrow -1.1240
-1.2610 breezes will -0.4072
-0.7745 breezy </s> 2.6394
-2.9786 breezy a -0.4132
-2.6776 breezy across 0.2399
-1.8647 breezy again -1.0959
-2.9786 breezy along -0.4233
-1.9786 breezy also -0.6062
-1.3452 breezy and -0.7616
-2.6776 breezy as -0.1339
-1.2544 breezy at -0.3045
-1.9786 breezy before -0.8729
-1.6999 breezy but -0.6812
-1.0492 breezy day -1.3208
-2.0244 breezy daytime -0.6075
-2.9786 breezy early -0.2247
-2.6776 breezy elsewhere -0.0416
-2.2797 breezy especially -0.2972
-2.2797 breezy evening -0.6717
-2.3766 breezy everywhere -0.0763
-1.7745 breezy for -0.7943
-2.9786 breezy here -0.4130
-1.8647 breezy highest 0.8373
-1.0492 breezy in -1.1888
-2.2797 breezy lowest 1.4688
-2.3766 breezy near -0.5683
-2.0244 breezy night -0.6269
-2.6776 breezy on -0.1577
-2.9786 breezy over -0.2717
-2.6776 breezy overall -0.2758
-1.4601 breezy overnight -1.6791
-1.8647 breezy there -1.0725
-1.3452 breezy this -0.8828
-1.9786 breezy through -0.4917
-1.5807 breezy today -1.1730
-1.1398 breezy tomorrow -1.5173
-1.4735 breezy tonight -1.3173
-2.6776 breezy weather -0.4414
-2.3766 breezy wet -0.5770
-0.7827 breezy with -0.7952
-0.7360 brief </s> 3.8893
-0.4349 brief bright -1.0839
-1.6902 brief clearance -0.4514
-1.3892 brief dry -0.0832
-0.4349 brief sunny -0.7292
-1.9846 bright </s> 3.4818
-2.7443 bright across -0.1975
-2.7443 bright afternoon -0.5788
-3.3464 bright again -0.4237
-2.2324 bright although -1.0400
-0.8795 bright and -2.2868
-3.3464 bright apart 1.5500
-2.0039 bright at 0.2136
-1.9846 bright breezy -1.3211
-2.3050 bright but -0.6780
-2.3464 bright cool -0.8287
-1.1761 bright day -1.3202
-3.3464 bright daytime -0.4409
-2.2002 bright dry -0.7821
-2.2672 bright during -0.4051
-3.0453 bright early -0.1593
-2.3050 bright elsewhere -0.5629
-2.8692 bright evening -0.2402
-1.9314 bright for -0.7690
-1.7666 bright fresh -1.2280
-1.8149 bright in -1.7088
-1.8692 bright intervals -0.2639
-3.3464 bright mainly -0.3660
-3.3464 bright mild -0.4508
-3.0453 bright morning -0.4257
-0.4866 bright or -2.8391
-2.3464 bright over -1.4193
-1.5268 bright periods -0.5320
-2.6474 bright spell -0.6702
-0.7520 bright spells -1.4589
-1.5402 bright start -0.9491
-2.3921 bright sunny 0.0531
-2.0453 bright sunshine -1.0374
-1.8550 bright this -0.1838
-2.7443 bright through -0.0937
-2.7443 bright throughout -0.8334
-1.9484 bright today -1.7906
-1.7782 bright tomorrow -0.8411
-2.3921 bright weather -0.7092
-1.3921 bright with -1.2825
-0.3274 brighten in -0.8877
-0.3274 brighten up -0.1170
-1.2430 brightening and -0.1634
-0.0389 brightening up -0.2597
-1.2751 brighter and -1.2770
-2.5539 brighter as -0.3546
-2.5539 brighter clearer -0.4508
-1.1559 brighter conditions -0.7295
-2.2529 brighter cooler -0.1261
-1.1559 brighter day -1.5376
-1.2986 brighter drier -0.8766
-1.9518 brighter during -0.1435
-1.4747 brighter elsewhere -1.4039
-2.2529 brighter for 0.1746
-1.2751 brighter fresher -1.1482
-2.2529 brighter from 0.3920
-2.2529 brighter gradually -0.1579
-2.5539 brighter in -0.2464
-1.5996 brighter intervals -0.3610
-1.9518 brighter later -0.5947
-1.5539 brighter less -0.9820
-1.7088 brighter mainly -0.7592
-1.9518 brighter over -0.4219
-1.4078 brighter periods -1.0257
-1.8549 brighter skies -0.6910
-1.9518 brighter spell -1.0252
-0.9411 brighter spells -0.8332
-1.4078 brighter than -1.0313
-2.5539 brighter this -0.3418
-0.5582 brighter weather -1.4410
-1.4747 brighter with -1.4438
-0.5593 brightness </s> 3.9404
-1.1614 brightness further -0.1612
-1.4624 brightness in -0.2464
-0.2583 brightness locally -1.1658
-1.4624 brightness soon -0.4500
-0.6002 bring a -1.7134
-1.6794 bring cloudy -0.6955
-1.4753 bring further -1.3475
-2.3784 bring heavy -0.4468
-1.4242 bring in -0.9537
-2.3784 bring isolated -0.4076
-2.3784 bring light -0.4361
-1.6794 bring milder -0.6839
-2.3784 bring more -0.2821
-0.9013 bring outbreaks 0.1886
-0.6302 bring rain -1.0869
-2.3784 bring showers -0.4382
-0.6541 bring some -1.1841
-2.3784 bring sunny -0.3965
-2.3784 bring temperatures -0.4518
-1.6794 bring the -0.6959
-0.8195 bringing a -1.1802
-1.8195 bringing falls 0.0209
-0.9445 bringing fog -1.1729
-1.2175 bringing good -0.9022
-2.1206 bringing much -0.4169
-0.9744 bringing outbreaks 0.5195
-1.3424 bringing patchy -0.5792
-0.4771 bringing rain -1.7220
-1.4216 bringing showers -0.6988
-1.4216 bringing some -0.1775
-1.1206 bringing sunny -0.2504
-2.1206 bringing thunder 0.0185
-0.9777 brisk east -0.0631
-0.9777 brisk easterly -0.2786
-0.6767 brisk northerly -0.6001
-0.9777 brisk northwest -0.1357
-0.9777 brisk northwesterly -0.1522
-0.9777 brisk southeast -0.1029
-0.8016 brisk southerly -0.0594
-1.2788 brisk west -0.2847
-0.0134 broken cloud -1.7877
-0.5772 build </s> 3.8893
-0.4901 build from -0.4846
-1.5315 build to -0.4448
-0.4523 build up -1.4757
-0.0580 building from -0.7655
-1.3802 building in -0.2464
-1.3802 building westwards -0.4417
-1.0314 builds across -0.1975
-0.0894 builds from -0.9873
-1.1563 builds over 0.3826
-0.0669 bulk of -0.6935
-0.0512 burst but -0.9009
-1.0792 bursts </s> 4.2414
-1.3802 bursts but -0.1481
-1.6812 bursts developing -0.4494
-0.9823 bursts for -0.3597
-0.5351 bursts in -1.1098
-1.0792 bursts locally -0.2439
-0.4508 bursts of -1.1371
-1.4244 but a -1.3829
-3.4066 but again -0.1631
-3.4066 but all -0.0226
-3.7077 but also -0.4507
-2.8626 but amounts -0.5965
-3.7077 but any -0.4473
-2.9295 but are -0.7493
-2.8626 but areas -0.8444
-3.2305 but around -0.2363
-2.7077 but as -0.9967
-2.7077 but backing -0.9586
-1.3150 but becoming -0.9991
-2.8626 but blustery -0.0028
-2.9295 but breezy -0.4528
-2.4066 but bright -0.9661
-3.1056 but brightening 0.4649
-2.3097 but brighter -1.6816
-2.8626 but chilly -0.7565
-2.5937 but clear -0.9313
-2.1056 but clearer -0.8954
-1.9673 but clearing -1.1928
-1.9223 but cloud -1.8404
-2.7534 but clouding 0.4260
-1.9368 but cloudy -1.2207
-2.2763 but cold -1.8002
-2.3652 but continuing -0.9716
-2.8626 but cool -0.3460
-3.2305 but cooler -0.3646
-3.7077 but damp -0.4484
-2.4289 but decreasing -0.9526
-2.7534 but denser 0.1919
-3.1056 but down -0.5288
-2.2927 but drier -0.4392
-3.7077 but drizzle -0.3355
-1.6663 but dry -1.1547
-2.6285 but drying -0.4357
-3.7077 but dull 0.0430
-3.1056 but easing -0.5941
-2.7534 but eastern -0.7072
-3.4066 but eight -0.0195
-2.8046 but elsewhere -0.6500
-3.0087 but especially -0.2972
-2.3097 but fair -1.3814
-3.4066 but falling -0.1433
-2.3097 but feeling -0.9684
-2.8046 but for -0.8997
-2.6285 but force -1.3015
-3.7077 but four -0.3616
-3.4066 but frequent -0.0727
-2.5316 but fresh -0.5344
-3.7077 but freshening -0.4458
-2.9295 but fresher -0.7388
-3.7077 but frost -0.3800
-2.2025 but further -1.3739
-1.9673 but generally -0.8849
-1.8156 but good -1.8492
-2.6285 but gradually -0.4350
-2.4289 but gusty -1.0920
-2.0264 but hazy -1.0669
-3.7077 but heavier -0.0909
-2.1636 but heavy -1.4198
-3.7077 but if -0.4307
-2.0949 but improving 0.2072
-2.1514 but in -0.9034
-1.5741 but increasing -1.1203
-3.4066 but inland -0.1615
-2.4524 but is -1.1933
-2.4524 but isolated -0.7618
-1.7938 but it -0.9526
-3.4066 but largely -0.0954
-2.4066 but later -0.7556
-3.4066 but less -0.1599
-3.0087 but light -0.6972
-3.1056 but lighter -0.1761
-3.0087 but little -0.6415
-3.1056 but local -0.0900
-1.6107 but locally -1.3375
-2.9295 but longer -0.3154
-1.5615 but mainly -1.6344
-1.7681 but many -1.5173
-2.4524 but may -1.1409
-3.7077 but midnight -0.4342
-2.2163 but mild -1.4721
-2.9295 but milder -0.5712
-2.4066 but mist -0.7081
-2.5035 but misty -0.3498
-1.5063 but moderate -1.2786
-3.7077 but moderating -0.4515
-2.2453 but more -0.8098
-1.5258 but most -1.0861
-1.2747 but mostly -1.4315
-3.7077 but much -0.4169
-3.7077 but north -0.4438
-3.7077 but northeastern -0.4073
-3.0087 but northerly -1.0564
-3.0087 but northwest -0.5623
-3.1056 but not 0.0669
-2.2025 but occasional -0.1846
-2.3274 but occasionally -1.2563
-2.2453 but often -1.0187
-2.8626 but only -1.2001
-3.1056 but other -0.0209
-1.9917 but otherwise -0.8241
-1.9153 but outbreaks -0.1267
-2.2453 but overall -0.8076
-3.7077 but overcast -0.4358
-3.7077 but overnight -0.4504
-3.1056 but parts -0.2469
-3.1056 but patches -0.3773
-1.9753 but patchy -1.3086
-3.7077 but perhaps -0.4117
-3.4066 but periods -0.1016
-2.8626 but persistent -0.7033
-3.4066 but persisting 0.0286
-3.7077 but pleasant 0.3676
-2.5937 but plenty 0.0322
-2.2605 but poor -0.8875
-2.5615 but possibly -0.4985
-3.7077 but predominantly -0.3354
-3.0087 but probably -0.5975
-3.7077 but quite -0.3783
-1.3403 but rain -1.3693
-2.9295 but rainfall -0.6880
-1.9442 but rather -0.4427
-2.4524 but reaching -1.1606
-3.4066 but relatively 0.7384
-2.0844 but remaining -1.0500
-3.4066 but remains 0.0316
-2.3274 but returning -0.8661
-2.6663 but rising -0.8585
-2.5316 but risk 0.2937
-1.8384 but scattered -1.2557
-3.7077 but should -0.4472
-1.7033 but showers -1.2244
-3.7077 but skies -0.4390
-1.2844 but some -1.1185
-2.4066 but sometimes -0.2476
-3.7077 but south -0.2587
-2.8626 but southeast -0.8441
-2.8626 but southerly -0.8106
-2.5615 but southwest -1.0011
-3.7077 but spells -0.3595
-3.7077 but spreading -0.4515
-1.9153 but staying -0.6848
-2.2163 but still -0.4182
-2.4066 but stormy -1.0388
-2.9295 but strengthening -0.3819
-2.2305 but strong -1.2174
-2.5615 but sunny -0.6201
-3.7077 but sunshine -0.4430
-3.0087 but temperatures -0.6980
-1.5463 but the -1.0852
-2.6663 but then -0.9910
-1.6702 but there -1.7652
-1.7534 but these -1.4095
-2.5316 but they -1.1863
-3.0087 but thickening -0.6402
-2.8626 but this -0.6037
-3.4066 but too -0.1521
-2.0001 but turning -1.2423
-3.4066 but unstable -0.0579
-2.5615 but up -0.8414
-2.3274 but variable -1.0667
-2.1395 but very -0.7305
-3.7077 but visibility -0.4515
-3.4066 but weakening -0.0814
-3.2305 but well 0.0233
-2.9295 but wet -0.1126
-3.7077 but where -0.4503
-2.9295 but widespread -0.7531
-1.7834 but will -1.0992
-1.8947 but winds -1.1747
-3.0087 but windy -0.7703
-1.8816 but with -0.9602
-1.0665 by a -2.0109
-1.0870 by afternoon -0.4028
-1.8380 by around -1.2393
-2.5784 by blustery -0.5768
-1.6241 by dawn -0.5376
-2.8794 by day -0.1643
-2.8794 by daybreak 0.4232
-2.2773 by drizzle -0.7867
-1.1718 by early -1.2492
-0.9709 by evening -1.1376
-2.3353 by extensive 0.0461
-3.1804 by fresh -0.3236
-1.9017 by frontal -1.0363
-2.3353 by further -1.2703
-2.7033 by heavy -0.1181
-2.8794 by hill 0.0818
-1.7333 by late -1.7517
-2.4023 by later -0.7395
-2.0343 by mainly -0.8965
-1.8794 by met 0.0212
-1.9017 by mid -1.1185
-1.8794 by midday -0.0012
-1.7490 by midnight -0.8533
-2.4814 by mist -0.3805
-2.4814 by moderate -0.5045
-1.8380 by monday -1.1896
-1.0665 by morning -1.8249
-2.3353 by nightfall -0.3622
-1.4400 by noon -0.9617
-3.1804 by outbreaks 1.2138
-3.1804 by persistent -0.2867
-2.0043 by saturday -0.4178
-1.9763 by scattered -0.6867
-1.3479 by showers -1.7819
-2.5784 by southerly -0.5675
-3.1804 by strengthening -0.4086
-1.7825 by strong -1.1025
-1.5676 by sunday -1.3882
-2.8794 by sunny 0.3613
-1.1551 by the -2.0284
-1.0766 by this -1.6734
-2.1012 by thursday -1.3791
-1.4023 by tomorrow -1.4775
-1.5676 by tonight -1.2236
-2.8794 by tuesday -0.0362
-3.1804 by very -0.3921
-2.8794 by wednesday -0.0868
-1.0334 calm </s> 3.8435
-1.2553 calm again -0.0347
-2.0334 calm allowing -0.4441
-0.6717 calm and -1.8075
-0.9920 calm clear -1.0252
-1.2553 calm conditions -0.7059
-1.3345 calm except -0.6473
-1.4314 calm in -0.5827
-2.0334 calm inland -0.2322
-0.9920 calm night -0.9750
-1.3345 calm or -0.6866
-0.8293 calm start -1.4674
-2.0334 calm through 0.0564
-1.7324 calm throughout -0.0272
-2.0334 calm today -0.3047
-1.4314 calm with -0.5871
-0.0164 can be -1.4106
-0.3010 causing frontal -0.2094
-0.2267 celsius </s> 1.1632
-1.8242 celsius a -1.5426
-2.7309 celsius after -0.9860
-3.0619 celsius along -0.4743
-3.0039 celsius although -0.8109
-2.0619 celsius and -1.3594
-2.8279 celsius another -0.0930
-2.7931 celsius any -0.6040
-2.8279 celsius apart 0.9227
-2.8279 celsius around -0.8194
-2.4757 celsius as -1.0301
-2.7309 celsius at -1.1747
-2.8279 celsius becoming -0.8897
-3.6060 celsius beginning -0.0098
-2.4921 celsius best -1.2269
-2.7029 celsius breezy -1.0662
-2.3160 celsius bright -0.7080
-2.9528 celsius brightening 0.1127
-2.0094 celsius but -1.0282
-3.9070 celsius by -0.4415
-3.4299 celsius clear -0.0011
-3.9070 celsius clearer -0.4474
-3.0619 celsius cloud -1.1056
-2.4446 celsius cloudy -1.3027
-2.4599 celsius cold -1.1111
-2.4599 celsius coldest 0.1006
-2.2258 celsius continuing -0.7683
-2.2736 celsius cool -1.1808
-2.0619 celsius coolest 0.9128
-3.6060 celsius drizzle -0.3348
-1.9725 celsius dry -1.4996
-3.4299 celsius dull 0.3015
-3.0619 celsius early -0.7293
-3.2081 celsius easterly -0.5514
-3.9070 celsius elsewhere -0.3287
-3.6060 celsius everywhere -0.1570
-3.2081 celsius fog -0.6628
-2.8656 celsius for -0.7021
-3.3050 celsius fresh -0.5769
-3.6060 celsius freshening -0.1152
-3.9070 celsius friday -0.4474
-3.0039 celsius frost -1.0883
-2.4599 celsius further -0.7034
-3.3050 celsius gale -0.4402
-2.2258 celsius generally -1.2607
-3.2081 celsius giving -0.1684
-2.7931 celsius good -1.0993
-3.2081 celsius ground 0.4556
-2.9528 celsius heavy -1.3515
-3.9070 celsius highest -0.4509
-3.3050 celsius humid -0.4899
-3.3050 celsius icy -0.5351
-1.0688 celsius in -1.8557
-3.0619 celsius inland -0.5671
-2.7931 celsius isolated -0.5403
-3.3050 celsius issued -0.4295
-2.7931 celsius it -0.2538
-3.9070 celsius later -0.4393
-2.2443 celsius leading 0.3903
-2.5091 celsius light -0.7779
-3.3050 celsius little -0.5769
-2.9070 celsius local -0.9003
-3.6060 celsius locally -0.1642
-3.9070 celsius low -0.3631
-3.6060 celsius lowest -0.1645
-2.6283 celsius mainly -1.1901
-3.3050 celsius many 0.1597
-2.6518 celsius mild -1.4957
-2.4157 celsius mildest 0.0272
-2.5848 celsius mist -1.0038
-3.4299 celsius misty -0.0627
-3.0039 celsius moderate -0.1854
-2.6060 celsius monday -1.2373
-2.5646 celsius most -0.8366
-2.0875 celsius mostly -1.8465
-3.2081 celsius near -0.3140
-3.2081 celsius north -0.5938
-3.9070 celsius northwesterly -0.3295
-3.9070 celsius not 0.2171
-3.4299 celsius occasional 0.0236
-3.9070 celsius of -0.3586
-3.0039 celsius on -1.0518
-3.9070 celsius otherwise -0.3963
-2.6766 celsius outbreaks 0.4352
-3.0039 celsius overcast -0.7841
-3.3050 celsius parts -0.2469
-3.9070 celsius patches -0.2271
-2.8656 celsius patchy -0.1327
-3.6060 celsius prolonged -0.1441
-2.0558 celsius rain -0.8526
-2.7029 celsius rather -1.2441
-3.6060 celsius remaining -0.4374
-2.7029 celsius resulting 0.0512
-3.9070 celsius rising -0.4381
-3.1289 celsius saturday -0.7585
-2.7029 celsius scattered -0.1413
-3.9070 celsius seven -0.4290
-3.9070 celsius sharp -0.4137
-2.1362 celsius showers -1.0709
-3.1289 celsius slight -0.7153
-3.0039 celsius some -0.8041
-3.6060 celsius south -0.4043
-3.6060 celsius southerly 0.0058
-3.4299 celsius starting 0.3999
-3.4299 celsius staying -0.0467
-2.7609 celsius still -0.8707
-3.6060 celsius stormy 0.0976
-3.6060 celsius strong -0.4241
-2.5646 celsius sunny -0.5929
-3.9070 celsius sunshine -0.3337
-3.9070 celsius temperatures -0.4503
-2.6060 celsius the -1.3909
-3.2081 celsius there -0.1221
-2.9528 celsius this -0.2349
-3.6060 celsius though -0.1570
-3.9070 celsius thursday -0.4379
-3.9070 celsius to -0.4473
-2.7931 celsius today -1.1026
-2.7609 celsius today's 0.3590
-2.1667 celsius tomorrow -0.9700
-3.3050 celsius tomorrow's -0.3388
-2.4299 celsius tonight -1.0128
-2.7931 celsius tonight's 0.3912
-2.6283 celsius towards -0.8649
-2.7609 celsius turning -0.7638
-3.9070 celsius under -0.4301
-2.6283 celsius very -0.5971
-3.1289 celsius warm -0.7399
-3.0619 celsius warmest -0.1181
-2.7309 celsius wet -0.9461
-2.7931 celsius where -0.4929
-3.2081 celsius while -0.6004
-2.4299 celsius widespread -1.2834
-2.4757 celsius winds -1.0778
-2.8656 celsius windy -0.2727
-1.1399 celsius with -1.8695
-0.2374 centered just -0.9710
-0.9777 centered over 0.0738
-0.5798 centered to -0.6918
-0.1249 central and -1.3736
-1.2041 central eastern -0.0736
-0.9031 central northern -0.5075
-1.5051 central southern -0.3021
-0.9777 centre of -0.3517
-1.2788 centre the -0.4239
-0.1027 centre will -1.2999
-0.9542 centres a -0.4512
-0.9542 centres of -0.4484
-0.1761 centres weak -0.7645
-0.0080 chance of -1.7076
-0.3840 change </s> 3.5647
-0.9638 change for -0.1771
-1.3617 change is -0.1249
-1.6628 change later -0.4133
-1.0607 change overall -0.5358
-1.1856 change overnight 0.0468
-1.6628 change through -0.4505
-1.6628 change today -0.4517
-0.8177 change tomorrow -0.0411
-1.3617 change tonight 0.0680
-0.3802 channel </s> 3.5425
-0.6812 channel and -0.9882
-1.3802 channel at 0.1873
-1.6812 channel backing -0.4331
-1.0792 channel decreasing -0.3599
-1.3802 channel later 0.0321
-1.6812 channel tomorrow -0.2148
-0.8361 channel tonight -0.6124
-1.9408 chiefly about -0.5229
-1.5886 chiefly across -0.5497
-1.3124 chiefly affecting -0.0730
-1.5428 chiefly along -1.0733
-0.1608 chiefly in -1.9008
-1.2206 chiefly near -0.5918
-1.4636 chiefly on -0.1754
-1.1115 chiefly over -1.3717
-1.6977 chiefly to -0.5197
-1.0348 chilly </s> 4.0653
-1.8129 chilly day -0.4167
-0.6990 chilly for -1.0831
-0.7337 chilly night -0.7519
-1.5119 chilly northerly -0.4189
-1.8129 chilly start -0.4504
-1.8129 chilly this -0.0556
-1.2109 chilly today -0.4549
-0.4327 chilly with -1.3706
-1.2265 clear </s> 2.7466
-3.0224 clear across -0.0449
-3.3235 clear after -0.3186
-2.3692 clear all -1.2580
-3.3235 clear allowing -0.3058
-3.0224 clear also -0.1566
-1.4370 clear and -0.9704
-3.3235 clear any -0.4360
-2.5453 clear apart 1.2238
-2.7214 clear as -0.2828
-2.5453 clear at -0.4261
-1.8321 clear away -0.7943
-3.3235 clear breaks -0.4281
-2.0447 clear but -0.7670
-2.8463 clear by -0.1696
-3.3235 clear cold -0.4313
-2.1193 clear dry -1.0508
-1.5526 clear during -1.0174
-1.9432 clear early -0.5411
-3.0224 clear east -0.1645
-2.4204 clear eastern -0.7573
-3.3235 clear eastward -0.4007
-2.2095 clear elsewhere -0.6355
-2.2821 clear for -1.0689
-2.4784 clear from -0.2851
-2.0930 clear frost -1.2226
-3.3235 clear giving -0.4298
-1.6900 clear gradually -1.7641
-1.4909 clear in -1.0496
-1.9085 clear intervals -0.2240
-3.0224 clear into 0.2228
-1.7324 clear later -1.5306
-2.2095 clear leaving 0.0224
-3.0224 clear morning -0.0855
-3.0224 clear most 0.0456
-2.0682 clear night -0.7784
-3.3235 clear north -0.4438
-3.0224 clear off -0.4485
-2.5453 clear only -1.0477
-2.4204 clear or -0.8846
-3.3235 clear over -0.4415
-1.9617 clear overnight -0.8038
-1.0290 clear periods -0.6294
-2.5453 clear quickly -1.1945
-1.1591 clear skies -0.9323
-1.6900 clear slowly -1.4473
-2.7214 clear some -1.0151
-2.0682 clear soon -1.2268
-0.4496 clear spells -1.0354
-2.3692 clear sunday -1.2435
-3.3235 clear ten -0.1380
-2.4204 clear the -0.5103
-1.8183 clear this -0.3339
-1.7672 clear through -1.0480
-1.6075 clear to -1.8514
-2.2821 clear today -1.0288
-1.8921 clear tomorrow -0.5722
-1.8921 clear tonight -0.5517
-2.4784 clear up -0.8043
-2.2821 clear weather -1.0211
-3.3235 clear wednesday -0.3740
-3.3235 clear westwards -0.4417
-2.0682 clear with -0.6992
-0.7038 clearance </s> 2.5955
-1.9976 clearance and -0.9439
-2.9518 clearance arriving -0.0070
-2.1067 clearance during -0.3866
-1.2275 clearance following -1.1504
-2.9518 clearance friday -0.4096
-2.9518 clearance gradually -0.4414
-1.5047 clearance in -1.0964
-2.6508 clearance of -0.1551
-2.9518 clearance on -0.4212
-1.9976 clearance outlook 0.1114
-1.8057 clearance overnight -1.0697
-2.1737 clearance reaching -0.7330
-2.1737 clearance spreading -0.7629
-0.2751 clearance to -2.2231
-0.9432 clearance will -1.9394
-2.6508 clearance winds -0.0698
-2.5899 clearer areas -0.3477
-2.5899 clearer brighter -0.4205
-2.2889 clearer colder -0.1548
-0.6262 clearer conditions -1.2620
-2.5899 clearer cooler -0.4501
-1.9879 clearer drier -0.3933
-1.6357 clearer dry -0.9531
-1.6357 clearer fresher -0.8457
-1.7449 clearer mainly -0.8806
-2.5899 clearer periods -0.3726
-1.7449 clearer skies -1.2692
-0.1851 clearer weather -1.6307
-1.1163 clearing </s> 2.7397
-2.6180 clearing all -0.5977
-3.2201 clearing also -0.0669
-1.9414 clearing and -1.1345
-2.1062 clearing away -1.3298
-2.6180 clearing but -0.4226
-2.7430 clearing by -0.1926
-1.6073 clearing during -0.8626
-1.3010 clearing early -1.1711
-1.8584 clearing east -1.3236
-3.2201 clearing eastern -0.3820
-2.0160 clearing elsewhere -0.9088
-3.2201 clearing fair -0.4506
-1.8584 clearing for -1.0224
-1.4006 clearing from -1.7111
-2.3750 clearing further -0.7934
-2.1787 clearing gradually -0.6947
-2.1409 clearing imminent -0.9920
-1.6760 clearing in -1.3296
-2.6180 clearing into -0.2145
-1.2031 clearing later -1.4273
