FRONTMOST
#############################################################################
## Copyright (c) 1996, Carnegie Mellon University, Cambridge University,
## Ronald Rosenfeld and Philip Clarkson
#############################################################################
=============================================================================
===============  This file was produced by the CMU-Cambridge  ===============
===============     Statistical Language Modeling Toolkit     ===============
=============================================================================
This is a 3-gram language model, based on a vocabulary of 170 words,
  which begins "</s>", "<s>", "I"...
This is an OPEN-vocabulary model (type 1)
  (OOVs were mapped to UNK, which is treated as any other vocabulary word)
Good-Turing discounting was applied.
1-gram frequency of frequency : 54 
2-gram frequency of frequency : 438 110 49 30 24 12 11 
3-gram frequency of frequency : 999 212 86 45 39 22 14 
1-gram discounting ratios : 0.98 
2-gram discounting ratios : 0.40 0.60 0.78 1.00 0.52 
3-gram discounting ratios : 0.30 0.52 0.63 
This file is in the ARPA-standard format introduced by Doug Paul.

p(wd3|wd1,wd2)= if(trigram exists)           p_3(wd1,wd2,wd3)
                else if(bigram w1,w2 exists) bo_wt_2(w1,w2)*p(wd3|wd2)
                else                         p(wd3|w2)

p(wd2|wd1)= if(bigram exists) p_2(wd1,wd2)
            else              bo_wt_1(wd1)*p_1(wd2)

All probs and back-off weights (bo_wt) are given in log10 form.

Data formats:

Beginning of data mark: \data\
ngram 1=nr            # number of 1-grams
ngram 2=nr            # number of 2-grams
ngram 3=nr            # number of 3-grams

\1-grams:
p_1     wd_1 bo_wt_1
\2-grams:
p_2     wd_1 wd_2 bo_wt_2
\3-grams:
p_3     wd_1 wd_2 wd_3 

end of data mark: \end\

\data\
ngram 1=161
ngram 2=747
ngram 3=1444

\1-grams:
-0.8280 </s>	-2.6692
-0.8285 <s>	-1.1650
-3.7839 i	-0.2250
-1.9630 a	-1.0814
-3.7839 about	-0.2242
-3.2988 above	-0.1737
-3.7839 adjoining	-0.1932
-3.7839 after	-0.1788
-3.2988 all	-0.6117
-3.4749 almost	-0.2162
-3.1738 alone	-0.2880
-3.2988 also	-0.1777
-3.7839 am	-0.2250
-2.1738 and	-0.5033
-2.8728 another	-0.7396
-2.7345 are	-0.9268
-2.5998 at	-1.1579
-3.4749 away	-0.4007
-1.5998 back	-1.0947
-2.3780 behind	-0.8834
-3.7839 being	-0.2169
-3.4749 below	-0.1781
-2.8217 between	-0.2170
-3.0769 bit	-0.2779
-3.7839 blocking	-0.1788
-3.7839 board	-0.1552
-2.5998 bottom	-0.3207
-3.7839 bunch	-0.2174
-3.4749 but	-0.2107
-2.8728 by	-0.5307
-2.4537 centre	-0.3162
-3.4749 centered	-0.1876
-3.2988 close	-0.3187
-3.7839 closer	-0.2169
-2.5998 closest	-0.7439
-3.7839 cluster	-0.2174
-3.0769 color	-0.3519
-3.7839 colors	-0.2228
-3.2988 column	-0.6503
-1.3461 cone	-1.0214
-2.0200 cones	-0.7466
-2.3609 corner	-0.8793
-3.7839 deleted	-0.1552
-3.4749 diagonal	-0.1850
-3.0769 directly	-0.2681
-3.7839 down	-0.1552
-3.4749 east	-0.1146
-2.8728 edge	-1.0545
-3.7839 either	-0.2212
-3.7839 entire	-0.2250
-3.7839 extreme	-0.1907
-3.4749 face	-0.1548
-3.4749 facing	-0.2196
-2.8728 far	-0.4784
-3.4749 farthest	-0.1457
-3.7839 first	-0.2232
-3.7839 four	-0.1907
-3.7839 frame	-0.2228
-3.0769 from	-0.3849
-1.9434 front	-0.6385
-3.0769 further	-0.1669
-2.4335 furthest	-0.8257
-1.1198 green	-1.6012
-3.4749 greens	-0.1449
-3.0769 group	-0.3123
-3.7839 half	-0.2247
-2.2845 hand	-1.6759
-3.7839 hard	-0.1907
-3.2988 hardest	-0.1467
-3.1738 has	-0.2513
-3.4749 highest	-0.3950
-1.7004 in	-99.9990
-1.9835 is	-0.5430
-3.4749 isolated	-0.1562
-2.1738 it	-0.8542
-2.2988 it's	-0.5733
-3.4749 just	-0.2247
-3.2988 kinda	-0.3247
-2.9308 last	-0.3544
-1.7425 left	-0.5647
-3.7839 line	-0.1907
-3.0769 little	-0.3196
-3.7839 lone	-0.1907
-3.4749 lonely	-0.1146
-3.2988 lot	-0.6503
-2.6298 lower	-0.3920
-2.3445 lowest	-0.4657
-2.2574 middle	-0.2326
-2.8728 midline	-0.6836
-3.2988 most	-0.2158
-2.7759 near	-0.8693
-2.5718 next	-0.7179
-3.7839 no	-0.2250
-3.7839 non	-0.2250
-3.7839 north	-0.2249
-3.7839 not	-0.1788
-1.7589 of	-1.0816
-3.7839 off	-0.2235
-1.8516 on	-1.2188
-1.7385 one	-0.4928
-3.1738 ones	-0.1678
-2.8728 only	-0.2801
-3.2988 opposite	-0.3236
-3.4749 other	-0.1562
-3.2988 pair	-0.6503
-3.7839 part	-0.2174
-3.7839 previous	-0.2170
-3.7839 probably	-0.2178
-1.1506 purple	-1.6658
-3.4749 purples	-0.3312
-3.7839 rather	-0.2249
-3.2988 rear	-0.6503
-3.7839 rectangle	-0.2239
-1.7803 right	-0.4896
-2.5998 row	-0.6423
-2.5718 screen	-0.7337
-3.7839 second	-0.2247
-3.4749 see	-0.1458
-3.7839 shade	-0.2228
-3.0769 shades	-0.2073
-3.7839 shading	-0.1552
-3.4749 shadow	-0.1786
-3.1738 showing	-0.2242
-2.0599 side	-0.4692
-3.4749 sitting	-0.4008
-3.7839 slightly	-0.2169
-3.7839 somewhat	-0.2163
-3.7839 south	-0.2249
-3.7839 still	-0.2189
-2.8728 surrounded	-0.9537
-3.7839 surrounding	-0.2221
-3.7839 table	-0.1552
-3.7839 talking	-0.2250
-3.7839 than	-0.1788
-2.4335 that	-0.6779
-2.7759 that's	-0.3807
-0.9956 the	-0.8362
-3.7839 then	-0.2203
-2.7345 there	-1.1361
-2.6298 there's	-0.7167
-3.7839 third	-0.2247
-2.4749 this	-0.7790
-3.7839 those	-0.2247
-2.5455 three	-0.9116
-1.7345 to	-1.6863
-2.6620 top	-0.1657
-3.7839 touching	-0.2223
-2.8217 towards	-0.9537
-2.1961 two	-0.7746
-3.4749 up	-0.1547
-3.0769 upper	-0.5212
-3.2988 uppermost	-0.2941
-3.0769 us	-0.2952
-3.2988 very	-0.2228
-3.4749 was	-0.2174
-3.1738 way	-0.1954
-3.7839 we	-0.2249
-3.7839 west	-0.1907
-2.6620 which	-1.3344
-2.7345 with	-0.4459
-3.7839 you	-0.1552

\2-grams:
-3.3411 </s> </s> 2.4933
-0.0010 </s> <s> 0.0323
-3.3411 </s> green 0.1929
-0.9494 <s> </s> 0.5914
-3.3426 <s> a 0.0032
-2.5801 <s> another 0.2823
-0.9408 <s> back -1.0588
-3.3426 <s> blocking 0.0714
-2.5333 <s> centre -0.1714
-3.3426 <s> centered -0.0555
-3.3426 <s> cone -0.1033
-1.9494 <s> front -1.0582
-3.3426 <s> further -0.1170
-3.3426 <s> furthest -0.0223
-1.6941 <s> green 0.5160
-3.3426 <s> hard 0.0714
-2.8681 <s> hardest -0.0172
-3.3426 <s> has 0.0022
-2.3473 <s> in 0.2256
-3.3426 <s> isolated -0.0555
-2.8681 <s> it's -0.1425
-1.9951 <s> left -1.0060
-3.3426 <s> lonely -0.0555
-2.5801 <s> lower -0.1756
-3.3426 <s> middle -0.1379
-3.3426 <s> most -0.0907
-1.9494 <s> next -0.4538
-3.3426 <s> non 0.0714
-3.3426 <s> off 0.0714
-2.1712 <s> on 0.2430
-3.3426 <s> one -0.1443
-1.4053 <s> purple -0.8458
-3.3426 <s> right -0.1485
-3.3426 <s> south 0.0714
-0.6334 <s> the -0.2892
-2.8681 <s> there's -0.1006
-1.7453 <s> this -0.0129
-2.8681 <s> top -0.0588
-3.3426 <s> two 0.0460
-3.3426 <s> west 0.0714
-0.3932 I am 0.0714
-2.2128 a another 0.3235
-2.2128 a bunch 0.0714
-2.2128 a cluster 0.0714
-2.2128 a diagonal -0.0555
-0.4973 a green -1.0994
-1.7383 a group -0.0010
-1.0414 a little -0.4582
-1.4502 a lot 0.2247
-1.7383 a pair 0.3370
-0.5185 a purple -0.9570
-0.9165 a row 0.0828
-0.3932 about there -0.1032
-0.8703 above it -0.1413
-0.8703 above that -0.1291
-0.8703 above the -0.1533
-0.3932 adjoining purple -0.1261
-0.3932 after the -0.1519
-0.1078 all the -0.4316
-0.6942 almost in 0.3656
-0.9953 alone at 1.0505
-0.5208 alone in 0.1983
-0.9953 alone on 0.8676
-0.8703 also facing -0.0555
-0.8703 also the -0.1360
-0.8703 also with -0.0497
-0.3932 am talking 0.0714
-1.0212 and a 0.0768
-2.0165 and above -0.0907
-2.0165 and also -0.0907
-2.0165 and behind -0.0344
-2.0165 and closer 0.0714
-1.5420 and closest 0.4667
-1.5420 and green 0.5580
-0.7782 and in -0.7518
-2.0165 and it's -0.0634
-2.0165 and kinda -0.0907
-2.0165 and one -0.1520
-2.0165 and the -0.1486
-2.0165 and there's -0.1409
-0.4771 and to -0.1839
-2.0165 and towards 0.8464
-2.0165 and two 0.0460
-0.1761 another green -0.6497
-1.3475 another middle -0.1484
-0.8730 another purple 0.5707
-1.4346 are green -0.1269
-1.4346 are three 0.1474
-0.0872 are two -0.1504
-0.0280 at the -0.3405
-0.2198 away from -0.0770
-1.1405 back </s> 1.6055
-2.5751 back and 0.0225
-2.5751 back at 1.0505
-2.5751 back but -0.0555
-1.8125 back centre 0.0055
-1.3367 back corner -0.1127
-0.4337 back green -0.6522
-1.4037 back in 0.8427
-2.1006 back it -0.3086
-1.3367 back left -0.5572
-1.5798 back of -0.0521
-2.5751 back on 0.8676
-2.1006 back one -0.0586
-2.5751 back part 0.0714
-0.5191 back purple -0.4973
-2.5751 back right -0.0258
-2.5751 back top -0.1145
-1.0286 behind a -0.0180
-1.3167 behind and 0.1474
-1.7912 behind another 0.3235
-0.3565 behind it -0.1121
-1.3167 behind that -0.0060
-0.6198 behind the -0.0770
-0.3932 being to 0.8086
-0.6942 below another -0.0911
-0.6942 below the -0.0944
-1.3475 between a -0.1379
-1.3475 between it -0.0642
-1.3475 between purples 0.2475
-1.3475 between the -0.1486
-0.5382 between two -0.3520
-1.0922 bit further -0.1170
-0.6177 bit to 0.6412
-1.0922 bit towards 0.8464
-1.0922 bit up -0.0555
-0.3932 blocking the -0.1533
-0.3932 board </s> 2.4933
-0.4260 bottom </s> 1.8687
-1.1228 bottom a -0.2796
-1.5973 bottom and -0.1410
-1.5973 bottom it's -0.0287
-1.5973 bottom of 0.0641
-1.1228 bottom right -0.1932
-1.5973 bottom the -0.1360
-1.5973 bottom to 0.8086
-1.5973 bottom touching 0.0714
-0.3932 bunch of -0.1366
-0.6942 but on 0.8676
-0.6942 but to 0.8086
-1.2963 by a -0.1509
-1.2963 by four 0.0714
-0.8218 by green 0.2545
-0.3010 by purple 0.0371
-0.5643 centre </s> 1.8687
-1.2611 centre and -0.1366
-1.7356 centre behind -0.1321
-1.7356 centre cone -0.0851
-1.7356 centre front -0.1369
-1.7356 centre green 0.1929
-1.7356 centre line 0.0714
-1.2611 centre near 0.3780
-1.7356 centre of 0.0641
-0.7404 centre purple -0.0219
-1.7356 centre that's -0.0978
-1.7356 centre to 0.8086
-0.6942 centered and 0.0225
-0.6942 centered green -0.0251
-0.8703 close right -0.0641
-0.3958 close to 0.8235
-0.3932 closer to 0.8086
-1.0948 closest green -0.2840
-1.5693 closest purple -0.1195
-1.5693 closest the -0.1427
-0.1347 closest to 0.2443
-0.3932 cluster of -0.1437
-0.3296 color </s> 2.2137
-1.0922 color one -0.1443
-1.0922 color shades -0.1170
-0.3932 colors it's -0.0287
-0.1078 column of -0.1802
-0.5744 cone </s> 0.7836
-2.8310 cone I 0.0714
-2.3565 cone all 0.3370
-2.3565 cone alone 0.0701
-1.5347 cone and 0.1528
-1.4835 cone at 0.2499
-1.4835 cone behind 0.4717
-2.8310 cone being 0.0714
-2.8310 cone below -0.0555
-2.3565 cone between -0.1725
-2.8310 cone but -0.0555
-2.0684 cone directly -0.0890
-2.8310 cone further -0.1170
-1.5927 cone furthest -0.5626
-2.8310 cone greens -0.0555
-0.8357 cone in -99.9990
-0.9606 cone is -0.0941
-2.0684 cone it's -0.0536
-2.8310 cone kinda 0.0696
-2.8310 cone most -0.0907
-2.3565 cone near 0.6435
-2.8310 cone next -0.0813
-1.2073 cone on -0.2093
-2.3565 cone right -0.1255
-2.8310 cone second 0.0714
-2.3565 cone sitting 0.0801
-2.8310 cone somewhat 0.0714
-2.0217 cone surrounded 0.2553
-2.8310 cone that 0.0749
-2.8310 cone then 0.0714
-2.0684 cone there 0.3071
-2.8310 cone there's -0.1409
-0.9606 cone to -0.6225
-2.8310 cone towards 0.8464
-2.3565 cone which 0.7930
-1.5347 cone with 0.2677
-0.3158 cones </s> 1.1845
-2.1714 cones and -0.0744
-1.3621 cones behind -0.4472
-0.8751 cones in -99.9990
-2.1714 cones near 0.5454
-1.1761 cones on 0.6989
-2.1714 cones purple -0.0063
-2.1714 cones surrounding 0.0714
-2.1714 cones the -0.1533
-2.1714 cones there's -0.1145
-0.9331 cones to 0.1171
-2.1714 cones with -0.0497
-0.0889 corner </s> 1.3045
-1.8246 corner far -0.0033
-1.8246 corner in -0.0603
-1.8246 corner it's -0.1369
-1.3501 corner the -0.0835
-0.3932 deleted </s> 2.4933
-0.6942 diagonal of -0.1519
-0.6942 diagonal purple 0.1684
-0.6177 directly behind 0.0227
-1.0922 directly in -0.0603
-1.0922 directly opposite -0.0907
-1.0922 directly to 0.8086
-0.3932 down </s> 2.4933
-0.6942 east </s> 2.4933
-0.6942 east green 0.1929
-0.0512 edge </s> 1.7438
-1.3475 edge the -0.1360
-0.3932 either side 0.0266
-0.3932 entire frame 0.0714
-0.3932 extreme green 0.1929
-0.6942 face </s> 2.4933
-0.6942 face showing -0.1073
-0.6942 facing a -0.1122
-0.6942 facing towards 0.8464
-1.2963 far edge 0.8006
-1.2963 far in -0.0603
-0.5338 far left 0.1474
-0.5338 far right 0.0050
-0.6942 farthest </s> 2.4933
-0.6942 farthest to 0.8086
-0.3932 first behind -0.0344
-0.3932 four green -0.1269
-0.3932 frame it's -0.0287
-0.3296 from the -0.0200
-1.0922 from us 0.1206
-1.0922 from you 0.0714
-0.8388 front </s> 1.6469
-1.2368 front and -0.1624
-2.2321 front corner 0.5788
-2.2321 front far -0.1311
-0.7975 front green -0.2859
-1.4695 front in 0.7039
-2.2321 front left -0.0467
-0.4964 front of -0.2720
-2.2321 front on 0.8676
-1.2368 front one -0.1323
-2.2321 front pair 0.5043
-1.4228 front purple 0.3395
-2.2321 front right -0.1424
-2.2321 front row 0.2724
-2.2321 front to 0.8086
-1.0922 further back -0.1420
-1.0922 further behind 0.0982
-1.0922 further green -0.1269
-1.0922 further in -0.0603
-1.0922 further than 0.0714
-1.2804 furthest away 0.0801
-0.5836 furthest back 0.3920
-1.7549 furthest green -0.1469
-1.7549 furthest most -0.0907
-1.2804 furthest purple -0.3148
-0.3203 furthest to -0.0792
-0.2599 green </s> 0.1952
-3.0493 green and -0.1494
-2.5748 green between 0.0233
-0.5916 green cone 0.0830
-1.2247 green cones 0.2252
-3.0493 green furthest 0.1289
-2.0540 green it's -0.0163
-3.0493 green lowest -0.1473
-3.0493 green near 0.5454
-1.8110 green on 0.9363
-1.0879 green one -0.3104
-3.0493 green ones -0.1073
-3.0493 green that's -0.0978
-3.0493 green the -0.1486
-3.0493 green to 0.8086
-2.5748 green two -0.1001
-3.0493 green upper 0.1206
-0.6942 greens </s> 2.4933
-0.6942 greens in -0.1195
-0.2829 group of -0.3073
-0.3932 half way -0.1073
-0.6463 hand corner 0.6510
-1.8846 hand green 0.1929
-0.1296 hand side -0.0096
-0.3932 hard green -0.0251
-0.8703 hardest green 0.1929
-0.8703 hardest purple 0.1684
-0.8703 hardest to -0.1488
-0.9953 has a 0.0127
-0.9953 has the -0.1527
-0.5208 has three -0.1449
-0.2198 highest on 0.7002
-1.1213 in a -0.5037
-1.4735 in between -0.0220
-0.7138 in front -0.9389
-0.1565 in the -0.5244
-0.6301 is a -0.9010
-2.1994 is another -0.0911
-2.1994 is at 1.0505
-2.1994 is centered -0.0555
-2.1994 is close 0.0696
-1.4369 is closest 0.1408
-2.1994 is furthest -0.1302
-0.9611 is green -0.5101
-2.1994 is highest 0.2475
-0.8519 is in -0.4350
-2.1994 is lowest -0.1157
-1.7249 is on 0.7002
-2.1994 is one -0.1375
-1.4369 is purple -0.1087
-2.1994 is rather 0.0714
-2.1994 is slightly 0.0714
-1.7249 is surrounded 0.6333
-1.4369 is the -0.1439
-1.0280 is to 0.1841
-2.1994 is towards 0.8464
-2.1994 is very -0.0907
-0.6942 isolated green 0.1929
-0.6942 isolated purple -0.0063
-0.7304 it </s> 1.7438
-2.0267 it a 0.0127
-0.7304 it and -0.1278
-1.5522 it are 0.4194
-2.0267 it behind 0.0982
-1.5522 it has 0.0701
-0.7884 it is -0.7291
-1.2641 it there 0.8837
-0.7304 it there's -0.4559
-1.5522 it this 0.0499
-2.0267 it two -0.1053
-1.8984 it's a 0.0127
-1.8984 it's almost -0.0555
-1.4239 it's also -0.0172
-1.8984 it's below -0.0555
-0.7270 it's in -0.2589
-1.4239 it's near 0.6435
-1.8984 it's not 0.0714
-0.7270 it's on 0.2430
-1.8984 it's one -0.1375
-1.8984 it's purple 0.1684
-0.6021 it's the -0.1556
-1.8984 it's to 0.8086
-0.6942 just above -0.0907
-0.6942 just deleted 0.0714
-0.3958 kinda in 0.1983
-0.8703 kinda towards 0.8464
-1.2383 last cone -0.0191
-0.4758 last green -0.3962
-0.7638 last one 0.0304
-1.2383 last two -0.1490
-0.6612 left </s> 1.2667
-2.4346 left a -0.1122
-1.9601 left and 0.0894
-1.9601 left back -0.3005
-2.4346 left bottom 0.0505
-1.2632 left corner -0.1627
-1.9601 left edge 0.6333
-1.9601 left front -0.1250
-2.4346 left further -0.1170
-2.4346 left green 0.1929
-0.9274 left hand 0.8597
-1.9601 left in 0.1983
-2.4346 left left -0.1293
-0.8953 left of -0.9121
-1.9601 left on 0.7002
-1.0872 left purple -0.6322
-2.4346 left rear 0.5043
-2.4346 left showing -0.1073
-0.8109 left side -0.0388
-1.9601 left the -0.1106
-2.4346 left there 0.5867
-1.9601 left there's 0.1262
-2.4346 left to 0.8086
-2.4346 left top -0.1145
-0.3932 line green -0.1525
-0.2829 little bit 0.0741
-0.3932 lone green -0.0251
-0.6942 lonely </s> 2.4933
-0.6942 lonely green 0.1929
-0.1078 lot of -0.2366
-1.5393 lower bottom 0.0505
-1.0648 lower green -0.0246
-1.0648 lower left -0.2664
-1.5393 lower lowest -0.0489
-0.7768 lower purple 0.4665
-0.5441 lower right -0.0620
-1.5393 lower the -0.1464
-1.0311 lowest </s> 1.9479
-1.8404 lowest at 1.0505
-0.6690 lowest green -0.4415
-1.8404 lowest it's -0.1481
-1.8404 lowest left -0.0990
-1.8404 lowest of 0.0641
-1.0778 lowest on 0.5879
-1.8404 lowest one -0.1520
-0.4929 lowest purple 0.4496
-0.5772 middle </s> 1.6927
-1.9247 middle all 0.5043
-1.9247 middle bottom -0.1196
-1.9247 middle column 0.5043
-1.4502 middle cone 0.0773
-1.9247 middle diagonal -0.0555
-1.9247 middle directly -0.1170
-1.9247 middle front -0.0856
-1.9247 middle group 0.1663
-1.9247 middle in 0.3656
-1.9247 middle it's -0.0287
-1.1154 middle of -0.5837
-1.4502 middle purple -0.0029
-1.9247 middle right -0.1519
-1.9247 middle showing 0.0022
-1.9247 middle still 0.0714
-1.4502 middle to 0.6412
-1.4502 middle towards 0.6790
-0.1761 midline </s> 1.8687
-0.8730 midline it's -0.1312
-1.3475 midline the -0.1442
-0.8703 most lower -0.0075
-0.8703 most north 0.0714
-0.8703 most to 0.8086
-1.3932 near a -0.1379
-0.0969 near the -0.2685
-1.3932 near two -0.1396
-0.1891 next cone -0.9910
-1.6237 next one -0.1520
-0.8144 next to 0.8616
-0.3932 no shading 0.0714
-0.3932 non extreme 0.0714
-0.3932 north east -0.0555
-0.3932 not the -0.1360
-1.1719 of a 0.3157
-1.6477 of cones 0.0347
-1.4150 of green -0.1800
-0.7160 of it 0.2067
-2.4103 of only -0.1311
-1.6010 of purple -0.8185
-2.4103 of purples 0.2475
-1.6477 of that -0.1101
-0.4042 of the -0.2221
-2.4103 of this 0.0620
-2.4103 of those 0.0714
-1.0170 of three 0.3143
-1.1719 of two 0.0093
-0.3932 off centre -0.1456
-2.3175 on either 0.0714
-2.3175 on it -0.0642
-2.3175 on it's -0.0287
-2.3175 on next -0.0813
-2.3175 on that 0.0749
-1.8430 on that's -0.0143
-0.0435 on the -0.7546
-2.3175 on to 0.8086
-0.7626 one </s> 1.3681
-2.4346 one almost -0.0555
-2.4346 one and -0.1494
-1.6721 one closest 0.1408
-1.4393 one color 0.0010
-2.4346 one down 0.0714
-1.9601 one face 0.0714
-2.4346 one green -0.0251
-1.0872 one in -0.5375
-1.9601 one it's -0.0566
-2.4346 one just -0.0555
-2.4346 one next -0.0813
-1.6253 one of 0.0276
-0.7626 one on -0.3887
-1.9601 one opposite -0.0977
-1.9601 one purple -0.1736
-1.6721 one right -0.2259
-2.4346 one shade 0.0714
-1.0414 one that -0.4947
-1.6253 one that's 0.1803
-1.6721 one the -0.1290
-2.4346 one this -0.1070
-2.4346 one to 0.8086
-2.4346 one towards 0.8464
-2.4346 one up -0.0555
-1.0414 one which 0.1854
-2.4346 one with -0.0497
-0.5208 ones </s> 2.3259
-0.9953 ones in -0.1195
-0.9953 ones the -0.1360
-0.8218 only cone -0.1864
-1.2963 only green -0.1269
-1.2963 only left -0.1488
-0.5338 only one -0.2367
-1.2963 only purple -0.1195
-0.3958 opposite it -0.2316
-0.8703 opposite of -0.1437
-0.6942 other green -0.1269
-0.6942 other purple -0.1261
-0.1078 pair of -0.2092
-0.3932 part of 0.0641
-0.3932 previous one -0.0713
-0.3932 probably right -0.1273
-0.2810 purple </s> 0.3005
-3.0206 purple and -0.1102
-0.5410 purple cone 0.1347
-1.2124 purple cones -0.1046
-3.0206 purple farthest -0.0555
-3.0206 purple furthest 0.1289
-2.2580 purple in -0.1217
-2.5461 purple it's -0.0428
-3.0206 purple no 0.0714
-1.8492 purple on 0.2430
-1.1222 purple one -0.1372
-2.2580 purple ones -0.0341
-3.0206 purple rectangle 0.0714
-3.0206 purple surrounded 0.8006
-2.5461 purple to 0.6412
-0.2198 purples </s> 2.3259
-0.3932 rather lonely -0.0555
-0.1078 rear of -0.2156
-0.3932 rectangle at 1.0505
-0.5936 right </s> 1.2319
-2.4018 right a 0.0127
-2.4018 right above -0.0907
-2.4018 right after 0.0714
-2.4018 right and -0.1102
-1.9273 right back -0.3005
-1.9273 right behind 0.1373
-2.4018 right between -0.1337
-2.4018 right bottom 0.0505
-2.4018 right cone -0.1517
-1.5925 right corner 0.0334
-1.4065 right edge 0.8345
-1.9273 right front -0.1099
-0.7298 right hand 0.2126
-1.2304 right in -0.2876
-2.4018 right it's -0.0634
-2.4018 right next -0.0813
-1.2304 right of -0.1700
-2.4018 right on 0.8676
-1.9273 right purple -0.0045
-1.9273 right row 0.1050
-2.4018 right showing 0.0022
-0.9672 right side 0.2823
-2.4018 right the -0.0944
-2.4018 right there 0.5867
-2.4018 right to 0.8086
-2.4018 right two -0.1053
-0.7881 row </s> 1.9479
-0.2041 row of -0.4247
-1.5973 row on 0.8676
-0.1513 screen </s> 1.5677
-1.1492 screen and -0.1452
-1.6237 screen in 0.3656
-1.6237 screen kinda 0.0696
-1.6237 screen there 0.5867
-0.3932 second from 0.1206
-0.6942 see </s> 2.4933
-0.6942 see left -0.1520
-0.3932 shade it's -0.1481
-0.6177 shades </s> 2.3259
-1.0922 shades furthest 0.1289
-1.0922 shades on -0.1515
-1.0922 shades that's -0.0978
-0.3932 shading </s> 2.4933
-0.6942 shadow facing -0.0555
-0.6942 shadow the -0.1486
-0.9953 showing </s> 2.4933
-0.9953 showing one -0.1488
-0.5208 showing only -0.1707
-0.4690 side </s> 1.3916
-2.1175 side a -0.1122
-1.6430 side and -0.1452
-1.6430 side back -0.3005
-2.1175 side front -0.0856
-2.1175 side green -0.1525
-2.1175 side half 0.0714
-2.1175 side in -0.0603
-1.1222 side it's -0.0742
-2.1175 side near 0.5454
-0.6451 side of -0.8492
-2.1175 side surrounded 0.8006
-1.3082 side the -0.1911
-2.1175 side there 0.5867
-2.1175 side to 0.8086
-2.1175 side which 0.9603
-0.2198 sitting alone 0.0701
-0.3932 slightly to 0.8086
-0.3932 somewhat in 0.3656
-0.3932 south east -0.0555
-0.3932 still on 0.8676
-0.0512 surrounded by 0.0749
-0.3932 surrounding it -0.0642
-0.3932 table </s> 2.4933
-0.3932 talking about 0.0714
-0.3932 than the -0.1442
-1.2611 that </s> 2.3259
-1.7356 that far -0.1311
-0.9731 that green -0.3048
-1.7356 that has -0.1073
-0.3882 that is -0.0099
-0.7404 that one -0.2566
-1.2611 that was 0.0714
-0.6307 that's closest 0.1408
-0.9187 that's furthest 0.4300
-1.3932 that's highest 0.2475
-0.9187 that's the -0.3034
-0.9187 that's to 0.6412
-2.6998 the </s> 2.3259
-1.2496 the back -0.5178
-2.6998 the behind 0.1373
-3.1743 the board 0.0714
-1.7810 the bottom 0.2455
-1.7019 the centre 0.0591
-3.1743 the close -0.0907
-2.1790 the closest 0.5684
-2.6998 the column 0.3370
-1.9359 the cone 0.1116
-3.1743 the edge 0.8006
-3.1743 the entire 0.0714
-2.3650 the far -0.0027
-3.1743 the farthest -0.0555
-3.1743 the first 0.0714
-1.3497 the front 0.4151
-1.8268 the furthest -0.2458
-0.8945 the green 0.0894
-2.6998 the group -0.0010
-3.1743 the hardest -0.0907
-3.1743 the in -0.0603
-3.1743 the isolated -0.0555
-3.1743 the it's -0.0287
-1.9359 the last 0.1174
-0.8889 the left -0.2126
-3.1743 the lone 0.0714
-1.7810 the lower 0.1275
-1.4008 the lowest -0.1660
-1.2897 the middle -0.0252
-1.8779 the midline 0.1276
-3.1743 the near 0.5454
-2.6998 the next 0.3290
-2.4117 the on 0.5879
-1.6671 the one -0.0637
-2.1790 the only -0.1033
-3.1743 the previous 0.0714
-3.1743 the probably 0.0714
-1.0821 the purple -0.2933
-2.6998 the rear 0.3370
-0.9237 the right -0.0115
-2.3650 the row -0.2730
-1.5769 the screen 0.1004
-2.6998 the shadow 0.0714
-3.1743 the table 0.0714
-2.4117 the the -0.1696
-3.1743 the third 0.0714
-2.4117 the three -0.1322
-1.8779 the top -0.0314
-2.4117 the two 0.2429
-2.1790 the upper 0.2155
-2.4117 the uppermost 0.0764
-2.6998 the very -0.0172
-2.4117 the way 0.0033
-0.3932 then a 0.0127
-0.0872 there are 0.1586
-0.9601 there is -0.2050
-0.1919 there's a -0.2683
-1.5393 there's another 0.3235
-1.5393 there's one -0.1488
-1.5393 there's three -0.1437
-1.0648 there's two 0.0533
-0.3932 third from 0.1206
-0.9457 this cone -0.6486
-0.4075 this green -0.8258
-0.9924 this is -0.1205
-0.5836 this purple -0.6308
-0.3932 those further -0.1170
-1.6485 three cones -0.0997
-0.4771 three green -0.7515
-1.6485 three in -0.1195
-1.6485 three on 0.8676
-0.3010 three purple -0.3472
-2.4346 to a 0.0127
-2.4346 to it -0.1495
-1.9601 to see 0.0714
-1.4393 to that -0.1014
-0.0502 to the -0.6877
-1.4393 to us 0.2024
-0.7301 top </s> 1.9479
-1.0648 top corner 0.4114
-1.5393 top green -0.0251
-1.5393 top left -0.0467
-1.5393 top on 0.8676
-1.5393 top purple 0.1684
-0.7768 top right -0.2412
-0.3932 touching two 0.0112
-0.0458 towards the -0.0257
-1.9730 two </s> 2.4933
-1.9730 two adjoining 0.0714
-1.9730 two color -0.1170
-1.9730 two colors 0.0714
-0.5006 two green -0.9043
-1.9730 two greens -0.0555
-1.9730 two left -0.1488
-1.4985 two other 0.0714
-0.4337 two purple -0.5391
-0.9777 two shades -0.0053
-0.6942 up </s> 2.4933
-0.6942 up from 0.1206
-0.6177 upper left -0.2664
-0.3296 upper right -0.3437
-0.8703 uppermost of -0.1097
-0.3958 uppermost purple -0.1736
-0.3296 us </s> 2.2137
-1.0922 us in 0.3656
-1.0922 us the -0.1486
-0.8703 very bottom -0.1425
-0.8703 very close 0.0696
-0.8703 very top -0.0641
-0.6942 was directly -0.1170
-0.6942 was right -0.1519
-0.9953 way at 1.0505
-0.9953 way back -0.1525
-0.9953 way in 0.3656
-0.9953 way to 0.8086
-0.3932 we just -0.0555
-0.3932 west green 0.1929
-0.0348 which is -0.0700
-1.5072 which we 0.0714
-0.6721 with a -0.0682
-1.4346 with green -0.1269
-1.4346 with only -0.0033
-0.6721 with the -0.0500
-0.6721 with two 0.0918
-0.3932 you </s> 2.4933

\3-grams:
-0.5259 </s> </s> <s> 
-0.9469 </s> <s> </s> 
-3.4728 </s> <s> a 
-2.6696 </s> <s> another 
-0.9383 </s> <s> back 
-3.4728 </s> <s> blocking 
-2.2480 </s> <s> centre 
-3.4728 </s> <s> centered 
-3.4728 </s> <s> cone 
-1.9469 </s> <s> front 
-3.4728 </s> <s> further 
-3.4728 </s> <s> furthest 
-1.6917 </s> <s> green 
-3.4728 </s> <s> hard 
-2.9279 </s> <s> hardest 
-3.4728 </s> <s> has 
-2.3449 </s> <s> in 
-3.4728 </s> <s> isolated 
-2.9279 </s> <s> it's 
-1.9927 </s> <s> left 
-3.4728 </s> <s> lonely 
-2.6696 </s> <s> lower 
-3.4728 </s> <s> middle 
-3.4728 </s> <s> most 
-1.9469 </s> <s> next 
-3.4728 </s> <s> non 
-3.4728 </s> <s> off 
-2.2480 </s> <s> on 
-3.4728 </s> <s> one 
-1.4029 </s> <s> purple 
-3.4728 </s> <s> right 
-3.4728 </s> <s> south 
-0.6331 </s> <s> the 
-2.9279 </s> <s> there's 
-1.7428 </s> <s> this 
-2.9279 </s> <s> top 
-3.4728 </s> <s> two 
-3.4728 </s> <s> west 
-0.5259 </s> green </s> 
-2.5259 <s> </s> </s> 
-0.0044 <s> </s> <s> 
-0.5259 <s> a purple 
-0.4581 <s> another green 
-1.0030 <s> another middle 
-1.9895 <s> back centre 
-0.2682 <s> back green 
-2.5345 <s> back left 
-0.3751 <s> back purple 
-0.5259 <s> blocking the 
-1.2249 <s> centre and 
-1.2249 <s> centre green 
-0.4217 <s> centre purple 
-0.5259 <s> centered green 
-0.5259 <s> cone to 
-0.0458 <s> front green 
-1.5259 <s> front purple 
-0.5259 <s> further back 
-0.5259 <s> furthest back 
-1.2362 <s> green </s> 
-1.2362 <s> green between 
-0.3010 <s> green cone 
-1.7812 <s> green furthest 
-1.7812 <s> green lowest 
-1.7812 <s> green on 
-1.7812 <s> green one 
-1.7812 <s> green upper 
-0.5259 <s> hard green 
-0.8269 <s> hardest purple 
-0.8269 <s> hardest to 
-0.5259 <s> has three 
-1.1280 <s> in between 
-0.3248 <s> in the 
-0.5259 <s> isolated green 
-0.8269 <s> it's a 
-0.8269 <s> it's below 
-1.4801 <s> left of 
-0.0512 <s> left purple 
-0.5259 <s> lonely green 
-1.0030 <s> lower green 
-0.4581 <s> lower left 
-0.5259 <s> middle purple 
-0.5259 <s> most north 
-0.0458 <s> next cone 
-1.5259 <s> next to 
-0.5259 <s> non extreme 
-0.5259 <s> off centre 
-0.0792 <s> on the 
-0.5259 <s> one the 
-0.1639 <s> purple cone 
-1.5250 <s> purple in 
-2.0700 <s> purple on 
-0.7659 <s> purple one 
-2.0700 <s> purple surrounded 
-2.0700 <s> purple to 
-0.5259 <s> right front 
-0.5259 <s> south east 
-2.2969 <s> the back 
-2.2969 <s> the centre 
-2.0387 <s> the closest 
-1.5378 <s> the cone 
-1.4709 <s> the front 
-1.5378 <s> the furthest 
-0.5166 <s> the green 
-2.8419 <s> the isolated 
-2.8419 <s> the last 
-2.2969 <s> the left 
-2.8419 <s> the lone 
-1.6170 <s> the lower 
-1.3160 <s> the lowest 
-2.0387 <s> the middle 
-2.2969 <s> the next 
-2.8419 <s> the on 
-1.5378 <s> the one 
-2.0387 <s> the only 
-0.6825 <s> the purple 
-2.8419 <s> the right 
-2.2969 <s> the the 
-2.8419 <s> the top 
-2.2969 <s> the uppermost 
-0.8269 <s> there's three 
-0.8269 <s> there's two 
-0.9268 <s> this cone 
-0.3590 <s> this green 
-1.1850 <s> this is 
-0.6021 <s> this purple 
-0.8269 <s> top purple 
-0.8269 <s> top right 
-0.5259 <s> two purple 
-0.5259 <s> west green 
-0.5259 I am talking 
-0.5259 a another green 
-0.5259 a bunch of 
-0.5259 a cluster of 
-0.5259 a diagonal of 
-0.0669 a green cone 
-1.0449 a green one 
-0.2820 a group of 
-0.0792 a little bit 
-0.1998 a lot of 
-0.2820 a pair of 
-1.8269 a purple and 
-0.0458 a purple cone 
-1.8269 a purple one 
-0.3010 a row </s> 
-0.6258 a row of 
-1.4290 a row on 
-0.5259 about there is 
-0.5259 above it are 
-0.5259 above that </s> 
-0.5259 above the previous 
-0.5259 adjoining purple cones 
-0.5259 after the two 
-0.1998 all the way 
-0.5259 almost in the 
-0.5259 alone at the 
-0.2820 alone in the 
-0.5259 alone on the 
-0.5259 also facing a 
-0.5259 also the lowest 
-0.5259 also with a 
-0.5259 am talking about 
-1.1280 and a green 
-0.3248 and a purple 
-0.5259 and above it 
-0.5259 and also with 
-0.5259 and behind the 
-0.5259 and closer to 
-0.8269 and closest the 
-0.8269 and closest to 
-0.8269 and green </s> 
-0.8269 and green cone 
-0.0669 and in front 
-0.5259 and it's on 
-0.5259 and kinda towards 
-0.5259 and one green 
-0.5259 and the last 
-0.5259 and there's one 
-0.0322 and to the 
-0.5259 and towards the 
-0.5259 and two purple 
-0.0792 another green cone 
-0.5259 another middle diagonal 
-0.8269 another purple </s> 
-0.8269 another purple cone 
-0.5259 are green cones 
-0.5259 are three purple 
-0.6769 are two green 
-1.4801 are two other 
-0.2553 are two purple 
-0.8988 at the back 
-0.4771 at the bottom 
-1.1570 at the centre 
-1.7020 at the left 
-1.7020 at the top 
-1.1570 at the very 
-0.8269 away from us 
-0.8269 away from you 
-0.0414 back </s> <s> 
-0.5259 back and to 
-0.5259 back at the 
-0.5259 back but on 
-0.4581 back centre </s> 
-1.0030 back centre purple 
-0.0669 back corner </s> 
-0.0158 back green </s> 
-2.2741 back green cone 
-2.2741 back green one 
-1.3040 back in a 
-1.3040 back in front 
-0.1761 back in the 
-0.2820 back it has 
-1.3710 back left </s> 
-0.1461 back left corner 
-1.3710 back left there 
-0.5830 back of the 
-0.5830 back of two 
-0.5259 back on the 
-0.8269 back one </s> 
-0.8269 back one of 
-0.5259 back part of 
-0.0293 back purple </s> 
-1.6437 back purple cone 
-2.1887 back purple one 
-0.5259 back right </s> 
-0.5259 back top corner 
-0.4581 behind a purple 
-1.0030 behind a row 
-0.8269 behind and in 
-0.8269 behind and to 
-0.5259 behind another green 
-1.5673 behind it </s> 
-1.5673 behind it a 
-0.3424 behind it and 
-1.5673 behind it there 
-0.7641 behind it there's 
-0.8269 behind that green 
-0.8269 behind that one 
-1.3040 behind the green 
-1.3040 behind the one 
-0.7591 behind the purple 
-1.3040 behind the row 
-0.5259 being to the 
-0.5259 below another purple 
-0.5259 below the green 
-0.5259 between a lot 
-0.5259 between it </s> 
-0.5259 between purples </s> 
-0.5259 between the last 
-1.2249 between two green 
-0.0969 between two purple 
-0.5259 bit further than 
-0.2820 bit to the 
-0.5259 bit towards the 
-0.5259 bit up from 
-0.5259 blocking the hardest 
-0.5259 board </s> <s> 
-0.0792 bottom </s> <s> 
-0.2820 bottom a little 
-0.5259 bottom and closest 
-0.5259 bottom it's the 
-0.5259 bottom of the 
-0.2820 bottom right </s> 
-0.5259 bottom the lowest 
-0.5259 bottom to the 
-0.5259 bottom touching two 
-0.5259 bunch of green 
-0.5259 but on the 
-0.5259 but to the 
-0.5259 by a cluster 
-0.5259 by four green 
-0.8269 by green </s> 
-0.8269 by green cones 
-1.1280 by purple </s> 
-0.3248 by purple cones 
-0.0792 centre </s> <s> 
-0.8269 centre and green 
-0.8269 centre and kinda 
-0.5259 centre behind and 
-0.5259 centre cone in 
-0.5259 centre front purple 
-0.5259 centre green </s> 
-0.5259 centre line green 
-0.2820 centre near the 
-0.5259 centre of the 
-0.3248 centre purple </s> 
-1.1280 centre purple no 
-0.5259 centre that's the 
-0.5259 centre to the 
-0.5259 centered and to 
-0.5259 centered green cone 
-0.5259 close right hand 
-0.8269 close to a 
-0.8269 close to the 
-0.5259 closer to the 
-0.2820 closest green one 
-0.5259 closest purple one 
-1.5673 closest to that 
-0.2632 closest to the 
-0.4393 closest to us 
-0.5259 cluster of cones 
-0.1998 color </s> <s> 
-0.5259 color one the 
-0.5259 color shades furthest 
-0.5259 colors it's the 
-1.0030 column of three 
-0.4581 column of two 
-0.0060 cone </s> <s> 
-0.5259 cone I am 
-0.2820 cone all the 
-0.8269 cone alone in 
-0.8269 cone alone on 
-1.4290 cone and a 
-1.4290 cone and behind 
-1.4290 cone and green 
-0.6258 cone and in 
-0.8840 cone and to 
-0.0512 cone at the 
-1.4801 cone behind a 
-1.4801 cone behind another 
-0.6769 cone behind it 
-1.4801 cone behind that 
-0.6769 cone behind the 
-0.5259 cone being to 
-0.5259 cone below the 
-0.2820 cone between two 
-0.5259 cone but to 
-0.4581 cone directly behind 
-1.0030 cone directly in 
-0.5259 cone further behind 
-0.0669 cone furthest to 
-0.5259 cone greens </s> 
-1.5830 cone in a 
-2.1280 cone in between 
-1.0000 cone in front 
-0.0835 cone in the 
-0.7782 cone is a 
-2.0030 cone is another 
-2.0030 cone is centered 
-0.6990 cone is green 
-0.8751 cone is in 
-1.4581 cone is on 
-1.1998 cone is purple 
-2.0030 cone is rather 
-1.4581 cone is surrounded 
-1.1998 cone is to 
-2.0030 cone is towards 
-2.0030 cone is very 
-1.0030 cone it's in 
-0.4581 cone it's on 
-0.5259 cone kinda in 
-0.5259 cone most to 
-0.8269 cone near a 
-0.8269 cone near the 
-0.5259 cone next to 
-0.0263 cone on the 
-0.8269 cone right in 
-0.8269 cone right next 
-0.5259 cone second from 
-0.2820 cone sitting alone 
-0.5259 cone somewhat in 
-0.0969 cone surrounded by 
-0.5259 cone that is 
-0.5259 cone then a 
-0.1998 cone there are 
-0.5259 cone there's another 
-2.0030 cone to see 
-0.0147 cone to the 
-0.5259 cone towards the 
-0.2820 cone which is 
-0.8840 cone with a 
-1.4290 cone with green 
-1.4290 cone with only 
-0.8840 cone with the 
-0.8840 cone with two 
-0.0152 cones </s> <s> 
-0.5259 cones and in 
-0.0969 cones behind it 
-1.4290 cones in a 
-1.4290 cones in between 
-0.8840 cones in front 
-0.3010 cones in the 
-0.5259 cones near the 
-1.1280 cones on either 
-0.3248 cones on the 
-0.5259 cones purple cone 
-0.5259 cones surrounding it 
-0.5259 cones the third 
-0.5259 cones there's two 
-0.0669 cones to the 
-0.5259 cones with two 
-0.0202 corner </s> <s> 
-0.5259 corner far left 
-0.5259 corner in front 
-0.5259 corner it's also 
-0.8269 corner the green 
-0.8269 corner the one 
-0.5259 deleted </s> <s> 
-0.5259 diagonal of purples 
-0.5259 diagonal purple </s> 
-0.8269 directly behind a 
-0.8269 directly behind the 
-0.5259 directly in front 
-0.5259 directly opposite of 
-0.5259 directly to the 
-0.5259 down </s> <s> 
-0.5259 east </s> <s> 
-0.5259 east green </s> 
-0.0580 edge </s> <s> 
-0.5259 edge the lowest 
-0.5259 either side </s> 
-0.5259 entire frame it's 
-0.5259 extreme green </s> 
-0.5259 face </s> <s> 
-0.5259 face showing </s> 
-0.5259 facing a little 
-0.5259 facing towards the 
-0.5259 far edge </s> 
-0.5259 far in front 
-1.0030 far left </s> 
-1.0030 far left of 
-1.0030 far left side 
-1.0030 far right back 
-1.0030 far right hand 
-1.0030 far right side 
-0.5259 farthest </s> <s> 
-0.5259 farthest to the 
-0.5259 first behind the 
-0.5259 four green cones 
-0.5259 frame it's the 
-1.0030 from the bottom 
-1.0030 from the left 
-1.0030 from the right 
-0.5259 from us </s> 
-0.5259 from you </s> 
-0.0458 front </s> <s> 
-0.3248 front and to 
-0.5259 front corner </s> 
-0.5259 front far in 
-0.1383 front green </s> 
-0.7641 front green cone 
-0.4581 front in front 
-1.0030 front in the 
-0.5259 front left </s> 
-1.0651 front of a 
-0.3424 front of it 
-1.8683 front of purple 
-1.3234 front of that 
-0.6435 front of the 
-1.8683 front of those 
-0.5259 front on the 
-1.1280 front one </s> 
-1.1280 front one and 
-0.5830 front one of 
-0.5259 front pair of 
-0.6799 front purple </s> 
-0.4217 front purple cone 
-0.5259 front right corner 
-0.5259 front row of 
-0.5259 front to the 
-0.5259 further back of 
-0.5259 further behind it 
-0.5259 further green cones 
-0.5259 further in front 
-0.5259 further than the 
-0.2820 furthest away from 
-1.3040 furthest back </s> 
-1.3040 furthest back green 
-1.3040 furthest back in 
-0.5008 furthest back purple 
-0.5259 furthest green on 
-0.5259 furthest most lower 
-0.2820 furthest purple on 
-0.0414 furthest to the 
-0.0017 green </s> <s> 
-2.9221 green </s> green 
-0.5259 green and it's 
-0.8269 green between purples 
-0.8269 green between two 
-0.6665 green cone </s> 
-2.5904 green cone all 
-2.0454 green cone alone 
-1.3655 green cone and 
-1.3655 green cone at 
-1.2863 green cone behind 
-2.5904 green cone below 
-2.5904 green cone between 
-2.0454 green cone directly 
-1.7871 green cone furthest 
-0.8340 green cone in 
-1.1102 green cone is 
-2.5904 green cone it's 
-2.5904 green cone kinda 
-2.5904 green cone near 
-1.2863 green cone on 
-2.0454 green cone right 
-2.5904 green cone second 
-2.5904 green cone sitting 
-1.4624 green cone surrounded 
-2.0454 green cone there 
-2.5904 green cone there's 
-0.9183 green cone to 
-2.5904 green cone which 
-1.4624 green cone with 
-0.4771 green cones </s> 
-1.9573 green cones and 
-1.1541 green cones behind 
-0.8293 green cones in 
-1.9573 green cones near 
-1.4123 green cones on 
-1.9573 green cones purple 
-1.9573 green cones the 
-1.9573 green cones there's 
-0.8293 green cones to 
-0.5259 green furthest to 
-0.5830 green it's in 
-1.1280 green it's on 
-1.1280 green it's to 
-0.5259 green lowest at 
-0.5259 green near the 
-1.3710 green on next 
-1.3710 green on that 
-0.8260 green on that's 
-0.8260 green on the 
-1.3710 green on to 
-0.7901 green one </s> 
-1.2909 green one in 
-2.0941 green one it's 
-0.5268 green one on 
-1.5491 green one right 
-2.0941 green one shade 
-0.6651 green one that 
-2.0941 green one the 
-2.0941 green one this 
-1.2909 green one which 
-0.5259 green ones in 
-0.5259 green that's to 
-0.5259 green the last 
-0.5259 green to the 
-0.8269 green two colors 
-0.8269 green two shades 
-0.5259 green upper right 
-0.5259 greens </s> <s> 
-0.5259 greens in a 
-0.4217 group of three 
-0.6799 group of two 
-0.5259 half way back 
-0.5678 hand corner </s> 
-1.3710 hand corner far 
-1.3710 hand corner it's 
-0.8260 hand corner the 
-0.5259 hand green </s> 
-0.5166 hand side </s> 
-1.8876 hand side a 
-1.8876 hand side and 
-1.3427 hand side back 
-1.8876 hand side green 
-1.3427 hand side it's 
-0.5166 hand side of 
-1.8876 hand side the 
-1.8876 hand side to 
-0.5259 hard green cone 
-0.5259 hardest green </s> 
-0.5259 hardest purple </s> 
-0.5259 hardest to see 
-0.5259 has a green 
-0.5259 has the shadow 
-0.2820 has three green 
-0.2820 highest on the 
-1.4801 in a diagonal 
-0.9352 in a group 
-1.4801 in a pair 
-0.2553 in a row 
-1.1280 in between it 
-1.1280 in between the 
-0.5830 in between two 
-1.8876 in front </s> 
-1.8876 in front far 
-0.0395 in front of 
-0.7150 in the back 
-2.4450 in the behind 
-2.4450 in the bottom 
-1.3170 in the centre 
-1.9000 in the column 
-1.9000 in the far 
-1.0160 in the front 
-1.9000 in the furthest 
-1.9000 in the group 
-1.2201 in the left 
-2.4450 in the lowest 
-0.5211 in the middle 
-2.4450 in the on 
-2.4450 in the probably 
-2.4450 in the rear 
-1.6418 in the right 
-1.9000 in the row 
-2.4450 in the the 
-2.4450 in the top 
-1.3170 in the upper 
-1.7020 is a another 
-0.2730 is a green 
-0.3979 is a purple 
-0.5259 is another purple 
-0.5259 is at the 
-0.5259 is centered and 
-0.5259 is close to 
-0.1998 is closest to 
-0.5259 is furthest away 
-0.2430 is green it's 
-1.3710 is green near 
-1.3710 is green on 
-1.3710 is green to 
-0.5259 is highest on 
-0.0512 is in the 
-0.5259 is lowest on 
-0.2820 is on the 
-0.5259 is one color 
-1.0030 is purple cone 
-0.4581 is purple it's 
-0.5259 is rather lonely 
-0.5259 is slightly to 
-0.2820 is surrounded by 
-1.0030 is the closest 
-1.0030 is the first 
-1.0030 is the furthest 
-0.0792 is to the 
-0.5259 is towards the 
-0.5259 is very close 
-0.5259 isolated green </s> 
-0.5259 isolated purple cone 
-0.0580 it </s> <s> 
-0.5259 it a green 
-1.4290 it and also 
-1.4290 it and in 
-1.4290 it and one 
-0.3010 it and to 
-1.4290 it and two 
-0.2820 it are two 
-0.5259 it behind it 
-0.8269 it has a 
-0.8269 it has three 
-0.0669 it is a 
-0.4581 it there are 
-1.0030 it there is 
-0.0580 it there's a 
-0.8269 it this cone 
-0.8269 it this purple 
-0.5259 it two shades 
-0.5259 it's a green 
-0.8269 it's also facing 
-0.8269 it's also the 
-0.5259 it's below another 
-0.0792 it's in the 
-0.8269 it's near the 
-0.8269 it's near two 
-0.5259 it's not the 
-0.0792 it's on the 
-0.5259 it's one color 
-0.5259 it's purple </s> 
-1.4290 it's the farthest 
-1.4290 it's the green 
-0.6258 it's the lowest 
-0.8840 it's the purple 
-1.4290 it's the uppermost 
-0.5259 it's to the 
-0.5259 just above the 
-0.5259 just deleted </s> 
-0.2820 kinda in the 
-0.5259 kinda towards the 
-0.5259 last cone </s> 
-0.1998 last green one 
-0.8269 last one </s> 
-0.8269 last one on 
-0.5259 last two </s> 
-0.0185 left </s> <s> 
-0.5259 left a little 
-0.8269 left and a 
-0.8269 left and to 
-0.2820 left back corner 
-0.5259 left bottom </s> 
-0.0792 left corner </s> 
-1.3040 left corner in 
-0.2820 left edge </s> 
-0.8269 left front corner 
-0.8269 left front one 
-0.5259 left further in 
-0.5259 left green </s> 
-0.8366 left hand corner 
-1.6398 left hand green 
-0.1597 left hand side 
-0.2820 left in the 
-0.5259 left left corner 
-0.4472 left of it 
-0.2430 left of the 
-1.6720 left of this 
-0.2820 left on the 
-0.0512 left purple </s> 
-0.5259 left rear of 
-0.5259 left showing one 
-0.3854 left side </s> 
-1.2114 left side it's 
-0.9531 left side of 
-0.9531 left side the 
-1.7563 left side there 
-1.7563 left side which 
-0.8269 left the last 
-0.8269 left the purple 
-0.5259 left there are 
-0.2820 left there's a 
-0.5259 left to the 
-0.5259 left top corner 
-0.5259 line green two 
-1.2249 little bit further 
-0.6799 little bit to 
-1.2249 little bit towards 
-1.2249 little bit up 
-0.5259 lone green cone 
-0.5259 lonely </s> <s> 
-0.5259 lonely green </s> 
-1.0030 lot of cones 
-0.4581 lot of purple 
-0.5259 lower bottom </s> 
-0.8269 lower green and 
-0.8269 lower green cone 
-0.2820 lower left hand 
-0.5259 lower lowest green 
-1.0030 lower purple </s> 
-0.4581 lower purple cone 
-1.1280 lower right corner 
-1.1280 lower right hand 
-0.5830 lower right side 
-0.5259 lower the lower 
-0.0969 lowest </s> <s> 
-0.5259 lowest at the 
-0.1761 lowest green cone 
-1.3040 lowest green on 
-1.3040 lowest green one 
-0.5259 lowest it's almost 
-0.5259 lowest left hand 
-0.5259 lowest of the 
-0.1998 lowest on the 
-0.5259 lowest one down 
-1.4801 lowest purple </s> 
-0.6769 lowest purple cone 
-1.4801 lowest purple on 
-0.3522 lowest purple one 
-0.0512 middle </s> <s> 
-0.5259 middle all the 
-0.5259 middle bottom a 
-0.5259 middle column of 
-0.8269 middle cone </s> 
-0.8269 middle cone in 
-0.5259 middle diagonal purple 
-0.5259 middle directly to 
-0.5259 middle front </s> 
-0.5259 middle group of 
-0.5259 middle in the 
-0.5259 middle it's the 
-1.2249 middle of a 
-0.0969 middle of the 
-0.8269 middle purple cone 
-0.8269 middle purple in 
-0.5259 middle right after 
-0.5259 middle showing only 
-0.5259 middle still on 
-0.2820 middle to the 
-0.2820 middle towards the 
-0.0792 midline </s> <s> 
-0.8269 midline it's also 
-0.8269 midline it's not 
-0.5259 midline the one 
-0.5259 most lower right 
-0.5259 most north east 
-0.5259 most to the 
-0.5259 near a lot 
-0.8840 near the back 
-1.4290 near the bottom 
-0.6258 near the centre 
-0.8840 near the front 
-0.5259 near two other 
-0.0414 next cone is 
-0.5259 next one up 
-1.2249 next to it 
-0.4217 next to that 
-1.2249 next to the 
-0.5259 no shading </s> 
-0.5259 non extreme green 
-0.5259 north east </s> 
-0.5259 not the lowest 
-1.3710 of a green 
-1.3710 of a pair 
-0.5678 of a purple 
-0.8260 of a row 
-0.4581 of cones </s> 
-1.0030 of cones surrounding 
-1.1280 of green cone 
-0.3248 of green cones 
-1.8269 of it </s> 
-1.0237 of it and 
-1.8269 of it are 
-1.8269 of it behind 
-0.5229 of it is 
-1.2820 of it there 
-0.6990 of it there's 
-1.2820 of it this 
-0.5259 of only green 
-0.0969 of purple cones 
-1.2249 of purple on 
-0.5259 of purples </s> 
-0.4581 of that green 
-1.0030 of that one 
-2.1387 of the </s> 
-2.1387 of the board 
-2.1387 of the cone 
-2.1387 of the front 
-1.0107 of the green 
-2.1387 of the in 
-2.1387 of the left 
-1.0107 of the midline 
-2.1387 of the purple 
-1.3355 of the right 
-2.1387 of the row 
-0.4367 of the screen 
-2.1387 of the table 
-1.3355 of the three 
-1.5937 of the two 
-0.5259 of this green 
-0.5259 of those further 
-1.5259 of three cones 
-0.7227 of three green 
-1.5259 of three in 
-0.3010 of three purple 
-1.3710 of two adjoining 
-0.2430 of two green 
-1.3710 of two greens 
-1.3710 of two purple 
-0.5259 off centre front 
-0.5259 on either side 
-0.5259 on it </s> 
-0.5259 on it's the 
-0.5259 on next to 
-0.5259 on that is 
-0.8269 on that's closest 
-0.8269 on that's highest 
-1.8617 on the bottom 
-2.4067 on the close 
-2.4067 on the edge 
-1.6035 on the far 
-0.4494 on the left 
-1.6035 on the lower 
-2.4067 on the lowest 
-2.4067 on the middle 
-0.3623 on the right 
-2.4067 on the screen 
-1.6035 on the top 
-0.5259 on to the 
-0.0235 one </s> <s> 
-0.5259 one almost in 
-0.5259 one and there's 
-0.1998 one closest to 
-0.3248 one color </s> 
-1.1280 one color one 
-0.5259 one down </s> 
-0.8269 one face </s> 
-0.8269 one face showing 
-0.5259 one green cone 
-1.4801 one in between 
-0.0512 one in the 
-0.8269 one it's in 
-0.8269 one it's one 
-0.5259 one just above 
-0.5259 one next to 
-1.2249 one of a 
-0.4217 one of the 
-1.2249 one of two 
-1.8046 one on it's 
-0.0235 one on the 
-0.2820 one opposite it 
-0.2820 one purple cone 
-1.0030 one right behind 
-0.4581 one right in 
-0.5259 one shade it's 
-1.5259 one that has 
-0.1549 one that is 
-0.9809 one that was 
-0.6799 one that's closest 
-1.2249 one that's furthest 
-1.2249 one that's the 
-1.2249 one that's to 
-1.0030 one the green 
-0.4581 one the left 
-0.5259 one this is 
-0.5259 one to the 
-0.5259 one towards the 
-0.5259 one up </s> 
-0.0458 one which is 
-1.5259 one which we 
-0.5259 one with the 
-0.2820 ones </s> <s> 
-0.5259 ones in a 
-0.5259 ones the lowest 
-0.2820 only cone </s> 
-0.5259 only green cones 
-0.5259 only left on 
-0.4581 only one color 
-1.0030 only one face 
-0.5259 only purple one 
-0.2820 opposite it </s> 
-0.5259 opposite of that 
-0.5259 other green cones 
-0.5259 other purple cones 
-1.0030 pair of a 
-0.4581 pair of green 
-0.5259 part of the 
-0.5259 previous one </s> 
-0.5259 probably right in 
-0.0020 purple </s> <s> 
-0.5259 purple and a 
-0.4953 purple cone </s> 
-2.6123 purple cone I 
-2.6123 purple cone all 
-1.8091 purple cone and 
-2.0673 purple cone at 
-1.8091 purple cone behind 
-2.6123 purple cone being 
-2.6123 purple cone between 
-2.6123 purple cone but 
-2.6123 purple cone directly 
-2.6123 purple cone further 
-1.8091 purple cone furthest 
-0.8076 purple cone in 
-1.2413 purple cone is 
-2.0673 purple cone it's 
-2.6123 purple cone most 
-2.6123 purple cone near 
-2.6123 purple cone next 
-1.0864 purple cone on 
-2.6123 purple cone sitting 
-2.6123 purple cone somewhat 
-2.6123 purple cone that 
-2.6123 purple cone then 
-2.6123 purple cone there 
-0.9402 purple cone to 
-2.6123 purple cone towards 
-1.4843 purple cone with 
-0.1845 purple cones </s> 
-1.9409 purple cones behind 
-0.8129 purple cones in 
-1.3959 purple cones on 
-1.9409 purple cones to 
-1.9409 purple cones with 
-0.5259 purple farthest to 
-0.5259 purple furthest to 
-1.0030 purple in a 
-0.4581 purple in front 
-0.8269 purple it's in 
-0.8269 purple it's near 
-0.5259 purple no shading 
-0.0792 purple on the 
-0.8062 purple one </s> 
-2.0310 purple one almost 
-2.0310 purple one closest 
-1.2278 purple one in 
-2.0310 purple one next 
-0.8062 purple one on 
-2.0310 purple one opposite 
-2.0310 purple one right 
-1.4861 purple one that 
-0.8062 purple one that's 
-2.0310 purple one towards 
-0.8062 purple one which 
-2.0310 purple one with 
-0.4581 purple ones </s> 
-1.0030 purple ones the 
-0.5259 purple rectangle at 
-0.5259 purple surrounded by 
-0.2820 purple to the 
-0.2820 purples </s> <s> 
-0.5259 rather lonely </s> 
-0.1998 rear of the 
-0.5259 rectangle at the 
-0.0170 right </s> <s> 
-0.5259 right a green 
-0.5259 right above that 
-0.5259 right after the 
-0.5259 right and a 
-0.2820 right back corner 
-0.8269 right behind it 
-0.8269 right behind that 
-0.5259 right between a 
-0.5259 right bottom </s> 
-0.5259 right cone which 
-0.0969 right corner </s> 
-0.3248 right edge </s> 
-1.1280 right edge the 
-0.8269 right front one 
-0.8269 right front purple 
-0.6767 right hand corner 
-0.1326 right hand side 
-1.3040 right in a 
-0.0792 right in the 
-0.5259 right it's on 
-0.5259 right next to 
-1.3040 right of a 
-0.1761 right of it 
-1.3040 right of the 
-0.5259 right on the 
-0.8269 right purple cone 
-0.8269 right purple to 
-0.2820 right row of 
-0.5259 right showing only 
-1.0223 right side </s> 
-1.5673 right side and 
-1.5673 right side front 
-1.5673 right side half 
-1.5673 right side in 
-1.5673 right side near 
-1.0223 right side of 
-1.5673 right side surrounded 
-1.5673 right side the 
-0.5259 right the green 
-0.5259 right there are 
-0.5259 right to the 
-0.5259 right two shades 
-0.0969 row </s> <s> 
-1.5259 row of cones 
-1.5259 row of green 
-1.5259 row of only 
-0.9809 row of purple 
-0.3010 row of three 
-0.5259 row on the 
-0.0378 screen </s> <s> 
-0.8269 screen and closer 
-0.8269 screen and towards 
-0.5259 screen in the 
-0.5259 screen kinda in 
-0.5259 screen there are 
-0.5259 second from the 
-0.5259 see </s> <s> 
-0.5259 see left green 
-0.2820 shades </s> <s> 
-0.5259 shades furthest to 
-0.5259 shades on it 
-0.5259 shades that's furthest 
-0.5259 shading </s> <s> 
-0.5259 shadow facing towards 
-0.5259 shadow the last 
-0.5259 showing </s> <s> 
-0.5259 showing one face 
-0.2820 showing only one 
-0.0248 side </s> <s> 
-0.5259 side a little 
-0.8269 side and above 
-0.8269 side and the 
-0.2820 side back corner 
-0.5259 side front </s> 
-0.5259 side green two 
-0.5259 side half way 
-0.5259 side in front 
-1.1280 side it's near 
-1.1280 side it's purple 
-0.5830 side it's the 
-0.5259 side near the 
-1.6051 side of it 
-0.0378 side of the 
-0.5259 side surrounded by 
-1.2249 side the green 
-0.6799 side the lowest 
-0.6799 side the one 
-0.5259 side there are 
-0.5259 side to the 
-0.5259 side which is 
-0.8269 sitting alone at 
-0.8269 sitting alone in 
-0.5259 slightly to the 
-0.5259 somewhat in the 
-0.5259 south east green 
-0.5259 still on the 
-1.4290 surrounded by a 
-1.4290 surrounded by four 
-0.8840 surrounded by green 
-0.3010 surrounded by purple 
-0.5259 surrounding it </s> 
-0.5259 table </s> <s> 
-0.5259 talking about there 
-0.5259 than the one 
-0.2820 that </s> <s> 
-0.5259 that far edge 
-0.1998 that green cone 
-0.5259 that has the 
-1.4801 that is at 
-1.4801 that is closest 
-1.4801 that is highest 
-1.4801 that is in 
-1.4801 that is lowest 
-1.4801 that is one 
-1.4801 that is the 
-0.9352 that is to 
-0.3248 that one </s> 
-1.1280 that one it's 
-0.8269 that was directly 
-0.8269 that was right 
-0.1998 that's closest to 
-0.8269 that's furthest back 
-0.8269 that's furthest to 
-0.5259 that's highest on 
-0.2820 that's the lowest 
-0.2820 that's to the 
-0.2820 the </s> <s> 
-0.5772 the back </s> 
-2.0574 the back and 
-2.0574 the back at 
-2.0574 the back centre 
-0.8325 the back in 
-1.5124 the back it 
-0.7533 the back left 
-1.2542 the back of 
-2.0574 the back on 
-1.5124 the back one 
-2.0574 the back part 
-2.0574 the back right 
-2.0574 the back top 
-0.8269 the behind and 
-0.8269 the behind it 
-0.5259 the board </s> 
-0.9809 the bottom </s> 
-1.5259 the bottom a 
-1.5259 the bottom and 
-1.5259 the bottom it's 
-0.9809 the bottom right 
-1.5259 the bottom the 
-1.5259 the bottom to 
-1.5259 the bottom touching 
-0.8019 the centre </s> 
-1.6051 the centre and 
-1.6051 the centre behind 
-1.6051 the centre cone 
-1.6051 the centre line 
-1.0601 the centre near 
-1.6051 the centre of 
-1.6051 the centre that's 
-1.6051 the centre to 
-0.5259 the close right 
-0.5830 the closest green 
-1.1280 the closest purple 
-1.1280 the closest to 
-0.2820 the column of 
-0.8260 the cone </s> 
-1.3710 the cone at 
-1.3710 the cone greens 
-0.8260 the cone in 
-1.3710 the cone to 
-0.5259 the edge </s> 
-0.5259 the entire frame 
-0.6799 the far left 
-0.4217 the far right 
-0.5259 the farthest </s> 
-0.5259 the first behind 
-0.6532 the front </s> 
-0.8293 the front and 
-1.4123 the front green 
-1.1541 the front in 
-1.9573 the front left 
-1.9573 the front of 
-1.9573 the front on 
-1.4123 the front one 
-1.9573 the front pair 
-1.9573 the front purple 
-1.9573 the front right 
-1.9573 the front row 
-1.9573 the front to 
-1.4801 the furthest away 
-0.3522 the furthest back 
-1.4801 the furthest green 
-1.4801 the furthest most 
-0.9352 the furthest purple 
-2.4124 the green </s> 
-0.2333 the green cone 
-1.8674 the green cones 
-1.6092 the green on 
-0.4886 the green one 
-2.4124 the green that's 
-0.2820 the group of 
-0.5259 the hardest green 
-0.5259 the in front 
-0.5259 the isolated purple 
-0.5259 the it's the 
-1.3710 the last cone 
-0.5678 the last green 
-0.8260 the last one 
-1.3710 the last two 
-0.6133 the left </s> 
-2.4180 the left a 
-1.8730 the left and 
-1.8730 the left back 
-2.4180 the left bottom 
-1.8730 the left edge 
-1.8730 the left front 
-2.4180 the left further 
-0.9890 the left hand 
-1.8730 the left in 
-2.4180 the left left 
-0.8129 the left of 
-2.4180 the left rear 
-2.4180 the left showing 
-0.6880 the left side 
-1.8730 the left the 
-1.8730 the left there's 
-2.4180 the left to 
-2.4180 the left top 
-0.5259 the lone green 
-1.5259 the lower bottom 
-1.5259 the lower green 
-1.5259 the lower lowest 
-0.7227 the lower purple 
-0.7227 the lower right 
-1.5259 the lower the 
-0.7782 the lowest </s> 
-0.6812 the lowest green 
-1.9061 the lowest it's 
-1.9061 the lowest left 
-1.9061 the lowest of 
-1.3611 the lowest on 
-1.9061 the lowest one 
-0.4260 the lowest purple 
-0.5883 the middle </s> 
-2.0173 the middle all 
-2.0173 the middle bottom 
-2.0173 the middle column 
-1.4723 the middle cone 
-2.0173 the middle directly 
-2.0173 the middle front 
-2.0173 the middle group 
-2.0173 the middle in 
-2.0173 the middle it's 
-0.7924 the middle of 
-2.0173 the middle purple 
-2.0173 the middle right 
-2.0173 the middle showing 
-2.0173 the middle still 
-1.4723 the middle to 
-1.4723 the middle towards 
-0.2041 the midline </s> 
-0.8840 the midline it's 
-1.4290 the midline the 
-0.5259 the near the 
-0.8269 the next cone 
-0.8269 the next one 
-0.1998 the on the 
-1.0949 the one closest 
-0.8366 the one in 
-1.6398 the one just 
-1.0949 the one on 
-1.6398 the one opposite 
-1.6398 the one purple 
-1.6398 the one to 
-1.0949 the one which 
-0.5830 the only cone 
-1.1280 the only left 
-1.1280 the only purple 
-0.5259 the previous one 
-0.5259 the probably right 
-2.2249 the purple </s> 
-0.2518 the purple cone 
-2.2249 the purple farthest 
-2.2249 the purple furthest 
-0.4437 the purple one 
-2.2249 the purple rectangle 
-0.2820 the rear of 
-0.5149 the right </s> 
-2.3832 the right a 
-2.3832 the right and 
-2.3832 the right back 
-2.3832 the right behind 
-2.3832 the right between 
-2.3832 the right bottom 
-2.3832 the right cone 
-1.2553 the right edge 
-2.3832 the right front 
-0.7782 the right hand 
-1.8383 the right in 
-2.3832 the right it's 
-1.0792 the right of 
-2.3832 the right on 
-2.3832 the right purple 
-1.8383 the right row 
-2.3832 the right showing 
-0.9542 the right side 
-2.3832 the right the 
-2.3832 the right there 
-2.3832 the right to 
-2.3832 the right two 
-0.0969 the row of 
-0.1627 the screen </s> 
-1.1850 the screen and 
-1.7300 the screen in 
-1.7300 the screen kinda 
-1.7300 the screen there 
-0.8269 the shadow facing 
-0.8269 the shadow the 
-0.5259 the table </s> 
-1.0030 the the back 
-0.4581 the the green 
-0.5259 the third from 
-0.1998 the three purple 
-0.6258 the top </s> 
-1.4290 the top green 
-1.4290 the top left 
-1.4290 the top on 
-0.8840 the top right 
-0.4581 the two green 
-1.0030 the two purple 
-0.5830 the upper left 
-0.5830 the upper right 
-1.0030 the uppermost of 
-0.4581 the uppermost purple 
-0.8269 the very bottom 
-0.8269 the very top 
-1.0030 the way at 
-1.0030 the way in 
-1.0030 the way to 
-0.5259 then a green 
-1.4801 there are green 
-1.4801 there are three 
-0.1091 there are two 
-0.2820 there is a 
-1.4801 there's a bunch 
-0.6769 there's a green 
-0.2553 there's a purple 
-0.5259 there's another green 
-0.5259 there's one purple 
-0.5259 there's three on 
-0.8269 there's two left 
-0.8269 there's two purple 
-0.5259 third from the 
-0.0969 this cone is 
-0.0512 this green cone 
-0.4581 this is a 
-1.0030 this is the 
-0.0792 this purple cone 
-0.5259 those further green 
-0.5259 three cones to 
-0.0792 three green cones 
-0.5259 three in a 
-0.5259 three on the 
-1.4801 three purple </s> 
-0.1761 three purple cones 
-0.9352 three purple ones 
-0.5259 to a green 
-0.5259 to it two 
-0.8269 to see </s> 
-0.8269 to see left 
-1.1280 to that </s> 
-1.1280 to that far 
-0.5830 to that one 
-2.5171 to the </s> 
-1.0370 to the back 
-2.5171 to the behind 
-2.5171 to the centre 
-1.1461 to the front 
-2.5171 to the it's 
-0.4114 to the left 
-2.5171 to the lower 
-2.5171 to the middle 
-1.9722 to the midline 
-2.5171 to the near 
-2.5171 to the on 
-2.5171 to the one 
-2.5171 to the rear 
-0.5288 to the right 
-1.9722 to the top 
-0.5830 to us </s> 
-1.1280 to us in 
-1.1280 to us the 
-0.0969 top </s> <s> 
-0.2820 top corner </s> 
-0.5259 top green cone 
-0.5259 top left </s> 
-0.5259 top on the 
-0.5259 top purple </s> 
-0.4581 top right corner 
-1.0030 top right purple 
-0.5259 touching two green 
-1.4801 towards the back 
-0.9352 towards the front 
-1.4801 towards the left 
-1.4801 towards the middle 
-0.9352 towards the midline 
-0.9352 towards the right 
-0.5259 two </s> <s> 
-0.5259 two adjoining purple 
-0.5259 two color shades 
-0.5259 two colors it's 
-0.0792 two green cones 
-1.6051 two green ones 
-1.6051 two green the 
-0.5259 two greens in 
-0.5259 two left on 
-0.8269 two other green 
-0.8269 two other purple 
-1.1271 two purple </s> 
-0.1047 two purple cones 
-1.6720 two purple ones 
-0.5830 two shades </s> 
-1.1280 two shades on 
-1.1280 two shades that's 
-0.5259 up </s> <s> 
-0.5259 up from the 
-0.2820 upper left hand 
-0.1998 upper right hand 
-0.5259 uppermost of three 
-0.2820 uppermost purple cone 
-0.1998 us </s> <s> 
-0.5259 us in the 
-0.5259 us the last 
-0.5259 very bottom of 
-0.5259 very close to 
-0.5259 very top </s> 
-0.5259 was directly opposite 
-0.5259 was right above 
-0.5259 way at the 
-0.5259 way back but 
-0.5259 way in the 
-0.5259 way to the 
-0.5259 we just deleted 
-0.5259 west green </s> 
-1.6051 which is close 
-1.0601 which is closest 
-1.6051 which is furthest 
-1.6051 which is green 
-0.8019 which is in 
-1.6051 which is slightly 
-1.6051 which is the 
-0.5259 which we just 
-0.4581 with a green 
-1.0030 with a lot 
-0.5259 with green cones 
-0.5259 with only one 
-1.0030 with the green 
-1.0030 with the purple 
-1.0030 with the shadow 
-1.0030 with two color 
-1.0030 with two green 
-1.0030 with two shades 
-0.5259 you </s> <s> 

\end\
