#############################################################################
## Copyright (c) 1996, Carnegie Mellon University, Cambridge University,
## Ronald Rosenfeld and Philip Clarkson
#############################################################################
=============================================================================
===============  This file was produced by the CMU-Cambridge  ===============
===============     Statistical Language Modeling Toolkit     ===============
=============================================================================
This is a 3-gram language model, based on a vocabulary of 28 words,
  which begins "<s>", "a", "b"...
This is an OPEN-vocabulary model (type 1)
  (OOVs were mapped to UNK, which is treated as any other vocabulary word)
Absolute discounting was applied.
1-gram discounting constant : 1
2-gram discounting constant : 0.53271
3-gram discounting constant : 0.633755
This file is in the ARPA-standard format introduced by Doug Paul.

p(wd3|wd1,wd2)= if(trigram exists)           p_3(wd1,wd2,wd3)
                else if(bigram w1,w2 exists) bo_wt_2(w1,w2)*p(wd3|wd2)
                else                         p(wd3|w2)

p(wd2|wd1)= if(bigram exists) p_2(wd1,wd2)
            else              bo_wt_1(wd1)*p_1(wd2)

All probs and back-off weights (bo_wt) are given in log10 form.

Data formats:

Beginning of data mark: \data\
ngram 1=nr            # number of 1-grams
ngram 2=nr            # number of 2-grams
ngram 3=nr            # number of 3-grams

\1-grams:
p_1     wd_1 bo_wt_1
\2-grams:
p_2     wd_1 wd_2 bo_wt_2
\3-grams:
p_3     wd_1 wd_2 wd_3 

end of data mark: \end\

\data\
ngram 1=29
ngram 2=361
ngram 3=1121

\1-grams:
-99.9990 <UNK>	0.0000
-98.9947 <s>	0.0000
-1.1421 a	-0.5264
-1.4025 b	-0.8848
-1.6365 c	-0.4160
-1.4942 d	-0.0489
-1.0235 e	0.0092
-1.9288 f	-0.4014
-1.4517 g	-0.5391
-1.2854 h	0.7483
-1.1837 i	-0.3366
-2.2128 j	-0.6851
-1.8082 k	0.0627
-1.2933 l	-0.3459
-1.5944 m	-0.6266
-1.2162 n	0.4260
-1.2264 o	-0.1628
-1.4459 p	-0.5697
-99.9990 q	-0.2572
-1.0503 r	-0.1340
-1.2264 s	-0.5501
-1.0963 t	-0.5777
-1.4347 u	-0.6297
-1.8216 v	-1.0663
-1.6933 w	-0.0343
-99.9990 x	-0.2669
-1.7953 y	0.0363
-2.4816 z	-0.2481
-99.9990 </s>	0.0000

\2-grams:
-2.5179 a a -0.1296
-1.2113 a c -0.1742
-1.3144 a d -0.0774
-1.7953 a e -0.3218
-2.0210 a f -0.0634
-1.5375 a h -0.4261
-2.5179 a k -0.1921
-1.0917 a l 0.0129
-1.2113 a m 0.2000
-0.8360 a n 0.0379
-1.7953 a p 0.2975
-0.6256 a r 0.1213
-1.2113 a s -0.0151
-1.2113 a t -0.1781
-2.5179 a u -0.1843
-1.2113 a v -0.0831
-2.0210 a w -0.1786
-1.5375 a y -0.1844
-1.3894 b a -0.6828
-2.2598 b b -0.1853
-1.0563 b e -0.2419
-2.2598 b i -0.1258
-2.2598 b l -0.1408
-1.3894 b o -0.4042
-0.9096 b r -0.3361
-1.5372 b s -0.3237
-0.2179 b u -1.1145
-0.8882 c a -0.0687
-2.0294 c b -0.1581
-2.0294 c c -0.0735
-0.8882 c e -0.1276
-0.6032 c h -0.4169
-2.0294 c i -0.1258
-0.8258 c k -0.1178
-1.5325 c l -0.1200
-2.0294 c m -0.1944
-0.9612 c o -0.2738
-2.0294 c p 0.1897
-2.0294 c r -0.1735
-2.0294 c y -0.1795
-0.8626 d a -0.4091
-2.1693 d b -0.1800
-2.1693 d c -0.1940
-1.6723 d d -0.4494
-1.0281 d e -0.3093
-1.4466 d f -0.2394
-1.6723 d h -0.1487
-1.6723 d i 0.1025
-2.1693 d j -0.0312
-2.1693 d l -0.0877
-0.9657 d o 0.0012
-0.9111 d p -0.3972
-1.1011 d r -0.3683
-1.1888 d s -0.0612
-2.1693 d t -0.1866
-2.1693 d u -0.1899
-1.0281 d w -0.1226
-1.6723 d y -0.1734
-1.1450 e a 0.0419
-1.6553 e b -0.0296
-2.1388 e c -0.0681
-1.6553 e d -0.0596
-1.4322 e e -0.0821
-2.1388 e f -0.0856
-1.7654 e g -0.4383
-2.6358 e h -0.1962
-1.6553 e i -0.3658
-2.1388 e j -0.2841
-2.6358 e k -0.1921
-0.9736 e l 0.0396
-1.6553 e m -0.0878
-0.8994 e n 0.0475
-1.0631 e p -0.0241
-0.8360 e r -0.1337
-1.2459 e s 0.1702
-1.5676 e t -0.4878
-2.6358 e u -0.1843
-1.3291 e v -0.2852
-1.1450 e w 0.1518
-1.5676 e y -0.1252
-2.6358 e z -0.0379
-1.7454 f a -0.0807
-1.7454 f b -0.1800
-1.7454 f c -0.1379
-0.7649 f e 0.0403
-1.2485 f f -0.1067
-0.7649 f i -0.1407
-1.0228 f o -0.6070
-0.7649 f r -0.2892
-1.0228 f t -0.3175
-1.3408 g a -0.3453
-2.2112 g c -0.1379
-2.2112 g d -0.1553
-0.1778 g h -0.0131
-1.1430 g i -0.2580
-1.2308 g l -0.4103
-2.2112 g m -0.0204
-2.2112 g n -0.1863
-2.2112 g o -0.1930
-1.7143 g r -0.0927
-2.2112 g s -0.1718
-2.2112 g t -0.1813
-2.2112 g v -0.1194
-0.6749 h a 0.1903
-1.3953 h b 0.4546
-1.6531 h c -0.0505
-2.3757 h d -0.1483
-1.2346 h e -0.0945
-1.5053 h f -0.1281
-1.6531 h g -0.1536
-1.5053 h h -0.1203
-1.3076 h i 0.1005
-1.8788 h j 0.3389
-1.3953 h l -0.0646
-1.5053 h m -0.1748
-1.5053 h n -0.0670
-0.9496 h o 0.1259
-1.5053 h p 0.1226
-1.6531 h r -0.2746
-1.2346 h s -0.0472
-1.3076 h t -0.0863
-2.3757 h u 0.2925
-1.8788 h v -0.1120
-2.3757 h w -0.1290
-1.8788 h y -0.1174
-1.7539 i a -0.0621
-1.7539 i b -0.3589
-1.0504 i c -0.0703
-1.6061 i d -0.0763
-1.2184 i e 0.0356
-1.6061 i f -0.0723
-1.7539 i g 0.2042
-2.4765 i j 0.0170
-2.4765 i k -0.1064
-1.2184 i l -0.1510
-1.4961 i m 0.1415
-0.8144 i n -0.1017
-2.4765 i o -0.1754
-2.4765 i p -0.1839
-2.4765 i r -0.1486
-1.4961 i s -0.1649
-0.4607 i t -1.1807
-2.4765 i u 0.2925
-1.4961 i v 0.0159
-0.9796 j a -0.4716
-0.4961 j e -0.1803
-0.4084 j o -0.1953
-1.4765 j u -0.1843
-0.9915 k a -0.6828
-1.3650 k b -0.0952
-1.8619 k c -0.1478
-1.8619 k d -0.1340
-0.7208 k e -0.0545
-1.8619 k f -0.1162
-1.8619 k g -0.1778
-1.8619 k h -0.0949
-1.1393 k i -0.2852
-1.8619 k j -0.0312
-1.3650 k k -0.0480
-1.8619 k l -0.0877
-1.3650 k p 0.2250
-1.8619 k r -0.1486
-1.8619 k s -0.1861
-1.8619 k u -0.1899
-1.3650 k w -0.0869
-1.3650 k y -0.1463
-0.9081 l a -0.0654
-1.6452 l b -0.3144
-2.3678 l c -0.0735
-1.0176 l d 0.0513
-0.6488 l e 0.1612
-2.3678 l f -0.1548
-2.3678 l g -0.1657
-0.9780 l i -0.2115
-2.3678 l j -0.1833
-1.8709 l k -0.1148
-0.8480 l l -0.1155
-1.6452 l m -0.0499
-1.3874 l o 0.1524
-2.3678 l p 0.1897
-1.4974 l s -0.1242
-2.3678 l t -0.1943
-1.6452 l u -0.1673
-2.3678 l w -0.1290
-1.6452 l y -0.1103
-2.3678 l z -0.0379
-0.4740 m a -0.0053
-2.0708 m c -0.1278
-0.9296 m e -0.2885
-1.0903 m i -0.1523
-1.5738 m m -0.1211
-2.0708 m n -0.1197
-0.7205 m o -0.2734
-1.2004 m p -0.2791
-1.3481 m s -0.1179
-2.0708 m u -0.1955
-2.0708 m y -0.1795
-1.1862 n a -0.0075
-1.9474 n b 0.3684
-1.3032 n c 0.0877
-1.0182 n d -0.1430
-0.7822 n e -0.0129
-1.7217 n f -0.1913
-1.2408 n g 0.3761
-2.4444 n h -0.1463
-1.0941 n i -0.1864
-2.4444 n j -0.0312
-1.7217 n k -0.2241
-2.4444 n l -0.1408
-1.5740 n m -0.2648
-1.2408 n n -0.2261
-1.5740 n o -0.1077
-1.2408 n p -0.1624
-1.7217 n r -0.0943
-1.3032 n s -0.0374
-1.1862 n t -0.3560
-1.7217 n u -0.6557
-2.4444 n x 0.0754
-2.4444 n y -0.1795
-2.4444 n z -0.1719
-1.5638 o a -0.4761
-1.5638 o b -0.4393
-2.4342 o c -0.1278
-1.1276 o d 0.0754
-2.4342 o e -0.1588
-1.7116 o f -0.0753
-1.7116 o h -0.6614
-2.4342 o k -0.1921
-1.2931 o l 0.2924
-1.2931 o m 0.1744
-0.6811 o n 0.0571
-1.0840 o o -0.3487
-1.7116 o p 0.3540
-0.8374 o r -0.1689
-1.4538 o s -0.3100
-1.9373 o t 0.0260
-1.2931 o u 0.3063
-1.1761 o w -0.2772
-1.9373 o y -0.1734
-2.4342 o z -0.0379
-1.4943 p a -0.0259
-2.2169 p e -0.1296
-1.4943 p g -0.2015
-1.1487 p h -0.0623
-0.2288 p i -1.2592
-1.2364 p l -0.4103
-2.2169 p n -0.1197
-1.3465 p o -0.1997
-1.4943 p r -0.6308
-1.4943 p s -0.1138
-2.2169 p u -0.1728
-2.2169 p y -0.1795
-0.3304 q u -0.1786
-1.2589 r a -0.2790
-1.7388 r b 0.3142
-1.8865 r c -0.5506
-1.4056 r d -0.2035
-0.9677 r e 0.0493
-2.6092 r f -0.1162
-0.6024 r g -0.7214
-1.0124 r i -0.4481
-1.3510 r k -0.0653
-1.3510 r l -0.1235
-2.1122 r m -0.3214
-1.6287 r n -0.2773
-0.9677 r o -0.1897
-2.6092 r p 0.1897
-1.4680 r r -0.2562
-1.7388 r s -0.3956
-1.4680 r t -0.1757
-2.1122 r u -0.1642
-2.6092 r w -0.1290
-1.4680 r y -0.0864
-1.7116 s a -0.1265
-0.4367 s b -1.1178
-2.4342 s c -0.1379
-1.1761 s e -0.0867
-1.4538 s h -0.0499
-1.9373 s j -0.4510
-1.4538 s k -0.0674
-2.4342 s l -0.0877
-1.4538 s m -0.0140
-2.4342 s n -0.1863
-1.0840 s o -0.6010
-1.2306 s p -0.0128
-1.5638 s s -0.0948
-0.8872 s t -0.6290
-1.9373 s u -0.1816
-1.9373 s v -0.0233
-1.5638 s w -0.0336
-2.0665 t a -0.1146
-2.5634 t b -0.1800
-0.9666 t e -0.1450
-2.5634 t g -0.1657
-1.0726 t h -0.2376
-1.5830 t i -0.2975
-2.5634 t l -0.1881
-2.0665 t m -0.3214
-2.0665 t n -0.4207
-1.4223 t o -0.0075
-1.4952 t p -0.5885
-1.5830 t r -0.5188
-0.5753 t s -1.3540
-0.4969 t t -0.4484
-1.6930 t z -0.0825
-2.2280 u b -0.1957
-2.2280 u c -0.1278
-2.2280 u d -0.1553
-1.3576 u e -0.2597
-1.7311 u g -0.1689
-1.5054 u l -0.2766
-1.7311 u m -0.1485
-1.7311 u n -0.1413
-2.2280 u p 0.1897
-2.2280 u q 0.0754
-0.1695 u r -0.7922
-1.2476 u s -0.3315
-1.7311 u t -0.1471
-0.7807 v a -0.0958
-0.2292 v e -0.2557
-0.7807 v i -0.2198
-1.8489 v k -0.1921
-0.8327 w a -0.2133
-1.9739 w b 0.2059
-1.9739 w d -0.1483
-1.2512 w e -0.3145
-1.9739 w g -0.1778
-1.4769 w h -0.1487
-0.8327 w i -0.2641
-1.9739 w l -0.1498
-0.9934 w n -0.0014
-0.7157 w o -0.5333
-1.9739 w p 0.1897
-1.4769 w r -0.0985
-1.9739 w t -0.1597
-1.9739 w w -0.1290
-1.4769 w y -0.1174
-0.3304 x v -0.1194
-1.8745 y a -0.1853
-1.3776 y b -0.4420
-1.3776 y c -0.1332
-1.1518 y d -0.2682
-1.8745 y e -0.1296
-1.8745 y g -0.1718
-1.3776 y h -0.0282
-1.3776 y j 0.3389
-0.8940 y l 0.2301
-1.3776 y m -0.0605
-1.3776 y n -0.4207
-1.3776 y o -0.4309
-1.0041 y p 0.4067
-1.3776 y s -0.1198
-1.8745 y t -0.1943
-1.3776 y v -0.4204
-1.8745 y w -0.1730
-1.2335 z b -0.1581
-0.5109 z e -0.3020
-1.2335 z i -0.1258
-1.2335 z j 0.0170
-1.2335 z l -0.1498
-1.2335 z p -0.1661

\3-grams:
-0.4362 a a n 
-0.8645 a c a 
-0.8645 a c e 
-0.8645 a c k 
-0.6259 a c o 
-1.4362 a c y 
-1.3393 a d c 
-0.7676 a d d 
-1.3393 a d f 
-1.3393 a d h 
-1.3393 a d o 
-1.3393 a d r 
-1.3393 a d s 
-0.9133 a e f 
-0.3416 a e l 
-0.7373 a f i 
-0.7373 a f t 
-0.5634 a h a 
-0.3249 a h o 
-0.4362 a k d 
-0.9784 a l d 
-0.5868 a l e 
-1.5502 a l i 
-0.9784 a l l 
-1.5502 a l m 
-1.5502 a l t 
-1.5502 a l u 
-1.5502 a l z 
-1.4362 a m a 
-0.6259 a m e 
-1.4362 a m o 
-0.6259 a m p 
-1.4362 a m s 
-1.4362 a m y 
-1.7980 a n c 
-0.7216 a n d 
-0.8346 a n e 
-1.7980 a n f 
-1.7980 a n g 
-1.7980 a n i 
-1.7980 a n m 
-1.2262 a n n 
-1.2262 a n p 
-1.7980 a n r 
-0.9877 a n t 
-1.7980 a n z 
-0.9133 a p a 
-0.9133 a p i 
-0.9133 a p l 
-2.0044 a r a 
-2.0044 a r b 
-0.9281 a r d 
-1.1941 a r e 
-1.4327 a r g 
-0.9281 a r k 
-0.9281 a r l 
-2.0044 a r m 
-1.1941 a r n 
-2.0044 a r o 
-1.0411 a r r 
-2.0044 a r s 
-1.1941 a r t 
-1.4327 a r y 
-1.4362 a s b 
-1.4362 a s m 
-1.4362 a s o 
-0.8645 a s p 
-0.3599 a s t 
-1.4362 a t a 
-0.8645 a t e 
-1.4362 a t g 
-0.8645 a t h 
-0.4729 a t t 
-0.4362 a u l 
-0.2703 a v e 
-0.6259 a v i 
-1.4362 a v k 
-0.7373 a w r 
-0.7373 a w t 
-1.1352 a y b 
-1.1352 a y e 
-0.5634 a y l 
-1.1352 a y n 
-0.0749 b a r 
-0.4362 b b s 
-0.7676 b e a 
-1.3393 b e c 
-1.3393 b e e 
-0.5290 b e r 
-1.3393 b e v 
-0.4362 b i n 
-0.4362 b l a 
-0.4665 b o r 
-0.4665 b o u 
-0.9059 b r a 
-1.4776 b r e 
-1.4776 b r i 
-0.3117 b r o 
-1.4776 b r u 
-0.3416 b s o 
-0.9133 b s s 
-2.1522 b u c 
-0.0139 b u r 
-1.2813 c a h 
-0.7096 c a l 
-0.7096 c a r 
-1.2813 c a s 
-1.2813 c a v 
-0.4362 c b e 
-0.4362 c c h 
-1.2813 c e g 
-1.2813 c e l 
-0.7096 c e n 
-1.2813 c e p 
-0.7096 c e s 
-0.3101 c h a 
-1.5502 c h f 
-1.5502 c h i 
-0.9784 c h r 
-0.9784 c h t 
-0.4362 c i n 
-1.3393 c k e 
-1.3393 c k k 
-1.3393 c k l 
-0.7676 c k p 
-0.7676 c k w 
-1.3393 c k y 
-0.7373 c l a 
-0.7373 c l o 
-0.4362 c m u 
-1.2144 c o l 
-0.2510 c o n 
-1.2144 c o r 
-0.4362 c p i 
-0.4362 c r a 
-0.4362 c y v 
-0.8645 d a l 
-0.8645 d a m 
-1.4362 d a n 
-0.3599 d a v 
-0.4362 d b a 
-0.4362 d c r 
-0.1655 d d o 
-1.2813 d e a 
-1.2813 d e b 
-1.2813 d e d 
-0.3180 d e r 
-0.9133 d f e 
-0.3416 d f o 
-0.7373 d h e 
-0.7373 d h i 
-0.7373 d i n 
-0.7373 d i t 
-0.4362 d j e 
-0.4362 d l e 
-1.3393 d o c 
-1.3393 d o l 
-1.3393 d o n 
-1.3393 d o r 
-1.3393 d o u 
-0.5290 d o w 
-0.0870 d p i 
-1.3905 d p l 
-1.2144 d r a 
-0.2510 d r i 
-1.2144 d r o 
-1.1352 d s a 
-1.1352 d s o 
-1.1352 d s t 
-1.1352 d s u 
-1.1352 d s w 
-0.4362 d t i 
-0.4362 d u g 
-0.7096 d w a 
-1.2813 d w h 
-0.7096 d w i 
-0.7096 d w o 
-0.7373 d y a 
-0.7373 d y n 
-1.0406 e a c 
-1.0406 e a d 
-0.8020 e a n 
-1.6123 e a p 
-1.6123 e a r 
-0.8020 e a s 
-1.6123 e a t 
-1.0406 e a v 
-0.3249 e b r 
-0.5634 e b u 
-0.7373 e c c 
-0.7373 e c h 
-1.1352 e d a 
-1.1352 e d o 
-0.5634 e d r 
-1.1352 e d w 
-0.7676 e e l 
-1.3393 e e n 
-1.3393 e e p 
-0.7676 e e r 
-0.7676 e e s 
-0.7373 e f f 
-0.7373 e f r 
-0.4665 e g i 
-0.4665 e g l 
-0.4362 e h u 
-1.1352 e i d 
-0.3249 e i l 
-1.1352 e i v 
-0.1655 e j o 
-0.4362 e k c 
-1.7787 e l a 
-1.7787 e l b 
-0.7023 e l d 
-1.2069 e l e 
-1.7787 e l g 
-1.7787 e l i 
-1.7787 e l k 
-0.4752 e l l 
-1.2069 e l s 
-1.1352 e m c 
-1.1352 e m e 
-0.5634 e m o 
-1.1352 e m p 
-1.8512 e n a 
-1.8512 e n c 
-1.0409 e n d 
-1.2794 e n e 
-1.2794 e n f 
-1.2794 e n m 
-0.8878 e n n 
-1.8512 e n o 
-1.8512 e n p 
-1.8512 e n r 
-1.2794 e n s 
-1.0409 e n t 
-1.0409 e n u 
-1.6915 e p a 
-1.6915 e p g 
-0.8812 e p h 
-0.2837 e p i 
-1.1197 e p o 
-1.6915 e p y 
-1.3416 e r a 
-1.3416 e r b 
-0.9500 e r e 
-1.9133 e r f 
-0.9500 e r i 
-1.3416 e r k 
-0.9500 e r l 
-1.9133 e r m 
-1.9133 e r n 
-1.1031 e r o 
-1.9133 e r p 
-1.9133 e r r 
-1.3416 e r s 
-1.3416 e r t 
-0.9437 e s a 
-1.5154 e s b 
-0.9437 e s e 
-0.9437 e s j 
-1.5154 e s m 
-0.9437 e s p 
-1.5154 e s t 
-1.5154 e s w 
-0.4041 e t p 
-0.4041 e t t 
-0.4362 e u l 
-0.8645 e v a 
-0.1328 e v e 
-1.6123 e w a 
-1.6123 e w b 
-1.6123 e w e 
-1.0406 e w i 
-1.6123 e w n 
-0.5360 e w o 
-1.6123 e w p 
-1.6123 e w r 
-1.0406 e w y 
-1.2144 e y b 
-0.6426 e y d 
-1.2144 e y o 
-1.2144 e y p 
-1.2144 e y s 
-0.4362 e z e 
-0.4362 f a r 
-0.4362 f b o 
-0.4362 f c e 
-1.1352 f e d 
-1.1352 f e i 
-1.1352 f e l 
-1.1352 f e n 
-1.1352 f e r 
-0.7373 f f c 
-0.7373 f f r 
-1.1352 f i e 
-0.5634 f i f 
-1.1352 f i l 
-1.1352 f i n 
-0.1031 f o r 
-0.5634 f r a 
-1.1352 f r i 
-0.5634 f r o 
-0.3416 f t h 
-0.9133 f t o 
-0.2280 g a r 
-1.0383 g a t 
-0.4362 g c a 
-0.4362 g d e 
-1.3335 g h a 
-1.0675 g h b 
-1.3335 g h c 
-2.1438 g h d 
-1.3335 g h f 
-1.3335 g h g 
-1.1804 g h h 
-1.5720 g h j 
-1.0675 g h l 
-1.1804 g h m 
-2.1438 g h n 
-1.3335 g h o 
-1.5720 g h p 
-2.1438 g h r 
-0.9779 g h s 
-1.3335 g h t 
-2.1438 g h v 
-2.1438 g h w 
-0.4041 g i b 
-1.2144 g i e 
-1.2144 g i n 
-1.2144 g i u 
-1.1352 g l a 
-0.1718 g l e 
-0.4362 g m a 
-0.4362 g n o 
-0.4362 g o t 
-0.7373 g r e 
-0.7373 g r o 
-0.4362 g s p 
-0.4362 g t o 
-0.4362 g v i 
-1.8164 h a c 
-1.8164 h a d 
-1.2447 h a e 
-1.2447 h a l 
-1.2447 h a m 
-1.0062 h a n 
-0.6505 h a r 
-1.0062 h a s 
-1.8164 h a v 
-1.2447 h a w 
-1.8164 h a y 
-1.1352 h b e 
-1.1352 h b l 
-0.5634 h b r 
-1.1352 h b u 
-0.9133 h c a 
-0.9133 h c e 
-0.9133 h c l 
-0.4362 h d o 
-0.7096 h e a 
-1.2813 h e i 
-1.2813 h e n 
-1.2813 h e r 
-0.7096 h e w 
-1.0383 h f a 
-0.4665 h f e 
-1.0383 h f r 
-0.9133 h g i 
-0.9133 h g o 
-0.9133 h g r 
-1.0383 h h a 
-1.0383 h h i 
-0.4665 h h o 
-1.2144 h i g 
-1.2144 h i l 
-0.6426 h i n 
-1.2144 h i r 
-1.2144 h i t 
-0.7373 h j e 
-0.7373 h j o 
-1.1352 h l a 
-0.5634 h l e 
-1.1352 h l o 
-1.1352 h l u 
-0.2280 h m a 
-1.0383 h m o 
-1.0383 h n e 
-1.0383 h n k 
-1.0383 h n o 
-1.0383 h n s 
-0.9784 h o b 
-1.5502 h o e 
-1.5502 h o f 
-0.9784 h o l 
-1.5502 h o m 
-1.5502 h o n 
-1.5502 h o r 
-0.9784 h o u 
-1.5502 h o w 
-1.5502 h o y 
-0.4665 h p i 
-1.0383 h p o 
-1.0383 h p u 
-0.3416 h r i 
-0.9133 h r o 
-1.2813 h s c 
-1.2813 h s k 
-1.2813 h s m 
-1.2813 h s n 
-1.2813 h s p 
-1.2813 h s t 
-1.2813 h s w 
-0.6426 h t e 
-0.6426 h t h 
-1.2144 h t i 
-1.2144 h t s 
-0.4362 h u r 
-0.1655 h v e 
-0.4362 h w i 
-0.7373 h y c 
-0.7373 h y l 
-0.9133 i a c 
-0.9133 i a m 
-0.9133 i a n 
-0.9133 i b b 
-0.3416 i b s 
-1.5502 i c a 
-1.5502 i c b 
-0.3101 i c h 
-0.9784 i c k 
-1.5502 i c o 
-1.5502 i c p 
-1.0383 i d e 
-1.0383 i d f 
-1.0383 i d h 
-1.0383 i d w 
-0.8187 i e l 
-1.3905 i e m 
-1.3905 i e n 
-0.8187 i e r 
-1.3905 i e t 
-1.3905 i e v 
-1.3905 i e w 
-1.0383 i f e 
-1.0383 i f r 
-0.4665 i f t 
-0.3416 i g h 
-0.9133 i g i 
-0.4362 i j o 
-0.4362 i k e 
-1.3905 i l a 
-1.3905 i l d 
-1.3905 i l k 
-0.4271 i l l 
-1.3905 i l m 
-1.3905 i l w 
-1.1352 i m a 
-1.1352 i m i 
-1.1352 i m m 
-0.5634 i m o 
-1.7787 i n a 
-1.7787 i n b 
-1.2069 i n c 
-0.8153 i n d 
-1.7787 i n e 
-0.7023 i n g 
-1.7787 i n h 
-0.9684 i n i 
-1.2069 i n p 
-1.2069 i n s 
-0.4362 i o m 
-0.4362 i p s 
-0.4362 i r e 
-1.1352 i s e 
-1.1352 i s h 
-1.1352 i s s 
-0.5634 i s t 
-1.5547 i t h 
-2.1264 i t n 
-0.0335 i t t 
-0.4362 i u r 
-1.1352 i v a 
-0.1718 i v e 
-0.1655 j a m 
-0.5634 j e a 
-1.1352 j e f 
-1.1352 j e n 
-1.1352 j e t 
-1.2144 j o d 
-0.6426 j o h 
-1.2144 j o n 
-0.6426 j o s 
-0.4362 j u l 
-0.0749 k a r 
-0.7373 k b e 
-0.7373 k b r 
-0.4362 k c o 
-0.4362 k d a 
-0.7096 k e a 
-0.7096 k e e 
-1.2813 k e l 
-1.2813 k e n 
-1.2813 k e r 
-0.4362 k f i 
-0.4362 k g a 
-0.4362 k h a 
-0.9133 k i m 
-0.3416 k i n 
-0.4362 k j e 
-0.7373 k k a 
-0.7373 k k e 
-0.4362 k l e 
-0.7373 k p g 
-0.7373 k p i 
-0.4362 k r o 
-0.4362 k s s 
-0.4362 k u n 
-0.7373 k w h 
-0.7373 k w o 
-0.7373 k y d 
-0.7373 k y j 
-1.5824 l a a 
-0.6190 l a c 
-1.0106 l a m 
-0.6190 l a n 
-1.5824 l a r 
-1.5824 l a s 
-1.5824 l a t 
-0.3416 l b e 
-0.9133 l b o 
-0.4362 l c h 
-0.9059 l d a 
-1.4776 l d b 
-1.4776 l d e 
-1.4776 l d i 
-1.4776 l d j 
-1.4776 l d o 
-0.9059 l d s 
-1.4776 l d t 
-1.4776 l d w 
-1.8342 l e a 
-1.2624 l e b 
-1.8342 l e d 
-1.2624 l e e 
-1.8342 l e g 
-1.8342 l e i 
-1.0239 l e n 
-1.2624 l e p 
-1.8342 l e r 
-1.0239 l e s 
-1.8342 l e u 
-1.8342 l e v 
-1.2624 l e w 
-0.8708 l e y 
-0.4362 l f o 
-0.4362 l g i 
-1.5154 l i a 
-0.7051 l i e 
-1.5154 l i f 
-1.5154 l i g 
-0.7051 l i n 
-1.5154 l i o 
-1.5154 l i p 
-1.5154 l i s 
-0.4362 l j u 
-0.7373 l k a 
-0.7373 l k i 
-1.6403 l l b 
-1.6403 l l c 
-0.8301 l l e 
-0.6770 l l i 
-1.6403 l l j 
-1.6403 l l m 
-1.6403 l l o 
-1.6403 l l p 
-1.6403 l l s 
-1.0686 l l y 
-0.9133 l m a 
-0.3416 l m o 
-1.1352 l o n 
-1.1352 l o o 
-1.1352 l o r 
-1.1352 l o u 
-1.1352 l o w 
-0.4362 l p i 
-1.0383 l s k 
-1.0383 l s o 
-1.0383 l s u 
-1.0383 l s w 
-0.4362 l t m 
-0.9133 l u b 
-0.9133 l u d 
-0.9133 l u s 
-0.4362 l w i 
-0.9133 l y c 
-0.9133 l y p 
-0.9133 l y s 
-0.4362 l z e 
-1.7150 m a c 
-1.7150 m a h 
-1.7150 m a l 
-1.1432 m a n 
-1.7150 m a p 
-0.4115 m a r 
-1.1432 m a s 
-1.1432 m a t 
-1.7150 m a u 
-0.4362 m c k 
-1.2813 m e a 
-1.2813 m e m 
-0.4710 m e r 
-0.7096 m e s 
-0.5634 m i c 
-1.1352 m i d 
-0.5634 m i t 
-0.7373 m m e 
-0.7373 m m s 
-0.4362 m n e 
-1.4776 m o d 
-1.4776 m o h 
-0.9059 m o n 
-0.3117 m o r 
-1.4776 m o t 
-1.0383 m p e 
-1.0383 m p l 
-0.4665 m p s 
-0.9133 m s l 
-0.9133 m s m 
-0.9133 m s t 
-0.4362 m u p 
-0.4362 m y m 
-1.3905 n a e 
-0.8187 n a h 
-0.8187 n a l 
-1.3905 n a n 
-1.3905 n a r 
-0.8187 n a t 
-0.7373 n b r 
-0.7373 n b u 
-1.2813 n c a 
-0.7096 n c e 
-1.2813 n c k 
-1.2813 n c l 
-1.2813 n c m 
-1.2813 n c o 
-0.5868 n d a 
-0.9784 n d e 
-1.5502 n d l 
-0.9784 n d p 
-1.5502 n d r 
-1.5502 n d s 
-0.9784 n d y 
-1.7787 n e b 
-1.2069 n e g 
-1.7787 n e h 
-1.7787 n e i 
-1.7787 n e j 
-0.8153 n e l 
-1.7787 n e m 
-1.7787 n e p 
-1.7787 n e r 
-1.2069 n e s 
-1.7787 n e t 
-0.8153 n e w 
-1.2069 n e y 
-0.9133 n f e 
-0.3416 n f i 
-0.7676 n g h 
-1.3393 n g l 
-1.3393 n g m 
-1.3393 n g r 
-1.3393 n g s 
-1.3393 n g t 
-1.3393 n g v 
-0.4362 n h o 
-0.9059 n i a 
-0.6673 n i c 
-1.4776 n i e 
-1.4776 n i f 
-1.4776 n i j 
-0.9059 n i m 
-1.4776 n i n 
-0.4362 n j e 
-0.9133 n k a 
-0.3416 n k e 
-0.4362 n l a 
-0.2280 n m a 
-1.0383 n m i 
-1.3393 n n a 
-0.5290 n n e 
-0.7676 n n i 
-1.3393 n n r 
-1.3393 n n y 
-1.0383 n o f 
-1.0383 n o o 
-1.0383 n o p 
-1.0383 n o w 
-1.3393 n p a 
-1.3393 n p g 
-0.1734 n p i 
-0.9133 n r i 
-0.9133 n r o 
-0.9133 n r u 
-1.2813 n s e 
-1.2813 n s h 
-1.2813 n s k 
-1.2813 n s o 
-1.2813 n s p 
-0.7096 n s t 
-1.3905 n t h 
-0.8187 n t o 
-1.3905 n t p 
-0.8187 n t r 
-0.5802 n t z 
-0.1031 n u e 
-0.4362 n x v 
-0.4362 n y v 
-0.4362 n z i 
-0.2280 o a d 
-1.0383 o a k 
-0.4665 o b a 
-0.4665 o b e 
-0.4362 o c k 
-1.4362 o d a 
-1.4362 o d e 
-1.4362 o d o 
-0.4729 o d p 
-1.4362 o d s 
-1.4362 o d u 
-1.4362 o d w 
-0.4362 o e p 
-0.9133 o f b 
-0.9133 o f f 
-0.9133 o f r 
-0.1031 o h n 
-0.4362 o k h 
-1.2813 o l a 
-1.2813 o l d 
-1.2813 o l e 
-0.7096 o l i 
-1.2813 o l l 
-1.2813 o l s 
-0.7096 o m a 
-0.7096 o m e 
-1.2813 o m n 
-1.2813 o m o 
-1.2813 o m s 
-0.7913 o n a 
-1.8676 o n b 
-1.0573 o n c 
-1.8676 o n e 
-1.2958 o n g 
-0.9042 o n i 
-1.8676 o n j 
-1.8676 o n k 
-1.8676 o n m 
-1.8676 o n n 
-1.0573 o n p 
-1.8676 o n s 
-1.2958 o n t 
-1.8676 o n x 
-0.2375 o o d 
-1.4776 o o f 
-1.4776 o o k 
-1.4776 o o m 
-1.4776 o o n 
-0.9133 o p h 
-0.9133 o p i 
-0.9133 o p l 
-1.7150 o r b 
-1.1432 o r c 
-0.9047 o r d 
-0.6386 o r e 
-1.7150 o r k 
-1.7150 o r n 
-1.7150 o r o 
-1.7150 o r r 
-1.1432 o r t 
-1.7150 o r w 
-1.7150 o r y 
-0.3249 o s e 
-1.1352 o s s 
-1.1352 o s t 
-0.7373 o t h 
-0.7373 o t t 
-1.2813 o u g 
-1.2813 o u q 
-1.2813 o u r 
-0.7096 o u s 
-0.7096 o u t 
-1.3905 o w d 
-1.3905 o w e 
-1.3905 o w g 
-1.3905 o w l 
-0.4271 o w n 
-1.3905 o w w 
-0.7373 o y g 
-0.7373 o y h 
-0.4362 o z e 
-0.9133 p a h 
-0.9133 p a r 
-0.9133 p a t 
-0.4362 p e r 
-0.1031 p g h 
-1.2144 p h a 
-0.6426 p h e 
-1.2144 p h i 
-1.2144 p h s 
-1.2144 p h y 
-2.0990 p i n 
-0.0157 p i t 
-0.5634 p l a 
-0.3249 p l e 
-0.4362 p n e 
-1.0383 p o l 
-0.4665 p o m 
-1.0383 p o r 
-0.1031 p r i 
-0.9133 p s h 
-0.9133 p s o 
-0.9133 p s p 
-0.4362 p u s 
-0.4362 p y h 
-0.4362 q u e 
-1.4776 r a c 
-0.9059 r a d 
-1.4776 r a f 
-0.4013 r a n 
-1.4776 r a p 
-1.4776 r a v 
-1.0383 r b o 
-0.4665 r b r 
-1.0383 r b u 
-0.1031 r c h 
-1.3393 r d e 
-1.3393 r d f 
-1.3393 r d i 
-0.5290 r d p 
-0.7676 r d w 
-1.1867 r e a 
-1.7584 r e d 
-1.7584 r e e 
-1.7584 r e j 
-1.7584 r e k 
-1.1867 r e l 
-0.7951 r e n 
-1.1867 r e p 
-1.7584 r e r 
-1.1867 r e t 
-0.7951 r e w 
-0.4362 r f i 
-1.5457 r g a 
-2.1175 r g c 
-2.1175 r g d 
-0.0441 r g h 
-1.7150 r i a 
-0.5491 r i c 
-1.7150 r i g 
-1.7150 r i k 
-0.7516 r i n 
-1.1432 r i s 
-0.7516 r i v 
-0.8187 r k b 
-1.3905 r k e 
-1.3905 r k f 
-1.3905 r k g 
-1.3905 r k k 
-1.3905 r k r 
-1.3905 r k s 
-1.3905 r k u 
-0.5802 r l a 
-1.3905 r l b 
-0.8187 r l e 
-1.3905 r l f 
-1.3905 r l o 
-1.3905 r l y 
-0.1655 r m a 
-1.1352 r n d 
-0.3249 r n e 
-1.1352 r n k 
-0.9482 r o a 
-1.1867 r o b 
-1.7584 r o m 
-0.6821 r o n 
-1.1867 r o o 
-1.7584 r o p 
-0.9482 r o s 
-1.1867 r o w 
-1.7584 r o y 
-1.7584 r o z 
-0.4362 r p i 
-0.4710 r r e 
-1.2813 r r i 
-0.7096 r r o 
-1.2813 r r y 
-0.2280 r s o 
-1.0383 r s t 
-1.2813 r t h 
-1.2813 r t l 
-1.2813 r t n 
-1.2813 r t o 
-0.7096 r t p 
-1.2813 r t z 
-0.7373 r u m 
-0.7373 r u s 
-0.4362 r w a 
-1.2813 r y j 
-1.2813 r y l 
-1.2813 r y m 
-0.7096 r y p 
-1.2813 r y t 
-1.2813 r y w 
-0.9133 s a m 
-0.9133 s a t 
-0.9133 s a y 
-2.1083 s b o 
-0.0154 s b u 
-0.4362 s c a 
-0.8187 s e a 
-1.3905 s e l 
-1.3905 s e m 
-1.3905 s e n 
-0.8187 s e p 
-0.8187 s e w 
-0.5634 s h a 
-1.1352 s h e 
-1.1352 s h i 
-1.1352 s h o 
-0.1655 s j a 
-1.1352 s k a 
-1.1352 s k e 
-0.5634 s k i 
-1.1352 s k y 
-0.4362 s l e 
-0.3249 s m a 
-1.1352 s m i 
-1.1352 s m o 
-0.4362 s n o 
-1.4776 s o l 
-0.1189 s o n 
-1.4776 s o u 
-0.3759 s p i 
-1.3393 s p n 
-1.3393 s p o 
-0.7676 s p r 
-1.0383 s s h 
-1.0383 s s m 
-1.0383 s s t 
-1.0383 s s v 
-0.2589 s t e 
-1.6667 s t i 
-1.6667 s t m 
-1.0949 s t o 
-0.8564 s t r 
-0.7373 s u m 
-0.7373 s u n 
-0.7373 s v a 
-0.7373 s v i 
-0.4665 s w a 
-1.0383 s w i 
-1.0383 s w o 
-0.7373 t a n 
-0.7373 t a y 
-0.4362 t b a 
-1.7150 t e d 
-1.1432 t e e 
-1.7150 t e l 
-0.9047 t e n 
-1.7150 t e p 
-0.6386 t e r 
-1.7150 t e s 
-0.6386 t e v 
-0.4362 t g i 
-0.4464 t h a 
-1.0406 t h e 
-1.0406 t h o 
-1.0406 t h p 
-1.6123 t h t 
-1.6123 t h v 
-1.6123 t h y 
-0.5634 t i e 
-0.5634 t i m 
-1.1352 t i n 
-0.4362 t l u 
-0.1655 t m a 
-0.1655 t n e 
-1.2813 t o a 
-1.2813 t o d 
-1.2813 t o m 
-0.7096 t o n 
-1.2813 t o p 
-1.2813 t o w 
-0.0485 t p i 
-0.5634 t r a 
-0.3249 t r e 
-0.0157 t s b 
-2.0990 t s v 
-2.1766 t t b 
-1.1003 t t e 
-1.6048 t t h 
-2.1766 t t i 
-0.0933 t t s 
-2.1766 t t t 
-1.0383 t z b 
-1.0383 t z j 
-1.0383 t z l 
-1.0383 t z p 
-0.4362 u b i 
-0.4362 u c k 
-0.4362 u d w 
-1.0383 u e b 
-0.4665 u e p 
-1.0383 u e t 
-0.7373 u g l 
-0.7373 u g n 
-0.9133 u l d 
-0.3416 u l i 
-0.7373 u m i 
-0.7373 u m m 
-0.7373 u n n 
-0.7373 u n t 
-0.4362 u p i 
-0.4362 u q u 
-2.1686 u r c 
-0.0757 u r g 
-2.1686 u r i 
-2.1686 u r k 
-2.1686 u r r 
-2.1686 u r s 
-1.3583 u r y 
-0.5634 u s e 
-0.5634 u s k 
-1.1352 u s o 
-0.7373 u t h 
-0.7373 u t i 
-1.2144 v a f 
-0.4041 v a l 
-1.2144 v a n 
-1.2144 v a r 
-1.7373 v e c 
-1.7373 v e l 
-1.7373 v e m 
-0.4971 v e n 
-0.6609 v e p 
-0.9270 v e r 
-1.7373 v e v 
-1.7373 v e z 
-0.6426 v i d 
-1.2144 v i e 
-0.6426 v i l 
-1.2144 v i n 
-0.4362 v k j 
-1.2813 w a l 
-0.3180 w a r 
-1.2813 w a t 
-1.2813 w a y 
-0.4362 w b u 
-0.4362 w d o 
-0.9133 w e i 
-0.3416 w e l 
-0.4362 w g a 
-0.7373 w h e 
-0.7373 w h i 
-0.7096 w i c 
-0.7096 w i l 
-1.2813 w i n 
-0.7096 w i s 
-0.4362 w l i 
-1.1352 w n a 
-1.1352 w n e 
-1.1352 w n i 
-1.1352 w n l 
-1.1352 w n s 
-1.3905 w o l 
-0.1504 w o o 
-1.3905 w o r 
-0.4362 w p i 
-0.7373 w r i 
-0.7373 w r o 
-0.4362 w t h 
-0.4362 w w a 
-0.7373 w y l 
-0.7373 w y o 
-0.4362 x v i 
-0.4362 y a y 
-0.1655 y b r 
-0.7373 y c e 
-0.7373 y c i 
-0.9133 y d a 
-0.3416 y d r 
-0.4362 y e r 
-0.4362 y g l 
-0.7373 y h a 
-0.7373 y h o 
-0.7373 y j e 
-0.7373 y j o 
-1.1352 y l a 
-1.1352 y l d 
-1.1352 y l e 
-1.1352 y l l 
-1.1352 y l o 
-0.7373 y m i 
-0.7373 y m o 
-0.1655 y n e 
-0.1655 y o r 
-1.0383 y p h 
-1.0383 y p i 
-1.0383 y p l 
-1.0383 y p r 
-0.7373 y s h 
-0.7373 y s t 
-0.4362 y t a 
-0.1655 y v a 
-0.4362 y w e 
-0.4362 z b e 
-0.3416 z e l 
-0.9133 z e v 
-0.4362 z i n 
-0.4362 z j o 
-0.4362 z l i 
-0.4362 z p h 

\end\
