#############################################################################
## Copyright (c) 1996, Carnegie Mellon University, Cambridge University,
## Ronald Rosenfeld and Philip Clarkson
#############################################################################
=============================================================================
===============  This file was produced by the CMU-Cambridge  ===============
===============     Statistical Language Modeling Toolkit     ===============
=============================================================================
This is a 3-gram language model, based on a vocabulary of 71 words,
  which begins "</s>", "<s>", "a"...
This is an OPEN-vocabulary model (type 1)
  (OOVs were mapped to UNK, which is treated as any other vocabulary word)
Absolute discounting was applied.
1-gram discounting constant : 0.454545
2-gram discounting constant : 0.567376
3-gram discounting constant : 0.680151
This file is in the ARPA-standard format introduced by Doug Paul.

p(wd3|wd1,wd2)= if(trigram exists)           p_3(wd1,wd2,wd3)
                else if(bigram w1,w2 exists) bo_wt_2(w1,w2)*p(wd3|wd2)
                else                         p(wd3|w2)

p(wd2|wd1)= if(bigram exists) p_2(wd1,wd2)
            else              bo_wt_1(wd1)*p_1(wd2)

All probs and back-off weights (bo_wt) are given in log10 form.

Data formats:

Beginning of data mark: \data\
ngram 1=nr            # number of 1-grams
ngram 2=nr            # number of 2-grams
ngram 3=nr            # number of 3-grams

\1-grams:
p_1     wd_1 bo_wt_1
\2-grams:
p_2     wd_1 wd_2 bo_wt_2
\3-grams:
p_3     wd_1 wd_2 wd_3 

end of data mark: \end\

\data\
ngram 1=72
ngram 2=412
ngram 3=1063

\1-grams:
-3.7020 <UNK>	0.0000
-0.7708 </s>	-2.8337
-0.7698 <s>	-0.8805
-3.7020 a	-0.1655
-3.7020 april	-0.2457
-3.7020 area	-0.2460
-2.8891 august	-0.5424
-3.7020 code	-0.2258
-3.7020 december	-0.2460
-1.3722 eight	-0.4955
-3.7020 eighteen	-0.2459
-3.7020 eighteenth	-0.2414
-3.7020 eighth	-0.2414
-2.8891 eighty	-0.3202
-2.8891 eleven	-0.1400
-3.7020 eleventh	-0.2414
-1.5168 enter	-0.5373
-3.2497 february	-0.2413
-2.8891 fifteen	-0.2733
-3.2497 fifteenth	-0.5425
-3.7020 fifth	-0.2414
-2.0314 fifty	-0.2326
-3.0330 first	-0.7186
-1.2359 five	-0.7848
-2.2471 forty	-0.3147
-1.3399 four	-0.5809
-2.6228 fourteen	-0.3958
-3.7020 fourth	-0.2414
-2.4589 go	-1.1655
-2.3763 help	-1.2446
-3.2497 hundred	-0.1648
-3.2497 january	-0.2456
-3.0330 july	-0.2408
-3.2497 june	-0.2413
-3.0330 march	-0.2409
-3.0330 may	-0.2364
-1.6028 nine	-0.1931
-1.9683 nineteen	-1.0014
-2.8891 ninety	-0.1530
-3.2497 ninth	-0.2365
-2.2471 no	-1.3696
-3.0330 october	-0.2406
-3.2497 of	-0.2360
-1.6941 oh	-0.4957
-1.0594 one	-0.6872
-2.2201 repeat	-1.3959
-3.2497 second	-0.5425
-2.7812 september	-0.2359
-1.4364 seven	-0.3848
-3.0330 seventeen	-0.4154
-3.7020 seventh	-0.2414
-2.3763 seventy	-0.5157
-1.3297 six	-0.5693
-3.0330 sixteen	-0.4103
-3.7020 sixteenth	-0.2414
-3.7020 sixth	-0.2414
-1.6713 sixty	-0.5317
-2.4157 start	-1.2069
-2.2471 stop	-1.3696
-2.4157 ten	-0.2862
-3.0330 third	-0.7186
-3.0330 thirtieth	-0.7186
-2.1946 thirty	-0.1689
-3.0330 thousand	-0.3188
-1.4112 three	-0.4369
-3.2497 twelfth	-0.5425
-2.5611 twelve	-0.2453
-3.7020 twentieth	-0.2414
-1.9683 twenty	-0.1748
-1.0933 two	-0.8899
-2.1260 yes	-1.4877
-2.0314 zero	-0.3338

\2-grams:
-0.0005 </s> <s> 0.0797
-3.0332 <s> april 0.0787
-3.0332 <s> area 0.0787
-2.1337 <s> august 0.0787
-3.0332 <s> december 0.0787
-1.7982 <s> eight -0.0709
-3.0332 <s> eighteen 0.0787
-2.5132 <s> eleven -0.0615
-0.7480 <s> enter 0.0787
-3.0332 <s> february -0.0615
-1.8609 <s> fifty -0.1793
-1.5412 <s> five -0.1092
-3.0332 <s> forty -0.0958
-1.1860 <s> four -0.4076
-3.0332 <s> fourteen -0.1397
-1.6947 <s> go 0.0787
-1.6112 <s> help 0.0787
-2.5132 <s> january 0.0787
-2.2832 <s> july 0.0787
-2.5132 <s> june 0.0787
-2.2832 <s> march 0.0787
-2.5132 <s> may -0.0196
-1.9343 <s> nine -0.0799
-3.0332 <s> ninth -0.0615
-1.4809 <s> no 0.0787
-2.2832 <s> october 0.0787
-2.2832 <s> oh -0.2199
-0.7130 <s> one -0.3263
-1.4536 <s> repeat 0.0787
-2.1337 <s> september 0.0171
-1.6509 <s> seven -0.1473
-1.3808 <s> six -0.1376
-3.0332 <s> sixty -0.0917
-1.6509 <s> start 0.0787
-1.4809 <s> stop 0.0787
-2.0227 <s> ten -0.0723
-2.2832 <s> thirty -0.0160
-1.4809 <s> three -0.1975
-1.9343 <s> twelve -0.0281
-3.0332 <s> twenty -0.1461
-1.2995 <s> two -0.0186
-1.3590 <s> yes 0.0787
-0.3639 a </s> 2.7471
-0.3639 april thirtieth 0.5559
-0.3639 area code 0.0787
-0.9659 august sixteenth 0.0787
-0.2160 august twenty -0.3156
-0.3639 code four -0.0906
-0.3639 december eighteenth 0.0787
-0.5312 eight </s> 1.2031
-1.3332 eight eight -0.2211
-1.2598 eight five 0.0826
-2.4321 eight forty -0.1267
-0.9736 eight four -0.1036
-2.4321 eight fourteen 0.0180
-2.4321 eight hundred -0.0615
-1.5326 eight nine -0.0182
-1.6821 eight oh -0.0069
-1.4215 eight one -0.0701
-1.3332 eight seven 0.2034
-1.9121 eight seventy -0.2066
-1.5326 eight six 0.1778
-1.6821 eight sixty 0.0271
-2.4321 eight thirty -0.1043
-1.0498 eight three 0.1981
-1.9121 eight twenty -0.0729
-1.1970 eight two -0.3403
-1.5326 eight zero 0.1358
-0.3639 eighteen february -0.0615
-0.3639 eighteenth nineteen -0.1461
-0.3639 eighth nineteen -0.1461
-0.4459 eighty nine 0.0468
-0.9659 eighty six -0.0279
-0.9659 eighty three -0.0106
-0.9659 eleven </s> 2.7471
-0.9659 eleven nine -0.1647
-0.9659 eleven seventeen 0.1146
-0.9659 eleven sixty -0.0917
-0.3639 eleventh nineteen 0.3769
-1.0531 enter eight -0.0052
-2.2882 enter eighty 0.0252
-2.2882 enter fifteen 0.0252
-1.2776 enter fifty -0.0866
-1.1893 enter five 0.1261
-1.5382 enter forty 0.0499
-1.1893 enter four -0.2082
-2.2882 enter fourteen -0.0679
-1.3887 enter nine 0.0774
-1.5382 enter ninety 0.0030
-1.3887 enter one -0.1494
-0.9983 enter seven -0.0186
-1.3887 enter seventy 0.1146
-1.0531 enter six 0.0026
-1.0531 enter sixty -0.2117
-1.5382 enter thirty -0.1081
-1.7681 enter three -0.0080
-2.2882 enter twenty -0.1307
-1.1893 enter two -0.1472
-2.2882 enter zero 0.0283
-0.6649 february eighth 0.0787
-0.6649 february nineteen -0.1307
-0.4459 fifteen </s> 2.4461
-0.9659 fifteen nineteen -0.1307
-0.9659 fifteen sixty -0.1491
-0.1449 fifteenth nineteen 0.0758
-0.3639 fifth nineteen 0.3769
-1.7789 fifty </s> 2.7471
-0.8793 fifty eight -0.6181
-1.0289 fifty five -0.5461
-1.2588 fifty four -0.3484
-0.7683 fifty one -0.3094
-1.2588 fifty seven 0.1368
-0.7683 fifty six -0.0845
-1.7789 fifty sixty -0.1335
-1.7789 fifty three -0.1615
-1.2588 fifty two -0.3882
-0.0910 first nineteen -0.1002
-0.6931 five </s> 1.2286
-1.6685 five eight -0.0916
-1.4691 five five 0.2778
-1.4691 five four -0.0773
-1.6685 five nine -0.0550
-1.4691 five oh -0.1302
-1.1096 five one 0.0853
-1.6685 five seven 0.0815
-1.4691 five six -0.2209
-2.5680 five sixteen 0.1146
-2.5680 five ten 0.0566
-1.4691 five three -0.2132
-2.5680 five twenty -0.1307
-0.3883 five two 0.1166
-1.8180 five zero 0.2181
-1.5680 forty eight -0.0160
-1.0480 forty five -0.3700
-1.0480 forty four -0.3484
-1.5680 forty nine 0.0424
-1.0480 forty one -0.3969
-0.8180 forty seven -0.0393
-0.8180 forty three 0.0126
-1.0480 forty two -0.3882
-0.6170 four </s> 1.2558
-1.3654 four eight -0.1018
-1.9442 four fifty 0.0137
-1.3654 four five 0.1135
-2.4643 four forty -0.1555
-1.0422 four four 0.0557
-1.9442 four nine -0.1288
-1.5647 four oh 0.1295
-0.7900 four one -0.4315
-1.2920 four seven -0.0423
-1.2920 four six 0.0412
-1.9442 four sixty -0.0511
-2.4643 four thousand -0.0998
-1.4537 four three 0.0072
-1.9442 four twenty -0.0729
-0.9119 four two -0.2444
-2.4643 four zero 0.0283
-0.6890 fourteen </s> 2.4461
-1.2090 fourteen a 0.0787
-1.2090 fourteen fourteen -0.0679
-0.4590 fourteen sixty -0.0062
-0.3639 fourth nineteen -0.1461
-0.0254 go </s> 1.7471
-0.0210 help </s> 1.6679
-0.6649 hundred </s> 2.7471
-0.6649 hundred eighty -0.1177
-0.6649 january fifteenth 0.3798
-0.6649 january twelfth 0.3798
-0.8410 july thirtieth 0.5559
-0.8410 july twelfth 0.3798
-0.8410 july twenty -0.1307
-0.6649 june eleventh 0.0787
-0.6649 june twenty -0.1461
-0.8410 march third 0.5559
-0.8410 march twentieth 0.0787
-0.8410 march twenty -0.1611
-0.8410 may nineteen -0.1461
-0.8410 may ninth -0.0615
-0.8410 may twenty -0.1611
-0.4167 nine </s> 1.3158
-1.4528 nine eight -0.1022
-2.2027 nine eighty 0.0252
-2.2027 nine fifty -0.1059
-1.1038 nine five 0.3683
-2.2027 nine forty -0.0958
-2.2027 nine four -0.1554
-2.2027 nine nine 0.0424
-2.2027 nine nineteen 0.3769
-2.2027 nine of -0.0615
-2.2027 nine oh -0.1561
-1.4528 nine one -0.0194
-2.2027 nine seven -0.1434
-2.2027 nine seventy -0.1122
-1.1038 nine six -0.2538
-2.2027 nine sixty -0.1335
-2.2027 nine thirty -0.1568
-1.1922 nine three -0.1571
-2.2027 nine twenty -0.1461
-1.1922 nine two -0.2123
-2.2027 nine zero 0.0283
-1.3210 nineteen fifty -0.4438
-1.3210 nineteen forty -0.4277
-1.0910 nineteen seventy -0.5461
-0.1460 nineteen sixty 0.0325
-1.8410 nineteen twenty -0.0980
-0.9659 ninety eight -0.1620
-0.9659 ninety five -0.0690
-0.9659 ninety four -0.0473
-0.9659 ninety six -0.0279
-0.6649 ninth of -0.0615
-0.6649 ninth sixty -0.1491
-0.0157 no </s> 1.5430
-0.8410 october first 0.5559
-0.8410 october thirtieth 0.5559
-0.8410 october twenty -0.1461
-0.6649 of september -0.1281
-0.6649 of sixty -0.1254
-1.1015 oh </s> 2.0482
-0.7736 oh eight 0.0301
-1.1015 oh five -0.2596
-1.3621 oh four -0.2811
-2.1121 oh nine -0.1318
-1.5921 oh oh -0.0334
-1.1015 oh one 0.0467
-1.2126 oh seven 0.2109
-0.7298 oh six -0.1487
-1.2126 oh three 0.1195
-1.0132 oh two -0.0427
-0.8187 one </s> 1.1789
-1.5718 one eight 0.0236
-2.7441 one eleven -0.1177
-2.7441 one fifteen 0.0252
-1.8446 one fifty -0.1254
-0.5324 one five -0.1636
-2.7441 one forty -0.1267
-1.4542 one four -0.3302
-2.7441 one hundred -0.0615
-1.5091 one nine 0.1590
-2.7441 one ninety -0.1177
-1.3618 one oh 0.1516
-1.7336 one one 0.1200
-1.0917 one seven -0.3762
-1.5718 one six -0.0653
-2.7441 one sixteen -0.0998
-1.9941 one sixty -0.0929
-2.2241 one ten -0.2444
-2.2241 one thirty -0.3456
-2.2241 one thousand -0.1865
-1.2521 one three -0.6043
-2.2241 one twenty -0.1395
-0.9922 one two -0.2630
-1.7336 one zero -0.0037
-0.0147 repeat </s> 1.5167
-0.1449 second nineteen 0.0758
-1.0629 september fifteenth 0.3798
-1.0629 september first 0.5559
-1.0629 september nineteen 0.3769
-1.0629 september sixth 0.0787
-1.0629 september twenty -0.1611
-0.3103 seven </s> 1.0482
-1.2693 seven eight -0.0625
-2.3682 seven fifteen -0.1177
-2.3682 seven fifty -0.1247
-1.6182 seven five 0.0937
-1.8482 seven forty -0.3968
-1.8482 seven four 0.0571
-1.8482 seven fourteen 0.0613
-2.3682 seven may -0.0998
-1.3577 seven nine -0.1437
-1.4687 seven oh -0.1205
-1.4687 seven one -0.0573
-1.8482 seven seven 0.1455
-2.3682 seven seventeen 0.1146
-1.8482 seven six -0.1027
-1.8482 seven sixty -0.1053
-2.3682 seven ten 0.0566
-1.8482 seven thirty -0.0624
-1.6182 seven three -0.1098
-2.3682 seven twenty -0.1307
-1.2693 seven two 0.2526
-0.3210 seventeen fifty -0.0564
-0.8410 seventeen thirty -0.1568
-0.3639 seventh nineteen 0.3769
-0.6931 seventy </s> 2.2700
-1.4431 seventy eight -0.0160
-0.3442 seventy one -0.8740
-0.9230 seventy two -0.3882
-0.5612 six </s> 1.1908
-0.7408 six eight -0.2361
-1.3756 six five -0.2011
-2.4745 six forty -0.1267
-1.2394 six four -0.1567
-1.5750 six nine 0.0319
-1.3756 six oh 0.1244
-1.3022 six one 0.1994
-1.5750 six seven 0.0815
-2.4745 six seventeen -0.0998
-1.1360 six six 0.0642
-2.4745 six sixteen 0.1146
-1.9545 six sixty -0.0314
-1.9545 six thirty -0.0305
-1.1846 six three 0.1097
-2.4745 six twenty -0.1307
-1.3756 six two -0.0103
-2.4745 six zero -0.1428
-0.8410 sixteen forty -0.1555
-0.3210 sixteen sixty -0.0212
-0.3639 sixteenth nineteen 0.3769
-0.3639 sixth nineteen 0.3769
-1.0358 sixty </s> 1.9690
-1.1242 sixty eight -0.7150
-2.1347 sixty fifty -0.1247
-1.1242 sixty five -0.7680
-1.2352 sixty four -0.6494
-0.7127 sixty nine -1.0368
-1.0358 sixty one -0.8740
-0.7962 sixty seven -0.5708
-1.6147 sixty six -0.3290
-1.1242 sixty three -0.7095
-1.3848 sixty two -0.2599
-0.0230 start </s> 1.7057
-0.0157 stop </s> 1.5430
-0.3947 ten </s> 2.0482
-1.4053 ten one -0.1630
-1.4053 ten seventy 0.0944
-1.4053 ten sixty -0.0739
-1.4053 ten thirty -0.0446
-1.4053 ten twelve -0.1433
-1.4053 ten twenty -0.0980
-0.0910 third nineteen 0.2233
-0.0910 thirtieth nineteen -0.1002
-0.8692 thirty </s> 2.2700
-1.0991 thirty eight -0.0030
-1.6192 thirty five -0.0690
-0.6086 thirty one -0.3050
-1.6192 thirty seven 0.1246
-1.6192 thirty six -0.0279
-1.6192 thirty sixty -0.1335
-1.6192 thirty three -0.0106
-0.8692 thirty two -0.2599
-0.3210 thousand </s> 2.4461
-0.8410 thousand eight -0.1658
-0.5184 three </s> 1.2286
-1.2944 three eight -0.2372
-2.3933 three eighty -0.1177
-2.3933 three eleven -0.1177
-1.2944 three five -0.0871
-1.8733 three forty -0.0817
-1.3827 three four 0.0952
-2.3933 three fourteen 0.0180
-1.6433 three nine -0.0744
-1.3827 three oh 0.1521
-1.2944 three one 0.1476
-1.6433 three seven -0.1159
-2.3933 three seventy 0.0944
-1.2944 three six 0.1843
-1.8733 three sixty -0.0967
-1.2210 three three 0.0675
-2.3933 three twelve -0.1433
-1.6433 three twenty -0.0463
-0.9712 three two -0.3500
-1.6433 three zero 0.2607
-0.1449 twelfth nineteen 0.0758
-1.2670 twelve fifty -0.1059
-1.2670 twelve four -0.1624
-1.2670 twelve nine -0.1647
-1.2670 twelve nineteen 0.3769
-1.2670 twelve sixty -0.0917
-1.2670 twelve ten -0.1500
-0.7470 twelve twenty -0.1238
-0.3639 twentieth nineteen -0.1307
-1.8410 twenty </s> 2.7471
-0.8305 twenty eight -0.2170
-1.8410 twenty fifth 0.0787
-1.8410 twenty first 0.5559
-1.3210 twenty four -0.1609
-1.8410 twenty fourth 0.0787
-1.0910 twenty nine 0.0513
-1.3210 twenty one -0.0885
-1.3210 twenty second 0.0787
-1.3210 twenty seven 0.1368
-1.8410 twenty seventh 0.0787
-1.0910 twenty six -0.0192
-1.3210 twenty third 0.2548
-1.3210 twenty three -0.0021
-1.3210 twenty two -0.0838
-0.7731 two </s> 1.1673
-1.4752 two eight -0.0344
-2.7102 two fifteen -0.1177
-1.3280 two five 0.2244
-1.1579 two four -0.4116
-1.5380 two nine 0.0807
-1.3280 two oh 0.2092
-0.6703 two one -0.0883
-1.3717 two seven 0.1181
-0.9955 two six -0.5590
-2.7102 two ten 0.0566
-2.1902 two thirty -0.3456
-1.2882 two three -0.0961
-2.1902 two twenty -0.1075
-0.9410 two two 0.4991
-1.6113 two zero -0.0403
-0.0119 yes </s> 1.4249
-0.4403 zero </s> 1.7471
-1.7789 zero eight -0.1389
-1.7789 zero five -0.1580
-1.7789 zero four -0.0906
-1.2588 zero one -0.3176
-1.2588 zero seven 0.1636
-0.6800 zero six -0.0858
-1.2588 zero two -0.0644
-1.7789 zero zero -0.0656

\3-grams:
-3.1634 </s> <s> april 
-3.1634 </s> <s> area 
-2.1473 </s> <s> august 
-3.1634 </s> <s> december 
-1.8039 </s> <s> eight 
-3.1634 </s> <s> eighteen 
-2.5479 </s> <s> eleven 
-0.7476 </s> <s> enter 
-3.1634 </s> <s> february 
-1.8677 </s> <s> fifty 
-1.5439 </s> <s> five 
-3.1634 </s> <s> forty 
-1.1867 </s> <s> four 
-3.1634 </s> <s> fourteen 
-1.6990 </s> <s> go 
-1.6145 </s> <s> help 
-2.5479 </s> <s> january 
-2.3029 </s> <s> july 
-2.5479 </s> <s> june 
-2.3029 </s> <s> march 
-2.5479 </s> <s> may 
-1.9425 </s> <s> nine 
-3.1634 </s> <s> ninth 
-1.4831 </s> <s> no 
-2.3029 </s> <s> october 
-2.3029 </s> <s> oh 
-0.7126 </s> <s> one 
-1.4557 </s> <s> repeat 
-2.1473 </s> <s> september 
-1.6547 </s> <s> seven 
-1.3824 </s> <s> six 
-3.1634 </s> <s> sixty 
-1.6547 </s> <s> start 
-1.4831 </s> <s> stop 
-2.0329 </s> <s> ten 
-2.3029 </s> <s> thirty 
-1.4831 </s> <s> three 
-1.9425 </s> <s> twelve 
-3.1634 </s> <s> twenty 
-1.3007 </s> <s> two 
-1.3824 </s> <s> yes 
-0.4951 <s> april thirtieth 
-0.4951 <s> area code 
-1.0971 <s> august sixteenth 
-0.2366 <s> august twenty 
-0.4951 <s> december eighteenth 
-0.7826 <s> eight eight 
-1.3981 <s> eight five 
-1.3981 <s> eight forty 
-1.3981 <s> eight four 
-1.3981 <s> eight fourteen 
-1.3981 <s> eight oh 
-1.3981 <s> eight two 
-0.4951 <s> eighteen february 
-0.7961 <s> eleven nine 
-0.7961 <s> eleven seventeen 
-1.0598 <s> enter eight 
-2.4193 <s> enter eighty 
-2.4193 <s> enter fifteen 
-1.2888 <s> enter fifty 
-1.1984 <s> enter five 
-1.5588 <s> enter forty 
-1.1984 <s> enter four 
-2.4193 <s> enter fourteen 
-1.4032 <s> enter nine 
-1.5588 <s> enter ninety 
-1.4032 <s> enter one 
-1.0042 <s> enter seven 
-1.4032 <s> enter seventy 
-1.0598 <s> enter six 
-1.0598 <s> enter sixty 
-1.5588 <s> enter thirty 
-1.8038 <s> enter three 
-2.4193 <s> enter twenty 
-1.1984 <s> enter two 
-2.4193 <s> enter zero 
-0.4951 <s> february eighth 
-0.7246 <s> fifty one 
-1.3402 <s> fifty seven 
-0.4796 <s> fifty six 
-1.3402 <s> fifty three 
-1.6412 <s> five five 
-1.0256 <s> five one 
-0.7807 <s> five six 
-1.6412 <s> five sixteen 
-1.6412 <s> five ten 
-1.6412 <s> five twenty 
-0.5107 <s> five two 
-0.4951 <s> forty three 
-1.3708 <s> four eight 
-1.9864 <s> four five 
-0.8559 <s> four four 
-1.3708 <s> four oh 
-0.4375 <s> four one 
-1.3708 <s> four seven 
-1.9864 <s> four twenty 
-0.7655 <s> four two 
-0.4951 <s> fourteen fourteen 
-0.0306 <s> go </s> 
-0.0253 <s> help </s> 
-0.7961 <s> january fifteenth 
-0.7961 <s> january twelfth 
-0.9722 <s> july thirtieth 
-0.9722 <s> july twelfth 
-0.9722 <s> july twenty 
-0.7961 <s> june eleventh 
-0.7961 <s> june twenty 
-0.9722 <s> march third 
-0.9722 <s> march twentieth 
-0.9722 <s> march twenty 
-0.7961 <s> may ninth 
-0.7961 <s> may twenty 
-1.2732 <s> nine four 
-1.2732 <s> nine one 
-1.2732 <s> nine thirty 
-1.2732 <s> nine three 
-1.2732 <s> nine twenty 
-1.2732 <s> nine two 
-0.4951 <s> ninth of 
-0.0189 <s> no </s> 
-0.9722 <s> october first 
-0.9722 <s> october thirtieth 
-0.9722 <s> october twenty 
-0.9722 <s> oh seven 
-0.3566 <s> oh six 
-2.4541 <s> one eleven 
-2.4541 <s> one fifty 
-0.1786 <s> one five 
-1.8385 <s> one four 
-2.4541 <s> one hundred 
-1.8385 <s> one nine 
-1.4379 <s> one oh 
-1.8385 <s> one seven 
-2.4541 <s> one six 
-2.4541 <s> one sixteen 
-1.8385 <s> one ten 
-2.4541 <s> one thirty 
-1.8385 <s> one thousand 
-2.4541 <s> one three 
-1.8385 <s> one twenty 
-1.3236 <s> one two 
-1.8385 <s> one zero 
-0.0177 <s> repeat </s> 
-1.0971 <s> september fifteenth 
-1.0971 <s> september first 
-1.0971 <s> september sixth 
-1.0971 <s> september twenty 
-1.5364 <s> seven fifteen 
-1.5364 <s> seven fifty 
-1.5364 <s> seven four 
-1.5364 <s> seven fourteen 
-1.5364 <s> seven may 
-1.5364 <s> seven nine 
-1.5364 <s> seven seventeen 
-1.5364 <s> seven thirty 
-0.9209 <s> seven three 
-1.5364 <s> seven twenty 
-0.6656 <s> six eight 
-1.7961 <s> six five 
-1.7961 <s> six four 
-1.7961 <s> six seventeen 
-0.7799 <s> six six 
-1.7961 <s> six sixteen 
-1.7961 <s> six thirty 
-0.9356 <s> six three 
-1.7961 <s> six twenty 
-1.7961 <s> six two 
-1.7961 <s> six zero 
-0.4951 <s> sixty seven 
-0.0277 <s> start </s> 
-0.0189 <s> stop </s> 
-1.1940 <s> ten one 
-1.1940 <s> ten seventy 
-1.1940 <s> ten thirty 
-1.1940 <s> ten twelve 
-1.1940 <s> ten twenty 
-0.9722 <s> thirty </s> 
-0.9722 <s> thirty three 
-0.9722 <s> thirty two 
-1.6992 <s> three eleven 
-1.0836 <s> three four 
-1.6992 <s> three fourteen 
-0.8387 <s> three oh 
-1.6992 <s> three one 
-1.6992 <s> three seventy 
-1.0836 <s> three six 
-1.6992 <s> three twelve 
-1.0836 <s> three twenty 
-1.0836 <s> three two 
-1.2732 <s> twelve four 
-1.2732 <s> twelve nine 
-1.2732 <s> twelve nineteen 
-1.2732 <s> twelve ten 
-0.6576 <s> twelve twenty 
-0.4951 <s> twenty two 
-1.8753 <s> two fifteen 
-1.8753 <s> two five 
-1.2597 <s> two four 
-1.8753 <s> two nine 
-1.2597 <s> two oh 
-1.2597 <s> two one 
-1.2597 <s> two seven 
-0.4108 <s> two six 
-1.8753 <s> two ten 
-1.8753 <s> two twenty 
-1.8753 <s> two two 
-0.0143 <s> yes </s> 
-0.4951 a </s> <s> 
-0.4951 april thirtieth nineteen 
-0.4951 area code four 
-0.4951 august sixteenth nineteen 
-0.9722 august twenty fourth 
-0.3566 august twenty second 
-0.4951 code four one 
-0.4951 december eighteenth nineteen 
-0.0085 eight </s> <s> 
-0.6576 eight eight four 
-0.6576 eight eight nine 
-1.2732 eight eight seven 
-1.2732 eight eight two 
-1.3402 eight five </s> 
-1.3402 eight five five 
-1.3402 eight five four 
-1.3402 eight five nine 
-1.3402 eight five oh 
-1.3402 eight five one 
-1.3402 eight five six 
-0.4951 eight forty one 
-0.5928 eight four </s> 
-0.9934 eight four four 
-0.9934 eight four one 
-0.7485 eight four six 
-0.9934 eight four two 
-0.4951 eight fourteen sixty 
-0.4951 eight hundred eighty 
-0.4815 eight nine </s> 
-1.0971 eight nine nine 
-1.0971 eight nine six 
-0.9722 eight oh </s> 
-0.9722 eight oh eight 
-0.9722 eight oh three 
-1.1940 eight one nine 
-1.1940 eight one oh 
-1.1940 eight one one 
-1.1940 eight one seven 
-1.1940 eight one six 
-0.6576 eight seven </s> 
-1.2732 eight seven eight 
-1.2732 eight seven five 
-1.2732 eight seven nine 
-1.2732 eight seven one 
-0.1805 eight seventy one 
-1.0971 eight six </s> 
-1.0971 eight six eight 
-1.0971 eight six nine 
-1.0971 eight six three 
-0.9722 eight sixty five 
-0.9722 eight sixty nine 
-0.9722 eight sixty one 
-0.4951 eight thirty two 
-0.9209 eight three </s> 
-1.5364 eight three eight 
-1.5364 eight three five 
-1.5364 eight three oh 
-0.9209 eight three one 
-1.5364 eight three three 
-1.5364 eight three two 
-0.9209 eight three zero 
-0.7961 eight twenty eight 
-0.7961 eight twenty seven 
-0.7826 eight two eight 
-0.7826 eight two four 
-0.5376 eight two six 
-1.3981 eight two three 
-0.4815 eight zero </s> 
-1.0971 eight zero six 
-1.0971 eight zero two 
-0.4951 eighteen february nineteen 
-0.4951 eighteenth nineteen forty 
-0.4951 eighth nineteen fifty 
-0.7961 eighty nine </s> 
-0.7961 eighty nine forty 
-0.4951 eighty six </s> 
-0.4951 eighty three </s> 
-0.4951 eleven </s> <s> 
-0.4951 eleven nine sixty 
-0.4951 eleven seventeen fifty 
-0.4951 eleven sixty seven 
-0.4951 eleventh nineteen sixty 
-1.3981 enter eight four 
-1.3981 enter eight one 
-1.3981 enter eight seven 
-1.3981 enter eight seventy 
-1.3981 enter eight thirty 
-1.3981 enter eight twenty 
-1.3981 enter eight two 
-1.3981 enter eight zero 
-0.4951 enter eighty nine 
-0.4951 enter fifteen </s> 
-1.1940 enter fifty five 
-0.5784 enter fifty four 
-1.1940 enter fifty one 
-1.1940 enter fifty sixty 
-0.4127 enter five </s> 
-1.2732 enter five three 
-1.2732 enter five two 
-1.2732 enter five zero 
-0.9722 enter forty one 
-0.9722 enter forty seven 
-0.9722 enter forty three 
-0.6576 enter four </s> 
-0.6576 enter four fifty 
-1.2732 enter four thousand 
-1.2732 enter four twenty 
-0.4951 enter fourteen </s> 
-1.0971 enter nine </s> 
-1.0971 enter nine eight 
-1.0971 enter nine eighty 
-1.0971 enter nine seventy 
-0.9722 enter ninety eight 
-0.9722 enter ninety five 
-0.9722 enter ninety four 
-1.0971 enter one forty 
-1.0971 enter one nine 
-1.0971 enter one ninety 
-1.0971 enter one thirty 
-0.3188 enter seven </s> 
-1.4493 enter seven oh 
-1.4493 enter seven seven 
-1.4493 enter seven thirty 
-1.4493 enter seven two 
-1.0971 enter seventy eight 
-0.4815 enter seventy one 
-1.0971 enter seventy two 
-0.5376 enter six </s> 
-1.3981 enter six four 
-1.3981 enter six oh 
-1.3981 enter six one 
-1.3981 enter six seven 
-1.3981 enter six two 
-0.5376 enter sixty </s> 
-1.3981 enter sixty four 
-0.7826 enter sixty one 
-1.3981 enter sixty six 
-1.3981 enter sixty two 
-0.9722 enter thirty eight 
-0.9722 enter thirty five 
-0.9722 enter thirty seven 
-0.7961 enter three </s> 
-0.7961 enter three eighty 
-0.4951 enter twenty nine 
-0.6576 enter two </s> 
-1.2732 enter two five 
-0.6576 enter two oh 
-1.2732 enter two six 
-0.4951 enter zero </s> 
-0.4951 february eighth nineteen 
-0.4951 february nineteen seventy 
-0.1805 fifteen </s> <s> 
-0.4951 fifteen nineteen seventy 
-0.4951 fifteen sixty two 
-0.1805 fifteenth nineteen sixty 
-0.4951 fifth nineteen sixty 
-0.4951 fifty </s> <s> 
-0.0809 fifty eight </s> 
-0.1117 fifty five </s> 
-0.1805 fifty four </s> 
-0.3335 fifty one </s> 
-1.1940 fifty one fifteen 
-1.1940 fifty one fifty 
-0.7961 fifty seven </s> 
-0.7961 fifty seven fourteen 
-0.5784 fifty six </s> 
-1.1940 fifty six oh 
-1.1940 fifty six sixty 
-1.1940 fifty six thirty 
-0.4951 fifty sixty three 
-0.4951 fifty three forty 
-0.1805 fifty two </s> 
-0.1117 first nineteen sixty 
-0.0090 five </s> <s> 
-0.4815 five eight </s> 
-1.0971 five eight five 
-1.0971 five eight oh 
-0.6576 five five </s> 
-1.2732 five five eight 
-1.2732 five five five 
-1.2732 five five three 
-1.2732 five five two 
-0.6576 five four </s> 
-1.2732 five four five 
-0.6576 five four six 
-1.2732 five four two 
-1.0971 five nine five 
-1.0971 five nine seven 
-1.0971 five nine six 
-1.0971 five nine two 
-0.6576 five oh </s> 
-0.6576 five oh four 
-1.2732 five oh one 
-1.2732 five oh six 
-0.9934 five one </s> 
-1.6090 five one eight 
-1.6090 five one five 
-0.7485 five one four 
-1.6090 five one nine 
-1.6090 five one oh 
-0.9934 five one one 
-0.9934 five one three 
-1.0971 five seven </s> 
-0.4815 five seven eight 
-1.0971 five seven oh 
-0.6576 five six four 
-0.6576 five six one 
-1.2732 five six six 
-1.2732 five six three 
-0.4951 five sixteen sixty 
-0.4951 five ten </s> 
-1.2732 five three five 
-0.6576 five three four 
-0.6576 five three three 
-1.2732 five three two 
-0.4951 five twenty six 
-1.4541 five two </s> 
-2.3146 five two eight 
-2.3146 five two five 
-1.4541 five two four 
-1.2984 five two oh 
-0.2968 five two one 
-2.3146 five two seven 
-2.3146 five two six 
-1.0188 five two three 
-0.8994 five two two 
-1.6990 five two zero 
-0.9722 five zero </s> 
-0.9722 five zero four 
-0.9722 five zero six 
-0.4951 forty eight </s> 
-0.1805 forty five </s> 
-0.1805 forty four </s> 
-0.4951 forty nine </s> 
-0.1805 forty one </s> 
-0.3566 forty seven </s> 
-0.9722 forty seven forty 
-0.9722 forty three </s> 
-0.9722 forty three forty 
-0.9722 forty three twenty 
-0.1805 forty two </s> 
-0.0096 four </s> <s> 
-1.2732 four eight five 
-0.6576 four eight four 
-1.2732 four eight six 
-1.2732 four eight two 
-1.2732 four eight zero 
-0.7961 four fifty one 
-0.7961 four fifty six 
-1.2732 four five eight 
-1.2732 four five nine 
-0.6576 four five one 
-1.2732 four five three 
-1.2732 four five two 
-0.4951 four forty nine 
-0.7137 four four </s> 
-1.5742 four four eight 
-0.9587 four four four 
-1.5742 four four oh 
-0.9587 four four one 
-0.9587 four four seven 
-1.5742 four four three 
-0.7961 four nine five 
-0.7961 four nine zero 
-1.0971 four oh eight 
-1.0971 four oh one 
-1.0971 four oh six 
-1.0971 four oh three 
-0.9568 four one </s> 
-1.8173 four one eight 
-1.8173 four one oh 
-1.8173 four one one 
-1.8173 four one six 
-0.2316 four one two 
-1.8173 four one zero 
-0.4796 four seven </s> 
-1.3402 four seven four 
-1.3402 four seven sixty 
-0.7246 four seven two 
-1.3402 four six </s> 
-1.3402 four six five 
-1.3402 four six four 
-1.3402 four six nine 
-1.3402 four six oh 
-0.7246 four six seven 
-0.7961 four sixty eight 
-0.7961 four sixty seven 
-0.4951 four thousand eight 
-0.5784 four three </s> 
-1.1940 four three eight 
-1.1940 four three six 
-1.1940 four three three 
-0.7961 four twenty eight 
-0.7961 four twenty one 
-0.8387 four two </s> 
-1.6992 four two nine 
-0.6830 four two one 
-1.6992 four two six 
-0.4034 four two two 
-0.4951 four zero </s> 
-0.1805 fourteen </s> <s> 
-0.4951 fourteen a </s> 
-0.4951 fourteen fourteen </s> 
-0.9722 fourteen sixty four 
-0.9722 fourteen sixty one 
-0.9722 fourteen sixty seven 
-0.4951 fourth nineteen fifty 
-0.0306 go </s> <s> 
-0.0253 help </s> <s> 
-0.4951 hundred </s> <s> 
-0.4951 hundred eighty three 
-0.4951 january fifteenth nineteen 
-0.4951 january twelfth nineteen 
-0.4951 july thirtieth nineteen 
-0.4951 july twelfth nineteen 
-0.4951 july twenty nine 
-0.4951 june eleventh nineteen 
-0.4951 june twenty third 
-0.4951 march third nineteen 
-0.4951 march twentieth nineteen 
-0.4951 march twenty fifth 
-0.4951 may nineteen forty 
-0.4951 may ninth sixty 
-0.4951 may twenty first 
-0.0111 nine </s> <s> 
-0.9722 nine eight eight 
-0.9722 nine eight nine 
-0.9722 nine eight two 
-0.4951 nine eighty nine 
-0.4951 nine fifty eight 
-1.2732 nine five </s> 
-1.2732 nine five four 
-1.2732 nine five oh 
-1.2732 nine five one 
-0.6576 nine five two 
-0.4951 nine forty three 
-0.4951 nine four oh 
-0.4951 nine nine </s> 
-0.4951 nine nineteen sixty 
-0.4951 nine of sixty 
-0.4951 nine oh oh 
-0.9722 nine one </s> 
-0.9722 nine one four 
-0.9722 nine one two 
-0.4951 nine seven two 
-0.4951 nine seventy two 
-0.4127 nine six </s> 
-0.6576 nine six six 
-1.2732 nine six two 
-0.4951 nine sixty eight 
-0.4951 nine thirty sixty 
-0.5784 nine three </s> 
-0.5784 nine three five 
-1.1940 nine three three 
-0.4951 nine twenty three 
-0.5784 nine two </s> 
-1.1940 nine two three 
-0.5784 nine two two 
-0.4951 nine zero </s> 
-0.1805 nineteen fifty two 
-0.1805 nineteen forty four 
-0.1117 nineteen seventy </s> 
-1.8375 nineteen sixty </s> 
-0.9770 nineteen sixty five 
-1.8375 nineteen sixty four 
-0.4779 nineteen sixty nine 
-1.2219 nineteen sixty one 
-0.7070 nineteen sixty seven 
-1.8375 nineteen sixty six 
-1.8375 nineteen sixty three 
-0.4951 nineteen twenty eight 
-0.4951 ninety eight twenty 
-0.4951 ninety five </s> 
-0.4951 ninety four </s> 
-0.4951 ninety six </s> 
-0.4951 ninth of september 
-0.4951 ninth sixty two 
-0.0189 no </s> <s> 
-0.4951 october first nineteen 
-0.4951 october thirtieth nineteen 
-0.4951 october twenty third 
-0.4951 of september nineteen 
-0.4951 of sixty </s> 
-0.0635 oh </s> <s> 
-0.4789 oh eight </s> 
-1.4951 oh eight five 
-1.4951 oh eight nine 
-1.4951 oh eight oh 
-1.4951 oh eight one 
-1.4951 oh eight six 
-1.4951 oh eight three 
-0.3335 oh five </s> 
-1.1940 oh five four 
-1.1940 oh five nine 
-0.9722 oh four five 
-0.3566 oh four four 
-0.4951 oh nine six 
-0.7961 oh oh eight 
-0.7961 oh oh two 
-0.5784 oh one </s> 
-1.1940 oh one five 
-1.1940 oh one four 
-1.1940 oh one nine 
-1.0971 oh seven </s> 
-1.0971 oh seven nine 
-1.0971 oh seven oh 
-1.0971 oh seven six 
-0.3155 oh six </s> 
-1.5364 oh six five 
-1.5364 oh six nine 
-1.5364 oh six oh 
-1.5364 oh six seven 
-1.5364 oh six three 
-1.0971 oh three </s> 
-1.0971 oh three eight 
-1.0971 oh three seven 
-1.0971 oh three two 
-0.6576 oh two </s> 
-1.2732 oh two eight 
-1.2732 oh two nine 
-1.2732 oh two seven 
-1.2732 oh two six 
-0.0081 one </s> <s> 
-0.4796 one eight </s> 
-1.3402 one eight eight 
-1.3402 one eight four 
-1.3402 one eight six 
-1.3402 one eight two 
-0.4951 one eleven </s> 
-0.4951 one fifteen </s> 
-1.0971 one fifty </s> 
-0.4815 one fifty eight 
-1.0971 one fifty six 
-1.3301 one five </s> 
-1.7307 one five five 
-2.3463 one five four 
-1.4858 one five oh 
-1.1254 one five one 
-1.7307 one five six 
-1.7307 one five three 
-0.1582 one five two 
-2.3463 one five zero 
-0.4951 one forty two 
-0.8337 one four eight 
-0.8337 one four nine 
-0.8337 one four seven 
-1.4493 one four six 
-0.8337 one four three 
-0.4951 one hundred </s> 
-0.7826 one nine </s> 
-1.3981 one nine eight 
-1.3981 one nine five 
-1.3981 one nine oh 
-0.7826 one nine six 
-1.3981 one nine three 
-0.4951 one ninety six 
-1.5364 one oh </s> 
-1.5364 one oh five 
-1.5364 one oh four 
-1.5364 one oh oh 
-1.5364 one oh one 
-1.5364 one oh seven 
-0.9209 one oh six 
-0.6759 one oh two 
-1.1940 one one eight 
-1.1940 one one five 
-1.1940 one one seven 
-1.1940 one one six 
-1.1940 one one three 
-0.1158 one seven </s> 
-1.7961 one seven forty 
-1.7961 one seven seven 
-1.7961 one seven three 
-1.7961 one seven two 
-0.4796 one six </s> 
-1.3402 one six nine 
-1.3402 one six oh 
-1.3402 one six one 
-1.3402 one six two 
-0.4951 one sixteen forty 
-0.9722 one sixty eight 
-0.9722 one sixty fifty 
-0.9722 one sixty three 
-0.1805 one ten </s> 
-0.1805 one thirty one 
-0.1805 one thousand </s> 
-0.1325 one three </s> 
-1.6412 one three six 
-1.0256 one three three 
-0.7961 one twenty </s> 
-0.7961 one twenty two 
-1.0325 one two </s> 
-1.2774 one two eight 
-0.6720 one two five 
-0.7625 one two four 
-1.8930 one two seven 
-1.0325 one two six 
-0.8768 one two two 
-1.8930 one two zero 
-1.1940 one zero eight 
-1.1940 one zero five 
-1.1940 one zero one 
-1.1940 one zero six 
-1.1940 one zero zero 
-0.0177 repeat </s> <s> 
-0.1805 second nineteen sixty 
-0.4951 september fifteenth nineteen 
-0.4951 september first nineteen 
-0.4951 september nineteen sixty 
-0.4951 september sixth nineteen 
-0.4951 september twenty seventh 
-0.0059 seven </s> <s> 
-0.6576 seven eight </s> 
-0.6576 seven eight eight 
-1.2732 seven eight four 
-1.2732 seven eight zero 
-0.4951 seven fifteen nineteen 
-0.4951 seven fifty five 
-0.9722 seven five eight 
-0.9722 seven five seven 
-0.9722 seven five two 
-0.1805 seven forty seven 
-0.7961 seven four </s> 
-0.7961 seven four one 
-0.7961 seven fourteen a 
-0.7961 seven fourteen sixty 
-0.4951 seven may nineteen 
-1.1940 seven nine five 
-1.1940 seven nine one 
-1.1940 seven nine three 
-0.5784 seven nine two 
-0.4815 seven oh eight 
-1.0971 seven oh three 
-1.0971 seven oh two 
-1.0971 seven one </s> 
-1.0971 seven one eight 
-1.0971 seven one six 
-1.0971 seven one zero 
-0.7961 seven seven </s> 
-0.7961 seven seven five 
-0.4951 seven seventeen fifty 
-0.7961 seven six six 
-0.7961 seven six three 
-0.7961 seven sixty eight 
-0.7961 seven sixty four 
-0.4951 seven ten </s> 
-0.7961 seven thirty </s> 
-0.7961 seven thirty eight 
-0.9722 seven three one 
-0.9722 seven three six 
-0.9722 seven three zero 
-0.4951 seven twenty nine 
-1.2732 seven two </s> 
-1.2732 seven two four 
-1.2732 seven two nine 
-1.2732 seven two one 
-1.2732 seven two two 
-1.2732 seven two zero 
-0.7961 seventeen fifty one 
-0.7961 seventeen fifty seven 
-0.4951 seventeen thirty six 
-0.4951 seventh nineteen sixty 
-0.1117 seventy </s> <s> 
-0.4951 seventy eight </s> 
-0.0523 seventy one </s> 
-0.1805 seventy two </s> 
-0.0083 six </s> <s> 
-1.0148 six eight </s> 
-1.2597 six eight five 
-0.7447 six eight four 
-1.2597 six eight one 
-0.8591 six eight seven 
-1.8753 six eight six 
-0.5795 six eight three 
-0.4127 six five </s> 
-1.2732 six five eight 
-1.2732 six five nine 
-1.2732 six five three 
-0.4951 six forty five 
-0.5376 six four </s> 
-0.7826 six four five 
-1.3981 six four seven 
-1.3981 six four six 
-1.3981 six four zero 
-0.4815 six nine </s> 
-1.0971 six nine five 
-1.0971 six nine two 
-1.2732 six oh </s> 
-0.6576 six oh eight 
-1.2732 six oh five 
-1.2732 six oh seven 
-1.2732 six oh six 
-1.3402 six one </s> 
-0.7246 six one five 
-1.3402 six one four 
-1.3402 six one nine 
-1.3402 six one two 
-1.3402 six one zero 
-0.4815 six seven </s> 
-1.0971 six seven eight 
-1.0971 six seven oh 
-0.4951 six seventeen thirty 
-0.8795 six six </s> 
-1.4951 six six eight 
-0.8795 six six five 
-1.4951 six six four 
-0.8795 six six one 
-0.8795 six six two 
-0.4951 six sixteen sixty 
-0.7961 six sixty nine 
-0.7961 six sixty three 
-0.7961 six thirty </s> 
-0.7961 six thirty two 
-0.8337 six three </s> 
-1.4493 six three eight 
-1.4493 six three nine 
-1.4493 six three oh 
-0.8337 six three one 
-1.4493 six three sixty 
-1.4493 six three two 
-0.4951 six twenty six 
-0.6576 six two </s> 
-1.2732 six two eight 
-1.2732 six two five 
-1.2732 six two four 
-1.2732 six two six 
-0.4951 six zero one 
-0.4951 sixteen forty eight 
-0.7961 sixteen sixty </s> 
-0.7961 sixteen sixty nine 
-0.4951 sixteenth nineteen sixty 
-0.4951 sixth nineteen sixty 
-0.0523 sixty </s> <s> 
-0.0635 sixty eight </s> 
-0.4951 sixty fifty five 
-0.0635 sixty five </s> 
-0.0809 sixty four </s> 
-0.0253 sixty nine </s> 
-0.0523 sixty one </s> 
-0.0799 sixty seven </s> 
-1.4951 sixty seven ten 
-0.1805 sixty six </s> 
-0.0635 sixty three </s> 
-0.3566 sixty two </s> 
-0.9722 sixty two thirty 
-0.0277 start </s> <s> 
-0.0189 stop </s> <s> 
-0.0635 ten </s> <s> 
-0.4951 ten one sixty 
-0.4951 ten seventy one 
-0.4951 ten sixty nine 
-0.4951 ten thirty one 
-0.4951 ten twelve sixty 
-0.4951 ten twenty eight 
-0.3566 third nineteen sixty 
-0.9722 third nineteen twenty 
-0.1117 thirtieth nineteen sixty 
-0.1117 thirty </s> <s> 
-0.7961 thirty eight </s> 
-0.7961 thirty eight sixty 
-0.4951 thirty five </s> 
-0.3335 thirty one </s> 
-1.1940 thirty one fifty 
-1.1940 thirty one sixty 
-0.4951 thirty seven </s> 
-0.4951 thirty six </s> 
-0.4951 thirty sixty five 
-0.4951 thirty three </s> 
-0.3566 thirty two </s> 
-0.9722 thirty two thirty 
-0.1805 thousand </s> <s> 
-0.4951 thousand eight hundred 
-0.0090 three </s> <s> 
-0.2570 three eight </s> 
-1.2732 three eight three 
-1.2732 three eight zero 
-0.4951 three eighty six 
-0.4951 three eleven sixty 
-0.6576 three five </s> 
-1.2732 three five four 
-1.2732 three five oh 
-1.2732 three five seven 
-1.2732 three five zero 
-0.7961 three forty five 
-0.7961 three forty two 
-1.1940 three four </s> 
-1.1940 three four eight 
-1.1940 three four five 
-1.1940 three four four 
-1.1940 three four three 
-0.4951 three fourteen sixty 
-0.3566 three nine </s> 
-0.9722 three nine five 
-1.1940 three oh eight 
-1.1940 three oh five 
-1.1940 three oh nine 
-1.1940 three oh one 
-1.1940 three oh six 
-1.2732 three one </s> 
-1.2732 three one five 
-1.2732 three one nine 
-1.2732 three one one 
-0.6576 three one two 
-0.9722 three seven eight 
-0.9722 three seven five 
-0.9722 three seven one 
-0.4951 three seventy one 
-1.2732 three six </s> 
-1.2732 three six eight 
-1.2732 three six four 
-1.2732 three six one 
-0.6576 three six three 
-0.7961 three sixty eight 
-0.7961 three sixty three 
-1.3402 three three </s> 
-1.3402 three three eight 
-1.3402 three three five 
-1.3402 three three nine 
-0.7246 three three seven 
-1.3402 three three six 
-0.4951 three twelve fifty 
-0.9722 three twenty eight 
-0.9722 three twenty seven 
-0.9722 three twenty three 
-0.3533 three two </s> 
-1.5742 three two eight 
-1.5742 three two four 
-0.9587 three two seven 
-0.9587 three two three 
-0.9722 three zero </s> 
-0.9722 three zero six 
-0.9722 three zero two 
-0.1805 twelfth nineteen sixty 
-0.4951 twelve fifty eight 
-0.4951 twelve four sixty 
-0.4951 twelve nine of 
-0.4951 twelve nineteen sixty 
-0.4951 twelve sixty seven 
-0.4951 twelve ten sixty 
-0.7961 twelve twenty four 
-0.7961 twelve twenty one 
-0.4951 twentieth nineteen seventy 
-0.4951 twenty </s> <s> 
-0.5784 twenty eight </s> 
-1.1940 twenty eight seventy 
-0.5784 twenty eight sixty 
-0.4951 twenty fifth nineteen 
-0.4951 twenty first nineteen 
-0.7961 twenty four forty 
-0.7961 twenty four sixty 
-0.4951 twenty fourth nineteen 
-0.9722 twenty nine </s> 
-0.9722 twenty nine fifty 
-0.9722 twenty nine nineteen 
-0.7961 twenty one </s> 
-0.7961 twenty one fifty 
-0.1805 twenty second nineteen 
-0.7961 twenty seven </s> 
-0.7961 twenty seven sixty 
-0.4951 twenty seventh nineteen 
-0.9722 twenty six </s> 
-0.9722 twenty six forty 
-0.9722 twenty six sixty 
-0.1805 twenty third nineteen 
-0.7961 twenty three </s> 
-0.7961 twenty three sixty 
-0.7961 twenty two </s> 
-0.7961 twenty two twenty 
-0.0078 two </s> <s> 
-0.5376 two eight </s> 
-1.3981 two eight five 
-1.3981 two eight one 
-0.7826 two eight three 
-1.3981 two eight two 
-0.4951 two fifteen sixty 
-0.9209 two five </s> 
-1.5364 two five five 
-1.5364 two five four 
-1.5364 two five one 
-1.5364 two five seven 
-0.4059 two five two 
-0.4782 two four </s> 
-1.0836 two four one 
-1.6992 two four three 
-0.4034 two four two 
-0.7246 two nine </s> 
-1.3402 two nine eight 
-1.3402 two nine one 
-1.3402 two nine six 
-0.7246 two nine three 
-0.9209 two oh eight 
-0.9209 two oh five 
-1.5364 two oh one 
-1.5364 two oh seven 
-0.6759 two oh six 
-1.5364 two oh three 
-1.5364 two oh two 
-0.9553 two one </s> 
-1.3158 two one eight 
-1.5607 two one five 
-2.1763 two one four 
-1.1601 two one oh 
-0.4960 two one seven 
-1.5607 two one six 
-2.1763 two one sixty 
-0.7118 two one three 
-1.3158 two one two 
-0.4789 two seven </s> 
-1.4951 two seven eight 
-1.4951 two seven nine 
-0.8795 two seven one 
-1.4951 two seven six 
-1.4951 two seven two 
-0.7263 two six </s> 
-0.1765 two six eight 
-1.8568 two six oh 
-1.8568 two six six 
-0.4951 two ten </s> 
-0.1805 two thirty one 
-0.9587 two three </s> 
-1.5742 two three eight 
-1.5742 two three five 
-1.5742 two three four 
-1.5742 two three nine 
-0.3533 two three two 
-0.7961 two twenty four 
-0.7961 two twenty six 
-1.2944 two two </s> 
-1.9100 two two five 
-1.9100 two two four 
-1.0495 two two nine 
-1.0495 two two oh 
-0.6143 two two one 
-1.2944 two two seven 
-1.2944 two two six 
-1.9100 two two three 
-1.2944 two two two 
-1.2944 two two zero 
-0.4127 two zero </s> 
-0.6576 two zero seven 
-1.2732 two zero six 
-0.0143 yes </s> <s> 
-0.0306 zero </s> <s> 
-0.4951 zero eight two 
-0.4951 zero five seven 
-0.4951 zero four one 
-0.1805 zero one five 
-0.7961 zero seven </s> 
-0.7961 zero seven nine 
-0.4127 zero six </s> 
-1.2732 zero six five 
-1.2732 zero six four 
-1.2732 zero six six 
-0.7961 zero two </s> 
-0.7961 zero two seven 
-0.4951 zero zero six 

\end\
