#############################################################################
## Copyright (c) 1996, Carnegie Mellon University, Cambridge University,
## Ronald Rosenfeld and Philip Clarkson
#############################################################################
=============================================================================
===============  This file was produced by the CMU-Cambridge  ===============
===============     Statistical Language Modeling Toolkit     ===============
=============================================================================
This is a 3-gram language model, based on a vocabulary of 101 words,
  which begins "<s>", "a", "and"...
This is an OPEN-vocabulary model (type 1)
  (OOVs were mapped to UNK, which is treated as any other vocabulary word)
Absolute discounting was applied.
1-gram discounting constant : 0.428571
2-gram discounting constant : 0.548485
3-gram discounting constant : 0.801411
This file is in the ARPA-standard format introduced by Doug Paul.

p(wd3|wd1,wd2)= if(trigram exists)           p_3(wd1,wd2,wd3)
                else if(bigram w1,w2 exists) bo_wt_2(w1,w2)*p(wd3|wd2)
                else                         p(wd3|w2)

p(wd2|wd1)= if(bigram exists) p_2(wd1,wd2)
            else              bo_wt_1(wd1)*p_1(wd2)

All probs and back-off weights (bo_wt) are given in log10 form.

Data formats:

Beginning of data mark: \data\
ngram 1=nr            # number of 1-grams
ngram 2=nr            # number of 2-grams
ngram 3=nr            # number of 3-grams

\1-grams:
p_1     wd_1 bo_wt_1
\2-grams:
p_2     wd_1 wd_2 bo_wt_2
\3-grams:
p_3     wd_1 wd_2 wd_3 

end of data mark: \end\

\data\
ngram 1=102
ngram 2=1528
ngram 3=3796

\1-grams:
-3.9753 <UNK>	-0.2592
-98.9966 <s>	0.0000
-1.4110 a	-0.4975
-2.8531 and	-0.4341
-3.9753 apostrophe	-0.2489
-3.9753 april	-0.2606
-3.9753 area	-0.2608
-3.1794 august	-0.5587
-1.6583 b	-0.4471
-1.8597 c	-0.3237
-3.9753 code	-0.2473
-1.7298 d	-0.2532
-3.9753 december	-0.2608
-1.3368 e	-0.3934
-1.5488 eight	-0.2847
-3.9753 eighteen	-0.2607
-3.9753 eighteenth	-0.2584
-3.9753 eighth	-0.2584
-2.5688 eighty	-0.3580
-3.1794 eleven	-0.2322
-3.9753 eleventh	-0.2584
-1.8102 enter	-0.6939
-2.2195 erase	-0.2006
-1.9222 f	-0.2189
-3.5360 february	-0.2584
-3.0722 fifteen	-0.2239
-3.5360 fifteenth	-0.5595
-3.5360 fifth	-0.2461
-2.1812 fifty	-0.5548
-3.3221 first	-0.7356
-1.4279 five	-0.4501
-2.3079 forty	-0.5843
-1.5133 four	-0.4456
-2.7992 fourteen	-0.3972
-3.9753 fourth	-0.2584
-1.6732 g	-0.4590
-2.7513 go	-0.3056
-1.5662 h	-0.3488
-3.5360 half	-0.2435
-2.6689 help	-0.3190
-2.6689 hundred	-0.5362
-1.5159 i	-0.7076
-2.0549 j	-0.1597
-3.5360 january	-0.2606
-3.3221 july	-0.2574
-3.5360 june	-0.2577
-1.8899 k	-0.0277
-1.5906 l	-0.2005
-1.7850 m	-0.3284
-3.3221 march	-0.2575
-3.3221 may	-0.2552
-1.5107 n	-0.3058
-1.6886 nine	-0.0782
-2.2614 nineteen	-1.0228
-2.7513 ninety	-0.3835
-3.5360 ninth	-0.2549
-2.5400 no	-0.2872
-1.5348 o	-0.4051
-3.3221 october	-0.2573
-3.5360 of	-0.2547
-1.8961 oh	-0.8075
-1.2905 one	-0.1031
-1.7342 p	-0.5566
-2.2614 q	-0.1569
-1.3848 r	-0.7203
-2.5129 repeat	-0.2700
-1.9646 rubout	-0.3320
-1.5545 s	-0.6736
-3.5360 second	-0.5595
-3.0722 september	-0.2549
-1.5783 seven	-0.3368
-3.0722 seventeen	-0.3403
-3.9753 seventh	-0.2584
-2.3245 seventy	-0.4264
-1.5186 six	-0.2441
-3.3221 sixteen	-0.4290
-3.9753 sixteenth	-0.2584
-3.9753 sixth	-0.2584
-1.8776 sixty	-0.7446
-2.7082 start	-0.4106
-2.5400 stop	-0.4722
-1.4193 t	-0.6937
-2.5997 ten	-0.1497
-3.3221 third	-0.7356
-3.3221 thirtieth	-0.7356
-2.1936 thirty	-0.4796
-2.7992 thousand	-0.2023
-1.6098 three	-0.3627
-3.5360 twelfth	-0.5595
-2.7992 twelve	-0.2655
-3.9753 twentieth	-0.2584
-2.1460 twenty	-0.4321
-1.3114 two	-0.5357
-1.7046 u	-0.3242
-1.9290 v	-0.4664
-1.8776 w	-0.2220
-2.2330 x	0.0278
-1.9290 y	0.1003
-2.4190 yes	-0.3768
-2.0832 z	-0.0083
-2.1812 zero	-0.1457
-3.9753 </s>	0.0000

\2-grams:
-0.3453 <UNK> yes -0.0650
-1.7842 a a -0.0049
-1.9328 a b -0.0526
-1.2634 a c -0.0444
-1.3467 a d -0.0173
-1.9328 a e -0.2303
-1.9328 a f -0.0128
-2.6675 a fifty -0.0388
-2.6675 a five -0.0798
-1.7842 a g -0.1759
-1.7842 a h -0.1765
-2.1604 a half 0.1647
-1.9328 a i -0.0623
-2.6675 a j -0.0734
-1.9328 a k -0.0877
-1.1934 a l 0.0359
-1.2270 a m -0.1573
-0.9339 a n 0.0970
-2.6675 a ninety -0.0280
-1.4500 a one -0.2339
-1.7842 a p 0.2488
-0.7153 a r 0.0982
-1.3467 a s -0.0158
-1.9328 a six -0.0505
-1.3467 a t -0.2184
-2.6675 a three -0.0606
-2.6675 a twenty -0.0797
-2.6675 a two -0.0871
-2.1604 a u -0.0842
-1.2634 a v -0.2749
-1.9328 a w -0.0754
-2.6675 a x -0.0760
-1.6737 a y -0.1366
-2.6675 a z -0.0819
-0.7413 and a -0.3942
-0.5137 and eighty -0.1003
-1.2484 and fifty -0.0524
-1.2484 and sixty -0.0811
-1.2484 and twenty -0.0435
-0.3453 apostrophe h -0.0207
-0.3453 april thirtieth 0.6418
-0.3453 area code 0.1647
-0.9474 august sixteenth 0.1647
-0.2126 august twenty -0.2505
-1.2659 b a -0.2022
-2.4209 b b -0.0871
-2.4209 b d -0.0855
-1.0564 b e -0.1288
-2.4209 b eight -0.0745
-2.4209 b five -0.0930
-1.9137 b forty -0.0091
-2.4209 b g -0.0630
-2.4209 b h -0.0918
-2.4209 b i -0.0357
-1.9137 b j -0.0786
-2.4209 b k -0.0870
-2.4209 b l -0.0519
-1.6861 b m -0.0312
-1.4270 b o -0.2321
-2.4209 b one -0.0827
-2.4209 b p -0.0942
-1.0564 b r -0.2538
-1.6861 b s -0.2239
-1.9137 b seven -0.0584
-1.9137 b seventy -0.3542
-2.4209 b six -0.0732
-0.3641 b u -1.2068
-2.4209 b v -0.0500
-2.4209 b w -0.0873
-1.6861 b x -0.0774
-2.4209 b y -0.0862
-2.4209 b z -0.0918
-1.0654 c a -0.0560
-1.4856 c b -0.0319
-2.2204 c c -0.0032
-2.2204 c d -0.0582
-1.0654 c e -0.0707
-2.2204 c f -0.0794
-2.2204 c fifty -0.0248
-1.7132 c five -0.0558
-0.7151 c h -0.2591
-2.2204 c i -0.0357
-2.2204 c j -0.0828
-0.9481 c k -0.0831
-1.4856 c l -0.0346
-2.2204 c m -0.0840
-1.1385 c o -0.2141
-2.2204 c r -0.0712
-2.2204 c s -0.0919
-2.2204 c seven -0.0793
-2.2204 c t -0.0909
-1.7132 c thirty -0.3236
-2.2204 c two -0.0921
-2.2204 c u -0.0943
-2.2204 c v -0.0792
-1.7132 c w -0.0524
-1.7132 c y -0.0760
-1.4856 c z -0.0829
-0.3453 code four -0.0360
-0.9851 d a -0.2394
-1.8425 d b -0.0663
-2.3496 d c -0.0935
-1.4663 d d -0.1741
-1.1321 d e -0.2089
-1.8425 d f -0.0398
-2.3496 d five -0.0952
-2.3496 d forty -0.0367
-2.3496 d fourteen -0.0738
-2.3496 d h -0.0736
-1.6149 d i 0.2202
-1.8425 d j -0.0392
-1.6149 d k -0.0683
-2.3496 d l -0.0006
-1.8425 d m -0.0868
-2.3496 d n -0.0394
-1.0774 d o 0.0648
-2.3496 d oh -0.0869
-1.4663 d one -0.0554
-1.0774 d p -0.4404
-1.8425 d q -0.0677
-1.0774 d r 0.0068
-1.4663 d s -0.0006
-1.8425 d sixty 0.0201
-2.3496 d t -0.0867
-1.8425 d two -0.0383
-2.3496 d u -0.0861
-2.3496 d v -0.0862
-1.1321 d w -0.1126
-1.6149 d y -0.0507
-2.3496 d z -0.0918
-0.3453 december eighteenth 0.1647
-1.1800 e a 0.0057
-1.8582 e b -0.1735
-2.2344 e c 0.0001
-1.5240 e d 0.0589
-1.3770 e e 0.0958
-2.2344 e eight -0.0579
-2.0068 e f -0.0440
-2.7415 e fifty -0.0248
-2.0068 e four -0.0569
-1.6597 e g -0.2036
-2.7415 e h -0.0918
-1.8582 e i -0.3589
-1.8582 e j -0.3190
-2.7415 e k -0.0870
-1.0647 e l 0.0734
-1.7477 e m -0.1081
-0.9905 e n -0.1001
-2.7415 e nine -0.0824
-2.2344 e o -0.0767
-1.4693 e one 0.0793
-1.1302 e p -0.2230
-2.7415 e q -0.0746
-0.8986 e r -0.0163
-1.3770 e s 0.2058
-2.7415 e seven -0.0948
-2.7415 e seventy -0.0885
-1.5240 e t -0.3594
-2.7415 e thirty -0.0226
-2.2344 e three -0.0554
-2.7415 e two -0.0752
-2.0068 e u -0.0781
-1.4207 e v -0.3267
-1.1800 e w 0.0945
-2.7415 e x -0.0760
-1.6597 e y -0.0000
-2.0068 e z -0.0300
-2.5300 eight a -0.0674
-2.5300 eight april 0.1647
-2.5300 eight august -0.0441
-2.0229 eight b 0.2228
-2.5300 eight c -0.0817
-2.5300 eight e -0.0918
-1.4482 eight eight -0.1375
-1.3124 eight enter -0.0235
-1.7953 eight erase -0.0496
-2.5300 eight f -0.0433
-1.2092 eight five 0.0023
-2.5300 eight forty -0.0721
-0.9957 eight four -0.1085
-2.5300 eight fourteen 0.0420
-2.0229 eight g -0.3640
-1.7953 eight hundred 0.0996
-2.5300 eight j -0.0828
-2.5300 eight june 0.0150
-2.5300 eight k -0.0870
-2.5300 eight l -0.0006
-2.5300 eight n -0.0924
-1.4482 eight nine -0.0926
-2.0229 eight o -0.0531
-1.4482 eight oh 0.2075
-1.3750 eight one -0.0577
-2.5300 eight q -0.0896
-2.0229 eight repeat 0.0171
-1.6467 eight rubout -0.1716
-2.5300 eight s -0.0742
-1.3124 eight seven 0.0063
-2.0229 eight seventy -0.2505
-1.3750 eight six 0.0294
-1.7953 eight sixty 0.0924
-2.5300 eight stop -0.0548
-2.5300 eight ten -0.0819
-2.5300 eight thirty -0.0511
-2.5300 eight thousand -0.0738
-0.9957 eight three 0.0392
-2.5300 eight twelve -0.0738
-2.0229 eight twenty -0.0249
-1.0895 eight two 0.1407
-2.5300 eight x -0.0900
-1.6467 eight zero 0.0100
-0.3453 eighteen february 0.0150
-0.3453 eighteenth nineteen -0.0746
-0.3453 eighth nineteen -0.0746
-1.5214 eighty eight -0.0920
-1.5214 eighty fifth 0.0150
-1.5214 eighty five -0.0952
-1.5214 eighty four -0.0950
-0.7867 eighty nine -0.0705
-1.5214 eighty one -0.0954
-1.5214 eighty seven -0.0948
-0.5276 eighty six -0.1520
-1.5214 eighty three -0.0914
-0.9474 eleven nine -0.0944
-0.9474 eleven o -0.0723
-0.9474 eleven seventeen 0.0528
-0.9474 eleven sixty -0.0280
-0.3453 eleventh nineteen 0.4491
-1.0520 enter eight 0.0699
-2.2696 enter eighty -0.0186
-2.2696 enter fifteen -0.0550
-1.2758 enter fifty -0.0380
-1.1878 enter five 0.0897
-1.5348 enter forty 0.0646
-1.1878 enter four -0.1448
-2.2696 enter fourteen -0.0198
-1.3863 enter nine -0.0728
-1.5348 enter ninety 0.1522
-1.3863 enter one -0.0739
-0.9973 enter seven -0.0050
-1.3863 enter seventy 0.0282
-1.0520 enter six 0.0719
-1.0520 enter sixty 0.0144
-1.5348 enter thirty 0.0389
-1.7625 enter three -0.0932
-2.2696 enter twenty -0.0559
-1.1878 enter two -0.0816
-2.2696 enter zero -0.0907
-1.8638 erase a -0.0674
-1.8638 erase b -0.0871
-1.3567 erase c -0.0279
-1.3567 erase e -0.0928
-1.8638 erase f -0.0863
-1.3567 erase g 0.1715
-1.3567 erase i -0.0721
-1.3567 erase j -0.0879
-1.8638 erase k -0.0807
-1.8638 erase m -0.0890
-1.8638 erase n -0.0681
-1.1291 erase o -0.2557
-1.3567 erase q -0.0519
-1.8638 erase r -0.0854
-1.3567 erase s -0.0758
-1.8638 erase t -0.0909
-1.1291 erase v -0.0728
-1.3567 erase w -0.0655
-1.8638 erase x -0.0900
-1.8638 erase y -0.0862
-1.8638 erase z -0.0819
-2.1582 f a -0.0032
-1.6511 f b -0.0702
-2.1582 f d -0.0629
-0.9407 f e 0.1257
-2.1582 f eight -0.0920
-1.4235 f f -0.0588
-1.6511 f five -0.0766
-2.1582 f four -0.0735
-2.1582 f g -0.0671
-1.6511 f h -0.0845
-1.0033 f i -0.0258
-1.6511 f j -0.0786
-1.6511 f k -0.0646
-1.6511 f m -0.0917
-1.1644 f o -0.2517
-2.1582 f q -0.0591
-1.1644 f r -0.2043
-2.1582 f s -0.0619
-2.1582 f six -0.0949
-1.2749 f t -0.1712
-2.1582 f thirty -0.0646
-2.1582 f twenty -0.0679
-1.4235 f two -0.0613
-2.1582 f v -0.0931
-1.2749 f x -0.0255
-1.6511 f y -0.0760
-2.1582 f z -0.0918
-0.6464 february eighth 0.1647
-0.6464 february nineteen -0.0591
-1.0443 fifteen enter -0.0558
-1.0443 fifteen m 0.0172
-1.0443 fifteen n -0.0394
-1.0443 fifteen nineteen -0.0591
-1.0443 fifteen sixty -0.0684
-0.1392 fifteenth nineteen 0.1481
-0.6464 fifth nineteen 0.4491
-0.6464 fifth s -0.0428
-1.9016 fifty b 0.1498
-0.8198 fifty eight -0.1201
-1.0183 fifty five -0.0584
-1.1669 fifty four -0.0710
-1.9016 fifty nine -0.0864
-0.9078 fifty one -0.0814
-1.9016 fifty rubout -0.0700
-1.3945 fifty seven -0.0872
-0.8198 fifty six -0.0553
-1.9016 fifty sixty -0.0554
-1.3945 fifty three -0.0832
-1.0183 fifty two -0.0898
-0.0877 first nineteen -0.0280
-2.6507 five a -0.0868
-2.1435 five b -0.3573
-2.6507 five c -0.0634
-2.6507 five d -0.0582
-2.6507 five e -0.0570
-1.5688 five eight -0.0330
-1.3784 five enter -0.1060
-2.1435 five erase -0.0415
-1.9159 five f -0.0046
-1.4331 five five 0.1433
-2.6507 five forty -0.0367
-1.5688 five four -0.0749
-2.6507 five g -0.0630
-2.6507 five h -0.0577
-2.1435 five help -0.0212
-2.1435 five hundred 0.2757
-2.6507 five j -0.0828
-2.6507 five k -0.0742
-1.9159 five m -0.1089
-2.6507 five may -0.0253
-1.3784 five nine 0.0444
-2.6507 five ninth 0.0150
-2.6507 five no -0.0837
-2.6507 five october -0.0253
-1.4331 five oh 0.2401
-1.1454 five one -0.0152
-2.6507 five p -0.0854
-2.6507 five q -0.0746
-2.1435 five repeat -0.0724
-2.1435 five rubout -0.0819
-1.5688 five seven -0.1932
-1.4331 five six -0.1673
-2.6507 five sixteen 0.1911
-2.6507 five t -0.0600
-2.6507 five ten -0.0819
-1.9159 five thirty 0.1126
-1.3298 five three -0.1401
-2.6507 five twenty -0.0435
-0.4700 five two -0.2328
-1.9159 five yes 0.0604
-1.6568 five zero -0.0550
-1.0419 forty eight -0.2462
-0.8934 forty five -0.0700
-1.0419 forty four -0.0682
-1.0419 forty nine -0.0908
-1.2695 forty one -0.0932
-0.8934 forty seven -0.1785
-1.7767 forty six -0.0842
-0.8934 forty three -0.0699
-1.0419 forty two -0.0906
-2.5654 four and -0.0092
-2.5654 four august 0.3160
-2.5654 four b -0.0562
-2.5654 four d -0.0487
-1.2446 four eight -0.0869
-2.5654 four eleven -0.0441
-1.4836 four enter 0.0337
-2.0583 four erase -0.0415
-2.5654 four f -0.0507
-2.0583 four fifty 0.0436
-1.4104 four five 0.1963
-2.0583 four forty -0.0091
-0.9783 four four 0.0471
-2.5654 four h -0.0858
-2.5654 four help -0.0795
-2.0583 four january 0.1647
-2.5654 four l -0.0820
-2.5654 four march -0.0253
-1.6821 four nine -0.0385
-2.5654 four ninety -0.0761
-1.8307 four no -0.1853
-1.4836 four oh 0.1901
-0.8887 four one -0.3340
-2.5654 four r -0.0544
-1.8307 four repeat -0.0601
-1.4836 four rubout -0.0552
-2.0583 four s -0.0877
-2.5654 four september -0.0550
-1.2932 four seven 0.0240
-2.5654 four seventy 0.0505
-1.2009 four six 0.0541
-2.0583 four sixty 0.0046
-2.5654 four start -0.0347
-1.8307 four stop -0.3923
-2.5654 four thirty -0.0777
-1.8307 four thousand 0.0356
-1.5716 four three 0.0160
-2.5654 four twelve -0.0738
-2.0583 four twenty -0.0249
-1.0311 four two -0.1536
-2.5654 four x -0.0900
-2.5654 four z -0.0718
-2.5654 four zero -0.0783
-1.2996 fourteen a -0.0910
-1.2996 fourteen eighty -0.0829
-1.2996 fourteen fourteen -0.0738
-0.7924 fourteen repeat -0.0724
-1.2996 fourteen s -0.0619
-0.5648 fourteen sixty 0.0741
-0.3453 fourth nineteen -0.0746
-1.1338 g a -0.1838
-2.4060 g b -0.0908
-1.8989 g c -0.0909
-1.6713 g d -0.1978
-1.8989 g e -0.0730
-2.4060 g eighty 0.0568
-2.4060 g forty -0.0548
-0.3493 g h -0.7713
-1.1885 g i -0.0691
-1.8989 g j -0.0786
-1.8989 g k -0.0842
-1.1338 g l -0.0991
-2.4060 g m 0.0172
-1.5227 g n -0.0354
-1.8989 g nine -0.0425
-2.4060 g o -0.0809
-2.4060 g one 0.0377
-2.4060 g p -0.0898
-2.4060 g q -0.0896
-1.8989 g r 0.0015
-2.4060 g s -0.0711
-2.4060 g seventy -0.0531
-2.4060 g t -0.0845
-1.8989 g two -0.0947
-2.4060 g u -0.0943
-1.8989 g v -0.0389
-1.8989 g w -0.0456
-1.3453 go enter -0.0886
-1.3453 go g -0.0906
-1.3453 go h -0.0577
-1.3453 go l -0.0884
-0.8382 go repeat 0.0171
-1.3453 go rubout -0.0777
-1.3453 go x -0.0900
-0.8382 go yes -0.0771
-0.7971 h a 0.0353
-1.6293 h b -0.0588
-1.2951 h e -0.0160
-1.7779 h f 0.0122
-2.5126 h fifty -0.0524
-2.5126 h four -0.0816
-2.0055 h g -0.0889
-2.5126 h h -0.0918
-1.4308 h i 0.1459
-2.0055 h k -0.0646
-2.0055 h l 0.0552
-1.6293 h n -0.0443
-2.5126 h nine -0.0824
-1.0721 h o 0.2236
-0.4911 h one -1.3394
-1.7779 h p 0.0110
-2.5126 h q -0.0896
-1.7779 h r -0.2338
-2.5126 h s -0.0711
-2.5126 h seven -0.0664
-2.5126 h seventy -0.0531
-2.5126 h six -0.0896
-1.6293 h t 0.0041
-2.5126 h three -0.0914
-2.0055 h two -0.0513
-2.0055 h u 0.2164
-2.5126 h v 0.0915
-2.5126 h w -0.0419
-2.5126 h x -0.0900
-1.7779 h y -0.0195
-2.5126 h z -0.0615
-0.6464 half f -0.0653
-0.6464 half h -0.0577
-1.4245 help a -0.0761
-1.4245 help b -0.0908
-0.6897 help enter -0.1874
-0.9174 help go -0.0045
-1.4245 help help -0.0795
-1.4245 help j -0.0828
-1.4245 help n -0.0394
-1.4245 help rubout -0.0700
-1.4245 help v 0.0915
-0.3427 hundred and 0.0082
-0.9174 hundred eighty -0.0692
-1.4245 hundred forty -0.0548
-1.4245 hundred s -0.0890
-1.4245 hundred twenty -0.0435
-1.4245 hundred w -0.0934
-1.6795 i a -0.1180
-1.8280 i b -0.2615
-1.0576 i c -0.0429
-1.5690 i d -0.0096
-1.2905 i e 0.0515
-1.6795 i f -0.1040
-2.5628 i fifteen -0.0550
-2.0557 i five -0.0810
-2.5628 i four -0.0816
-1.6795 i g 0.1183
-2.5628 i j -0.0335
-2.0557 i k -0.0842
-1.2420 i l -0.0711
-1.4810 i m -0.0235
-0.8860 i n -0.1216
-2.5628 i o -0.0780
-1.8280 i p -0.0630
-1.8280 i q -0.0446
-1.8280 i r -0.0023
-1.4810 i s -0.0853
-2.5628 i sixty -0.0487
-0.5233 i t -0.9938
-2.5628 i thirty -0.0511
-2.5628 i u 0.2045
-1.4810 i v -0.0774
-2.5628 i y -0.0931
-1.2918 j a -0.1883
-2.0266 j b -0.0871
-1.5194 j c 0.0148
-2.0266 j d -0.0899
-1.0327 j e -0.0917
-2.0266 j five -0.0843
-1.5194 j four -0.0885
-2.0266 j g -0.0944
-1.5194 j h -0.0814
-2.0266 j j -0.0828
-1.5194 j k -0.0842
-2.0266 j l -0.0820
-2.0266 j m -0.0939
-2.0266 j n -0.0871
-0.8716 j o -0.1291
-1.5194 j one 0.0429
-1.5194 j q -0.0677
-2.0266 j s -0.0711
-1.2918 j seven -0.0365
-2.0266 j t -0.0931
-1.5194 j u -0.0842
-1.5194 j v -0.0900
-2.0266 j w -0.0873
-2.0266 j x -0.0900
-1.5194 j z -0.0567
-0.6464 january fifteenth 0.4657
-0.6464 january twelfth 0.4657
-0.8224 july thirtieth 0.6418
-0.8224 july twelfth 0.4657
-0.8224 july twenty -0.0559
-0.6464 june eleventh 0.1647
-0.6464 june twenty -0.0797
-1.1966 k a -0.3974
-2.1904 k c -0.0877
-2.1904 k d -0.0487
-0.9729 k e 0.1155
-2.1904 k eight -0.0685
-2.1904 k eighty -0.0829
-1.6833 k f -0.0832
-2.1904 k fifty -0.0783
-1.6833 k h 0.1898
-1.3071 k i -0.1424
-1.4557 k j -0.0345
-1.6833 k k -0.0579
-1.6833 k l 0.0051
-2.1904 k m -0.0939
-2.1904 k nine -0.0904
-2.1904 k ninety -0.0280
-2.1904 k o -0.0949
-1.6833 k one -0.3756
-1.6833 k p 0.1955
-2.1904 k r -0.0544
-1.6833 k s -0.0818
-2.1904 k seven -0.0855
-1.3071 k six -0.0280
-1.4557 k t -0.0415
-1.6833 k three -0.0590
-2.1904 k twenty -0.0435
-1.6833 k two -0.0744
-1.6833 k u -0.0758
-2.1904 k v -0.0931
-1.3071 k w -0.0037
-1.6833 k x -0.0548
-1.6833 k y -0.0615
-1.6833 k z -0.0567
-1.0142 l a -0.0786
-2.4883 l b -0.0562
-1.9812 l c 0.0148
-1.1238 l d 0.1072
-0.7044 l e 0.2224
-2.4883 l eight -0.0499
-1.7536 l f -0.0364
-1.9812 l fifty -0.0184
-1.9812 l five 0.1085
-1.7536 l g -0.2076
-2.4883 l h -0.0858
-1.0842 l i -0.1207
-2.4883 l j -0.0828
-1.6050 l k -0.0233
-0.9012 l l -0.0408
-1.9812 l m -0.0281
-2.4883 l n -0.0790
-2.4883 l nine -0.0824
-1.4945 l o 0.1901
-2.4883 l one -0.0778
-2.4883 l p 0.1751
-1.7536 l r -0.0610
-1.7536 l s -0.0333
-2.4883 l seventy -0.0531
-2.4883 l six -0.0675
-2.4883 l t -0.0909
-2.4883 l ten -0.0819
-2.4883 l thirty 0.0078
-1.9812 l three -0.0730
-2.4883 l two -0.0837
-1.7536 l u -0.0696
-1.4945 l y -0.0515
-1.9812 l z -0.0567
-2.4883 l zero -0.0655
-0.6387 m a -0.0622
-1.7876 m b -0.0544
-2.2947 m c -0.0442
-2.2947 m d -0.0899
-1.0771 m e -0.1489
-1.7876 m eight -0.3509
-2.2947 m f -0.0931
-2.2947 m fifty -0.0655
-2.2947 m forty -0.0367
-2.2947 m four -0.0950
-2.2947 m g -0.0906
-1.7876 m h -0.0875
-1.2129 m i -0.0379
-1.7876 m j -0.0593
-2.2947 m k -0.0933
-1.5600 m m -0.0369
-1.4114 m n 0.0087
-0.9302 m o -0.2165
-1.4114 m p -0.1784
-2.2947 m q -0.0591
-1.5600 m s -0.0198
-2.2947 m seven -0.0664
-2.2947 m t -0.0888
-2.2947 m thirty -0.0777
-2.2947 m two -0.0921
-1.5600 m u -0.0781
-1.7876 m v -0.0830
-2.2947 m x -0.0900
-1.7876 m y -0.0830
-0.8224 march third 0.6418
-0.8224 march twentieth 0.1647
-0.8224 march twenty -0.0911
-0.8224 may nineteen -0.0746
-0.8224 may ninth 0.0150
-0.8224 may twenty -0.0911
-1.2035 n a 0.0153
-1.6847 n b 0.2145
-1.3505 n c 0.0791
-1.1275 n d -0.1377
-0.9120 n e 0.0387
-2.5680 n eight -0.0949
-2.5680 n f -0.0433
-1.8333 n five -0.2224
-2.0609 n four -0.0317
-1.3505 n g 0.2178
-2.0609 n h -0.0562
-1.2035 n i -0.1077
-2.0609 n j -0.0392
-1.8333 n k -0.1913
-2.0609 n l -0.0363
-1.8333 n m 0.0564
-1.2958 n n -0.0153
-1.6847 n o -0.0154
-1.4862 n one 0.0720
-1.3505 n p 0.0208
-1.6847 n r 0.1723
-1.4131 n s 0.0190
-2.5680 n seventy 0.0505
-2.0609 n six -0.0747
-1.2035 n t -0.1956
-2.0609 n thirty -0.0306
-1.8333 n three -0.0502
-2.0609 n two -0.0288
-1.5742 n u -0.4694
-2.0609 n x -0.0837
-1.8333 n y -0.0655
-1.8333 n z -0.0411
-1.8835 nine a -0.0597
-2.3907 nine and -0.0092
-2.3907 nine august 0.3160
-1.6559 nine b -0.0485
-1.6559 nine eight -0.0242
-2.3907 nine eighty -0.0186
-2.3907 nine eleven -0.0441
-1.5073 nine enter 0.0486
-1.5073 nine erase -0.0429
-2.3907 nine f -0.0863
-1.8835 nine fifty -0.0184
-1.1731 nine five 0.1742
-2.3907 nine forty -0.0367
-1.5073 nine four -0.0289
-2.3907 nine g -0.0906
-2.3907 nine go -0.0280
-2.3907 nine help 0.0031
-2.3907 nine hundred -0.0795
-2.3907 nine j -0.0828
-2.3907 nine july -0.0253
-2.3907 nine june 0.0150
-1.8835 nine m -0.0394
-1.8835 nine n -0.0724
-1.5073 nine nine -0.0728
-2.3907 nine nineteen 0.4491
-1.6559 nine no -0.0577
-2.3907 nine o -0.0780
-2.3907 nine of 0.0150
-2.3907 nine oh -0.0869
-1.3968 nine one -0.0205
-2.3907 nine p -0.0718
-2.3907 nine r -0.0953
-1.6559 nine rubout -0.0548
-1.6559 nine s -0.0058
-2.3907 nine september -0.0550
-1.6559 nine seven -0.0502
-2.3907 nine seventy -0.0343
-1.0698 nine six -0.0441
-2.3907 nine sixty -0.0684
-1.8835 nine thirty -0.0719
-1.3968 nine three -0.1344
-1.8835 nine twenty -0.0378
-1.2357 nine two -0.0254
-1.8835 nine v 0.1069
-2.3907 nine w -0.0554
-2.3907 nine x -0.0900
-1.6559 nine yes 0.0604
-2.3907 nine zero -0.0524
-1.3153 nineteen fifty -0.3534
-1.3153 nineteen forty -0.3558
-1.0877 nineteen seventy -0.0729
-0.1457 nineteen sixty 0.0125
-1.8224 nineteen twenty -0.0435
-0.8382 ninety eight -0.0907
-0.8382 ninety five -0.0899
-0.8382 ninety four -0.0804
-1.3453 ninety one -0.0939
-1.3453 ninety seven -0.0948
-0.8382 ninety six -0.0911
-0.6464 ninth of 0.0150
-0.6464 ninth sixty -0.0684
-1.5494 no c -0.0571
-1.5494 no enter -0.0833
-0.8147 no erase -0.0347
-1.5494 no f -0.0433
-1.5494 no h -0.0577
-1.5494 no help -0.0795
-1.5494 no o -0.0694
-1.5494 no p -0.0718
-0.8147 no rubout -0.0548
-1.5494 no s -0.0428
-1.5494 no start -0.0347
-1.5494 no t -0.0600
-1.3890 o a -0.1549
-2.5440 o apostrophe 0.1647
-1.5501 o b -0.2495
-2.5440 o c -0.0442
-1.2717 o d -0.0828
-2.5440 o e -0.0627
-2.5440 o eight -0.0920
-1.6606 o f -0.0251
-2.5440 o five -0.0776
-2.5440 o forty -0.0888
-2.5440 o four -0.0950
-2.5440 o g -0.0868
-1.6606 o h -0.3824
-2.5440 o j -0.0920
-2.0368 o k -0.0712
-1.2717 o l 0.2765
-1.3890 o m 0.0468
-0.7601 o n 0.1070
-2.5440 o ninety -0.0280
-1.1034 o o -0.1910
-1.8092 o p 0.2639
-2.5440 o q -0.0896
-0.9326 o r -0.0717
-1.5501 o s -0.2241
-2.5440 o six -0.0815
-2.5440 o sixty -0.0684
-1.4621 o t 0.0982
-2.5440 o two -0.0429
-1.2232 o u 0.2754
-1.2717 o w -0.1653
-2.5440 o x -0.0900
-2.0368 o y -0.0760
-2.5440 o z -0.0718
-0.8224 october first 0.6418
-0.8224 october thirtieth 0.6418
-0.8224 october twenty -0.0797
-0.6464 of september -0.0550
-0.6464 of sixty -0.0934
-0.8197 oh eight 0.0672
-1.6770 oh enter -0.0358
-1.1023 oh five -0.1173
-1.4494 oh four -0.2047
-2.1842 oh j -0.0335
-1.4494 oh nine -0.0536
-1.6770 oh oh 0.0429
-1.1903 oh one 0.0893
-0.9119 oh seven 0.0595
-0.7800 oh six -0.0272
-1.1903 oh three 0.0202
-2.1842 oh twelve -0.0198
-0.9119 oh two 0.0109
-2.2807 one a 0.0272
-2.7878 one august 0.3160
-2.2807 one b -0.0779
-2.7878 one c -0.0571
-2.2807 one e -0.0346
-1.5155 one eight 0.1163
-2.7878 one eleven -0.0441
-1.7060 one enter -0.0555
-2.7878 one f -0.0507
-2.7878 one february 0.0150
-2.7878 one fifteen -0.0550
-1.9045 one fifty -0.0565
-0.5765 one five -0.4384
-2.7878 one forty -0.0548
-1.4233 one four -0.1739
-2.0530 one go 0.0205
-2.7878 one h -0.0948
-2.2807 one help -0.0212
-2.2807 one hundred 0.1979
-2.2807 one i -0.0693
-2.7878 one j -0.0734
-2.7878 one july -0.0253
-2.7878 one l -0.0884
-2.7878 one m -0.0419
-2.7878 one n -0.0871
-1.3836 one nine -0.0730
-2.7878 one ninety -0.0280
-1.3137 one oh 0.4067
-1.6328 one one 0.0939
-2.7878 one p -0.0809
-2.7878 one r -0.0457
-2.7878 one repeat -0.0574
-1.9045 one rubout -0.0083
-2.7878 one s -0.0948
-1.1110 one seven -0.3199
-2.2807 one seventy -0.0808
-1.6328 one six -0.0100
-2.7878 one sixteen -0.0253
-1.9045 one sixty 0.0115
-2.2807 one start -0.0136
-2.2807 one stop -0.0412
-2.7878 one t -0.0867
-2.2807 one ten -0.0672
-2.2807 one thirty -0.2932
-2.2807 one thousand -0.0502
-1.3137 one three -0.3724
-2.2807 one twenty -0.0744
-0.9734 one two -0.1270
-2.7878 one u -0.0734
-2.7878 one w -0.0554
-2.7878 one y -0.0862
-2.7878 one yes -0.0650
-2.7878 one z -0.0918
-1.7940 one zero 0.0495
-1.4620 p a 0.0641
-2.3453 p b -0.0945
-2.3453 p c -0.0935
-1.8382 p d -0.0835
-1.8382 p e -0.0346
-2.3453 p eight -0.0891
-2.3453 p f -0.0863
-2.3453 p forty -0.0367
-2.3453 p four -0.0897
-1.6106 p g -0.3157
-1.2635 p h 0.0690
-0.3330 p i -1.0405
-1.3515 p l -0.3427
-1.8382 p n -0.0073
-2.3453 p ninety -0.0761
-1.2635 p o 0.0116
-1.6106 p r -0.5358
-1.4620 p s -0.0148
-2.3453 p seventeen -0.0550
-1.6106 p t -0.0415
-2.3453 p three -0.0425
-1.6106 p u -0.0652
-2.3453 p y -0.0792
-1.8224 q c -0.0935
-1.0877 q d -0.0679
-1.3153 q e -0.0712
-1.8224 q f -0.0724
-1.3153 q fifty 0.0605
-1.8224 q five -0.0798
-1.8224 q g -0.0944
-1.8224 q i -0.0816
-1.3153 q k -0.0646
-1.0877 q n -0.0820
-1.8224 q one -0.0939
-1.8224 q p -0.0942
-1.0877 q q -0.0280
-1.8224 q six -0.0704
-1.3153 q t -0.0942
-1.8224 q two -0.0752
-1.8224 q u -0.0777
-1.8224 q w -0.0873
-1.8224 q y -0.0862
-1.8224 q z -0.0918
-1.2531 r a -0.1290
-1.6118 r b 0.1948
-1.9589 r c -0.4803
-1.4214 r d -0.1389
-0.9600 r e 0.0389
-2.1865 r f -0.0164
-0.6369 r g -0.5951
-2.6936 r h -0.0948
-1.0823 r i -0.3531
-1.3291 r k -0.0917
-1.4214 r l -0.1614
-2.1865 r m -0.2838
-1.6118 r n -0.1330
-1.0376 r o -0.1413
-2.1865 r one -0.0286
-2.6936 r p 0.1751
-2.6936 r q -0.0896
-1.4214 r r -0.0584
-1.8103 r s -0.3049
-2.6936 r seven -0.0886
-2.6936 r sixty -0.0487
-1.5386 r t -0.1757
-2.1865 r thirty 0.0313
-2.1865 r u -0.0628
-2.1865 r v -0.0900
-2.1865 r w -0.0388
-1.4761 r y -0.0186
-2.1865 r z -0.0567
-1.5758 repeat b -0.0719
-1.5758 repeat enter -0.0558
-1.5758 repeat erase -0.0902
-1.5758 repeat f -0.0507
-1.5758 repeat g -0.0671
-1.5758 repeat l -0.0884
-1.5758 repeat m 0.0172
-0.8410 repeat no -0.0577
-1.5758 repeat o -0.0723
-1.5758 repeat r -0.0953
-1.0686 repeat rubout -0.0585
-1.0686 repeat stop -0.0092
-1.5758 repeat w -0.0748
-2.1162 rubout a -0.0761
-1.3814 rubout c 0.0107
-2.1162 rubout d -0.0899
-1.6090 rubout e -0.0875
-1.2328 rubout f -0.0406
-1.6090 rubout g -0.0889
-1.3814 rubout h -0.0103
-1.6090 rubout i 0.0679
-1.3814 rubout j -0.0743
-2.1162 rubout l -0.0622
-1.3814 rubout m -0.0692
-1.1223 rubout n -0.1441
-1.2328 rubout o -0.0799
-1.6090 rubout p -0.0651
-1.6090 rubout q -0.0186
-1.3814 rubout r -0.0235
-2.1162 rubout s -0.0831
-1.3814 rubout t -0.0847
-1.1223 rubout u -0.1558
-1.6090 rubout v 0.1902
-1.6090 rubout w -0.0783
-2.1162 rubout x -0.0760
-2.1162 rubout y -0.0931
-1.3814 rubout z -0.0519
-1.7895 s a -0.0379
-0.5120 s b -1.1917
-2.5243 s c -0.0571
-1.3067 s e -0.1156
-2.0172 s f -0.0901
-2.5243 s fifty -0.0248
-1.5305 s h -0.0639
-2.5243 s i -0.0896
-1.7895 s j -0.2254
-1.4425 s k -0.0441
-2.0172 s l 0.0091
-1.5305 s m -0.1655
-2.5243 s n -0.0871
-1.1201 s o -0.5513
-1.5305 s one 0.0236
-1.2520 s p 0.0385
-1.5305 s s 0.0082
-2.0172 s seven -0.0841
-0.9371 s t -0.4803
-2.5243 s thirty -0.0226
-1.7895 s u -0.0738
-1.7895 s v 0.0230
-1.6410 s w 0.0966
-2.5243 s x -0.0760
-2.0172 s z -0.0672
-2.5243 s zero -0.0907
-0.1392 second nineteen 0.1481
-1.0443 september fifteenth 0.4657
-1.0443 september first 0.6418
-1.0443 september nineteen 0.4491
-1.0443 september sixth 0.1647
-1.0443 september twenty -0.0911
-2.5007 seven area 0.1647
-2.5007 seven b -0.0562
-1.1798 seven eight 0.0452
-1.9935 seven enter -0.0417
-1.9935 seven erase -0.0562
-2.5007 seven fifteen -0.0550
-2.5007 seven fifty -0.0524
-1.2831 seven five -0.1260
-1.7659 seven forty -0.1651
-0.9664 seven four -0.3076
-1.9935 seven fourteen 0.0730
-1.9935 seven h -0.0120
-2.5007 seven help -0.0795
-2.5007 seven hundred -0.0795
-2.5007 seven j -0.0920
-2.5007 seven l -0.0519
-1.9935 seven m -0.0281
-2.5007 seven may -0.0253
-1.4188 seven nine -0.1724
-2.5007 seven october -0.0253
-1.4188 seven oh 0.1484
-1.4188 seven one -0.0380
-1.7659 seven p 0.2445
-2.5007 seven r -0.0544
-1.1798 seven rubout 0.1009
-1.9935 seven s -0.0848
-1.6173 seven seven -0.0207
-2.5007 seven seventeen 0.0528
-2.5007 seven seventy -0.0343
-1.3457 seven six -0.0138
-1.7659 seven sixty 0.0482
-2.5007 seven start -0.0779
-1.5068 seven stop 0.0476
-1.7659 seven ten -0.0520
-1.9935 seven thirty -0.0448
-2.5007 seven thousand -0.0738
-1.6173 seven three -0.0223
-1.7659 seven twenty -0.2264
-1.4188 seven two 0.1456
-1.9935 seven v -0.0311
-2.5007 seven y -0.0862
-1.6173 seven yes 0.0167
-2.5007 seven z -0.0918
-1.7659 seven zero -0.0402
-1.0443 seventeen enter -0.0558
-0.5371 seventeen fifty -0.0184
-1.0443 seventeen rubout -0.0853
-1.0443 seventeen thirty -0.0777
-0.3453 seventh nineteen 0.4491
-1.7603 seventy eight -0.0949
-1.7603 seventy five -0.0952
-1.7603 seventy g -0.0906
-1.7603 seventy h -0.0207
-1.0255 seventy nine -0.0788
-0.5427 seventy one -0.1990
-1.7603 seventy p -0.0718
-1.7603 seventy rubout -0.0700
-1.0255 seventy seven -0.0732
-1.7603 seventy six -0.0923
-0.8770 seventy two -0.0780
-1.7603 seventy yes -0.0867
-2.5602 six a -0.0761
-2.5602 six b 0.1498
-2.0530 six c -0.0211
-2.5602 six e -0.0883
-0.8265 six eight -0.3061
-2.5602 six eighty -0.0829
-1.2879 six enter 0.1816
-1.5663 six erase 0.0117
-2.5602 six f -0.0931
-1.4783 six five 0.0016
-2.5602 six forty -0.0367
-1.1560 six four 0.0216
-1.8254 six h -0.1772
-2.5602 six hundred -0.0795
-2.5602 six july -0.0253
-2.5602 six k -0.0473
-2.0530 six l 0.0051
-1.4783 six nine -0.1019
-2.0530 six no -0.0092
-1.4783 six oh 0.0456
-1.2879 six one 0.2039
-2.0530 six p -0.0697
-2.5602 six r 0.0178
-2.5602 six rubout -0.0621
-2.5602 six s -0.0831
-2.5602 six september -0.0550
-1.3426 six seven -0.0664
-2.5602 six seventeen -0.0550
-1.1560 six six 0.0856
-2.5602 six sixteen 0.1911
-2.0530 six sixty 0.0444
-2.0530 six start -0.0136
-2.5602 six stop -0.0837
-2.0530 six t -0.0813
-2.5602 six ten -0.0819
-2.0530 six thirty -0.0448
-2.5602 six thousand -0.0198
-1.1957 six three 0.0836
-2.0530 six twelve -0.0502
-2.5602 six twenty -0.0435
-1.2393 six two -0.0762
-2.0530 six v -0.0231
-2.0530 six yes -0.0315
-2.5602 six zero -0.0524
-0.8224 sixteen forty -0.0548
-0.3153 sixteen sixty 0.0046
-0.3453 sixteenth nineteen 0.4491
-0.3453 sixth nineteen 0.4491
-1.2088 sixty eight -0.0505
-1.6955 sixty enter -0.0475
-2.2027 sixty fifty -0.0524
-1.2088 sixty five -0.0667
-1.1208 sixty four -0.0587
-1.6955 sixty help 0.0241
-0.7286 sixty nine -0.1051
-0.9851 sixty one -0.1330
-2.2027 sixty s -0.0919
-0.8382 sixty seven -0.1524
-1.4679 sixty six -0.0678
-2.2027 sixty start -0.0347
-1.0477 sixty three -0.1231
-1.2088 sixty two -0.1662
-2.2027 sixty w -0.0419
-0.8796 start enter -0.0417
-0.8796 start h -0.0530
-1.3867 start i -0.0896
-1.3867 start no -0.0239
-0.8796 start repeat 0.0171
-0.8796 start rubout -0.0664
-1.3867 start y -0.0721
-1.5494 stop d -0.0855
-0.4676 stop enter 0.0351
-1.5494 stop erase -0.0902
-1.5494 stop go -0.0761
-1.5494 stop j -0.0828
-1.0423 stop m -0.2838
-1.5494 stop repeat -0.0845
-1.0423 stop rubout -0.3631
-1.5494 stop yes -0.0650
-2.1520 t a -0.0318
-2.1520 t b -0.0702
-1.9244 t d -0.0245
-0.9824 t e -0.0777
-2.6592 t eighty -0.0829
-2.1520 t f -0.0621
-2.6592 t fifty -0.0907
-2.6592 t forty -0.0367
-2.6592 t four -0.0360
-1.7759 t g -0.0491
-1.0977 t h -0.2218
-1.6654 t i -0.2133
-2.6592 t j -0.0920
-2.1520 t k -0.0777
-1.9244 t l -0.1710
-1.9244 t m -0.4599
-2.1520 t n -0.3404
-1.5773 t o 0.0032
-2.1520 t one 0.0408
-1.4416 t p -0.4233
-2.1520 t q -0.0519
-1.5773 t r -0.4947
-0.6563 t s -1.2879
-2.6592 t seventy -0.0531
-2.6592 t sixty -0.0554
-0.5700 t t -0.4476
-2.6592 t v -0.0346
-2.6592 t w -0.0934
-1.7759 t z -0.0682
-1.4915 ten enter -0.0558
-1.4915 ten f -0.0433
-1.4915 ten h -0.0797
-1.4915 ten m -0.0687
-1.4915 ten o -0.0422
-1.4915 ten one -0.0907
-1.4915 ten rubout -0.0777
-1.4915 ten s -0.0711
-1.4915 ten seventy 0.0505
-1.4915 ten sixty -0.0063
-1.4915 ten ten -0.0819
-1.4915 ten thirty 0.0078
-1.4915 ten twelve -0.0738
-1.4915 ten twenty -0.0435
-0.0877 third nineteen 0.2966
-0.0877 thirtieth nineteen -0.0280
-1.8894 thirty b -0.0562
-1.3822 thirty e -0.3675
-1.1546 thirty eight -0.0718
-1.8894 thirty enter -0.0558
-0.8076 thirty five -0.1412
-1.8894 thirty g -0.0906
-1.3822 thirty nine -0.0724
-0.6718 thirty one -0.0540
-1.3822 thirty seven -0.0650
-1.3822 thirty six -0.0911
-1.8894 thirty sixty -0.0684
-1.3822 thirty three -0.0899
-1.0061 thirty two -0.0693
-0.7924 thousand eight -0.3902
-1.2996 thousand five -0.0930
-1.2996 thousand m -0.0419
-1.2996 thousand nine -0.0904
-1.2996 thousand one -0.0939
-1.2996 thousand p 0.1751
-1.2996 thousand seven -0.0948
-1.2996 thousand three -0.0947
-1.9620 three a -0.0597
-2.4692 three b -0.0945
-1.9620 three d -0.0166
-2.4692 three december 0.1647
-2.4692 three e -0.0918
-1.3873 three eight -0.0310
-2.4692 three eighty 0.0568
-2.4692 three eleven -0.0441
-1.7344 three enter -0.0506
-1.4753 three erase -0.0362
-1.3142 three five 0.0997
-1.9620 three forty 0.0110
-1.1047 three four -0.1658
-2.4692 three fourteen 0.0420
-2.4692 three g -0.0906
-2.4692 three hundred 0.1669
-2.4692 three k -0.0870
-1.9620 three l -0.0740
-2.4692 three march -0.0253
-2.4692 three may -0.0253
-1.5858 three nine -0.1472
-1.9620 three no -0.0092
-1.4753 three oh 0.2018
-1.3873 three one 0.0747
-2.4692 three p -0.0854
-1.5858 three rubout -0.0172
-2.4692 three september -0.0550
-1.3873 three seven -0.0275
-2.4692 three seventeen -0.0550
-1.9620 three seventy 0.0612
-1.1969 three six -0.0410
-1.5858 three sixty -0.1092
-2.4692 three thirty -0.0777
-1.1969 three three -0.0764
-2.4692 three twelve -0.0738
-1.7344 three twenty 0.0379
-0.9349 three two -0.2585
-1.9620 three v -0.0311
-2.4692 three yes -0.0867
-1.5858 three zero 0.0589
-0.1392 twelfth nineteen 0.1481
-1.2996 twelve enter -0.0670
-1.2996 twelve fifty -0.0248
-1.2996 twelve four -0.0923
-1.2996 twelve nine -0.0944
-1.2996 twelve nineteen 0.4491
-1.2996 twelve sixty -0.0280
-1.2996 twelve ten -0.0819
-0.7924 twelve twenty -0.0503
-0.3453 twentieth nineteen -0.0591
-0.9426 twenty eight -0.1792
-1.9364 twenty enter -0.0558
-1.9364 twenty fifth 0.0150
-1.9364 twenty first 0.6418
-1.9364 twenty five -0.0952
-1.2016 twenty four -0.0737
-1.9364 twenty fourth 0.1647
-1.0531 twenty nine -0.0645
-1.4292 twenty one -0.0820
-1.4292 twenty second 0.1647
-1.4292 twenty seven -0.0584
-1.9364 twenty seventh 0.1647
-0.9426 twenty six -0.0566
-1.9364 twenty t -0.0931
-1.4292 twenty third 0.3408
-0.9426 twenty three -0.0505
-1.4292 twenty two -0.0930
-2.2598 two a -0.0483
-2.2598 two b -0.0123
-2.7669 two c -0.0817
-2.7669 two d -0.0810
-2.7669 two e -0.0665
-1.3264 two eight -0.0795
-2.7669 two eighteen 0.1647
-2.7669 two eighty -0.0186
-1.5494 two enter 0.0904
-2.2598 two erase -0.0415
-2.7669 two fifteen -0.0550
-2.7669 two fifty -0.0783
-1.2928 two five 0.0831
-1.1327 two four -0.1570
-2.7669 two fourteen -0.0198
-2.7669 two g -0.0944
-2.7669 two go -0.0761
-2.7669 two help 0.0031
-2.7669 two hundred 0.1669
-2.0322 two m -0.0870
-2.7669 two march -0.0253
-2.7669 two n -0.0394
-1.5494 two nine -0.0475
-2.7669 two no -0.0239
-2.7669 two o -0.0780
-2.7669 two october -0.0253
-1.3627 two oh 0.3089
-0.7274 two one -0.2845
-2.7669 two p -0.0718
-2.2598 two repeat -0.0724
-1.6851 two rubout -0.0742
-1.3627 two seven 0.0331
-1.0159 two six -0.4034
-2.7669 two sixty -0.0934
-2.0322 two start -0.1392
-2.2598 two stop 0.1038
-2.2598 two ten -0.0672
-2.0322 two thirty -0.1448
-2.7669 two thousand -0.0738
-1.3264 two three -0.1196
-2.7669 two twelve -0.0738
-2.2598 two twenty -0.0115
-0.9380 two two 0.1084
-2.7669 two v -0.0931
-1.6851 two zero -0.0462
-1.8676 u a 0.0031
-2.3747 u b -0.0945
-2.3747 u c -0.0442
-2.3747 u d -0.0629
-1.3809 u e -0.2635
-2.3747 u eighty 0.0568
-1.8676 u f -0.0763
-1.8676 u five 0.1120
-1.6399 u four -0.0511
-1.6399 u g -0.0115
-2.3747 u i -0.0896
-1.8676 u j -0.0287
-2.3747 u k -0.0473
-1.6399 u l -0.1978
-1.6399 u m -0.0369
-1.6399 u n -0.0337
-2.3747 u o -0.0694
-2.3747 u one -0.0907
-2.3747 u p 0.1751
-2.3747 u q -0.0896
-0.3014 u r -0.7173
-1.2929 u s -0.1943
-2.3747 u seven -0.0855
-1.4914 u t -0.0404
-2.3747 u three -0.0814
-2.3747 u two -0.0629
-2.3747 u x -0.0900
-2.3747 u y -0.0862
-0.8792 v a -0.0156
-2.1515 v c -0.0877
-0.4549 v e -0.1641
-2.1515 v f -0.0653
-2.1515 v fifty -0.0524
-0.9965 v i -0.0994
-1.6444 v k -0.0712
-2.1515 v l -0.0916
-1.6444 v m -0.0767
-2.1515 v n -0.0897
-2.1515 v nine -0.0944
-2.1515 v o -0.0605
-2.1515 v p -0.0898
-1.6444 v q -0.3602
-2.1515 v r -0.0933
-2.1515 v s -0.0831
-1.6444 v seven -0.0841
-2.1515 v thirty -0.0905
-2.1515 v w -0.0419
-2.1515 v x -0.0760
-1.4167 v y -0.0354
-2.1515 v z -0.0918
-0.9304 w a -0.0845
-1.6955 w b 0.1592
-2.2027 w c -0.0935
-1.6955 w d -0.0465
-1.3193 w e -0.1546
-1.6955 w eight -0.0731
-1.6955 w f -0.0832
-2.2027 w five -0.0865
-2.2027 w fourteen -0.0738
-2.2027 w g -0.0630
-1.6955 w h -0.0562
-1.0477 w i -0.1793
-1.4679 w l -0.0418
-1.0477 w n 0.0819
-0.9304 w o -0.3731
-1.6955 w one 0.0386
-2.2027 w p -0.0942
-2.2027 w q -0.0896
-2.2027 w r -0.0586
-2.2027 w t -0.0600
-2.2027 w three -0.0425
-2.2027 w twenty -0.0435
-1.6955 w two -0.0913
-1.6955 w w -0.0319
-2.2027 w x -0.0900
-1.4679 w y -0.0507
-1.4679 w z -0.0300
-1.8505 x b -0.0871
-1.3433 x c -0.0729
-1.8505 x e -0.0829
-1.8505 x eight -0.0804
-1.8505 x f -0.0433
-1.8505 x five -0.0930
-1.8505 x four -0.0897
-1.8505 x g -0.0671
-1.8505 x h -0.0858
-1.8505 x i -0.0950
-1.8505 x k -0.0933
-1.8505 x l -0.0947
-1.8505 x n -0.0924
-1.8505 x nine -0.0944
-1.8505 x p 0.1751
-1.8505 x r -0.0933
-1.3433 x s -0.0935
-1.8505 x seventy -0.0343
-1.8505 x three -0.0847
-1.3433 x two -0.0621
-1.8505 x v -0.0500
-1.8505 x w -0.0934
-1.3433 x x -0.0695
-1.3433 x y -0.0830
-1.8505 x z -0.0718
-1.3433 x zero -0.0726
-2.1515 y a -0.0696
-1.6444 y b -0.0123
-2.1515 y c -0.0935
-1.2682 y d 0.0150
-2.1515 y e -0.0375
-1.6444 y eight -0.0485
-1.6444 y f -0.0621
-1.6444 y fifty 0.0436
-2.1515 y five -0.0798
-1.4167 y four -0.2078
-1.6444 y g -0.0487
-1.4167 y h -0.0548
-1.6444 y j 0.0158
-1.1577 y l 0.2290
-1.6444 y m -0.0338
-1.6444 y n -0.0167
-2.1515 y o -0.0422
-1.6444 y oh 0.0516
-1.1577 y one 0.1429
-1.6444 y p 0.2128
-2.1515 y q -0.0746
-2.1515 y r -0.0854
-1.6444 y s -0.0281
-2.1515 y seven -0.0793
-2.1515 y t -0.0909
-2.1515 y ten -0.0819
-1.6444 y three -0.0695
-2.1515 y two -0.0938
-1.6444 y u -0.0925
-1.6444 y v -0.0231
-1.6444 y w -0.0248
-2.1515 y y -0.0862
-1.6444 y z -0.0672
-1.1604 yes enter -0.0298
-0.9328 yes erase -0.0347
-1.6675 yes f -0.0433
-1.6675 yes g -0.0906
-1.1604 yes go -0.0045
-1.1604 yes h -0.0191
-1.6675 yes j -0.0539
-1.6675 yes n -0.0736
-0.9328 yes rubout -0.0298
-1.1604 yes s -0.0728
-1.6675 yes u -0.0861
-1.6675 yes x -0.0900
-1.6675 yes yes -0.0650
-1.1152 z a -0.0710
-1.9985 z b -0.0562
-1.9985 z c -0.0817
-1.9985 z d -0.0942
-1.2638 z e -0.2147
-1.9985 z eight -0.0804
-1.9985 z f -0.0863
-1.9985 z g -0.0868
-1.9985 z h -0.0948
-1.2638 z i -0.0111
-1.9985 z j -0.0335
-1.9985 z k -0.0742
-1.4914 z l -0.0538
-1.2638 z nine -0.0405
-1.9985 z ninety -0.0280
-1.2638 z o -0.0783
-1.9985 z p -0.0718
-1.4914 z r -0.3943
-1.9985 z seven -0.0948
-1.9985 z six -0.0260
-1.4914 z sixty -0.3074
-1.9985 z t -0.0801
-1.9985 z twenty -0.0435
-1.9985 z two -0.0837
-1.9985 z u -0.0902
-1.9985 z w -0.0873
-1.4914 z x -0.0695
-1.4914 z y -0.0830
-1.9985 z z -0.0819
-1.9016 zero a -0.0889
-1.3945 zero c -0.3581
-1.3945 zero e -0.0244
-1.9016 zero eight -0.0593
-1.1669 zero enter -0.0209
-1.9016 zero five -0.0843
-1.3945 zero four -0.0067
-1.9016 zero m -0.0582
-1.9016 zero nine -0.0904
-1.0183 zero one -0.0030
-1.9016 zero p -0.0854
-1.9016 zero r -0.0933
-1.9016 zero rubout -0.0777
-1.9016 zero s -0.0919
-1.3945 zero seven -0.0275
-0.8198 zero six 0.0278
-1.9016 zero t -0.0952
-1.9016 zero twelve -0.0198
-1.3945 zero two -0.0211
-1.9016 zero yes -0.0650
-1.9016 zero zero -0.0248

\3-grams:
-0.7020 <UNK> yes go 
-1.3041 a a i 
-1.3041 a a m 
-1.3041 a a n 
-1.3041 a a ninety 
-1.1792 a b e 
-1.1792 a b h 
-1.1792 a b w 
-1.0005 a c a 
-1.0005 a c e 
-1.7812 a c f 
-1.7812 a c five 
-1.0005 a c k 
-1.0005 a c o 
-1.7812 a c u 
-1.7812 a c y 
-1.7020 a d c 
-0.9213 a d d 
-1.7020 a d e 
-1.7020 a d f 
-1.7020 a d h 
-1.7020 a d o 
-1.7020 a d one 
-0.9213 a d r 
-0.3985 a e l 
-1.1792 a e three 
-1.1792 a f i 
-1.1792 a f k 
-1.1792 a f t 
-0.7020 a fifty one 
-0.7020 a five six 
-1.3041 a g k 
-0.5234 a g l 
-1.3041 a g two 
-1.3041 a h fifty 
-1.3041 a h l 
-0.5234 a h o 
-1.0031 a half f 
-1.0031 a half h 
-1.1792 a i fifteen 
-1.1792 a i l 
-1.1792 a i q 
-0.7020 a j seven 
-1.1792 a k d 
-1.1792 a k ninety 
-1.1792 a k o 
-1.0675 a l d 
-0.6412 a l e 
-1.8482 a l h 
-1.8482 a l i 
-1.0675 a l l 
-1.8482 a l m 
-1.8482 a l t 
-1.8482 a l u 
-1.8482 a l z 
-1.0353 a m e 
-1.8160 a m j 
-0.7718 a m p 
-1.0353 a m s 
-1.8160 a m seven 
-1.8160 a m thirty 
-1.8160 a m two 
-1.8160 a m x 
-1.8160 a m y 
-2.1000 a n b 
-2.1000 a n c 
-0.7748 a n d 
-0.8930 a n e 
-2.1000 a n g 
-2.1000 a n i 
-2.1000 a n m 
-2.1000 a n n 
-1.3193 a n one 
-2.1000 a n r 
-1.0558 a n t 
-2.1000 a n thirty 
-2.1000 a n three 
-2.1000 a n u 
-2.1000 a n z 
-0.7020 a ninety four 
-0.2800 a one five 
-1.6051 a one four 
-1.6051 a one thousand 
-1.6051 a one twenty 
-1.3041 a p a 
-1.3041 a p i 
-1.3041 a p l 
-1.3041 a p seventeen 
-1.5341 a r a 
-2.3148 a r b 
-0.9897 a r d 
-1.1078 a r e 
-1.2706 a r g 
-0.9897 a r k 
-0.9897 a r l 
-2.3148 a r m 
-1.2706 a r n 
-2.3148 a r o 
-1.1078 a r r 
-2.3148 a r s 
-1.2706 a r t 
-1.2706 a r y 
-1.7020 a s b 
-1.7020 a s m 
-1.7020 a s o 
-0.9213 a s p 
-0.3769 a s t 
-1.1792 a six erase 
-1.1792 a six four 
-1.1792 a six hundred 
-0.9213 a t e 
-1.7020 a t g 
-0.9213 a t h 
-0.3769 a t t 
-0.7020 a three four 
-0.7020 a twenty two 
-0.7020 a two rubout 
-1.0031 a u l 
-1.0031 a u two 
-0.2869 a v e 
-0.7370 a v i 
-1.7812 a v k 
-1.7812 a v m 
-1.1792 a w f 
-1.1792 a w one 
-1.1792 a w t 
-0.7020 a x x 
-1.4010 a y b 
-1.4010 a y e 
-0.6203 a y l 
-1.4010 a y n 
-0.7020 a z x 
-0.2224 and a half 
-1.1792 and eighty one 
-0.3985 and eighty six 
-0.7020 and fifty two 
-0.7020 and sixty six 
-0.7020 and twenty three 
-0.7020 apostrophe h a 
-0.7020 april thirtieth nineteen 
-0.7020 area code four 
-0.7020 august sixteenth nineteen 
-1.1792 august twenty fourth 
-0.3985 august twenty second 
-1.5471 b a c 
-1.5471 b a i 
-1.5471 b a k 
-0.3401 b a r 
-0.7020 b b s 
-0.7020 b d k 
-0.9627 b e a 
-1.7434 b e c 
-1.7434 b e e 
-1.7434 b e g 
-1.7434 b e j 
-0.5364 b e r 
-1.7434 b e v 
-0.7020 b eight enter 
-0.7020 b five repeat 
-1.0031 b forty eight 
-1.0031 b forty nine 
-0.7020 b g l 
-0.7020 b h two 
-0.7020 b i n 
-1.0031 b j v 
-1.0031 b j x 
-0.7020 b k z 
-0.7020 b l a 
-1.1792 b m e 
-1.1792 b m j 
-1.1792 b m n 
-0.6203 b o r 
-0.6203 b o u 
-1.4010 b o x 
-0.7020 b one eight 
-0.7020 b p b 
-0.9627 b r a 
-1.7434 b r e 
-1.7434 b r i 
-0.3255 b r o 
-1.7434 b r u 
-0.3985 b s o 
-1.1792 b s s 
-1.0031 b seven eight 
-1.0031 b seven twenty 
-0.2224 b seventy nine 
-0.7020 b six enter 
-2.4180 b u c 
-0.0153 b u r 
-0.7020 b v i 
-0.7020 b w two 
-1.1792 b x nine 
-1.1792 b x r 
-1.1792 b x three 
-0.7020 b y v 
-0.7020 b z six 
-1.5471 c a five 
-0.7664 c a l 
-1.5471 c a one 
-0.7664 c a r 
-1.5471 c a v 
-1.1792 c b e 
-1.1792 c b j 
-1.1792 c b o 
-0.7020 c c h 
-0.7020 c d o 
-1.5471 c e g 
-1.5471 c e l 
-0.7664 c e n 
-1.5471 c e p 
-0.7664 c e s 
-0.7020 c f two 
-0.7020 c fifty six 
-1.0031 c five nine 
-1.0031 c five three 
-0.3838 c h a 
-1.8781 c h e 
-1.8781 c h f 
-1.8781 c h i 
-1.0974 c h r 
-1.0974 c h t 
-1.8781 c h y 
-0.7020 c i n 
-0.7020 c j k 
-1.6563 c k c 
-1.6563 c k e 
-1.6563 c k k 
-1.6563 c k l 
-0.8756 c k p 
-0.8756 c k w 
-1.6563 c k y 
-1.1792 c l a 
-1.1792 c l o 
-1.1792 c l two 
-0.7020 c m u 
-1.4802 c o l 
-0.2732 c o n 
-1.4802 c o r 
-0.7020 c r a 
-0.7020 c s seven 
-0.7020 c seven one 
-0.7020 c t l 
-0.2224 c thirty five 
-0.7020 c two m 
-0.7020 c u three 
-0.7020 c v y 
-1.0031 c w fourteen 
-1.0031 c w n 
-1.0031 c y four 
-1.0031 c y r 
-1.1792 c z d 
-1.1792 c z t 
-1.1792 c z twenty 
-0.7020 code four one 
-1.7434 d a fifty 
-0.9627 d a l 
-1.7434 d a n 
-1.7434 d a three 
-1.7434 d a two 
-0.4183 d a v 
-1.0031 d b a 
-1.0031 d b forty 
-0.7020 d c r 
-1.3041 d d j 
-0.5234 d d o 
-1.3041 d d oh 
-1.6051 d e b 
-1.6051 d e d 
-1.6051 d e four 
-0.3981 d e r 
-1.6051 d e u 
-1.0031 d f o 
-1.0031 d f t 
-0.7020 d five ten 
-0.7020 d forty seven 
-0.7020 d fourteen fourteen 
-0.7020 d h e 
-1.1792 d i c 
-1.1792 d i n 
-1.1792 d i t 
-1.0031 d j e 
-1.0031 d j one 
-1.1792 d k f 
-1.1792 d k m 
-1.1792 d k t 
-0.7020 d l e 
-1.0031 d m h 
-1.0031 d m t 
-0.7020 d n e 
-1.6563 d o c 
-1.6563 d o four 
-1.6563 d o l 
-1.6563 d o n 
-1.6563 d o r 
-1.6563 d o u 
-0.6121 d o w 
-0.7020 d oh enter 
-1.3041 d one eight 
-1.3041 d one hundred 
-1.3041 d one oh 
-1.3041 d one seventy 
-0.0970 d p i 
-1.6563 d p l 
-1.0031 d q one 
-1.0031 d q t 
-1.6563 d r a 
-1.6563 d r g 
-0.4493 d r i 
-1.6563 d r o 
-1.6563 d r thirty 
-1.6563 d r w 
-1.3041 d s k 
-1.3041 d s one 
-1.3041 d s t 
-1.3041 d s u 
-1.0031 d sixty seven 
-1.0031 d sixty three 
-0.7020 d t i 
-1.0031 d two nine 
-1.0031 d two six 
-0.7020 d u g 
-0.7020 d v seven 
-0.8244 d w a 
-1.6051 d w h 
-0.8244 d w i 
-0.8244 d w o 
-1.6051 d w q 
-1.1792 d y five 
-1.1792 d y m 
-1.1792 d y one 
-0.7020 d z w 
-0.7020 december eighteenth nineteen 
-1.1518 e a c 
-1.1518 e a d 
-0.8883 e a n 
-1.9325 e a p 
-1.9325 e a r 
-0.7255 e a s 
-1.9325 e a six 
-1.9325 e a t 
-1.1518 e a v 
-1.3041 e b one 
-0.5234 e b r 
-1.3041 e b seventy 
-1.0031 e c c 
-1.0031 e c h 
-1.6051 e d a 
-1.6051 e d forty 
-1.6051 e d o 
-1.6051 e d one 
-0.8244 e d r 
-1.6051 e d v 
-1.6051 e d w 
-1.7434 e e a 
-1.7434 e e l 
-1.7434 e e n 
-0.9627 e e p 
-0.9627 e e r 
-0.9627 e e s 
-1.7434 e e t 
-1.7434 e e three 
-1.0031 e eight nine 
-1.0031 e eight seven 
-1.1792 e f f 
-1.1792 e f r 
-1.1792 e f v 
-0.7020 e fifty six 
-1.1792 e four ninety 
-1.1792 e four oh 
-1.1792 e four seven 
-1.4802 e g b 
-0.6995 e g i 
-0.6995 e g l 
-1.4802 e g seventy 
-0.7020 e h u 
-1.3041 e i d 
-0.2599 e i l 
-0.5234 e j o 
-0.5234 e j q 
-0.7020 e k one 
-2.0445 e l a 
-0.8375 e l d 
-1.2638 e l e 
-2.0445 e l five 
-2.0445 e l g 
-2.0445 e l i 
-2.0445 e l k 
-0.4852 e l l 
-2.0445 e l s 
-2.0445 e l six 
-2.0445 e l three 
-0.6203 e m b 
-1.4010 e m c 
-1.4010 e m o 
-1.4010 e m p 
-2.1170 e n c 
-1.0728 e n d 
-2.1170 e n eight 
-2.1170 e n f 
-1.3363 e n five 
-2.1170 e n four 
-0.9100 e n n 
-2.1170 e n o 
-2.1170 e n one 
-2.1170 e n r 
-2.1170 e n s 
-2.1170 e n six 
-1.0728 e n t 
-2.1170 e n two 
-0.9100 e n u 
-0.7020 e nine four 
-1.0031 e o a 
-1.0031 e o apostrophe 
-1.6563 e one fifty 
-0.6121 e one five 
-1.6563 e one oh 
-1.6563 e one seven 
-1.6563 e one six 
-1.6563 e one ten 
-1.6563 e one three 
-1.9808 e p c 
-1.9808 e p g 
-0.9366 e p h 
-0.2296 e p i 
-1.9808 e p t 
-1.9808 e p y 
-0.7020 e q fifty 
-1.4265 e r a 
-1.4265 e r b 
-1.0002 e r e 
-2.2072 e r f 
-1.0002 e r i 
-1.4265 e r k 
-1.1630 e r l 
-2.2072 e r m 
-2.2072 e r n 
-1.1630 e r o 
-1.4265 e r one 
-2.2072 e r p 
-2.2072 e r r 
-1.4265 e r s 
-1.4265 e r t 
-2.2072 e r thirty 
-1.7434 e s a 
-1.7434 e s b 
-1.7434 e s e 
-1.7434 e s f 
-0.9627 e s j 
-1.7434 e s m 
-1.7434 e s one 
-1.7434 e s p 
-1.7434 e s seven 
-1.7434 e s w 
-0.7020 e seven fifty 
-0.7020 e seventy six 
-1.6051 e t n 
-0.3981 e t p 
-0.5609 e t t 
-0.7020 e thirty five 
-1.0031 e three five 
-1.0031 e three seven 
-0.7020 e two eight 
-1.1792 e u j 
-1.1792 e u l 
-1.1792 e u y 
-1.7020 e v a 
-0.1428 e v e 
-1.7020 e v nine 
-1.9325 e w a 
-1.9325 e w b 
-1.9325 e w e 
-1.1518 e w i 
-1.9325 e w n 
-0.7255 e w o 
-1.9325 e w one 
-1.9325 e w r 
-1.9325 e w three 
-0.8883 e w y 
-1.9325 e w z 
-0.7020 e x x 
-1.4802 e y d 
-1.4802 e y oh 
-1.4802 e y one 
-1.4802 e y p 
-1.4802 e y s 
-1.4802 e y two 
-1.1792 e z a 
-1.1792 e z e 
-1.1792 e z u 
-0.7020 eight a l 
-0.7020 eight april thirtieth 
-0.7020 eight august sixteenth 
-1.0031 eight b e 
-1.0031 eight b u 
-0.7020 eight c z 
-0.7020 eight e z 
-0.6995 eight eight four 
-0.6995 eight eight nine 
-1.4802 eight eight seven 
-1.4802 eight eight two 
-0.8244 eight enter fifty 
-1.6051 eight enter five 
-1.6051 eight enter ninety 
-1.6051 eight enter seventy 
-1.6051 eight enter six 
-0.8244 eight enter sixty 
-1.1792 eight erase i 
-1.1792 eight erase j 
-1.1792 eight erase z 
-0.7020 eight f e 
-1.7020 eight five d 
-1.7020 eight five eight 
-1.7020 eight five five 
-1.7020 eight five four 
-1.7020 eight five may 
-1.7020 eight five nine 
-1.7020 eight five oh 
-1.7020 eight five one 
-0.9213 eight five six 
-0.7020 eight forty one 
-1.9062 eight four august 
-1.9062 eight four b 
-1.9062 eight four eight 
-1.9062 eight four enter 
-0.8620 eight four four 
-1.1254 eight four one 
-0.6992 eight four six 
-0.8620 eight four two 
-0.7020 eight fourteen sixty 
-0.2224 eight g a 
-0.3985 eight hundred and 
-1.1792 eight hundred eighty 
-0.7020 eight j h 
-0.7020 eight june eleventh 
-0.7020 eight k l 
-0.7020 eight l e 
-0.7020 eight n l 
-1.4802 eight nine june 
-1.4802 eight nine n 
-1.4802 eight nine nine 
-1.4802 eight nine one 
-0.6995 eight nine six 
-1.0031 eight o a 
-1.0031 eight o l 
-1.4802 eight oh eight 
-1.4802 eight oh j 
-1.4802 eight oh nine 
-1.4802 eight oh seven 
-1.4802 eight oh three 
-1.4802 eight oh two 
-0.7664 eight one nine 
-1.5471 eight one oh 
-1.5471 eight one one 
-1.5471 eight one s 
-1.5471 eight one seven 
-1.5471 eight one six 
-0.7020 eight q c 
-1.0031 eight repeat no 
-1.0031 eight repeat stop 
-1.3041 eight rubout a 
-1.3041 eight rubout i 
-0.5234 eight rubout u 
-0.7020 eight s e 
-1.6051 eight seven eight 
-1.6051 eight seven five 
-1.6051 eight seven nine 
-0.8244 eight seven one 
-1.6051 eight seven rubout 
-1.6051 eight seven stop 
-1.6051 eight seven zero 
-0.2224 eight seventy one 
-0.7664 eight six eight 
-1.5471 eight six enter 
-1.5471 eight six nine 
-1.5471 eight six one 
-1.5471 eight six three 
-1.5471 eight six twelve 
-1.1792 eight sixty five 
-1.1792 eight sixty nine 
-1.1792 eight sixty one 
-0.7020 eight stop m 
-0.7020 eight ten thirty 
-0.7020 eight thirty two 
-0.7020 eight thousand nine 
-1.9062 eight three eight 
-1.9062 eight three eleven 
-1.9062 eight three five 
-1.9062 eight three march 
-1.9062 eight three oh 
-1.1254 eight three one 
-1.9062 eight three p 
-1.9062 eight three september 
-1.9062 eight three three 
-1.9062 eight three twelve 
-1.9062 eight three twenty 
-1.1254 eight three two 
-1.1254 eight three zero 
-0.7020 eight twelve four 
-1.0031 eight twenty eight 
-1.0031 eight twenty seven 
-1.0353 eight two eight 
-1.8160 eight two five 
-1.0353 eight two four 
-1.8160 eight two oh 
-1.8160 eight two one 
-1.8160 eight two seven 
-0.7718 eight two six 
-1.8160 eight two start 
-1.8160 eight two three 
-0.7020 eight x e 
-1.3041 eight zero m 
-1.3041 eight zero nine 
-1.3041 eight zero six 
-1.3041 eight zero two 
-0.7020 eighteen february nineteen 
-0.7020 eighteenth nineteen forty 
-0.7020 eighth nineteen fifty 
-0.7020 eighty eight repeat 
-0.7020 eighty fifth s 
-0.7020 eighty five c 
-0.7020 eighty four r 
-1.1792 eighty nine erase 
-1.1792 eighty nine forty 
-1.1792 eighty nine no 
-0.7020 eighty one h 
-0.7020 eighty seven help 
-0.6203 eighty six enter 
-1.4010 eighty six erase 
-1.4010 eighty six k 
-1.4010 eighty six yes 
-0.7020 eighty three no 
-0.7020 eleven nine sixty 
-0.7020 eleven o l 
-0.7020 eleven seventeen fifty 
-0.7020 eleven sixty seven 
-0.7020 eleventh nineteen sixty 
-1.6051 enter eight four 
-1.6051 enter eight one 
-1.6051 enter eight seven 
-1.6051 enter eight seventy 
-1.6051 enter eight thirty 
-1.6051 enter eight twenty 
-1.6051 enter eight two 
-1.6051 enter eight zero 
-0.7020 enter eighty nine 
-0.7020 enter fifteen n 
-1.4010 enter fifty five 
-0.6203 enter fifty four 
-1.4010 enter fifty one 
-1.4010 enter fifty sixty 
-1.4802 enter five enter 
-0.6995 enter five help 
-1.4802 enter five three 
-1.4802 enter five two 
-1.4802 enter five zero 
-1.1792 enter forty one 
-1.1792 enter forty seven 
-1.1792 enter forty three 
-0.6995 enter four fifty 
-1.4802 enter four rubout 
-1.4802 enter four thousand 
-1.4802 enter four twenty 
-1.4802 enter four x 
-0.7020 enter fourteen repeat 
-1.3041 enter nine eight 
-1.3041 enter nine eighty 
-1.3041 enter nine rubout 
-1.3041 enter nine seventy 
-1.1792 enter ninety eight 
-1.1792 enter ninety five 
-1.1792 enter ninety four 
-1.3041 enter one forty 
-1.3041 enter one nine 
-1.3041 enter one ninety 
-1.3041 enter one thirty 
-1.6563 enter seven b 
-1.6563 enter seven enter 
-1.6563 enter seven erase 
-1.6563 enter seven oh 
-1.6563 enter seven seven 
-1.6563 enter seven stop 
-1.6563 enter seven thirty 
-1.6563 enter seven two 
-1.6563 enter seven yes 
-1.3041 enter seventy eight 
-0.5234 enter seventy one 
-1.3041 enter seventy two 
-1.6051 enter six enter 
-1.6051 enter six four 
-1.6051 enter six oh 
-1.6051 enter six one 
-1.6051 enter six rubout 
-1.6051 enter six seven 
-1.6051 enter six t 
-1.6051 enter six two 
-1.6051 enter sixty enter 
-1.6051 enter sixty four 
-1.6051 enter sixty help 
-0.8244 enter sixty one 
-1.6051 enter sixty six 
-1.6051 enter sixty two 
-1.6051 enter sixty w 
-1.1792 enter thirty eight 
-1.1792 enter thirty five 
-1.1792 enter thirty seven 
-1.0031 enter three e 
-1.0031 enter three eighty 
-0.7020 enter twenty nine 
-1.4802 enter two five 
-1.4802 enter two go 
-1.4802 enter two no 
-0.6995 enter two oh 
-1.4802 enter two six 
-0.7020 enter zero t 
-0.7020 erase a l 
-0.7020 erase b m 
-1.0031 erase c b 
-1.0031 erase c k 
-1.0031 erase e o 
-1.0031 erase e x 
-0.7020 erase f h 
-1.0031 erase g h 
-1.0031 erase g w 
-1.0031 erase i g 
-1.0031 erase i s 
-1.0031 erase j g 
-1.0031 erase j n 
-0.7020 erase k j 
-0.7020 erase m y 
-0.7020 erase n t 
-1.1792 erase o j 
-0.3985 erase o t 
-1.0031 erase q e 
-1.0031 erase q k 
-0.7020 erase r b 
-1.0031 erase s s 
-1.0031 erase s v 
-0.7020 erase t m 
-1.1792 erase v r 
-1.1792 erase v x 
-1.1792 erase v y 
-1.0031 erase w e 
-1.0031 erase w f 
-0.7020 erase x b 
-0.7020 erase y b 
-0.7020 erase z y 
-0.7020 f a r 
-1.0031 f b m 
-1.0031 f b o 
-0.7020 f d w 
-1.6051 f e b 
-1.6051 f e d 
-1.6051 f e eight 
-1.6051 f e g 
-1.6051 f e i 
-1.6051 f e l 
-1.6051 f e n 
-1.6051 f e r 
-0.7020 f eight o 
-1.1792 f f eight 
-1.1792 f f four 
-1.1792 f f r 
-1.0031 f five forty 
-1.0031 f five nine 
-0.7020 f four seven 
-0.7020 f g i 
-1.0031 f h b 
-1.0031 f h nine 
-1.5471 f i e 
-0.7664 f i f 
-1.5471 f i five 
-1.5471 f i l 
-1.5471 f i n 
-1.5471 f i y 
-1.0031 f j d 
-1.0031 f j k 
-1.0031 f k a 
-1.0031 f k v 
-1.0031 f m fifty 
-1.0031 f m q 
-1.4010 f o f 
-1.4010 f o five 
-0.3568 f o r 
-0.7020 f q q 
-0.6203 f r a 
-1.4010 f r i 
-0.6203 f r o 
-0.7020 f s o 
-0.7020 f six eighty 
-0.5234 f t h 
-1.3041 f t o 
-1.3041 f t sixty 
-0.7020 f thirty eight 
-0.7020 f twenty four 
-1.1792 f two five 
-1.1792 f two rubout 
-1.1792 f two stop 
-0.7020 f v s 
-1.3041 f x c 
-1.3041 f x four 
-1.3041 f x y 
-1.3041 f x zero 
-1.0031 f y n 
-1.0031 f y z 
-0.7020 f z z 
-0.7020 february eighth nineteen 
-0.7020 february nineteen seventy 
-0.7020 fifteen enter sixty 
-0.7020 fifteen m a 
-0.7020 fifteen n e 
-0.7020 fifteen nineteen seventy 
-0.7020 fifteen sixty two 
-0.2224 fifteenth nineteen sixty 
-0.7020 fifth nineteen sixty 
-0.7020 fifth s t 
-0.7020 fifty b u 
-0.6995 fifty eight enter 
-1.4802 fifty eight g 
-1.4802 fifty eight oh 
-1.4802 fifty eight rubout 
-1.4802 fifty eight thousand 
-1.3041 fifty five m 
-1.3041 fifty five thirty 
-1.3041 fifty five three 
-1.3041 fifty five yes 
-1.1792 fifty four rubout 
-1.1792 fifty four s 
-1.1792 fifty four stop 
-0.7020 fifty nine no 
-1.4010 fifty one fifteen 
-1.4010 fifty one fifty 
-1.4010 fifty one i 
-1.4010 fifty one repeat 
-1.4010 fifty one rubout 
-0.7020 fifty rubout f 
-1.0031 fifty seven fourteen 
-1.0031 fifty seven v 
-1.4802 fifty six b 
-1.4802 fifty six erase 
-1.4802 fifty six oh 
-1.4802 fifty six p 
-1.4802 fifty six sixty 
-1.4802 fifty six thirty 
-0.7020 fifty sixty three 
-1.0031 fifty three enter 
-1.0031 fifty three forty 
-1.3041 fifty two a 
-1.3041 fifty two d 
-1.3041 fifty two erase 
-1.3041 fifty two fifty 
-0.1350 first nineteen sixty 
-0.7020 five a y 
-0.2224 five b r 
-0.7020 five c o 
-0.7020 five d o 
-0.7020 five e l 
-1.4802 five eight april 
-1.4802 five eight b 
-1.4802 five eight five 
-1.4802 five eight oh 
-1.4802 five eight rubout 
-1.4802 five eight twelve 
-1.6563 five enter forty 
-1.6563 five enter nine 
-1.6563 five enter one 
-0.6121 five enter seven 
-1.6563 five enter seventy 
-0.8756 five enter two 
-1.0031 five erase c 
-1.0031 five erase v 
-1.1792 five f i 
-1.1792 five f r 
-1.1792 five f y 
-1.6051 five five eight 
-1.6051 five five enter 
-1.6051 five five five 
-1.6051 five five ninth 
-1.6051 five five t 
-1.6051 five five three 
-0.8244 five five two 
-0.7020 five forty five 
-1.4802 five four five 
-1.4802 five four january 
-1.4802 five four march 
-0.6995 five four six 
-1.4802 five four two 
-0.7020 five g l 
-0.7020 five h o 
-1.0031 five help a 
-1.0031 five help go 
-1.0031 five hundred and 
-1.0031 five hundred eighty 
-0.7020 five j four 
-0.7020 five k w 
-0.3985 five m a 
-1.1792 five m e 
-0.7020 five may ninth 
-1.6563 five nine enter 
-1.6563 five nine five 
-1.6563 five nine one 
-1.6563 five nine seven 
-1.6563 five nine six 
-1.6563 five nine three 
-0.8756 five nine two 
-1.6563 five nine v 
-0.7020 five ninth of 
-0.7020 five no help 
-0.7020 five october thirtieth 
-1.6051 five oh five 
-0.8244 five oh four 
-1.6051 five oh one 
-1.6051 five oh seven 
-1.6051 five oh six 
-1.6051 five oh twelve 
-1.6051 five oh two 
-1.8781 five one e 
-1.8781 five one eight 
-1.8781 five one five 
-0.8339 five one four 
-1.0974 five one nine 
-1.8781 five one oh 
-0.8339 five one one 
-1.0974 five one three 
-1.8781 five one y 
-0.7020 five p u 
-0.7020 five q e 
-1.0031 five repeat f 
-1.0031 five repeat g 
-1.0031 five rubout p 
-1.0031 five rubout y 
-0.6995 five seven eight 
-1.4802 five seven oh 
-1.4802 five seven p 
-0.6995 five seven six 
-0.5609 five six four 
-1.6051 five six no 
-0.8244 five six one 
-1.6051 five six six 
-1.6051 five six three 
-0.7020 five sixteen sixty 
-0.7020 five t h 
-0.7020 five ten h 
-1.1792 five thirty enter 
-1.1792 five thirty five 
-1.1792 five thirty one 
-1.7020 five three five 
-0.6579 five three four 
-1.7020 five three fourteen 
-1.7020 five three rubout 
-0.6579 five three three 
-1.7020 five three two 
-0.7020 five twenty six 
-2.5409 five two eight 
-2.5409 five two five 
-1.4967 five two four 
-2.5409 five two n 
-1.3339 five two oh 
-0.3048 five two one 
-1.7602 five two seven 
-2.5409 five two six 
-2.5409 five two start 
-2.5409 five two ten 
-0.9816 five two three 
-0.9251 five two two 
-1.7602 five two zero 
-1.1792 five yes erase 
-1.1792 five yes go 
-1.1792 five yes rubout 
-1.4010 five zero enter 
-0.6203 five zero four 
-1.4010 five zero rubout 
-1.4010 five zero six 
-0.3985 forty eight enter 
-1.1792 forty eight repeat 
-1.3041 forty five b 
-1.3041 forty five enter 
-1.3041 forty five erase 
-1.3041 forty five no 
-1.1792 forty four enter 
-1.1792 forty four repeat 
-1.1792 forty four stop 
-1.1792 forty nine hundred 
-1.1792 forty nine o 
-1.1792 forty nine w 
-1.0031 forty one b 
-1.0031 forty one f 
-1.3041 forty seven enter 
-1.3041 forty seven forty 
-0.5234 forty seven rubout 
-0.7020 forty six erase 
-1.3041 forty three forty 
-1.3041 forty three rubout 
-1.3041 forty three seventeen 
-1.3041 forty three twenty 
-1.1792 forty two b 
-1.1792 forty two g 
-1.1792 forty two repeat 
-0.7020 four and a 
-0.7020 four august twenty 
-0.7020 four b r 
-0.7020 four d a 
-0.9213 four eight five 
-0.9213 four eight four 
-1.7020 four eight fourteen 
-1.7020 four eight q 
-1.7020 four eight six 
-0.9213 four eight two 
-1.7020 four eight zero 
-0.7020 four eleven seventeen 
-1.4802 four enter five 
-1.4802 four enter seven 
-1.4802 four enter three 
-1.4802 four enter twenty 
-1.4802 four enter two 
-1.4802 four enter zero 
-1.0031 four erase e 
-1.0031 four erase o 
-0.7020 four f i 
-1.0031 four fifty one 
-1.0031 four fifty six 
-1.5471 four five eight 
-1.5471 four five nine 
-1.5471 four five oh 
-0.7664 four five one 
-1.5471 four five three 
-1.5471 four five two 
-1.0031 four forty nine 
-1.0031 four forty two 
-1.9573 four four eight 
-1.9573 four four enter 
-1.9573 four four f 
-0.7503 four four four 
-1.9573 four four oh 
-1.1766 four four one 
-1.9573 four four s 
-0.9131 four four seven 
-1.9573 four four six 
-1.9573 four four start 
-1.9573 four four three 
-1.9573 four four twenty 
-0.7020 four h b 
-0.7020 four help rubout 
-1.0031 four january fifteenth 
-1.0031 four january twelfth 
-0.7020 four l o 
-0.7020 four march twenty 
-1.3041 four nine five 
-1.3041 four nine nine 
-1.3041 four nine no 
-1.3041 four nine zero 
-0.7020 four ninety one 
-1.1792 four no enter 
-0.3985 four no rubout 
-1.4802 four oh eight 
-1.4802 four oh one 
-1.4802 four oh six 
-0.6995 four oh three 
-1.4802 four oh two 
-2.0445 four one august 
-2.0445 four one e 
-2.0445 four one eight 
-2.0445 four one four 
-1.2638 four one oh 
-2.0445 four one one 
-2.0445 four one six 
-0.2561 four one two 
-2.0445 four one zero 
-0.7020 four r o 
-1.1792 four repeat erase 
-1.1792 four repeat m 
-1.1792 four repeat r 
-1.4802 four rubout e 
-0.6995 four rubout j 
-1.4802 four rubout o 
-1.4802 four rubout r 
-1.4802 four rubout u 
-1.0031 four s c 
-1.0031 four s u 
-0.7020 four september sixth 
-1.6563 four seven eight 
-1.6563 four seven five 
-1.6563 four seven four 
-1.6563 four seven october 
-1.6563 four seven seven 
-1.6563 four seven sixty 
-1.6563 four seven twenty 
-0.8756 four seven two 
-0.7020 four seventy one 
-1.7434 four six c 
-1.7434 four six five 
-1.7434 four six four 
-1.7434 four six nine 
-1.7434 four six oh 
-0.9627 four six seven 
-1.7434 four six three 
-1.7434 four six twenty 
-1.7434 four six two 
-1.7434 four six yes 
-1.0031 four sixty eight 
-1.0031 four sixty seven 
-0.7020 four start repeat 
-0.1350 four stop enter 
-0.7020 four thirty three 
-1.1792 four thousand eight 
-1.1792 four thousand seven 
-1.1792 four thousand three 
-1.4010 four three eight 
-1.4010 four three enter 
-1.4010 four three seven 
-1.4010 four three six 
-1.4010 four three three 
-0.7020 four twelve nineteen 
-1.0031 four twenty eight 
-1.0031 four twenty one 
-1.9062 four two enter 
-1.9062 four two nine 
-1.9062 four two oh 
-0.6992 four two one 
-1.9062 four two six 
-1.9062 four two twelve 
-0.4118 four two two 
-0.7020 four x g 
-0.7020 four z i 
-0.7020 four zero e 
-0.7020 fourteen a b 
-0.7020 fourteen eighty five 
-0.7020 fourteen fourteen s 
-1.0031 fourteen repeat b 
-1.0031 fourteen repeat l 
-0.7020 fourteen s o 
-1.1792 fourteen sixty four 
-1.1792 fourteen sixty one 
-1.1792 fourteen sixty seven 
-0.7020 fourth nineteen fifty 
-1.6563 g a b 
-1.6563 g a m 
-0.4493 g a r 
-0.8756 g a six 
-1.6563 g a t 
-0.7020 g b forty 
-1.0031 g c d 
-1.0031 g c s 
-0.3985 g d e 
-1.1792 g d r 
-1.0031 g e e 
-1.0031 g e four 
-0.7020 g eighty six 
-0.7020 g forty eight 
-2.4180 g h l 
-1.6373 g h o 
-0.0609 g h one 
-2.4180 g h t 
-2.4180 g h two 
-2.4180 g h x 
-0.5609 g i b 
-1.6051 g i c 
-1.6051 g i e 
-1.6051 g i k 
-1.6051 g i n 
-1.6051 g i u 
-1.0031 g j h 
-1.0031 g j w 
-1.0031 g k eighty 
-1.0031 g k k 
-1.6563 g l a 
-0.4493 g l e 
-0.8756 g l g 
-1.6563 g l l 
-1.6563 g l seventy 
-0.7020 g m a 
-1.3041 g n m 
-1.3041 g n n 
-1.3041 g n o 
-1.3041 g n p 
-1.0031 g nine nine 
-1.0031 g nine six 
-0.7020 g o t 
-0.7020 g one five 
-0.7020 g p d 
-0.7020 g q y 
-1.0031 g r e 
-1.0031 g r o 
-0.7020 g s p 
-0.7020 g seventy nine 
-0.7020 g t o 
-1.0031 g two eighty 
-1.0031 g two hundred 
-0.7020 g u k 
-1.0031 g v i 
-1.0031 g v seven 
-1.0031 g w d 
-1.0031 g w n 
-0.7020 go enter three 
-0.7020 go g c 
-0.7020 go h o 
-0.7020 go l u 
-1.0031 go repeat no 
-1.0031 go repeat stop 
-0.7020 go rubout m 
-0.7020 go x z 
-1.0031 go yes f 
-1.0031 go yes u 
-2.0823 h a c 
-2.0823 h a d 
-1.3015 h a e 
-2.0823 h a h 
-1.3015 h a m 
-1.0381 h a n 
-0.5879 h a r 
-2.0823 h a s 
-1.3015 h a v 
-1.3015 h a w 
-2.0823 h a x 
-2.0823 h a y 
-1.3041 h b a 
-1.3041 h b g 
-1.3041 h b k 
-1.3041 h b x 
-0.8244 h e a 
-1.6051 h e i 
-1.6051 h e n 
-1.6051 h e q 
-1.6051 h e r 
-0.8244 h e w 
-1.1792 h f d 
-1.1792 h f e 
-1.1792 h f i 
-0.7020 h fifty two 
-0.7020 h four rubout 
-1.0031 h g p 
-1.0031 h g v 
-0.7020 h h u 
-1.4802 h i g 
-1.4802 h i l 
-0.6995 h i n 
-1.4802 h i r 
-1.4802 h i t 
-1.0031 h k j 
-1.0031 h k t 
-1.0031 h l a 
-1.0031 h l e 
-1.3041 h n c 
-1.3041 h n five 
-1.3041 h n k 
-1.3041 h n s 
-0.7020 h nine four 
-1.0353 h o b 
-1.8160 h o e 
-1.8160 h o f 
-1.8160 h o l 
-1.8160 h o m 
-1.8160 h o n 
-1.8160 h o r 
-1.8160 h o t 
-1.0353 h o u 
-1.8160 h o w 
-1.8160 h o y 
-0.0166 h one five 
-2.3833 h one help 
-1.1792 h p d 
-0.3985 h p i 
-0.7020 h q f 
-0.3985 h r i 
-1.1792 h r sixty 
-0.7020 h s p 
-0.7020 h seven eight 
-0.7020 h seventy seven 
-0.7020 h six h 
-0.5234 h t e 
-1.3041 h t h 
-1.3041 h t s 
-0.7020 h three seventy 
-1.0031 h two help 
-1.0031 h two six 
-1.0031 h u f 
-1.0031 h u r 
-0.7020 h v e 
-0.7020 h w o 
-0.7020 h x w 
-1.1792 h y d 
-1.1792 h y four 
-1.1792 h y l 
-0.7020 h z a 
-0.7020 half f o 
-0.7020 half h o 
-0.7020 help a s 
-0.7020 help b j 
-0.3985 help enter eight 
-1.1792 help enter six 
-1.0031 help go repeat 
-1.0031 help go x 
-0.7020 help help j 
-0.7020 help j v 
-0.7020 help n e 
-0.7020 help rubout f 
-0.7020 help v e 
-0.4360 hundred and eighty 
-1.4802 hundred and fifty 
-1.4802 hundred and sixty 
-1.4802 hundred and twenty 
-1.0031 hundred eighty seven 
-1.0031 hundred eighty three 
-0.7020 hundred forty nine 
-0.7020 hundred s a 
-0.7020 hundred twenty three 
-0.7020 hundred w c 
-1.3041 i a m 
-1.3041 i a n 
-0.5234 i a one 
-1.1792 i b b 
-0.3985 i b s 
-1.8781 i c a 
-1.8781 i c b 
-1.8781 i c fifty 
-1.8781 i c five 
-0.3838 i c h 
-1.0974 i c k 
-1.8781 i c o 
-1.8781 i c two 
-1.4010 i d e 
-1.4010 i d five 
-1.4010 i d m 
-1.4010 i d sixty 
-1.4010 i d w 
-0.8756 i e l 
-1.6563 i e n 
-1.6563 i e one 
-0.8756 i e r 
-1.6563 i e seven 
-1.6563 i e t 
-1.6563 i e w 
-1.3041 i f e 
-1.3041 i f r 
-0.5234 i f t 
-0.7020 i fifteen enter 
-1.0031 i five f 
-1.0031 i five zero 
-0.7020 i four rubout 
-0.5234 i g h 
-1.3041 i g i 
-1.3041 i g n 
-0.7020 i j o 
-1.0031 i k seven 
-1.0031 i k two 
-1.7020 i l a 
-1.7020 i l d 
-1.7020 i l five 
-1.7020 i l k 
-0.4950 i l l 
-1.7020 i l ten 
-1.7020 i l zero 
-1.4802 i m a 
-0.6995 i m i 
-1.4802 i m m 
-0.6995 i m o 
-2.0445 i n a 
-1.2638 i n c 
-0.8375 i n d 
-2.0445 i n e 
-0.7193 i n g 
-1.0003 i n i 
-1.2638 i n p 
-1.2638 i n s 
-2.0445 i n three 
-2.0445 i n two 
-0.7020 i o m 
-1.1792 i p a 
-1.1792 i p s 
-1.1792 i p three 
-1.1792 i q g 
-1.1792 i q n 
-1.1792 i q w 
-1.1792 i r d 
-1.1792 i r e 
-1.1792 i r k 
-1.4802 i s fifty 
-1.4802 i s l 
-1.4802 i s one 
-1.4802 i s s 
-0.6995 i s t 
-0.7020 i sixty one 
-2.4010 i t d 
-1.6203 i t h 
-2.4010 i t n 
-0.0438 i t t 
-0.7020 i thirty two 
-0.7020 i u r 
-1.4802 i v a 
-0.2732 i v e 
-1.4802 i v y 
-0.7020 i y q 
-0.3985 j a m 
-1.1792 j a n 
-0.7020 j b x 
-1.0031 j c h 
-1.0031 j c l 
-0.7020 j d two 
-0.6203 j e a 
-1.4010 j e f 
-1.4010 j e n 
-1.4010 j e t 
-0.7020 j five seven 
-1.0031 j four thirty 
-1.0031 j four thousand 
-0.7020 j g q 
-1.0031 j h b 
-1.0031 j h g 
-0.7020 j j c 
-1.0031 j k eight 
-1.0031 j k two 
-0.7020 j l y 
-0.7020 j m k 
-0.7020 j n r 
-0.7664 j o h 
-1.5471 j o n 
-1.5471 j o ninety 
-0.7664 j o s 
-1.5471 j o six 
-1.0031 j one five 
-1.0031 j one go 
-1.0031 j q five 
-1.0031 j q t 
-0.7020 j s p 
-1.1792 j seven four 
-1.1792 j seven ten 
-1.1792 j seven thousand 
-0.7020 j t k 
-1.0031 j u i 
-1.0031 j u l 
-1.0031 j v c 
-1.0031 j v p 
-0.7020 j w b 
-0.7020 j x k 
-1.0031 j z a 
-1.0031 j z f 
-0.7020 january fifteenth nineteen 
-0.7020 january twelfth nineteen 
-0.7020 july thirtieth nineteen 
-0.7020 july twelfth nineteen 
-0.7020 july twenty nine 
-0.7020 june eleventh nineteen 
-0.7020 june twenty third 
-0.1940 k a r 
-1.4010 k a u 
-0.7020 k c w 
-0.7020 k d a 
-1.6051 k e a 
-0.8244 k e e 
-1.6051 k e l 
-1.6051 k e n 
-1.6051 k e r 
-1.6051 k e thirty 
-1.6051 k e v 
-0.7020 k eight five 
-0.7020 k eighty four 
-1.0031 k f five 
-1.0031 k f six 
-0.7020 k fifty three 
-1.0031 k h a 
-1.0031 k h one 
-1.3041 k i four 
-1.3041 k i m 
-0.5234 k i n 
-1.1792 k j e 
-1.1792 k j five 
-1.1792 k j z 
-1.0031 k k a 
-1.0031 k k three 
-1.0031 k l e 
-1.0031 k l m 
-0.7020 k m four 
-0.7020 k nine m 
-0.7020 k ninety six 
-0.7020 k o eight 
-0.2224 k one oh 
-1.0031 k p g 
-1.0031 k p i 
-0.7020 k r o 
-1.0031 k s s 
-1.0031 k s thirty 
-0.7020 k seven three 
-1.3041 k six four 
-1.3041 k six thirty 
-1.3041 k six thousand 
-1.3041 k six three 
-1.1792 k t e 
-1.1792 k t fifty 
-1.1792 k t l 
-1.0031 k three four 
-1.0031 k three thirty 
-0.7020 k twenty three 
-1.0031 k two eight 
-1.0031 k two sixty 
-1.0031 k u four 
-1.0031 k u n 
-0.7020 k v thirty 
-1.3041 k w h 
-1.3041 k w o 
-1.3041 k w w 
-1.3041 k w z 
-1.0031 k x y 
-1.0031 k x zero 
-1.0031 k y d 
-1.0031 k y j 
-1.0031 k z o 
-1.0031 k z sixty 
-1.8482 l a a 
-0.6412 l a c 
-1.8482 l a m 
-0.6412 l a n 
-1.0675 l a one 
-1.8482 l a r 
-1.8482 l a s 
-0.7020 l b e 
-1.0031 l c h 
-1.0031 l c z 
-0.9627 l d a 
-1.7434 l d b 
-1.7434 l d e 
-1.7434 l d fourteen 
-1.7434 l d i 
-1.7434 l d j 
-1.7434 l d r 
-1.7434 l d s 
-1.7434 l d t 
-1.7434 l d w 
-2.1492 l e a 
-2.1492 l e d 
-2.1492 l e e 
-2.1492 l e fifty 
-2.1492 l e four 
-2.1492 l e g 
-1.3685 l e n 
-2.1492 l e nine 
-0.9422 l e one 
-1.3685 l e p 
-2.1492 l e r 
-1.3685 l e s 
-2.1492 l e seventy 
-2.1492 l e two 
-2.1492 l e u 
-2.1492 l e v 
-1.3685 l e w 
-0.9422 l e y 
-0.7020 l eight four 
-1.1792 l f o 
-1.1792 l f thirty 
-1.1792 l f x 
-1.0031 l fifty one 
-1.0031 l fifty seven 
-1.0031 l five six 
-1.0031 l five two 
-0.3985 l g a 
-1.1792 l g i 
-0.7020 l h n 
-1.7812 l i a 
-0.7370 l i e 
-1.7812 l i f 
-1.7812 l i g 
-0.7370 l i n 
-1.7812 l i o 
-1.7812 l i p 
-1.7812 l i s 
-0.7020 l j u 
-1.3041 l k a 
-1.3041 l k f 
-1.3041 l k h 
-1.3041 l k i 
-1.9573 l l b 
-1.9573 l l c 
-0.9131 l l e 
-0.7503 l l i 
-1.9573 l l j 
-1.9573 l l k 
-1.9573 l l nine 
-1.9573 l l o 
-1.9573 l l one 
-1.9573 l l p 
-1.9573 l l s 
-1.1766 l l y 
-1.0031 l m o 
-1.0031 l m u 
-0.7020 l n s 
-0.7020 l nine four 
-1.4010 l o n 
-1.4010 l o o 
-1.4010 l o r 
-1.4010 l o u 
-1.4010 l o w 
-0.7020 l one nine 
-0.7020 l p i 
-1.1792 l r l 
-1.1792 l r r 
-1.1792 l r seven 
-1.1792 l s k 
-1.1792 l s o 
-1.1792 l s w 
-0.7020 l seventy seven 
-0.7020 l six three 
-0.7020 l t m 
-0.7020 l ten seventy 
-0.7020 l thirty one 
-1.0031 l three seven 
-1.0031 l three seventy 
-0.7020 l two enter 
-1.1792 l u b 
-1.1792 l u d 
-1.1792 l u s 
-1.4010 l y c 
-1.4010 l y fifty 
-1.4010 l y s 
-1.4010 l y u 
-1.4010 l y z 
-1.0031 l z e 
-1.0031 l z r 
-0.7020 l zero enter 
-2.0243 m a c 
-2.0243 m a h 
-2.0243 m a l 
-1.2435 m a n 
-2.0243 m a p 
-0.4085 m a r 
-1.2435 m a s 
-1.2435 m a t 
-2.0243 m a u 
-2.0243 m a z 
-1.0031 m b e 
-1.0031 m b z 
-0.7020 m c k 
-0.7020 m d m 
-1.6051 m e a 
-1.6051 m e e 
-1.6051 m e m 
-0.5609 m e r 
-0.8244 m e s 
-0.2224 m eight four 
-0.7020 m f g 
-0.7020 m fifty four 
-0.7020 m forty three 
-0.7020 m four seventy 
-0.7020 m g e 
-1.0031 m h r 
-1.0031 m h seven 
-0.6995 m i c 
-1.4802 m i d 
-0.6995 m i t 
-1.4802 m i thirty 
-1.0031 m j one 
-1.0031 m j seven 
-0.7020 m k nine 
-1.1792 m m e 
-1.1792 m m s 
-1.1792 m m v 
-1.3041 m n e 
-1.3041 m n t 
-1.3041 m n y 
-1.3041 m n z 
-1.7434 m o d 
-1.7434 m o h 
-0.9627 m o n 
-0.3255 m o r 
-1.7434 m o t 
-1.3041 m p e 
-1.3041 m p l 
-0.5234 m p s 
-0.7020 m q n 
-1.1792 m s j 
-1.1792 m s m 
-1.1792 m s t 
-0.7020 m seven rubout 
-0.7020 m t g 
-0.7020 m thirty nine 
-0.7020 m two start 
-1.1792 m u five 
-1.1792 m u four 
-1.1792 m u p 
-1.0031 m v o 
-1.0031 m v q 
-0.7020 m x seventy 
-1.0031 m y a 
-1.0031 m y m 
-0.7020 march third nineteen 
-0.7020 march twentieth nineteen 
-0.7020 march twenty fifth 
-0.7020 may nineteen forty 
-0.7020 may ninth sixty 
-0.7020 may twenty first 
-1.7434 n a a 
-1.7434 n a f 
-1.7434 n a g 
-1.7434 n a l 
-1.7434 n a m 
-1.7434 n a n 
-0.9627 n a one 
-0.9627 n a t 
-1.7434 n a twenty 
-1.3041 n b a 
-1.3041 n b five 
-1.3041 n b u 
-1.3041 n b x 
-1.6051 n c a 
-0.8244 n c e 
-1.6051 n c k 
-1.6051 n c l 
-1.6051 n c m 
-1.6051 n c o 
-1.6051 n c thirty 
-0.6090 n d a 
-1.0353 n d e 
-1.8160 n d l 
-1.0353 n d p 
-1.8160 n d r 
-1.8160 n d s 
-1.0353 n d y 
-2.0243 n e d 
-1.2435 n e g 
-2.0243 n e h 
-2.0243 n e i 
-2.0243 n e j 
-0.9801 n e l 
-2.0243 n e m 
-2.0243 n e o 
-2.0243 n e one 
-2.0243 n e r 
-1.2435 n e s 
-2.0243 n e t 
-0.9801 n e w 
-1.2435 n e y 
-0.7020 n eight forty 
-0.7020 n f e 
-0.3985 n five one 
-1.1792 n five six 
-1.0031 n four four 
-1.0031 n four rubout 
-0.8244 n g h 
-1.6051 n g l 
-1.6051 n g m 
-1.6051 n g n 
-1.6051 n g s 
-1.6051 n g t 
-1.6051 n g v 
-1.0031 n h o 
-1.0031 n h three 
-0.9627 n i a 
-0.6992 n i c 
-1.7434 n i e 
-1.7434 n i f 
-1.7434 n i j 
-0.9627 n i m 
-1.7434 n i n 
-1.0031 n j e 
-1.0031 n j four 
-1.1792 n k a 
-0.3985 n k e 
-1.0031 n l l 
-1.0031 n l n 
-1.1792 n m a 
-1.1792 n m forty 
-1.1792 n m i 
-1.6563 n n a 
-0.8756 n n e 
-0.8756 n n i 
-1.6563 n n one 
-1.6563 n n p 
-1.6563 n n three 
-1.6563 n n y 
-1.3041 n o f 
-1.3041 n o o 
-1.3041 n o p 
-1.3041 n o w 
-1.4802 n one five 
-1.4802 n one nine 
-1.4802 n one thousand 
-0.6995 n one two 
-1.4802 n one zero 
-1.6051 n p eight 
-1.6051 n p g 
-0.3981 n p i 
-1.6051 n p ninety 
-1.6051 n p u 
-1.3041 n r a 
-1.3041 n r g 
-1.3041 n r i 
-1.3041 n r o 
-1.5471 n s h 
-1.5471 n s k 
-1.5471 n s o 
-1.5471 n s one 
-1.5471 n s p 
-0.7664 n s t 
-0.7020 n seventy one 
-1.0031 n six seven 
-1.0031 n six zero 
-1.7434 n t d 
-1.7434 n t four 
-1.7434 n t h 
-0.9627 n t o 
-1.7434 n t p 
-0.9627 n t r 
-0.6992 n t z 
-1.0031 n thirty e 
-1.0031 n thirty two 
-1.1792 n three nine 
-1.1792 n three oh 
-1.1792 n three one 
-1.0031 n two nine 
-1.0031 n two two 
-1.4010 n u a 
-0.1940 n u e 
-1.0031 n x f 
-1.0031 n x v 
-1.1792 n y h 
-1.1792 n y ten 
-1.1792 n y v 
-1.1792 n z i 
-1.1792 n z l 
-1.1792 n z x 
-1.0031 nine a a 
-1.0031 nine a l 
-0.7020 nine and a 
-0.7020 nine august twenty 
-1.1792 nine b e 
-1.1792 nine b seven 
-1.1792 nine b y 
-1.1792 nine eight eight 
-1.1792 nine eight nine 
-1.1792 nine eight two 
-0.7020 nine eighty nine 
-0.7020 nine eleven nine 
-1.3041 nine enter eight 
-1.3041 nine enter five 
-1.3041 nine enter nine 
-1.3041 nine enter six 
-1.3041 nine erase a 
-1.3041 nine erase c 
-1.3041 nine erase w 
-1.3041 nine erase x 
-0.7020 nine f k 
-1.0031 nine fifty eight 
-1.0031 nine fifty nine 
-1.6051 nine five four 
-1.6051 nine five nine 
-1.6051 nine five oh 
-1.6051 nine five one 
-1.6051 nine five sixteen 
-1.6051 nine five thirty 
-0.8244 nine five two 
-0.7020 nine forty three 
-1.3041 nine four enter 
-1.3041 nine four no 
-1.3041 nine four oh 
-1.3041 nine four six 
-0.7020 nine g e 
-0.7020 nine go repeat 
-0.7020 nine help enter 
-0.7020 nine hundred w 
-0.7020 nine j z 
-0.7020 nine july twelfth 
-0.7020 nine june twenty 
-1.0031 nine m f 
-1.0031 nine m o 
-1.0031 nine n g 
-1.0031 nine n h 
-1.3041 nine nine a 
-1.3041 nine nine four 
-1.3041 nine nine july 
-1.3041 nine nine r 
-0.7020 nine nineteen sixty 
-1.1792 nine no h 
-1.1792 nine no o 
-1.1792 nine no p 
-0.7020 nine o a 
-0.7020 nine of sixty 
-0.7020 nine oh oh 
-1.4010 nine one february 
-1.4010 nine one four 
-1.4010 nine one l 
-1.4010 nine one rubout 
-1.4010 nine one two 
-0.7020 nine p o 
-0.7020 nine r q 
-1.1792 nine rubout g 
-1.1792 nine rubout w 
-1.1792 nine rubout z 
-1.1792 nine s e 
-1.1792 nine s t 
-1.1792 nine s w 
-0.7020 nine september twenty 
-1.1792 nine seven six 
-1.1792 nine seven two 
-1.1792 nine seven zero 
-0.7020 nine seventy two 
-1.7020 nine six four 
-1.7020 nine six nine 
-1.7020 nine six september 
-0.9213 nine six seven 
-0.9213 nine six six 
-1.7020 nine six start 
-1.7020 nine six stop 
-1.7020 nine six two 
-0.7020 nine sixty eight 
-1.0031 nine thirty nine 
-1.0031 nine thirty sixty 
-1.4010 nine three a 
-0.6203 nine three five 
-1.4010 nine three may 
-1.4010 nine three three 
-1.0031 nine twenty enter 
-1.0031 nine twenty three 
-1.5471 nine two erase 
-1.5471 nine two october 
-1.5471 nine two six 
-1.5471 nine two three 
-1.5471 nine two twenty 
-0.7664 nine two two 
-1.0031 nine v e 
-1.0031 nine v k 
-0.7020 nine w i 
-0.7020 nine x i 
-1.1792 nine yes erase 
-1.1792 nine yes h 
-1.1792 nine yes rubout 
-0.7020 nine zero one 
-0.2224 nineteen fifty two 
-0.2224 nineteen forty four 
-1.1792 nineteen seventy g 
-1.1792 nineteen seventy rubout 
-1.1792 nineteen seventy yes 
-1.0003 nineteen sixty five 
-2.0445 nineteen sixty four 
-2.0445 nineteen sixty help 
-0.4852 nineteen sixty nine 
-1.2638 nineteen sixty one 
-0.7193 nineteen sixty seven 
-2.0445 nineteen sixty six 
-2.0445 nineteen sixty three 
-0.7020 nineteen twenty eight 
-1.0031 ninety eight e 
-1.0031 ninety eight twenty 
-1.0031 ninety five f 
-1.0031 ninety five k 
-1.0031 ninety four enter 
-1.0031 ninety four help 
-0.7020 ninety one start 
-0.7020 ninety seven l 
-1.0031 ninety six no 
-1.0031 ninety six r 
-0.7020 ninth of september 
-0.7020 ninth sixty two 
-0.7020 no c a 
-0.7020 no enter ninety 
-1.1792 no erase e 
-1.1792 no erase g 
-1.1792 no erase q 
-0.7020 no f e 
-0.7020 no h o 
-0.7020 no help v 
-0.7020 no o u 
-0.7020 no p o 
-1.1792 no rubout h 
-1.1792 no rubout q 
-1.1792 no rubout w 
-0.7020 no s t 
-0.7020 no start h 
-0.7020 no t h 
-1.5471 o a c 
-0.5030 o a d 
-1.5471 o a k 
-1.5471 o a m 
-1.5471 o a w 
-0.7020 o apostrophe h 
-0.6203 o b a 
-0.6203 o b e 
-1.4010 o b eight 
-0.7020 o c k 
-1.6563 o d e 
-1.6563 o d o 
-0.4493 o d p 
-1.6563 o d s 
-1.6563 o d u 
-1.6563 o d w 
-0.7020 o e p 
-0.7020 o eight b 
-1.3041 o f b 
-1.3041 o f f 
-1.3041 o f h 
-1.3041 o f r 
-0.7020 o five enter 
-0.7020 o forty six 
-0.7020 o four z 
-0.7020 o g d 
-1.3041 o h g 
-0.2599 o h n 
-0.7020 o j t 
-1.0031 o k h 
-1.0031 o k t 
-1.6563 o l a 
-1.6563 o l d 
-1.6563 o l e 
-1.6563 o l eight 
-0.8756 o l i 
-1.6563 o l k 
-1.6563 o l l 
-1.6563 o l s 
-0.7664 o m a 
-0.7664 o m e 
-1.5471 o m eight 
-1.5471 o m n 
-1.5471 o m o 
-0.9422 o n a 
-2.1492 o n b 
-1.1050 o n c 
-2.1492 o n e 
-2.1492 o n g 
-0.9422 o n i 
-1.3685 o n j 
-2.1492 o n k 
-2.1492 o n m 
-2.1492 o n n 
-2.1492 o n one 
-1.1050 o n p 
-2.1492 o n s 
-1.3685 o n t 
-2.1492 o n thirty 
-2.1492 o n x 
-0.7020 o ninety five 
-1.8160 o o b 
-0.3217 o o d 
-1.8160 o o f 
-1.8160 o o forty 
-1.8160 o o k 
-1.8160 o o m 
-1.8160 o o n 
-1.1792 o p h 
-1.1792 o p i 
-1.1792 o p l 
-0.7020 o q i 
-1.9808 o r b 
-1.2001 o r c 
-0.9366 o r d 
-0.6557 o r e 
-1.9808 o r k 
-1.9808 o r n 
-1.9808 o r o 
-1.9808 o r r 
-1.2001 o r t 
-1.9808 o r w 
-1.9808 o r y 
-0.3568 o s e 
-1.4010 o s s 
-1.4010 o s t 
-0.7020 o six five 
-0.7020 o sixty two 
-1.4802 o t e 
-1.4802 o t f 
-0.6995 o t h 
-1.4802 o t q 
-1.4802 o t t 
-0.7020 o two two 
-1.7020 o u eighty 
-1.7020 o u four 
-1.7020 o u g 
-1.7020 o u n 
-1.7020 o u q 
-1.7020 o u r 
-0.9213 o u s 
-0.9213 o u t 
-1.6563 o w d 
-1.6563 o w e 
-1.6563 o w g 
-1.6563 o w l 
-0.4493 o w n 
-1.6563 o w w 
-0.7020 o x eight 
-1.0031 o y g 
-1.0031 o y three 
-0.7020 o z e 
-0.7020 october first nineteen 
-0.7020 october thirtieth nineteen 
-0.7020 october twenty third 
-0.7020 of september nineteen 
-0.7020 of sixty start 
-1.7434 oh eight eight 
-1.7434 oh eight five 
-1.7434 oh eight june 
-0.9627 oh eight nine 
-1.7434 oh eight oh 
-1.7434 oh eight one 
-0.9627 oh eight six 
-1.7434 oh eight three 
-1.7434 oh eight two 
-1.0031 oh enter one 
-1.0031 oh enter six 
-1.4802 oh five e 
-1.4802 oh five enter 
-1.4802 oh five four 
-0.6995 oh five nine 
-1.4802 oh five yes 
-1.1792 oh four five 
-0.3985 oh four four 
-0.7020 oh j o 
-1.1792 oh nine and 
-1.1792 oh nine f 
-1.1792 oh nine six 
-1.0031 oh oh eight 
-1.0031 oh oh two 
-1.4010 oh one c 
-1.4010 oh one five 
-1.4010 oh one four 
-1.4010 oh one nine 
-1.4010 oh one p 
-1.6563 oh seven five 
-1.6563 oh seven m 
-1.6563 oh seven nine 
-1.6563 oh seven oh 
-1.6563 oh seven p 
-1.6563 oh seven rubout 
-1.6563 oh seven seventeen 
-1.6563 oh seven six 
-1.6563 oh seven stop 
-1.7812 oh six c 
-1.7812 oh six five 
-1.7812 oh six h 
-1.0005 oh six nine 
-1.7812 oh six oh 
-1.7812 oh six seven 
-1.7812 oh six six 
-0.7370 oh six three 
-1.7812 oh six two 
-1.4010 oh three eight 
-1.4010 oh three rubout 
-1.4010 oh three seven 
-1.4010 oh three two 
-1.4010 oh three v 
-0.7020 oh twelve twenty 
-1.6563 oh two e 
-1.6563 oh two eight 
-1.6563 oh two enter 
-1.6563 oh two five 
-1.6563 oh two m 
-1.6563 oh two nine 
-1.6563 oh two seven 
-0.8756 oh two six 
-1.0031 one a r 
-1.0031 one a v 
-0.7020 one august twenty 
-1.0031 one b o 
-1.0031 one b v 
-0.7020 one c e 
-1.0031 one e a 
-1.0031 one e w 
-1.6563 one eight c 
-1.6563 one eight eight 
-1.6563 one eight four 
-1.6563 one eight one 
-1.6563 one eight seven 
-1.6563 one eight six 
-1.6563 one eight three 
-0.8756 one eight two 
-0.7020 one eleven o 
-1.4802 one enter eighty 
-0.6995 one enter four 
-1.4802 one enter nine 
-1.4802 one enter one 
-1.4802 one enter sixty 
-0.7020 one f i 
-0.7020 one february eighth 
-0.7020 one fifteen m 
-1.3041 one fifty b 
-0.5234 one fifty eight 
-1.3041 one fifty six 
-1.5271 one five five 
-2.5713 one five four 
-2.5713 one five h 
-1.7906 one five m 
-2.5713 one five nine 
-1.5271 one five oh 
-1.1533 one five one 
-1.7906 one five six 
-1.3643 one five three 
-0.1773 one five two 
-2.5713 one five zero 
-0.7020 one forty two 
-0.9627 one four eight 
-0.9627 one four nine 
-0.9627 one four one 
-0.9627 one four seven 
-1.7434 one four six 
-0.9627 one four three 
-1.1792 one go g 
-1.1792 one go h 
-1.1792 one go yes 
-0.7020 one h q 
-1.0031 one help go 
-1.0031 one help help 
-1.0031 one hundred and 
-1.0031 one hundred s 
-1.0031 one i d 
-1.0031 one i v 
-0.7020 one j a 
-0.7020 one july twenty 
-0.7020 one l r 
-0.7020 one m o 
-0.7020 one n o 
-1.7812 one nine eight 
-1.0005 one nine five 
-1.7812 one nine n 
-1.7812 one nine oh 
-1.7812 one nine s 
-1.7812 one nine seven 
-0.7370 one nine six 
-1.7812 one nine three 
-1.7812 one nine twenty 
-0.7020 one ninety six 
-1.8482 one oh eight 
-1.8482 one oh five 
-1.8482 one oh four 
-1.8482 one oh nine 
-1.8482 one oh oh 
-1.8482 one oh one 
-0.8040 one oh seven 
-1.0675 one oh six 
-0.8040 one oh two 
-1.5471 one one eight 
-0.7664 one one five 
-1.5471 one one seven 
-1.5471 one one six 
-1.5471 one one t 
-1.5471 one one three 
-0.7020 one p a 
-0.7020 one r e 
-0.7020 one repeat rubout 
-1.3041 one rubout c 
-1.3041 one rubout n 
-1.3041 one rubout o 
-1.3041 one rubout s 
-0.7020 one s n 
-2.0445 one seven area 
-2.0445 one seven fifteen 
-1.2638 one seven five 
-2.0445 one seven forty 
-0.3339 one seven four 
-2.0445 one seven seven 
-1.2638 one seven six 
-1.2638 one seven three 
-2.0445 one seven two 
-1.0031 one seventy five 
-1.0031 one seventy h 
-1.5471 one six enter 
-1.5471 one six four 
-1.5471 one six nine 
-1.5471 one six oh 
-0.7664 one six one 
-1.5471 one six two 
-0.7020 one sixteen forty 
-1.3041 one sixty eight 
-1.3041 one sixty fifty 
-1.3041 one sixty three 
-1.3041 one sixty two 
-1.0031 one start h 
-1.0031 one start y 
-1.0031 one stop rubout 
-1.0031 one stop yes 
-0.7020 one t i 
-1.0031 one ten m 
-1.0031 one ten s 
-0.2224 one thirty one 
-1.0031 one thousand m 
-1.0031 one thousand p 
-1.8482 one three december 
-0.6412 one three four 
-0.8040 one three six 
-0.8040 one three three 
-0.8040 one three two 
-1.0031 one twenty t 
-1.0031 one twenty two 
-2.1792 one two b 
-1.3985 one two eight 
-0.7612 one two five 
-0.6848 one two four 
-2.1792 one two march 
-1.3985 one two one 
-2.1792 one two seven 
-0.8540 one two six 
-0.9722 one two two 
-2.1792 one two zero 
-0.7020 one u s 
-0.7020 one w i 
-0.7020 one y w 
-0.7020 one yes enter 
-0.7020 one z eight 
-1.4010 one zero eight 
-1.4010 one zero five 
-1.4010 one zero one 
-1.4010 one zero six 
-1.4010 one zero zero 
-1.3041 p a c 
-1.3041 p a h 
-1.3041 p a r 
-1.3041 p a t 
-0.7020 p b six 
-0.7020 p c seven 
-1.0031 p d f 
-1.0031 p d two 
-1.0031 p e eight 
-1.0031 p e r 
-0.7020 p eight hundred 
-0.7020 p f j 
-0.7020 p forty five 
-0.7020 p four repeat 
-0.1350 p g h 
-0.6995 p h e 
-1.4802 p h i 
-1.4802 p h one 
-1.4802 p h s 
-1.4802 p h y 
-2.3741 p i five 
-2.3741 p i n 
-0.0267 p i t 
-0.6203 p l a 
-0.3568 p l e 
-1.0031 p n a 
-1.0031 p n e 
-0.7020 p ninety seven 
-1.4802 p o l 
-0.6995 p o m 
-1.4802 p o o 
-1.4802 p o r 
-1.4802 p o u 
-0.1350 p r i 
-1.3041 p s h 
-1.3041 p s o 
-1.3041 p s p 
-1.3041 p s z 
-0.7020 p seventeen enter 
-1.1792 p t e 
-1.1792 p t k 
-1.1792 p t q 
-0.7020 p three two 
-1.1792 p u five 
-1.1792 p u s 
-1.1792 p u x 
-0.7020 p y h 
-0.7020 q c j 
-1.1792 q d b 
-1.1792 q d one 
-1.1792 q d q 
-1.0031 q e e 
-1.0031 q e j 
-0.7020 q f x 
-1.0031 q fifty eight 
-1.0031 q fifty six 
-0.7020 q five oh 
-0.7020 q g eighty 
-0.7020 q i m 
-1.0031 q k six 
-1.0031 q k x 
-1.1792 q n h 
-1.1792 q n r 
-1.1792 q n seventy 
-0.7020 q one i 
-0.7020 q p forty 
-1.1792 q q k 
-1.1792 q q p 
-1.1792 q q q 
-0.7020 q six two 
-1.0031 q t seventy 
-1.0031 q t w 
-0.7020 q two eight 
-0.7020 q u e 
-0.7020 q w eight 
-0.7020 q y eight 
-0.7020 q z h 
-1.8160 r a c 
-1.0353 r a d 
-1.8160 r a f 
-1.8160 r a j 
-0.4908 r a n 
-1.8160 r a one 
-1.8160 r a p 
-1.8160 r a v 
-1.4802 r b d 
-1.4802 r b o 
-0.6995 r b r 
-1.4802 r b seven 
-1.4802 r b u 
-0.1350 r c h 
-1.6563 r d d 
-1.6563 r d i 
-1.6563 r d one 
-0.6121 r d p 
-1.6563 r d sixty 
-0.8756 r d w 
-1.3193 r e a 
-2.1000 r e d 
-1.3193 r e e 
-2.1000 r e f 
-2.1000 r e j 
-2.1000 r e k 
-1.3193 r e l 
-0.8930 r e n 
-1.3193 r e p 
-2.1000 r e r 
-1.0558 r e t 
-0.7748 r e w 
-1.0031 r f i 
-1.0031 r f o 
-1.3739 r g a 
-2.4180 r g c 
-2.4180 r g d 
-2.4180 r g forty 
-0.0805 r g h 
-2.4180 r g nine 
-2.4180 r g one 
-0.7020 r h h 
-1.9808 r i a 
-0.5629 r i c 
-1.9808 r i g 
-1.9808 r i k 
-0.7738 r i n 
-1.2001 r i s 
-0.7738 r i v 
-0.9627 r k e 
-1.7434 r k fifty 
-1.7434 r k i 
-1.7434 r k one 
-1.7434 r k r 
-1.7434 r k s 
-0.6992 r k six 
-1.7434 r k three 
-0.6121 r l a 
-0.8756 r l e 
-1.6563 r l f 
-1.6563 r l fifty 
-0.8756 r l y 
-0.2224 r m a 
-1.4802 r n a 
-1.4802 r n d 
-0.4360 r n e 
-1.4802 r n k 
-0.9801 r o a 
-1.2435 r o b 
-2.0243 r o m 
-0.6991 r o n 
-1.2435 r o o 
-2.0243 r o p 
-0.9801 r o s 
-1.2435 r o w 
-2.0243 r o y 
-2.0243 r o z 
-1.0031 r one four 
-1.0031 r one two 
-0.7020 r p i 
-0.7020 r q z 
-0.6121 r r e 
-1.6563 r r i 
-1.6563 r r k 
-1.6563 r r n 
-0.8756 r r o 
-1.6563 r r y 
-0.2599 r s o 
-1.3041 r s t 
-0.7020 r seven zero 
-0.7020 r sixty one 
-1.5471 r t forty 
-1.5471 r t h 
-0.7664 r t one 
-0.7664 r t p 
-1.5471 r t z 
-1.0031 r thirty one 
-1.0031 r thirty three 
-1.0031 r u m 
-1.0031 r u s 
-1.0031 r v fifty 
-1.0031 r v z 
-1.0031 r w a 
-1.0031 r w twenty 
-1.6051 r y fifty 
-1.6051 r y four 
-1.6051 r y j 
-1.6051 r y l 
-1.6051 r y oh 
-0.8244 r y one 
-1.6051 r y p 
-1.0031 r z nine 
-1.0031 r z r 
-0.7020 repeat b a 
-0.7020 repeat enter eight 
-0.7020 repeat erase n 
-0.7020 repeat f i 
-0.7020 repeat g i 
-0.7020 repeat l r 
-0.7020 repeat m a 
-1.1792 repeat no c 
-1.1792 repeat no s 
-1.1792 repeat no t 
-0.7020 repeat o l 
-0.7020 repeat r h 
-1.0031 repeat rubout i 
-1.0031 repeat rubout o 
-1.0031 repeat stop m 
-1.0031 repeat stop rubout 
-0.7020 repeat w e 
-0.7020 rubout a d 
-1.1792 rubout c h 
-1.1792 rubout c t 
-1.1792 rubout c y 
-0.7020 rubout d q 
-1.0031 rubout e u 
-1.0031 rubout e z 
-1.3041 rubout f b 
-1.3041 rubout f m 
-1.3041 rubout f x 
-1.3041 rubout f y 
-1.0031 rubout g j 
-1.0031 rubout g u 
-1.1792 rubout h a 
-1.1792 rubout h f 
-1.1792 rubout h w 
-1.0031 rubout i r 
-1.0031 rubout i t 
-1.1792 rubout j b 
-1.1792 rubout j l 
-1.1792 rubout j u 
-0.7020 rubout l d 
-1.1792 rubout m d 
-1.1792 rubout m n 
-1.1792 rubout m v 
-0.6203 rubout n a 
-1.4010 rubout n b 
-1.4010 rubout n x 
-1.4010 rubout n z 
-1.3041 rubout o g 
-1.3041 rubout o h 
-1.3041 rubout o k 
-1.3041 rubout o q 
-1.0031 rubout p n 
-1.0031 rubout p o 
-1.0031 rubout q n 
-1.0031 rubout q q 
-1.1792 rubout r e 
-1.1792 rubout r r 
-1.1792 rubout r z 
-0.7020 rubout s h 
-1.1792 rubout t b 
-1.1792 rubout t g 
-1.1792 rubout t j 
-1.4010 rubout u f 
-1.4010 rubout u g 
-1.4010 rubout u j 
-0.6203 rubout u t 
-1.0031 rubout v a 
-1.0031 rubout v e 
-1.0031 rubout w l 
-1.0031 rubout w p 
-0.7020 rubout x c 
-0.7020 rubout y y 
-1.1792 rubout z g 
-1.1792 rubout z o 
-1.1792 rubout z y 
-1.1792 s a m 
-1.1792 s a t 
-1.1792 s a y 
-2.3741 s b o 
-0.0170 s b u 
-0.7020 s c a 
-1.6051 s e l 
-1.6051 s e m 
-1.6051 s e n 
-0.5609 s e p 
-0.8244 s e w 
-1.0031 s f q 
-1.0031 s f twenty 
-0.7020 s fifty eight 
-0.6203 s h a 
-1.4010 s h e 
-1.4010 s h i 
-1.4010 s h k 
-0.7020 s i q 
-0.3985 s j a 
-1.1792 s j seven 
-1.4802 s k a 
-1.4802 s k e 
-0.6995 s k i 
-1.4802 s k u 
-1.4802 s k y 
-1.0031 s l e 
-1.0031 s l f 
-0.3568 s m a 
-1.4010 s m g 
-1.4010 s m i 
-0.7020 s n o 
-1.0005 s o l 
-0.1654 s o n 
-1.7812 s o u 
-0.6203 s one five 
-1.4010 s one seventy 
-1.4010 s one two 
-1.4010 s one zero 
-0.4493 s p i 
-1.6563 s p n 
-1.6563 s p o 
-0.8756 s p r 
-1.6563 s p s 
-1.4010 s s h 
-1.4010 s s m 
-1.4010 s s t 
-1.4010 s s v 
-1.4010 s s w 
-1.0031 s seven sixty 
-1.0031 s seven thirty 
-0.2916 s t e 
-1.9573 s t eighty 
-1.9573 s t i 
-1.9573 s t m 
-1.1766 s t o 
-0.9131 s t r 
-0.7020 s thirty five 
-1.1792 s u m 
-1.1792 s u n 
-1.1792 s u o 
-1.1792 s v a 
-1.1792 s v i 
-1.1792 s v n 
-1.3041 s w a 
-1.3041 s w i 
-1.3041 s w o 
-1.3041 s w z 
-0.7020 s x two 
-1.0031 s z k 
-1.0031 s z nine 
-0.7020 s zero a 
-0.2224 second nineteen sixty 
-0.7020 september fifteenth nineteen 
-0.7020 september first nineteen 
-0.7020 september nineteen sixty 
-0.7020 september sixth nineteen 
-0.7020 september twenty seventh 
-0.7020 seven area code 
-0.7020 seven b r 
-1.7020 seven eight august 
-0.6579 seven eight eight 
-1.7020 seven eight erase 
-1.7020 seven eight five 
-1.7020 seven eight four 
-1.7020 seven eight three 
-1.7020 seven eight two 
-1.7020 seven eight zero 
-1.0031 seven enter fifty 
-1.0031 seven enter four 
-1.0031 seven erase b 
-1.0031 seven erase v 
-0.7020 seven fifteen nineteen 
-0.7020 seven fifty five 
-1.6051 seven five eight 
-0.8244 seven five one 
-0.8244 seven five seven 
-0.5609 seven five two 
-1.1792 seven forty four 
-0.3985 seven forty seven 
-1.9062 seven four eight 
-1.9062 seven four four 
-1.9062 seven four h 
-0.4118 seven four one 
-1.9062 seven four twelve 
-0.5810 seven four two 
-1.0031 seven fourteen a 
-1.0031 seven fourteen sixty 
-1.0031 seven h a 
-1.0031 seven h p 
-0.7020 seven help b 
-0.7020 seven hundred twenty 
-0.7020 seven j s 
-0.7020 seven l a 
-1.0031 seven m m 
-1.0031 seven m o 
-0.7020 seven may nineteen 
-1.4802 seven nine five 
-0.6995 seven nine one 
-1.4802 seven nine three 
-0.6995 seven nine two 
-0.7020 seven october first 
-0.6995 seven oh eight 
-1.4802 seven oh enter 
-1.4802 seven oh six 
-1.4802 seven oh three 
-1.4802 seven oh two 
-1.4802 seven one eight 
-1.4802 seven one july 
-1.4802 seven one oh 
-1.4802 seven one six 
-1.4802 seven one thirty 
-1.4802 seven one zero 
-1.1792 seven p i 
-1.1792 seven p o 
-1.1792 seven p t 
-0.7020 seven r o 
-1.7020 seven rubout c 
-1.7020 seven rubout j 
-1.7020 seven rubout l 
-1.7020 seven rubout n 
-1.7020 seven rubout p 
-1.7020 seven rubout q 
-1.7020 seven rubout r 
-1.7020 seven rubout t 
-1.7020 seven rubout v 
-1.7020 seven rubout z 
-1.0031 seven s l 
-1.0031 seven s u 
-1.3041 seven seven five 
-1.3041 seven seven j 
-1.3041 seven seven nine 
-1.3041 seven seven rubout 
-0.7020 seven seventeen fifty 
-0.7020 seven seventy two 
-1.5471 seven six a 
-0.7664 seven six eight 
-1.5471 seven six f 
-1.5471 seven six seventeen 
-1.5471 seven six six 
-1.5471 seven six three 
-1.1792 seven sixty eight 
-1.1792 seven sixty four 
-1.1792 seven sixty seven 
-0.7020 seven start i 
-1.4010 seven stop d 
-0.6203 seven stop enter 
-1.4010 seven stop go 
-1.4010 seven stop repeat 
-1.1792 seven ten enter 
-1.1792 seven ten f 
-1.1792 seven ten one 
-1.0031 seven thirty e 
-1.0031 seven thirty eight 
-0.7020 seven thousand one 
-1.3041 seven three one 
-1.3041 seven three rubout 
-1.3041 seven three six 
-1.3041 seven three zero 
-1.1792 seven twenty five 
-0.3985 seven twenty nine 
-1.4802 seven two eighteen 
-1.4802 seven two four 
-1.4802 seven two nine 
-1.4802 seven two one 
-1.4802 seven two two 
-1.4802 seven two zero 
-1.0031 seven v a 
-1.0031 seven v l 
-0.7020 seven y f 
-1.3041 seven yes erase 
-1.3041 seven yes j 
-1.3041 seven yes n 
-1.3041 seven yes s 
-0.7020 seven z c 
-1.1792 seven zero one 
-1.1792 seven zero s 
-1.1792 seven zero yes 
-0.7020 seventeen enter eight 
-1.0031 seventeen fifty one 
-1.0031 seventeen fifty seven 
-0.7020 seventeen rubout e 
-0.7020 seventeen thirty six 
-0.7020 seventh nineteen sixty 
-0.7020 seventy eight k 
-0.7020 seventy five q 
-0.7020 seventy g two 
-0.7020 seventy h a 
-1.1792 seventy nine fifty 
-1.1792 seventy nine help 
-1.1792 seventy nine yes 
-1.6051 seventy one b 
-0.5609 seventy one enter 
-1.6051 seventy one m 
-1.6051 seventy one rubout 
-1.6051 seventy one start 
-1.6051 seventy one stop 
-0.7020 seventy p o 
-0.7020 seventy rubout f 
-1.1792 seventy seven forty 
-1.1792 seventy seven v 
-1.1792 seventy seven yes 
-0.7020 seventy six twelve 
-1.3041 seventy two c 
-1.3041 seventy two enter 
-1.3041 seventy two repeat 
-1.3041 seventy two stop 
-0.7020 seventy yes x 
-0.7020 six a t 
-0.7020 six b u 
-1.0031 six c a 
-1.0031 six c o 
-0.7020 six e m 
-1.3193 six eight five 
-0.7748 six eight four 
-1.3193 six eight one 
-0.8930 six eight seven 
-1.3193 six eight six 
-2.1000 six eight ten 
-0.5407 six eight three 
-2.1000 six eight two 
-0.7020 six eighty eight 
-1.6563 six enter fifty 
-1.6563 six enter four 
-1.6563 six enter one 
-1.6563 six enter seven 
-1.6563 six enter six 
-0.8756 six enter sixty 
-1.6563 six enter thirty 
-1.6563 six enter two 
-1.4010 six erase g 
-1.4010 six erase k 
-1.4010 six erase o 
-1.4010 six erase q 
-1.4010 six erase s 
-0.7020 six f a 
-1.4802 six five eight 
-1.4802 six five f 
-1.4802 six five five 
-1.4802 six five nine 
-1.4802 six five six 
-1.4802 six five three 
-0.7020 six forty five 
-1.0005 six four eight 
-1.7812 six four eleven 
-1.0005 six four five 
-1.7812 six four four 
-1.7812 six four january 
-1.7812 six four nine 
-1.7812 six four no 
-1.7812 six four seven 
-1.7812 six four six 
-1.7812 six four zero 
-0.3985 six h a 
-1.1792 six h i 
-0.7020 six hundred forty 
-0.7020 six july thirtieth 
-0.7020 six k e 
-1.0031 six l e 
-1.0031 six l z 
-1.4802 six nine b 
-0.6995 six nine five 
-1.4802 six nine go 
-1.4802 six nine september 
-1.4802 six nine two 
-1.0031 six no erase 
-1.0031 six no start 
-0.6995 six oh eight 
-1.4802 six oh five 
-0.6995 six oh seven 
-1.4802 six oh six 
-0.8756 six one five 
-1.6563 six one four 
-1.6563 six one go 
-1.6563 six one nine 
-1.6563 six one seven 
-1.6563 six one sixteen 
-1.6563 six one two 
-1.6563 six one zero 
-1.0031 six p a 
-1.0031 six p r 
-0.7020 six r g 
-0.7020 six rubout n 
-0.7020 six s m 
-0.7020 six september fifteenth 
-1.6051 six seven eight 
-1.6051 six seven fourteen 
-1.6051 six seven nine 
-0.8244 six seven oh 
-1.6051 six seven r 
-1.6051 six seven s 
-1.6051 six seven twenty 
-0.7020 six seventeen thirty 
-1.7812 six six eight 
-1.7812 six six erase 
-1.0005 six six five 
-1.7812 six six four 
-1.0005 six six one 
-1.7812 six six seven 
-1.7812 six six six 
-1.7812 six six sixteen 
-1.0005 six six two 
-0.7020 six sixteen sixty 
-1.0031 six sixty nine 
-1.0031 six sixty three 
-1.0031 six start no 
-1.0031 six start rubout 
-0.7020 six stop erase 
-1.0031 six t a 
-1.0031 six t r 
-0.7020 six ten twenty 
-1.0031 six thirty b 
-1.0031 six thirty two 
-0.7020 six thousand eight 
-1.7434 six three eight 
-1.7434 six three erase 
-1.7434 six three four 
-1.7434 six three nine 
-1.7434 six three oh 
-0.9627 six three one 
-0.9627 six three six 
-1.7434 six three sixty 
-1.7434 six three two 
-1.0031 six twelve enter 
-1.0031 six twelve nine 
-0.7020 six twenty six 
-0.9213 six two eight 
-1.7020 six two five 
-1.7020 six two four 
-0.9213 six two seven 
-0.6579 six two six 
-1.7020 six two two 
-1.0031 six v a 
-1.0031 six v q 
-1.0031 six yes g 
-1.0031 six yes rubout 
-0.7020 six zero one 
-0.7020 sixteen forty eight 
-1.0031 sixteen sixty enter 
-1.0031 sixteen sixty nine 
-0.7020 sixteenth nineteen sixty 
-0.7020 sixth nineteen sixty 
-1.4010 sixty eight enter 
-1.4010 sixty eight erase 
-1.4010 sixty eight j 
-1.4010 sixty eight o 
-1.4010 sixty eight rubout 
-1.0031 sixty enter four 
-1.0031 sixty enter seventy 
-0.7020 sixty fifty five 
-1.4010 sixty five enter 
-1.4010 sixty five g 
-1.4010 sixty five p 
-1.4010 sixty five repeat 
-1.4010 sixty five yes 
-1.4802 sixty four and 
-1.4802 sixty four enter 
-1.4802 sixty four l 
-1.4802 sixty four no 
-1.4802 sixty four repeat 
-1.4802 sixty four stop 
-1.0031 sixty help enter 
-1.0031 sixty help n 
-1.8482 sixty nine a 
-1.8482 sixty nine b 
-1.0675 sixty nine enter 
-1.0675 sixty nine erase 
-1.8482 sixty nine g 
-1.8482 sixty nine m 
-1.0675 sixty nine rubout 
-1.8482 sixty nine s 
-1.8482 sixty nine v 
-1.8482 sixty nine x 
-1.8482 sixty nine yes 
-1.6051 sixty one a 
-0.8244 sixty one enter 
-1.6051 sixty one help 
-1.6051 sixty one r 
-1.6051 sixty one rubout 
-1.6051 sixty one yes 
-1.6051 sixty one z 
-0.7020 sixty s f 
-1.7434 sixty seven erase 
-0.9627 sixty seven h 
-1.7434 sixty seven m 
-0.9627 sixty seven rubout 
-1.7434 sixty seven start 
-0.9627 sixty seven stop 
-1.7434 sixty seven ten 
-1.7434 sixty seven yes 
-1.1792 sixty six e 
-1.1792 sixty six enter 
-1.1792 sixty six l 
-0.7020 sixty start repeat 
-0.7664 sixty three erase 
-1.5471 sixty three g 
-1.5471 sixty three no 
-1.5471 sixty three sixty 
-1.5471 sixty three v 
-1.5471 sixty three yes 
-0.6203 sixty two enter 
-1.4010 sixty two rubout 
-1.4010 sixty two thirty 
-1.4010 sixty two v 
-0.7020 sixty w a 
-1.0031 start enter eight 
-1.0031 start enter ninety 
-1.0031 start h k 
-1.0031 start h o 
-0.7020 start i p 
-0.7020 start no erase 
-1.0031 start repeat no 
-1.0031 start repeat rubout 
-1.0031 start rubout f 
-1.0031 start rubout x 
-0.7020 start y d 
-0.7020 stop d y 
-1.4802 stop enter eight 
-1.4802 stop enter nine 
-0.6995 stop enter seven 
-1.4802 stop enter six 
-1.4802 stop enter two 
-0.7020 stop erase r 
-0.7020 stop go enter 
-0.7020 stop j c 
-0.2224 stop m a 
-0.7020 stop repeat enter 
-0.2224 stop rubout u 
-0.7020 stop yes h 
-1.0031 t a n 
-1.0031 t a y 
-1.0031 t b a 
-1.0031 t b p 
-1.1792 t d a 
-1.1792 t d i 
-1.1792 t d k 
-2.0445 t e b 
-1.2638 t e d 
-1.2638 t e e 
-2.0445 t e l 
-2.0445 t e m 
-1.0003 t e n 
-2.0445 t e one 
-2.0445 t e p 
-0.7193 t e r 
-0.7193 t e v 
-0.7020 t eighty fifth 
-1.0031 t f f 
-1.0031 t f two 
-0.7020 t fifty rubout 
-0.7020 t forty three 
-0.7020 t four one 
-1.3041 t g i 
-1.3041 t g j 
-1.3041 t g k 
-1.3041 t g nine 
-0.4382 t h a 
