#############################################################################
## Copyright (c) 1996, Carnegie Mellon University, Cambridge University,
## Ronald Rosenfeld and Philip Clarkson
#############################################################################
=============================================================================
===============  This file was produced by the CMU-Cambridge  ===============
===============     Statistical Language Modeling Toolkit     ===============
=============================================================================
This is a 2-gram language model, based on a vocabulary of 101 words,
  which begins "<s>", "a", "and"...
This is an OPEN-vocabulary model (type 1)
  (OOVs were mapped to UNK, which is treated as any other vocabulary word)
Good-Turing discounting was applied.
1-gram frequency of frequency : 15 
2-gram frequency of frequency : 724 298 150 71 43 52 21 
1-gram discounting ratios : 0.88 
2-gram discounting ratios : 0.75 0.65 0.48 0.65 
This file is in the ARPA-standard format introduced by Doug Paul.

p(wd3|wd1,wd2)= if(trigram exists)           p_3(wd1,wd2,wd3)
                else if(bigram w1,w2 exists) bo_wt_2(w1,w2)*p(wd3|wd2)
                else                         p(wd3|w2)

p(wd2|wd1)= if(bigram exists) p_2(wd1,wd2)
            else              bo_wt_1(wd1)*p_1(wd2)

All probs and back-off weights (bo_wt) are given in log10 form.

Data formats:

Beginning of data mark: \data\
ngram 1=nr            # number of 1-grams
ngram 2=nr            # number of 2-grams

\1-grams:
p_1     wd_1 bo_wt_1
\2-grams:
p_2     wd_1 wd_2 

end of data mark: \end\

\data\
ngram 1=102
ngram 2=1528

\1-grams:
-3.7900 <UNK>	-0.5978
-98.9999 <s>	0.0000
-1.4135 a	-0.4543
-2.8326 and	-0.3915
-3.7900 apostrophe	-0.5876
-3.7900 april	-0.5993
-3.7900 area	-0.5994
-3.1336 august	-0.3375
-1.6601 b	-0.5748
-1.8606 c	-0.4378
-3.7900 code	-0.5861
-1.7314 d	-0.2636
-3.7900 december	-0.5994
-1.3395 e	-0.4988
-1.5510 eight	-0.4313
-3.7900 eighteen	-0.5993
-3.7900 eighteenth	-0.5971
-3.7900 eighth	-0.5971
-2.5596 eighty	-0.5291
-3.1336 eleven	-0.5710
-3.7900 eleventh	-0.5971
-1.8114 enter	-0.7004
-2.2172 erase	-0.2031
-1.9228 f	-0.2524
-3.4347 february	-0.5970
-3.0367 fifteen	-0.5627
-3.4347 fifteenth	-0.4555
-3.4347 fifth	-0.5848
-2.1675 fifty	-0.5576
-3.2586 first	-0.2777
-1.4303 five	-0.6215
-2.3043 forty	-0.2221
-1.5156 four	-0.5743
-2.7814 fourteen	-0.3992
-3.7900 fourth	-0.5971
-1.6750 g	-0.5447
-2.7357 go	-0.4852
-1.5684 h	-0.3428
-3.4347 half	-0.5822
-2.6565 help	-0.4072
-2.6565 hundred	-0.8224
-1.5182 i	-0.7226
-2.0544 j	-0.2047
-3.4347 january	-0.5992
-3.2586 july	-0.5960
-3.4347 june	-0.5963
-1.8906 k	0.0029
-1.5927 l	-0.2421
-1.7863 m	-0.3511
-3.2586 march	-0.5961
-3.2586 may	-0.5938
-1.5130 n	-0.2582
-1.6904 nine	-0.0584
-2.2586 nineteen	-0.9530
-2.7357 ninety	-0.3842
-3.4347 ninth	-0.5936
-2.5316 no	-0.3529
-1.5370 o	-0.6779
-3.2586 october	-0.5959
-3.4347 of	-0.5933
-1.8968 oh	-0.9588
-1.2932 one	-0.2583
-1.7357 p	-0.5242
-2.2586 q	-0.1661
-1.3874 r	-0.9192
-2.5052 repeat	-0.3845
-1.9648 rubout	-0.1486
-1.5567 s	-0.7425
-3.4347 second	-0.4555
-3.0367 september	-0.5935
-1.5804 seven	-0.3510
-3.0367 seventeen	-0.5197
-3.7900 seventh	-0.5971
-2.3207 seventy	-0.4300
-1.5208 six	-0.4762
-3.2586 sixteen	-0.4922
-3.7900 sixteenth	-0.5971
-3.7900 sixth	-0.5971
-1.8784 sixty	-1.0617
-2.6943 start	-0.4457
-2.5316 stop	-0.7028
-1.4218 t	-0.7327
-2.5896 ten	-0.4887
-3.2586 third	-0.2777
-3.2586 thirtieth	-0.2777
-2.1916 thirty	-0.4621
-2.7814 thousand	-0.4548
-1.6118 three	-0.4547
-3.4347 twelfth	-0.4555
-2.7814 twelve	-0.5173
-3.7900 twentieth	-0.5971
-2.1446 twenty	-0.4888
-1.3141 two	-0.7503
-1.7063 u	-0.3161
-1.9295 v	-0.6526
-1.8784 w	-0.2365
-2.2305 x	-0.1646
-1.9295 y	0.1082
-2.4135 yes	-0.3439
-2.0825 z	-0.0106
-2.1794 zero	-0.2224
-3.7900 </s>	0.0000

\2-grams:
-0.1258 <UNK> yes 
-1.9043 a a 
-2.1681 a b 
-1.2430 a c 
-1.3222 a d 
-2.1681 a e 
-2.1681 a f 
-2.4480 a fifty 
-2.4480 a five 
-1.9043 a g 
-1.9043 a h 
-2.2072 a half 
-2.1681 a i 
-2.4480 a j 
-2.1681 a k 
-1.1761 a l 
-1.2083 a m 
-0.9243 a n 
-2.4480 a ninety 
-1.4191 a one 
-1.9043 a p 
-0.7094 a r 
-1.3222 a s 
-2.1681 a six 
-1.3222 a t 
-2.4480 a three 
-2.4480 a twenty 
-2.4480 a two 
-2.2072 a u 
-1.2430 a v 
-2.1681 a w 
-2.4480 a x 
-1.6232 a y 
-2.4480 a z 
-0.7881 and a 
-0.7490 and eighty 
-1.0289 and fifty 
-1.0289 and sixty 
-1.0289 and twenty 
-0.1258 apostrophe h 
-0.1258 april thirtieth 
-0.1258 area code 
-0.7279 august sixteenth 
-0.4480 august twenty 
-1.2304 b a 
-2.2013 b b 
-2.2013 b d 
-1.0342 b e 
-2.2013 b eight 
-2.2013 b five 
-1.9606 b forty 
-2.2013 b g 
-2.2013 b h 
-2.2013 b i 
-1.9606 b j 
-2.2013 b k 
-2.2013 b l 
-1.9215 b m 
-1.3766 b o 
-2.2013 b one 
-2.2013 b p 
-1.0342 b r 
-1.9215 b s 
-1.9606 b seven 
-1.9606 b seventy 
-2.2013 b six 
-0.3595 b u 
-2.2013 b v 
-2.2013 b w 
-1.9215 b x 
-2.2013 b y 
-2.2013 b z 
-1.0300 c a 
-1.7210 c b 
-2.0009 c c 
-2.0009 c d 
-1.0300 c e 
-2.0009 c f 
-2.0009 c fifty 
-1.7601 c five 
-0.6990 c h 
-2.0009 c i 
-2.0009 c j 
-0.9208 c k 
-1.7210 c l 
-2.0009 c m 
-1.0969 c o 
-2.0009 c r 
-2.0009 c s 
-2.0009 c seven 
-2.0009 c t 
-1.7601 c thirty 
-2.0009 c two 
-2.0009 c u 
-2.0009 c v 
-1.7601 c w 
-1.7601 c y 
-1.7210 c z 
-0.1258 code four 
-0.9629 d a 
-1.8893 d b 
-2.1301 d c 
-1.5864 d d 
-1.1012 d e 
-1.8893 d f 
-2.1301 d five 
-2.1301 d forty 
-2.1301 d fourteen 
-2.1301 d h 
-1.8502 d i 
-1.8893 d j 
-1.8502 d k 
-2.1301 d l 
-1.8893 d m 
-2.1301 d n 
-1.0501 d o 
-2.1301 d oh 
-1.5864 d one 
-1.0501 d p 
-1.8893 d q 
-1.0501 d r 
-1.5864 d s 
-1.8893 d sixty 
-2.1301 d t 
-1.8893 d two 
-2.1301 d u 
-2.1301 d v 
-1.1012 d w 
-1.8502 d y 
-2.1301 d z 
-0.1258 december eighteenth 
-1.1658 e a 
-1.9783 e b 
-2.2812 e c 
-1.4931 e d 
-1.3548 e e 
-2.2812 e eight 
-2.2421 e f 
-2.5220 e fifty 
-2.2421 e four 
-1.6180 e g 
-2.5220 e h 
-1.9783 e i 
-1.9783 e j 
-2.5220 e k 
-1.0538 e l 
-1.6972 e m 
-0.9812 e n 
-2.5220 e nine 
-2.2812 e o 
-1.4420 e one 
-1.1174 e p 
-2.5220 e q 
-0.8910 e r 
-1.3548 e s 
-2.5220 e seven 
-2.5220 e seventy 
-1.4931 e t 
-2.5220 e thirty 
-2.2812 e three 
-2.5220 e two 
-2.2421 e u 
-1.3962 e v 
-1.1658 e w 
-2.5220 e x 
-1.6180 e y 
-2.2421 e z 
-2.3105 eight a 
-2.3105 eight april 
-2.3105 eight august 
-2.0697 eight b 
-2.3105 eight c 
-2.3105 eight e 
-1.4065 eight eight 
-1.2816 eight enter 
-2.0306 eight erase 
-2.3105 eight f 
-1.1847 eight five 
-2.3105 eight forty 
-0.9806 eight four 
-2.3105 eight fourteen 
-2.0697 eight g 
-2.0306 eight hundred 
-2.3105 eight j 
-2.3105 eight june 
-2.3105 eight k 
-2.3105 eight l 
-2.3105 eight n 
-1.4065 eight nine 
-2.0697 eight o 
-1.4065 eight oh 
-1.3396 eight one 
-2.3105 eight q 
-2.0697 eight repeat 
-1.7668 eight rubout 
-2.3105 eight s 
-1.2816 eight seven 
-2.0697 eight seventy 
-1.3396 eight six 
-2.0306 eight sixty 
-2.3105 eight stop 
-2.3105 eight ten 
-2.3105 eight thirty 
-2.3105 eight thousand 
-0.9806 eight three 
-2.3105 eight twelve 
-2.0697 eight twenty 
-1.0707 eight two 
-2.3105 eight x 
-1.7668 eight zero 
-0.1258 eighteen february 
-0.1258 eighteenth nineteen 
-0.1258 eighth nineteen 
-1.3019 eighty eight 
-1.3019 eighty fifth 
-1.3019 eighty five 
-1.3019 eighty four 
-1.0220 eighty nine 
-1.3019 eighty one 
-1.3019 eighty seven 
-0.4771 eighty six 
-1.3019 eighty three 
-0.7279 eleven nine 
-0.7279 eleven o 
-0.7279 eleven seventeen 
-0.7279 eleven sixty 
-0.1258 eleventh nineteen 
-1.0212 enter eight 
-2.0501 enter eighty 
-2.0501 enter fifteen 
-1.2253 enter fifty 
-1.1461 enter five 
-1.7702 enter forty 
-1.1461 enter four 
-2.0501 enter fourteen 
-1.5064 enter nine 
-1.7702 enter ninety 
-1.5064 enter one 
-0.9700 enter seven 
-1.5064 enter seventy 
-1.0212 enter six 
-1.0212 enter sixty 
-1.7702 enter thirty 
-1.8093 enter three 
-2.0501 enter twenty 
-1.1461 enter two 
-2.0501 enter zero 
-1.6443 erase a 
-1.6443 erase b 
-1.4035 erase c 
-1.4035 erase e 
-1.6443 erase f 
-1.4035 erase g 
-1.4035 erase i 
-1.4035 erase j 
-1.6443 erase k 
-1.6443 erase m 
-1.6443 erase n 
-1.3644 erase o 
-1.4035 erase q 
-1.6443 erase r 
-1.4035 erase s 
-1.6443 erase t 
-1.3644 erase v 
-1.4035 erase w 
-1.6443 erase x 
-1.6443 erase y 
-1.6443 erase z 
-1.9387 f a 
-1.6979 f b 
-1.9387 f d 
-0.9098 f e 
-1.9387 f eight 
-1.6588 f f 
-1.6979 f five 
-1.9387 f four 
-1.9387 f g 
-1.6979 f h 
-0.9678 f i 
-1.6979 f j 
-1.6979 f k 
-1.6979 f m 
-1.1139 f o 
-1.9387 f q 
-1.1139 f r 
-1.9387 f s 
-1.9387 f six 
-1.3950 f t 
-1.9387 f thirty 
-1.9387 f twenty 
-1.6588 f two 
-1.9387 f v 
-1.3950 f x 
-1.6979 f y 
-1.9387 f z 
-0.4268 february eighth 
-0.4268 february nineteen 
-0.8248 fifteen enter 
-0.8248 fifteen m 
-0.8248 fifteen n 
-0.8248 fifteen nineteen 
-0.8248 fifteen sixty 
-0.1860 fifteenth nineteen 
-0.4268 fifth nineteen 
-0.4268 fifth s 
-1.6940 fifty b 
-0.7901 fifty eight 
-1.1503 fifty five 
-1.4141 fifty four 
-1.6940 fifty nine 
-0.7901 fifty one 
-1.6940 fifty rubout 
-1.4532 fifty seven 
-0.7901 fifty six 
-1.6940 fifty sixty 
-1.4532 fifty three 
-1.1503 fifty two 
-0.3230 first nineteen 
-2.4311 five a 
-2.1904 five b 
-2.4311 five c 
-2.4311 five d 
-2.4311 five e 
-1.5272 five eight 
-1.3511 five enter 
-2.1904 five erase 
-2.1513 five f 
-1.4023 five five 
-2.4311 five forty 
-1.5272 five four 
-2.4311 five g 
-2.4311 five h 
-2.1904 five help 
-2.1904 five hundred 
-2.4311 five j 
-2.4311 five k 
-2.1513 five m 
-2.4311 five may 
-1.3511 five nine 
-2.4311 five ninth 
-2.4311 five no 
-2.4311 five october 
-1.4023 five oh 
-1.1293 five one 
-2.4311 five p 
-2.4311 five q 
-2.1904 five repeat 
-2.1904 five rubout 
-1.5272 five seven 
-1.4023 five six 
-2.4311 five sixteen 
-2.4311 five t 
-2.4311 five ten 
-2.1513 five thirty 
-1.3054 five three 
-2.4311 five twenty 
-0.4665 five two 
-2.1513 five yes 
-1.6064 five zero 
-1.2773 forty eight 
-1.0134 forty five 
-1.2773 forty four 
-1.2773 forty nine 
-1.3164 forty one 
-1.0134 forty seven 
-1.5572 forty six 
-1.0134 forty three 
-1.2773 forty two 
-2.3459 four and 
-2.3459 four august 
-2.3459 four b 
-2.3459 four d 
-1.2201 four eight 
-2.3459 four eleven 
-1.4420 four enter 
-2.1051 four erase 
-2.3459 four f 
-2.1051 four fifty 
-1.3750 four five 
-2.1051 four forty 
-0.9648 four four 
-2.3459 four h 
-2.3459 four help 
-2.1051 four january 
-2.3459 four l 
-2.3459 four march 
-1.8022 four nine 
-2.3459 four ninety 
-2.0660 four no 
-1.4420 four oh 
-0.8777 four one 
-2.3459 four r 
-2.0660 four repeat 
-1.4420 four rubout 
-2.1051 four s 
-2.3459 four september 
-1.2659 four seven 
-2.3459 four seventy 
-1.1787 four six 
-2.1051 four sixty 
-2.3459 four start 
-2.0660 four stop 
-2.3459 four thirty 
-2.0660 four thousand 
-1.5211 four three 
-2.3459 four twelve 
-2.1051 four twenty 
-1.0160 four two 
-2.3459 four x 
-2.3459 four z 
-2.3459 four zero 
-1.0800 fourteen a 
-1.0800 fourteen eighty 
-1.0800 fourteen fourteen 
-0.8393 fourteen repeat 
-1.0800 fourteen s 
-0.8002 fourteen sixty 
-0.1258 fourth nineteen 
-1.1065 g a 
-2.1865 g b 
-1.9457 g c 
-1.9066 g d 
-1.9457 g e 
-2.1865 g eighty 
-2.1865 g forty 
-0.3447 g h 
-1.1576 g i 
-1.9457 g j 
-1.9457 g k 
-1.1065 g l 
-2.1865 g m 
-1.6428 g n 
-1.9457 g nine 
-2.1865 g o 
-2.1865 g one 
-2.1865 g p 
-2.1865 g q 
-1.9457 g r 
-2.1865 g s 
-2.1865 g seventy 
-2.1865 g t 
-1.9457 g two 
-2.1865 g u 
-1.9457 g v 
-1.9457 g w 
-1.1258 go enter 
-1.1258 go g 
-1.1258 go h 
-1.1258 go l 
-0.8850 go repeat 
-1.1258 go rubout 
-1.1258 go x 
-0.8850 go yes 
-0.7871 h a 
-1.7494 h b 
-1.2642 h e 
-2.0132 h f 
-2.2931 h fifty 
-2.2931 h four 
-2.0523 h g 
-2.2931 h h 
-1.3892 h i 
-2.0523 h k 
-2.0523 h l 
-1.7494 h n 
-2.2931 h nine 
-1.0534 h o 
-0.4861 h one 
-2.0132 h p 
-2.2931 h q 
-2.0132 h r 
-2.2931 h s 
-2.2931 h seven 
-2.2931 h seventy 
-2.2931 h six 
-1.7494 h t 
-2.2931 h three 
-2.0523 h two 
-2.0523 h u 
-2.2931 h v 
-2.2931 h w 
-2.2931 h x 
-2.0132 h y 
-2.2931 h z 
-0.4268 half f 
-0.4268 half h 
-1.2050 help a 
-1.2050 help b 
-0.9251 help enter 
-0.9642 help go 
-1.2050 help help 
-1.2050 help j 
-1.2050 help n 
-1.2050 help rubout 
-1.2050 help v 
-0.3010 hundred and 
-0.9642 hundred eighty 
-1.2050 hundred forty 
-1.2050 hundred s 
-1.2050 hundred twenty 
-1.2050 hundred w 
-1.7996 i a 
-2.0634 i b 
-1.0414 i c 
-1.5185 i d 
-1.2632 i e 
-1.7996 i f 
-2.3433 i fifteen 
-2.1025 i five 
-2.3433 i four 
-1.7996 i g 
-2.3433 i j 
-2.1025 i k 
-1.2175 i l 
-1.4393 i m 
-0.8751 i n 
-2.3433 i o 
-2.0634 i p 
-2.0634 i q 
-2.0634 i r 
-1.4393 i s 
-2.3433 i sixty 
-0.5185 i t 
-2.3433 i thirty 
-2.3433 i u 
-1.4393 i v 
-2.3433 i y 
-1.5272 j a 
-1.8070 j b 
-1.5663 j c 
-1.8070 j d 
-0.9823 j e 
-1.8070 j five 
-1.5663 j four 
-1.8070 j g 
-1.5663 j h 
-1.8070 j j 
-1.5663 j k 
-1.8070 j l 
-1.8070 j m 
-1.8070 j n 
-0.8361 j o 
-1.5663 j one 
-1.5663 j q 
-1.8070 j s 
-1.5272 j seven 
-1.8070 j t 
-1.5663 j u 
-1.5663 j v 
-1.8070 j w 
-1.8070 j x 
-1.5663 j z 
-0.4268 january fifteenth 
-0.4268 january twelfth 
-0.6029 july thirtieth 
-0.6029 july twelfth 
-0.6029 july twenty 
-0.4268 june eleventh 
-0.4268 june twenty 
-1.1461 k a 
-1.9709 k c 
-1.9709 k d 
-0.9420 k e 
-1.9709 k eight 
-1.9709 k eighty 
-1.7301 k f 
-1.9709 k fifty 
-1.7301 k h 
-1.4272 k i 
-1.6910 k j 
-1.7301 k k 
-1.7301 k l 
-1.9709 k m 
-1.9709 k nine 
-1.9709 k ninety 
-1.9709 k o 
-1.7301 k one 
-1.7301 k p 
-1.9709 k r 
-1.7301 k s 
-1.9709 k seven 
-1.4272 k six 
-1.6910 k t 
-1.7301 k three 
-1.9709 k twenty 
-1.7301 k two 
-1.7301 k u 
-1.9709 k v 
-1.4272 k w 
-1.7301 k x 
-1.7301 k y 
-1.7301 k z 
-0.9969 l a 
-2.2688 l b 
-2.0280 l c 
-1.1016 l d 
-0.6959 l e 
-2.2688 l eight 
-1.9889 l f 
-2.0280 l fifty 
-2.0280 l five 
-1.9889 l g 
-2.2688 l h 
-1.0638 l i 
-2.2688 l j 
-1.7251 l k 
-0.8877 l l 
-2.0280 l m 
-2.2688 l n 
-2.2688 l nine 
-1.4440 l o 
-2.2688 l one 
-2.2688 l p 
-1.9889 l r 
-1.9889 l s 
-2.2688 l seventy 
-2.2688 l six 
-2.2688 l t 
-2.2688 l ten 
-2.2688 l thirty 
-2.0280 l three 
-2.2688 l two 
-1.9889 l u 
-1.4440 l y 
-2.0280 l z 
-2.2688 l zero 
-0.6272 m a 
-1.8344 m b 
-2.0752 m c 
-2.0752 m d 
-1.0463 m e 
-1.8344 m eight 
-2.0752 m f 
-2.0752 m fifty 
-2.0752 m forty 
-2.0752 m four 
-2.0752 m g 
-1.8344 m h 
-1.1712 m i 
-1.8344 m j 
-2.0752 m k 
-1.7953 m m 
-1.5315 m n 
-0.9080 m o 
-1.5315 m p 
-2.0752 m q 
-1.7953 m s 
-2.0752 m seven 
-2.0752 m t 
-2.0752 m thirty 
-2.0752 m two 
-1.7953 m u 
-1.8344 m v 
-2.0752 m x 
-1.8344 m y 
-0.6029 march third 
-0.6029 march twentieth 
-0.6029 march twenty 
-0.6029 may nineteen 
-0.6029 may ninth 
-0.6029 may twenty 
-1.1813 n a 
-1.8048 n b 
-1.3196 n c 
-1.1088 n d 
-0.9005 n e 
-2.3485 n eight 
-2.3485 n f 
-2.0686 n five 
-2.1077 n four 
-1.3196 n g 
-2.1077 n h 
-1.1813 n i 
-2.1077 n j 
-2.0686 n k 
-2.1077 n l 
-2.0686 n m 
-1.2685 n n 
-1.8048 n o 
-1.4446 n one 
-1.3196 n p 
-1.8048 n r 
-1.3776 n s 
-2.3485 n seventy 
-2.1077 n six 
-1.1813 n t 
-2.1077 n thirty 
-2.0686 n three 
-2.1077 n two 
-1.5237 n u 
-2.1077 n x 
-2.0686 n y 
-2.0686 n z 
-1.9303 nine a 
-2.1711 nine and 
-2.1711 nine august 
-1.8912 nine b 
-1.8912 nine eight 
-2.1711 nine eighty 
-2.1711 nine eleven 
-1.6274 nine enter 
-1.6274 nine erase 
-2.1711 nine f 
-1.9303 nine fifty 
-1.1422 nine five 
-2.1711 nine forty 
-1.6274 nine four 
-2.1711 nine g 
-2.1711 nine go 
-2.1711 nine help 
-2.1711 nine hundred 
-2.1711 nine j 
-2.1711 nine july 
-2.1711 nine june 
-1.9303 nine m 
-1.9303 nine n 
-1.6274 nine nine 
-2.1711 nine nineteen 
-1.8912 nine no 
-2.1711 nine o 
-2.1711 nine of 
-2.1711 nine oh 
-1.3464 nine one 
-2.1711 nine p 
-2.1711 nine r 
-1.8912 nine rubout 
-1.8912 nine s 
-2.1711 nine september 
-1.8912 nine seven 
-2.1711 nine seventy 
-1.0453 nine six 
-2.1711 nine sixty 
-1.9303 nine thirty 
-1.3464 nine three 
-1.9303 nine twenty 
-1.2002 nine two 
-1.9303 nine v 
-2.1711 nine w 
-2.1711 nine x 
-1.8912 nine yes 
-2.1711 nine zero 
-1.3621 nineteen fifty 
-1.3621 nineteen forty 
-1.3230 nineteen seventy 
-0.1347 nineteen sixty 
-1.6029 nineteen twenty 
-0.8850 ninety eight 
-0.8850 ninety five 
-0.8850 ninety four 
-1.1258 ninety one 
-1.1258 ninety seven 
-0.8850 ninety six 
-0.4268 ninth of 
-0.4268 ninth sixty 
-1.3299 no c 
-1.3299 no enter 
-1.0500 no erase 
-1.3299 no f 
-1.3299 no h 
-1.3299 no help 
-1.3299 no o 
-1.3299 no p 
-1.0500 no rubout 
-1.3299 no s 
-1.3299 no start 
-1.3299 no t 
-1.3536 o a 
-2.3244 o apostrophe 
-1.4997 o b 
-2.3244 o c 
-1.2444 o d 
-2.3244 o e 
-2.3244 o eight 
-1.7807 o f 
-2.3244 o five 
-2.3244 o forty 
-2.3244 o four 
-2.3244 o g 
-1.7807 o h 
-2.3244 o j 
-2.0837 o k 
-1.2444 o l 
-1.3536 o m 
-0.7515 o n 
-2.3244 o ninety 
-1.0847 o o 
-2.0446 o p 
-2.3244 o q 
-0.9199 o r 
-1.4997 o s 
-2.3244 o six 
-2.3244 o sixty 
-1.4205 o t 
-2.3244 o two 
-1.1987 o u 
-1.2444 o w 
-2.3244 o x 
-2.0837 o y 
-2.3244 o z 
-0.6029 october first 
-0.6029 october thirtieth 
-0.6029 october twenty 
-0.4268 of september 
-0.4268 of sixty 
-0.7975 oh eight 
-1.7239 oh enter 
-1.0607 oh five 
-1.6848 oh four 
-1.9646 oh j 
-1.6848 oh nine 
-1.7239 oh oh 
-1.1399 oh one 
-0.8846 oh seven 
-0.7597 oh six 
-1.1399 oh three 
-1.9646 oh twelve 
-0.8846 oh two 
-2.3275 one a 
-2.5683 one august 
-2.3275 one b 
-2.5683 one c 
-2.3275 one e 
-1.4882 one eight 
-2.5683 one eleven 
-1.6643 one enter 
-2.5683 one f 
-2.5683 one february 
-2.5683 one fifteen 
-2.0246 one fifty 
-0.5732 one five 
-2.5683 one forty 
-1.4011 one four 
-2.2884 one go 
-2.5683 one h 
-2.3275 one help 
-2.3275 one hundred 
-2.3275 one i 
-2.5683 one j 
-2.5683 one july 
-2.5683 one l 
-2.5683 one m 
-2.5683 one n 
-1.3633 one nine 
-2.5683 one ninety 
-1.2964 one oh 
-1.5974 one one 
-2.5683 one p 
-2.5683 one r 
-2.5683 one repeat 
-2.0246 one rubout 
-2.5683 one s 
-1.1001 one seven 
-2.3275 one seventy 
-1.5974 one six 
-2.5683 one sixteen 
-2.0246 one sixty 
-2.3275 one start 
-2.3275 one stop 
-2.5683 one t 
-2.3275 one ten 
-2.3275 one thirty 
-2.3275 one thousand 
-1.2964 one three 
-2.3275 one twenty 
-0.9654 one two 
-2.5683 one u 
-2.5683 one w 
-2.5683 one y 
-2.5683 one yes 
-2.5683 one z 
-1.7435 one zero 
-1.5821 p a 
-2.1258 p b 
-2.1258 p c 
-1.8850 p d 
-1.8850 p e 
-2.1258 p eight 
-2.1258 p f 
-2.1258 p forty 
-2.1258 p four 
-1.8459 p g 
-1.2218 p h 
-0.3279 p i 
-1.3010 p l 
-1.8850 p n 
-2.1258 p ninety 
-1.2218 p o 
-1.8459 p r 
-1.5821 p s 
-2.1258 p seventeen 
-1.8459 p t 
-2.1258 p three 
-1.8459 p u 
-2.1258 p y 
-1.6029 q c 
-1.3230 q d 
-1.3621 q e 
-1.6029 q f 
-1.3621 q fifty 
-1.6029 q five 
-1.6029 q g 
-1.6029 q i 
-1.3621 q k 
-1.3230 q n 
-1.6029 q one 
-1.6029 q p 
-1.3230 q q 
-1.6029 q six 
-1.3621 q t 
-1.6029 q two 
-1.6029 q u 
-1.6029 q w 
-1.6029 q y 
-1.6029 q z 
-1.2344 r a 
-1.5702 r b 
-2.1942 r c 
-1.3941 r d 
-0.9504 r e 
-2.2333 r f 
-0.6323 r g 
-2.4741 r h 
-1.0696 r i 
-1.3069 r k 
-1.3941 r l 
-2.2333 r m 
-1.5702 r n 
-1.0261 r o 
-2.2333 r one 
-2.4741 r p 
-2.4741 r q 
-1.3941 r r 
-1.9304 r s 
-2.4741 r seven 
-2.4741 r sixty 
-1.5032 r t 
-2.2333 r thirty 
-2.2333 r u 
-2.2333 r v 
-2.2333 r w 
-1.4452 r y 
-2.2333 r z 
-1.3562 repeat b 
-1.3562 repeat enter 
-1.3562 repeat erase 
-1.3562 repeat f 
-1.3562 repeat g 
-1.3562 repeat l 
-1.3562 repeat m 
-1.0764 repeat no 
-1.3562 repeat o 
-1.3562 repeat r 
-1.1155 repeat rubout 
-1.1155 repeat stop 
-1.3562 repeat w 
-1.8966 rubout a 
-1.6168 rubout c 
-1.8966 rubout d 
-1.6559 rubout e 
-1.3529 rubout f 
-1.6559 rubout g 
-1.6168 rubout h 
-1.6559 rubout i 
-1.6168 rubout j 
-1.8966 rubout l 
-1.6168 rubout m 
-1.0719 rubout n 
-1.3529 rubout o 
-1.6559 rubout p 
-1.6559 rubout q 
-1.6168 rubout r 
-1.8966 rubout s 
-1.6168 rubout t 
-1.0719 rubout u 
-1.6559 rubout v 
-1.6559 rubout w 
-1.8966 rubout x 
-1.8966 rubout y 
-1.6168 rubout z 
-2.0249 s a 
-0.5069 s b 
-2.3048 s c 
-1.2759 s e 
-2.0640 s f 
-2.3048 s fifty 
-1.4800 s h 
-2.3048 s i 
-2.0249 s j 
-1.4008 s k 
-2.0640 s l 
-1.4800 s m 
-2.3048 s n 
-1.0998 s o 
-1.4800 s one 
-1.2247 s p 
-1.4800 s s 
-2.0640 s seven 
-0.9237 s t 
-2.3048 s thirty 
-2.0249 s u 
-2.0249 s v 
-1.7611 s w 
-2.3048 s x 
-2.0640 s z 
-2.3048 s zero 
-0.1860 second nineteen 
-0.8248 september fifteenth 
-0.8248 september first 
-0.8248 september nineteen 
-0.8248 september sixth 
-0.8248 september twenty 
-2.2811 seven area 
-2.2811 seven b 
-1.1553 seven eight 
-2.0404 seven enter 
-2.0404 seven erase 
-2.2811 seven fifteen 
-2.2811 seven fifty 
-1.2522 seven five 
-2.0013 seven forty 
-0.9512 seven four 
-2.0404 seven fourteen 
-2.0404 seven h 
-2.2811 seven help 
-2.2811 seven hundred 
-2.2811 seven j 
-2.2811 seven l 
-2.0404 seven m 
-2.2811 seven may 
-1.3772 seven nine 
-2.2811 seven october 
-1.3772 seven oh 
-1.3772 seven one 
-2.0013 seven p 
-2.2811 seven r 
-1.1553 seven rubout 
-2.0404 seven s 
-1.7374 seven seven 
-2.2811 seven seventeen 
-2.2811 seven seventy 
-1.3102 seven six 
-2.0013 seven sixty 
-2.2811 seven start 
-1.4564 seven stop 
-2.0013 seven ten 
-2.0404 seven thirty 
-2.2811 seven thousand 
-1.7374 seven three 
-2.0013 seven twenty 
-1.3772 seven two 
-2.0404 seven v 
-2.2811 seven y 
-1.7374 seven yes 
-2.2811 seven z 
-2.0013 seven zero 
-0.8248 seventeen enter 
-0.5840 seventeen fifty 
-0.8248 seventeen rubout 
-0.8248 seventeen thirty 
-0.1258 seventh nineteen 
-1.5408 seventy eight 
-1.5408 seventy five 
-1.5408 seventy g 
-1.5408 seventy h 
-1.2609 seventy nine 
-0.5119 seventy one 
-1.5408 seventy p 
-1.5408 seventy rubout 
-1.2609 seventy seven 
-1.5408 seventy six 
-0.9971 seventy two 
-1.5408 seventy yes 
-2.3406 six a 
-2.3406 six b 
-2.0999 six c 
-2.3406 six e 
-0.8169 six eight 
-2.3406 six eighty 
-1.2606 six enter 
-1.5159 six erase 
-2.3406 six f 
-1.4367 six five 
-2.3406 six forty 
-1.1357 six four 
-2.0608 six h 
-2.3406 six hundred 
-2.3406 six july 
-2.3406 six k 
-2.0999 six l 
-1.4367 six nine 
-2.0999 six no 
-1.4367 six oh 
-1.2606 six one 
-2.0999 six p 
-2.3406 six r 
-2.3406 six rubout 
-2.3406 six s 
-2.3406 six september 
-1.3118 six seven 
-2.3406 six seventeen 
-1.1357 six six 
-2.3406 six sixteen 
-2.0999 six sixty 
-2.0999 six start 
-2.3406 six stop 
-2.0999 six t 
-2.3406 six ten 
-2.0999 six thirty 
-2.3406 six thousand 
-1.1735 six three 
-2.0999 six twelve 
-2.3406 six twenty 
-1.2148 six two 
-2.0999 six v 
-2.0999 six yes 
-2.3406 six zero 
-0.6029 sixteen forty 
-0.3621 sixteen sixty 
-0.1258 sixteenth nineteen 
-0.1258 sixth nineteen 
-1.1584 sixty eight 
-1.7423 sixty enter 
-1.9831 sixty fifty 
-1.1584 sixty five 
-1.0792 sixty four 
-1.7423 sixty help 
-0.7112 sixty nine 
-0.9542 sixty one 
-1.9831 sixty s 
-0.8159 sixty seven 
-1.7032 sixty six 
-1.9831 sixty start 
-1.0122 sixty three 
-1.1584 sixty two 
-1.9831 sixty w 
-0.9264 start enter 
-0.9264 start h 
-1.1672 start i 
-1.1672 start no 
-0.9264 start repeat 
-0.9264 start rubout 
-1.1672 start y 
-1.3299 stop d 
-0.4260 stop enter 
-1.3299 stop erase 
-1.3299 stop go 
-1.3299 stop j 
-1.0891 stop m 
-1.3299 stop repeat 
-1.0891 stop rubout 
-1.3299 stop yes 
-2.1989 t a 
-2.1989 t b 
-2.1598 t d 
-0.9714 t e 
-2.4397 t eighty 
-2.1989 t f 
-2.4397 t fifty 
-2.4397 t forty 
-2.4397 t four 
-1.8960 t g 
-1.0834 t h 
-1.6149 t i 
-2.4397 t j 
-2.1989 t k 
-2.1598 t l 
-2.1598 t m 
-2.1989 t n 
-1.5357 t o 
-2.1989 t one 
-1.4108 t p 
-2.1989 t q 
-1.5357 t r 
-0.6511 t s 
-2.4397 t seventy 
-2.4397 t sixty 
-0.5657 t t 
-2.4397 t v 
-2.4397 t w 
-1.8960 t z 
-1.2719 ten enter 
-1.2719 ten f 
-1.2719 ten h 
-1.2719 ten m 
-1.2719 ten o 
-1.2719 ten one 
-1.2719 ten rubout 
-1.2719 ten s 
-1.2719 ten seventy 
-1.2719 ten sixty 
-1.2719 ten ten 
-1.2719 ten thirty 
-1.2719 ten twelve 
-1.2719 ten twenty 
-0.3230 third nineteen 
-0.3230 thirtieth nineteen 
-1.6699 thirty b 
-1.4291 thirty e 
-1.3900 thirty eight 
-1.6699 thirty enter 
-0.7659 thirty five 
-1.6699 thirty g 
-1.4291 thirty nine 
-0.6410 thirty one 
-1.4291 thirty seven 
-1.4291 thirty six 
-1.6699 thirty sixty 
-1.4291 thirty three 
-1.1262 thirty two 
-0.8393 thousand eight 
-1.0800 thousand five 
-1.0800 thousand m 
-1.0800 thousand nine 
-1.0800 thousand one 
-1.0800 thousand p 
-1.0800 thousand seven 
-1.0800 thousand three 
-2.0089 three a 
-2.2496 three b 
-2.0089 three d 
-2.2496 three december 
-2.2496 three e 
-1.3457 three eight 
-2.2496 three eighty 
-2.2496 three eleven 
-1.9698 three enter 
-1.4249 three erase 
-1.2788 three five 
-2.0089 three forty 
-1.0825 three four 
-2.2496 three fourteen 
-2.2496 three g 
-2.2496 three hundred 
-2.2496 three k 
-2.0089 three l 
-2.2496 three march 
-2.2496 three may 
-1.7059 three nine 
-2.0089 three no 
-1.4249 three oh 
-1.3457 three one 
-2.2496 three p 
-1.7059 three rubout 
-2.2496 three september 
-1.3457 three seven 
-2.2496 three seventeen 
-2.0089 three seventy 
-1.1696 three six 
-1.7059 three sixty 
-2.2496 three thirty 
-1.1696 three three 
-2.2496 three twelve 
-1.9698 three twenty 
-0.9197 three two 
-2.0089 three v 
-2.2496 three yes 
-1.7059 three zero 
-0.1860 twelfth nineteen 
-1.0800 twelve enter 
-1.0800 twelve fifty 
-1.0800 twelve four 
-1.0800 twelve nine 
-1.0800 twelve nineteen 
-1.0800 twelve sixty 
-1.0800 twelve ten 
-0.8393 twelve twenty 
-0.1258 twentieth nineteen 
-0.8921 twenty eight 
-1.7169 twenty enter 
-1.7169 twenty fifth 
-1.7169 twenty first 
-1.7169 twenty five 
-1.4370 twenty four 
-1.7169 twenty fourth 
-1.1731 twenty nine 
-1.4761 twenty one 
-1.4761 twenty second 
-1.4761 twenty seven 
-1.7169 twenty seventh 
-0.8921 twenty six 
-1.7169 twenty t 
-1.4761 twenty third 
-0.8921 twenty three 
-1.4761 twenty two 
-2.3066 two a 
-2.3066 two b 
-2.5474 two c 
-2.5474 two d 
-2.5474 two e 
-1.3077 two eight 
-2.5474 two eighteen 
-2.5474 two eighty 
-1.5185 two enter 
-2.3066 two erase 
-2.5474 two fifteen 
-2.5474 two fifty 
-1.2755 two five 
-1.1206 two four 
-2.5474 two fourteen 
-2.5474 two g 
-2.5474 two go 
-2.5474 two help 
-2.5474 two hundred 
-2.2675 two m 
-2.5474 two march 
-2.5474 two n 
-1.5185 two nine 
-2.5474 two no 
-2.5474 two o 
-2.5474 two october 
-1.3424 two oh 
-0.7226 two one 
-2.5474 two p 
-2.3066 two repeat 
-1.6435 two rubout 
-1.3424 two seven 
-1.0066 two six 
-2.5474 two sixty 
-2.2675 two start 
-2.3066 two stop 
-2.3066 two ten 
-2.2675 two thirty 
-2.5474 two thousand 
-1.3077 two three 
-2.5474 two twelve 
-2.3066 two twenty 
-0.9302 two two 
-2.5474 two v 
-1.6435 two zero 
-1.9144 u a 
-2.1552 u b 
-2.1552 u c 
-2.1552 u d 
-1.3304 u e 
-2.1552 u eighty 
-1.9144 u f 
-1.9144 u five 
-1.8753 u four 
-1.8753 u g 
-2.1552 u i 
-1.9144 u j 
-2.1552 u k 
-1.8753 u l 
-1.8753 u m 
-1.8753 u n 
-2.1552 u o 
-2.1552 u one 
-2.1552 u p 
-2.1552 u q 
-0.2970 u r 
-1.2512 u s 
-2.1552 u seven 
-1.6115 u t 
-2.1552 u three 
-2.1552 u two 
-2.1552 u x 
-2.1552 u y 
-0.8519 v a 
-1.9320 v c 
-0.4445 v e 
-1.9320 v f 
-1.9320 v fifty 
-0.9611 v i 
-1.6912 v k 
-1.9320 v l 
-1.6912 v m 
-1.9320 v n 
-1.9320 v nine 
-1.9320 v o 
-1.9320 v p 
-1.6912 v q 
-1.9320 v r 
-1.9320 v s 
-1.6912 v seven 
-1.9320 v thirty 
-1.9320 v w 
-1.9320 v x 
-1.6521 v y 
-1.9320 v z 
-0.9031 w a 
-1.7423 w b 
-1.9831 w c 
-1.7423 w d 
-1.4394 w e 
-1.7423 w eight 
-1.7423 w f 
-1.9831 w five 
-1.9831 w fourteen 
-1.9831 w g 
-1.7423 w h 
-1.0122 w i 
-1.7032 w l 
-1.0122 w n 
-0.9031 w o 
-1.7423 w one 
-1.9831 w p 
-1.9831 w q 
-1.9831 w r 
-1.9831 w t 
-1.9831 w three 
-1.9831 w twenty 
-1.7423 w two 
-1.7423 w w 
-1.9831 w x 
-1.7032 w y 
-1.7032 w z 
-1.6309 x b 
-1.3902 x c 
-1.6309 x e 
-1.6309 x eight 
-1.6309 x f 
-1.6309 x five 
-1.6309 x four 
-1.6309 x g 
-1.6309 x h 
-1.6309 x i 
-1.6309 x k 
-1.6309 x l 
-1.6309 x n 
-1.6309 x nine 
-1.6309 x p 
-1.6309 x r 
-1.3902 x s 
-1.6309 x seventy 
-1.6309 x three 
-1.3902 x two 
-1.6309 x v 
-1.6309 x w 
-1.3902 x x 
-1.3902 x y 
-1.6309 x z 
-1.3902 x zero 
-1.9320 y a 
-1.6912 y b 
-1.9320 y c 
-1.3883 y d 
-1.9320 y e 
-1.6912 y eight 
-1.6912 y f 
-1.6912 y fifty 
-1.9320 y five 
-1.6521 y four 
-1.6912 y g 
-1.6521 y h 
-1.6912 y j 
-1.1072 y l 
-1.6912 y m 
-1.6912 y n 
-1.9320 y o 
-1.6912 y oh 
-1.1072 y one 
-1.6912 y p 
-1.9320 y q 
-1.9320 y r 
-1.6912 y s 
-1.9320 y seven 
-1.9320 y t 
-1.9320 y ten 
-1.6912 y three 
-1.9320 y two 
-1.6912 y u 
-1.6912 y v 
-1.6912 y w 
-1.9320 y y 
-1.6912 y z 
-1.2072 yes enter 
-1.1681 yes erase 
-1.4480 yes f 
-1.4480 yes g 
-1.2072 yes go 
-1.2072 yes h 
-1.4480 yes j 
-1.4480 yes n 
-1.1681 yes rubout 
-1.2072 yes s 
-1.4480 yes u 
-1.4480 yes x 
-1.4480 yes yes 
-1.2353 z a 
-1.7790 z b 
-1.7790 z c 
-1.7790 z d 
-1.4991 z e 
-1.7790 z eight 
-1.7790 z f 
-1.7790 z g 
-1.7790 z h 
-1.4991 z i 
-1.7790 z j 
-1.7790 z k 
-1.5382 z l 
-1.4991 z nine 
-1.7790 z ninety 
-1.4991 z o 
-1.7790 z p 
-1.5382 z r 
-1.7790 z seven 
-1.7790 z six 
-1.5382 z sixty 
-1.7790 z t 
-1.7790 z twenty 
-1.7790 z two 
-1.7790 z u 
-1.7790 z w 
-1.5382 z x 
-1.5382 z y 
-1.7790 z z 
-1.6821 zero a 
-1.4413 zero c 
-1.4413 zero e 
-1.6821 zero eight 
-1.4022 zero enter 
-1.6821 zero five 
-1.4413 zero four 
-1.6821 zero m 
-1.6821 zero nine 
-1.1384 zero one 
-1.6821 zero p 
-1.6821 zero r 
-1.6821 zero rubout 
-1.6821 zero s 
-1.4413 zero seven 
-0.7782 zero six 
-1.6821 zero t 
-1.6821 zero twelve 
-1.4413 zero two 
-1.6821 zero yes 
-1.6821 zero zero 

\end\
