Language model created by QuickLM on Wed Aug  4 14:21:56 EDT 1999
Carnegie Mellon University (c) 1996

This model based on a corpus of  sentences and  words
The (fixed) discount mass is 0.5

\data\
ngram 1=91
ngram 2=212
ngram 3=177

\1-grams:
-0.9129 </s> -0.3010
-0.9129 <s> -0.2144
-2.6031 A -0.2999
-2.6031 AND -0.2989
-2.3021 ARE -0.2978
-2.6031 AROUND -0.2444
-2.3021 BACKWARD -0.2338
-2.9042 BACKWARDS -0.2444
-2.6031 BYE -0.2432
-2.9042 CENTIMETER -0.2444
-2.9042 CENTIMETERS -0.2444
-2.9042 CHASE -0.2989
-2.9042 COLOR -0.2999
-1.9499 DEGREES -0.2444
-2.6031 DISPLAY -0.2999
-2.9042 DO -0.2983
-2.9042 DOING -0.2444
-2.9042 EIGHT -0.2444
-2.9042 EIGHTEEN -0.2444
-2.4271 EIGHTY -0.2388
-2.9042 ELEVEN -0.2444
-2.9042 EXIT -0.2444
-2.9042 EXPLORE -0.2444
-2.6031 FIFTEEN -0.2388
-2.9042 FIFTY -0.2444
-2.9042 FIND -0.2989
-2.9042 FINISH -0.2444
-2.1260 FIVE -0.2338
-2.3021 FORTY -0.2407
-2.0011 FORWARD -0.2281
-2.9042 FOUR -0.2444
-2.9042 FOURTEEN -0.2444
-1.7001 GO -0.2923
-2.9042 GREY -0.2999
-2.9042 GUARD -0.2989
-2.4271 HALF -0.2420
-2.9042 HALL -0.2444
-2.9042 HALLWAY -0.2444
-2.9042 HALT -0.2444
-2.9042 HELLO -0.2444
-2.9042 HOME -0.2444
-2.6031 HUNDRED -0.2432
-2.9042 KEVIN -0.2444
-2.6031 LAB -0.2444
-2.2052 LEFT -0.2338
-2.9042 LISTENING -0.2444
-2.9042 LOST -0.2444
-2.3021 METER -0.2444
-2.0011 METERS -0.2444
-2.6031 MINUS -0.2983
-2.9042 NINE -0.2444
-2.9042 NINETEEN -0.2444
-2.4271 NINETY -0.2388
-2.9042 OFFICE -0.2444
-2.0011 ONE -0.2351
-2.9042 PERSON -0.2444
-2.4271 QUARTER -0.2444
-2.9042 QUARTERS -0.2444
-2.9042 QUIT -0.2444
-2.9042 READY -0.2444
-2.9042 REID -0.2444
-2.1260 RIGHT -0.2325
-2.9042 ROBOMAN -0.2444
-2.9042 ROOM -0.2444
-2.0591 ROTATE -0.2950
-2.6031 SAY -0.2994
-2.9042 SEBASTIAN -0.2444
-2.6031 SEVEN -0.2395
-2.9042 SEVENTEEN -0.2444
-2.9042 SEVENTY -0.2444
-2.9042 SIX -0.2444
-2.9042 SIXTEEN -0.2444
-2.9042 SIXTY -0.2444
-2.9042 STOP -0.2444
-2.4271 TEN -0.2338
-2.3021 THE -0.2432
-2.9042 THEN -0.2444
-2.9042 THIRTEEN -0.2444
-2.6031 THIRTY -0.2388
-2.3021 THREE -0.2370
-2.6031 TO -0.2420
-2.9042 TOM -0.2444
-2.2052 TURN -0.2939
-2.9042 TWELVE -0.2444
-2.9042 TWENTY -0.2444
-2.4271 TWO -0.2395
-2.9042 UNDERSTAND -0.2444
-2.9042 WANDER -0.2999
-2.9042 WHAT -0.2989
-2.6031 WINDOW -0.2444
-2.2052 YOU -0.2967

\2-grams:
-2.2923 <s> AND -0.1761
-1.9912 <s> ARE -0.0969
-2.2923 <s> CENTIMETER 0.0000
-2.2923 <s> CENTIMETERS 0.0000
-2.2923 <s> CHASE 0.0000
-1.9912 <s> DISPLAY 0.0000
-2.2923 <s> DO 0.0000
-2.2923 <s> EIGHT 0.0000
-2.2923 <s> EIGHTEEN 0.0000
-2.2923 <s> EIGHTY -0.2218
-2.2923 <s> ELEVEN 0.0000
-2.2923 <s> EXIT 0.0000
-2.2923 <s> EXPLORE 0.0000
-2.2923 <s> FIFTEEN -0.1761
-2.2923 <s> FIFTY 0.0000
-2.2923 <s> FIND 0.0000
-2.2923 <s> FINISH 0.0000
-2.2923 <s> FIVE -0.2218
-1.9912 <s> FORTY 0.0000
-2.2923 <s> FOUR 0.0000
-2.2923 <s> FOURTEEN 0.0000
-1.0881 <s> GO 0.0000
-2.2923 <s> GUARD 0.0000
-2.2923 <s> HALF -0.1249
-2.2923 <s> HALL 0.0000
-2.2923 <s> HALLWAY 0.0000
-2.2923 <s> HALT 0.0000
-2.2923 <s> HUNDRED -0.1761
-2.2923 <s> KEVIN 0.0000
-2.2923 <s> LAB 0.0000
-2.2923 <s> METER 0.0000
-2.2923 <s> METERS 0.0000
-2.2923 <s> NINE 0.0000
-2.2923 <s> NINETEEN 0.0000
-2.2923 <s> NINETY -0.2218
-2.2923 <s> OFFICE 0.0000
-1.8151 <s> ONE -0.1761
-2.2923 <s> PERSON 0.0000
-2.2923 <s> QUARTER 0.0000
-2.2923 <s> QUIT 0.0000
-2.2923 <s> REID 0.0000
-2.2923 <s> ROBOMAN 0.0000
-2.2923 <s> ROOM 0.0000
-1.4472 <s> ROTATE 0.0000
-1.9912 <s> SAY 0.0000
-2.2923 <s> SEBASTIAN 0.0000
-2.2923 <s> SEVEN -0.1761
-2.2923 <s> SEVENTEEN 0.0000
-2.2923 <s> SEVENTY 0.0000
-2.2923 <s> SIX 0.0000
-2.2923 <s> SIXTEEN 0.0000
-2.2923 <s> SIXTY 0.0000
-2.2923 <s> STOP 0.0000
-2.2923 <s> TEN -0.2218
-2.2923 <s> THIRTEEN 0.0000
-2.2923 <s> THIRTY -0.1761
-1.8151 <s> THREE -0.0969
-2.2923 <s> TOM 0.0000
-1.5933 <s> TURN 0.0000
-2.2923 <s> TWELVE 0.0000
-2.2923 <s> TWENTY 0.0000
-2.2923 <s> TWO -0.2218
-2.2923 <s> WANDER 0.0000
-2.2923 <s> WHAT 0.0000
-2.2923 <s> YOU -0.2553
-0.6021 A COLOR 0.0000
-0.6021 A GREY 0.0000
-0.6021 AND EIGHTY -0.1249
-0.6021 AND THEN 0.0000
-0.9031 ARE LOST 0.0000
-0.4260 ARE YOU -0.1461
-0.3010 AROUND </s> -0.3010
-0.9031 BACKWARD </s> -0.3010
-0.9031 BACKWARD FIVE -0.2218
-0.9031 BACKWARD ONE -0.2430
-0.9031 BACKWARD TWO -0.1249
-0.3010 BACKWARDS </s> -0.3010
-0.6021 BYE </s> -0.3010
-0.6021 BYE BYE -0.1761
-0.3010 CENTIMETER </s> -0.3010
-0.3010 CENTIMETERS </s> -0.3010
-0.3010 CHASE THE -0.0969
-0.3010 COLOR WINDOW 0.0000
-0.3010 DEGREES </s> -0.3010
-0.3010 DISPLAY A 0.0000
-0.3010 DO YOU -0.2553
-0.3010 DOING </s> -0.3010
-0.3010 EIGHT </s> -0.3010
-0.3010 EIGHTEEN </s> -0.3010
-0.7782 EIGHTY </s> -0.3010
-0.4771 EIGHTY DEGREES 0.0000
-0.3010 ELEVEN </s> -0.3010
-0.3010 EXIT </s> -0.3010
-0.3010 EXPLORE </s> -0.3010
-0.6021 FIFTEEN </s> -0.3010
-0.6021 FIFTEEN DEGREES 0.0000
-0.3010 FIFTY </s> -0.3010
-0.3010 FIND THE -0.0969
-0.3010 FINISH </s> -0.3010
-0.7782 FIVE </s> -0.3010
-0.7782 FIVE DEGREES 0.0000
-0.7782 FIVE METERS 0.0000
-0.9031 FORTY </s> -0.3010
-0.4260 FORTY FIVE -0.1249
-1.2041 FORWARD </s> -0.3010
-1.2041 FORWARD FIVE -0.2218
-0.9031 FORWARD ONE -0.1761
-1.2041 FORWARD SEVEN -0.1761
-1.2041 FORWARD TEN -0.2218
-1.2041 FORWARD THREE -0.2430
-1.2041 FORWARD TWO -0.1249
-0.3010 FOUR </s> -0.3010
-0.3010 FOURTEEN </s> -0.3010
-0.9031 GO BACKWARD 0.0000
-1.5051 GO BACKWARDS 0.0000
-0.6021 GO FORWARD 0.0000
-1.5051 GO HOME 0.0000
-1.2041 GO TO 0.0000
-0.3010 GREY WINDOW 0.0000
-0.3010 GUARD THE -0.0969
-0.4771 HALF </s> -0.3010
-0.7782 HALF METER 0.0000
-0.3010 HALL </s> -0.3010
-0.3010 HALLWAY </s> -0.3010
-0.3010 HALT </s> -0.3010
-0.3010 HELLO </s> -0.3010
-0.3010 HOME </s> -0.3010
-0.6021 HUNDRED </s> -0.3010
-0.6021 HUNDRED AND -0.1761
-0.3010 KEVIN </s> -0.3010
-0.3010 LAB </s> -0.3010
-1.0000 LEFT </s> -0.3010
-1.0000 LEFT FORTY -0.0969
-1.0000 LEFT MINUS -0.1761
-1.0000 LEFT NINETY -0.1249
-1.0000 LEFT ONE -0.2730
-0.3010 LISTENING </s> -0.3010
-0.3010 LOST </s> -0.3010
-0.3010 METER </s> -0.3010
-0.3010 METERS </s> -0.3010
-0.6021 MINUS NINETY -0.1249
-0.6021 MINUS THIRTY -0.1761
-0.3010 NINE </s> -0.3010
-0.3010 NINETEEN </s> -0.3010
-0.7782 NINETY </s> -0.3010
-0.4771 NINETY DEGREES 0.0000
-0.3010 OFFICE </s> -0.3010
-1.2041 ONE </s> -0.3010
-1.2041 ONE EIGHTY -0.1249
-0.9031 ONE HALF 0.0000
-1.2041 ONE HUNDRED -0.1761
-0.9031 ONE METER 0.0000
-1.2041 ONE QUARTER 0.0000
-0.3010 PERSON </s> -0.3010
-0.3010 QUARTER </s> -0.3010
-0.3010 QUARTERS </s> -0.3010
-0.3010 QUIT </s> -0.3010
-0.3010 READY </s> -0.3010
-0.3010 REID </s> -0.3010
-1.0792 RIGHT </s> -0.3010
-1.0792 RIGHT FIFTEEN -0.1761
-1.0792 RIGHT FORTY -0.0969
-1.0792 RIGHT MINUS -0.1761
-1.0792 RIGHT ONE -0.2730
-1.0792 RIGHT TEN -0.2218
-0.3010 ROBOMAN </s> -0.3010
-0.3010 ROOM </s> -0.3010
-0.6690 ROTATE LEFT -0.1461
-0.5441 ROTATE RIGHT -0.1249
-0.6021 SAY BYE -0.1761
-0.6021 SAY HELLO 0.0000
-0.3010 SEBASTIAN </s> -0.3010
-0.6021 SEVEN </s> -0.3010
-0.6021 SEVEN METERS 0.0000
-0.3010 SEVENTEEN </s> -0.3010
-0.3010 SEVENTY </s> -0.3010
-0.3010 SIX </s> -0.3010
-0.3010 SIXTEEN </s> -0.3010
-0.3010 SIXTY </s> -0.3010
-0.3010 STOP </s> -0.3010
-0.7782 TEN </s> -0.3010
-0.7782 TEN DEGREES 0.0000
-0.7782 TEN METERS 0.0000
-0.4260 THE </s> -0.3010
-0.9031 THE LAB 0.0000
-0.3010 THEN </s> -0.3010
-0.3010 THIRTEEN </s> -0.3010
-0.6021 THIRTY </s> -0.3010
-0.6021 THIRTY DEGREES 0.0000
-0.9031 THREE </s> -0.3010
-0.9031 THREE METERS 0.0000
-0.9031 THREE QUARTER 0.0000
-0.9031 THREE QUARTERS 0.0000
-0.6021 TO </s> -0.3010
-0.6021 TO THE -0.2430
-0.3010 TOM </s> -0.3010
-1.0000 TURN AROUND 0.0000
-0.6990 TURN LEFT -0.2041
-0.6990 TURN RIGHT -0.2218
-0.3010 TWELVE </s> -0.3010
-0.3010 TWENTY </s> -0.3010
-0.7782 TWO </s> -0.3010
-0.4771 TWO METERS 0.0000
-0.3010 UNDERSTAND </s> -0.3010
-0.3010 WANDER AROUND 0.0000
-0.3010 WHAT ARE -0.0969
-0.3010 WINDOW </s> -0.3010
-1.0000 YOU ARE -0.2430
-1.0000 YOU DOING 0.0000
-1.0000 YOU LISTENING 0.0000
-1.0000 YOU READY 0.0000
-1.0000 YOU UNDERSTAND 0.0000

\3-grams:
-0.3010 <s> AND THEN
-0.3010 <s> ARE YOU
-0.3010 <s> CENTIMETER </s>
-0.3010 <s> CENTIMETERS </s>
-0.3010 <s> CHASE THE
-0.3010 <s> DISPLAY A
-0.3010 <s> DO YOU
-0.3010 <s> EIGHT </s>
-0.3010 <s> EIGHTEEN </s>
-0.3010 <s> EIGHTY </s>
-0.3010 <s> ELEVEN </s>
-0.3010 <s> EXIT </s>
-0.3010 <s> EXPLORE </s>
-0.3010 <s> FIFTEEN </s>
-0.3010 <s> FIFTY </s>
-0.3010 <s> FIND THE
-0.3010 <s> FINISH </s>
-0.3010 <s> FIVE </s>
-0.6021 <s> FORTY </s>
-0.6021 <s> FORTY FIVE
-0.3010 <s> FOUR </s>
-0.3010 <s> FOURTEEN </s>
-0.9031 <s> GO BACKWARD
-1.5051 <s> GO BACKWARDS
-0.6021 <s> GO FORWARD
-1.5051 <s> GO HOME
-1.2041 <s> GO TO
-0.3010 <s> GUARD THE
-0.3010 <s> HALF </s>
-0.3010 <s> HALL </s>
-0.3010 <s> HALLWAY </s>
-0.3010 <s> HALT </s>
-0.3010 <s> HUNDRED </s>
-0.3010 <s> KEVIN </s>
-0.3010 <s> LAB </s>
-0.3010 <s> METER </s>
-0.3010 <s> METERS </s>
-0.3010 <s> NINE </s>
-0.3010 <s> NINETEEN </s>
-0.3010 <s> NINETY </s>
-0.3010 <s> OFFICE </s>
-0.7782 <s> ONE </s>
-0.7782 <s> ONE HALF
-0.7782 <s> ONE QUARTER
-0.3010 <s> PERSON </s>
-0.3010 <s> QUARTER </s>
-0.3010 <s> QUIT </s>
-0.3010 <s> REID </s>
-0.3010 <s> ROBOMAN </s>
-0.3010 <s> ROOM </s>
-0.6690 <s> ROTATE LEFT
-0.5441 <s> ROTATE RIGHT
-0.6021 <s> SAY BYE
-0.6021 <s> SAY HELLO
-0.3010 <s> SEBASTIAN </s>
-0.3010 <s> SEVEN </s>
-0.3010 <s> SEVENTEEN </s>
-0.3010 <s> SEVENTY </s>
-0.3010 <s> SIX </s>
-0.3010 <s> SIXTEEN </s>
-0.3010 <s> SIXTY </s>
-0.3010 <s> STOP </s>
-0.3010 <s> TEN </s>
-0.3010 <s> THIRTEEN </s>
-0.3010 <s> THIRTY </s>
-0.7782 <s> THREE </s>
-0.7782 <s> THREE QUARTER
-0.7782 <s> THREE QUARTERS
-0.3010 <s> TOM </s>
-1.0000 <s> TURN AROUND
-0.6990 <s> TURN LEFT
-0.6990 <s> TURN RIGHT
-0.3010 <s> TWELVE </s>
-0.3010 <s> TWENTY </s>
-0.3010 <s> TWO </s>
-0.3010 <s> WANDER AROUND
-0.3010 <s> WHAT ARE
-0.3010 <s> YOU ARE
-0.3010 A COLOR WINDOW
-0.3010 A GREY WINDOW
-0.3010 AND EIGHTY DEGREES
-0.3010 AND THEN </s>
-0.3010 ARE LOST </s>
-0.7782 ARE YOU DOING
-0.7782 ARE YOU LISTENING
-0.7782 ARE YOU READY
-0.3010 BACKWARD FIVE METERS
-0.3010 BACKWARD ONE METER
-0.3010 BACKWARD TWO METERS
-0.3010 BYE BYE </s>
-0.3010 CHASE THE </s>
-0.3010 COLOR WINDOW </s>
-0.6021 DISPLAY A COLOR
-0.6021 DISPLAY A GREY
-0.3010 DO YOU UNDERSTAND
-0.3010 EIGHTY DEGREES </s>
-0.3010 FIFTEEN DEGREES </s>
-0.3010 FIND THE </s>
-0.3010 FIVE DEGREES </s>
-0.3010 FIVE METERS </s>
-0.7782 FORTY FIVE </s>
-0.4771 FORTY FIVE DEGREES
-0.3010 FORWARD FIVE METERS
-0.6021 FORWARD ONE HALF
-0.6021 FORWARD ONE METER
-0.3010 FORWARD SEVEN METERS
-0.3010 FORWARD TEN METERS
-0.3010 FORWARD THREE METERS
-0.3010 FORWARD TWO METERS
-0.9031 GO BACKWARD </s>
-0.9031 GO BACKWARD FIVE
-0.9031 GO BACKWARD ONE
-0.9031 GO BACKWARD TWO
-0.3010 GO BACKWARDS </s>
-1.2041 GO FORWARD </s>
-1.2041 GO FORWARD FIVE
-0.9031 GO FORWARD ONE
-1.2041 GO FORWARD SEVEN
-1.2041 GO FORWARD TEN
-1.2041 GO FORWARD THREE
-1.2041 GO FORWARD TWO
-0.3010 GO HOME </s>
-0.6021 GO TO </s>
-0.6021 GO TO THE
-0.3010 GREY WINDOW </s>
-0.3010 GUARD THE </s>
-0.3010 HALF METER </s>
-0.3010 HUNDRED AND EIGHTY
-0.3010 LEFT FORTY FIVE
-0.3010 LEFT MINUS NINETY
-0.3010 LEFT NINETY DEGREES
-0.3010 LEFT ONE EIGHTY
-0.3010 MINUS NINETY DEGREES
-0.3010 MINUS THIRTY DEGREES
-0.3010 NINETY DEGREES </s>
-0.3010 ONE EIGHTY DEGREES
-0.6021 ONE HALF </s>
-0.6021 ONE HALF METER
-0.3010 ONE HUNDRED AND
-0.3010 ONE METER </s>
-0.3010 ONE QUARTER </s>
-0.3010 RIGHT FIFTEEN DEGREES
-0.3010 RIGHT FORTY FIVE
-0.3010 RIGHT MINUS THIRTY
-0.3010 RIGHT ONE HUNDRED
-0.3010 RIGHT TEN DEGREES
-0.7782 ROTATE LEFT FORTY
-0.7782 ROTATE LEFT MINUS
-0.7782 ROTATE LEFT ONE
-0.9031 ROTATE RIGHT FIFTEEN
-0.9031 ROTATE RIGHT MINUS
-0.9031 ROTATE RIGHT ONE
-0.9031 ROTATE RIGHT TEN
-0.3010 SAY BYE BYE
-0.3010 SAY HELLO </s>
-0.3010 SEVEN METERS </s>
-0.3010 TEN DEGREES </s>
-0.3010 TEN METERS </s>
-0.3010 THE LAB </s>
-0.3010 THIRTY DEGREES </s>
-0.3010 THREE METERS </s>
-0.3010 THREE QUARTER </s>
-0.3010 THREE QUARTERS </s>
-0.3010 TO THE LAB
-0.3010 TURN AROUND </s>
-0.6021 TURN LEFT </s>
-0.6021 TURN LEFT NINETY
-0.6021 TURN RIGHT </s>
-0.6021 TURN RIGHT FORTY
-0.3010 TWO METERS </s>
-0.3010 WANDER AROUND </s>
-0.3010 WHAT ARE YOU
-0.3010 YOU ARE LOST
-0.3010 YOU DOING </s>
-0.3010 YOU LISTENING </s>
-0.3010 YOU READY </s>
-0.3010 YOU UNDERSTAND </s>

\end\
